solver_type L2R_L2LOSS_SVR_DUAL
nr_class 2
nr_feature 17337
bias -1
w
-1.826823419028953e-05 
-3.343202740735414e-05 
0.0001912227382623601 
9.289299526896677e-05 
-1.900619916090222e-05 
-1.932658798382181e-05 
-0.0003927067848922531 
-4.235965706716177e-05 
0.000550733245002406 
-0.0002739615550063902 
-2.557593873403563e-05 
3.606338623807272e-05 
2.763240858803821e-05 
-0.0003445862816108093 
0.0002202469588351434 
-0.0002128775348081393 
-0.0001466082616383505 
-6.23129438379367e-05 
0.0001633159875037075 
1.093976939002103e-05 
0.0001706581798158495 
6.533181562236373e-05 
-0.0001276238487403079 
0.0003629069033903677 
4.42970844138025e-05 
0.0001673389513370835 
-8.508777273574283e-05 
-0.0001693584138840321 
-2.541157208527733e-05 
0.0002047724833338919 
-3.652678196821157e-05 
-0.0001969782945376593 
8.668191209311365e-05 
-0.0001357765363907172 
0.0003201535723664456 
-6.696680070691263e-05 
-1.545505034618267e-05 
0.0002490779639968855 
-7.148379048123263e-05 
-0.0002164059833640131 
2.294891585060587e-05 
2.782843319554362e-05 
2.67093262629755e-05 
8.28065871362724e-05 
-0.0001398642937814918 
3.637832425276733e-05 
-0.0001185561966387086 
2.981353903128229e-05 
-1.865087765307941e-05 
-3.234575903073421e-05 
-5.652970617803373e-05 
-0.0001736861195936655 
0.0001319277569742691 
-0.0001643645623746346 
0.0001015931219843785 
4.307634430430995e-05 
0.000150390028373623 
-0.0002913639735146754 
3.8446099011315e-06 
0.0002022013258020401 
-0.000157607869227922 
-5.268586992034755e-05 
0.0002926390881627574 
-1.99832437726395e-05 
-0.0001560390736699945 
4.939478364785209e-05 
8.337901017217777e-05 
0.0001509952995579944 
-0.0001345547892550093 
6.373214364665237e-05 
-7.13690222060748e-06 
2.94589568853923e-05 
-0.0001172486958002606 
1.916995225410435e-06 
-7.023465353159704e-05 
-6.550590233207868e-05 
-0.000124840653790221 
-0.0002823407463968027 
0.000151412474486264 
0.0001854010583633462 
-0.0002363366585182939 
0.0004081652508830793 
-0.0002499623822840722 
0.000291116777422507 
0.0001454284515217889 
-0.0001969110136597141 
1.222025497904787e-06 
0.0001070624421632869 
9.85258782637644e-05 
2.794847253506779e-05 
-5.471622899510114e-05 
-5.564686633370785e-05 
-0.0002410055131435828 
0.0002910046711755769 
-5.137668703381772e-06 
-1.220272610023577e-05 
-2.777850488967499e-05 
-6.495560435098659e-06 
-7.398900883287023e-06 
-4.520940906034542e-06 
8.943717690175567e-05 
1.388392584747941e-05 
-2.286968176814869e-05 
-4.980992805957702e-05 
-4.098830443468515e-05 
-3.524373410083063e-05 
-9.698384716500608e-06 
-0.0001959794251415248 
0.0001026982494329713 
-0.0001068195772328121 
-4.363706266878301e-05 
0.0001072095151263825 
1.491120998289389e-05 
0.0001543633823986206 
-0.0002370741793446534 
-2.416058688807796e-05 
0.0001736249685974512 
-8.099209836582724e-06 
7.624266127935455e-05 
-0.0001757569091749191 
1.076807978029876e-05 
-0.0002108270835416472 
-1.537691156296905e-05 
0.0001318051364917699 
6.365374690000912e-05 
8.826801199042767e-05 
0.0002546115872986803 
1.740145027111862e-05 
-0.0003509783696456952 
-5.232298195738602e-05 
4.299155362513459e-05 
4.233690541740598e-06 
-3.88058599900386e-06 
-0.000151028677153989 
0.0002179318400753162 
0.0001179966344369345 
-8.43433884843462e-05 
6.240647993711467e-05 
-1.224719732065668e-05 
-8.130306843566054e-05 
-0.0001114718910769864 
3.67326910322372e-06 
1.180277374389802e-05 
-4.228968901039899e-05 
-0.0001350875101201047 
0.0001305702673388453 
-5.159325823628921e-05 
0.0001030297851920043 
0.000274974744647659 
0.0001933374047971683 
-1.406049025648e-05 
0.0002041126159299191 
-4.035971677460828e-05 
0.0002334419975413521 
-0.0001539524903766168 
-6.049810012799195e-05 
3.924021708748953e-05 
-5.591186108445718e-05 
-0.000165931830806173 
3.862049582451106e-06 
-0.0001632293250422487 
-1.068917188684045e-05 
3.210323580908394e-06 
0.0001171860745098479 
3.787833340411189e-06 
-0.0001302028944001585 
2.717156004213399e-05 
6.427932569430596e-05 
-0.0002889749255041506 
0.0002410515829882808 
-6.228934867467504e-05 
-5.538446741264964e-05 
-0.0001760410165779618 
-1.177451718485605e-07 
-4.294932505131856e-05 
9.712049121404267e-05 
-5.162253626492181e-05 
-2.938243442027605e-05 
-0.0001334344912592223 
-4.643102993308637e-05 
-0.0001040356842737635 
0.0002550223718756094 
-0.0001251044676562946 
6.063597691389579e-05 
-8.161438955971507e-05 
-0.0002206153524014461 
2.831595100105758e-05 
5.853317721535044e-05 
0.0007034662705651338 
8.637208003982657e-05 
9.863662963781485e-05 
-4.63268264146444e-05 
0.0001086089445272624 
1.845909092822906e-05 
-1.700824551256084e-05 
-4.757721093321464e-05 
1.96346869110794e-05 
3.989782795337199e-05 
-2.946914468931454e-06 
-0.0001775597539361351 
-9.459210940339368e-05 
2.636731591534193e-05 
4.573073372640556e-05 
-0.0002060369882575051 
4.282652620035191e-05 
-2.379144012341677e-05 
-0.00024441770480976 
2.674353195644761e-05 
-0.0001923078333543989 
7.47581667544764e-05 
0.0004069962942973835 
0.0001397517557374264 
5.996101384839241e-05 
-3.309199411187329e-05 
0.0002729925648555547 
3.869377719676758e-05 
-3.266707937006508e-05 
-0.0001352663144444 
1.857306160678792e-05 
-0.0002469233911818063 
-1.208723620862506e-05 
0.0002260338339835768 
-7.135267923485471e-05 
4.79419856654954e-05 
-2.42320758172157e-05 
-2.229517718777693e-05 
0.000406249865161125 
-5.363733457596699e-05 
-7.650725731803329e-05 
-9.090119797989017e-05 
-3.949767874296368e-05 
7.192491885540065e-05 
5.296012341729585e-05 
0.0001043117916514208 
-0.0001500980907567724 
4.696177730060536e-05 
-5.645287903067278e-05 
6.440296441341141e-06 
-8.152469389703904e-05 
-2.13852758872957e-05 
0.0003889490172284923 
-4.003619977908319e-05 
0.0002052369657352649 
-4.314341426152138e-05 
-8.569035175769384e-05 
-0.0002492999525826959 
0.000373269053228707 
-0.0001267886377060689 
-2.961037053602465e-05 
-5.850484592415733e-05 
5.605189084630718e-06 
-0.0001923404138857465 
-0.000152807956362541 
-0.0005356496400681047 
0.0002894226994016768 
0.0002554159632647106 
6.404776184003289e-05 
-4.742182014977719e-05 
5.771842692392122e-05 
0.0002958530313095798 
5.776567226980399e-05 
2.144388802573442e-06 
0.0001955290704801051 
-8.512830558456738e-05 
-0.0005080667947691817 
0.0001571686014636801 
-7.491797550790145e-05 
-0.0002399430909222065 
0.0005593863159320583 
0.000968752423718519 
-0.0001058415997108832 
-0.0003268089232993876 
-0.0001175587234625924 
0.0003443037571665672 
1.310717996732957e-05 
-2.02675431065331e-05 
-1.166580191926406e-05 
3.65762257397715e-05 
3.659674734033879e-06 
0.0002477819501356112 
-0.0003034018165016202 
-0.0002986732947223072 
0.0003057174512047106 
-5.040590841720096e-06 
-1.023902954724134e-05 
3.982821876568337e-05 
-0.0008904182147482928 
-0.000227602408947113 
-8.594314214618022e-05 
0.0001733392127836661 
1.594572325998333e-05 
3.517312304685663e-05 
0.0005475493843384103 
5.129514436269332e-05 
-3.739009717159112e-05 
0.0002134659603702714 
-5.666514400983635e-05 
1.352788430885515e-05 
1.566864448369249e-05 
2.094297328775922e-06 
2.8097377342632e-05 
3.047831636781489e-05 
7.066951905626243e-05 
2.51177289361562e-06 
-4.684899809126754e-06 
-0.0001737669987198251 
0.0004021081833168748 
-0.0003353115708306599 
-0.0004481657977886916 
0.0008232158108253371 
0.0004924294468694871 
-0.0004304423410921699 
-0.0004399778865430224 
9.292503080121413e-05 
-3.093512548988613e-05 
-7.508166174722782e-05 
-0.0007420200324143889 
-5.887060907208805e-05 
6.233907965171966e-06 
-2.112921617351922e-05 
-5.837515107393015e-05 
8.175890826694501e-05 
5.572636857410343e-05 
0.0001189194819599607 
-2.016035252003927e-05 
-0.0007369951091365108 
1.591897562109453e-05 
0.0002641253786150425 
0.0001270888844534673 
-0.000253967415710289 
0.000160791049967967 
-6.934732946766398e-05 
-1.871180585632509e-05 
0.000291710310267601 
4.529538850206232e-05 
-0.0001199185974587372 
0.0001709642242216723 
9.757711782988191e-05 
0.0001899854739599775 
0.0001814286203295414 
2.043318403902484e-05 
-0.0001361820388251488 
4.623596926369872e-06 
0.0003011338301790227 
0.0008579730858018155 
-0.0006947886748156169 
0.0001567929398881487 
-0.0005182023416773137 
0.0005143483486806785 
-0.0003674303786986001 
-0.0008426246663963518 
0.0002564529102655495 
0.0009852880079318773 
-0.0002743997474551652 
6.102160681362928e-05 
-0.000382969681339529 
0.0002228174288289625 
-0.000176972471561856 
-0.001531002535120676 
0.0003534837759353206 
1.610610270280006e-05 
0.000446150526280804 
2.273704081486401e-05 
5.336756329885206e-05 
-2.474569475826475e-05 
0.0001387978559997085 
-5.378855992490949e-06 
4.235839422693362e-05 
0.0001266062240003048 
-5.559271451307452e-05 
-0.0001381599747193361 
-0.0001523701189366495 
-0.0002665339519529153 
-6.595395114507937e-05 
2.643550207762468e-05 
-2.178285669536493e-05 
0.0001739122185900442 
-6.81844661120663e-06 
8.855846138254469e-06 
9.94915359573136e-05 
2.828111223742809e-05 
0.000354080298647171 
1.923417703313593e-05 
-1.098314765093688e-05 
-1.053195456328756e-05 
-2.903150493595039e-06 
5.255089769402171e-05 
-2.482791184356673e-05 
0.0002375203139154379 
0.0001696744856701671 
7.278012029456059e-05 
-0.0001254781266669315 
-0.0003192623917540593 
-6.540160435439188e-05 
9.826840834231324e-05 
-3.653893918375515e-05 
-0.0001634894448653852 
7.13021216401794e-05 
9.897533537921072e-05 
-0.0001008323059435717 
0.0001742975023732057 
0.0006230819784063371 
0.0001170045056504959 
0.0001039771279237499 
-0.0009002956129665373 
0.0002921725857934448 
0.0003271192061066689 
0.0003103849910366254 
-0.001217198170515238 
-8.696644923911033e-05 
-0.0003487481986499692 
-0.0001921059532461542 
0.0003966326818304553 
0.0003187561079046379 
0.00021740920868839 
-1.534332072653926e-05 
-1.489337733436497e-05 
5.557871095714923e-05 
-2.238789873636504e-05 
7.574051146379237e-05 
4.698063095679204e-05 
7.21783813138566e-05 
0.0002076951443506211 
2.356966890412082e-05 
2.446619384462938e-05 
-2.944794637951306e-05 
-9.83198841615454e-05 
7.813631651676793e-05 
1.543309905675592e-05 
-0.0001346165754597035 
-0.0001725459292680233 
0.0001621506757559684 
0.000133918577697186 
0.0004515900801314707 
-0.0002153561589348199 
-0.0007798266944752102 
-0.000885562884547423 
2.232080248541314e-05 
0.0004994647189690905 
-0.0002188781849081601 
-6.37016404297391e-06 
-1.95605610302234e-05 
-8.999088639367275e-05 
0.0001833966928478805 
0.0003307856910108865 
9.220609520796024e-05 
0.00030383269164161 
0.0002781473072272122 
-0.0008708533176351568 
-0.0005198237895404253 
0.0004168399911557953 
3.412885007248164e-05 
0.0002074229360345428 
0.000176752265511383 
-0.0005450781869060783 
-8.060878253141152e-06 
-0.0001249838679333197 
0.0003356984585985087 
9.475429428032824e-05 
8.192273366229835e-05 
-0.0002566190361450752 
-0.0002160449622855781 
-0.0002916420386461911 
9.452487287736653e-05 
0.0002567456314967038 
8.70321662586993e-05 
-0.0002681598249952944 
0.0001504600713477305 
2.317616604780817e-05 
5.141460977311101e-05 
3.047831636781489e-05 
3.25861619127457e-05 
-1.57116255457153e-05 
2.732435395726811e-05 
0.0001490790090394916 
4.496030620443774e-05 
5.295166119321717e-05 
0.0001009315167560923 
0.0004659900648243344 
-0.00013963474204066 
-1.326211219211273e-05 
0.0003613469595604066 
0.0001582359714713565 
0.0002434843393456374 
-0.001716219845961972 
0.0001326900087131074 
-0.0004775247288854801 
-0.0005425966086649872 
2.97798295810123e-05 
1.389488513307296e-05 
2.645189377202728e-05 
1.145209790228673e-05 
0.0004559380663376114 
-0.0001007109255385536 
4.934562628147991e-05 
2.678776318934286e-05 
2.591109201287001e-05 
8.690236368184888e-05 
5.81748625446972e-05 
-4.182756420755455e-05 
6.508267033436627e-05 
3.255903193641046e-05 
-0.0001469291319482681 
-5.084336882916674e-07 
9.043262011573157e-05 
-5.436052842994697e-05 
-2.575241719060235e-06 
4.653681870871349e-06 
0.001116285291545317 
3.09438432891418e-05 
0.000292141181371705 
0.001204415521519169 
-0.0001083612510122165 
-0.001087180194209104 
-5.773677710746319e-05 
4.052830698558234e-05 
-2.12148378356955e-05 
-0.001375328690019706 
-0.0007377994131825597 
0.0002868030547066198 
0.0002084326195037192 
-9.246091491299939e-07 
5.960307667419627e-05 
0.0002808427279606177 
-3.598230076416515e-05 
2.067053501613205e-05 
8.33762948464491e-05 
7.87647752782268e-05 
0.00012657870923918 
9.525110766434356e-05 
0.0001786875785883688 
-0.0001045283409962741 
4.166273701897543e-05 
2.759066475931001e-05 
5.894579971812909e-05 
0.0001167667434398499 
0.0003260434710892864 
1.584926241031039e-05 
5.687088858420599e-05 
0.0002388398332574385 
-3.902667712054589e-05 
2.648672942262804e-05 
7.141687042753312e-05 
-9.147278109844595e-05 
-1.641749285102227e-05 
0.000374320876585997 
-0.0005080274930819693 
-5.709038452644365e-05 
6.134209650057611e-05 
2.28466726800838e-05 
5.784266234611775e-05 
-9.764304011557385e-05 
0.0003446108729201328 
-0.0004027211361209285 
-9.740004674118844e-06 
0.0002071686149857861 
0.001162164711729121 
0.000304332871170853 
-0.0001879287127214637 
-6.292364094471109e-05 
6.78183341140437e-05 
0.0002065159718241724 
2.168245357633832e-05 
-0.0004093905261769132 
0.0001114489367055254 
-0.001583567360301448 
3.724047329979886e-06 
0.0001027022241445796 
7.12701166135691e-05 
1.210107499116236e-05 
3.246145223871088e-05 
0.0001089679029053434 
-7.94062446534856e-05 
0.000299093193833444 
1.025794678439647e-05 
-0.0001534877060862423 
0.0004963890116986332 
-0.0007624313342527598 
-0.001125558423194405 
0.001230468160958155 
-0.0006252531215844342 
-2.441297033042469e-05 
-0.0006961857477852576 
-4.351671486067901e-05 
0.0002520130431735411 
0.0002922489638748762 
0.0004908165676077992 
1.941504219584222e-05 
-0.0002928143434024103 
-0.0001801401951878503 
-8.006582013806193e-05 
2.392683145025296e-05 
8.107177026935685e-05 
0.000333585401830876 
0.0001396380924092018 
-7.446995952287212e-05 
-0.0001851429952730549 
0.00110334626851881 
-9.999342987191598e-05 
8.089828462092463e-05 
-0.0001013619247757917 
-2.302448852063207e-05 
-2.093440991560015e-06 
-2.508951336759008e-05 
1.34020170314864e-05 
7.422540057261208e-06 
6.74435016234449e-06 
-0.0002708812569501572 
1.670828364396158e-05 
0.0004172627639971787 
0.0003878734907130917 
-0.0006723691018477078 
0.0003878033360741207 
-0.002090190749742591 
0.0001043840426571154 
0.000353142751209282 
-4.08148620623071e-05 
4.561296721026822e-05 
4.116605823978606e-05 
-1.919668633949582e-05 
0.0002692902948338886 
-2.587672837565633e-05 
0.0005379159650382707 
0.000184456120854984 
-1.887233550541082e-05 
2.232217613606644e-05 
9.059185047203862e-05 
-3.405057813203411e-05 
-1.685820903962341e-05 
8.087707630623572e-05 
5.641494478851469e-05 
4.867137593891404e-05 
1.83005711070974e-05 
2.208272237770032e-05 
1.442713511276351e-05 
6.171788012023038e-05 
0.0001706849994400124 
-3.968526029704905e-05 
-2.656682126609811e-05 
-5.93662217412633e-05 
4.924172398161772e-05 
-1.06555021179417e-06 
-1.321364817934813e-05 
1.016098604657977e-05 
1.654974405058695e-06 
4.959379914398806e-06 
1.724732611475617e-05 
0.0003599425289873794 
2.93229188510092e-05 
4.394228241925634e-05 
4.351534321757282e-05 
1.955290782119761e-06 
-1.358715829391733e-05 
7.29649083028851e-05 
-5.915414627127914e-05 
0.000160388645725944 
0.0001392530619208153 
0.0003187202105912016 
0.0001680679806092047 
6.639338972723525e-05 
-0.0001101502989125664 
-0.0001432324163288384 
-3.418265642084045e-05 
0.0004347347950335496 
0.0001296640800804859 
5.038703920359805e-06 
0.000303078855418867 
-0.002247734241136303 
-9.159170134584632e-05 
-1.001634559783279e-05 
0.0004993912151029529 
0.0003341046347046745 
0.0001944758549568337 
0.0005535438529460661 
7.026908166138966e-05 
-4.537183884835422e-05 
0.0002287158088606385 
-0.001008917215573584 
-5.162352022936977e-05 
-0.0003690259310315584 
-0.000766854311242055 
-0.000651585586627996 
-0.0003102054804576541 
7.733620532192359e-05 
0.0001894042275596831 
-5.559492480580959e-05 
0.0002178120956868196 
2.648392085996278e-05 
2.995469919917507e-05 
1.089265426501163e-05 
5.772409563996092e-06 
7.275359987519935e-05 
0.0005220612723601972 
0.0002216715841852446 
-3.973890412885335e-05 
0.0002875540341838006 
0.0001935048791959659 
0.0001293408955165234 
2.11622511145392e-05 
2.948038601781528e-05 
7.224497466513102e-07 
1.351642540746776e-05 
-5.52712935309461e-05 
0.000475567522892649 
-0.0003781507802723809 
2.06838378937904e-06 
0.0005263917990597622 
8.112461387531727e-05 
0.0001467884928965027 
0.0001682836632356778 
6.122920722313319e-05 
7.278672029411288e-07 
2.392683145025296e-05 
-3.92309797870292e-05 
1.302024318158471e-05 
-8.677300785263933e-06 
6.5991703701436e-05 
1.4999145766428e-05 
5.58693472249642e-06 
-1.27579768653919e-05 
5.741738796626422e-06 
-0.0003407775140586024 
3.512480137600092e-05 
0.0005634824010416649 
0.0004369391267280511 
1.026438854388829e-06 
4.647742109562913e-05 
-0.0002373049626385807 
0.0005622045967990998 
-0.001061694442435246 
-0.001375832143101912 
-0.0002102429914554505 
-0.0001565855826010491 
-8.55342829439624e-06 
0.0006694493853196848 
4.088443275221576e-05 
1.495714594815226e-06 
3.342919280668968e-05 
0.0003658742609077661 
3.829472872134477e-05 
0.0001315376358866477 
7.628372730203229e-06 
0.0002378893342844115 
0.0001214189177848672 
-0.0003584564205826706 
0.0004983474812362988 
-7.98505838278457e-05 
0.0006696569673184718 
-4.551739513541442e-05 
-1.434940209974992e-05 
0.0008340130337751533 
0.0003055984757911333 
-0.0007539508443969174 
-0.0002703354927518498 
-7.464743206555851e-05 
-0.002036327886324982 
6.433484843073585e-05 
-0.0002431326777601125 
-5.514779193338025e-05 
-2.344517356952159e-05 
5.915049687163965e-05 
-0.0001529132617074688 
0.0005961171683901768 
0.0001558196472118935 
8.801814332795599e-06 
1.412605504161178e-05 
-8.495637088002861e-05 
-0.0005734888250790852 
0.0003639128711796412 
-0.000890289635366611 
-0.0008279936905940128 
-0.0005260293117565265 
0.001370265103461115 
-0.0005363511297300976 
-0.0001824045334491208 
0.0003739666505672822 
9.784320662337949e-05 
3.87308848199734e-05 
-0.0001152412209117968 
-0.0001606620640394029 
0.0001958327013530443 
5.784211678842252e-05 
0.000199142130049612 
-5.453572608144078e-05 
1.767420602481616e-05 
1.34805090486671e-05 
-0.0001111820270709796 
-0.0001545321556039588 
0.0006657141434157072 
-3.206242365587664e-05 
0.0003194608801164636 
0.0001563774037235502 
6.75094818466344e-05 
4.819579724360698e-05 
-8.65917750723002e-05 
0.0001102168539735722 
0.0001645755583914154 
0.0001519246073777312 
0.0001920352639850676 
-0.0009985961923520722 
-0.0005599247419563053 
0.0002273918409658239 
0.0002856281653167294 
0.0001542370383279382 
-0.0003151235350153131 
0.0002563833906891084 
-0.0003264888005195589 
0.0004138491590242008 
-0.0004751230524688293 
-4.560308791545072e-05 
-0.0001079144500955595 
0.0009615697180781554 
8.542651379988138e-05 
-0.0004603081581527576 
1.214785760310199e-05 
1.926828784209575e-05 
2.366468253378444e-05 
3.459369735524094e-05 
0.0001092811794732309 
-3.599943345890627e-05 
-2.406873252628614e-05 
-8.174231588360315e-06 
0.0001039078511845204 
0.000186392961417057 
-8.371734402263994e-05 
8.557443222948411e-05 
7.199052703583978e-05 
4.57142693126149e-05 
4.875698485909339e-05 
0.0001995721557524644 
2.196391840207207e-05 
3.324297980462763e-05 
0.0006033645819556202 
1.543928035954013e-05 
-1.853161685592585e-06 
8.309109743520734e-05 
-2.383243442261739e-05 
-6.810117426136166e-06 
1.352482531101615e-05 
2.654758413747191e-05 
1.388001180660631e-06 
1.879410462183186e-07 
6.836710228391433e-05 
0.0001609368189871937 
1.197166475427504e-05 
-6.648186802633291e-06 
0.0002745457606373284 
-3.708985400556964e-05 
3.395194535361512e-05 
0.0001492678246377831 
3.694635992390265e-05 
-0.0001189195360743524 
2.761228731797028e-05 
9.35779515799532e-05 
-0.000474507131295071 
0.001253417013839734 
-0.0008319300976175921 
0.0001186882114033813 
6.777982048492412e-05 
-0.0009567908977585279 
-0.000591614116049072 
3.052677901417595e-05 
-0.0001724699920346411 
0.0001007738709375211 
7.368757818019446e-05 
0.0001844326313254053 
-0.0001605990352540343 
1.870338950355845e-06 
-0.0004331193978334387 
0.0002027714812906712 
-0.0001169157173146516 
-0.0009791124404292559 
0.0001479890083544983 
-0.0005852885939897799 
0.0001652523252659726 
0.0001849989062071678 
8.681945764694437e-05 
-7.777850137529863e-05 
1.556145102967341e-05 
-0.0001609159506435841 
0.0003778548779288568 
9.668202893936088e-05 
3.463848170242821e-05 
0.0001085583926153918 
-4.78405333463757e-05 
2.689122320858511e-05 
0.0001149716553050046 
0.0001863766050689909 
7.20838758737693e-05 
0.0001602062799046424 
0.0001931718089917075 
0.0002515740086917534 
-1.936179298610481e-05 
4.257988450166573e-05 
7.056602726819141e-05 
0.0001630532419098925 
4.700472831845626e-05 
3.189296160325678e-05 
-1.092617483032206e-05 
9.399134768821232e-05 
2.447346060543908e-05 
-4.189450808614711e-05 
0.0004014126804458718 
0.0001372112803229724 
3.856383561220691e-05 
4.691792310739255e-05 
4.607436437495139e-05 
-2.19510790902695e-06 
0.0001701490835351589 
-3.5793849027624e-06 
-0.0001307589883901448 
-0.0004060366988581264 
-1.777115074620009e-05 
0.0004704582659223753 
-0.0003004904172425455 
-0.0001436716907936412 
-0.0005415439719756428 
0.0002423373061590233 
8.30116239086012e-07 
-0.0001273276546349895 
0.0001984848714036055 
-0.0008123735830919304 
0.0006624030839441809 
-9.711509881175521e-05 
0.0005085153148301874 
-0.0006423112463038217 
-0.0002066617314260958 
-0.0001661464752344167 
3.943642553356684e-05 
6.641760313317644e-05 
1.704174512267109e-05 
6.575513308607505e-05 
-1.204267399988339e-05 
-7.021095474842134e-07 
1.441966477038027e-05 
0.0003314807404538354 
0.0002202961408358767 
-9.694996840006745e-06 
-0.0001256552945617862 
0.0007539681179422382 
0.0002196941493036468 
6.498168899258711e-05 
0.0001708397232021448 
3.785955022309603e-05 
1.322277445770495e-05 
-0.0001054450858532631 
5.035424293776951e-05 
0.0002948490938338146 
-0.0001328443873642776 
0.0001402960117927492 
-0.0005580328243971724 
0.0001673623647518526 
0.0004954361613093727 
-0.0004966545505797332 
-3.044951984788364e-05 
3.991573674741304e-05 
0.0001041508188171607 
-0.001387104020881733 
3.452946281428543e-05 
-4.440530809333965e-05 
2.171682623918819e-05 
4.665947077423087e-05 
-3.925305466531839e-06 
-0.0001583648831700636 
0.0001692255521571466 
9.166716985042354e-05 
0.000161916676291381 
8.587544297988239e-05 
1.436621320268489e-05 
9.837044079349011e-06 
0.0001143288107036163 
8.298253144415599e-05 
0.0003591060579608597 
0.0004317717768068073 
1.998104748512527e-05 
-0.0005677935346226656 
-0.0009555306524297547 
-0.0001904335774622354 
0.0002894421050248905 
-5.793554049234923e-05 
2.687149928144791e-05 
3.909466370630892e-05 
-3.530351219774713e-05 
-0.0004795422957193813 
-0.000643382969395264 
0.001463337229784644 
6.89592247656508e-05 
-0.0002317928176270109 
-0.0001090768202471762 
2.216262828485464e-05 
-0.0001281854129842296 
3.493611503204626e-06 
0.0003353747442352939 
0.0003197896099347617 
9.655191752576669e-06 
4.818257039534325e-05 
0.000100583317898892 
0.0001070445742974157 
0.0001099184489392699 
-0.0001365897380810018 
-0.000194608636126629 
7.137346602779339e-05 
0.0002102928430295582 
0.0001209085522152345 
0.0001610087265744611 
0.0001189029392727808 
0.0002849832962213732 
7.343722919877538e-05 
-4.116279242680961e-05 
-0.0008725824247806785 
9.760433582862111e-05 
-0.0001216645165321672 
7.765759382778758e-06 
-0.0003091431023904341 
-6.284606781057484e-05 
-0.0006935523825920387 
3.5811211504878e-05 
3.918887526247862e-05 
-0.0002004961463717013 
-0.0007162274650808688 
0.0009044253541151964 
0.0003936582442998469 
0.0003509349600905013 
-4.156905214229569e-05 
1.715426184682292e-06 
6.919052611493933e-06 
3.747202854168501e-06 
-2.301929069483557e-05 
0.0003930239365191886 
-2.47944366156044e-05 
-9.869289233176808e-05 
-0.0001104728652631295 
-2.432470815332721e-05 
3.646283021612179e-05 
5.256115279204037e-06 
0.000123862814133996 
4.597208943576421e-05 
1.359206833049599e-05 
0.0001108061480717103 
9.302096214566189e-05 
-1.359409490647376e-05 
-0.0001198584659300514 
-0.0002022873333789892 
-0.0002892096891147484 
-0.0006341727049122796 
-0.0001861537130483706 
-6.32257760581758e-05 
0.001038264657802064 
0.0002088072671379196 
-0.0009260221260930417 
-0.0001912585223267942 
0.0005290432422754926 
0.0001213783170202215 
-5.780720242538985e-05 
0.0003713975226387837 
1.802102281225403e-05 
-0.0001254013762488941 
-7.692816784019882e-05 
-6.094191943999454e-05 
-6.049970723836223e-05 
3.210975348552525e-05 
2.187319627517132e-05 
3.161075893354522e-05 
9.687754778349956e-05 
7.728991166601011e-05 
0.000206265123483511 
6.776480396869114e-06 
1.603101792436665e-05 
-1.819176978105502e-05 
0.000139004989079783 
-0.0001776909529678674 
-0.0004601218192093423 
0.0001215513613993503 
7.617922283200262e-05 
-0.0004199330883454264 
0.0001304338024058668 
0.0004551182077409063 
0.0006011520228797791 
-0.0004058065042548996 
-6.766112677652723e-05 
-4.053497511516373e-06 
-9.883561449098014e-05 
4.611499229000058e-05 
3.633261591816812e-05 
-0.0002344251432918682 
-0.0001973046458350509 
-1.815570080983011e-06 
0.0001484196732440676 
0.0002803797273554145 
6.690496848776688e-05 
9.734502506549917e-05 
-3.265561833692281e-05 
8.767677141350063e-05 
-8.094706204903087e-05 
-1.414469254945645e-05 
-3.289523969576893e-05 
-6.12104057001533e-05 
-0.0001466245157226676 
0.0001480545767638518 
0.000232741256727382 
-9.035608761987162e-05 
6.963479515773279e-05 
-1.92031900084948e-05 
-0.0002125558664703827 
-3.019722473261867e-05 
0.0001156065549916871 
-0.0003057156246444643 
-0.0004065614968663519 
-0.0001120288032365944 
8.693512486342416e-05 
0.000967668747204539 
3.092802132850562e-06 
-0.0003305835155885232 
6.475530163066466e-05 
1.035427074878219e-05 
-2.581832763138907e-05 
-0.0003261404847575888 
-7.377165338249279e-05 
-0.0005578029434226202 
-0.0001536901605179277 
4.24600524682146e-05 
0.0005294201349019803 
9.991556922161155e-06 
4.079400862007644e-05 
1.025948417305256e-05 
-1.895464360580475e-05 
-0.0001775726658405014 
3.454351549014779e-05 
2.912843145575185e-05 
0.0006445767257528454 
-0.0007402273019083827 
0.0008924684474307668 
-0.0005797055779566702 
-0.0001044008261191048 
1.964332239961649e-05 
4.745833946960802e-06 
-6.19868619838418e-06 
-0.0001044021598415182 
-7.071063025435487e-05 
1.22011336777163e-05 
-6.32155651633494e-06 
-4.544294358283345e-05 
2.214161678165442e-06 
-0.0002404225757985254 
2.949443916689948e-05 
-0.0001364768190019421 
0.0003333381687519177 
0.0001931607037378902 
0.0001902335867041441 
-0.0003644417687750176 
-0.0004168405004864018 
3.207273428460795e-05 
1.036981558036652e-06 
-8.837127723467094e-06 
6.011830937729759e-06 
5.51718736721796e-05 
7.382844758341828e-05 
-4.383748899754135e-05 
-9.571163014575901e-05 
0.0004016575061363394 
0.0001142515527886578 
3.864040419475863e-05 
5.389576816804125e-05 
4.39585961033676e-05 
-1.048436581542858e-07 
-7.815568295895355e-06 
-9.484413489887629e-05 
-1.630814194683577e-06 
-6.099114364252248e-05 
-8.695061200594724e-05 
-8.041943440837103e-05 
-0.000209635558349367 
-6.31462401691166e-05 
-0.0003144031527540882 
0.0001297735366436473 
0.0006146797397077323 
-0.000176230517967464 
8.205320647470656e-05 
0.000423770906367902 
7.585291082479805e-05 
-4.447124225984345e-05 
1.668103474132891e-05 
2.238075482988965e-05 
2.088732714244926e-05 
2.792607954229961e-05 
-1.328928710892148e-05 
-7.38045028308292e-06 
4.300313658223156e-05 
6.440343024546542e-05 
5.737300717313515e-05 
2.954928370016869e-06 
-3.529569060754402e-05 
-3.341642173440865e-05 
-3.910435179216652e-05 
9.892362817055709e-05 
-0.0001103021168294297 
-3.004138075255331e-05 
-0.0008528491363138515 
-4.190137726515127e-05 
-0.0003741896765143727 
6.244581617882424e-05 
-2.941370185507195e-05 
-9.117289435369634e-05 
0.0001739358966495298 
0.0003047197339618188 
-1.692951720102666e-05 
5.170514081298164e-05 
-0.000396607302837236 
-1.241785358941559e-05 
0.0001671844671848233 
-0.0001848339770663238 
-0.0001361608968566229 
0.001367125868088927 
5.141280482546727e-05 
0.0002607319947573175 
-5.452784053277404e-06 
3.67263923493055e-05 
-5.996497872826769e-05 
0.0002320290830510425 
-4.758436431618567e-05 
-0.0002808755995422061 
-1.392431660409619e-06 
3.957315989150911e-06 
1.773195910656589e-05 
2.946477844744845e-05 
-1.131494304777613e-05 
-2.387100705143915e-05 
3.731457717434243e-05 
9.395255937225916e-05 
0.000257771505887426 
-0.0001540962872941014 
-0.0001504315735355022 
-0.0001776637174976459 
0.001083454136605529 
0.0002606813073854839 
-0.0008608642452008861 
5.338518422969514e-05 
7.650551621293663e-05 
3.502059928471629e-05 
2.905998142368348e-05 
-8.473547559067988e-06 
-7.964872447417925e-05 
-0.0006017322370799366 
-1.948903834808108e-05 
0.0002386223178889065 
0.0001609670840085128 
-0.0001248436835743026 
-0.0001200027521467193 
-9.455556764476166e-05 
-0.0001071961902522085 
9.578182341518576e-05 
0.001226039334731492 
0.0001528136643869778 
5.279661107554136e-05 
-6.933619101210589e-05 
-9.629677362752713e-05 
-0.0002779793928716463 
6.895196176433895e-06 
-0.0001943112386139929 
3.943956789259102e-05 
0.0003028455360450428 
-3.702048864725955e-05 
5.651410574716191e-05 
3.636255756151743e-05 
1.31944538037794e-05 
6.896336819208365e-06 
-3.705096501515506e-05 
1.624855791267228e-05 
-0.0004112036727239223 
-6.204293942694849e-05 
-0.0003117953828350381 
3.111568242798831e-06 
-0.0001614752204126628 
-0.0001925849764184516 
-1.082039013902735e-05 
-2.36686736326922e-05 
-5.243231670851219e-05 
-3.375207968871569e-05 
-6.266805500801097e-05 
6.475347034537226e-05 
0.0001085984049166181 
0.0002273979090929239 
-3.649973325845925e-06 
1.96559793522257e-05 
-0.0002256994048404654 
-0.0001089506638707429 
2.899499930287453e-05 
-3.318636226697235e-05 
-0.0001862914906681814 
6.821322227294379e-05 
3.282600533194837e-05 
-6.872447303138978e-06 
-8.830261750298701e-05 
-8.2544335750435e-05 
-4.876357626744385e-05 
3.531681246208432e-06 
-4.147210919087096e-05 
-6.765329813968014e-05 
4.536715191626866e-05 
6.458920354461076e-06 
0.0001053198392735201 
0.000266807338697566 
-8.417208123229648e-05 
1.938659161323668e-05 
4.903791555325892e-05 
-0.0001344002336976359 
-7.573744408457308e-05 
0.000366543276990494 
-5.309172491924568e-05 
6.134636989419724e-05 
-0.000104675085403899 
-6.712450987178763e-06 
4.683419196300577e-05 
-3.312463527410843e-05 
5.055652332726047e-05 
0.0002932836301349819 
-0.0002073634733574217 
0.0001507112534325049 
0.0002929256425814109 
-6.408820731643409e-05 
-3.176792481974924e-05 
0.0002501054596269083 
-6.215351722743323e-05 
-1.164880274799884e-05 
9.751342390395729e-05 
-8.239191549475885e-05 
-7.720186455520165e-06 
2.982605753435681e-05 
-0.0001045531937973691 
-3.668716006618197e-05 
0.0003599443137496104 
1.7395493810167e-05 
5.000972228395618e-05 
-0.0001745363487646059 
-3.835921085364566e-05 
-6.984106827157886e-05 
-0.000175736833376333 
0.0001202266262845856 
-0.0004458865131513463 
-3.399623952868582e-05 
-6.486856454805967e-05 
3.247137837947992e-05 
6.686235399290187e-05 
-3.504306207453747e-05 
6.13653569042424e-05 
0.0002812110052979655 
1.507249356735948e-05 
-5.046637608424239e-05 
-0.0002562390632024171 
-3.857202784883706e-05 
-0.0002788734932880117 
-3.958388596165395e-05 
6.475656328698296e-05 
0.0001502581488358398 
0.0001451085483466264 
-5.717301363227618e-05 
-1.668505021269012e-05 
3.17693155841287e-05 
0.0001218211179533327 
-4.971671876598122e-06 
-0.0001394808999527992 
1.120428774206763e-05 
0.0003199766143019203 
0.0002074306716203486 
-6.538973621476705e-05 
-9.178223418418898e-06 
-3.389135532443723e-05 
-4.517115711627893e-05 
-0.0001760960242590881 
2.739804519195527e-05 
-0.0001941792436820783 
4.550116440544723e-05 
5.518840151482651e-05 
0.0003560589286159766 
-1.783408711872251e-05 
1.290543491335811e-05 
-5.925761289217628e-05 
-0.0002409173319681618 
3.481390312575306e-06 
-4.396016928778991e-05 
3.366441511190184e-05 
-0.0005205393114334918 
-4.363233012668207e-05 
7.764856062185463e-05 
-4.834647806916664e-05 
-2.271817223719267e-05 
-6.234428295202395e-05 
-3.145140321092436e-05 
-0.0001258935152823178 
4.555313386915563e-05 
-1.626120865025587e-05 
2.141689978648131e-05 
2.720372726139109e-05 
0.0001277836720653564 
0.0001029793735866846 
4.976349486922567e-05 
-0.0002002384046799455 
-6.557386565767594e-05 
0.0003785495364322222 
-0.0001397312134606987 
0.0001906099656294107 
0.0002360052652047592 
-4.534193957393109e-05 
4.157334351938434e-05 
-1.573459299637047e-05 
-7.538652615881454e-05 
1.248881244774624e-05 
-4.147870871450749e-06 
-1.599919721539295e-05 
6.356539340924182e-06 
-3.570180687841396e-05 
8.261768856487323e-06 
-2.710167946470796e-06 
-1.800659802909988e-05 
-0.0001078976771168372 
-8.665518198966734e-05 
-0.0001031165847253597 
-5.523306062853396e-05 
0.0001633909717926958 
-0.000128114687770657 
0.0003569077806802364 
-0.0001553918591669745 
-8.60515972345772e-05 
1.344519517375082e-05 
0.000109441883284111 
6.724615275436866e-05 
-3.814669556507745e-05 
-4.990537987738351e-05 
-2.268811677705836e-05 
0.0004068501665816581 
9.488232330806348e-06 
7.145174393701585e-05 
1.519324709564919e-05 
-0.0005290340303206861 
2.846132373166367e-05 
0.0003372820299751137 
-9.144034391706856e-05 
-0.0001549909352617083 
-5.242897915464335e-05 
-4.013620238106691e-05 
8.855401672548592e-05 
-1.175338771687778e-06 
8.735859042600034e-05 
-6.360441817438778e-06 
2.152435674150401e-05 
-1.645988284047093e-05 
2.226406098019344e-05 
0.0001044389789228571 
-2.180169325323978e-07 
7.990372521588344e-05 
-8.093956149372607e-06 
-0.0003197255614324963 
3.5418251690399e-05 
-2.13975110043333e-05 
-0.00014949588182998 
-0.0001267914489401295 
-6.882228361946454e-06 
0.0001327703600540425 
0.0001344891897722771 
0.0004153594908801069 
9.797629181092683e-05 
0.0001422532020255287 
-0.0001068201477744853 
7.512230798727813e-05 
7.126621740117675e-05 
-4.710581471978722e-05 
-0.0006327404201252601 
0.0003499082874941581 
-2.068201259146726e-05 
4.729003622272113e-05 
2.916206372483129e-05 
-7.955062849103426e-05 
0.0001027727726643694 
-1.539304552691675e-05 
2.640527465442001e-05 
-3.472526097846559e-05 
-0.000246602304989426 
-0.0002070043549195595 
3.237822746757051e-06 
-2.038930408090782e-05 
0.0001225725616037226 
-6.934997854093595e-05 
1.701097810798764e-06 
-3.61476853226899e-05 
-7.742453724980074e-06 
9.84628286910478e-05 
-3.593320988043272e-06 
-2.280303512691479e-05 
0.0002546351162219129 
-0.000236100655791416 
-0.0001535836235376297 
0.0004113383661856956 
-0.0002552343615833238 
-0.0003140549535856575 
0.0002382494708325152 
0.0002024736964404174 
0.0002932146931431021 
-5.556639972601709e-05 
-0.0001498466758255007 
0.0001731984711019768 
4.543665416518602e-05 
-1.570948394356376e-05 
-1.315987556507981e-05 
-9.359344975012302e-05 
-9.06527343543003e-06 
-5.196282499138204e-06 
2.737462721914395e-05 
-6.104262224918121e-05 
9.168845727886066e-05 
-9.683005615201611e-05 
1.664385126865182e-05 
0.0003481239174203133 
8.087665872001193e-06 
-3.470633457443571e-05 
-2.009719466957726e-05 
0.0001305378412394787 
-9.512969235196901e-05 
2.129004582147521e-06 
0.000184814586862684 
-3.918457714876034e-05 
-0.0001626275150287348 
0.0004296367651753246 
-0.000474367531104233 
0.0005023534371317688 
7.345009250447908e-05 
-0.0003485412455690896 
-0.0001326246427741255 
-0.0002181261675490696 
1.408194139900541e-05 
0.0002033499976542815 
-1.867458013414469e-05 
-0.0001626880985612375 
-1.298154116808859e-05 
3.973464605096478e-05 
6.031337014630874e-06 
4.068687580515817e-05 
-2.469854393052433e-05 
-9.909071760410205e-06 
3.362740050425723e-05 
0.0001191131476138686 
1.236503947196664e-06 
-3.234147021800781e-06 
-0.0003425693845583152 
0.0004670059377051095 
0.0002738653473131652 
0.0001091059002455847 
-0.0003979382613981874 
-9.446072847472041e-05 
-7.915079640663273e-05 
0.0002415394108174927 
4.550284292761458e-05 
0.0002093176057283152 
3.870258920303432e-05 
-4.942282870198394e-05 
0.000190983544245023 
4.247597985118542e-06 
-4.179383636799236e-05 
-0.0002217685925794494 
-4.373702793773983e-06 
-6.310691249384706e-05 
-0.0002161475677603206 
9.449614126417961e-05 
-0.0003950764839885455 
0.0001177797877472897 
-9.971975955436802e-05 
0.000232061980143966 
0.0003443310664010034 
-4.686989953672411e-06 
-8.341651385777997e-06 
1.592392707387768e-05 
-7.14597368025051e-05 
9.335200956067164e-05 
4.847197878426648e-05 
4.976501126140791e-05 
-0.0001436079968927836 
-0.0002777617022551845 
-6.581187968100692e-05 
-0.0002592051279353963 
0.0002156667496637423 
0.00055681100762768 
7.814021469560397e-05 
-7.741210383406978e-05 
-3.443147749763867e-05 
6.471264382235755e-06 
1.926669632967389e-07 
-1.167666348360773e-05 
7.354801409151743e-05 
-2.626364597134427e-05 
5.652362655910855e-05 
5.499413333654406e-05 
0.0001405395038350761 
-0.0002131541239005413 
-0.0001446836833506923 
-9.157110929125395e-05 
-4.749087136804939e-05 
-0.0003131704145087019 
0.0001340092093063857 
-0.0001876816335708305 
6.887303524054051e-05 
-8.409917847039215e-05 
-7.67202717419035e-05 
-0.0001858253116193935 
-6.983255474367652e-05 
-3.141550831499094e-05 
0.0002540354800560369 
2.036832399437382e-05 
0.0002187701889880917 
-0.0003276213361024089 
0.0001940210500245938 
8.92929238865146e-06 
0.0002678495543337845 
-0.0003838360702077161 
-5.152488519872047e-05 
-3.155913003934907e-05 
4.027291797236336e-05 
-6.413388226587005e-05 
-4.552413781948112e-05 
-4.405078820155882e-05 
0.0003664966785860492 
5.180525488786853e-05 
0.0001400261474353711 
-0.0001110904683863134 
-7.297547765734016e-06 
6.948906675504e-08 
6.384993205300934e-05 
7.892346404394378e-05 
-0.0002480575423448503 
0.000118314445128778 
-5.236997798953728e-06 
0.0001143560259869056 
0.0001911635611234873 
0.0003677745022647695 
-5.721867466812315e-06 
-1.758069351390237e-05 
-7.741909411142078e-05 
2.580987902986235e-05 
1.064523106147566e-05 
-8.179893485417277e-05 
4.186269511036495e-05 
3.296384162022055e-05 
-0.000196197805200879 
1.211768795677703e-05 
1.554707147504402e-07 
-6.213189962872802e-05 
-0.0002817740577831678 
-0.0003216737130162003 
-4.331890271690097e-06 
-5.575751425435179e-06 
-5.251939953486053e-05 
-5.735182167826749e-05 
-0.0002081418387670561 
0.0005845293816184437 
-0.0001884854946776939 
5.642409288904529e-05 
-1.451945240356081e-05 
0.0002032609851905284 
8.581069508020891e-05 
-0.0002309864937919944 
-3.976045651997739e-06 
0.0001648934186433669 
-0.0001829108649082317 
-4.465505912044591e-05 
-0.0001504130683885162 
-5.450697466484972e-05 
-6.050763920075863e-05 
-1.118243413379512e-06 
0.0003917089243151066 
-0.0001562611070402464 
-1.707425686798531e-05 
0.0001932462198536583 
2.153073145960854e-05 
-2.270846717878395e-06 
0.000302958466833128 
-5.389388203942036e-05 
8.757022685048763e-05 
-6.708223531837316e-06 
2.20810635418592e-05 
-4.430913092036729e-05 
-0.0002586855830842026 
0.0001767061454740214 
-1.240442911114271e-05 
2.537924014194084e-05 
0.0001522069299338811 
-4.844718650649867e-05 
-5.938728514578942e-06 
-1.555909131217934e-05 
-5.930895018121025e-06 
-2.983512316915814e-05 
-7.699783508076572e-05 
-0.000104073804930811 
-6.949288242397909e-05 
0.0001049511242750648 
6.778624408738353e-05 
-3.539325539796193e-06 
0.0002076805809035439 
-7.451745501334374e-05 
3.774885087057988e-06 
-9.326678807585843e-05 
-3.72168181438993e-05 
-8.322213094065293e-05 
-5.215301587387766e-06 
1.149509286840742e-05 
1.926669632967389e-07 
2.872807763515142e-05 
-3.385093396939607e-05 
-8.350560282466369e-05 
4.991975696612442e-06 
2.087273248199634e-05 
5.147730359020036e-05 
-6.587460010678094e-06 
6.703801012205247e-05 
0.0003455774377928695 
-5.798976488354928e-05 
-0.0001582022827803643 
-6.448804973298818e-05 
-0.0001877469711451592 
1.613963574128821e-05 
-0.0002115080681948221 
-4.893437515828804e-05 
0.0001322617275205612 
9.057534756903907e-05 
0.0001339433719109149 
4.254174306074737e-05 
1.058711683133131e-06 
-8.222041629484579e-05 
7.549749957504756e-05 
3.496629868262835e-05 
-0.0001955700504344722 
-4.351295354627161e-05 
-0.0001786847541464948 
-2.684572488459877e-05 
-6.149307963929168e-05 
2.360177286544717e-05 
5.438747491447623e-05 
9.978186276337877e-06 
1.544418497205156e-05 
5.113412047888175e-05 
1.999810364625161e-05 
1.275227908640744e-05 
9.787099012790617e-05 
-4.509187970830702e-06 
7.769960585893271e-06 
3.817203416921196e-05 
-2.376343118526107e-05 
0.0001538450575112277 
0.0001638844646315674 
7.651454881876895e-06 
-6.44686694175583e-05 
6.730776421656331e-05 
2.798612035524982e-05 
7.591364644882499e-05 
-5.008219297231791e-05 
-0.0001422656431642216 
-0.0004638626074329123 
0.0001381939983966122 
0.0003372675159800216 
2.065085587983901e-05 
4.72188308710807e-05 
-3.823578562547779e-05 
-1.786221009873343e-05 
-9.712983257420199e-06 
-1.179064597080734e-05 
-2.852839464226713e-05 
0.0001305171845503806 
7.478876471330305e-05 
1.622414847187375e-05 
-5.282537406963549e-06 
4.477719194581597e-05 
4.815038846378986e-06 
-5.313759237703293e-05 
-1.923864936399822e-05 
-7.731583334183028e-05 
-0.000341992257817003 
0.0002566711059338497 
-3.80737578324996e-05 
-0.0002278077943835755 
5.730369590558241e-06 
2.988554720238064e-05 
-2.582916628628337e-05 
0.000781244323334826 
-4.583112633175707e-05 
0.0001121327467681244 
-0.000202389195191704 
0.0004219152617487024 
0.000130340250647202 
-0.0004994458694022666 
-0.0001729919405641271 
-0.0001851016638971682 
-2.909097176220737e-05 
-4.327678562085781e-06 
-0.0002201228171556253 
-2.413511066234737e-05 
3.063720826254621e-05 
1.125719641594446e-06 
1.776533932483927e-05 
-0.0001452917445131156 
4.964845948565531e-05 
-6.482609217846155e-05 
0.000271643262142563 
-0.0003719867618206508 
1.895500689169853e-05 
3.700915971673134e-06 
1.536044869526109e-05 
-0.0001721792744642638 
0.0001869393399790518 
4.885582144280292e-05 
3.677457194651366e-05 
-4.077283822327758e-06 
7.462548928353583e-05 
-5.93323840292561e-05 
3.464396384051159e-05 
2.436015249600086e-05 
-0.0002079081342371498 
-0.0001558745245372917 
-3.591611611259996e-05 
0.0003312147510750135 
5.923168758795232e-06 
0.0001204094540444661 
8.888720130281595e-05 
0.0002099428359854548 
-1.29243737069807e-06 
-2.925899701879994e-05 
-6.759276599781981e-05 
-0.0001132093839670878 
-4.29201946706076e-05 
-0.0002502818374437745 
7.901946253887364e-06 
-8.027093118319783e-06 
-6.439515766493108e-06 
4.438196836421308e-05 
-6.650492216214977e-05 
-3.806760328458628e-07 
-0.0001547857455155171 
-6.162099680703231e-06 
-0.0002462402197943699 
0.0003176878832181574 
-3.448395190517335e-05 
-4.287923447251394e-05 
7.200444558394566e-05 
0.0001688126313978522 
-1.82904967478728e-05 
-1.918569211051084e-05 
8.477898276841512e-05 
0.0005138025910770184 
1.364561948799917e-05 
4.358936281564461e-05 
-7.19359034572414e-05 
-6.091489535634088e-05 
-0.0001080047710178942 
0.0001151728178725495 
8.021245919668154e-06 
3.533555556078632e-05 
8.022043842242539e-05 
0.0001124852582492385 
-1.780030066709184e-05 
4.505761076142392e-05 
6.142208666638468e-07 
-0.0005259547400906002 
3.439543256648129e-05 
2.882485032406546e-05 
0.0001336217227275414 
-6.598758980934537e-05 
-0.0003435594810741971 
2.172036048654065e-05 
-0.0001118303918200752 
3.363297007833258e-05 
1.263291567156502e-05 
-3.226379088785625e-05 
-0.0001268205517857046 
7.430488694679276e-05 
0.0001133630971580935 
-1.335090908288117e-05 
-0.0001447861702250685 
-9.080638565680621e-05 
-0.0001576518802263051 
-0.0001848267072060158 
0.0001322298685338842 
-4.136939655664832e-05 
-4.854589152739563e-05 
-1.193607962501308e-05 
0.000307449382976631 
-2.749633252676324e-05 
0.0005988854119914696 
0.0002918923877200272 
-3.699746075841144e-05 
-5.243465071161024e-05 
-0.0001359438349312784 
6.98428182056675e-05 
6.682819057665835e-06 
4.341629214460306e-05 
8.704606001075181e-06 
0.0005005167263307169 
-6.581283979459572e-05 
-0.0001536582540445298 
-0.0001519305086822416 
-3.321020977357654e-05 
0.000115489799930193 
0.0001363830938088387 
2.966319931710531e-05 
-2.784319350219345e-05 
-4.12052013650394e-05 
-1.729541861249399e-05 
2.379504842602876e-05 
0.0002033419286049135 
9.462002188658027e-05 
-0.0001378066767982883 
0.0002040185555708731 
-4.844657723622829e-05 
-8.996218774007482e-05 
-5.754575601011283e-05 
-4.675293526818589e-05 
-6.94593509950674e-05 
2.138622770994132e-05 
3.362340016008606e-05 
-0.0002488352642169534 
2.41023481896005e-05 
0.0001295629251081434 
-2.441200425734086e-05 
-1.746317643824631e-05 
2.31992462909639e-05 
-0.0004552797293586395 
2.806938523819269e-05 
3.278115583862722e-05 
-2.550773240969093e-05 
6.243367038733915e-05 
-0.0002054110282506605 
-1.515706954119421e-05 
1.369601594402584e-05 
9.534887252021745e-06 
1.731008506343354e-05 
0.0001155447957789424 
1.715325384040505e-05 
5.325446197314542e-05 
3.804925566831394e-06 
-2.741719055787223e-05 
-4.956474397259518e-05 
0.0001245189378800181 
-0.0001152207637503138 
0.0004992472126963628 
0.0002253958969496244 
2.411357733899297e-05 
-0.0003491084516919354 
8.86773590795844e-06 
-3.023369949449464e-05 
4.221317624504609e-05 
-7.605752643600621e-06 
-5.607813440967913e-05 
5.051125421506544e-05 
2.007433078571309e-05 
-0.0004004863682080837 
-5.948478409373875e-05 
0.0006316156772248525 
4.363609372130288e-05 
1.908108852190219e-05 
-7.415721586793173e-05 
-0.0001358836285718207 
-2.46977091661667e-05 
-0.0001901774083667629 
8.560955091844658e-05 
-4.62872450344531e-05 
-1.748137749849781e-05 
-1.195204764541936e-05 
-9.860404331536623e-05 
5.876804486817583e-05 
-0.0001352902545783127 
-2.950332669779881e-05 
-4.324591834913111e-05 
0.0003024144054905655 
-0.0002988800030964251 
3.498426029294619e-05 
6.707333191786261e-05 
8.810520585198963e-05 
8.524480206401106e-05 
-5.807253208749166e-05 
7.720034927443365e-05 
8.734326573685985e-05 
4.40726347873129e-05 
-7.46551905856318e-06 
1.227930267794024e-05 
4.505846579013339e-05 
4.353327936877827e-05 
1.003400665127427e-05 
-5.287603594826628e-05 
6.524154566575351e-06 
8.702599667434368e-05 
4.925468141752574e-05 
5.929358469183643e-05 
-3.294916808426641e-05 
8.735506207719215e-05 
-0.0001298098040413407 
-6.532871078711625e-05 
4.10360995989191e-05 
-0.0001915545390006277 
-4.458472472967501e-05 
-0.0001102828610435302 
6.272931876467197e-05 
8.389777209017007e-07 
2.781428027227395e-05 
2.571168793327632e-05 
0.0002938499342211891 
4.985849551194338e-05 
-0.000176136034966796 
4.051604705609219e-05 
8.626133630763154e-05 
-0.0001774534855696515 
7.978961327473344e-05 
-9.040756976855969e-05 
-1.039376523579837e-05 
6.613952273595378e-05 
-1.714280459303036e-05 
1.263917584681964e-05 
0.0001780497251641171 
2.830630781126481e-05 
2.721186896195746e-05 
-9.608819088259804e-06 
-8.91309606627457e-06 
-4.887913268175084e-05 
1.926669632967389e-07 
-1.218803476668077e-05 
-3.188957130610672e-05 
7.187571899804415e-05 
7.902489710503387e-06 
-3.569199143488758e-05 
-3.759202502337571e-05 
1.005850507671252e-05 
-5.404673839889267e-05 
0.0002372467858597545 
8.240591783098128e-05 
-8.323942891897517e-05 
3.41431934486612e-05 
-1.99448849768051e-05 
-0.0001404483794994332 
-0.0003795170005621602 
0.0002095509538346232 
-6.245947342137484e-05 
0.0005960092332043318 
-0.0004801994594876485 
-1.290340047121827e-05 
-3.369228675084251e-05 
0.0001264630457851027 
-0.0001585337381274839 
1.52965171084685e-05 
6.137874793776163e-05 
1.147894136579391e-05 
-0.0001756488416530873 
-0.0001409688500245279 
-5.039602679237557e-05 
-0.0002365236122701175 
-9.47405490864169e-05 
5.915995238308516e-05 
0.0001328577706636538 
-4.543971787378692e-05 
-0.0001158645052988065 
5.992918638049444e-05 
4.954630650927521e-05 
7.436025605454092e-05 
-0.0001156129889272595 
-7.063630534729246e-05 
4.842251732626256e-05 
-0.0003111875771861091 
1.181658700078114e-05 
0.0001213108073447285 
-0.0001621920651314871 
0.0003223630922503624 
0.0002291751641535087 
4.595328363542209e-05 
-0.0001785515471472149 
-3.153092866912151e-05 
5.108984112010986e-05 
6.409085252167332e-05 
0.0001772863733724883 
4.99017406017439e-06 
3.150338949060914e-05 
0.0001089375421201471 
0.0002013656943679008 
8.646510610943809e-06 
-5.151895702849845e-05 
-2.871715419847635e-05 
-7.70853708914159e-05 
3.962960106609489e-06 
0.0001418555242566082 
-3.403130229019755e-05 
0.000310986329919811 
7.550783093373268e-05 
2.211747476185558e-05 
5.300022843387659e-05 
1.935915887632698e-05 
-9.691927295515616e-06 
-1.847650482272359e-05 
-8.903454034810808e-05 
3.435910925197999e-05 
-4.000673074637583e-05 
8.473203713901289e-05 
3.71899704791516e-05 
4.523110464111111e-05 
1.074232664358164e-08 
5.504626507195093e-06 
-0.000361204805278299 
-4.487700059655958e-05 
-0.0001882468881561752 
-2.531143363212767e-05 
-2.143721537818285e-05 
0.00011634062648135 
-4.228827479404031e-05 
0.0002615274102141742 
-2.053678416100419e-05 
-9.152253860927817e-05 
-9.214981513100844e-06 
2.762228673598298e-05 
2.616028155523519e-05 
5.433946955514326e-05 
4.916534301359889e-05 
-2.301311624805849e-05 
-3.464428251882984e-05 
-9.893922319541495e-05 
-6.335875125997729e-05 
0.0001730639393104465 
-6.461784213739673e-05 
2.26236968310357e-05 
0.0001009756974591591 
3.087494556890286e-05 
7.396943429899688e-06 
0.0002065684136063391 
-2.080170613207599e-05 
-2.807424362273944e-05 
3.749448068681997e-05 
-2.848440217568207e-05 
-0.0003345602684614198 
-0.0001708884967121149 
8.298110437518738e-05 
4.363051206080485e-05 
-7.16130344390669e-07 
3.049024639160699e-05 
8.346634459072076e-05 
-1.97634534075814e-05 
-2.040376771018019e-06 
-2.928694229295299e-05 
4.093049010451447e-05 
-1.303576176923516e-05 
-0.0001028978736047547 
-0.000177172835754987 
-3.360325415713481e-05 
0.0001674740515178861 
-0.0002025122500885601 
0.0001523177839000419 
-8.635857670106427e-05 
7.18765278390026e-05 
9.815270104898875e-05 
-3.982857818994973e-05 
4.218280600392418e-05 
0.000234628306924731 
-8.196468070969855e-05 
1.452721411245785e-05 
-8.795190602830452e-05 
7.668987198887871e-05 
0.0001194378573068616 
-0.0002279169917729971 
0.0001154462404725004 
2.743349994411577e-06 
2.574702607224006e-05 
-2.025747130025967e-05 
-0.0001448706620220015 
-0.0001232484348125239 
0.0001354212624636829 
-3.8612830186996e-05 
0.0001092035744750838 
2.298693312699971e-05 
4.803330448528579e-06 
8.484039837790237e-05 
1.841509251447888e-06 
-3.678018328292918e-05 
2.978989384477522e-05 
-9.395033412551962e-05 
5.509112047103654e-05 
5.877244876289455e-06 
-0.0001202184636777575 
-1.253301804447267e-05 
1.043195639797329e-05 
-5.465464976846557e-06 
0.0001049329386807445 
-0.0002503241963425106 
2.053000390477865e-07 
-1.218810157827458e-05 
-8.595561102799216e-06 
0.0001188178743957672 
0.0004542609183385958 
0.0001288707129969164 
-6.2236192039382e-05 
-0.0001435921047438825 
0.000163884349271241 
0.0001144730572624356 
5.146308057956476e-05 
-8.185186342590972e-06 
4.253536400158521e-05 
4.346689157926564e-05 
-0.0001264238508505378 
3.547536466117411e-05 
-8.69001873471326e-05 
1.894791055075358e-05 
-5.438364742007141e-05 
-0.0002945226971730429 
-1.408550231168987e-05 
-8.575253157246978e-06 
-0.0001332043545303046 
-0.0001902566857153864 
-9.238330091711601e-05 
-9.085366151993626e-05 
-2.648503763587004e-05 
-0.0003192650914157423 
0.0001800593786365576 
8.631566085486877e-05 
2.33839308380131e-05 
4.19049931427472e-05 
3.387098669089311e-05 
-3.859881135952861e-05 
0.0001612344361565083 
-2.544413611269068e-05 
-1.226691912630599e-05 
3.421749111939978e-05 
-5.444652058316338e-06 
-0.0001061117852982435 
-2.696032079547789e-05 
0.0004048518216066515 
-3.136223485196283e-05 
1.155482973117984e-05 
-5.741756826999855e-05 
-2.626414288064086e-06 
-1.53797616593703e-05 
5.570190717908518e-05 
1.434514175034092e-05 
5.510398814100778e-05 
1.095112174399796e-05 
4.558353809013699e-05 
5.564161903957044e-05 
3.568410754676275e-05 
4.681563447568013e-06 
1.843985694263665e-05 
-9.200636521575765e-05 
-0.0002319638852466548 
2.761817075238911e-05 
-2.144934408487952e-05 
-4.849054920652592e-05 
1.795819750170742e-05 
0.0001880353523880227 
2.971661213985483e-05 
-9.570426047880876e-05 
-7.162984263787685e-05 
-2.975736234214102e-05 
0.0001933111194732527 
-1.795598826217287e-05 
-5.831977513230401e-05 
0.0001501194332056932 
2.611631159045808e-05 
-0.0001868219102872956 
0.000101486976111426 
-0.0001593847726731091 
-4.919726465313926e-05 
-4.437535134216576e-05 
-2.591815180811141e-05 
0.0001611355505893404 
-3.811187572870781e-05 
7.058514753043303e-08 
-8.001747982446301e-06 
0.0001442887130098945 
-3.709624638250413e-05 
8.369833144281036e-05 
0.0001458521364354245 
-0.0001050278855727765 
7.949396271115989e-05 
-0.0002361143684443541 
-0.0001289952951472032 
4.044675051093848e-05 
-1.148626997540738e-05 
0.0001723113231978457 
-3.880028043197711e-05 
3.721444511171333e-05 
9.816594380448645e-05 
-0.0002040263326557495 
9.576471910390838e-05 
4.240552122729467e-05 
9.224896168076891e-05 
-0.0001741002649000479 
0.0002602922652570867 
6.498520637349589e-05 
-5.806836117406894e-05 
0.0002423587129695981 
-0.000115505361087059 
-1.312152825619427e-05 
2.321418169933483e-05 
4.210353214613387e-05 
-1.130236459946615e-06 
-0.0001512377103996419 
1.458381248492315e-05 
-1.421337709909265e-05 
-0.0001125741758849589 
4.123377669300866e-06 
0.0001701368205082523 
-1.61998373794913e-05 
-2.290403487486422e-05 
5.786572391785096e-05 
0.000160485715376354 
-0.0001115316311986123 
-5.206219541192975e-05 
-6.432231327845616e-07 
4.870536006214068e-05 
4.246959165472015e-05 
0.0001519378141214909 
-5.264752971348319e-05 
4.659647240133278e-05 
-0.0001367826457770408 
0.0002549261178532105 
5.401525169207373e-06 
-4.326440671754889e-05 
-8.797798877183503e-05 
-9.610069941759139e-05 
-0.0001409265855071036 
0.0004999285952970968 
0.0002797455269013523 
9.448569008366512e-06 
-0.0001970360716075369 
-0.0001791591759936839 
-9.313930326426624e-05 
-8.527445312467869e-05 
5.968114438444717e-05 
-2.424801321689839e-05 
-5.079504810807034e-06 
1.138317621607133e-05 
-0.0001272159534684358 
-0.0001402379653233674 
-6.20342353489454e-06 
2.729965434226393e-05 
-1.006327291685965e-06 
-1.397976999175186e-05 
0.0004122833444349134 
-1.771976416597229e-05 
-1.601692221631661e-05 
-4.216314563340566e-05 
0.0001500127647018812 
-2.026627982285996e-05 
-1.072462405450031e-05 
6.874728220013827e-05 
-0.0001015380484084816 
0.0001288798697969694 
-1.302626139386257e-05 
8.704606001075181e-06 
-1.308442002891465e-05 
3.284110356731566e-05 
-0.000273707247946396 
-0.0001281286333092811 
4.034559442470184e-05 
0.0001299270809856125 
7.805617546904732e-06 
-2.563300836200407e-05 
-2.435312142450793e-05 
-0.0001742049074306611 
-4.751104016009839e-05 
-0.0002007596745543148 
1.250451744734633e-05 
6.861064273681749e-05 
1.256167129483367e-06 
5.420725387484851e-05 
-3.952861500501938e-05 
0.0001235701830654335 
-0.0001005395992298448 
0.0004121184473117763 
-6.281481319910401e-05 
-0.0001170454741592066 
-6.549143001676401e-06 
0.0003005229600683016 
-0.0002220838979830735 
-6.608810449055273e-05 
2.328298511962838e-05 
4.365752580286051e-07 
-3.303517465714115e-05 
2.251695973484821e-06 
0.0001354950703005643 
-6.986373278227463e-05 
-5.881189144629152e-05 
-0.0002581847117563163 
-2.885964296320596e-06 
0.0002942975894774421 
-0.0002118369731470905 
9.768359220276004e-05 
4.87202976669127e-05 
-4.663814986433337e-06 
0.0001308309971014955 
5.557388286011069e-05 
-7.696085416689497e-05 
5.611344975688917e-06 
0.0001613668175009738 
-0.0001407333072012373 
-6.978446728879979e-05 
1.678461659958225e-05 
-2.386682351928484e-05 
-8.28839083917994e-05 
4.169020471922564e-05 
8.045003803581259e-05 
8.997179702797138e-05 
2.599816512519433e-05 
7.2838007187292e-05 
-2.812185920715412e-05 
4.692108232046465e-05 
-3.841077303271199e-05 
0.00022820979908586 
-0.0003395446246771682 
8.285931738449331e-05 
4.315810446818161e-05 
3.960023948953806e-05 
-8.703868048207755e-05 
0.0001499738719210749 
0.0001514161158147211 
-2.265438870868024e-05 
-2.705340720457276e-05 
2.222122633259317e-05 
-1.370895816691027e-06 
-9.370952905419128e-05 
0.0001429621565774543 
-0.0001909517867541206 
-3.075735253177327e-05 
-8.713954375393602e-05 
-0.0002630579201138164 
-6.267153353051601e-05 
1.07117394387295e-05 
1.649566042678059e-05 
5.059430921775594e-05 
6.318577805012492e-05 
-1.04311010424483e-05 
1.907142348914136e-05 
-4.560463885332985e-05 
-0.000109616165963468 
0.0003343647161855273 
7.364144996999599e-05 
4.332500903096186e-06 
-0.0001631319826289502 
0.0002006309170045866 
-3.20729413855809e-05 
3.620905665460878e-05 
-0.0002422829902649796 
1.085977233254791e-05 
3.746803829814017e-05 
0.0001275389816408901 
-7.326215285211737e-05 
-8.093891238745497e-05 
0.000137184560633567 
-6.968214775823166e-06 
-6.42324713451292e-05 
6.999273820728655e-05 
-4.516553543653345e-07 
-5.53463977070437e-05 
-4.073248755371879e-05 
-0.000286085803602699 
-3.926186554374544e-06 
-1.284150590654359e-05 
4.719683749049267e-05 
-9.534154732422384e-07 
1.793707772448126e-05 
-0.0003214915744114754 
6.686559545135942e-05 
0.0004329900477479847 
0.0001124085635736952 
0.0002047845324706814 
-0.0002122541726428937 
0.0002595659745607523 
-1.269263965111177e-05 
-7.62701546852732e-05 
0.0001751935922993751 
0.0001483466552148423 
0.0002568892435867965 
-0.0001277844187524864 
4.336709833135046e-05 
-1.425570263069705e-05 
7.77062180413151e-05 
-4.937128254778822e-05 
7.288672410910581e-05 
-0.000327122203899716 
-1.765834058064349e-05 
-5.648431200115993e-06 
0.0002308739406208744 
-9.770735643885341e-05 
1.450248836225105e-06 
1.941056133506929e-06 
-0.0001063131029238874 
-0.0001001328790171906 
-0.0001111308877383441 
6.893481305917545e-05 
-0.000225758791771421 
-4.540058046652508e-05 
-6.456731804995834e-05 
0.000127576037585425 
-4.203563638620519e-05 
-6.947658232660475e-05 
-0.0001460052001165799 
0.0001316444735605605 
3.972001615865619e-05 
-0.000136133978557406 
-0.000216695415674598 
-4.859573433979158e-05 
0.0001082167433022682 
-7.337692658980567e-05 
-2.31410156734166e-05 
-3.291948574557012e-05 
0.0001703279947102096 
-9.681671119369468e-05 
0.0001866276812914254 
-2.479920873933369e-05 
-0.0002054540130904529 
1.306473424433979e-05 
-1.717976273766158e-05 
0.0002455248614682046 
-6.756708966751929e-05 
2.442357323161809e-06 
-0.0004122606389027049 
0.0003927356046828675 
0.0003699634064963933 
7.527053400891882e-05 
-2.972006044205959e-05 
-6.586477325828221e-05 
-1.751853590958005e-05 
8.81831803278094e-05 
-0.0001107699995532681 
1.231856962777464e-05 
-1.736980239537427e-05 
-1.750758790208305e-05 
1.900072917514567e-05 
-2.010407978483541e-05 
-1.633523025702109e-05 
-7.12585308680265e-05 
-3.571374256924516e-05 
-3.617225094465852e-05 
8.562997210597135e-06 
-3.115584315763796e-05 
-2.188425052368073e-06 
6.833866189038255e-05 
-3.746236535891797e-05 
2.073181668432237e-05 
7.095274336052303e-06 
-0.000220177661285742 
0.0002203283607191507 
0.0002824266281069012 
-2.273586814183411e-05 
-5.83154015205023e-06 
6.381792716843125e-06 
4.133684768138292e-05 
4.143479623703894e-05 
-6.711598612933269e-05 
5.901595490734055e-05 
-0.0002386999453505468 
8.734166021356356e-06 
2.342805501819103e-05 
1.905088147742702e-05 
-1.038765767136493e-05 
-7.798723425417107e-06 
3.551035943249918e-05 
2.208793123956653e-05 
1.6016814008208e-05 
-4.430917681438149e-05 
-0.0001280845797950566 
-4.2717004405839e-05 
8.280029348348208e-05 
-5.754540288028352e-05 
-2.372741822060066e-05 
1.647750724749203e-05 
-2.139020670461362e-05 
5.439716795073571e-05 
3.159536035546378e-05 
0.0001880458877838528 
-4.384146182019258e-05 
-3.26459521754034e-05 
-1.244210531338151e-05 
-1.829642101102524e-05 
-3.544289483520636e-06 
0.0001971049064996692 
0.000769024499229475 
-5.11274646186911e-05 
-0.0003509997722228832 
-9.613152289176009e-05 
1.708873515313961e-05 
0.0002303978905901783 
-0.0001150380448779049 
-0.000299309668028396 
0.0002136458127413476 
-6.276958354073979e-05 
4.355765485988902e-05 
0.0001828449142130316 
-8.845261660883998e-05 
-0.0002473848825049309 
-0.0002108788394759008 
-1.301442464288736e-05 
-1.023315634909466e-05 
5.299904458248789e-05 
-1.365291671450631e-05 
-6.052710297131897e-05 
8.563794584077074e-06 
4.128083452171392e-05 
-1.494054011455921e-05 
-0.0003404794042949111 
0.000121574287644631 
-6.822238429364289e-06 
-3.382056572730235e-05 
0.0001759736034286545 
0.0001501236894061587 
0.00022280659612634 
-0.0002797677338943264 
9.375159449840675e-05 
-0.0001906149138104395 
-1.274841182666058e-05 
1.815673813934092e-05 
1.307920356270121e-05 
8.829968008337251e-05 
0.0001295410319471526 
0.0003177831149987618 
3.966352854518995e-05 
-4.304293486082828e-05 
-0.0002780976259221889 
1.446912410761744e-05 
-0.0001377591295132695 
2.030947742927852e-05 
1.004301366834381e-06 
2.485670812343802e-06 
-2.597181108304256e-05 
8.121913120518887e-06 
-4.373740269751258e-05 
-2.564350343461848e-05 
3.044341072805803e-05 
-6.553284461839227e-05 
-5.387794990855332e-05 
4.946093668449166e-07 
4.565708124541914e-05 
0.0003025186047224634 
-9.031355667804203e-05 
-0.000178119409713135 
-0.0001877411956979875 
-5.708621625449071e-05 
7.424549222414949e-05 
-4.958221641467744e-05 
-6.849804030251543e-05 
0.0001303575576187321 
0.0002464774164846314 
2.561304442776839e-05 
2.60778488083801e-05 
-6.556157159339452e-06 
-5.721489251209616e-05 
-5.517404214565734e-05 
3.229617166991393e-06 
-8.672688149148394e-05 
-6.04309816075081e-05 
-1.555886515243392e-05 
4.925363093079194e-05 
-4.230455966485183e-05 
0.0001824708953154548 
0.00012145362108954 
1.623747724643877e-05 
-6.440387526416988e-05 
1.010262868251504e-05 
-1.954090955939877e-05 
-0.0002107388266299088 
1.559325052127474e-05 
-3.398182490863031e-05 
6.095232588459035e-05 
9.651672570938629e-06 
-3.236543690598882e-05 
-4.719933988745147e-05 
-5.491560547790305e-05 
4.792145801148417e-05 
-0.00024473388934308 
-0.0001697337147337512 
-6.106551554597321e-05 
3.201494756927816e-05 
-2.948492217911218e-05 
1.782473875912332e-05 
0.0002168472991366337 
-1.255873458275397e-05 
-0.0001376014709479523 
0.0003867989912870428 
8.112840616803368e-05 
-2.581910633837978e-05 
4.401394679269023e-05 
-7.327476041704697e-05 
7.475246486238088e-06 
0.0001807419004860944 
-0.0001042363071484342 
0.0001469503107106462 
0.0001237438562703182 
-0.0002416531149402222 
-0.0001770909557797078 
-2.532319019757779e-05 
1.331963753814878e-05 
5.785472113693601e-05 
0.0001115967667690957 
0.0001932984003607511 
-0.0001745850330214521 
8.472998989391588e-05 
4.13112843310933e-05 
0.000120959928466663 
0.0003144090326324883 
0.0001093812229140217 
-0.000201338452941996 
-0.000114525452582584 
-5.474896579652602e-05 
-6.941921155722144e-05 
-1.804372213355908e-05 
0.0004902340625683221 
-0.0002258245064439509 
1.174142563000111e-06 
9.050139923114609e-06 
4.155885263194587e-05 
-2.927768764128276e-05 
1.938927958955704e-05 
-0.0001756091244184356 
8.704606001075181e-06 
1.137023020066363e-05 
8.347185656972028e-06 
-2.346074764879255e-05 
1.653349623633132e-05 
-4.597859759738085e-05 
1.878493396655614e-05 
-4.107096785214917e-06 
-0.0002866103206035527 
0.0003901231613144465 
-5.334971132896159e-05 
-7.936357264363762e-06 
0.0001339477540411963 
-1.958942746676567e-05 
-1.289469029925874e-05 
-2.91255206714437e-05 
1.237885423898817e-05 
-0.0001419091160411559 
1.178506133771605e-05 
7.827467324572135e-06 
-3.111232914269926e-05 
2.212648133382217e-05 
2.156977479095101e-06 
-0.0002072086415018843 
4.94596730354329e-05 
-0.0001743220864114315 
0.0002005838403443537 
-3.857186004667033e-05 
-0.0001855647317477812 
-0.0001340689361593893 
-2.676107932230089e-05 
0.0002502786532053894 
0.0002377490334266736 
-1.453869191602111e-05 
0.0001418778870773175 
4.691130993836913e-05 
-8.197627464162466e-05 
1.845151202981694e-05 
-5.097154238284306e-05 
-4.840162788261398e-05 
-0.0001026419253084838 
-4.326686945563111e-06 
-7.845098791128909e-05 
-6.187741023237619e-06 
-2.473552054930536e-05 
2.765440388825279e-05 
-7.150905530378759e-05 
0.0004958741750346564 
-0.0001230243988414612 
3.801738484170027e-06 
2.036640172014793e-05 
-6.858274958019341e-05 
-2.89686924067394e-05 
0.0001372489148659587 
0.0001368431925485023 
1.017580838883527e-06 
-1.152501224277579e-05 
8.379204275543487e-06 
-8.980581738719047e-05 
-3.753151274261972e-05 
7.06034895441162e-05 
-0.0002651314520341937 
-0.0001122013649284353 
-0.0002447710491713416 
0.0005076729412898495 
-8.507220645311001e-05 
2.601224868570828e-05 
-1.676432142602917e-07 
7.642539981723955e-05 
6.349875816952225e-06 
8.986966673757578e-05 
2.939346958492927e-05 
-8.615201260490133e-05 
-5.807953228498494e-05 
-4.67338281428645e-05 
0.0005023197406684144 
2.258893726091273e-05 
-8.117126654801272e-05 
-7.775734363627104e-06 
-3.001905416863487e-05 
-5.245745936619508e-05 
-2.461546402722095e-05 
-2.696924409847848e-05 
5.153958529113436e-05 
-6.495352493279351e-05 
-4.041063335534261e-05 
-7.182928947072379e-05 
1.751581783311069e-05 
0.0002926030386651201 
-0.0002184586964708344 
-1.644891916935886e-05 
5.463300286225421e-06 
-2.180669046542718e-05 
0.0001668184823359714 
0.0001968342522936946 
-0.0002738191328169801 
-3.228388340632304e-05 
-2.285922640776012e-05 
0.0001307184501372465 
-5.921225737363003e-05 
-0.0001996145507237924 
-0.0002545938688663732 
-8.805242722659605e-05 
1.535750078741431e-05 
-5.449353836628639e-05 
2.348064562804881e-05 
-9.031075660225683e-05 
8.469321375959683e-05 
-3.219258833082506e-05 
-0.0001632025340606058 
-7.113707601169801e-05 
0.0002481278849075294 
-0.0002614268429251465 
0.0003995598352024421 
0.0002501475300304919 
-0.000203411564063958 
0.0001571379804937784 
-3.03534404691952e-05 
3.050241990171305e-05 
-1.126086188926199e-05 
-0.0002537047097287083 
7.024421973089868e-05 
-0.0001802191774988897 
-5.276800104560926e-05 
-3.783760687335607e-05 
-2.622527292826877e-05 
1.83968688621904e-05 
-2.007868075144658e-05 
0.0001088862084835076 
0.000295032225679318 
8.504590611213829e-05 
1.893960104122952e-05 
0.0001020611237315935 
2.864497920876463e-06 
5.947029117821825e-05 
5.725595638621463e-07 
-4.144949510004359e-05 
-4.005979981950693e-05 
9.407674733387606e-05 
-9.948087680477913e-06 
-1.326772744760308e-05 
-2.082462748031454e-05 
-2.682287045365917e-05 
0.0004212331619968514 
0.0002719022661081167 
-0.0001027965054320517 
7.568157764901786e-05 
-0.0004245050285623197 
6.917239128933525e-05 
-0.0001254607818076075 
2.864342788068484e-05 
-1.616205963046248e-05 
-3.222875241747885e-05 
3.280328420761287e-05 
9.801433825473999e-05 
-0.0001366701863088808 
-0.0001675912364291695 
-7.336040274797964e-05 
-0.0002482005569704507 
8.85609213342738e-05 
8.176468408068714e-05 
2.680043831342433e-05 
8.1910643785292e-06 
-5.134270288446847e-06 
0.0002010749537997535 
-9.367067412225401e-05 
0.0001487635721458685 
-5.572845402515874e-05 
0.0002478941423052461 
1.333794082311706e-05 
3.988548590400459e-05 
-5.666866391926443e-05 
-8.937100227104743e-05 
3.964115780029993e-05 
1.130004544585078e-05 
-0.0004118548120124257 
0.0002082775219718628 
0.0001059072817018638 
-0.0001812783188128298 
4.182681529079098e-05 
-0.0001550412478703766 
0.0001557127002075272 
-6.224954154507474e-05 
-0.000156912247378744 
0.0002128048527509227 
5.466159103486785e-05 
-1.556931045514893e-05 
2.874675438625285e-05 
-8.904004923545874e-05 
0.0001258367875014225 
-8.330056711574832e-05 
3.285130723048145e-06 
0.0001679641977889587 
-1.538632399001067e-05 
8.315974639498198e-05 
-4.413146098426494e-05 
-0.0001024588337256726 
8.794371264767477e-05 
2.744045145957228e-05 
4.363355068245867e-05 
-1.103682024886118e-05 
1.04884160256306e-05 
-1.600502546375218e-05 
-0.0002433462747560046 
-0.000184991774957901 
-3.98249612237743e-05 
3.658387055510892e-05 
4.089022998613685e-05 
-2.543386385091886e-06 
7.489265008187752e-05 
-3.467643553235425e-05 
-8.383720738020536e-05 
-6.991936983513902e-06 
9.128209159218482e-05 
8.563837573335262e-06 
5.65188737138649e-06 
3.666649097568472e-05 
-8.20788574051858e-07 
-2.410716166207532e-05 
-4.213965665937905e-05 
-6.2682650152849e-05 
7.924277353203744e-05 
-5.648063873888197e-05 
4.882764280434799e-05 
-2.886399099289644e-05 
0.000252387705322562 
0.0001506228262631769 
2.236307693579837e-05 
-0.0001027882873839741 
-0.0001299340349819479 
-3.044608517361131e-06 
-0.0001279222072796982 
7.865007209201847e-05 
-7.27992174848312e-05 
2.412467981746922e-05 
7.161083844535229e-05 
4.093699040156684e-06 
-2.083161483102546e-05 
-0.0003093118670613733 
0.0001261384143827725 
-6.471748756166871e-06 
1.739632177006209e-05 
-0.0002117174577533929 
-2.186435485052466e-05 
3.917019045716583e-05 
5.225977863201952e-07 
0.0001672841492057617 
6.671695444600476e-05 
1.776114172272673e-05 
0.0004560595865064058 
-1.92225238968299e-05 
-2.414161770829524e-05 
0.0001969391799469537 
-0.0003227925036226867 
-1.33078791069202e-05 
-3.744741645403765e-05 
6.067002757187162e-06 
-3.820899001846455e-05 
3.52110702437206e-05 
0.0001273905733071252 
2.257871097617691e-07 
-6.064209772213687e-05 
2.80063416699315e-05 
-7.530195553164157e-05 
1.209667874581547e-05 
2.62558062482159e-05 
-4.830588488913563e-05 
0.0003145088049785735 
-7.93815958177028e-05 
5.727985178657272e-05 
4.84444977741954e-05 
1.578363566110569e-05 
4.459206695166079e-05 
3.259480852308336e-05 
1.242962952749191e-05 
-3.057383964020154e-05 
1.749255992097928e-06 
-2.379974091952504e-05 
-5.216747979801565e-05 
1.510693374099822e-06 
-0.0001056452620205733 
-8.315972816259093e-05 
-7.523747627708187e-05 
-0.0001809342206064118 
0.0002416082716813673 
6.034977450224953e-05 
2.328110155159378e-05 
-6.692845167575029e-05 
-0.0002241197681279494 
-8.621849170650689e-06 
0.0001354318100831243 
0.0001781444320777331 
-4.290389405613389e-05 
-4.596900258101377e-05 
5.413823689712522e-06 
-6.137291645172977e-05 
0.0001092191733691023 
1.985367211994712e-05 
-8.120554536570036e-05 
-0.0001796943678672658 
1.420291194901151e-05 
0.0001494527453553885 
-5.193169451987876e-05 
0.0001370639545804698 
-3.407831449409004e-05 
-7.360192591122523e-05 
0.0001143637807089802 
4.231851025139085e-05 
-4.816474357778946e-05 
-3.238337310025604e-05 
-0.0002231693832429191 
-0.0001205868233421562 
-3.336281949682183e-05 
-2.876377311472585e-05 
-3.56095811372768e-05 
4.044567985847144e-05 
-1.366325952618975e-05 
9.843051110139025e-05 
0.0003900320453170176 
-2.815477912014502e-05 
3.657313068641388e-05 
-3.187451975921876e-05 
-6.357397654356025e-05 
7.991214143662316e-05 
2.622293544145292e-05 
9.506239714333282e-06 
-3.331399734934411e-05 
-0.0001291617466657208 
-0.0001011461480119441 
-4.452643369470089e-05 
-4.415660501788035e-05 
0.0002672361905139702 
0.000184135365651371 
-5.958993549307443e-05 
1.928069353584666e-05 
-3.058034203383004e-06 
-6.072541914714801e-05 
-1.588759757232788e-06 
1.993832874754025e-05 
-3.142296735999151e-05 
-9.134981398423591e-06 
-3.189371520700557e-05 
-7.784694796035151e-05 
-5.458096917092761e-05 
7.380301791880915e-05 
0.0002988431151769642 
-0.0002005130784424003 
-5.160724208568609e-05 
0.0001659345431115769 
6.331371523574645e-06 
7.969981072635733e-05 
-3.464974232552641e-05 
6.612501727139835e-05 
5.680337568251654e-06 
-2.721837588768941e-06 
-7.921289810595771e-05 
-6.931835576111823e-05 
-3.398941294565249e-05 
-2.700489277175814e-05 
4.72384636713264e-05 
-4.520700525776229e-05 
-9.485260950583119e-05 
7.497348282227487e-06 
0.0001697220256870849 
-3.642673686288994e-05 
1.049971079520124e-05 
2.232991889582012e-05 
-0.000146382056234264 
-1.190540865427909e-05 
-0.0001658556788866747 
4.330327880476948e-05 
-2.097407550908461e-05 
-2.741969607109281e-05 
3.295741752195318e-05 
1.79858625736277e-05 
-4.160309684291774e-05 
-5.335515935503141e-05 
3.953530037360879e-05 
4.220400759433264e-05 
-0.0001352912655057013 
-2.977660374208139e-05 
-6.118170873113638e-05 
8.207670690419522e-05 
-6.392207782361985e-05 
3.473970305399498e-05 
0.000114798870428577 
0.0004782222586841547 
-0.0001143612514376932 
4.27420795800052e-05 
0.0001072601587146361 
-4.606804180771518e-05 
-9.874802186508594e-05 
0.0002111587832237008 
-3.538449844397511e-05 
3.955103907737677e-05 
-0.00010833406703725 
4.999698072440373e-06 
-2.596957014721473e-05 
3.611387436999235e-06 
4.347510526728792e-05 
0.0001740758042680757 
-2.313844229905587e-05 
-8.13531718954365e-05 
0.0001291949238146913 
-5.820323190692157e-05 
-4.419348417344201e-06 
2.136811236005143e-05 
-3.073115473977144e-05 
-0.0002026807059353865 
0.0001904755513684476 
-0.0001451020608398588 
-6.734563274447525e-05 
5.245017579910378e-05 
3.32304658326568e-05 
-6.176123850399362e-05 
-0.0002317165799540005 
0.0003223162898532126 
-5.472914747313776e-05 
0.0001606423230836551 
-0.0001567306158396507 
1.494992839134948e-05 
-7.406190100279129e-06 
3.303767655562409e-05 
0.0001535038979741468 
-0.000154717343965651 
-0.0001698324766186067 
0.0003614065052268091 
-5.412313293553269e-05 
2.524228123668506e-05 
-7.184313850206348e-05 
-0.0001051059475420939 
-4.426552190451348e-05 
-8.308833697333922e-06 
1.625678245079648e-05 
-6.59780072665521e-06 
-0.0002241468815108824 
1.08090720871421e-06 
3.80147110217694e-05 
-4.256585370368515e-06 
9.920370454757091e-05 
2.207167241510587e-05 
-7.504228103988581e-05 
-1.579768668978712e-05 
0.0001714439261238238 
0.0002991677164827896 
-3.066562826074178e-05 
-0.000124917015766039 
-0.0004408918936329809 
0.0003516807320317077 
8.397394482201014e-05 
5.318048983593406e-05 
6.350380373247533e-05 
-0.0001585061766891409 
9.610246160965289e-06 
-7.051972366079582e-05 
-8.753920122870574e-05 
-7.450778309400834e-05 
0.0001311226645610528 
-1.803675142344318e-05 
-0.0001899621316108467 
0.0005419693897347385 
-6.827493386282501e-05 
-5.825330193024027e-05 
2.059275294311139e-05 
1.5705617360145e-05 
-1.522060108768234e-05 
-6.144225750350619e-05 
0.0001200827738647239 
9.292703490085535e-06 
-9.585323516551706e-05 
-6.271427647834741e-06 
1.619841775163272e-05 
1.565566159868118e-05 
-2.781572040540165e-05 
3.207066995406619e-06 
4.674274979157246e-05 
-2.561048244413444e-05 
5.951095391041959e-06 
-2.5933689063299e-05 
9.006478915707567e-06 
-2.206584707395957e-05 
2.310829408087099e-05 
3.023806087019073e-05 
8.919650117674189e-07 
-7.572463460609514e-05 
0.0001501060925239937 
1.081188611055333e-06 
-3.732594362950137e-05 
1.877827445026043e-06 
-6.409895270274651e-06 
3.604779798245307e-05 
-6.567598959673646e-05 
4.175603158526369e-05 
2.526307258644718e-05 
5.696919810327309e-05 
-2.409951236786661e-05 
9.188230917395776e-05 
8.080621018390519e-05 
8.82316545023846e-06 
-2.077524431758716e-05 
1.96878610068123e-05 
2.958597081049439e-06 
-0.0002724301982301015 
-0.0002104965112027649 
-0.0001214927517302079 
-0.0001022218504597029 
9.045215922569801e-05 
-1.579684211564758e-05 
-0.0001230555691947841 
-0.0001086723569739294 
0.0002612317109033221 
5.435342981264365e-05 
0.0002011354333834255 
-3.095923887704747e-05 
4.202333950765194e-05 
4.930069611334387e-05 
0.0003245556569267936 
0.0001563323900220256 
-4.699208706694569e-05 
4.07525892078449e-05 
8.196938532004497e-05 
0.0001387147549695409 
2.094405159436516e-05 
-0.0001136253130786275 
-3.900264498780946e-06 
1.131557081995592e-05 
-0.0001996546119952196 
-0.0001200983593531546 
-7.053437630275102e-05 
9.530946515650003e-05 
-2.312898413594513e-05 
0.0001047891667366661 
4.303298908420255e-06 
-2.350366514584002e-06 
-4.621459069196196e-05 
-9.021957220235963e-06 
3.804809311819775e-05 
-4.760129560176907e-05 
5.784325486928321e-05 
-1.881308591094019e-05 
-0.0001494773789273145 
-5.319887651735855e-05 
3.566388217234158e-06 
-0.00010017688241991 
-1.652714122840577e-05 
-4.065996615485559e-05 
8.901315076853962e-06 
5.097437338843994e-05 
1.824172381960417e-06 
2.641261762490429e-05 
0.000101057330246931 
0.0001577243314167564 
9.073170606403154e-05 
-4.031826889843728e-05 
-5.235956704194517e-05 
-3.959362761315081e-05 
7.436283097751376e-05 
-0.0001192362353390265 
0.0001125046778889442 
-6.068981862806291e-05 
7.241422616129522e-05 
-1.891244616766257e-05 
-0.0001976587372517319 
-0.0001799921004922412 
-8.709701070621801e-05 
8.502389678739704e-05 
8.118905740412625e-05 
-1.702896302717329e-05 
0.0003352459738713922 
-3.892783343624737e-05 
6.071763756524235e-05 
7.747572397982225e-05 
-6.112121448101907e-05 
-0.0001416395416398116 
0.0001526991611136306 
6.338736523897182e-06 
3.548707738104322e-07 
-5.28909183524037e-05 
-0.0002326054476499414 
-1.966100334317269e-05 
1.776129825941025e-05 
2.125655796858745e-05 
0.0001062204299920146 
-4.286055619487259e-05 
-0.0001370721652485874 
3.102156467210589e-05 
-3.454863260068066e-05 
-3.944438016462632e-05 
-3.768956073476001e-06 
3.109208071376683e-05 
-2.970183149973626e-06 
3.796867803170028e-05 
-0.0001738586497271108 
-0.0001064849476264073 
-1.348367468678347e-05 
-6.569397689326741e-05 
-6.30982209043336e-05 
-3.177953706442539e-06 
2.963275160797574e-05 
-4.44664056493954e-05 
8.926382315912278e-05 
-0.0002424847241115757 
-8.679986396244332e-05 
2.023896582864172e-05 
-3.750396094333518e-05 
0.000198382788637115 
6.475735571409342e-05 
-5.645782201970627e-05 
-5.835609598800076e-06 
0.000676042214876548 
-6.837901547235088e-05 
-1.890459401351097e-05 
6.201763267413083e-05 
3.795670376543937e-05 
4.691105733950874e-05 
2.986166326536196e-05 
-3.848822927608408e-05 
9.619332022011904e-05 
-0.0001253659833735503 
7.76478067804086e-05 
-7.017282100434208e-05 
-0.0001929827767429487 
-0.0001561029014912539 
-3.315039626590239e-05 
-1.908503652606761e-05 
-3.001655778384412e-05 
7.136936406567752e-06 
-0.0003116602266997156 
0.0001025247835203836 
0.0002288758157822106 
0.0002028622894685997 
6.953257803349691e-05 
2.532355076383981e-05 
1.404711991423082e-05 
0.0001663098221160527 
0.0001856222529680349 
-5.408383205113719e-05 
9.032556639637884e-06 
-0.0001907213846109485 
-7.891601566552747e-05 
-3.382269958124934e-05 
6.119011344103943e-05 
-9.940513271407714e-05 
8.727220740099316e-05 
6.650740883133134e-05 
-0.0002265988824119231 
-3.683625736467056e-06 
8.960416754045343e-05 
5.75610008200061e-05 
-0.0002753307187692319 
-5.728856747349092e-06 
-8.025379179595577e-05 
-9.435164160544877e-06 
4.221281915895222e-05 
-0.0001590528258015971 
3.238433426323719e-05 
-3.880780519079792e-06 
-2.583864453801755e-05 
5.394723206424539e-05 
7.261532367771469e-05 
-2.837345412607424e-05 
2.931675720923184e-06 
0.0001260726419860708 
0.0001922161236447541 
-3.728839079812926e-05 
-1.805091987975104e-05 
-0.0002133201129248257 
0.0001234428839332996 
8.129362641526969e-05 
-0.0001041545864633204 
4.418246599376035e-05 
9.714260569986465e-05 
-0.0004807505304043225 
0.0002279960976689038 
0.0001841332767104885 
0.0002538418176607219 
3.064807671430912e-05 
-2.462043111273897e-05 
2.462619420347583e-05 
6.3435812909467e-05 
0.0003678825518772205 
6.174410586532208e-05 
1.310574645405655e-05 
1.016134876716373e-05 
-7.241943426674411e-06 
-6.189962806833685e-05 
-2.435651904691826e-05 
-2.413417541996222e-05 
-6.7151157193263e-05 
9.383680511647579e-05 
3.828019630733051e-05 
4.832147714234234e-05 
-0.0001441484775658914 
9.641206951883514e-05 
-0.0001417061090533838 
-4.665686268678496e-05 
8.688174594174497e-05 
1.585450935577787e-05 
-7.351380375255823e-05 
2.737162655887348e-05 
-0.0004920481590200298 
0.0004945473508966229 
-0.000243907943748067 
-0.000103782283738436 
-5.39648339341821e-05 
1.17735841571208e-05 
9.064871376554404e-05 
9.944628928948729e-06 
6.408981427838856e-05 
-8.357881646688495e-05 
1.542592926176109e-05 
-3.198969336398862e-05 
1.122514661242004e-05 
-9.249577124214489e-06 
-2.767516530377338e-05 
1.276238036477741e-05 
-8.465441602755778e-06 
8.063140684501599e-05 
-3.503796456432711e-05 
6.475292483887274e-05 
6.907804175966809e-05 
-4.470621440368688e-05 
-7.121913352341099e-05 
0.0002220911820971487 
-5.604370109228474e-05 
2.65313913735921e-05 
5.443175055601875e-05 
0.0001819033149619371 
-8.673332659473254e-06 
1.56702501406424e-05 
9.427122424949145e-06 
-1.419678365804477e-06 
-6.56993622734611e-05 
-0.0002357916372649149 
-7.106826169683245e-05 
-1.923387703939819e-05 
1.382834099660414e-05 
-0.0002131427499132655 
5.821361525315992e-05 
0.0001592762116069256 
6.013360657786879e-07 
5.289354626789662e-05 
9.214180581397687e-06 
-1.047828022925508e-05 
4.609047768082517e-05 
2.057396559659445e-05 
5.293085080250835e-05 
1.876622763712798e-05 
-1.823223262390416e-05 
-3.545358559447647e-05 
3.867116746086377e-06 
6.769448541095057e-07 
1.360449512445076e-05 
-3.851036721526292e-05 
1.386325115278831e-05 
-6.157013845403046e-05 
4.481023947831163e-06 
1.323936101250858e-05 
-7.913768077496304e-05 
2.141699424702645e-05 
0.0002311062010093103 
-0.0002595684955441798 
2.336617847262574e-05 
-6.531000108632323e-05 
1.108736695935715e-05 
5.049276953887523e-05 
-0.0001140542951622386 
-6.256272152188433e-05 
6.529933667988777e-05 
0.0001460506830857876 
0.0002371554714513603 
-0.0002155557639942096 
0.0002418418293697063 
-4.204023531326133e-05 
-2.422272939908047e-05 
-4.0596365211958e-05 
-0.0001474945707562173 
1.033733337649409e-06 
6.561647413899002e-05 
-5.69531819363336e-05 
0.0002698355217800776 
-0.0001809705721996677 
9.917440073987131e-06 
-4.991624912827124e-05 
-4.820272899542254e-05 
-3.778247175750051e-05 
-0.0002303718531762063 
0.0001707389184013028 
7.951201032142915e-06 
3.89519727316536e-05 
4.315701219818771e-05 
-2.522755827988121e-06 
4.045959981090183e-05 
-4.981079552108771e-05 
1.222917604361294e-05 
-5.31578067790197e-05 
-4.549550792943249e-05 
-8.671448024723827e-07 
2.479607637610472e-05 
-6.643566656662946e-06 
3.591588675154922e-06 
1.998726872535397e-05 
0.00011492337253931 
2.836156686985645e-05 
0.0001366140231552659 
7.287509710388287e-05 
6.069967228761749e-05 
2.838340856886529e-05 
0.0001511278527980015 
-6.458684533036966e-05 
-2.732298612855082e-05 
-5.483649848117341e-05 
-4.673644042029162e-05 
0.0003356121048446582 
-2.197017604423495e-05 
-4.58350211311522e-05 
-3.5294683802616e-06 
-1.150789168708033e-05 
-1.352248362213051e-05 
-5.73489211384134e-06 
-1.662691764641129e-05 
2.908971718212856e-05 
-6.352899520715035e-05 
-1.007819257633738e-06 
6.510081286771546e-05 
1.734835380839862e-07 
6.719772485587261e-06 
-4.670815619447933e-07 
0.0002009115027960694 
-5.2740392362992e-06 
-0.0001506394157610263 
-0.0001962385936279985 
0.0003195830157841084 
-0.0002204275126321989 
-0.0004289103944339187 
4.815722600509584e-05 
-2.693149847917221e-05 
0.0001155560466379444 
0.0001607947238434053 
-4.263862566525479e-05 
0.0001503125255160492 
0.0002456605657155839 
1.202891078936079e-05 
1.079626804436177e-05 
-3.153577648780312e-05 
-5.941517180972714e-05 
-7.180087084025632e-05 
-0.0001307009241378981 
7.429211038618561e-06 
-2.487347694034802e-06 
-0.0001272169593328378 
0.0001336539329824964 
8.12696984100633e-05 
0.000239973564478494 
-4.316251017197754e-05 
-0.0003074692537194377 
0.0002290375159505948 
7.056130330828275e-05 
-0.0003384374250859427 
-0.0001166493881583063 
8.362980553212998e-06 
4.167043374821334e-05 
5.268780191861856e-05 
4.293889008167557e-05 
-0.0001416526223666102 
-0.0001130365312494997 
-2.29863925850775e-05 
4.97311414802722e-05 
0.0001262472343910711 
-0.0001945406622479922 
-3.843456440357454e-06 
8.957314948570489e-05 
2.532845667072374e-05 
-0.0004147949752140709 
0.0001207982528992549 
-9.563750726756498e-05 
-6.740276749947709e-05 
0.0002121971573125535 
0.0003185290073689573 
-4.464250462467454e-05 
-0.0001581952014191677 
3.349993063354618e-05 
8.405762565217682e-06 
-4.184729261447088e-05 
9.637815553050129e-06 
4.98920602461264e-05 
-1.703842260556312e-05 
1.051107480849451e-05 
6.964506606086456e-05 
3.258932551424557e-05 
7.583603841278705e-05 
5.734909505021893e-05 
3.899309401638031e-05 
-1.301805514795028e-05 
-1.802825893833875e-06 
-1.879052682595137e-05 
-2.075579911382879e-05 
-2.486040575938288e-05 
-7.112283010656624e-05 
-1.439507149493353e-05 
-2.704116169688613e-05 
-0.0001926052190711542 
0.000290642279297111 
-0.0001913058849181707 
0.0001438741950696117 
-0.0001815733097616224 
0.0002029377374159834 
-0.0002315809675522641 
5.012753792189093e-05 
0.0001710363244646398 
-1.3285483777131e-05 
-1.632740529514653e-05 
1.507483163879352e-05 
-4.321008709189546e-06 
1.160366216986061e-05 
-1.52206918327535e-05 
-8.398815162895848e-05 
3.844281161113726e-05 
-5.0255034924785e-06 
2.609788621522443e-05 
0.0001951775776006364 
6.568349860002653e-05 
-0.0001835234906520562 
-0.0004260855556928231 
2.205199718279394e-05 
5.352349675049177e-05 
0.0001590119630170573 
7.190734647588545e-05 
0.0001232219175653314 
-8.182106201975687e-05 
0.0001702972931300975 
-8.066324331277237e-05 
-0.0002165028890121383 
2.780074802481083e-05 
0.0001953169134116202 
-0.0001846288395175063 
4.386840115801778e-05 
0.0002743509061470277 
6.46181519104779e-05 
4.137694750547985e-06 
-9.808810729491206e-05 
-4.200112616271032e-05 
-7.844798785250629e-05 
2.310818115213462e-05 
1.848497989856936e-05 
3.611275385994989e-05 
6.010357135667607e-05 
-1.53850170499351e-06 
-7.960321164344519e-05 
-1.194048749765755e-05 
5.49665666943479e-05 
8.810021385864038e-05 
0.0001147286365947323 
0.0001501834068117901 
0.0002243033421314885 
-0.0001584456567516062 
2.607290364631358e-05 
-0.0002262205660647486 
-0.0003208315458681444 
-9.233009883682831e-05 
2.129997839302617e-05 
0.0001316468215058176 
-3.627591666143879e-06 
3.134665528076231e-05 
-0.0001680807836886304 
0.0001446920267070005 
0.0001976923738907463 
-7.926327824313666e-05 
-1.172926471796186e-05 
1.91481070318131e-05 
-7.436072094651057e-05 
-2.922981958773891e-05 
-0.0001510795798560272 
0.0003209501877172491 
-1.345133292602378e-05 
-0.0002603764072304513 
-3.515216831297381e-05 
0.0002542828850097028 
-2.114256562363452e-05 
6.702121823580429e-05 
5.919801053153211e-05 
-8.571863278875158e-05 
0.0001227119985150228 
-1.722307200918835e-05 
4.573447978269179e-05 
-0.0002505993795001876 
-4.022380360969866e-05 
-8.050129283989226e-05 
-6.088773301195074e-05 
6.810676653341537e-05 
6.318628485056333e-05 
4.629152548259701e-06 
7.423840589131726e-05 
1.322409933243237e-05 
-3.977099114811931e-05 
4.031904617673161e-05 
-1.045412885157957e-05 
0.0001236184432453072 
-0.0002374868307361851 
-0.0003432316938524644 
-4.219327696482688e-06 
0.0004185406426765887 
-0.0001040185900355404 
0.000365439399922483 
-0.0001189976155413681 
2.089604499719514e-06 
7.772723443593693e-05 
-0.0001639056829721451 
1.348369744276559e-06 
5.938420009733111e-05 
1.176989663811577e-06 
2.872449417297119e-05 
8.973222607264978e-05 
1.891268333585246e-05 
-1.853161685592585e-06 
-5.712088051976135e-05 
6.826720468929731e-05 
-4.234786734754614e-07 
-1.056674951145891e-05 
3.905500009820502e-05 
2.995992589597204e-05 
-3.7034104253627e-05 
-5.60192205129433e-07 
-2.509885854417836e-05 
1.891905941102997e-05 
-0.0001674648859846024 
1.588491981556155e-05 
0.0001810699808460806 
-6.850156529702124e-05 
1.752372561839702e-05 
-0.0001054648160146327 
-0.0002428330795193599 
8.717135524451101e-05 
3.838695960790863e-05 
0.0001355542110564358 
4.267979016471183e-05 
-3.82884126708639e-05 
0.0001618724239675211 
4.943363066848931e-05 
-1.501980181318247e-05 
-0.0001023459400039275 
7.361393608577454e-05 
4.192603593703226e-06 
-4.561757842318605e-05 
-2.598660629360483e-05 
-2.311091372698076e-06 
0.0002011221966179622 
-2.103837713543434e-05 
-3.279860264756152e-05 
5.019062535527631e-06 
4.480950440313413e-05 
4.422524477832969e-05 
-2.785664870389873e-05 
-5.026550167060921e-05 
1.321677522859485e-06 
-1.773397943608774e-05 
-0.0001719662830740158 
-9.455996490359521e-06 
-3.416780543149407e-05 
-1.223181190396671e-05 
-1.409206367466202e-07 
0.0001695915936029393 
0.0001447327275452806 
-5.451984910573579e-07 
-4.420920155286656e-05 
5.687092780063195e-05 
3.855422555817038e-05 
0.0001735141835682689 
1.14542373962881e-05 
-0.0001259605448282737 
-0.0004421687987403604 
-2.066947037487846e-05 
-6.788760790265832e-05 
-9.266741603717015e-06 
0.0001320355458689199 
-6.304027030958027e-05 
0.0001844841654123161 
3.409681931664953e-06 
6.446918805928373e-05 
3.546374633103351e-05 
-1.436245315127867e-05 
7.07155235014293e-06 
-7.238134148515327e-06 
0.0001425584094541647 
-3.671108157127566e-05 
8.692972930830475e-06 
-0.0001388856044646145 
-5.158389447617607e-05 
2.864608215271848e-05 
-5.980925097541972e-05 
-3.049403811786311e-05 
-0.0001555224383778753 
-0.0002818660544151593 
3.641947222914827e-05 
0.0003378122553148525 
0.0001461281560997949 
-4.267036438392457e-05 
-7.499461542707415e-05 
0.0002583015293319874 
-0.0002356878340280004 
-1.872340885465888e-05 
-8.118703504092102e-05 
3.918895975554345e-06 
-3.61246640668641e-05 
0.0001798758523391436 
1.044177313707157e-05 
-3.951169362135011e-05 
1.683048863994856e-05 
1.59381462506947e-06 
-9.519835666583281e-05 
2.269294030178717e-05 
6.950508954729608e-05 
-1.803319015259587e-05 
-0.0001469863918591863 
-5.308900685496452e-07 
8.987385590605043e-05 
2.420135650245553e-05 
2.423733440447618e-05 
3.321643672715145e-05 
3.426017528620498e-05 
1.150677815929705e-05 
2.564949148110612e-06 
3.189223233144898e-05 
0.000271202554178749 
-5.120753511197472e-06 
-4.645332126338539e-05 
-6.559180964719082e-05 
-0.0001251622059383213 
-4.677549352628243e-05 
0.0002983029181445823 
3.097155700472993e-05 
0.000205610190778059 
2.068594320914503e-05 
-9.532419681658572e-05 
-9.676047035032138e-05 
0.0001581172720900896 
5.04050008557801e-05 
-0.0004636686646181227 
-2.302327150894943e-05 
-4.091019900762841e-05 
-5.656970171223332e-05 
-3.128736347257872e-06 
9.462126948093448e-06 
0.0002924543790606476 
-5.606029125131366e-05 
-0.0001012711358694886 
0.0001755126541617479 
2.098585777175065e-05 
5.019871187830139e-06 
-5.77680619938028e-05 
-3.285597667268528e-05 
-8.9116161043183e-05 
3.726765766913744e-05 
-0.0001259855476004319 
1.733434941646718e-05 
-1.86624827138524e-06 
-0.0001160796603579732 
-1.378139405979827e-05 
-7.574068472664281e-05 
-4.875116887399522e-05 
-2.734522913722308e-05 
6.61545697358012e-05 
1.038039281328338e-05 
-4.705003565428612e-06 
-3.912754691300751e-06 
-1.73751606184178e-05 
-6.396798486400912e-05 
4.947763309213474e-05 
-4.423049813300934e-05 
-6.751514604147269e-05 
0.0002790454753555567 
-7.053234828988662e-05 
-0.0002958189047990113 
0.0002129736325074805 
4.110639419422388e-05 
-4.97361304248683e-05 
0.0003226086567127582 
-2.531715406942369e-05 
-0.0002415381972395864 
9.119417332166663e-06 
-1.871179819515197e-05 
0.0001782997505212256 
-4.919150835567801e-05 
6.155589081211509e-06 
0.0001198053306653608 
-1.479995564942082e-06 
2.852532637569155e-06 
1.38025611511565e-05 
-3.958210488026679e-05 
2.468186576068202e-06 
1.672086608757408e-06 
4.952234949187784e-06 
3.955010610736063e-06 
1.989574982586501e-05 
-0.0001196763182253566 
2.482514120492874e-05 
-9.913007066159544e-06 
-4.574559173827844e-05 
1.763735183863331e-05 
-3.31794472442343e-05 
1.235426988030093e-05 
-0.0001496918084412147 
5.710730055666391e-05 
-4.362332119657355e-05 
-4.096604367919816e-05 
0.0002320390541311831 
0.0001475129262420086 
-8.932401115412191e-05 
-3.480222561602934e-06 
-1.759898077330015e-05 
4.038748173891347e-05 
-3.480091858054947e-05 
-7.757561683102522e-05 
-2.471364689674362e-06 
0.0001516622016305256 
0.0001994458542005086 
-0.0001471169744431001 
0.0001872551069367242 
-3.592656585778031e-05 
-0.0001277642463527962 
3.823059838090553e-05 
-0.0001051113746335781 
0.0001671233119658276 
-3.542140849701573e-05 
3.578991492442997e-05 
3.382630166072937e-05 
6.625842206762138e-06 
1.286766141039687e-05 
0.0001567021290911552 
-3.88919422593087e-05 
-0.0001352793699343968 
0.0002942736432009639 
7.118130659270273e-05 
0.0001004808520212463 
0.000175867050788342 
-0.0002499411636927069 
-0.0002176818197609101 
-0.000107876768935281 
-1.965634962043316e-05 
0.000216963480841036 
-2.439852107243446e-05 
-8.9236159595571e-05 
-6.115163096595922e-05 
4.226583436276498e-05 
-6.462009333656565e-05 
-1.012512496001862e-05 
-4.919208235380594e-05 
-7.916490461786799e-05 
-1.1669291224148e-05 
-0.0001372936926749601 
4.354789336084196e-05 
-3.227664724910103e-05 
-9.708135309233696e-06 
5.000571699393544e-05 
5.852485500165601e-05 
-6.740624754233911e-05 
0.0002467939656070513 
-1.434786034146961e-05 
-0.0001074462720153302 
-6.541431284924715e-05 
0.0003898187414048387 
6.643390993776879e-05 
2.618915147310135e-05 
1.961197992050326e-07 
-4.443966555359712e-05 
3.382419310879322e-05 
2.299248895041551e-07 
8.611692936432089e-05 
0.0002596534308662174 
0.0001022064362262655 
-1.466527238392666e-05 
1.231292755814737e-05 
1.334243980758626e-05 
-0.0001868803101191385 
1.025852854319591e-05 
3.332439714854872e-05 
-0.0003533503441031471 
-3.102276772204834e-05 
-0.0002095459101560988 
-4.234055972290539e-05 
-4.029734663502599e-05 
0.0003586921470513529 
-0.0001515857065479146 
-0.000791491844438799 
0.0001264449094832035 
-4.870736520741912e-05 
0.0002904996724871222 
-0.0001341899393465428 
-7.849829843520237e-06 
-9.718149885376554e-05 
0.0001836654923203405 
0.0002247899548295623 
0.0001237500157145573 
-0.0001639846318858276 
4.376081864516007e-06 
-0.000131448274009435 
0.0004397906558462331 
-7.994890376473345e-05 
-3.049615229868423e-05 
-0.0002660315926159132 
2.487687452410263e-05 
-1.584444086261539e-05 
-2.827481420014611e-06 
0.00015031411133253 
0.0001574784767109645 
2.895952317574274e-05 
-6.431602489598615e-05 
1.149935257675933e-05 
-1.172247341111589e-05 
1.856460480562853e-05 
-2.110831968420267e-05 
-4.055916538898158e-06 
-4.456726038381974e-05 
-4.410262297104152e-05 
7.3176575855841e-05 
1.954397624297235e-05 
-8.163495957904968e-05 
1.167755280124339e-05 
-4.332691217691951e-05 
-2.820665684197891e-05 
-3.713206520897571e-05 
3.68377953816472e-05 
1.942461487715608e-06 
-7.628864459738765e-06 
1.766079962160447e-05 
-6.722022700045381e-07 
-1.375390756721467e-05 
-1.543296332607492e-05 
-2.890163561745966e-05 
0.0001979424570544538 
-0.0001449556722429614 
-5.53979438009087e-07 
4.095127921706001e-05 
-0.000147494599032621 
1.100191054452894e-05 
0.0001038845512693394 
9.40662260396024e-05 
-0.0001499947489869382 
-0.0001151556032361385 
-4.737825059438086e-05 
0.0001951322380623381 
0.0002792297570774585 
-3.719597335839706e-05 
-3.241616855858643e-05 
-3.076557847590501e-05 
-1.560021072147128e-05 
1.845035883825603e-06 
-8.09793799630723e-05 
0.0002229407278226287 
-0.0002322079806388038 
2.589262054404328e-05 
5.776308872508799e-05 
-5.885162672865231e-05 
4.291598777862151e-05 
-8.421379802096513e-05 
-3.921449998541726e-05 
3.535235993232324e-06 
-9.602580976280269e-05 
7.484434611746718e-05 
-8.036077331698068e-05 
1.015784991972031e-06 
3.641209733521707e-05 
2.824419087049961e-05 
1.222184963777549e-05 
-4.45235698345803e-06 
6.074743764725515e-05 
-5.496770461265125e-06 
3.875166826677435e-05 
0.00026905090039285 
-0.0005337999830225018 
0.0002455901398585489 
0.0003088073073315231 
-7.084651310958866e-05 
0.0001327631903346506 
-0.0001535958024422535 
-7.102931370690378e-05 
3.967742604557547e-05 
1.480531937803619e-05 
5.490653497699225e-05 
0.0001438890579294095 
-6.094664546751633e-05 
6.531016301098149e-05 
-5.777478147946304e-05 
-7.94173740470116e-05 
-0.0001216471137112259 
0.0001051465027339634 
-0.0002095130109594539 
0.000297518152831602 
1.713773442161723e-05 
0.0001350384833473986 
-0.0002006306090705307 
0.0001416026017193866 
-7.092109474182006e-05 
3.237314448963344e-05 
-7.084433841293063e-06 
2.569220641001921e-05 
-1.68788360741481e-05 
7.753701584183777e-05 
0.0002667150545661073 
-0.0001238698086833979 
-5.29695450800498e-05 
-0.0001083650637962503 
0.0002963121621748553 
-6.916697783479659e-05 
8.372392828321302e-05 
-0.000354388264039062 
0.0001498641143970207 
4.815150722130159e-05 
-0.00034580590819395 
0.0003482894884478777 
-0.000142144238392421 
-6.932770129621501e-05 
-4.912821747493357e-05 
2.78465456614453e-05 
6.55951666798387e-05 
3.293464167592163e-05 
-1.407839696307862e-05 
6.918776421809791e-06 
-2.957486583828419e-05 
2.875335264364704e-05 
-5.169559788070136e-05 
3.256651640677742e-05 
3.501982664290556e-05 
-0.0001123465517824066 
0.000288008004447837 
1.03625229008658e-05 
-1.929449689986586e-05 
4.232522577546719e-05 
5.546569701598906e-05 
9.737437550769455e-05 
0.0003150271649315661 
-2.847207609208218e-05 
-0.0002306294757938558 
0.0004999438929935223 
-0.0002083747316047129 
-0.0002334184333005143 
-7.917289180162171e-05 
-6.569986119035641e-05 
-0.0003629602748162466 
-1.378575191923992e-05 
-9.998341839322067e-05 
0.0001015881822156837 
7.122493740351747e-06 
3.14183450368198e-06 
3.038841859923016e-05 
5.055898607769094e-05 
-7.864576001800891e-05 
-7.303201825081663e-05 
0.000210742254594759 
-0.0003943794695939052 
0.000263829422929384 
2.925858703443086e-05 
-0.0001982294551843306 
-3.225008595205031e-05 
0.0001654283455646416 
-6.21777635875542e-05 
-0.0005130855627668125 
6.158958156127307e-05 
4.589822870145883e-05 
-4.886763667189881e-05 
7.015900222657772e-05 
7.923018951723864e-05 
-5.191729455963308e-05 
4.775268657985638e-05 
3.188439890762387e-05 
7.563527550583851e-05 
4.154281789228783e-05 
0.0001996726737795536 
-4.342381975152498e-05 
0.0001336595110093467 
-0.0002549122412102919 
-0.0001290681993994123 
0.0003072506327187386 
9.183418343557539e-05 
5.15882715962374e-05 
-2.545922689669655e-05 
1.916923804919987e-06 
5.451737310179437e-05 
-7.817987631476069e-05 
3.374595207953234e-05 
-7.119124005962314e-05 
1.915986428854109e-05 
-6.156344812111519e-06 
3.397905219596639e-05 
3.978656582723176e-05 
4.050097199567479e-05 
4.007119572721439e-05 
0.0002835084986744514 
3.057442880139041e-05 
1.134499068544378e-05 
6.409685522601141e-05 
-1.511500813724991e-05 
-1.9303476580885e-05 
-2.563121384873891e-05 
-1.632565418842318e-05 
9.569885312391529e-07 
-6.334945313622308e-05 
-0.0002059514449547877 
-4.866570203422562e-05 
0.0001629001428466808 
-0.0002718783173852157 
5.152143241075368e-05 
-3.789186256382034e-05 
-8.448829378513882e-05 
3.392764018265021e-05 
-5.17777501003733e-05 
-1.614073529680443e-05 
8.65712714952958e-05 
4.996039257171904e-05 
7.460474077248189e-06 
0.0001836847236115932 
-4.113763783307129e-05 
-3.287034578638724e-05 
-0.0002072036829387389 
8.345859193014594e-06 
-3.388326829537666e-05 
0.0001701737542611183 
1.267078021104604e-05 
-4.778632166746587e-05 
-0.0002688445036470641 
4.84242073271804e-05 
-3.305064126782617e-06 
2.327669634088182e-05 
7.102348027482544e-05 
-2.35030268971763e-05 
3.048393803327916e-05 
3.990024117842567e-06 
-3.350984598320292e-06 
0.000241544330713361 
-6.748340781027256e-05 
0.0001376990250041183 
-4.302420515753164e-05 
-3.391373434412155e-05 
-9.801849442748978e-05 
0.0001677725873807957 
-0.0001944941649729355 
0.0001055298464466702 
-0.0001247226813227856 
-4.629718297433267e-05 
0.000290154755599608 
4.052916740654568e-05 
-0.0002987195256602116 
0.000120073247169457 
-6.640255658992114e-06 
0.0001200978922183845 
-9.988350905650096e-05 
-0.0001261897211181536 
8.908837295307639e-05 
5.155578162229323e-05 
0.0001542602838456274 
2.832734229607865e-05 
-7.015312802888561e-05 
-0.0001390365596291048 
7.772959747790496e-05 
-8.046545493799226e-05 
0.0001903318425971519 
0.000241436137873274 
5.729666831628332e-05 
-4.188105380571602e-05 
-0.0004051444861802507 
1.447326606354122e-05 
-1.054255407089206e-05 
6.175842372761651e-06 
4.529342228798534e-05 
4.48186701177103e-06 
-9.258277458871251e-05 
-1.823222981247824e-05 
