solver_type L2R_L2LOSS_SVR_DUAL
nr_class 2
nr_feature 17337
bias -1
w
3.061909571804222e-05 
-1.749342905787244e-05 
-5.703609739697002e-05 
4.417526756492768e-05 
4.706042059513507e-06 
-2.043342300498195e-06 
-5.802822068754576e-05 
-0.0001119890053451787 
8.782028717326326e-06 
8.47011911445099e-05 
-0.000157765389724733 
-8.53927123803118e-05 
-4.435770561749096e-05 
0.0002855589502270528 
5.056888605402759e-05 
-0.0001061874922697642 
7.856157210852606e-06 
-4.274408433100126e-05 
-5.560843353785795e-05 
0.000130399507466754 
-7.530338569676841e-05 
-3.525329701703297e-05 
-4.990540684483945e-05 
5.655187746778269e-05 
2.850658698994029e-05 
-1.185551930815637e-05 
-4.137369550745478e-05 
2.951544728230191e-05 
3.792125132133211e-06 
0.0001550456673405694 
9.44143379184246e-06 
8.093291307236535e-05 
1.020477263738399e-05 
1.698736661816766e-05 
-5.724647575556507e-05 
-5.428726381411096e-05 
-4.64971276767913e-05 
6.32618565376626e-05 
6.669857975535239e-05 
0.0001007123775801959 
-1.094219961849328e-05 
-0.0001465806336141519 
5.161841114856174e-05 
-1.456817039433977e-05 
-8.746767653535776e-05 
-3.468966791098702e-06 
4.875341850062564e-05 
6.312348738529832e-05 
-1.63828176850073e-06 
1.309617577484716e-05 
-6.903121354449602e-05 
-0.0001023310023979422 
8.673292725016701e-06 
-0.0001057902250171726 
-0.0001920115547003724 
-5.524870634994427e-05 
-9.122593106416832e-05 
9.772466026668674e-05 
4.869685530777078e-05 
2.294520117766858e-05 
0.0001212540010211729 
1.484567416554871e-05 
0.0002153851680244148 
0.0001331700906325952 
-1.415432896799917e-05 
-2.460935139723474e-05 
2.432962648645931e-05 
8.097858570290829e-05 
3.319826566972198e-05 
1.429631660140924e-05 
6.515514280883773e-06 
-2.156375959574379e-05 
5.4063570479732e-05 
-6.245534055136423e-05 
9.254369435895881e-05 
-1.039724240986547e-05 
5.096898840446607e-05 
1.596056614020306e-05 
-0.0001091654782356104 
-2.539064498577758e-05 
8.605330061929134e-06 
-0.0001308472051007895 
-3.095775684629613e-06 
-1.571484115335732e-05 
4.092972365696405e-06 
-4.10176806042161e-05 
2.226807182598609e-05 
0.0001579802138855321 
-7.139448953011467e-05 
4.825788285455291e-05 
2.887331507672539e-05 
2.459804018171176e-05 
-9.980665286771312e-05 
4.607769723657065e-05 
-7.947620564874002e-05 
5.429630533617444e-05 
9.103965769164575e-06 
1.969072721292978e-05 
5.330057479173754e-05 
-1.438574120140254e-05 
3.037664625527345e-05 
-8.526145668931628e-06 
6.40376252821592e-07 
5.785290218310629e-05 
4.538989263798676e-06 
1.175270789854125e-05 
5.017416086368923e-05 
0.0001703366462983366 
-6.951970866645707e-05 
9.80113489834829e-06 
3.071811595165237e-05 
-4.41338750626453e-05 
8.687240891385451e-05 
-2.624411262928315e-05 
-0.0001867925227710713 
7.534179461428859e-05 
2.091306001188263e-05 
4.122890520782295e-05 
-1.148890717297088e-05 
3.295871144081516e-05 
3.882565780797691e-05 
-2.632423741385217e-05 
-6.730930595298733e-05 
-0.0001665398665638118 
7.398935324622189e-05 
-5.580419658543484e-05 
0.0001611378634329919 
-0.000243670122409943 
-2.012092838972947e-05 
-7.073657729476751e-05 
2.303422484308034e-05 
3.305069401758601e-05 
-2.682957680543004e-05 
0.0001128395202988369 
-4.976227526167829e-05 
0.0001046935750198497 
0.0001438901330354466 
-0.0001371760279862191 
6.310170594536411e-06 
9.260520108352128e-05 
7.710367943148455e-05 
-2.045128258604769e-06 
-3.274068722189441e-06 
-5.495832257369172e-06 
2.66992885091031e-06 
-4.471224872720227e-05 
9.963307388072117e-05 
-1.515933849379549e-05 
-9.391485051577792e-06 
-8.463611863528009e-05 
5.584802886650643e-06 
-0.0001008872919115663 
-2.532054083343422e-05 
7.011718630487304e-05 
4.338748156415353e-05 
-3.73140690888096e-05 
1.275088973420214e-05 
3.3752485508494e-05 
-0.0001827674608006284 
1.302188168039952e-05 
0.0001437046644499681 
4.113946238872178e-05 
2.226025054601399e-06 
-3.804718526244404e-06 
4.827993989628732e-05 
2.228070098238968e-05 
2.081340918247819e-05 
3.803087888417684e-05 
6.260588286041414e-05 
-4.261077839756524e-05 
2.389864166084235e-05 
-1.640045050924119e-05 
4.093460757207741e-05 
-6.881454835671219e-06 
3.526800035829696e-05 
-6.359703917104777e-05 
8.909657407914624e-06 
2.594191692880026e-05 
-0.0002157513053884203 
5.62283133319954e-05 
-8.18556222856524e-05 
-3.887295914143152e-05 
-3.216334096522202e-05 
7.129514908530893e-05 
0.0001336820980343952 
-2.173054535664836e-05 
0.000138062330446158 
-5.014720876390362e-07 
-0.00016046343209988 
0.0001262188945364003 
-7.977989951119797e-05 
-0.0002162915945689018 
-2.981915348098858e-05 
-3.793728718034462e-05 
2.592353311721073e-05 
1.346928379733527e-05 
0.0001237923522217509 
-1.959740347879021e-05 
-6.905031532089956e-05 
2.832594320644127e-05 
0.0002657305255651857 
-8.208239124983763e-05 
7.682357250987854e-05 
1.857196507010974e-05 
9.691380032196571e-06 
-6.998571948294665e-06 
2.94359401555506e-05 
5.944893221393971e-06 
0.0001707084404890638 
0.0001578788564705363 
-0.0001475654174895412 
-3.100560793557217e-05 
-5.723290775616214e-05 
0.0001332467981925575 
1.78107650349325e-05 
-5.223834333993125e-05 
2.954135328904633e-05 
-5.864728030263548e-05 
-6.068206475492897e-05 
-0.0001064754464142132 
-0.000101412683937958 
-0.0001583383572054789 
5.044064236645987e-05 
-7.943705272760919e-05 
-5.170701671560791e-06 
-8.277020382617e-06 
-0.0001074968014871065 
-4.300745464317951e-05 
2.036407391716266e-05 
-6.765846690876349e-05 
2.090766603632289e-05 
5.076809862913355e-06 
9.790645988855457e-05 
3.730389129750208e-05 
1.24478298054941e-05 
3.339758231661881e-05 
7.155335287342441e-05 
2.886631955083511e-06 
-7.493949554789059e-05 
-3.715966630615504e-06 
0.000179857221289351 
-2.558954404745966e-05 
-1.677918979069924e-05 
-4.363770651125833e-05 
0.0001090467095850964 
7.471412723531296e-05 
-6.658462788231855e-05 
6.085792674405127e-05 
-2.078712507089892e-05 
3.390446581203526e-05 
3.737062640905116e-06 
1.238984849296725e-05 
-1.440979385263746e-05 
7.299048404874957e-05 
-0.0002984762750037162 
6.003985845642168e-06 
-1.518529322215716e-05 
8.607348451474234e-06 
1.875111274019153e-05 
-4.865602284766161e-05 
-3.160470797508323e-06 
-9.144772751518847e-06 
-2.747080457565075e-05 
0.0001200114529674152 
1.830115413601504e-05 
-2.696006538143012e-05 
-4.099777257836155e-05 
0.0001733205994340463 
-0.0002747841572785072 
-0.0001083181792372993 
0.0001027834277155514 
5.683939391546333e-05 
-3.464067577006306e-05 
-2.047584259961932e-05 
2.504778522964882e-05 
-4.399395560756226e-05 
-1.645472177663091e-06 
1.426921678728565e-05 
-4.433060409802277e-06 
-7.383403263392052e-05 
-4.233985901659704e-05 
7.956400660608475e-06 
5.648277806423964e-05 
7.376349965289719e-05 
1.485399128666535e-05 
-0.0001038344348055017 
0.000282499395308439 
-3.479672444265357e-05 
-6.489449666480292e-05 
3.480172728671355e-05 
1.015303596896484e-05 
-1.511451971976763e-05 
-9.521130531815073e-05 
-3.197478229313799e-05 
-5.294959193861227e-05 
2.327462532673941e-05 
2.144986440681911e-05 
3.389677755821197e-06 
2.423901163198793e-06 
1.069231061999533e-05 
-2.879014956460395e-06 
1.797161759096346e-05 
-1.682246458082637e-05 
3.36493831357349e-06 
9.485630275873657e-06 
0.0001021725864651569 
-0.000107729918615205 
7.392631562552238e-05 
-0.0001006651146634004 
-0.0001048835742141733 
-1.426538901784085e-05 
-1.961549374395325e-06 
8.041606449181019e-05 
-1.675824699644912e-05 
2.450440896330569e-05 
-3.515917799580576e-05 
7.95426058653798e-05 
3.833195091811108e-05 
0.0001145826057743229 
6.960123975322064e-05 
-5.025841544829929e-05 
7.282910506011858e-05 
-2.534969251477693e-05 
-7.52114296343338e-05 
-3.433531116386205e-05 
9.271940556345935e-05 
2.815551814792905e-05 
-4.360202582840324e-05 
-0.0001018380724828809 
3.037032415518638e-05 
-6.673760275930488e-05 
2.405355703285521e-05 
1.205736650318894e-06 
-5.535395916960087e-06 
2.882370732191118e-05 
2.16193041972564e-05 
9.413251471531558e-05 
-8.55636867144705e-06 
-7.077704246724754e-05 
-9.133877197528774e-05 
-1.743111221769662e-05 
1.32394638846853e-05 
2.95764843695297e-05 
-3.495417935037078e-07 
7.174955291209108e-05 
-0.000124729948996861 
5.967790524519388e-06 
0.0002315153881268535 
9.81529690800398e-05 
9.112333754051262e-06 
-7.179946937872578e-05 
-6.556994030067393e-06 
0.0001843500904247113 
-8.724276426135884e-06 
-8.88300223648231e-06 
-9.290067340150534e-05 
-2.990191838764046e-05 
5.031696501873827e-05 
-0.0001098548190592098 
-0.0001358110354383489 
-8.545131318272319e-06 
4.258609717126636e-05 
-3.404312959910586e-05 
4.139728248203252e-05 
-3.938597966797335e-05 
-1.172333543871207e-05 
9.596849242782442e-07 
-2.093793371899121e-06 
-2.139639382160479e-05 
8.656708105491774e-05 
-5.071685674653559e-05 
-1.045454618319615e-05 
2.822190630718621e-05 
-3.628329575551168e-05 
4.876727294969729e-06 
4.787377547416605e-06 
5.983412568990804e-05 
2.029462757996777e-06 
2.481450092745812e-05 
3.170049719255126e-05 
0.0001147103358649318 
-3.118089091357874e-05 
1.356290332381166e-05 
-1.381130794932217e-05 
-3.687441430720909e-05 
8.192728222622096e-07 
8.312248865045915e-06 
-1.950618145164796e-06 
-3.675832842448207e-06 
-3.559001820349562e-05 
2.739873509344706e-05 
-6.719012313278804e-06 
-1.770811927828343e-05 
0.0001378846877266471 
4.107111731115739e-05 
2.110018425258252e-05 
-6.384931348693729e-05 
4.954141966857649e-06 
1.834792817320311e-05 
0.0001019169548137969 
-3.05425104198368e-06 
-2.773499134754286e-05 
8.203757609011568e-05 
-1.781021423113332e-05 
-0.000217716451617638 
0.0001835153354981417 
-0.0001712663162456965 
0.0001143512873648254 
7.386009437334257e-05 
7.395191644522324e-05 
-0.0001308919508505704 
6.982412341938185e-05 
-7.259172831373388e-05 
-2.820673008384131e-05 
-5.107837374128705e-05 
-1.144063756033124e-05 
6.181955242676318e-06 
1.206671203054856e-05 
5.900361399706642e-06 
-5.427526298044961e-05 
-4.287996677310198e-05 
2.114338667582651e-05 
-2.086960578747322e-05 
-4.400640827084507e-06 
1.251825577399153e-05 
-1.064787255534563e-05 
-4.762927428512302e-06 
2.297082502588558e-05 
-5.534577991836587e-05 
3.772277318049978e-05 
-2.727828444278751e-05 
1.962477319789136e-05 
5.800711579108911e-05 
-0.0002084545260307874 
5.781473706722432e-05 
-0.0001827456426650127 
0.0002393279116110764 
-4.114032213649227e-05 
9.874103951062658e-05 
-1.787234751540653e-05 
1.097288974608124e-05 
3.714083045947224e-05 
0.0001086488575452176 
0.000178005613291839 
-0.0001010600507004322 
8.344306121379547e-06 
-9.314251613298819e-05 
-9.860762985115688e-05 
6.433556939380359e-05 
0.0001686421435593641 
-0.0001515510558798115 
-2.041747211522408e-05 
-5.380514444451347e-05 
-0.000121839199607927 
-1.535713151576584e-05 
-5.520673035451366e-05 
-3.504970527622654e-05 
-1.597416608063612e-06 
-5.651578971684633e-05 
7.076442687238429e-06 
0.0001134443910106932 
5.535951272889137e-05 
0.0001501162396741939 
5.479760456079931e-05 
-6.919572498061828e-05 
9.537423994228684e-06 
-4.014352489152551e-05 
9.333919498979252e-05 
-3.102642924122843e-06 
-6.129919631648381e-06 
1.797161759096346e-05 
-4.072868542235375e-06 
6.615347281579402e-06 
7.062802942449012e-06 
6.3826654740466e-06 
2.167100207426307e-05 
2.150126649849918e-05 
-1.189256992907512e-07 
-6.326382204849031e-06 
1.032312421913122e-05 
2.06728013256229e-06 
-0.0001713268758609623 
-2.857508316442156e-05 
-9.376822330057457e-05 
0.0001180391072441237 
0.0001464056159179154 
0.0001474390819749338 
4.665364952159744e-05 
-1.894308388455469e-05 
-7.050741938628102e-06 
1.440715929919597e-05 
-7.931181351803211e-05 
-0.0001188241578983212 
6.868420773068932e-05 
4.158157097947223e-05 
5.675528303627665e-07 
-2.115010786969531e-06 
2.771363071508412e-05 
6.343093398693335e-05 
-1.359991020574659e-05 
8.648424447224554e-06 
4.300931065350774e-05 
-1.934338198003812e-06 
-1.581998420421282e-05 
9.129235870593741e-06 
1.371787766364389e-05 
2.622320068998858e-07 
-1.395773038809752e-05 
-3.910160218541967e-05 
-2.284952288660275e-05 
-7.608595655685971e-05 
-3.810214225922111e-06 
0.0001075525017234909 
7.072785014345355e-05 
-4.681160957440408e-06 
-1.012361310329726e-06 
-3.545352809408942e-06 
7.174371487670367e-05 
-0.0002027676495580457 
-0.0001831421775019574 
0.0001064471848315781 
6.879283065747019e-05 
-1.765133006826086e-06 
3.759825325247066e-05 
1.914576343839054e-06 
-5.735462992062909e-06 
-8.387291913722413e-06 
2.126205148282152e-05 
-6.429581867856902e-05 
2.15603510946721e-05 
5.350575903358899e-05 
8.092025137023857e-06 
1.464664349166768e-05 
-5.054793086937322e-05 
-3.859039662530854e-06 
1.269988346812587e-05 
2.826618260850608e-05 
-3.419531607863597e-05 
-8.783226984302916e-06 
-2.161899126106269e-05 
-2.945734825429002e-05 
1.635446529882788e-05 
4.525616283670463e-05 
-7.453079291104382e-05 
2.808969378743281e-06 
7.687782815331353e-05 
-0.0001573683127485036 
-6.332013516295856e-06 
1.278132840293063e-05 
-1.940847388262626e-05 
-1.105465717270851e-05 
2.027995643417918e-06 
-5.107614848829124e-05 
-6.321646522255079e-05 
1.607633809116061e-05 
6.318730894602453e-05 
-1.629902888040257e-06 
4.954607446886426e-05 
-9.216565999811993e-07 
-9.299447539561694e-05 
3.758297680669359e-05 
3.172269375470338e-05 
-1.057546543953525e-05 
4.011915688668258e-05 
6.011974202022041e-05 
-5.735199465949074e-06 
7.982094650769586e-05 
-1.782976024388416e-05 
5.170814314058768e-05 
-1.263735302541995e-05 
1.62405825011273e-05 
-3.961160837893313e-05 
4.163433990244384e-05 
2.878052413659707e-05 
1.270329685463921e-05 
-0.0001376647458105769 
-5.641057995045226e-05 
9.067677828192221e-05 
-5.739599111513877e-05 
1.831764299838698e-05 
-1.736394123504839e-05 
1.198005578195617e-05 
9.241322827332532e-05 
-1.855191239520577e-06 
-1.970390110633817e-05 
0.0001218039819097635 
-0.0002080468831736785 
-3.543183104192933e-05 
0.0001120903477311121 
-1.574902480950847e-05 
2.407121137516591e-05 
3.455250895682097e-05 
-6.498012524040807e-06 
-5.655640346465968e-05 
3.877378486942136e-05 
-1.586651350983101e-05 
0.0003272786515046065 
-0.0001734603161946183 
9.856925062390921e-05 
-3.19942802308171e-05 
-2.30746116451255e-05 
-8.492852303349339e-06 
-9.835960931192426e-06 
4.546483353484076e-06 
-5.405597968614305e-05 
1.023792671073951e-06 
1.217526185748302e-05 
-0.0001120082644328033 
-1.790929989006765e-05 
-1.568629715287354e-05 
-9.592315190380283e-06 
-9.209456271721537e-06 
2.697591363823705e-05 
-2.216740121154085e-05 
0.0001533056690622248 
-4.406241712845891e-05 
1.75890530691602e-06 
4.142448060478259e-05 
6.570044647359887e-05 
-7.848001670876921e-06 
7.755050581806678e-05 
-2.37110520086691e-05 
8.545760738557388e-05 
3.894284557339448e-06 
-2.833926884652093e-06 
-3.956992865890328e-06 
6.07201066238476e-05 
-4.395797502460154e-06 
-2.061508259255487e-06 
-1.049093197921532e-05 
2.732656009705703e-05 
1.139907065016208e-05 
2.536467497691716e-05 
5.54045415358447e-06 
4.227322438777767e-06 
-0.0001080366074758535 
-8.297586202209316e-05 
-2.455109124979199e-05 
-3.033281837401799e-05 
-2.655050726881946e-05 
7.034092428565212e-09 
-1.902607273221829e-06 
-9.208518448794804e-07 
-3.056462470431991e-06 
6.32901315225483e-06 
-1.97993944275708e-07 
8.373872518946429e-06 
-5.29467072878848e-05 
5.348337927563021e-05 
-6.73666923662233e-06 
-2.290288975145007e-05 
-8.469418549508681e-05 
2.000645207731373e-05 
-2.67467275370438e-06 
5.973093014771722e-05 
-2.954400630151052e-05 
-1.096298021911186e-05 
1.603796277970494e-06 
-6.106508587421243e-05 
-1.192861918379647e-05 
1.337372673416335e-05 
4.213146443473731e-05 
4.537035075876891e-05 
3.948269128371309e-05 
-0.0001162062621237929 
1.797231874472989e-05 
-8.965574485060371e-06 
4.659308181057369e-05 
-8.568759895051306e-05 
9.28206966224039e-05 
0.0001384808267494876 
-1.828659480651729e-05 
3.248921281935573e-05 
7.205061020322914e-05 
4.350051779550016e-06 
2.338138105410928e-05 
-0.0002210789578449349 
2.225387383921984e-05 
3.339308723516847e-05 
-7.595419480371699e-05 
0.0001884325908488363 
-7.281052932839413e-05 
-3.829339469840252e-06 
-3.444025737418854e-06 
6.899520362166014e-06 
0.0001196243659599539 
-4.158778963546509e-06 
-5.254107261080466e-06 
7.795651451737938e-05 
1.075905632588139e-05 
4.596346144298566e-06 
-1.13255473278765e-06 
-9.562113063808074e-05 
-4.244339070364058e-05 
-1.649716781449931e-05 
-8.690072535517898e-05 
-2.090434830161231e-05 
3.828719665156916e-05 
2.09254695470823e-05 
9.843285189026439e-06 
1.892958934236573e-05 
2.557336275221294e-05 
1.738629140630882e-05 
6.849083797755691e-05 
-0.000160350257801787 
1.749985387135449e-05 
4.460206614164213e-05 
8.729773093647094e-06 
3.079757148866e-05 
-3.150645079468646e-05 
5.385051298975791e-05 
7.878661495684551e-06 
3.455250895682097e-05 
-2.425093903354887e-05 
-2.734492658943579e-05 
-6.896186110664192e-06 
-2.216442218676052e-05 
1.115908787931503e-05 
6.410210358749856e-06 
-1.817662397650051e-05 
3.995879270787084e-05 
-1.943347249543312e-05 
-1.108729209576305e-05 
1.186374877160955e-05 
-1.738955232926486e-05 
-6.4847195096524e-05 
-6.846932408529204e-06 
3.92612442311731e-05 
0.0001635657167697614 
-1.087204070161234e-05 
6.337785165831431e-05 
-0.0001310125223399285 
3.289861230337309e-05 
-3.579899566929979e-05 
1.189671915090945e-05 
2.56597948984577e-05 
2.01085151359699e-05 
1.8270751105232e-06 
-6.627287684012083e-05 
6.666709950281905e-05 
-3.240750398638405e-06 
2.147562237730209e-05 
-4.504153710892003e-05 
9.329113435865813e-06 
3.909062725847466e-05 
-0.0001344565233359619 
1.215844500507245e-05 
-1.447233898690192e-05 
-5.987459278130223e-06 
-4.867563932775714e-05 
8.406853059626116e-05 
-2.350260879648833e-05 
3.426979353606173e-05 
-0.0001396023232427993 
0.0001775717908280299 
0.0001874872459613165 
3.493743244782365e-05 
-0.0001831750063133436 
-1.340988676069409e-05 
-1.029591498932661e-05 
-1.764369353305915e-05 
0.0001128610725924915 
-2.450292581379107e-05 
-2.652598996455142e-05 
1.334946539630854e-05 
-2.524018917583188e-05 
4.708993240651566e-05 
-7.717582901712062e-05 
-1.147147499877139e-05 
-6.43925474196673e-05 
0.0002317116538280507 
-3.51324431300582e-05 
-0.0002185282539140049 
-0.000131091473926944 
7.687127372168504e-05 
-6.34825611081746e-06 
1.629913999010638e-05 
2.269262399762207e-05 
3.699563328548268e-05 
-1.296699546601505e-05 
-7.916746927526586e-06 
-1.696657624280048e-05 
-5.940790573832264e-06 
2.634752835837649e-05 
-2.159850354234673e-05 
-4.487812151237606e-06 
2.281993797941497e-05 
3.523066068891037e-05 
-1.561590273306037e-05 
4.347010396164833e-05 
-0.0001245916492607533 
3.520868259468986e-05 
1.90819247921555e-06 
-4.417510119597865e-05 
5.520043303868221e-05 
4.863914925803404e-05 
0.0001198181596542948 
3.691321158466852e-05 
-7.696165278119602e-05 
-0.0001403489771488546 
-5.12010466152898e-05 
6.716576590134758e-05 
4.248182806737913e-05 
0.0001005487392440402 
8.727394934760493e-05 
3.015738634575e-05 
-0.0001117219911719756 
9.252058386274914e-05 
-8.169953662932838e-05 
3.662678343538523e-05 
0.0001532627640208629 
6.735629764378375e-05 
-4.305967470537425e-05 
-3.505798413152256e-05 
1.585020096640692e-06 
1.63687867727171e-06 
-8.603989039167822e-06 
-3.810115828105575e-06 
-1.443026411902823e-05 
1.235123636202556e-05 
5.131051797973303e-06 
-6.641385781982365e-07 
2.021372762646788e-05 
-6.548776165753448e-05 
1.746159610431553e-06 
7.418724027686641e-06 
-1.877128863331386e-05 
1.109621279086365e-05 
-7.996173711396649e-06 
-1.994255389151152e-05 
-8.874021804007801e-06 
2.322160362685746e-05 
-6.081513637424376e-06 
4.533676262289872e-05 
8.675008841791607e-07 
0.0001091459654662078 
-1.035748261686517e-05 
-6.054840567260439e-06 
7.059846654820362e-06 
-5.658112333716765e-06 
8.659000645174504e-06 
3.322662092808623e-05 
2.554873242293167e-05 
7.363424471576924e-06 
-7.775603641302246e-06 
-1.196279753653399e-05 
3.179400330548227e-05 
8.78186060058009e-05 
-1.888704022237778e-05 
-3.109936285282956e-05 
8.008368243550405e-07 
-7.074670930271769e-06 
-1.02365357655808e-05 
3.229338111399907e-05 
-3.016802946199821e-05 
-9.367649499808797e-05 
-0.0001447251205891379 
-2.06413577515592e-05 
-1.477641207911196e-05 
0.0001234164312497889 
-5.703622147428082e-05 
7.348862256653151e-06 
-9.51461515512877e-06 
-1.369593922974561e-05 
-2.70146558082874e-05 
2.196860874773345e-05 
9.781004623343443e-06 
9.521907394972375e-06 
-3.780210459785171e-06 
0.000151649139676881 
0.0001085254067415287 
-9.014641489685751e-06 
-0.0003610934097515665 
4.922595533331917e-05 
2.402251766582212e-05 
6.040933584787739e-05 
-2.067447236206027e-05 
-1.942461769277857e-05 
-1.010844118755674e-05 
8.037189093263087e-05 
-1.397375450912607e-05 
8.832672915891733e-06 
-2.916364864723413e-05 
-6.33863747909294e-05 
6.069188510911615e-05 
3.089964596473225e-05 
-1.13729252277951e-05 
-2.3984203979161e-05 
2.367127689164352e-05 
5.135172469546222e-07 
1.372250681058245e-05 
-4.061545102805206e-05 
8.320690744066598e-06 
5.350535888825968e-05 
6.647487928363622e-06 
8.582730169398333e-06 
1.94808667656782e-06 
-6.921173820668345e-06 
7.587111254741806e-05 
-3.235137646197155e-06 
-7.508290479064051e-06 
9.206103359432969e-06 
-1.906546835508081e-05 
5.441445180399344e-07 
4.341678803726873e-08 
-6.104978298085939e-06 
-2.627581537202309e-05 
-7.078816445078296e-05 
0.0001411072094957682 
1.032977591343933e-05 
-2.730619536709382e-05 
0.0001408976163953169 
2.246542405326119e-05 
4.138153964081689e-05 
1.28160007962962e-05 
1.966134426614396e-05 
1.732948949288443e-05 
2.06180980011096e-05 
1.408015804742731e-05 
2.796720853918565e-05 
-0.0001667794558028918 
2.346681230307933e-05 
3.039601290700143e-05 
-3.412811737130339e-05 
-9.914830793184426e-05 
-9.928270672749044e-05 
6.7099021558332e-05 
2.817020495293109e-05 
4.463974101196783e-05 
-2.82070416131359e-05 
5.492223230448801e-05 
-1.235616409143034e-05 
-8.616623061820452e-06 
-5.52897560565712e-06 
5.4923035449374e-06 
-2.376966727668975e-05 
3.172337468298894e-05 
9.864547139223079e-07 
-7.093221824845366e-05 
-4.11362877588079e-05 
-6.194128980280935e-06 
7.416729672466053e-05 
6.575206062324938e-05 
-2.610925505538835e-05 
5.306676706270894e-06 
-5.879522811374614e-06 
3.848986230454993e-05 
-4.503458891907228e-05 
2.827463144998876e-06 
7.546557046219447e-05 
-0.0002461805433961432 
9.839771079106312e-05 
-1.63067208040099e-05 
-4.5422287023399e-05 
-1.539513086117866e-05 
2.437074858899821e-06 
8.684644608952676e-06 
5.132342272889922e-05 
-2.423213186447458e-05 
-4.789204731553843e-05 
-1.341139400467694e-05 
1.695261116422145e-05 
2.073269775757359e-05 
0.0001078270841061278 
5.690706471951341e-05 
1.812560151558447e-05 
-6.284621231912791e-05 
-7.805524752394041e-07 
5.612917857744959e-06 
-8.022534410306998e-07 
-0.0001240241617841615 
7.932146362409454e-06 
4.272818275621408e-05 
0.0001009966806824804 
-0.0001430158202374679 
-0.0001057687722810833 
2.640128136046479e-05 
4.324393026203446e-05 
-6.156404289008232e-05 
4.487279012825832e-05 
4.077335390439965e-05 
-2.912197760635891e-05 
3.255904100032533e-05 
-0.0002425403616329429 
0.0002035667637230206 
2.82579203591642e-05 
-3.178590306127568e-05 
0.0001366235559930455 
3.525310680085268e-05 
-2.276513932351243e-05 
2.449884115629584e-05 
2.189435050575229e-05 
8.646805716769988e-05 
1.880151682403109e-05 
1.713294822547104e-05 
2.351998326895059e-06 
-1.176419842999296e-05 
1.258516777302876e-06 
3.233040937801511e-05 
1.713813670137277e-05 
1.165647270612423e-05 
3.578879777784121e-05 
1.282816044086416e-05 
-1.372221186321013e-07 
-7.972529954300954e-05 
4.38563108336228e-05 
0.000173797841645123 
-9.062286577034863e-05 
0.0001464760737093524 
8.376349336195848e-05 
6.715081875708031e-06 
1.71889240620295e-05 
-2.275319710195055e-05 
1.255271021063141e-06 
-6.264792330029735e-06 
9.271641458702287e-05 
-0.0001244762765018184 
-1.028665025806152e-05 
-0.000303991998520431 
2.450375758071495e-05 
-9.050102398483845e-05 
-7.308188988868314e-05 
-2.947803804506463e-05 
-2.371893716960719e-05 
-2.147151730460905e-05 
1.476699983261468e-06 
1.350591969598404e-05 
-2.079370733629928e-06 
2.444181644306177e-05 
1.124537095808008e-05 
2.295330262510247e-05 
-8.528760801622568e-05 
5.297641792247312e-05 
3.938344194845948e-07 
3.673671375657093e-06 
3.729807141316597e-06 
-2.467694953437486e-06 
-4.525669774750057e-05 
9.57136468333636e-05 
-3.332287964630847e-05 
-0.0001591863952066652 
-5.89446720834453e-06 
-1.063735247962449e-05 
-6.042680628823555e-06 
0.0001205361950705691 
-2.993241132086489e-05 
4.523238556957166e-05 
4.392290619920788e-05 
-2.395294837219112e-06 
-0.000128964581868733 
-8.876725375161069e-05 
8.682693405534235e-05 
7.778634642544553e-05 
0.0001293038864168105 
-3.499255123337041e-05 
-4.734820391943431e-05 
-0.0001905789874949317 
-4.4775984408523e-05 
8.442748869901798e-06 
7.705611005409301e-05 
0.0001442969600619 
4.714355705503177e-05 
8.840854790534421e-06 
1.996287807021246e-05 
-1.289658642741601e-05 
-3.172033196581994e-05 
1.610426407706056e-06 
-3.360242545222865e-06 
-3.403823244385689e-05 
2.234727190861562e-05 
-5.978112501512619e-07 
0.0001125531393097228 
6.541017714339446e-05 
-2.373328743744781e-05 
-7.570399983666042e-05 
4.032589230613007e-05 
8.570019151865367e-05 
-9.743292959553638e-06 
1.212275544083535e-05 
-4.997360353767024e-05 
9.478397902602109e-06 
-2.222113493674648e-06 
3.427748427419796e-05 
-2.557801433613641e-05 
-3.70650312835733e-05 
-6.424610323625441e-06 
-1.854724913282973e-05 
-7.257394639055543e-06 
6.253293161719161e-05 
-4.857371084220838e-06 
-7.926851833962844e-06 
2.511132354134192e-06 
-5.896010350608351e-06 
4.258025110048092e-05 
-5.618654167848551e-05 
3.15629498364342e-05 
-2.04031034099398e-05 
-6.49497635474825e-05 
2.802588355592971e-05 
3.091145486628575e-05 
-5.164107417363816e-05 
7.454508429148625e-07 
1.951795650400662e-05 
3.545589817969444e-05 
0.000144771113450834 
-7.782680351768287e-05 
2.325949204801281e-05 
0.0001242410455357811 
-3.450306521751802e-05 
5.642532426368883e-05 
-2.510841210753879e-05 
4.645464965468671e-05 
-6.187803845067009e-05 
9.865520161601537e-06 
-0.0001487493425331485 
-4.113647024053256e-05 
4.735624147027276e-05 
-2.053384330817227e-05 
0.0001146102355867771 
-1.419391578867232e-05 
2.112287177402738e-05 
7.655932111008777e-07 
-9.930189366925862e-08 
-4.969187795641443e-06 
1.023424296565182e-06 
4.525434854945373e-06 
3.55935806992245e-05 
1.549138088060585e-05 
4.363952722747805e-06 
-0.0001397881107561619 
-0.0001227497879445395 
0.0001445137639542859 
0.0001433186839462507 
1.565472457927493e-05 
2.379524928795029e-05 
4.545411911111095e-06 
6.432957465572364e-06 
3.104975781677203e-05 
-2.779247364808879e-05 
3.764669035993154e-07 
-5.188581555707388e-05 
-5.885407457680896e-05 
8.089305500781777e-05 
-3.757247022527669e-05 
7.099498206400293e-06 
8.471496050348439e-06 
6.01367312981e-06 
-5.671164624577573e-05 
-9.62284676370181e-05 
9.438420933870816e-05 
6.030611228834957e-05 
2.560763401829028e-06 
2.248987892520869e-05 
-3.8323106319582e-05 
1.198866034317835e-05 
2.804653204311957e-05 
-2.512810991947298e-05 
9.739507767968969e-06 
3.210046727714434e-05 
-3.034062976519666e-05 
3.276971730812894e-05 
-4.74500089113255e-05 
4.123586092470522e-05 
-8.572682365173319e-06 
3.301526701745198e-06 
2.571537400655127e-05 
1.170191413403737e-05 
-1.422378403152341e-05 
2.278992074962267e-05 
1.653593392242121e-05 
-2.430190679477077e-06 
6.282630566415261e-05 
-4.833872244415696e-05 
6.984628721979499e-05 
-4.515479292547301e-05 
-7.870354771854459e-05 
-6.069548787291395e-05 
6.205868738199644e-05 
-0.0001632223138633247 
3.61636404507315e-05 
-2.516196281676504e-05 
5.117380168104392e-05 
-1.766241932590513e-05 
-5.628774552692865e-05 
4.319921646862404e-05 
7.502910769626539e-06 
4.178410221771543e-05 
-6.373805105174878e-06 
-2.112218651154544e-05 
-3.900836337668976e-06 
-6.678298980957517e-06 
6.138115300276476e-06 
2.96330401490879e-06 
-6.644037911098126e-05 
-1.484439171199762e-05 
-4.911863678299549e-05 
-1.039302766585233e-05 
5.905268238179625e-05 
2.125558085114596e-05 
5.746178020925725e-05 
-2.16077863247836e-05 
-0.0001205316974386472 
-5.578184421465796e-06 
2.513061756029212e-05 
1.095631409081909e-05 
3.20530523651314e-05 
1.274601483874815e-05 
-0.0001220521305065834 
5.719495864548178e-05 
-9.474847686691309e-07 
0.0001162145512984084 
9.727598352236109e-05 
-5.974801547901577e-05 
-4.166311596681211e-06 
1.59085731887567e-05 
-3.208734941539011e-06 
-9.126099566039948e-06 
-8.81582519933919e-06 
2.801958946561087e-05 
-1.107471682441754e-05 
-6.701405065280098e-06 
4.942227660689667e-06 
1.027293621093678e-05 
-3.789591076137955e-06 
-4.222024660070095e-05 
-1.172897200058793e-05 
3.343785102581672e-05 
-8.283795136339323e-06 
1.146141041255095e-06 
6.848270303686965e-05 
-0.0002273919293991428 
6.30359510949581e-05 
-3.363833674678677e-05 
-4.164306361045982e-05 
0.0001042603830806016 
-1.115114568341531e-05 
-6.454960939699589e-05 
-4.902562664015121e-05 
1.020962647500359e-05 
3.486736819555408e-05 
-4.129486116886426e-06 
-5.540062935445032e-06 
0.0001296148749212553 
0.0001008026933555035 
-0.0001063247462684091 
4.413785953246939e-05 
-7.626305762874344e-05 
-0.0001792344008940567 
8.463408761577635e-05 
-2.307516208687799e-05 
3.98285228804512e-05 
-2.539365408240852e-05 
-0.0001455250833674332 
-6.587091926544443e-06 
0.0001197360620462562 
1.452230431689969e-05 
-5.106600482590735e-06 
-2.840319789783853e-06 
-2.457741158108771e-05 
2.199656778557601e-05 
-1.962238535283815e-05 
-2.906968291912069e-05 
0.000167548043455625 
-9.592938318441539e-05 
1.465910119220422e-06 
3.037710154884358e-05 
-3.462622327942323e-06 
3.605657809523088e-06 
4.096014561789399e-05 
1.735118280768924e-05 
5.683329386841312e-05 
9.88982209361338e-05 
3.412373236153909e-05 
8.142940964752954e-05 
-4.911882867379083e-05 
-6.501711567336517e-06 
9.342633123067541e-06 
-3.148832682734966e-05 
2.755462745564972e-06 
1.359827129384969e-05 
-0.0002702339474720268 
-1.053429720787279e-05 
-1.473667763407514e-05 
3.390107173522369e-05 
-3.948619741656407e-05 
0.0001131810405379815 
-3.546712376286084e-05 
-1.051525573602039e-05 
-0.0001526930794439434 
-8.035012371592039e-06 
-9.239875794243419e-05 
-9.02871672333359e-07 
3.851665672979506e-06 
6.316418829391112e-05 
-1.606142056126642e-05 
-1.48737663254283e-06 
-4.080534474243383e-05 
0.0001376753966045083 
4.711694026467372e-05 
0.0001299321461707691 
9.027255771065981e-05 
-5.174684556521e-05 
5.185237927135227e-05 
0.0001231428398544306 
9.022947556260747e-05 
3.752462111589947e-05 
2.835547607095639e-05 
-0.000140487670823448 
7.940421968486818e-05 
4.379770129655277e-05 
1.236944189579122e-05 
-4.384098436133353e-05 
-4.684998886275612e-05 
-4.017953028637723e-06 
2.538349610546011e-05 
-0.0001181912093593162 
8.775085150631017e-05 
2.067827544376212e-05 
3.217986219681347e-05 
0.0002959406179077823 
-7.132120582084622e-05 
-8.506718063450539e-05 
1.871367186169169e-05 
-8.150850115136031e-05 
-1.694942974919959e-05 
-7.922258691446337e-05 
5.958433071764992e-06 
-7.61320835234592e-06 
-2.382846524184584e-05 
-4.022509568133931e-05 
-9.397419883995143e-05 
1.09468831605312e-05 
1.010822793857203e-05 
0.0001417943548524495 
-2.722090367007069e-05 
-1.294263315357142e-05 
-3.963587153582911e-05 
2.345584123318442e-05 
-4.979602330126415e-05 
9.253952171956331e-05 
-2.181883487937817e-05 
2.209049338499932e-06 
3.626584093413495e-05 
-1.367055393196733e-05 
9.739710174152691e-05 
2.761510513445692e-05 
5.71228712966525e-05 
-2.278943210988429e-05 
9.148922757213753e-05 
-2.148936617008824e-05 
-0.0001010412599881338 
-4.984434158744163e-05 
2.575497550344166e-05 
1.324372051133695e-05 
0.0001211285068140105 
-0.000119517574233447 
-2.299587207167018e-05 
-1.16404155280348e-05 
3.977739496427531e-06 
3.656595276840533e-05 
-4.92392015144649e-05 
5.689015007270445e-05 
2.799409861350779e-05 
0.0001895246341329195 
-3.177035073139146e-06 
-0.00013969850151079 
-5.109220206442589e-05 
-5.896980751152611e-05 
4.131568108589498e-05 
-6.248622649390191e-05 
0.0001299461104582509 
-0.0001501541805895491 
4.901703525548776e-05 
0.0001921272770041723 
-4.982803663797516e-06 
2.357410753462628e-05 
1.829793720208797e-05 
-1.76420689800922e-05 
-4.608848692765028e-06 
-4.008926677080401e-06 
4.047039646942089e-06 
5.923199453425563e-05 
2.731039048833559e-05 
-3.44780110740681e-05 
-3.244984932945178e-06 
-0.0001724112105489549 
6.142456202103536e-06 
5.284306803273544e-05 
-2.918327572207939e-05 
1.067008917593193e-05 
-4.991265980211075e-06 
-2.517559202212728e-05 
3.508723873859196e-05 
2.743541345473602e-05 
3.430399777021831e-05 
9.376790189171009e-05 
-0.0001373552884524897 
-6.019834019306181e-05 
6.943686753671447e-05 
4.27009958586577e-05 
2.050333323123613e-05 
-0.0001770295603391928 
-1.633633247216465e-05 
-1.603467359104824e-05 
2.056717660433844e-05 
-5.148311782530702e-05 
2.366783064369909e-05 
-4.138725415451658e-06 
2.731984073102573e-07 
4.962964877377748e-05 
-4.919769323836704e-05 
3.218743409024042e-06 
-5.51022410646275e-06 
2.250779020924712e-05 
9.959798151381934e-06 
9.463749638291047e-05 
7.026593667545894e-05 
2.254640155636813e-05 
0.0001080251244681531 
4.037409625233488e-05 
-5.700923169446119e-05 
1.171988027705957e-05 
0.0001037391542980052 
-4.426108857016913e-06 
4.073176904362577e-05 
-6.360952988569436e-06 
-2.673268454612002e-05 
-4.186202236322608e-06 
-7.417491961685481e-05 
5.590502192321572e-06 
-8.013797270211496e-06 
1.371931024495282e-05 
-7.668818183176078e-05 
-5.077419636027397e-05 
-3.609953538618151e-05 
-0.0001275623260001439 
-7.45677101924914e-05 
8.988579739527541e-06 
7.32261254196796e-05 
-5.942223711797767e-05 
-3.309386010842803e-05 
-0.0001954475629590619 
0.000106279969769426 
-0.0001652892864815694 
-1.245301240331706e-06 
-1.19008016978662e-05 
-8.118737112598962e-05 
-6.729188409152265e-05 
1.863242216503243e-06 
3.304924539149094e-05 
-2.854198903074595e-06 
2.30356748463102e-05 
3.376095109969503e-06 
-2.367751124536132e-07 
3.175839563726494e-05 
7.984643310343912e-05 
8.077235981690565e-05 
9.164128348057464e-05 
-2.191593964753803e-05 
0.0002043723002130013 
-3.588211599207495e-05 
7.297751642021753e-05 
-8.66465233834123e-06 
3.649164873393016e-06 
-1.688398423530733e-06 
0.0001033523047718488 
-0.0001613111548143063 
6.262651965346934e-05 
5.270960732974482e-05 
0.0001302461123652138 
2.851311322734584e-05 
6.880501190707946e-06 
7.351379716144399e-05 
9.809132030835988e-05 
3.173963859420063e-05 
-4.674918935991934e-05 
-6.78848703555068e-05 
-5.470651127614374e-05 
3.678573173345387e-05 
-2.703642110609554e-05 
-1.236613108861024e-05 
8.985635432347643e-05 
-7.652300004413715e-05 
1.063623944318125e-05 
1.914380107265601e-05 
-5.143966613397566e-05 
2.706305759547817e-06 
7.320079506082363e-06 
-2.987778867797116e-05 
-0.000111183575938067 
-8.382580213955476e-05 
-1.441399770161264e-05 
-3.16237885766125e-05 
-8.636812160355552e-05 
-2.953670522613866e-05 
7.811904276813337e-05 
-2.066191253537751e-06 
-1.285249905551643e-06 
0.0001488960967170295 
-2.9454770897125e-05 
-2.025481227128648e-05 
8.332135520563387e-06 
2.049152172504054e-05 
-5.951586500981249e-05 
-2.223999841804721e-07 
-5.926815052881562e-07 
1.91137824047218e-05 
-5.485135238920073e-05 
-7.899884918936149e-06 
9.939625767258041e-06 
1.5165623928233e-05 
5.049453632962997e-05 
1.309321314132803e-05 
4.352304639904016e-05 
3.598267252544883e-05 
4.639614440151311e-05 
-1.259615184100983e-05 
2.69648581069507e-05 
3.518861540136034e-05 
-8.217321625856938e-05 
3.908359973830296e-06 
3.206319749117309e-05 
1.553319816110129e-05 
-6.202654369773968e-05 
-7.326932454731229e-06 
9.077513863168653e-06 
4.166999544009622e-05 
-2.102767589233944e-05 
-1.768157398644641e-05 
0.0001779711396373231 
4.328322883297669e-06 
-0.0002042524526750738 
-1.728635652148051e-05 
0.0001412766847189605 
-6.641492819363311e-06 
-2.183184627301157e-06 
-2.770937020506068e-05 
0.0001044217648014019 
1.746583159555948e-05 
1.526301310945608e-05 
-2.607690731267908e-05 
6.893323201176875e-06 
-0.0001078242772127087 
2.296805556402109e-05 
0.0001274468528694627 
-7.041470827363588e-06 
-9.916973950944261e-05 
-6.771290972985222e-05 
2.74230104828719e-05 
1.267113080303991e-06 
5.066651659376271e-05 
7.90539945108997e-05 
1.811142534089377e-06 
-0.0001025250607367941 
-6.481209481741465e-05 
-0.0003328876282246814 
6.924240293016068e-05 
0.0001021746649116295 
4.787039494217595e-05 
-5.129767128194229e-06 
-3.122432366380138e-05 
1.643429503297034e-05 
2.627871018729519e-05 
9.908277248640703e-05 
-2.995730846163756e-05 
0.0001203106184265299 
5.030245262547449e-06 
-3.064841397830289e-05 
-4.244852334271116e-05 
4.739779321916937e-05 
-4.175821007488465e-05 
-5.792442082524699e-05 
1.168856043431003e-05 
2.292343942774748e-05 
-2.577446330632787e-05 
-8.677372744718068e-05 
0.0001281054558539586 
3.27606276728957e-05 
2.672558520090257e-05 
-3.013584154981718e-05 
-1.837001527519954e-05 
-8.911311550391952e-06 
-8.183802141686089e-06 
-8.791985189645299e-05 
-1.164452800841345e-05 
-2.882539348438066e-05 
-7.256873838479325e-06 
-4.613204007705971e-06 
-4.442763192508475e-05 
4.613025459599094e-06 
-2.153923591025854e-05 
1.773632800411726e-05 
7.969297966777677e-05 
-3.517243254726582e-05 
9.657480960707824e-05 
8.754168155125953e-05 
-4.70045723142177e-05 
-5.937224385919044e-05 
-5.175289860417983e-06 
2.238914386476113e-05 
-7.350595868648548e-05 
-3.173516844969655e-05 
-1.168528762705782e-05 
-7.737471643559142e-07 
7.006965967503963e-05 
-4.686799503421484e-05 
4.965587282291947e-05 
0.000135360058883639 
0.0001043321120231867 
-3.661018084737008e-05 
-5.850525387703433e-05 
0.0001172405299367716 
4.78873782279312e-05 
3.185022912138618e-05 
9.290358505987977e-06 
-1.660962542370593e-08 
2.56694120222675e-05 
2.482351505939671e-05 
-6.27312620295964e-05 
-6.645544332384795e-05 
-0.0001679690946069685 
1.756125202417146e-05 
6.819005440384884e-05 
1.230394402432969e-05 
-7.546873229150435e-05 
0.0001023169273022998 
2.74755984695688e-05 
-6.372324655365922e-05 
7.993811533142242e-07 
5.882344816063106e-05 
1.696342551017664e-05 
-6.299322363569233e-05 
-5.211069411754933e-06 
1.404288967857674e-07 
-2.943999139161914e-05 
1.114526153577711e-05 
-4.642048355823201e-06 
2.966861767150266e-05 
8.173751353794084e-06 
3.671511938228351e-05 
1.360087989104843e-05 
-2.14522965453138e-05 
-7.479288839877766e-05 
8.596831637617106e-06 
3.919245414462676e-05 
0.0001113929141158978 
6.098324227083646e-05 
-7.604956746393309e-05 
0.0001466696189152822 
-3.93526499219159e-06 
-0.0003031290177109635 
-7.070492159322034e-06 
5.731207363569145e-05 
0.0002711140953392976 
-1.450853260637752e-05 
4.001427091461292e-05 
-5.406657047718009e-05 
-2.029356139159177e-06 
-8.647936560252096e-05 
-0.0001066901694220891 
0.000131002869603787 
-4.093701627314516e-05 
8.306799124356868e-05 
1.037629887484661e-05 
0.0001112696113254234 
0.0001740549701877585 
-0.000162070623396863 
-0.0001033522132820702 
-6.334254668613972e-05 
0.0001345029798922903 
0.0002058569542002053 
-8.177893530844704e-05 
6.155077975514902e-06 
2.024205191966611e-05 
-9.214486041232269e-05 
-6.427530438705235e-07 
0.0002177160793509346 
9.665907875283714e-06 
-0.0001236247141937724 
-6.597784460779732e-06 
-1.167392287191544e-05 
-2.427594655212828e-05 
-9.543779794661774e-05 
-1.722323080063153e-05 
3.025582239213966e-06 
-1.607932940762797e-05 
-3.662109301113333e-05 
1.309015242621317e-05 
-0.0001486191051496617 
1.646546053898196e-05 
7.489864153528063e-06 
-6.074401879362639e-05 
-9.701855910257328e-05 
5.891136022525552e-05 
-9.555742577229316e-05 
4.768183972026395e-05 
1.103227920556477e-05 
1.440988571632557e-05 
1.927688303165788e-05 
-2.097739820037079e-05 
6.569944942839306e-06 
-1.363241718313263e-05 
-1.164452800841345e-05 
-5.928830052012272e-06 
-1.063092393624516e-05 
-6.891659649999706e-06 
-7.921187653814565e-06 
1.978627608703162e-05 
1.46137814246528e-05 
-6.710828877152654e-05 
0.0002557535492592185 
0.0001320137569872846 
-0.0002298901917230843 
1.868705753801175e-05 
3.026269725276085e-05 
5.758250474629486e-05 
-3.06773553579173e-05 
-9.285232179523141e-05 
4.642379086752379e-05 
8.88964487058386e-07 
-1.89665925755353e-07 
9.260691679097373e-05 
-5.999898528701258e-06 
-7.076487640518511e-05 
7.971532030756426e-05 
3.955194261154724e-05 
-2.500032144399123e-05 
-4.696175384283578e-05 
-0.0001496471534261154 
6.613796863810081e-05 
-7.468057491700086e-05 
-1.535354830431219e-05 
4.132507204993863e-06 
-1.45169651005323e-05 
-9.245809354169422e-06 
9.989023213920141e-06 
3.594172964451913e-05 
2.565768719516026e-05 
-1.593532669410572e-05 
-1.35551491719841e-05 
-8.802617647059975e-06 
-7.252778824157414e-05 
-2.527191249966169e-05 
3.201708754406747e-05 
4.624374841645033e-05 
2.792930333239967e-05 
-2.73662492246152e-05 
-1.906774282602717e-05 
-5.939569125713881e-06 
-2.390199363490112e-05 
0.000168990894428398 
-6.752410617882379e-05 
0.0001243610991894946 
0.0001231392233192864 
0.000153853776940439 
-0.0002635467701364532 
3.774469162522326e-05 
-5.753930034444573e-05 
-2.036929307616874e-06 
1.872604194743932e-05 
-0.0001190824894261592 
4.379753071871573e-05 
3.465216705875444e-05 
-9.721464504904092e-05 
-3.31121613747829e-05 
2.063475198240947e-05 
-1.018884330156106e-05 
-3.186023320235118e-06 
-8.826625548587735e-06 
-8.040184211500474e-06 
3.648516427136182e-07 
9.163548206480135e-06 
8.923734396392414e-05 
0.0001593849828358085 
-3.614525271900112e-05 
5.448697697838727e-05 
-3.598474371898619e-05 
-6.626346741618101e-05 
2.537803232184468e-05 
2.240776170673544e-05 
-4.391357301552639e-06 
7.292878668397581e-06 
0.0001047560853363713 
-9.53612185913754e-05 
4.015115772012266e-05 
-9.459230825680003e-05 
1.523225116748599e-05 
4.737045622347675e-05 
-1.509186559779246e-05 
-5.044552923931995e-06 
-2.302071403073647e-06 
-4.817296616521695e-05 
-1.161177216063908e-05 
2.255145746822247e-06 
-7.946785709039249e-05 
-2.425309391585953e-05 
-3.36339215210492e-05 
-1.970819319858801e-05 
5.770381684903733e-05 
-1.919940785348869e-05 
-7.055773773038021e-05 
1.887860870182324e-05 
1.674367768330957e-05 
3.167956629593763e-05 
0.0001763476127398936 
-2.358179900858162e-05 
-3.240925504700331e-05 
-2.654104458707331e-05 
2.053550337940915e-06 
5.617512540654173e-05 
5.461802823291827e-05 
-1.051651158945452e-05 
-9.92316937982253e-06 
4.209999859996685e-05 
-0.0001627774736036598 
-9.401232560965308e-07 
6.133081851008474e-05 
6.56245687404311e-05 
3.486833609585149e-05 
3.416992230800866e-05 
8.340959991906537e-06 
3.373694820302587e-06 
9.330829492891919e-06 
4.25226435075284e-05 
-0.0001530184320724467 
-1.396612316408288e-06 
4.576264272731386e-05 
2.052984719204055e-05 
6.212808203746967e-06 
3.293164221193374e-06 
-2.505246548142602e-05 
7.998668166024813e-05 
-8.459615742273491e-05 
4.942965338339153e-05 
-0.0002429902800822509 
3.648839789122043e-05 
2.151817025798181e-05 
7.322616465021717e-05 
-4.192841305814086e-05 
7.679586639855331e-05 
-5.341708400557024e-05 
-7.4960454873195e-07 
-2.016355402513518e-06 
7.037967413051951e-05 
6.376993664515649e-05 
7.409459925640774e-06 
-0.0001734859801838108 
3.701812394431585e-05 
0.0001008000629408827 
5.654122271713189e-05 
1.03728403057083e-05 
1.43644997826053e-05 
-3.345547000448256e-06 
4.234359843155934e-05 
-2.497778346297705e-05 
-3.966370200695709e-05 
-3.201410319022468e-05 
-4.385854415250333e-05 
-5.117124175876963e-06 
-4.273908572964248e-05 
-1.908921945813055e-06 
-9.597762054672871e-06 
-5.710695828419651e-05 
1.860511762919535e-05 
6.760964803577184e-05 
2.657918421094907e-05 
2.276196332429591e-05 
-4.504552477085143e-05 
-5.109167732946724e-05 
8.982185986386683e-06 
-5.24048903072925e-05 
-3.677082824647751e-05 
4.211125542794188e-05 
-5.505228583043908e-05 
2.154076412113464e-05 
5.406716996642746e-05 
-4.424907658127623e-05 
1.035795845899627e-05 
-1.343499425371487e-05 
-2.288347307819716e-05 
2.621448383792792e-05 
-6.711811233944039e-05 
9.372299605511783e-05 
0.0002723000294712264 
-2.902474507492867e-05 
-3.308812127842334e-05 
4.728727276181264e-05 
7.960192656517453e-05 
-3.174968488898929e-06 
-6.469990076361323e-06 
4.945986397247158e-05 
-2.590982011551946e-05 
5.927477737320307e-06 
-0.000311838317557693 
0.0003577199223356038 
3.339389711035356e-05 
1.251436132536031e-05 
6.630340835732848e-05 
2.681250131053797e-06 
-7.658590658508824e-05 
2.684645577649839e-05 
1.688068071401232e-05 
1.963702433832429e-05 
-5.75648010222478e-05 
1.796599304906741e-05 
-5.000246927277929e-05 
-9.694469099062339e-05 
2.017297817232544e-05 
-3.573107226307402e-05 
1.415009770047848e-05 
1.215921478144604e-05 
8.765075196185533e-06 
4.63144064828873e-06 
1.523640453133675e-05 
-2.618388226234384e-05 
-4.772712982538673e-06 
-2.679137491400022e-06 
2.721355184269499e-05 
-2.365815640732517e-05 
0.0001126275834823569 
-0.0001561201012201259 
-2.663826414510541e-05 
4.585808081417123e-05 
-4.900934898061312e-05 
-5.259161082214574e-05 
-3.18614131660976e-05 
-3.904696454731152e-05 
-9.687660372459866e-05 
-1.324537365914391e-05 
-1.812102685518848e-06 
5.137208172214036e-05 
3.134356596516461e-05 
1.125162039152097e-05 
9.561771785042032e-06 
-1.249657362414825e-05 
0.0002122966297976078 
-5.062552030761782e-05 
2.10408258475005e-05 
-3.917552309357029e-07 
3.700602871499607e-05 
-8.372222230381709e-05 
9.634492218974113e-05 
-2.958985148984846e-05 
-3.553113722719656e-06 
-1.948037518429576e-06 
-2.597456243136713e-05 
0.0001095127241243341 
0.0001601994770433194 
-5.435053068547993e-05 
0.0003573913514669194 
2.032279904680084e-05 
5.941920512145246e-05 
8.721201329358239e-05 
-2.228115374917601e-05 
-9.117538235509444e-05 
-0.0001110605010068913 
-3.298832251971599e-06 
-4.356348327036602e-05 
-9.403777502658553e-06 
6.323999742494945e-05 
-1.197465014954407e-05 
-2.348438749146188e-05 
-3.990426719055702e-05 
-1.960743110250165e-05 
-0.0001337577632635732 
-5.064848932765231e-05 
-4.104968418775293e-05 
-5.744195947408608e-05 
-6.455548826730927e-05 
4.889867240625865e-05 
-1.547218114476541e-05 
-3.902387897842304e-06 
-3.422868106279473e-05 
2.368564273268875e-05 
4.469181035925327e-05 
3.199148026287945e-05 
-1.27531755757632e-05 
1.42384862043083e-05 
-8.560768188705588e-06 
2.219423001697557e-05 
-2.737755324761883e-05 
-7.289840949983848e-05 
1.616638968711442e-05 
8.33087396103756e-07 
7.388259628707884e-05 
-5.974697462090366e-05 
4.713144087639761e-05 
6.385059720180074e-05 
-9.91056566082188e-06 
-1.740832933693659e-05 
-1.557147298784598e-05 
-8.3786356528728e-05 
1.878739809733011e-05 
-1.700771881870395e-05 
-7.442425432458355e-07 
8.345991307096931e-05 
1.832709869793759e-05 
-8.530744358212947e-05 
2.590689586854519e-05 
0.0001793969237827342 
-1.843872345864901e-05 
1.325385833243311e-05 
1.285845846163975e-06 
-9.012313575915674e-06 
-2.85101445671057e-05 
2.348639907238866e-05 
0.0001006658932888175 
4.444499786309537e-05 
-6.277048122640444e-05 
-0.0001316424941122268 
-3.412438140234636e-05 
7.452792034814054e-06 
9.568086721045301e-06 
4.281143787841238e-05 
7.54178451273542e-07 
-1.992398074221796e-05 
-2.823276224980811e-06 
-1.164452800841345e-05 
-1.124531406297557e-05 
8.04693585048093e-05 
-1.55231431635494e-05 
-1.33421218313081e-05 
9.561400090841317e-06 
9.245428838891546e-06 
1.217249422882408e-05 
1.358830011275876e-06 
-2.597095163312749e-05 
-0.0001316282803447528 
3.951336233770405e-06 
7.226420203593872e-05 
-8.062733901793734e-05 
-1.139598363992708e-06 
-0.0001627670213250158 
6.322046658718034e-05 
-4.145827435865163e-05 
0.0001125710945759532 
1.179819607061301e-05 
3.326824691196875e-05 
-0.0001350886832804806 
0.0001340150074931349 
3.800512554501795e-05 
-3.685034979568577e-05 
0.0001063611401557888 
-6.576538570495012e-07 
6.483419844195056e-05 
-4.604593465256e-05 
-1.717063264294396e-05 
0.0001178125969390392 
-9.881635990886856e-05 
-3.733858264411674e-05 
-5.85595263667363e-05 
-9.569066333651529e-05 
3.536784256504345e-05 
9.294439105032261e-05 
2.936954179204904e-05 
5.996649459528032e-05 
-2.510318462340462e-05 
-8.059371519085083e-05 
-3.555560433907298e-05 
-2.118620937724599e-05 
1.245421270813642e-05 
-9.097946212308013e-05 
0.000175350729166112 
3.75765627220374e-05 
9.296774427159429e-05 
-0.0001194286161600458 
-6.473600743204754e-05 
1.692564996608941e-05 
5.61454887258052e-05 
-6.164782146184582e-06 
4.711492575774605e-06 
-4.616600108279879e-06 
-2.650988435489378e-06 
-7.24299032537903e-06 
7.49265283670981e-05 
6.527337520644835e-05 
-6.836412179683775e-05 
-6.00222382775328e-05 
-8.534759956981843e-07 
-5.476786620334466e-05 
0.0001648241005317565 
6.911342910937029e-06 
0.0001112324840590891 
-3.097901081975064e-06 
3.158395469155944e-06 
2.322063915653784e-05 
6.235176515992346e-05 
-1.386998020238028e-05 
1.503808559213519e-05 
-0.0001513183870178524 
9.475938466205661e-05 
9.036323555155155e-06 
-7.574837242923662e-06 
1.341183466752843e-05 
3.178436482383879e-05 
-2.938684976324888e-05 
-6.434700278151554e-05 
-2.422267778526552e-05 
7.780021427353993e-05 
-1.252718517670092e-05 
3.779762536665021e-06 
2.054901359033866e-05 
4.797995263023649e-05 
2.794431897798883e-05 
3.555713911292167e-05 
-0.0001501589781314243 
-0.0001152850352430884 
7.678611563547608e-06 
-3.780498491211638e-06 
1.908347419091194e-05 
5.724666868192906e-05 
4.980932024097654e-05 
-5.328710811817313e-06 
-7.584407791301674e-05 
-5.586078911575996e-06 
-0.0001583884684786912 
0.0001546397009858538 
-4.832920005642031e-05 
5.58768234907939e-05 
3.544132822287662e-06 
-4.116619686125302e-06 
3.308862474576837e-05 
-0.0001539872554407576 
7.404198039055249e-06 
3.379227992290504e-06 
1.883107573931628e-05 
1.263956335018487e-05 
2.969261318393808e-05 
-0.0001161985861825589 
-4.756756088331259e-05 
0.00010531319898708 
7.545639184251776e-06 
2.472244489543081e-05 
6.924904221767819e-05 
-3.467016809943502e-05 
-0.0001708895417209967 
2.376386330095743e-05 
9.103841059572961e-05 
0.0001089560926843991 
4.947743789672303e-05 
-1.686787895782048e-06 
-5.054755308323953e-06 
-2.380240040447189e-05 
-6.808217648454211e-05 
3.169837046269486e-05 
2.36152468886385e-05 
-2.88631441620461e-05 
6.305082074559599e-05 
3.180189317756083e-06 
4.813335238196123e-06 
8.076546867921315e-05 
-2.194300561689207e-05 
-3.155676166514738e-05 
4.148769698275797e-05 
1.910877923363404e-05 
-1.697165081004976e-05 
-2.345809362841744e-05 
6.518560783267676e-05 
5.010906773963341e-05 
-0.0001020468278565896 
-9.685260905476465e-06 
0.000129547540257431 
-1.231911429489816e-05 
-1.929867693971555e-05 
-4.354364690568111e-05 
1.961731616616929e-05 
2.037659995015633e-05 
-2.922229098149338e-05 
-2.277683689917003e-06 
-9.317604277307607e-05 
-1.022919685229378e-05 
5.496143793140521e-05 
1.628560520391517e-05 
-4.513742556676874e-06 
-1.774021159540797e-05 
-3.219556233708956e-05 
1.412006345349209e-05 
1.605894438714136e-05 
4.285752986245122e-05 
1.64783622407254e-05 
-5.870865758243138e-05 
2.829348262431937e-05 
-1.2304656319999e-05 
-0.0001394536663930037 
-0.0001671413608854152 
0.0001954480850803963 
-2.683920618136906e-05 
-2.280574628215677e-05 
7.79633010466711e-05 
8.320505545528994e-05 
1.771588071920259e-05 
-3.255825324990161e-05 
1.908864230611381e-05 
4.841205570578354e-05 
-8.941131216745649e-05 
6.716636461523796e-05 
-3.75539031180831e-05 
-4.931916648947269e-05 
-4.509984040594032e-05 
3.952392369348327e-05 
8.980683946554088e-05 
-1.060688292460833e-05 
-2.231744508569543e-05 
3.275940814730113e-05 
-3.917214926692577e-05 
-0.0001604655693111368 
6.956062553420428e-06 
-3.035234970789234e-05 
0.0001160854122062669 
0.0001591499581864443 
0.000103541275350771 
-4.581515623157703e-05 
-0.0001165496411038983 
7.692493963515299e-05 
1.047525804118724e-05 
0.0001076205849854206 
5.659931991356101e-05 
-6.255860661776597e-06 
1.874960045422502e-05 
6.869010363633467e-06 
1.968707422296109e-05 
4.1451029949607e-05 
-0.0003222571656602844 
-1.016683590234421e-05 
-1.11332342076019e-05 
-2.412632304570215e-06 
-9.186853884571497e-06 
5.969712035536257e-06 
3.413157023650128e-05 
8.283335470629844e-06 
3.764526817016259e-05 
-3.859898631461373e-05 
-4.714235314504548e-05 
2.216765434254125e-05 
3.325827365337595e-05 
-1.816798064085323e-05 
1.225305577284558e-05 
1.434040141994563e-05 
-1.40345229946067e-05 
-3.466517459069165e-05 
-1.332502793328073e-05 
0.0001344713822396667 
0.0002087841657122259 
6.303369108372247e-05 
5.885797605236495e-06 
-2.520209532116479e-05 
-4.436553839185431e-05 
-7.496814469600066e-05 
-0.0001144548391461801 
3.426366645799009e-06 
6.936174654547168e-05 
-9.382178376617893e-05 
-0.0001223053646503567 
0.0002172126149874227 
1.911859111153388e-05 
3.784003158242278e-06 
-0.0002177920160474899 
5.7253259874952e-05 
1.784294300526091e-05 
9.868815563989767e-05 
7.93947589388923e-06 
-0.0001070923241900024 
-8.757538076409221e-05 
0.0001341257628871092 
8.001822908671566e-06 
-2.727721121454163e-05 
-2.165987192813661e-05 
-7.843700468581462e-05 
3.127608828121904e-05 
0.0001830064659564276 
4.997425497785219e-05 
-6.476790939487977e-05 
5.839765009340867e-05 
-8.985913635154206e-05 
-5.002237940379487e-05 
5.203540207631817e-05 
-2.05200150071533e-05 
4.852927958032398e-05 
4.128504518622751e-05 
-0.0001038484572132676 
4.005453766302315e-05 
6.163647742035735e-06 
1.652953939160598e-05 
-4.293177153787235e-05 
-2.942709879808597e-05 
0.00014461656699748 
5.35342173159287e-05 
-2.106154453195372e-05 
-3.178493370969733e-05 
-5.031150194383898e-05 
3.344857828434044e-05 
5.185262120115417e-05 
-5.774823423730854e-05 
-5.09550159379199e-05 
-1.1603839802332e-05 
1.793653393645149e-05 
-2.881321576771375e-05 
-9.720098792123613e-06 
-2.801231135203485e-05 
8.453258163556011e-05 
3.788041697319561e-05 
0.0001665267642457692 
-5.048261179190414e-05 
-7.476406838383064e-06 
4.810603686588845e-05 
-3.634764515164485e-06 
-1.550642908679767e-05 
-5.974819349032118e-05 
7.889347440869494e-05 
-0.0002016317505031249 
0.0001147179473643001 
1.662327572897086e-05 
-2.702267163614585e-05 
-1.948131013583353e-06 
-8.203899600766795e-06 
0.0002088415918922837 
0.0001146538263137187 
-0.0001708228727313122 
-6.286242263504165e-05 
-3.964808989121951e-05 
3.669651871699999e-05 
-3.312940982487019e-05 
-2.25510709120288e-05 
-1.295533148942411e-05 
3.214358121574001e-06 
-1.184538933146042e-05 
2.167440713659731e-05 
-6.896590904216334e-05 
-4.04640451894504e-05 
-1.183349554129768e-06 
-3.34624901097956e-05 
1.723584048884122e-05 
5.91488054548753e-05 
-0.0001764233331163836 
0.0001391878147662756 
4.794405085310618e-05 
3.218923697924385e-05 
-6.186704751212581e-05 
-2.009696336148905e-05 
-7.316095698932552e-06 
1.795995315572818e-05 
5.283236671027261e-05 
5.40649015547436e-05 
2.214158825206694e-05 
4.945986397247158e-05 
-2.279830678121991e-05 
1.722014452800786e-05 
-8.758867155809893e-05 
-0.000145377435086613 
2.595512097492745e-06 
-9.710722375507782e-05 
1.134063087797348e-06 
-2.112052835384317e-06 
1.785207875339264e-05 
-1.538952521118342e-05 
4.543734948736641e-05 
0.0001532088111200117 
2.264921707656499e-05 
-3.30214009233272e-05 
-8.74010917448647e-07 
8.402419694436958e-05 
-5.846922776700452e-05 
-4.902854054187446e-05 
2.678733018558856e-05 
-1.031413559638204e-05 
4.8147174620161e-05 
-6.214443979599931e-05 
-5.92829464246974e-05 
2.3323347763678e-05 
-4.038161682803818e-05 
0.0001137347232418605 
6.105154580123535e-05 
5.947278362918721e-06 
2.379677084548755e-05 
-3.293771726269631e-05 
-8.718090471965422e-05 
-3.06283354503053e-05 
-5.081203927801883e-05 
8.19331179800078e-06 
0.0001395305227073973 
0.0001394991246743741 
6.220289175296457e-05 
2.883194639882777e-05 
6.405824429995798e-05 
-4.13121727797306e-05 
-0.00018269705466303 
-4.633378614511314e-05 
-0.000103279248691632 
1.337611755906704e-05 
1.579719357988757e-05 
1.425079034125611e-05 
-1.18066288941973e-05 
1.138863364864162e-05 
4.875810311135189e-06 
1.313422885352003e-05 
-5.804235838831312e-05 
9.00389140894019e-05 
-5.210521950497562e-05 
8.359912793272871e-05 
8.002186133395754e-06 
8.782656142843706e-05 
-4.312155630241139e-06 
-2.313468695997334e-07 
-1.217370335181311e-05 
2.992955826961783e-05 
5.326329631021979e-06 
7.883165520262663e-05 
-6.998556547493011e-06 
3.069724737637098e-05 
7.796090703735261e-05 
-0.0002040786741229687 
-1.769822164356035e-05 
-2.589514434868829e-05 
-1.633997774619209e-06 
2.66920345878684e-05 
-0.0001021840407739979 
2.946650117782098e-05 
-1.825980730364343e-05 
4.94321689582102e-06 
2.808069361227004e-05 
-4.075472094348225e-05 
-4.018156334583402e-05 
-0.0001143169734514904 
-3.447809671356368e-05 
-9.095121186967495e-06 
0.0001124825603636105 
0.0001073781683793724 
1.333614347138386e-05 
3.190268209579446e-05 
6.352036174938399e-05 
9.002561044409231e-05 
-2.317857371260298e-05 
-9.188751554793836e-05 
-8.286610135496055e-05 
2.168981991175922e-05 
2.72121740723752e-05 
-7.803258623027931e-06 
9.058393470140166e-05 
2.883043470906892e-05 
5.084249717519419e-05 
5.032697875993565e-06 
1.679652353002154e-05 
-2.715567455698823e-05 
6.008214954726555e-05 
-1.052943919074693e-05 
-6.83141161798444e-05 
-3.863649422831669e-05 
4.784626696916192e-05 
-0.0001278900390124248 
7.633454704373798e-06 
-8.191244903127395e-05 
-1.758015335840799e-05 
3.279353823122197e-05 
3.111796014233418e-05 
5.075797419390547e-06 
5.037911259660713e-05 
-1.955343367416239e-06 
-0.0001137380693559013 
7.756202838948952e-05 
-5.798647791453752e-05 
-7.472360212827944e-05 
-0.0001993456859927721 
0.0001069587583993324 
1.422781330410312e-05 
2.704404480763403e-05 
-4.545995158714846e-05 
-3.010087815084392e-05 
-2.754471889574406e-06 
1.76621034479328e-05 
-4.254679417125682e-05 
1.698002884526786e-05 
-0.0001069956806896559 
6.875320252476749e-05 
-0.0001926526429476739 
9.4333897621293e-05 
-2.041892642480395e-05 
-1.401889258510441e-05 
3.082760325319998e-05 
1.960993350647125e-05 
4.642183620494186e-05 
7.013830347729727e-06 
-2.260999106380782e-05 
3.5751852636406e-05 
7.467295651886271e-05 
7.348067826679388e-06 
-2.177675933154148e-05 
-4.407434440506077e-05 
9.307158483381704e-05 
-2.359458557237969e-05 
8.883373125529259e-05 
0.000208364399737172 
4.700169872772609e-05 
-3.915156389379435e-05 
3.44738433190117e-05 
6.849205082736002e-05 
6.459289865266428e-05 
-1.143255048591507e-05 
-9.274856360585089e-05 
9.267956322040885e-05 
7.307573119471556e-07 
2.243001996308564e-05 
-0.0001509520003675993 
8.932305685404355e-05 
-0.000138224642832458 
1.442229296185154e-08 
0.000221021832026137 
2.954299307367307e-05 
-2.9284274727901e-05 
8.511553367682634e-05 
-4.458532750938721e-06 
-9.4339537506985e-05 
-0.0001326681829727808 
8.661512151053581e-05 
1.177602349943537e-05 
-5.04626270589869e-06 
-3.816298691884438e-05 
-4.716338826699498e-05 
-1.282259570059794e-05 
-1.464121013369265e-05 
3.589149605267355e-05 
-1.040145330046169e-05 
-8.204834252033328e-06 
-1.182770369281122e-06 
1.757582420594087e-06 
-2.96439465656445e-06 
-1.968421774479341e-05 
4.120511680210823e-05 
-5.917289225649886e-05 
2.005203911466101e-05 
3.742708014735571e-07 
-4.292796725449645e-06 
-0.0001593555310361669 
0.0001262360814439833 
0.0001017719552861439 
8.337320642963688e-05 
3.767411953119989e-05 
0.0001049978510828259 
-0.0001108869977689685 
0.0001249201269304399 
9.290227108456787e-06 
1.325474989772373e-05 
7.130671181704193e-05 
-1.980913129515628e-05 
1.516572046266318e-05 
-9.919467457514946e-05 
-8.112803992582126e-05 
1.427426553592048e-05 
-7.451699189673385e-05 
7.349145421901917e-05 
-1.983332065200018e-05 
-0.0001218741222176386 
-3.84584823536194e-05 
2.347573461298471e-05 
-2.479858489971629e-07 
7.614325673147225e-06 
5.4288147024903e-05 
-9.939973436896271e-06 
-1.651878146541063e-05 
4.416876566612317e-05 
7.707046506617047e-06 
-3.484410886077202e-05 
-2.45039148929645e-05 
7.136822318687386e-06 
-2.547270358005202e-05 
2.013501620247029e-06 
-7.479463796627202e-05 
6.991025525601023e-05 
-2.421105403494423e-05 
5.594709025448008e-06 
-2.197931640262573e-05 
-6.393535603636202e-06 
0.0002189203498350441 
3.039962007870985e-05 
5.947070393563473e-05 
-9.329980766394683e-05 
3.125678303553295e-05 
4.938984070011069e-05 
-0.0001817508891251673 
-0.0001022366408725474 
-5.034202211910754e-05 
-3.174985996161426e-06 
0.0001903364730683078 
-5.918075500950075e-05 
-1.95032356249478e-05 
-4.365424380296316e-05 
7.96740659370614e-05 
3.494826659422218e-07 
3.415900521497809e-05 
3.66982667338474e-06 
2.765460246188272e-05 
-4.260722440471312e-06 
4.979723599297235e-05 
-3.308277610610875e-06 
-3.852179550281689e-06 
-3.368998706682e-05 
1.70973702139655e-06 
2.041519954416839e-05 
-1.229486600443268e-05 
3.797420087863985e-05 
-0.0001318406321883634 
6.711600289302955e-05 
-0.0001038894301003554 
0.0002881556042176065 
5.737208243641546e-05 
-2.17027700436947e-05 
-1.535435488335911e-05 
2.345506699035323e-05 
6.987221014409952e-05 
-1.675209902019153e-05 
-0.0004918879737058372 
0.0001344483883547193 
0.0001465801998627694 
7.200661100076133e-05 
2.029118454878185e-05 
-2.294744904027118e-05 
-1.71268409081909e-05 
-0.0001060544597317211 
-1.319291717253789e-05 
2.293761447656406e-06 
8.463677087789709e-06 
-5.721145536220766e-07 
-4.451916367451742e-06 
-1.331050628847664e-05 
-7.566273824051804e-06 
-4.580448720311229e-06 
1.69946526933111e-05 
2.942317796507008e-05 
8.767946621268614e-05 
7.752852547400756e-05 
-6.473735443759441e-06 
-1.123736130404723e-05 
6.064873860912864e-05 
-7.251353874901906e-06 
-0.0001944901263257481 
0.0001775047804327573 
0.0001387998844751528 
-0.0001771429854810697 
3.766728276916901e-06 
2.749239392691837e-06 
4.305909504438672e-05 
-7.939412100245778e-06 
-5.613828999094813e-05 
-2.913058819034974e-05 
3.60926258738475e-05 
2.946979618769874e-05 
3.447204090820134e-05 
-1.72873475237596e-05 
1.605356696799428e-05 
-1.568708795330145e-05 
-0.0001519345865185393 
1.304099075407868e-06 
-4.676815037163014e-05 
4.093907541306203e-06 
1.789276427569503e-05 
5.927885837633104e-06 
4.806554586896953e-05 
-8.956543682264889e-06 
2.215003857248282e-05 
7.680713964570808e-06 
6.030467190029439e-05 
4.088645710272843e-05 
-6.828779335151329e-05 
-3.309780516561519e-05 
4.473933243235192e-06 
-2.165025600601704e-05 
-0.0002402165918987334 
0.0002423492532013506 
-0.0001099864337462448 
1.78909117645429e-05 
4.135152774641503e-05 
-4.19266614772724e-05 
2.718412717773085e-05 
-2.099272799128708e-05 
0.0002102563884456558 
-4.979931092657629e-05 
1.425979877169449e-06 
-2.282340975190586e-05 
3.070629502588943e-06 
2.135040474028218e-06 
5.741927876724721e-06 
-7.048127825885029e-05 
9.66688415193228e-05 
-6.574762304807073e-05 
-1.126234315759497e-05 
8.208441724811011e-05 
4.181621355408695e-06 
1.198746843283639e-05 
0.000272099680822635 
-9.932547705047364e-05 
-6.004004225954696e-05 
0.0001016220030956799 
-0.0001400238135248959 
-3.239391991785377e-05 
0.0001663936817375807 
6.913461258342448e-06 
-2.140248827605555e-05 
4.119243578348024e-06 
-1.326788100088615e-05 
1.350448616024611e-05 
-1.109396567878369e-05 
-2.35223392945445e-05 
-6.886586755108506e-05 
-4.962730807670191e-05 
-1.261185091627356e-06 
-3.281081692663987e-07 
3.278974474345205e-05 
9.301863280144338e-06 
-9.612964422513252e-06 
-9.588019165868722e-05 
4.945986397247158e-05 
-1.39957861758261e-05 
-1.951751157379213e-05 
-1.676930401129282e-05 
-2.475468172617801e-05 
1.730360314881591e-05 
-4.573494401818442e-05 
-5.907498519548422e-05 
6.044419737317842e-05 
-0.0001400295830958221 
2.257825199656976e-05 
6.495842261558252e-06 
-3.829080355448901e-05 
-2.334353593652505e-07 
3.210240869941315e-06 
1.847818964145735e-05 
-5.682199527173199e-05 
-2.189794100796142e-05 
5.516296697687459e-05 
-4.435460026186079e-06 
1.051039525028062e-05 
0.0001039577852339551 
-6.942294158484482e-05 
0.0001643205095713093 
0.0001250907754775534 
-9.162182905882421e-06 
9.665680063699459e-06 
-3.735419347924972e-05 
3.703795772642755e-05 
7.428681284789364e-06 
-5.297467209441084e-05 
-0.0001202287936846235 
4.646477068141111e-05 
1.253419539065227e-06 
-1.101848446494022e-05 
1.859694021904645e-05 
3.479977179252081e-05 
-2.777819676723298e-05 
-3.146353594995227e-05 
3.498946789348906e-05 
-1.557172270660926e-05 
-4.709945317480227e-06 
-2.071187703606608e-05 
5.368133126015556e-06 
1.173029993474036e-06 
1.914113310769979e-05 
-9.028051144556741e-05 
9.292872691277929e-05 
-5.400203970295052e-05 
-2.105041897850939e-05 
-5.193021705408812e-05 
2.197594377191246e-06 
7.098197475895235e-06 
-4.461049068805757e-05 
-3.951203236253809e-05 
2.039980282171417e-05 
-9.679204217620505e-05 
-2.130577500920943e-06 
3.318954107635239e-05 
3.713050361879127e-05 
-9.191966423599682e-06 
4.196506106195775e-05 
-3.814712051075597e-05 
-6.907192794248754e-05 
5.692376371993886e-05 
-9.243858541835097e-06 
6.505470398503809e-05 
0.0001808103538103327 
8.664442834065028e-05 
-1.526770526969908e-05 
-9.747935653551904e-05 
4.110874584272246e-05 
-9.647710316991235e-06 
4.443784721607188e-06 
0.00012516315155028 
-0.0002091033235712756 
5.916691179177194e-05 
-9.899644334366472e-05 
-2.893287129782129e-05 
-1.967267118817642e-05 
2.835170504908779e-05 
-4.081325244493323e-06 
6.227328466266067e-06 
5.168741628830605e-05 
-2.33976021313391e-05 
4.09469193637426e-05 
-1.132210292605167e-05 
-2.378571360774648e-05 
0.0001572074660369145 
-3.482086057606399e-05 
3.849241104657157e-05 
2.888926508699772e-05 
3.094868458673049e-05 
-1.59025295544077e-05 
-5.814897466324493e-06 
2.896378696885632e-05 
-2.00223415096801e-05 
-2.974675301701289e-05 
-0.0001131057309873807 
-7.987506258456023e-05 
0.0002581933845448165 
6.370684416707076e-05 
-1.945981095712084e-05 
-4.378989581709293e-05 
8.04533231011111e-05 
9.29425432449629e-06 
-5.033068803351662e-05 
-8.662842079236106e-05 
-5.485936283690289e-06 
0.0001063524599802234 
-3.759811953260171e-06 
-2.194158494213171e-05 
9.422813744769275e-05 
3.874554384108153e-05 
-5.946478359557185e-05 
0.0001120719111637407 
5.37796595096564e-05 
3.240997977486154e-05 
7.849150982368113e-06 
-8.721794392717819e-06 
-0.0001172591455104238 
-0.0001787383974816722 
8.823018539132866e-05 
-0.0001054780246493827 
-8.674688197788628e-06 
3.00876855519995e-06 
3.970388688854934e-05 
-1.985062195473814e-05 
-8.342205147676285e-05 
2.94200681374896e-05 
8.375033560202642e-06 
2.194055796230756e-05 
8.225185146731473e-05 
4.940692005272225e-05 
2.549497062517256e-06 
3.522944559881711e-05 
1.435811549624017e-05 
-8.398251326210347e-06 
-2.350000313020084e-05 
-0.0001516090510984027 
-3.971620246509636e-05 
7.461490004519025e-05 
6.92712464092713e-05 
-8.051441963020303e-05 
0.0003772734890409445 
7.351472042078358e-05 
-1.686279268270102e-05 
-6.24963134049565e-06 
-3.551572839798734e-05 
4.104929173100508e-05 
-3.040714196476521e-05 
1.631884130044969e-05 
-5.168513191758802e-06 
-0.000294525293668593 
2.612160547091776e-05 
3.827955222176431e-05 
8.922716837116408e-05 
-9.050665176717681e-05 
-0.0002092348119539073 
1.095018727409495e-05 
-1.394688253185352e-05 
6.967242083460715e-06 
6.019150165725791e-06 
3.350736269498582e-06 
0.0001304692263512453 
-2.02170723565819e-05 
0.0001112840936464191 
-9.999178149266279e-05 
-1.172662381839768e-05 
2.07438233252186e-05 
0.00012118872861385 
5.539477547771253e-07 
-3.983257644148317e-07 
-7.400331954438653e-05 
-5.131989954164828e-06 
1.829538904057112e-05 
-7.651560027824835e-05 
0.0002012486759092247 
1.176419724164612e-07 
-6.876758752111849e-05 
-5.910054572732115e-06 
0.0001454117919960624 
-9.950445497975198e-05 
3.358035367332289e-05 
-0.0001532455514674209 
-4.462570443078103e-05 
5.670727869063267e-05 
-3.929952982328335e-05 
1.123581747010965e-05 
-8.271088731744902e-06 
6.95471815713154e-05 
-3.590360323092996e-05 
3.093669188549516e-05 
-5.472067143786587e-07 
5.600818937035382e-05 
1.447644876137946e-05 
-8.846059878368628e-05 
0.0003555183438875556 
4.507209902738118e-05 
-0.0001776883513005061 
-0.0001173610271540609 
-0.0001476156163113546 
-0.0001592814601283771 
-0.0001839084697318094 
0.0001142080347662845 
9.172942938670097e-06 
3.394376065066274e-06 
1.334165982944526e-05 
-4.838872212735144e-06 
6.046811272517017e-05 
-1.739915968815901e-05 
1.829891286711845e-05 
1.217575457686919e-05 
1.201689744544598e-05 
4.385293272461476e-05 
-3.922560201323501e-06 
7.403353122462609e-06 
2.836231507709456e-05 
6.23718289927503e-06 
1.98515624028055e-05 
1.61057382991964e-05 
-0.0001035530865014688 
2.171762903782845e-05 
4.636597934283467e-05 
1.672358175275153e-05 
2.592086918394616e-05 
3.394340654433498e-05 
7.019592371796278e-05 
-5.963044787856449e-06 
-2.823315897303145e-05 
-9.117359278090478e-06 
-1.67438363921349e-05 
5.935214662618411e-05 
-5.875662474916927e-05 
6.101828104903316e-05 
-1.705014347208193e-05 
-2.92592925763865e-05 
4.408325575567264e-05 
0.0001012197097123097 
1.675205605484771e-05 
3.279397679514039e-05 
-0.0001091306097809183 
-1.163092731130931e-05 
2.665137790525558e-05 
-3.266333878791308e-05 
-0.0001028874155292097 
0.0001009984294032151 
-0.0001035238018827172 
1.840713551508527e-05 
1.028684569672103e-05 
1.712854258611381e-05 
3.590004400764377e-06 
-1.999567233209824e-05 
5.339326251509294e-05 
4.94454402322468e-05 
3.923887108095332e-05 
3.177782185067711e-05 
1.340347917851968e-06 
-4.43784734261999e-06 
-6.153850469611317e-05 
-3.693011776908489e-06 
-2.379564578452141e-05 
1.604490361420929e-07 
2.592721555846748e-06 
-0.0001657246763998364 
-4.63678989611101e-06 
-0.0001245959808075058 
0.0001055831249711463 
0.0001127409170351768 
3.850978837710378e-05 
8.578052564951029e-06 
5.563635527098585e-06 
2.86269570736809e-06 
1.136296445330179e-05 
-8.022532435610387e-06 
-4.185382032241501e-06 
-2.358463294550712e-05 
1.294293334666507e-06 
6.494924685185164e-05 
-9.156628395637612e-05 
3.182341283784605e-05 
-9.433034193916505e-05 
2.300359509945595e-05 
-0.0001118199509492956 
-6.68567803480549e-05 
2.164187921866866e-05 
2.170711208175276e-05 
3.579815626530302e-05 
5.683636269001642e-05 
6.062787103824117e-05 
0.0001478520032162469 
-1.75146353218545e-06 
2.619813938069124e-05 
-3.494583892396702e-05 
2.07474721014175e-05 
-2.402112142250398e-05 
-0.0002500941072855391 
-4.246100235179041e-05 
9.834453529483982e-05 
5.884070838054231e-05 
3.472265203878836e-05 
2.889771318354654e-05 
7.464086225037538e-06 
1.059937896184702e-05 
0.0001828311007661052 
-0.0001601512903052609 
-1.644268453402047e-05 
-4.355719584217702e-06 
-5.824541434255719e-05 
-4.097834986870581e-05 
0.000135145364758022 
-3.836784711582925e-05 
-2.907482509561613e-05 
-5.596359491367671e-05 
2.838990679913262e-06 
-8.728275190610217e-05 
1.749450286981023e-05 
1.858207516036538e-05 
0.0001154288759082859 
-6.465878781908826e-05 
7.61574851008467e-05 
1.065099348373063e-05 
3.483762758466724e-05 
-6.288062664371214e-06 
0.0001185637958519401 
-6.602897112011598e-05 
8.871048953330786e-05 
-5.080964511655564e-05 
-0.0001697713490422767 
6.624050158261683e-05 
-4.305537979410006e-05 
3.641717593950808e-06 
-0.0001202585147633383 
0.0001095632245397869 
4.341759418606418e-05 
0.0002078685166836155 
-2.587418319352035e-05 
-1.733310294594881e-05 
1.37346768715099e-05 
6.45438474653042e-05 
4.176435768415307e-05 
-3.32839925522191e-05 
-7.40958203546598e-06 
-7.656209055553658e-05 
-1.786414954519125e-05 
3.869822050590432e-05 
4.592015275180482e-05 
1.952817105365821e-05 
-0.0001465727312025322 
4.414299257197359e-05 
3.014772081554298e-05 
-1.427487553281436e-05 
2.580478022447395e-05 
-1.144530422814132e-05 
-6.192355934422823e-06 
2.576614939251116e-05 
-3.940925677533814e-06 
2.325439198634288e-05 
-6.94164646502851e-05 
1.528956483243281e-06 
-1.731610904609792e-05 
1.628003418630456e-05 
1.610631875577808e-05 
6.522994391674048e-07 
-5.850680647053133e-05 
-4.320357942870604e-05 
4.44648505414026e-05 
7.129713100222207e-05 
7.642083469830901e-05 
8.516396675766933e-05 
-4.466519264470727e-05 
-7.968057836062875e-05 
2.160291830494254e-05 
-3.94837702899824e-06 
-1.635598302388298e-05 
-1.96387045964935e-05 
2.891131976505197e-05 
-4.345687584487714e-05 
-4.54504996182962e-05 
5.622100059307584e-05 
-1.90013228812843e-05 
0.000103811820521223 
4.196280816210071e-05 
-7.411182110379743e-05 
-1.674328458365217e-05 
-0.0001370896073169672 
-9.671879280030241e-05 
0.0001663295307883408 
9.011177763079968e-05 
1.069892308272169e-05 
1.145789806590508e-05 
-6.589917428558235e-05 
0.0001362147995881966 
-6.219158269543685e-05 
-1.381298499759617e-06 
-4.403116650813189e-05 
-5.173543919176224e-06 
-1.146865802026131e-06 
4.038226401060466e-05 
2.819704886236979e-05 
6.179522882337774e-05 
9.113269670763549e-06 
-6.360486116540625e-06 
1.117715745367423e-05 
4.244442750420019e-05 
-2.272302022440386e-06 
0.0002106777831688831 
-0.0001361855158460754 
-9.187647068152045e-05 
-1.69451835305799e-05 
-4.645444033979702e-05 
8.972564845779595e-05 
-0.0001418286655256594 
-6.275081308526414e-05 
1.001807066965922e-06 
1.456910947284096e-05 
-6.139149540348077e-05 
-2.945133715109782e-05 
7.307462853198294e-05 
-4.430745785902967e-05 
0.0001379337657277786 
-5.618952142776048e-05 
-6.411289540706266e-05 
-9.967606918273942e-05 
0.0001205377034794747 
3.206567676114745e-05 
7.433855250344627e-05 
-1.410432588051781e-05 
-3.760445915961547e-05 
-1.809529035740245e-05 
1.239221242933845e-05 
3.112261901168369e-05 
-3.105038996109856e-05 
-0.0001409893786945293 
-5.429161716207793e-05 
0.0001524430388974954 
0.0001630147903667041 
-2.670958563625349e-05 
4.854162862317331e-05 
-3.25255201105802e-05 
-3.295320019481355e-05 
6.906158313474208e-05 
2.602404531026201e-05 
-0.0001174722994376551 
-2.860254813706264e-05 
2.872332118574735e-05 
-0.0002048745840250074 
0.000100145741610222 
-3.264636061958422e-05 
-1.215135180090063e-05 
-1.736691135627556e-05 
0.0001265260834051139 
9.529527204884857e-05 
-3.176938439418843e-05 
-3.841098851308604e-06 
-1.529330718304577e-05 
-3.353768674171331e-05 
-6.344512527836257e-05 
9.079892934186894e-06 
4.220503570943437e-05 
-0.0001796872755029738 
-6.47646313790492e-05 
2.115640887302519e-05 
-3.670301476678376e-05 
-2.033133509730539e-05 
1.806172750358284e-06 
-1.825929509984248e-05 
-2.183874503425932e-05 
6.007337334287003e-05 
4.737461284295705e-06 
-2.923593640584812e-06 
2.29837035232471e-05 
1.994315828366362e-05 
5.899617434436464e-05 
-3.236698151190899e-06 
-5.938817336396634e-06 
8.523152719472647e-06 
4.019696453358469e-05 
4.926830859516192e-05 
9.265118066638713e-06 
-6.864679640931911e-06 
3.78750531773383e-05 
0.0001540622588118453 
5.543083224205999e-05 
-2.835242087714807e-05 
-7.223319681527771e-06 
1.841630468050071e-05 
-5.887315280332204e-05 
4.517461626975643e-06 
2.173761587481979e-05 
0.0001915461819911328 
-2.822000467203327e-07 
-3.381296987097113e-05 
2.833839629602994e-05 
1.061834854927369e-05 
-3.127565823528179e-05 
-4.768100530913722e-05 
5.91768808227349e-05 
-4.016969748869023e-05 
-4.381514757633863e-05 
4.404493405612686e-05 
0.0001020989016685067 
3.780037463265625e-05 
-3.895629276226653e-05 
0.0001069949611154926 
-0.0001247656248727141 
-9.169811478572165e-05 
1.641207704801098e-05 
4.619864675409664e-06 
-6.896873249783159e-05 
-4.692125026597921e-06 
-0.0001098779098833432 
0.0001520400380813856 
-1.247182088501228e-05 
7.097484869444176e-06 
-3.208009404656054e-05 
-4.407269564916134e-05 
1.812056682220938e-05 
6.046351507706389e-05 
8.69038675586768e-06 
-3.222516540233491e-05 
1.562531450439345e-06 
-0.000117897313187965 
-2.48955868162388e-05 
1.363905711374418e-06 
-5.616743208115393e-05 
-2.676937125576077e-05 
-4.120507311854232e-06 
0.0001203621576238053 
5.943904195905223e-06 
-3.928404174690725e-05 
2.997595713365525e-05 
-4.799955254760011e-06 
-3.082136223862493e-05 
-7.816708024635961e-06 
1.437769610910339e-05 
-4.77315018272361e-05 
-3.785654734225513e-05 
4.322378927558303e-05 
-2.303980247253602e-05 
1.272877866341732e-05 
6.202365727624761e-05 
6.680769659027441e-06 
-4.740934243466047e-05 
0.0001985478357749893 
-4.698486039878884e-05 
5.287638356226387e-05 
1.376631857038495e-05 
8.097538926166032e-05 
1.044632044707542e-05 
-0.0001180819925078434 
-0.0002143391433448355 
-1.709340816168914e-05 
2.699984602708624e-05 
-4.50742252069733e-05 
1.289956519370202e-05 
9.931794156161239e-05 
9.306638002608112e-06 
3.097758781902332e-05 
0.0001029724205721657 
1.735747490613962e-05 
-1.465595139366086e-05 
-7.673953321777366e-05 
-6.792879343172201e-05 
-4.642912289607471e-05 
1.370392657131841e-05 
-1.960043190885507e-06 
-1.689089961602112e-05 
1.885722888430032e-05 
-8.070832606117032e-05 
1.405283951912119e-05 
4.477339440359475e-05 
5.238513031309634e-05 
8.567842354269778e-05 
4.440015973237815e-06 
2.478859408001212e-05 
-4.87650290087149e-06 
1.055959979485732e-05 
9.4002234568608e-05 
9.099330704068048e-06 
1.792346663709658e-05 
3.21471864748476e-05 
3.883242262101631e-07 
-6.348714159630769e-05 
0.000101510777964166 
4.555347772725529e-05 
2.372645768197663e-05 
3.042424478358781e-05 
1.988389075914061e-05 
7.206472432308428e-05 
-1.499040304741918e-05 
-6.285158834115311e-05 
3.526917306832039e-05 
-4.396997259663757e-05 
4.202333037602829e-05 
-7.292302501089682e-05 
-0.0001274360558907586 
4.611990159163856e-05 
-4.053825794291384e-05 
-5.881988233711045e-05 
-5.55472792793715e-05 
2.76083923392951e-05 
-5.664600355478281e-07 
0.0001775081896241768 
-3.377980819420847e-05 
-0.0001351726421225635 
0.0001397101543126521 
9.062527528276877e-06 
0.000116143937083505 
-0.0001412299080448638 
-7.221344989925641e-05 
4.527367805421226e-05 
4.725952383919937e-05 
7.543133257450508e-05 
2.144682050316681e-05 
1.376372790709486e-05 
-7.434892711924752e-06 
4.633075409198768e-05 
0.0001320790871879367 
1.120857671816903e-05 
-0.0001412457110053788 
7.527227496868784e-05 
-2.438955886939643e-05 
-3.327938299411784e-05 
-1.831053753735809e-05 
2.290000805289983e-05 
-8.960288871358243e-06 
-1.098223281014434e-05 
-0.0001368317721833436 
-5.882697335513101e-05 
-0.0001069592990787847 
4.643258994795688e-05 
-9.131116847219521e-05 
-1.67967867489402e-05 
-5.535745213500834e-05 
4.388461065610573e-05 
4.390023113633568e-05 
-1.497910324652554e-06 
0.0001571688106200012 
-4.740943502823584e-05 
2.849092830907245e-05 
7.407268980980143e-05 
-7.187229218379466e-05 
5.063968820330649e-05 
-4.299831453516569e-06 
4.536601112103099e-06 
1.7139178031588e-05 
7.043352434343202e-05 
2.522936380573566e-05 
0.0001534852481429747 
2.675155402335431e-05 
-0.0001505067615637171 
4.230496789565014e-06 
-7.043317118815197e-05 
-7.670536239255905e-06 
-2.068071775131549e-05 
6.353787064333571e-06 
-3.974188593387696e-05 
-3.909038453004747e-05 
-2.963238810393521e-06 
-1.464882199007049e-05 
-8.468148138345291e-06 
-7.111869271714588e-05 
-5.240527388985861e-05 
-3.65298382270896e-05 
2.848445429154276e-05 
-5.25999376616543e-06 
-6.850748721100037e-05 
1.170155917437739e-05 
1.861136313734802e-05 
0.0001369673465827198 
-3.227946533207618e-05 
-2.025024493804683e-05 
-3.78034619345067e-05 
0.0001351610718925498 
0.0001023883674394211 
-1.380694628843863e-05 
-2.971910968228706e-05 
-2.729836198247305e-06 
-2.979643854948171e-06 
3.223097759688957e-05 
-2.698847078570091e-05 
1.393271233916854e-05 
-2.603445393331448e-05 
-1.591039391231552e-06 
-1.148863126193745e-05 
2.1906810260013e-06 
-8.710036454749143e-06 
1.355996383606134e-05 
3.525290410961918e-05 
6.249625313742895e-06 
7.839758493852401e-05 
1.224669434191637e-05 
-5.596076594329958e-05 
1.538726240704584e-05 
1.034877912664136e-05 
-5.444068973203682e-05 
-4.976661533543222e-05 
1.510416873239134e-05 
-1.89911823075861e-05 
-6.86661722618616e-05 
-0.0001574509125388045 
7.653850528160046e-05 
5.392688437493916e-05 
4.101269984234021e-05 
-7.83585438896241e-05 
0.0001137732161138149 
0.0001463463506952658 
5.558663899806439e-05 
-7.217063813734441e-05 
-1.679485003114136e-05 
-1.658989808456274e-05 
-8.125485234587171e-07 
-1.5331698172213e-06 
1.202703393397016e-06 
3.111296261029658e-06 
9.658932675862038e-06 
-1.090970754119731e-05 
2.4183535365945e-05 
-6.172672886342414e-06 
3.871813884292649e-05 
4.933831613766936e-05 
1.881221879785462e-05 
-1.542739129380637e-06 
-2.061154519018495e-05 
3.719287261167356e-05 
3.873378236101044e-06 
0.0001040456575211462 
3.22830320705683e-06 
6.966364140391576e-06 
-4.67733968236355e-06 
1.739144270217114e-05 
0.0001657858391658307 
-0.0002553017693924886 
9.492814213371281e-05 
0.0001183324909765137 
-5.348796178389629e-05 
-4.396967711636788e-05 
-0.0001694043074946592 
-1.956148614027793e-05 
-2.849639918511329e-06 
1.126626896111599e-05 
4.865072075883631e-05 
-3.297658395489906e-05 
8.372239470376609e-06 
1.042994955774263e-06 
-4.409950275693641e-05 
-7.843691883552125e-06 
6.469530547552595e-05 
1.551041416883741e-06 
-3.140193156633394e-06 
1.966638776178556e-05 
-8.256950469216404e-06 
4.948841493246621e-06 
-1.625527746551119e-05 
-4.448806652233937e-05 
-4.026847974467864e-05 
5.083666522510432e-05 
-3.931367117853605e-05 
1.906742996179895e-05 
-0.0002496208374847261 
-1.048755685731044e-05 
-7.031893841006079e-05 
1.554973782572271e-05 
-2.307868850249307e-06 
0.0001053592387393282 
0.0001974770420678078 
-3.337551798666376e-05 
7.730388334100561e-05 
1.430155626057822e-05 
-6.156189089159312e-05 
8.589127403299356e-05 
-9.928952651230358e-05 
1.578934278316331e-05 
2.746316422806994e-05 
6.598540097881244e-05 
8.990109881482733e-06 
0.0001913102436613991 
7.031844239226113e-06 
-3.002347495126567e-05 
-7.315816612803167e-05 
0.000210276959264985 
-9.199142419631397e-05 
-0.0001566366489591906 
-0.0003209440862681216 
0.0001423529656335415 
6.15630906838166e-05 
-6.622453769285885e-05 
-2.686219669798031e-05 
4.775005887788366e-06 
3.475891769543601e-05 
-2.059549029642005e-05 
1.384211234673314e-06 
-5.810313267336849e-06 
1.035895806114745e-05 
6.201228339072517e-05 
2.792813716960934e-05 
3.687630301392388e-05 
-3.002968179730249e-06 
3.667763981495001e-06 
-1.636988062145686e-05 
8.500061431061982e-06 
3.231053560385826e-05 
1.638937516325869e-05 
-2.788239645265667e-05 
1.824893606881489e-06 
3.405475222749208e-05 
1.73620908578609e-05 
-8.140207964483468e-05 
-3.262695986827843e-05 
5.860067410320741e-05 
6.672259366414686e-06 
1.049144146923958e-05 
-3.718022416596522e-05 
5.310522409127921e-05 
9.142263684893107e-06 
3.233644981540411e-05 
1.97943753269482e-05 
5.636140308109382e-05 
5.631013639324089e-06 
2.016524993463781e-05 
-7.403710567166508e-06 
-1.68769396092694e-05 
2.08570200026401e-06 
4.569822487461976e-05 
2.436976245172136e-05 
1.321007167646839e-05 
-1.287567527074916e-05 
-4.384328186736424e-05 
7.888587521697893e-06 
-0.0001193314648904974 
0.0001365383543932847 
0.0001011128124317156 
-0.0001360135050949386 
-4.213225024308768e-05 
-4.006115866317269e-05 
2.447798116473082e-05 
3.16709470845911e-05 
5.226616909720058e-05 
8.248204434116784e-05 
-0.0001669771721127446 
8.835265004539521e-05 
2.153435125220059e-06 
-3.152304435037497e-05 
-1.253451322256346e-05 
9.029208454189598e-05 
-8.502517517494277e-05 
7.217122350506367e-05 
-2.045956350433737e-06 
-1.069209358745372e-05 
5.495148325892512e-05 
5.331396709721215e-05 
-0.0002031527534027318 
-7.857437432792967e-05 
-0.0001113480800654463 
0.0001197749188464499 
0.0001103846137438076 
-7.271409209604364e-05 
1.138370955648836e-05 
-2.389916867058119e-05 
1.024738230487441e-05 
-1.478197212657522e-05 
-1.053974890856079e-05 
6.06084737945706e-06 
9.759530451516747e-05 
5.115886458837338e-05 
5.79991753248054e-05 
-0.0001341126969079778 
-0.0001057385504758193 
0.0002290815708789593 
-3.169539247602768e-05 
1.887074466702328e-05 
-2.275408261945189e-05 
-3.098085881935073e-05 
-0.0001273643604754401 
4.626082950382097e-05 
8.059986556666925e-05 
-9.489925930997902e-05 
0.0002795145057819928 
-6.545597655482148e-05 
-8.396487296531548e-06 
1.322221544928422e-05 
4.543260801134714e-06 
2.827496378494686e-05 
3.118445288263969e-05 
-6.76346975124707e-05 
-1.050067584284354e-05 
-2.072129580671473e-05 
-4.388875471519689e-05 
1.451803569076203e-05 
2.736248682970728e-05 
5.686358364311898e-06 
-1.317833390863321e-05 
-2.236777538685942e-05 
1.253988948820098e-05 
4.367126032633809e-06 
2.357638110503904e-05 
-5.524187898663613e-06 
-6.544389633019038e-05 
-2.424214118166585e-05 
6.40975033190495e-05 
-2.340322514320351e-05 
0.0001788463662856971 
-0.0002236409572798171 
1.719911787431026e-06 
1.664748865216764e-05 
-0.0001868453383548222 
-3.32416681804482e-05 
3.940185109226673e-05 
9.514121472362078e-05 
-3.504640139000586e-05 
-4.585925399126076e-05 
-5.72355900068647e-06 
-3.271105635071086e-06 
2.109746764522531e-05 
2.516630065614627e-05 
-0.0001731705080323438 
1.573280792583894e-05 
-5.979113768873345e-05 
-3.561676833538788e-05 
2.056219301723347e-05 
0.0001244758587963801 
4.143140575766239e-05 
0.0001579987809723501 
2.385807555021719e-05 
1.042945558195792e-05 
-1.602387862909205e-05 
5.261964104254861e-05 
4.020007270624586e-05 
3.97717699003021e-05 
1.020095599626768e-05 
-7.894935953127361e-05 
-0.0001228835159574429 
5.215231777140199e-05 
-0.0001096896858875877 
8.565805797827095e-05 
2.487568637323035e-05 
2.087549678097376e-06 
-6.672091724251785e-05 
-5.800085054026384e-05 
-5.556449094775973e-05 
0.0001482342384780839 
-1.884724701718461e-06 
-3.555691279686601e-07 
3.983811698550879e-05 
-6.215530680788718e-05 
-3.547509907960676e-05 
1.328198385697296e-05 
-5.04348174511786e-06 
1.158041691635995e-06 
-7.931568468982989e-05 
-5.034778967093541e-06 
-4.153726476161478e-05 
0.0001442027066528319 
-8.311002084828525e-05 
8.220046261885982e-05 
2.790508153566105e-05 
0.0001958442304532121 
-0.0001063270238208599 
0.00016830674095984 
4.057470724777387e-05 
2.642158183920338e-05 
-7.418642693734859e-05 
-8.664070184121371e-05 
-2.605810279538465e-05 
-5.096222157056264e-05 
-0.0001987488076043668 
-2.249037307475689e-05 
5.917829470052961e-07 
2.093212877776174e-05 
-0.0001511389006692909 
3.619497232746262e-05 
7.480755982302595e-05 
0.0001550074392918495 
4.520400755925299e-07 
0.0001046765519130615 
-1.317754367119133e-05 
-8.699569893195245e-05 
0.0002070357226842925 
-7.706918025907384e-05 
-2.794223424413579e-05 
1.445894624122648e-05 
-2.39504595358606e-05 
-3.123321647743528e-07 
-4.988982780884867e-06 
3.534723028357034e-05 
-8.729436843690442e-05 
0.0001882661254486875 
2.828709613655595e-05 
-4.169633209018124e-05 
-0.0001016164761116679 
0.0001052998141656033 
1.280533476738502e-05 
-2.080555235011336e-05 
1.940422261130349e-05 
-9.503440986820764e-06 
2.217044519191593e-06 
1.42390327921838e-05 
-5.140022536288614e-05 
0.0001981548070243019 
-6.66424570544116e-05 
-1.600945448161767e-05 
8.490419452502308e-05 
9.316265234574384e-05 
4.796629244144185e-05 
7.487332001039701e-05 
-0.0001384006091124939 
-0.0001432073607548727 
8.216330827303102e-06 
4.930380155071919e-06 
-5.576861717428357e-06 
9.936496540728237e-05 
-4.146492852402852e-05 
-5.387969643553477e-05 
8.675008841791607e-07 
1.426440911106005e-05 
-4.617793822960054e-05 
-2.103608457920279e-06 
-2.138529190376368e-05 
-5.439775948736362e-05 
7.169189181815785e-06 
-2.307857248081387e-05 
8.047638259723056e-06 
2.896103875435893e-05 
1.413407173149905e-05 
1.932702953492328e-05 
1.740826713702201e-06 
1.904438668346381e-05 
0.0001825297259392447 
3.611094899128979e-07 
8.69680176684248e-05 
-5.620542891666702e-05 
-6.911718340756276e-05 
-1.268482360089018e-05 
-0.0001606753560067518 
2.677253824852097e-05 
4.155801000356488e-05 
0.0001113529940878486 
5.732052012199836e-05 
-6.327254040738297e-05 
-6.127953771702875e-05 
-3.523028782122113e-05 
6.553069756657441e-05 
-1.693758729915714e-05 
-1.51422074489297e-05 
-2.769778317994976e-05 
6.518393459254627e-05 
1.960804425426065e-05 
2.15043153163403e-05 
-1.343867344059887e-05 
6.602697364718326e-05 
-9.681826211570599e-06 
2.259911124430991e-06 
-5.145568466241527e-05 
3.518201927864602e-05 
-1.993989173717118e-05 
-2.994785668259017e-05 
1.265711283834365e-05 
-0.000112337682104955 
1.010145303255798e-05 
-2.016781218019482e-06 
-6.481785232740298e-05 
2.501131295402159e-05 
5.773340059883422e-05 
2.465389943680578e-05 
-2.00382366091733e-05 
0.0001044953319492595 
9.223096356432046e-06 
-0.0001396540925396265 
-9.475415569131732e-05 
0.0002143153759634675 
7.694130636528337e-05 
-5.70407622437328e-05 
-0.0001025922602009463 
4.773434298330697e-05 
-3.555293026896622e-05 
6.309928661245549e-05 
3.246291595033735e-05 
-8.069109892273021e-05 
-4.526107862043046e-05 
-8.32748624992976e-07 
-6.398867594319936e-06 
2.080432598074632e-06 
4.929261512567273e-05 
-3.389847848906621e-06 
-2.959119768038307e-05 
6.830511778628915e-06 
2.067724608758766e-06 
6.688644195165792e-06 
2.773091573995862e-06 
5.943128524354289e-06 
-0.0001093983456579358 
-0.0001567138064324391 
7.743149544250641e-05 
-2.671787294456859e-06 
-1.671346778936423e-05 
2.717189288682768e-05 
-4.833823306012254e-05 
4.390348633335496e-05 
7.022354547375581e-05 
6.276350799977221e-05 
0.0002085090514177579 
-1.63138048069643e-05 
8.184974814140767e-05 
-1.959678340890636e-05 
-2.374313709441853e-06 
-0.0001508599427151285 
-2.126276715058098e-05 
4.65019182333995e-06 
-3.301354282269272e-05 
1.35947035736607e-05 
-2.032767835843747e-05 
-2.828552561481622e-05 
2.168629271283137e-05 
-4.456640156556028e-07 
2.964239094017529e-05 
-9.85264668659694e-06 
-1.136264596615433e-05 
3.76165882922919e-05 
1.736531832364519e-05 
5.935702804266016e-06 
4.002999540562194e-06 
1.610171955053679e-05 
4.214569553538834e-05 
-5.616172115956096e-05 
-4.241280486127042e-05 
2.086844555718663e-05 
0.0001188106642690032 
1.338448541299939e-05 
1.920174295853908e-05 
-2.54980980301065e-05 
-2.704440319528658e-06 
-4.562996723337109e-05 
5.322797345221062e-05 
6.778018807850288e-05 
-1.476719992462638e-05 
3.02457033823883e-05 
-0.0001040689422510068 
9.734750949966912e-06 
1.985585445326762e-05 
-1.507363113901129e-05 
1.710799089066084e-05 
-0.0001227418030464489 
2.876807367757075e-05 
8.797284803167965e-05 
0.0001229275084171223 
-0.0001508417213906262 
-9.469987369607432e-05 
8.771420654987698e-05 
-1.612438098793547e-05 
-9.417020600506669e-06 
-3.523972885906041e-05 
-7.339067119955874e-07 
3.90833492606926e-05 
5.291177322352254e-05 
2.702405978644886e-05 
4.107969975081377e-05 
0.000112082873420029 
0.0001057583659097819 
8.086683943130255e-05 
-2.24511439004231e-05 
4.379246717960849e-05 
1.398530327676799e-05 
3.320592947945039e-06 
-6.316347668893215e-06 
-1.535496232585559e-05 
5.453656002452545e-06 
2.832261240028409e-05 
2.107504427762703e-05 
-1.692610216639785e-05 
1.011281020056719e-05 
-5.501418551429623e-05 
-3.353067056067123e-05 
-0.0001142718554531756 
-8.127424976751834e-05 
-0.0001335655345366 
-4.884305654564763e-05 
-1.313140911014669e-05 
3.968072413229428e-05 
-1.628405230817534e-05 
-2.697872838421446e-05 
-0.0001492792203775692 
0.0001797374285256666 
-2.116298913651249e-05 
4.799621750744705e-05 
-1.075229876400132e-05 
1.526907698796259e-05 
2.385797952995948e-05 
-3.089862275240345e-05 
2.282455099313101e-05 
-7.71004365764742e-07 
1.739189004122037e-05 
9.6152677401946e-06 
9.40145265435401e-05 
6.187838810480134e-05 
-2.444603430733823e-05 
4.377523165690142e-05 
-4.346455763523407e-05 
-9.570510871498732e-06 
6.166500756444177e-06 
4.003810781903342e-05 
-2.266710114995624e-05 
4.830512971065073e-05 
3.634609560764359e-05 
2.534872734415672e-05 
-0.0001307937748686913 
9.881758340497678e-05 
-0.0001552613295933881 
-0.0001328680404306177 
1.835122522582038e-05 
-3.705992731466949e-05 
-1.759844754993304e-05 
2.016577062477324e-05 
8.122488876351952e-05 
2.634703169710838e-05 
-6.202806748571975e-05 
4.725770475384015e-05 
-0.000109308057551576 
2.316965395936378e-05 
2.839837251728427e-06 
5.762902231176109e-05 
-2.857778601447005e-05 
4.231727942343449e-05 
-5.711093847101866e-06 
-1.99997592511957e-05 
4.170593416233204e-05 
4.432882715922065e-05 
-2.401489331570582e-05 
-6.58659938083583e-05 
2.372927095856394e-05 
-5.467758132457209e-05 
4.586680590461641e-05 
8.15298479514414e-06 
0.000111430245916517 
8.787119570930153e-05 
-2.324186071534536e-05 
-5.636625860354835e-05 
-4.461363858170574e-05 
-0.0001958084416276312 
-3.690853459617736e-05 
6.335435406243252e-05 
-1.196952607671434e-05 
9.303114080163137e-05 
-1.583040010150654e-05 
9.881007037302522e-05 
-4.263069804505366e-05 
2.538665618328485e-05 
-2.423709081505905e-05 
4.895429551982815e-05 
9.838431406122409e-05 
-6.602465630120803e-05 
-7.472910512062716e-05 
1.412787240041308e-05 
-1.046901106597973e-06 
-9.49436728562507e-06 
-1.449402579085986e-05 
0.000158568849444743 
0.0001237145913568967 
-0.00010144695611274 
2.880428850582353e-05 
-9.964968345108412e-05 
-2.604786363177852e-05 
-1.276986093987983e-05 
6.334223642697432e-05 
3.363823059539786e-05 
-1.386556971016825e-05 
-6.308253542806896e-05 
-5.034927369107332e-05 
1.129658125624571e-05 
-8.407779592440892e-05 
1.721734644172267e-06 
-7.972318862524171e-07 
-3.608988786858884e-05 
6.370315021130353e-05 
-3.594888924133672e-05 
5.76277899186182e-05 
8.494182157260996e-06 
-1.457156064414438e-05 
6.967875756817797e-05 
-4.20450358864195e-06 
3.440404939230001e-05 
7.891516479473859e-05 
-3.903844350879407e-05 
2.786812959776186e-05 
1.66201123668621e-05 
-9.666494261639125e-05 
6.244853918584308e-05 
1.743745277013651e-05 
3.164004382498105e-05 
0.0002408485281627313 
-8.085732208621981e-05 
-8.047758177078234e-05 
-0.0001046913961778514 
2.107834395505381e-05 
3.261274843835223e-05 
-2.634151801316976e-05 
-1.992042394246662e-05 
-2.286178135782366e-05 
2.412265341118573e-05 
0.0001019343958697961 
-3.498397554613524e-05 
-1.12264567466226e-05 
-2.65463561002244e-06 
-4.372678997408945e-05 
-7.395833505554522e-05 
5.509692209869731e-05 
-8.785529475407933e-06 
2.654706760024575e-05 
-4.951312789849825e-05 
5.050690119027455e-06 
-9.546479992578371e-06 
2.164165178912126e-05 
2.022560043278983e-07 
2.513359985109092e-05 
2.337466037221912e-05 
-4.557101606390498e-06 
5.227026556667319e-05 
7.721005588525522e-06 
9.543740778236332e-06 
2.421134553036539e-07 
3.568208982691703e-05 
2.290059722858529e-05 
2.261943885379259e-08 
-4.578864524542097e-05 
2.966493469987559e-05 
-6.810593280698513e-06 
8.407924235758327e-07 
-5.551094850932524e-05 
2.422808297177485e-06 
0.0001685551990667698 
-0.0001852446919138199 
-6.719182072996213e-05 
-6.995788602766738e-06 
-0.0001684419538098682 
0.0001175512936532611 
3.639664898918666e-05 
3.935865395090573e-05 
-1.030581171479449e-05 
6.199401120979343e-05 
-0.0003003606410921057 
0.000158855194736396 
0.0002101418682927982 
-9.033417387725703e-05 
-1.574815338371197e-05 
1.34341865564413e-05 
1.87505437482736e-05 
-2.277624659269202e-05 
2.803501676132053e-05 
9.093207395872467e-05 
8.054899459590299e-05 
-6.815606205872195e-05 
8.128754420432598e-05 
4.705718473458244e-05 
3.206565342543133e-06 
-8.338084663900501e-06 
2.559972558906742e-06 
0.0001189758507038489 
1.114445794222183e-05 
0.0001040961467238037 
-2.126421155930028e-05 
-0.0001016564048801557 
-6.323065786103862e-06 
-7.397445432701474e-06 
-1.693122720772993e-05 
3.307143310343837e-05 
3.470223878891091e-05 
-9.22326355676709e-05 
1.792772013643616e-05 
-4.243190925562028e-05 
5.571887650825716e-05 
4.494990061575662e-05 
-5.940663668074227e-05 
-9.153851527201176e-05 
-2.30480200752398e-05 
-0.0001055992579295368 
-4.260368942204503e-05 
-4.44514782661815e-06 
0.0002737739743275728 
-1.450470678909603e-05 
5.065066908838636e-05 
-6.532678465592274e-06 
2.544407366561865e-05 
-5.933332832340346e-06 
-4.130904095598317e-05 
8.276792286208322e-05 
-7.457311158015178e-05 
-0.0001454392928468682 
0.0001972747206573087 
9.321889662013471e-05 
-8.275889387214943e-05 
-3.286027243246304e-05 
-0.0002899272007356518 
-5.29447559457476e-05 
9.557658382845755e-05 
2.206666749180662e-05 
3.979043715387285e-05 
5.500639639153679e-06 
-0.0001039156285210998 
-5.739347258189674e-05 
2.882665330308139e-05 
1.864583869608931e-05 
0.0001065180713502866 
1.271044984070305e-05 
1.548976526167747e-05 
-0.0001429961578620201 
0.0001004679087091159 
5.77585426360763e-05 
-0.0001046812099205183 
-1.189609957338436e-05 
0.0001042255334615308 
-3.357280355296495e-05 
8.653525731470486e-05 
-0.000116193273719097 
1.274639646739912e-05 
-4.669579269368387e-05 
3.045632441863985e-05 
4.710781276853889e-05 
2.020879570339532e-05 
-4.064381451209165e-06 
1.740027165876935e-05 
9.628092716335172e-05 
1.092304167014697e-05 
5.208653728500695e-05 
0.0001009814605891587 
6.000483238702291e-05 
2.398386561772099e-05 
2.475454722063008e-06 
4.834946733680409e-06 
-5.420342429395239e-05 
-0.0001366026991199164 
7.392709385045526e-06 
3.448091007722171e-05 
9.550157883560737e-05 
-0.0002545902818391983 
0.0001771034047715561 
-5.460797710937395e-05 
-1.600002902507903e-05 
1.586442804769568e-05 
-0.0001019716166074269 
-3.983635148694672e-05 
-8.343989796293948e-05 
-3.644708983492326e-06 
-3.266977555635115e-05 
-6.853369128693341e-05 
4.441241101297305e-05 
-6.928864572695402e-05 
5.867468668001981e-05 
4.193771321935226e-05 
4.11656606165866e-05 
-0.0001390129117160139 
5.470934490473106e-05 
-1.746214736248368e-05 
-0.0002674057435397625 
-4.237270138798611e-05 
-0.0001505386460923327 
0.0001364358544665714 
3.36785046880734e-05 
1.131330533430801e-05 
3.076344104672414e-05 
1.45453233257919e-05 
0.000189729071693984 
-2.105176519961007e-05 
5.578483495985957e-05 
8.676137468418645e-06 
-3.440296428834939e-05 
-2.285350781074876e-05 
-0.0001269812058281404 
-8.70112035745568e-06 
2.826843316342578e-05 
-9.673564578915621e-05 
5.869497048323208e-05 
3.828335702493459e-05 
0.0003133980910532423 
3.168306284059614e-06 
0.0002215440750025463 
-8.0017105431129e-05 
-2.035378951858781e-05 
2.764521754667598e-05 
-4.036582553927374e-06 
7.012516584920165e-05 
9.20419366573875e-05 
9.380377663800259e-06 
4.918596925190898e-06 
1.097627413112797e-05 
4.361923781282989e-06 
2.937106340636327e-06 
-2.357909158004619e-06 
3.126338326022347e-05 
-6.028005693362838e-05 
3.548482565487351e-05 
2.830227303945045e-06 
-5.582377958603877e-05 
2.811901719573391e-05 
1.225021077259801e-05 
3.195117351822154e-05 
7.224890919723352e-07 
-0.0001168068222856765 
3.864988877267501e-05 
0.0001086437343428473 
-0.0002048208930178903 
-7.994099353281758e-05 
4.702406329793554e-05 
-3.039229793891745e-05 
-5.163530767434137e-05 
-1.875649554551277e-05 
2.821579765523044e-05 
4.19271936282425e-05 
-1.663629965598588e-06 
-2.170031959637445e-05 
-2.99177775317441e-05 
4.505385763541639e-05 
7.95486994760686e-05 
4.770358772186059e-05 
-9.647107734095812e-05 
3.830579209273267e-05 
-7.016761462890882e-05 
-0.0002741791887437224 
-2.394181388863833e-05 
0.0001405603564435176 
-6.631982343210286e-05 
-4.79801190559903e-05 
-8.072734911046173e-07 
-7.718962745555791e-06 
-1.419361666598451e-05 
1.608789316985597e-05 
-1.058964616237526e-05 
1.64208061928581e-06 
-1.997563888678459e-06 
2.881298046675925e-05 
5.801432070107688e-05 
0.0001267513068005405 
8.353180363183787e-06 
1.362415781704831e-05 
2.643327080849518e-06 
5.778631531037624e-06 
4.344122415149455e-05 
4.241820066310047e-05 
-2.743202242864646e-05 
2.039002403051629e-05 
-2.039345318656679e-05 
-6.782503378513227e-05 
-0.0003107249445052752 
4.034182817074608e-05 
6.643273267740051e-06 
-6.282486336299842e-05 
4.982176713688122e-05 
-1.708766086137353e-05 
-6.254008365077314e-05 
1.224828507588498e-05 
-3.078931790447009e-05 
9.68503691472665e-05 
7.250313654263333e-05 
0.0001048367568633558 
4.94651272675584e-05 
-5.650619924369136e-06 
1.470321213374959e-06 
5.155909579957709e-05 
-1.157921517752976e-05 
2.001583661788565e-06 
5.371429894423916e-05 
-2.701918745231941e-05 
4.060572312454181e-05 
-1.378046404502969e-05 
-7.206190204704891e-05 
4.650438489728262e-05 
0.0001124872125223754 
-1.533665978086107e-05 
