solver_type L2R_L2LOSS_SVR_DUAL
nr_class 2
nr_feature 17408
bias -1
w
-0.0002257491290500041 
-5.561070727282818e-05 
0.0001029139027428196 
-7.190618322289438e-05 
-9.877611162948151e-05 
-8.514891378191456e-05 
-3.073959503210267e-06 
0.0003149188834185954 
-1.340957914100804e-05 
0.0001969034877834302 
-6.24946235841136e-05 
-0.0006603326575834829 
7.046169218222792e-05 
0.0003941273886667711 
-0.0001788388927607316 
0.0002253461660811467 
4.723325211395444e-05 
0.0001855750623127854 
-1.84092297731293e-06 
4.713708616877407e-05 
0.0001787712324219654 
-4.428039701344714e-06 
0.0001071226804421605 
9.921519395761436e-05 
1.073839228783201e-05 
-4.047608273970523e-05 
4.278900706171677e-05 
-2.021615165289677e-05 
9.655880646676841e-05 
0.000295367456803852 
7.635280164152619e-05 
-0.0001489050726628791 
0.00023973738794087 
0.0002350386132547931 
6.48008463278308e-05 
0.0001751258395116047 
0.0001889728420265184 
-6.392547717683794e-06 
-0.000224365772033674 
0.0001103043745026327 
-6.462390261812248e-05 
-5.752865043459594e-05 
0.0001933491684191289 
-8.310884948669944e-05 
-4.752883427333884e-05 
-0.0004799239444836646 
0.0001566515369488516 
7.714448555474854e-05 
6.002899169271552e-05 
4.914089571587357e-05 
-9.95321993889198e-05 
2.822047693543382e-05 
-7.893153026689332e-05 
-0.0001335402766053266 
-0.0001830500972177087 
-8.610122303385471e-06 
0.0009055993998706772 
-0.0003069191725264224 
-0.0003335302236068445 
0.0001428681150302396 
9.090452263488187e-05 
0.0001045010722870625 
-3.984761491924415e-05 
0.0001453706345187931 
5.414617936390873e-05 
-4.141465668857143e-05 
6.100569684033206e-06 
1.224904012584988e-05 
4.353750058400994e-05 
0.0004595290821328431 
0.0003561608836624178 
9.841043332569733e-05 
-2.563458200103614e-06 
-6.058276945862211e-05 
-0.0001911958337824869 
5.051096098526423e-05 
-0.0002558770588519491 
-8.687596941212257e-05 
-0.0001510474461065589 
-6.076469278708371e-05 
7.69615067914303e-05 
6.167353105992892e-05 
-0.0001643637987834525 
-0.0003827241059334452 
0.0001080888269292564 
2.458823751213271e-05 
0.0002731007672124593 
8.698263240486413e-05 
-0.0001891655493430619 
-0.0001117299521279574 
0.000123252684256149 
0.0001028764509804704 
-5.056919412304295e-05 
0.0006245849701942848 
5.185425449345212e-05 
-4.540856080985307e-05 
4.430030741218888e-05 
0.0002205509818178981 
0.0001582961599001845 
0.0003644995989360047 
-0.0002367465445252363 
-3.84851615836733e-05 
4.957462737764754e-05 
0.0002533044405009531 
0.0002612777570861422 
-0.0003707119710229987 
-0.0002818011767644232 
1.079317680456962e-05 
0.0001225015603046734 
-1.273498067218924e-05 
3.504085446226877e-05 
1.242381937470048e-05 
-9.161405971956045e-05 
0.0001669923262010188 
-4.900253122952003e-05 
-0.0005203703527585727 
-6.757737825440208e-05 
7.658865030640896e-05 
4.509097896396124e-05 
0.0003351908252298009 
3.603205923325054e-05 
-3.088484983619708e-05 
0.0001773027619754089 
-0.000428391247437802 
-0.0004455521143414745 
0.0004712920705649135 
0.0001636663996131293 
0.0003894784773710584 
0.0002622200567721265 
0.0002167120098674108 
-0.000503245714217886 
-8.506608032722459e-07 
-0.0001231520231338039 
1.870946070183617e-05 
-2.32049669895236e-05 
-0.0001700765851473218 
0.0001487685596334546 
0.000343823505158786 
-1.296280233899594e-05 
0.0001421032568393987 
-1.737467114607369e-05 
-0.0002604931869805557 
-5.023484554554807e-05 
6.349104712318481e-05 
-0.0001324174292975273 
0.0002047237216158828 
-3.911038248147066e-05 
0.0001984550705363526 
0.0003442191012275326 
9.711917215262476e-05 
5.500209160185241e-05 
8.24654789303938e-05 
-2.013355749524375e-05 
0.0001031507377392333 
-0.0002480770130915983 
-1.850906587787142e-07 
2.130173435671409e-05 
6.683448837669891e-05 
5.738800355746841e-05 
-4.643101573220029e-06 
-7.103633429564501e-05 
0.0003605516199039117 
0.0005032811108455849 
-2.970950567142701e-05 
-0.000129354527858713 
0.0004081088114312605 
6.796752791210255e-05 
-0.0001919363185168384 
-0.0001187202554605958 
-0.0001136473144452395 
0.000310934018065292 
9.090837635484378e-05 
-0.0003061193841975374 
-5.012404597035177e-05 
-0.0001361122581692156 
-8.476735409596866e-05 
-1.856191708306805e-05 
-5.298749650057714e-05 
-1.345601572127366e-05 
7.857767044214159e-06 
2.083751050911999e-06 
5.38581079931319e-05 
0.000104579642674963 
0.0004693215920132621 
0.0001216443900291554 
-0.0003054426925532703 
-7.302621989785867e-05 
4.226566352605759e-05 
4.576518713306596e-05 
-0.0001458450193864205 
0.0001556296431345624 
-8.358508399818903e-05 
-4.190649836381237e-05 
-4.788764072159499e-05 
0.0003704570342748315 
2.115371524195764e-05 
6.2611295887766e-05 
0.0002324997181903828 
5.119822679887693e-05 
-0.0001698499617319873 
0.0003845832813507834 
-0.0001396591282219653 
0.0001294012878882478 
-4.423306975139958e-05 
1.84634929614175e-05 
-0.0003745628771086961 
7.148127025484925e-05 
-0.0002305431204202723 
0.0004654746128955048 
0.0001451021849261508 
6.868988211179116e-05 
-5.750269684882501e-05 
-0.0002397876337325435 
0.0002120431979005771 
0.0001917650951343769 
7.560414540178517e-05 
-0.0005639841161328984 
8.172667216876665e-05 
4.203666488577019e-06 
-2.002864517234452e-05 
-1.626659315271413e-05 
-2.725019582740293e-05 
0.0001618232867486819 
4.5505575851258e-05 
2.826080995276546e-06 
-0.0001206809960430206 
-0.0001811076221568981 
0.0002841376482611742 
0.0003774605448241313 
0.0005571840261452107 
0.0001462679393654477 
0.0001129072069718372 
6.712905507260522e-05 
0.0002297333457422858 
0.0001265514860099667 
-0.0001523912958214694 
-0.0001021059337791486 
-7.440670487974896e-05 
-0.0002955057492539536 
-0.0002601107836767634 
-7.130546818111745e-05 
-4.531672468368655e-05 
0.0002040854708304297 
-8.324442909950319e-05 
7.5029579366718e-05 
-0.0001468657139984069 
-0.0002775783509707627 
1.894472356220314e-05 
-7.263369416126156e-06 
-4.929843059613374e-05 
-2.894227233734177e-05 
8.624976175275096e-05 
2.536849075443601e-05 
7.686915708658687e-05 
0.0007238263901464184 
-0.0003981215967032651 
0.0002715062058102499 
-0.0001862627512586155 
6.38855258933522e-05 
-0.0001419292195922047 
0.0004853348032360004 
0.0001988511231563799 
-0.0004735479579301225 
-0.0001175844329802298 
-0.0001741563011924638 
-0.0003249535340797024 
-0.0001631209248711578 
2.510079600759797e-05 
-1.656728348776913e-05 
0.0001652440840251539 
0.0001554501907378795 
0.0001567008898518299 
0.0001709386407581109 
2.510252815600709e-05 
0.0001525988993300219 
0.000337271077299478 
5.991009277934202e-05 
4.508684353035788e-05 
7.579342071274611e-05 
-8.037932863153465e-05 
-6.037969857142787e-05 
7.07786491553665e-05 
-2.500309981706972e-05 
0.0003170670154078194 
0.0001105960307071262 
3.02560980493511e-05 
-0.0001015431460395676 
-0.000231719770862174 
-3.677939044132687e-05 
-5.204961131612833e-05 
6.24377501018583e-05 
-0.0004126333633558205 
0.0002664166038632298 
0.0002231999699577648 
-5.757765545638281e-05 
-9.488045001538819e-05 
-0.0001138747608703361 
-2.810862924695368e-05 
2.914619181235792e-05 
0.0001465083315115069 
0.0001413296614652441 
-0.0001226617151608419 
-6.119353574179024e-07 
0.0001090553972337363 
-0.000261402766494761 
0.0002051521353049747 
0.0001226344864693417 
0.0002624385680472664 
4.881206942411084e-06 
6.850627629129702e-05 
0.0001933815133603234 
-0.0003287286360923598 
0.0001321691851198937 
0.0001829951945146374 
-8.889511642147928e-05 
-7.841015797720547e-07 
0.0002067362443327232 
-0.0001329604924755216 
1.759178492449295e-06 
0.0001935261947536102 
0.000352958177740188 
5.55320479629662e-05 
0.0002269366268345808 
-7.949865648759832e-07 
7.231205065336984e-06 
-0.0001810332424896649 
8.76805207232501e-06 
-2.868451245508193e-05 
0.0002248879063900313 
-0.0001839458498680364 
0.0001628081207211027 
-0.0001286045249393068 
-0.0003564348907199138 
-0.0001208755074855316 
0.000139869242712521 
-8.924263626324102e-05 
1.121090715165725e-05 
0.0001186907011713512 
0.0002162895711565797 
-0.0003081461881846847 
9.953900501569956e-05 
0.0002293160384745185 
0.0001029087041448809 
-0.0002332274106305716 
7.0681611991332e-05 
5.17158628636198e-05 
0.0001169657998161786 
-8.587763346244162e-05 
6.011229150149824e-05 
0.0001788432566936416 
5.649306209079256e-05 
4.543465678268827e-05 
0.000142532616786001 
0.0003414547815260218 
-0.0004216370590334073 
-0.0001483604053171769 
2.880557305761063e-05 
-0.0001232022613160214 
9.807282748305347e-05 
9.465338105689443e-05 
3.190154291701141e-05 
-8.491456835109421e-05 
-0.0002383584707411398 
0.0001809582860669532 
3.138315534787839e-05 
8.704033880546223e-06 
1.134776518949814e-06 
0.0003471062218316255 
-9.113191899342057e-05 
-5.796199234049542e-05 
-0.0003248475557778578 
0.0001175793978302923 
0.0004347005226096872 
-0.0002565950273276541 
9.802072929021754e-05 
8.810914675059177e-05 
0.0002102479966876123 
6.748065476461214e-05 
-8.207208903755917e-06 
-6.949259533753664e-05 
-8.028615708535717e-05 
0.0002713520205281191 
-2.618809890556265e-06 
0.000133741830771924 
0.000588900251991469 
-0.0002991678989378146 
-2.227303862822179e-05 
1.802889685254966e-05 
-0.0001123274994499416 
-0.0001123071131030821 
-1.737572027569025e-05 
-5.847467321921843e-06 
-0.0001894410364909108 
-2.058710227027809e-05 
0.0001265223415027832 
1.00204643872615e-05 
-0.0001700863339341335 
0.0002131431406247173 
1.284242241832428e-05 
-0.0002199301273011675 
9.18301086712747e-05 
3.512814944820323e-05 
0.000145080191047048 
0.0005450074987774541 
0.0001094356088903537 
0.0002280911771057671 
1.528642592044368e-06 
0.0001477778378227903 
-0.0004195943402835349 
9.466166211828078e-05 
-0.0002217297397732922 
8.591899584161991e-05 
-9.928055510194554e-05 
0.0001430220223240899 
0.0001352713574859388 
-1.937331739902871e-06 
7.668388058331841e-05 
0.0001813309592976973 
5.853298286140266e-05 
0.0004479642211393507 
-6.375222227315806e-05 
0.0002165557776105079 
-0.0001029882318288248 
-0.0001791965466003094 
0.0001717499482329318 
2.974919624433817e-05 
4.401216637613412e-05 
7.527880446443909e-05 
-0.0001202468663688688 
-0.0002796126353529569 
0.0002638949809859771 
0.000186083582283433 
5.602868530709535e-05 
-1.484398283257767e-05 
-5.02305844696361e-05 
0.0001466211405259391 
2.180751726146323e-06 
1.634544246516966e-05 
0.0002494822682516892 
-0.0005667836393783067 
-0.0003748731689255678 
9.436006678315503e-05 
1.326365986690772e-05 
5.696122336942236e-06 
4.763364625441998e-05 
0.0002208057581372087 
1.332400017485722e-05 
-4.47246985887164e-05 
0.0001480636013357948 
1.958179052679395e-06 
0.000217491055953283 
-7.941792235010984e-05 
0.0002502417112528492 
-3.171574482532493e-05 
-0.0004360834215358232 
4.799484187114849e-05 
-0.0003856052457100778 
3.062593974050071e-05 
8.019461320088449e-05 
-0.0001481921553046627 
0.0002402211103735841 
0.0002801766554500842 
-5.186355100386194e-06 
0.0002294406800996651 
8.112314761710105e-05 
7.710420215463341e-06 
-0.0001087958035943149 
3.373630735687122e-05 
-9.455485303888718e-06 
0.0001254843893814606 
-4.116624472964966e-05 
-8.576862659008144e-05 
3.857080607083919e-05 
0.00010403880417177 
-0.0001703605038429883 
2.301488705522459e-05 
0.0001163479234267613 
0.0001130835887786494 
8.368104934861551e-05 
6.887326242420502e-05 
2.833468000862983e-05 
0.0004404339626308575 
6.753806916620864e-05 
-0.0001436718289056036 
1.365086875665476e-05 
-0.0002343239208445138 
-0.0001361624709136426 
-0.0002458345770580293 
3.047179787815546e-05 
-2.913230481308429e-05 
8.818032639951974e-05 
2.215897045807119e-05 
1.784102916235001e-05 
0.0002660666658252627 
6.01495994104811e-05 
-0.0001535616822504703 
-0.000120244325607301 
6.0587434750274e-06 
0.0001348818761305478 
0.0001624569914428383 
0.0001378614115082779 
1.043684557381202e-05 
-0.0001692251678068738 
-0.0002165382569441005 
0.0001606376069850583 
-1.727952411124104e-05 
0.0002594643120501589 
0.0001187184442710523 
7.934402084604258e-05 
0.0001978233345041776 
-0.0002037466221021506 
0.0001875365901639564 
0.0004592967657486666 
-0.0001548548629346764 
0.0001483064389644314 
4.616555878537646e-06 
2.813746331660631e-05 
-0.0003328529238129727 
-0.0001846557455187232 
-9.38931917211366e-05 
0.0001252176385917972 
0.0001713488136479025 
0.0001571446023779035 
-0.0001848892706401535 
4.227812377472927e-05 
5.094634612471995e-05 
7.206815484017863e-05 
7.064149974753275e-05 
0.0001711014877490211 
0.0002733203756898493 
7.359445282305776e-05 
0.0001838189650122183 
0.0001922843084762077 
-2.468676326108491e-05 
-0.0001481410787986159 
-8.242617965891253e-05 
-8.082929925873065e-05 
-0.0002657839115145446 
-1.797893886991158e-05 
2.873746484006435e-05 
7.92347822958045e-05 
2.734488807678749e-05 
3.212656995120094e-05 
-2.480666476223179e-07 
-7.401632940676802e-05 
-1.664269007083685e-05 
0.0001853584333428168 
-6.025029211500466e-05 
-0.0001847503073217416 
-0.0002906083069333816 
5.549968152998568e-05 
0.0001139256104314465 
0.0001059033457114293 
-0.0002937369780449621 
9.425120894847163e-05 
0.0001127256303119824 
5.572484713195986e-05 
-0.0001733745849828825 
8.778570145258548e-05 
-4.924963211919025e-05 
0.0006416874680478473 
-1.598779717090828e-05 
4.022814901920994e-05 
0.0001643523708677954 
8.817355538817501e-05 
0.0002848901048440898 
1.586007912670608e-05 
-0.0001351383743423653 
-0.0001304336317060853 
-8.708144734920326e-05 
5.518841188616184e-05 
-0.0001389515421158802 
2.003271244835349e-05 
-4.173800879348859e-05 
9.996387311811067e-05 
0.0002907342041557119 
2.616572714067429e-05 
2.837980255695852e-05 
0.0001059651518304775 
-0.0004194113927408816 
6.387594209633392e-05 
0.0001572333360895913 
0.0002387991512102186 
9.182091517497124e-05 
6.595396994308033e-05 
3.859479008496207e-05 
6.200333246422693e-05 
1.56507139761292e-05 
-2.006958982842946e-05 
-9.475788740674748e-05 
0.000146491419282612 
1.352370416631106e-05 
-1.35616477376687e-05 
-1.547556763397365e-05 
7.362603148519338e-05 
3.791537278324617e-05 
0.0001671535358297582 
0.0008985446716692151 
0.0001404236175497204 
-9.176220442489935e-05 
1.195090364810715e-05 
-0.000227613680474839 
1.558051826720155e-05 
-0.0003106662822087638 
-0.0001746317410588181 
-2.401915212607492e-05 
-9.949907602949954e-05 
-8.785892028826156e-05 
0.0002334854637252891 
-6.139020035814474e-05 
-0.0007366827403955962 
2.973397141314677e-05 
0.0005139057721541934 
-7.682659534374551e-05 
7.556308671137615e-05 
0.0001521173742408221 
0.0002493758101431049 
0.0002129139537774828 
2.038494076763054e-06 
-3.44754031034425e-05 
0.0002575762437339026 
-0.0001626683992894138 
5.080478324295678e-05 
0.0002830949732550838 
-0.0004021655867768824 
0.0003377876052775712 
-2.963478249530079e-05 
-0.0001191017372929679 
3.783095268467748e-05 
0.0002485447483442291 
-0.000436483958769539 
-0.0003897075542539023 
0.0002373686078775436 
-5.03522882471666e-05 
0.0003256763205896535 
3.179948623530493e-05 
1.00529978883474e-05 
2.372176943417411e-05 
2.016483744461706e-05 
-1.374254063400115e-05 
0.0001061338280572803 
9.822776096830811e-05 
-0.0002841084140731206 
-6.09815827039677e-06 
5.449209511534879e-05 
0.0001447093789320513 
0.0003413107957228958 
9.460386880473648e-05 
-0.0001750772983682019 
8.079463002652437e-05 
2.139310823062633e-05 
0.0003656370052115484 
-2.333235925995507e-05 
1.842369610251647e-05 
-5.205736113273414e-06 
0.0002100330916305391 
7.543650031919009e-05 
0.0001118319089971925 
-0.0001530982467895506 
-3.033272515218757e-05 
-2.742888282973583e-05 
0.0002493939745276189 
-0.0002890546627802852 
0.0001829435438437204 
-8.27567331983968e-06 
-1.537779148586919e-05 
1.937996805823834e-05 
-5.317633850128883e-05 
-5.54022803571519e-05 
-4.975205362462309e-05 
-0.0001006438476186488 
-7.805522071406883e-05 
3.048269648372094e-05 
-1.062842897796678e-05 
-0.0002535868040053369 
5.853239122205215e-05 
2.811780759243359e-05 
0.0003279289670322545 
0.0001155393317363111 
4.031704349985078e-05 
-4.792102905262124e-05 
0.0001637713984508359 
0.0002953716134972712 
0.0001653996925716029 
-6.390787590847201e-05 
-0.0005116338186842005 
-1.749760111114605e-05 
-0.0002094855142808832 
0.0001840935801156327 
5.461619509089303e-05 
-2.313957720599355e-05 
7.48455261425519e-05 
0.0001300936646505243 
5.759086575711788e-05 
-8.397841516477752e-05 
-0.0005993370953874301 
5.649439284544634e-05 
2.253457683943151e-05 
7.277641223838768e-05 
-9.308904869415888e-05 
0.0001067942123495968 
0.000191990694213132 
0.0003919643655687048 
0.000165275245865375 
-0.000588456827780227 
-2.373794582944109e-06 
0.0001082639290256421 
0.0002099944108819198 
-0.0002149740766842914 
-0.000111342959213155 
0.0004727312428575376 
0.0001395206438841855 
0.0001226288082245637 
-0.0002278233196692761 
0.0002768441605623487 
0.0001497439668831831 
1.686079648526839e-05 
0.0001594875820701072 
0.000137023327066431 
8.875230549221614e-06 
-9.636923173029261e-05 
-3.797369060472001e-05 
0.0002086377577835559 
-0.0001170274534075621 
2.277424749903454e-05 
-2.072770804224049e-05 
-6.111804543893257e-05 
5.158779417003175e-05 
8.016009503641958e-05 
2.277793187798685e-05 
3.028613032722253e-05 
0.0003738438343168342 
0.000473443117859016 
-4.690290749338031e-05 
-0.0002919134500119207 
-0.0004281560774114305 
-1.418223563282995e-05 
-0.0004102704663036658 
8.863387061328256e-05 
-0.0001015460227984746 
0.0002695779174177942 
0.0007786885555378396 
8.061334511932341e-05 
1.37940590624398e-05 
7.58624197794647e-05 
0.0002322039076238709 
-0.000324341224875101 
9.139271883265355e-05 
-0.0001007019502432599 
-7.393487239106866e-05 
0.0004723896387710179 
-0.0001191221873521646 
0.0001684438126927829 
2.452574458906892e-05 
-5.639600535474098e-05 
-1.495353256905937e-05 
-4.345194425209602e-05 
-6.924782029771346e-06 
-0.0001658009436985016 
-0.0001018062907211142 
-9.002107640453233e-05 
-6.759974158852332e-05 
4.09830384642908e-05 
0.0001324437307538455 
-9.433591686167377e-05 
0.0002270882433492946 
-6.439183188755939e-05 
-2.653451235269807e-05 
-7.503721792180039e-05 
5.133226295601915e-05 
-6.574845438590242e-05 
-0.0002427018953446149 
0.0001367755677567654 
-0.0001042006480437258 
0.0003657687881795388 
0.0004386678670779121 
-5.94464377632111e-05 
7.083904131051878e-05 
7.221953993763697e-06 
0.0002505314864109665 
-0.000377191702583406 
-1.197633977813486e-05 
3.446717812071689e-05 
9.586420077320254e-05 
-2.530222974938155e-05 
0.0002537546788297077 
0.0002507642486063023 
-0.0001361554049143371 
-0.0001231584580568886 
0.0001268160240545735 
4.069608363167531e-05 
0.0002129572341259108 
-3.594068553500443e-05 
-0.0002801535835235831 
8.191061020534977e-05 
-3.561133553029724e-05 
-5.099291119042508e-05 
4.290336953009179e-05 
-5.052102586285164e-05 
3.319319991068349e-05 
0.0002030466191384042 
-0.0001528995503779837 
0.0001240358292610225 
0.0001481748888222222 
-8.199399427169233e-05 
0.0001915350681108234 
1.132811919025399e-05 
-0.0001963707925789737 
4.204174011907907e-05 
0.0002223454692228652 
4.017101453789765e-05 
0.0001670024627615563 
-0.0001952289468214272 
-1.197141582970625e-05 
-0.0002270743219922899 
-2.891745795991613e-05 
-4.660608931204326e-05 
1.269627541384216e-05 
0.0001233648721526639 
-5.739499505099435e-05 
-0.0001852229365763105 
0.0003511023125125484 
9.032837364598501e-05 
-4.937556940616222e-05 
-7.566753953463654e-05 
0.0003198841530955215 
-0.0006012888400224387 
0.0005795912223467213 
0.0005094777829294185 
-0.0002717666139371784 
6.29209262537142e-05 
-0.0001969426005526441 
-1.686487397907883e-05 
7.612852573904929e-05 
5.167100433388233e-05 
-4.218861219265875e-05 
5.098541935901132e-05 
6.485219614741271e-05 
0.0003765008630827456 
0.0005136422018610822 
-1.497022979028322e-05 
0.0001060570172267144 
-9.130007085396013e-05 
-6.558645992381966e-05 
-5.19221433910284e-05 
-8.822701787711053e-07 
-3.630820117892249e-05 
-3.291171493821747e-05 
0.0004729473826080297 
-0.0001823824692491005 
-0.0005040940852129492 
0.0002134674394261525 
-0.0001005546547993422 
-0.000115232649564721 
-8.169972598499372e-05 
5.95331098460324e-05 
0.000439100676883209 
-0.000266602433097314 
-9.080923077016496e-05 
0.0001295810866753916 
-4.250543717878992e-05 
0.000108299955392695 
-0.0001184548845797197 
1.282873357255329e-05 
0.0001237913460086988 
0.0002384137273636836 
6.307761448392874e-05 
-0.0005813356099312951 
0.0002259623038955925 
0.000153330536253208 
-3.347727104254395e-05 
0.0003207648659692116 
6.422704373195222e-05 
0.000236295581106857 
-0.0002425298665411677 
-1.670337231246385e-05 
-0.0001923230349167789 
-0.0001062314453281784 
7.495396600392152e-05 
8.301367879600316e-05 
0.0001379600162675597 
0.0001263273367393494 
7.755468754424743e-05 
1.288346681373151e-05 
0.000101884500350004 
0.0001414732645999524 
-1.639474052392283e-05 
-0.0004753701973186671 
0.0001079836808158884 
-7.173279189782532e-05 
2.653629979697821e-05 
0.0002762833875456925 
-0.0003530567088899504 
0.0001958089278608995 
0.0002196103056812885 
-9.865603363571617e-05 
0.0001042200445914642 
-0.0001371911513519275 
8.978535378825514e-05 
1.147536779306869e-05 
-0.0001081794810613819 
0.0001010815520675162 
-0.0001004807703619779 
1.933125717326379e-05 
0.0002414663895413408 
0.0002140069068424837 
0.0001607100928759866 
0.0001882668867378822 
-3.361274354882403e-06 
-0.0002968173907645106 
-0.0001130769449680534 
-0.0001846483483219697 
-0.0002852708662171081 
-8.074508292774547e-05 
3.05022046508031e-05 
0.0006285785444338714 
-0.0006016998897764302 
2.001174615047134e-05 
0.0002857977060429505 
0.0004221618211642392 
-9.991426161418506e-06 
-8.00048140344014e-05 
0.0001412834767320159 
-5.325877906743399e-06 
-0.0003195229871280382 
0.0001087985831525 
0.0002621171284797589 
0.0001170467084088529 
9.055941936407488e-06 
0.0001400632110339788 
-0.0002830759246117774 
-0.0002172285658075873 
8.616815292798974e-05 
8.816243477276378e-05 
4.168889594085136e-05 
-0.0002380820360665401 
3.72040570737979e-05 
0.0002096734885099845 
-2.097933979938662e-05 
-9.300169711737449e-05 
-0.0001592282236410676 
0.0002414969577185453 
0.0002258712667825839 
-6.568899034393715e-05 
0.0003116380271148995 
0.0003887652116405542 
3.254536455687327e-05 
-0.0002696505906146675 
0.0004865751109045019 
-0.0006657813346874011 
0.0004367073693978257 
-0.0001048429863806406 
0.0001019577300702168 
0.0001637276148079666 
7.392261564774371e-05 
-1.135216966137651e-05 
1.439595990560969e-05 
-3.241293408863518e-05 
0.0002474836692514776 
-0.0003554528218840446 
0.0006185585658299141 
-8.474205876439684e-05 
1.775403745714965e-05 
-0.0001500086824451394 
0.0001998279279343587 
-7.199855941437147e-05 
-0.0002221052392561423 
7.710500196204302e-05 
9.66282223735252e-05 
7.253001410293071e-05 
0.0004063769783872389 
-0.0001789087936885762 
3.370131873568626e-05 
0.0003923291028492615 
-0.0001693838085661304 
-5.252205583723145e-06 
-7.793369081821959e-05 
1.001132844863853e-05 
6.753281875243718e-05 
-0.0003591809647409584 
0.0001206466609779158 
0.0001927347754843523 
3.324110794540013e-05 
3.526950068839639e-05 
-9.935337448043501e-06 
1.116687052549262e-05 
-0.0001868208751498358 
1.596365646173979e-05 
5.875591500989658e-05 
-1.476120996017053e-05 
-0.0001564009908278911 
4.762407802735608e-05 
-7.185554162448515e-05 
0.0003821743289730354 
-5.734513711159937e-05 
0.0001921860511662318 
9.649113075097475e-05 
-6.426630317062166e-05 
0.0001992983430882083 
-0.000162979876645258 
7.682185032167154e-05 
0.0001153386867024821 
0.0001112496952091492 
-0.000103104120266036 
-4.137082294143039e-05 
-2.506754969977463e-05 
1.890335334158009e-05 
-0.0003759355568137894 
-0.0001952987811765155 
0.0002944544331770898 
2.473285696173525e-06 
6.604984359305228e-05 
3.601979092137109e-05 
0.0001185693279784612 
4.004435246056452e-05 
5.708443660607628e-05 
0.0007249999375894605 
-0.0002380854442634846 
9.115300846384058e-05 
-0.0001502789777942511 
-0.0002316361845446227 
-3.242922170208097e-05 
2.204537218895664e-06 
-5.553741021423268e-05 
-0.0001357887973453887 
-0.0002878354549026929 
0.0001091744076975564 
0.0005728666736420824 
4.783006244284861e-05 
-0.0005899241948628574 
0.0004886680420121975 
-2.32692728020672e-06 
0.0001254071830847109 
-0.0001986775568312584 
-4.883122407119395e-06 
9.640172725565343e-05 
8.077583888415899e-05 
7.374266055742882e-05 
-4.424060299071237e-05 
6.082573104598467e-05 
3.798847024028851e-05 
9.994836282918273e-05 
-4.819275847470918e-05 
0.0002969166463151236 
5.804737591830417e-06 
-4.116092656387377e-05 
-2.361370807428504e-06 
-0.0001405118298561263 
-9.046699715428851e-05 
0.0001899148342337123 
-5.250910955443391e-05 
-0.0001365338177567395 
0.0002910494463513272 
5.526913412233178e-06 
-6.789348215901564e-05 
8.079067664066919e-05 
-9.727868846002796e-05 
-0.0001679483628487166 
4.723004372906686e-05 
3.283222948921855e-05 
7.863525116614032e-05 
0.0002241457744616469 
7.624728174262011e-07 
-0.0001346130349481613 
-3.91417852097319e-05 
1.500531720729468e-05 
0.0004959611502855103 
6.801358612056678e-05 
-6.446493179165814e-06 
5.369340338236369e-05 
0.000658141008266111 
-8.055419668739021e-05 
0.0006823585099499209 
0.0001771003659123241 
8.550777565531773e-05 
-5.45632569698344e-05 
1.456210013000499e-05 
0.0001990419236833325 
-0.001032452050302432 
0.0003370042187702505 
2.777459390181026e-05 
-8.846937131028872e-05 
-0.0001344604484034679 
-2.180462413732474e-05 
-0.0003625084482472295 
2.080618429810142e-05 
0.0001152796240944719 
-0.0002932893073269802 
0.0004099754508060568 
-0.0006819173453435669 
0.0002795922072060565 
-0.0001192272117002854 
0.0001208199492416888 
-3.790994415126641e-05 
-3.125270719063323e-05 
-1.817066712148459e-05 
3.271844844962376e-05 
-2.037325975695983e-05 
-0.0004323579044725368 
0.0003019393993607239 
-6.808282051586053e-05 
4.155912690613091e-05 
0.0001369432143666474 
-0.0001027182278479214 
-4.520261439440802e-05 
5.961602587756156e-06 
6.512630868218988e-05 
-1.580571391469224e-05 
0.0001495938827546679 
-0.0002997375597646037 
0.0004899765150885981 
6.631273204843084e-05 
0.0001173705022539026 
0.0001570195711282854 
0.0001243183965248997 
-6.054458572299363e-05 
1.97285943904698e-06 
5.228780846029834e-05 
8.91172630678114e-05 
0.0001110207888145318 
-6.893342214887869e-05 
0.0001681703592919434 
-4.576465872772177e-05 
0.000215643196916684 
-0.0006100778624408308 
-4.395259705849064e-05 
0.0001060970625541406 
0.0001491248580285461 
8.739659668778322e-05 
0.0002726407963917707 
-0.0005471014474682357 
-0.0002474259918378088 
-6.816447418399498e-06 
0.0004361986714557118 
7.384844353156606e-05 
0.0001092669838586281 
-0.0001362783642868755 
-1.116689193778621e-05 
4.211675979242691e-05 
-0.0003360885923002178 
0.0001308991960309777 
0.0003446809686791894 
0.0002345059490574093 
1.108410123496958e-05 
0.0001791401921298927 
-2.977528145882619e-05 
0.0002211415141415108 
0.000231780156295573 
4.938817251357913e-05 
-0.0002977233687032239 
0.0001715960312369977 
-3.328961875187658e-05 
-0.0002587316578009209 
0.0002432147074405288 
4.347785536865507e-05 
1.84102234637823e-05 
5.844358500430441e-05 
2.899380892734619e-05 
-9.281044925562073e-06 
3.72872156560093e-05 
0.0001896543245820621 
-6.610214435626273e-05 
4.505995495722668e-05 
0.0002039838599089199 
7.063816503735893e-05 
-7.97767614302739e-05 
-3.497814541342276e-05 
3.139137041254147e-05 
2.015024776049625e-05 
-0.0002238615964954719 
0.0002899339066623889 
0.000264263626924426 
0.0001246898011188453 
0.0001253997927505921 
-0.0002679012462005911 
0.0001934387728119187 
-0.0001120892503864069 
-5.295074942314553e-05 
7.456422574572387e-05 
-0.0003064848035046134 
1.02625822253887e-05 
-4.187997679883145e-05 
0.0001838793101152877 
1.722550515183169e-05 
2.061278120512483e-05 
3.077866699648649e-05 
-0.0002234668788065691 
0.000548099809567589 
0.0003470668876290205 
-0.00055480959844826 
6.638467462009363e-05 
-5.698575867256967e-05 
-5.092154570560234e-05 
0.0001053089409965656 
0.0002489376434849233 
0.0003106795274846643 
3.820095449419457e-05 
6.916727331384204e-05 
3.859140899086256e-05 
0.000152574871107361 
-3.710488923062046e-05 
-8.824232182988392e-05 
0.0001886622080865103 
4.29130110672041e-05 
0.0001382389044608838 
0.0001806430158144577 
-0.0005234031428848245 
-5.296871924106586e-05 
-6.301297919020343e-06 
-1.376632208313287e-05 
2.454283092980929e-06 
0.0001567687148361804 
-0.000112038068151799 
-0.0001521697159510684 
-3.350240034387863e-05 
3.992254730948127e-05 
-0.0002111062758921477 
0.0005328796241316108 
-0.0001772133977299472 
0.0002771459532435145 
-4.742628727927457e-05 
-4.079513094453133e-05 
6.783823567239978e-05 
0.0001035900055245017 
-0.0006920518009805114 
0.0003610571643533701 
0.0001077572342777806 
3.023082033413098e-05 
-3.253828141778829e-05 
3.332269791916043e-05 
-0.0002253515480744091 
3.061746996741191e-05 
0.0001156998930528564 
2.368237586650381e-05 
-1.314651039069543e-05 
-0.000162489008182187 
5.846236948862395e-05 
-1.064696614454298e-05 
-9.344106257582971e-05 
-1.079465763761637e-06 
0.0001257448266898037 
4.381534267548419e-05 
3.052029555264764e-05 
-0.0002011558871339216 
2.716332334062753e-05 
0.0002533636600717693 
9.519799125270166e-05 
0.0004106778043847889 
0.0002313442223171503 
0.0001195219149772874 
-0.0002112650697331876 
-0.0001104667318207515 
6.105430516644519e-05 
3.896520508809294e-05 
-0.0001706794133699158 
0.0004092365594009055 
-6.211016927398068e-05 
0.0001163305208348758 
-3.708150003594483e-05 
0.0001233851156158132 
2.349552618047796e-05 
0.0001398224092794889 
9.668018566318974e-05 
-0.0001873547802523438 
0.0003528624000397919 
0.0001833058614295594 
-0.0004756701313343478 
0.0003504678456033523 
0.0001022482694559103 
-9.634919363960055e-05 
-0.0001738600331170058 
-1.637866805703119e-05 
9.930944210873755e-05 
5.396490133170383e-06 
-0.0002176235792456125 
-1.946517068887239e-05 
4.528869706210436e-05 
-0.0001358661614600985 
0.0001998723539914189 
3.590874297105452e-05 
6.63973052991914e-05 
5.788087553324291e-05 
3.453030938570653e-05 
9.208300129803391e-06 
-3.966013917158585e-05 
5.041233222814215e-05 
2.570797992925246e-05 
-9.033612257044085e-06 
0.0003656456426471057 
0.0001199954940848839 
-2.577332908010019e-05 
0.0002772983340878131 
1.477595147710855e-06 
1.26004705571578e-05 
-0.0001552299892470874 
-0.0002042827648704843 
0.0001043007462137975 
-3.766599903258638e-05 
0.0001396441258149906 
-4.725418726406362e-06 
0.0001908445543952609 
0.000125454791864233 
-3.429882961996716e-05 
0.0005442201087852793 
-0.0001886851920732662 
-4.033617679754083e-05 
-0.0001799363750140968 
7.396544711403747e-05 
-3.589492200381774e-06 
0.000224211106846121 
-0.0003301955035349485 
-0.0003500572331481077 
3.094789930640271e-05 
-0.0007188847632262083 
-0.0001531387214227369 
-9.757554876935899e-05 
1.426514165925811e-05 
3.35471093411594e-05 
2.110796507645102e-05 
-8.498895508938149e-05 
3.274383263455201e-05 
-0.0001031531096637665 
3.020130772112102e-06 
0.0001590006309091581 
7.888231737289632e-06 
-4.001928926400044e-05 
0.0001051977052673091 
2.961748784694363e-05 
3.012391585933489e-05 
-9.689843624137163e-05 
-8.601068194886627e-05 
-1.752905713004512e-05 
0.0002501607384978347 
6.204997596610782e-05 
-0.0006227025039045735 
-5.295772688435392e-05 
0.0001292071536951414 
6.512795806910489e-05 
0.0003234969315085163 
-0.0002596053932070631 
0.0005847473608882061 
0.0005331655818695054 
0.0004758750095849575 
0.0002624988915525208 
0.0002304053290005258 
0.0001088288135701201 
-1.686264949756656e-05 
-2.059514266159259e-05 
0.0003578602164108614 
-0.0002231977460327783 
-0.0001714365398110415 
0.0004001024860932572 
0.0001695139597633328 
3.981917537122394e-05 
-4.510460590595386e-05 
-6.456234491896182e-05 
0.0002794734289294837 
-4.611968806960799e-05 
0.0001430450804609425 
0.000158428475486257 
0.0002720531452780511 
-0.0001542013088018045 
0.0001677670128664543 
4.169878657935703e-05 
0.0001247751938645465 
0.0001324127407445498 
-7.297591707085542e-05 
4.737274472416432e-05 
0.0002002579400295005 
-0.0002340085521912831 
-0.0003093247034777505 
-1.379473668296265e-05 
-0.0003552248703763541 
-9.998178365716008e-05 
-1.568593625298151e-05 
-0.0002104125384738359 
8.002791822034382e-05 
0.0002165508598945722 
-0.0001930953688497502 
-0.0005312769326056096 
-2.064153565672927e-05 
-1.67176775385047e-05 
-2.560785867486955e-05 
-5.956209856683793e-06 
-8.841181808767215e-05 
3.45772959490486e-05 
0.000150794178433468 
-3.732542077504354e-05 
-0.0005304801450654235 
0.0002782826518790981 
0.0004238294953506888 
0.0004524777589772922 
0.0001035910455551861 
-0.0001253136830947398 
-4.021384993537649e-05 
-0.0004474565228523772 
-3.021895967243506e-06 
-0.0001942785326352233 
0.0001887190794673561 
0.000123098701192273 
8.472941695930947e-05 
-0.0001835855992570636 
9.850426961470897e-05 
2.012197740505665e-05 
7.164528129002278e-05 
1.951348397148563e-05 
0.0006792710942054285 
0.0002379740077771116 
-1.393529876581551e-05 
-7.336019960318515e-05 
7.546417706032489e-05 
-0.0003927168664431195 
7.780222046168818e-05 
-1.419228088037479e-05 
6.008242590855566e-05 
-0.0001127836540358368 
3.448921503866181e-05 
4.353485651656032e-05 
-1.866500034787496e-05 
-7.949657379949731e-05 
-0.0001851988524007538 
-0.0001816466548009435 
-0.0001004777068192925 
-1.018955341641253e-05 
0.0001808267131652187 
0.000337426839066895 
-0.0002536381952318233 
-7.846137774380257e-05 
0.0001623222997495874 
0.0006484679536756461 
0.0001241937194987852 
0.0003427111169121168 
6.988654317314928e-05 
0.0004312006903101561 
-0.0004025244798604746 
-0.0001812711972771068 
-3.812154993972279e-05 
0.0003236761414970279 
-0.0001986449348128752 
0.0002435649294346766 
1.661912555283587e-05 
-5.853321378119764e-05 
0.000243828290154205 
-3.944746698836804e-06 
2.33198402931602e-05 
-3.849898962314802e-05 
-0.0001407708260735456 
-7.029655319620418e-05 
6.4169829186324e-05 
0.000140161081961462 
0.0002904264828977095 
-8.70534399643673e-05 
-1.950210216405079e-05 
4.886330439861118e-05 
5.258344611573064e-05 
-0.0003421885431810685 
-1.996531121022997e-05 
-0.0004606169926583658 
0.0002925787709748427 
0.000200375736886934 
-5.940948866340945e-05 
-6.960988666135786e-05 
-0.0001328742083161545 
0.0002381503930343641 
0.0004731851891161843 
0.0001825525266048234 
0.0002846230426368086 
-0.0004794403049348076 
0.0002189116841538513 
0.0002219803797036879 
-0.0003788519997500837 
0.0001895529484954237 
9.814909108550352e-05 
0.0002341550931442046 
0.0002952842893172768 
-9.417486291668953e-05 
-2.36361965613286e-05 
0.0005366468771535768 
0.0001363403144969539 
0.0002187661210053534 
3.590247183212611e-05 
1.527297919331792e-05 
-0.0002905717384915468 
-0.0005143793802339711 
-0.0001100693191370412 
0.000107567184098941 
-7.475849595258453e-05 
0.000100307294387187 
8.759457910039183e-06 
2.957877455909915e-05 
-8.709645979002471e-05 
4.947007395141112e-05 
4.160332960649393e-05 
0.0002303097381999848 
8.763257787919768e-05 
-6.048037199251126e-06 
-0.0001013081898605027 
0.0001330501754467846 
0.0001080771210619742 
-2.845923753211987e-05 
-0.0003785263084898245 
0.0001416904936979192 
2.821664696818778e-05 
-0.0001074264135405156 
0.0004929612686662971 
6.447907558405692e-05 
0.0003369210048290127 
8.550965052724275e-05 
0.0001877384621765601 
2.344527585651248e-05 
0.0003306440163423847 
-0.0001505153865042887 
-7.756794275447381e-05 
3.608039028176549e-05 
-7.617921585125425e-05 
5.491715857694676e-05 
-6.126455866020438e-05 
-0.0003966036509793721 
-0.0003504816340385692 
0.0003612194603545876 
0.0001101516836713136 
4.276419591031446e-05 
0.000348294862990781 
-0.0004489247746029367 
0.0002913938075107945 
-6.374859045919559e-05 
0.0001610945204047032 
-0.000109977208676053 
-0.0001329227593797401 
-2.066966397044429e-06 
1.810378982248209e-05 
-6.541834045829629e-06 
0.0002480957268332815 
-0.0005010388576115643 
-1.993104426364287e-05 
2.427553917526052e-05 
8.943473816863761e-05 
9.256189370360762e-05 
-0.0001930269231481477 
6.574798982665186e-05 
-0.000325644890548307 
0.0001040994293606766 
2.555461847942817e-05 
1.25179645216169e-05 
-0.0002018297693494786 
-0.0003174553460208791 
2.325024828718892e-05 
-8.676113754004346e-05 
7.405854355416014e-05 
8.179046863406633e-05 
0.0001708892550856809 
4.697758202666206e-05 
0.0004052205768958047 
-4.919543027696682e-05 
0.0002481124274925934 
-2.512813347070071e-05 
-1.516453419057597e-05 
5.929541564858432e-05 
1.562313059543612e-05 
4.003948550474233e-05 
-0.0002129518797669166 
0.000206519190185717 
0.0003603825180943609 
-0.0002015431312798337 
-5.350399427589144e-05 
0.0003084531223680879 
5.673800989083332e-05 
1.526402683333731e-05 
2.665253265511409e-05 
-3.931407535630186e-05 
-0.0002552199083667273 
-0.0001609937294076358 
-0.0001051460397612476 
2.32655844325005e-05 
0.0001430035710693317 
2.554198919127183e-05 
0.0002698253681482298 
0.0002152085146789082 
-0.0002270973851960062 
-2.757083676320133e-05 
-5.632660068308197e-05 
-0.0002025221129798044 
0.000389742279515269 
-0.0002557312249242459 
9.269559502978418e-06 
4.275159395017105e-05 
0.000175013565720229 
0.0004948363727301464 
-0.0006906575694785438 
-5.276518149283792e-05 
7.497671653237741e-05 
0.0003349659680706539 
-8.370294905077535e-06 
3.348799678499732e-05 
1.646316839143158e-05 
-0.0001441137333802273 
0.0001080919165389202 
0.0001339930824616843 
0.000208336152533842 
0.0003207282250770145 
-0.0001375538458634479 
-1.882010714514576e-05 
1.709793711701743e-05 
8.057870517849122e-05 
-8.966129283334749e-05 
-8.714654961235397e-06 
-7.615937624534036e-05 
-0.0001780308256210036 
0.0002930416645930859 
0.0007794895726949389 
0.000214272044441081 
0.0003025468298822268 
2.064812860554104e-05 
-1.625150609415829e-05 
-2.511965170796507e-05 
-0.0003471490465913025 
0.0002462017837150986 
6.982268666287311e-05 
1.049381422601848e-05 
0.0001698327709307031 
-9.485838480210441e-05 
-8.738399146094215e-05 
0.0002025190417648708 
6.962593818823325e-05 
0.000267434818923871 
0.0001604983480686411 
-6.945153483444306e-05 
0.0001925505388017709 
0.0001239148433213221 
-0.0005152503113770245 
0.0004980615031692206 
-0.001233900975457418 
-7.949314049661882e-05 
-5.444295082128375e-06 
0.0003491269667096692 
6.998583968163727e-05 
-0.0002520179892322281 
-2.39279317170052e-05 
3.358873841595385e-05 
2.282530633849307e-06 
0.0004174858711932544 
-7.296790475744253e-05 
0.0001733971967280466 
8.975474821361655e-05 
-0.0004772498450835015 
0.0002730488789532983 
-9.896750870126743e-06 
2.438164333516224e-05 
7.93751791804361e-05 
-6.905864440461773e-06 
-0.0001085812803462581 
0.0003703020272760074 
0.0001195232653531351 
-0.0001037406962169908 
1.513335029464459e-05 
0.0001912930888797968 
0.0005959401402851433 
2.741610922362087e-05 
1.671446485090339e-05 
-0.000200561360441482 
-9.988380172772967e-05 
-0.0002845299497145572 
-0.0001506516222915468 
-0.0001525721414999595 
6.602415413590782e-05 
0.0002505710939610375 
-3.114268647118146e-06 
8.086832147654361e-05 
-5.874108326157465e-05 
-0.000286963168139975 
0.0002115665032199382 
0.0002134600202850801 
0.0002338806159843306 
0.0005795515309917733 
9.541979223801415e-05 
0.0002536087462376152 
2.48621316441859e-05 
8.427398737141985e-05 
-0.0003115652181360958 
-0.0001154948027146353 
0.0002034474535452616 
0.0002560031389667971 
-0.0007507746698890205 
0.0003539546011263368 
-0.0005743758255891902 
-0.0001120095645575612 
-0.0001981641686429016 
4.941198059759966e-05 
-5.597751072654308e-05 
-0.0002406476646053309 
9.995505618811297e-05 
-7.757240360730594e-05 
-0.0003412630526313938 
0.0004043839113174495 
0.0002100347477479408 
0.0002757110794034464 
-6.219416265628377e-05 
1.42299168796693e-05 
4.043225997532927e-05 
9.709552964868182e-05 
-5.896620733675559e-05 
-0.0001531848548721879 
-4.778950553816123e-05 
1.444823411472383e-05 
7.074928307056724e-05 
0.0001251533401925303 
-3.339694065292899e-05 
-0.00025837633115371 
-6.246417483375569e-05 
1.419972223250211e-09 
0.0001444010454349996 
-3.331774921739774e-05 
1.327111892560077e-05 
0.0002676605751946357 
0.0001622633536037129 
-6.107317083480442e-05 
0.0002153121944264616 
-9.262554847612574e-05 
0.0003116689261994862 
0.0001361928852537146 
-3.773193246253054e-05 
-0.0006058839057196912 
0.0002104518521205245 
-0.0003878182076306671 
0.0003208962658087041 
0.0002201004620572508 
0.000564979825404519 
-0.0002141603316081935 
0.0004143310659840235 
-3.993678299975328e-05 
1.166624975026388e-05 
7.109019145274377e-05 
5.269574196989766e-05 
0.0001165983704002082 
-9.770505881755925e-05 
-0.0001556345218072235 
0.0002588404791818884 
-0.0006341312910370961 
-0.000126836077201385 
-1.034960822361852e-05 
-2.618485462407315e-05 
-2.728404438167816e-05 
-1.466772086110018e-05 
0.0002048917625644231 
0.0003321683747254534 
0.0003513487705175346 
-0.0008030435870188391 
0.0002329056759051553 
-9.084790097642996e-05 
2.311486747258525e-05 
0.0002289531304683293 
-0.0002716942885226534 
0.000563970007710201 
0.0001014645091934821 
2.837108272999452e-05 
-0.0001007679928561032 
8.367158029283796e-05 
-0.0001965498199987667 
0.0001224253212437718 
0.0002174518330536254 
-2.320910807377855e-05 
-0.0001187820559732681 
-0.0001657547794815826 
9.137318676897829e-06 
-0.0004139109947672584 
3.731053087382048e-05 
0.0002535674908715181 
0.000271421533286675 
0.0001850826126855202 
-0.0001263046981893928 
-5.179496073092409e-05 
0.0001445378596478914 
9.379118437037411e-05 
0.0003087671998707716 
0.0001711178202600369 
-2.000013709849095e-06 
-0.0002740622979867816 
3.310082011230612e-05 
-0.0001102329404058336 
0.0007287363702658653 
3.490193336971476e-05 
-0.0001843123724740169 
-0.0001339626628633229 
-0.000300626428485042 
0.0002218038832753414 
7.344760824109486e-05 
-0.0005897292443961811 
0.0003371306981173123 
0.0001081388674735648 
0.0002031699046180426 
0.0002287114329961811 
-0.0001288670461855692 
-0.0001465452861621564 
6.594719263099572e-05 
-2.493207766151208e-06 
-0.0001329721942429295 
0.0001759428820438923 
0.0001184549802761511 
0.0001116988570776071 
-0.0004183851397232715 
0.0002070266888994403 
-7.279619945429427e-05 
0.0002491078037989946 
0.0007323362583408271 
0.0001468948412911062 
-0.0001912820766079649 
-0.0003924709051509896 
-0.0002072386464862707 
6.882541197244211e-05 
-2.033211923396928e-05 
0.0003354875867960748 
-9.807568047640165e-05 
-0.00013622037675455 
-9.540256080044096e-05 
-0.0001709698072793988 
-1.499754087375773e-05 
0.0002337589496317368 
0.0001251434747365507 
3.693248354152499e-05 
0.0003045399593708547 
-0.0001893096943094762 
5.755852775346374e-05 
-3.677918716292544e-05 
0.000176940189613423 
-1.219107378655446e-07 
-5.319119400968245e-05 
7.959700938529497e-05 
5.410767601547781e-05 
-7.998167773377981e-05 
0.00019645561159145 
-1.763025754967874e-05 
-0.0001251006895335481 
-0.000238013987189061 
0.0003957172407023275 
-6.794376100095826e-05 
-0.0003795919327954555 
0.0001382027836117835 
-6.24447856026788e-05 
-0.0002118380028031704 
0.0001137560045706859 
-6.195310961637606e-05 
-6.665949009729842e-05 
0.0003761001755217791 
0.0001655073357524303 
0.0001886940561816406 
-9.969598568104754e-05 
0.0001500763142462375 
-3.378576555503321e-05 
3.853226570696838e-05 
0.0001503405565076138 
-0.0001305254121842325 
0.000460351618382474 
1.249961159262892e-05 
-8.251715467893363e-05 
-0.0001990451283275286 
0.0002104274506176668 
3.978986924531863e-06 
-6.440858539080851e-05 
4.403677543583087e-05 
0.0001280815554897727 
3.379868042091975e-06 
6.731032437183612e-05 
-1.34766238555348e-07 
-0.0003425854243907679 
9.85529262228242e-05 
-7.206208905912223e-05 
-0.0002521536731023061 
0.0004463803749159482 
0.0001975351220951514 
-0.0002827097189967127 
-0.0002158900768150874 
-4.716895240402107e-05 
0.000188110183387656 
2.557170796541227e-05 
0.0002345354916979185 
-0.000169850367564851 
-0.0001601171626804504 
-0.0007206193279516137 
-9.490292124981036e-05 
0.0005887444227700828 
0.0002896054958489312 
-4.596473930023812e-05 
0.0001429187303315076 
0.0001185506202244116 
0.0002614552870235063 
-7.598279369745419e-05 
0.0002562024272353887 
0.0002699257641491247 
6.755573393273498e-05 
0.000253766980675342 
-9.431628043553608e-05 
-0.0003636722770375393 
3.355321197284867e-05 
-5.766333193958729e-05 
0.0002646232171893592 
-0.0001941222314059962 
0.0003653390906469112 
-0.0001074583027960761 
-8.088453911270858e-05 
-0.000175732076873863 
-5.433543390681997e-06 
9.620300466778713e-05 
0.0001399721402452766 
0.0001081539775564891 
-3.149343353536025e-05 
6.182488987995086e-05 
0.0002077572341599398 
0.0001552990096076779 
0.0002176154633546843 
1.467904192280305e-05 
-0.0003094978251438126 
-0.0004613953176011515 
-3.166292338740045e-05 
0.0001111495091709521 
0.0001050581102952054 
-1.3857541675866e-05 
-0.0002120437728446274 
1.547524196064767e-05 
0.0005110910111527214 
0.0002304419940790087 
-0.0005382227664729185 
0.0003921241215846766 
0.0001773143235860106 
-0.0002503168201900972 
0.0002444996878139191 
2.863924821265729e-05 
8.039058568328496e-05 
3.320497201322164e-05 
-9.008133607079444e-05 
-0.0001342348994367984 
-1.923622818802648e-05 
0.0001147208729865894 
6.501697470715207e-05 
0.0001095970588569484 
-0.0002613068133813281 
-0.0002317601353454404 
6.716564458857106e-05 
6.585171389874264e-05 
0.0002320375421137196 
-0.000316519757089539 
0.0001180925807912948 
8.93988398827664e-05 
-3.985533715516296e-05 
0.0001098012958499932 
5.019982974028354e-05 
8.386843153442038e-05 
2.662064131136367e-05 
-5.917299752151711e-05 
-6.931015877921059e-05 
0.0007011970929936238 
-8.410533740487442e-05 
0.0001247065941766067 
3.981453647675645e-05 
-0.0002646512225430339 
-2.436660253428815e-05 
-4.855952406863085e-05 
-0.0001927165282551755 
1.522218294332729e-05 
8.143316404709322e-05 
-4.316917391190988e-05 
8.156876814356983e-05 
4.341371501542468e-05 
0.0002858829659881884 
-0.0003249350154187624 
-6.495166257862818e-05 
-0.0003127704971777927 
0.0005406850887531463 
-1.068765975800519e-05 
-7.627473258568829e-05 
0.0001281743255565609 
-3.752974091213267e-05 
0.0002519026395766463 
-0.0003253346441365178 
0.0002088077636963966 
-5.31813390186519e-05 
-7.331378500019342e-05 
5.727883838238767e-05 
0.0007737572930083199 
4.125277574502924e-05 
6.982882858296618e-05 
-7.868418537749622e-06 
-0.0001239876641364772 
3.680280624861636e-05 
0.0001487979836993476 
-0.000422641360479262 
0.0002081343667538843 
0.0002879019433752817 
-0.000223995014518325 
0.0002440817518158788 
0.00033591195910214 
2.768276470001876e-05 
-4.134886256283323e-05 
5.630914597573475e-05 
-8.316584455535887e-06 
0.0001548836419838308 
0.000241050727150619 
3.290736859407038e-05 
-1.370936465209858e-05 
0.0001730854914243248 
-0.0001905276290040109 
-6.699020170106893e-05 
0.0001136613851972915 
0.0001638334770695732 
0.0002204335710003657 
0.0002824403400127645 
0.0001048405148672978 
-0.0004560367249059056 
-2.907420493319525e-05 
-0.0001705411737196729 
-0.0003371872362000791 
3.314769817336835e-05 
9.027229582577018e-05 
0.0001165171407440345 
8.865633423537533e-06 
8.107664875643081e-05 
-0.0001963440435240969 
0.0001678533620807299 
8.940706306364775e-05 
-0.0002535781645257965 
-7.8266369478172e-05 
-8.799641494829784e-05 
0.0003754433659306295 
0.0005396979961761433 
0.0004621458562489115 
-3.264685212769191e-05 
-0.0001284785650002571 
0.0001973199486613364 
-4.937538131296475e-05 
1.674907034420413e-05 
-1.150637211903481e-05 
3.5551799708882e-05 
-0.0002370340283413686 
0.0003668414997087187 
0.0001222252844303898 
-3.740538843144029e-05 
2.018551125327298e-05 
0.0001262587481040179 
-8.199743975864242e-05 
9.21111079614846e-05 
3.604214289699406e-05 
-0.0002397473820441404 
-0.0002077189193198765 
0.0001781350368410996 
-8.745623246340653e-05 
-0.0003114737394949138 
8.01878742176926e-05 
-5.203190991015725e-05 
-0.0001891170430618602 
0.0001331874896852808 
8.327770397152584e-05 
-1.363812024620012e-05 
-4.122164913634334e-05 
0.0005546699381455677 
0.0003464269104480481 
0.0003421512771253428 
-3.28714881309417e-05 
-3.896965243755172e-05 
6.089008202895993e-05 
3.238632876768475e-05 
0.0002306985092816577 
-0.0005609000755576138 
-2.526994872713153e-06 
-2.019838085520104e-05 
2.981771859596695e-05 
-0.0001272452166301836 
-2.246428840602122e-05 
-0.0002802785061135073 
1.962374519853504e-06 
9.541530048863286e-05 
2.222896218353262e-05 
-4.840411877039528e-05 
-0.0002614258365632362 
-0.0002994366891060286 
0.0002480538583646311 
0.0002752886904640871 
0.000258324587460065 
3.651697808178099e-05 
0.0002233483510102716 
-0.000226937894371239 
-0.0001778006841355777 
2.188530312449847e-06 
-0.0003463597199037967 
0.0002247512173116056 
0.0001745844126576685 
0.0005819435606421806 
0.0003148601224704368 
-0.0001108756474916564 
-5.4967701627228e-06 
-7.549500847449569e-05 
0.0003280064518398637 
-0.0001726083047854949 
0.0003069335765146172 
3.936607532308018e-06 
3.98435364264415e-06 
-7.231680026211525e-05 
-3.707922030456613e-05 
9.926399587570498e-05 
5.307105638721364e-05 
-0.0002681969256128602 
6.492587249711897e-05 
1.54413122353883e-05 
-2.866849549347483e-05 
-1.296940050970181e-05 
8.514017716105651e-05 
-0.0002678090595216609 
-2.584772678678001e-05 
0.0002323887127335951 
-0.0001181833276293222 
-2.48000729559027e-05 
-0.0003426296447179199 
0.0001750263307436229 
6.321529934513452e-05 
0.0001081669680014378 
6.219929685261564e-05 
0.000377718306521038 
0.0001204091429197842 
-0.0003378787614209386 
-5.872787082307714e-06 
-8.961351340166164e-05 
-4.320363476848371e-05 
0.0003012073542266537 
0.0001079715241851609 
-0.0001711579590423373 
-0.0002335062905110443 
3.396268167232584e-06 
-6.250278157529131e-05 
6.288138446437875e-05 
9.855770461490485e-07 
-6.014151967090579e-05 
5.332363292387952e-05 
2.014452700296406e-05 
1.60917867027285e-05 
8.698163502834115e-05 
-5.425474737143602e-05 
-2.913626486350362e-06 
-3.403915899350961e-05 
5.000743014263227e-05 
0.0001410719308245014 
6.188378867057155e-05 
0.0001515372728418457 
-0.0001171610150064453 
-1.835359993987697e-05 
0.0001934635755744459 
0.0001314834584643599 
-6.42133519262122e-05 
0.0003467997455269965 
0.0005410751064994316 
-0.0002712712387292193 
9.902774610597172e-05 
-0.000124091567633145 
-0.0001210092079582908 
-0.0001002675131889602 
7.005365594575575e-05 
-3.51835246233212e-05 
0.0002749892524852463 
-0.0001096982298347695 
6.716053784286015e-05 
0.0001397216800895637 
-0.0002886000708502515 
9.67354487798766e-05 
2.456288229574813e-05 
-1.563184946563127e-05 
-9.481224105779018e-05 
-0.0002780452965383246 
-3.330864138448178e-07 
6.274456177358127e-05 
-4.33353733171259e-05 
0.0002813081119935283 
-5.941225900483034e-06 
0.0005161739056172572 
8.060273076895095e-05 
4.715532281791851e-06 
-8.770417171527156e-05 
-0.0003028542045587212 
4.029636887066338e-05 
0.0001173503521242739 
0.0001635229215409954 
6.053973568840236e-05 
0.0002413192596385131 
4.073921481450146e-05 
0.0002440246176867747 
-4.862335741112495e-05 
5.759980536345015e-05 
-0.0005642127911380231 
0.000144122731861276 
-0.0001128130659836355 
0.0001333726012840159 
-3.770548504339989e-05 
0.0004005660306875582 
0.0003892576777343769 
-0.0001931743999279588 
-0.0001104360887189994 
-3.263744618853542e-05 
3.186427033499031e-05 
-6.313973103780769e-05 
-0.000252690631778627 
3.172650879798802e-06 
-8.287565606336002e-05 
1.410757329305504e-06 
-3.870254426342871e-05 
1.547581280965007e-05 
0.0003121650560328577 
-2.319602130335328e-06 
-0.0001376713915589851 
4.462355173746809e-05 
0.0002478504853094238 
4.728002874064669e-05 
-8.157955293965537e-05 
4.721616391988387e-06 
-6.612613092922167e-05 
0.000307499792343575 
7.737704346733646e-05 
-7.476600748781612e-05 
0.0003185137910082759 
-0.0001618416679491001 
0.0001610513646036344 
9.60102839701487e-05 
4.452378046143461e-05 
0.0004696484240209769 
-0.0001223407386134413 
-1.618532420842174e-06 
-0.0003292037737941811 
-9.705751230252057e-05 
-8.821639271357621e-05 
0.0002710646726902747 
0.0001701629541539727 
-9.547548668286121e-05 
2.854088004266545e-05 
1.665561367365542e-05 
-0.0003657275378723579 
0.0001371874535256653 
-0.0001237325415044588 
0.0002317449585193801 
0.0001423951463932893 
-7.676051440850969e-05 
0.0001463196885803181 
1.273413712163954e-05 
-0.0002773581798731503 
3.798405069178205e-05 
2.641483018215929e-05 
-8.521261617303592e-05 
-7.483379125989739e-05 
8.241238403588821e-05 
7.582169472279643e-05 
0.0002536881350055076 
-3.728347924913426e-05 
9.15907849253257e-05 
0.0001198358758393648 
0.0003780551601041291 
-2.253061604961466e-05 
0.0002209063735162134 
-0.0003416954506658696 
-0.000302198063489743 
-0.000203060724934058 
7.338122875721492e-05 
-6.138137070686413e-05 
-1.095301892728527e-05 
-7.502053616750892e-06 
0.0003617380177278999 
-0.0002769869225014365 
0.0001424673451657659 
0.0001342257777374836 
-1.178192127991087e-05 
-1.262483327736664e-05 
-1.195504915142859e-05 
4.17983980230415e-05 
0.0001766891706320505 
9.099880387149049e-06 
8.795801865762624e-06 
1.980839686188272e-05 
9.151201288758373e-05 
-1.501061622531308e-06 
-0.0001332473960861451 
0.0003255962501790862 
7.203650798329577e-05 
0.000150263608682557 
-0.0001359577666287368 
-0.0002422452003942279 
3.699393430003547e-05 
-3.886533224333797e-05 
-5.194372445410175e-05 
0.0001945151865830516 
0.0002596738133885271 
-0.0002441510454621353 
0.00014076054659819 
-0.0002654707598306106 
0.0002577978955937006 
-3.789754607121409e-05 
1.799965555315073e-05 
-0.0001330054448889415 
-3.084017593685114e-05 
4.555180150498463e-05 
6.861876976443993e-05 
0.0007201575675086062 
1.120851832955021e-05 
-0.0002408946963728483 
-2.462133619602427e-05 
-1.279423583477847e-05 
-0.0003626618366401183 
0.0003722649191915837 
-0.0001095638062723477 
-0.0001941631360281469 
-3.185128238083873e-05 
0.0004370612118507783 
5.268157365582765e-05 
3.217230817534327e-05 
0.0001623046179441832 
4.197641133101166e-05 
-0.0002786774834393319 
0.0001827466400065687 
2.86302726523062e-05 
0.0001179048187274123 
9.226945480750519e-05 
0.0002082236030361838 
-6.47134584692148e-05 
1.974629602100229e-05 
7.504661405877477e-05 
9.481202039390754e-05 
-4.404866993582091e-05 
3.523198503050422e-05 
-6.031389823016901e-06 
7.008223885125686e-05 
0.0002730808206124452 
7.87147496262e-05 
5.926302564618561e-05 
0.0002307754220409965 
-3.384907865543795e-06 
-0.0001118947436284634 
0.0003657525069141336 
4.958778921519375e-05 
8.346514303685543e-05 
-0.0007524878186661926 
-3.567586142532996e-06 
-0.000210681387018253 
0.0002122830561582281 
-0.0002709384576635184 
-0.0001997497440983372 
0.0001407469318783986 
9.730579922680261e-05 
5.113883346730608e-06 
0.0001146365417334234 
-5.024013258921587e-05 
0.0004022246818322749 
-0.0001391270535058681 
-0.0002854318726502158 
-4.970431120808975e-05 
2.824452340568787e-05 
-0.0002333281361309479 
-2.028267978983267e-06 
0.0001239978931622644 
0.0001707234238521799 
-3.361070045762757e-05 
-0.0001098032105969774 
-5.713246983524236e-05 
5.56234699650851e-05 
-0.0001781967040741965 
-0.0001787862510451416 
0.0007545190182405629 
-3.366299683983775e-06 
5.002514009871518e-06 
0.0002925404735334828 
-5.207302789180373e-05 
1.307581221484119e-05 
-3.613451844370085e-05 
-4.850970859295443e-05 
-0.0002407920060190617 
0.0003577194657372601 
0.0001568654479536142 
0.0001719738694123001 
-0.000280554852600893 
5.104828936107223e-05 
2.425695685499556e-05 
-0.0001922640781411333 
7.642815060408506e-05 
-9.284946651441634e-05 
0.0001445875846106682 
-5.743662744859209e-05 
3.242768946207001e-05 
-1.738819060992401e-05 
2.022946955745114e-05 
8.100440384455044e-05 
-0.0001384910343059034 
0.0002887800537041829 
-0.0002617855004465816 
8.000529162597678e-06 
-0.0001224025212239073 
-0.0001432478367487409 
1.508595926702129e-05 
9.24133908160199e-05 
-9.056334733064842e-05 
-5.946847388371954e-05 
9.429402001716874e-05 
4.109332593388212e-07 
0.0002728772185007341 
-5.482167935799306e-06 
6.961346613889766e-05 
0.0005023860591018953 
0.0001200097719986957 
-1.983453401449336e-06 
0.0002184152002080967 
8.345645781678883e-05 
0.0001145300530286806 
0.0001905156729222089 
-0.0002266133289455034 
8.583768160578853e-05 
-8.969553653593752e-05 
5.158571306461301e-05 
-9.158799562979351e-06 
-0.0001344867037915607 
-6.510885714201655e-06 
1.453687592909244e-05 
-2.234714021251009e-05 
2.155728458367931e-05 
7.558952463336459e-05 
-0.000381310416424819 
0.00024937117428021 
-6.976523984642566e-05 
-0.0001478862888255779 
-5.304163269283438e-05 
1.527907443706976e-05 
-0.0004155709832519894 
-9.937386859522523e-05 
-9.292844799821619e-05 
0.0002753612791764221 
3.012916022054462e-05 
0.0001753026807046545 
0.000155588360708979 
-1.924852645815652e-05 
0.0001354484627660028 
0.000732320759811225 
0.0002493178468613078 
-6.746479840455626e-05 
0.0001654980042601897 
-1.101565902381156e-05 
-4.181933591097464e-05 
-4.338769717192256e-05 
-0.0001161581175882643 
0.0006027105763147303 
-0.0002981142856715159 
9.67639800314359e-05 
0.000185666266846585 
-0.0001656575131872126 
0.0002399569237724181 
-2.35618634790019e-05 
-0.0001181829720868091 
0.0004550974139610541 
-3.67365688711811e-05 
-1.917902813564217e-06 
-2.201346405173572e-05 
-7.716617361283727e-05 
0.0001427096564668109 
0.0001404978408804603 
-9.950039581293327e-05 
-0.0001602478484702324 
0.0005057512835449431 
-6.754404647725759e-05 
-0.0001879729716436554 
-5.316101553691358e-07 
4.470060572871255e-05 
6.270486465295152e-05 
1.511818118241586e-06 
-0.0002225155745513403 
-0.0002110339376673705 
8.183416895859205e-05 
0.0001862930225425919 
-6.840648521120926e-06 
2.488874907203642e-05 
-1.728271862646709e-07 
-8.106135032904101e-05 
4.488769802671984e-05 
-1.757364085711551e-05 
9.681864205480287e-05 
-6.231711939766681e-05 
8.362184609636778e-05 
-1.49672529846217e-05 
-7.557642764482782e-05 
-1.489665698148148e-05 
-0.0001987328572075842 
2.103813186495963e-05 
1.386309120059623e-05 
-2.79396753557915e-05 
0.0001193661226973267 
0.0002566930854810428 
0.0003566546975302235 
-0.00023631749258778 
1.934676503687128e-05 
0.0003076929246675253 
0.0003113476887242729 
0.0001132344336331273 
-1.011408698074355e-05 
0.000455053387532536 
8.723213146882504e-05 
4.814406919584165e-05 
6.938487558829933e-05 
-0.0008630669463808009 
-0.0001856589147089888 
-0.0001854245689757001 
0.0002597445234021443 
0.0005620083504813361 
9.161080311082764e-05 
5.24624833009913e-05 
2.526712282275084e-05 
-0.0001220223694619845 
6.581415855531756e-05 
0.0001451509343953243 
-3.808752740429732e-06 
0.0003815002315256401 
-0.0002461423573692335 
0.000108704458750875 
0.0001097279432624038 
0.0004120334030763427 
-0.0003396903016837622 
-3.883571610002616e-05 
8.160290876597689e-05 
-4.259222235565292e-05 
-0.0002820469833574854 
-3.914937155071788e-05 
0.0001041320820331936 
-0.0002880866716763943 
-0.000383794156202021 
-7.222008161660648e-05 
-2.154093727806626e-05 
-2.213819406332119e-06 
0.0002479350816599806 
1.792688737543884e-05 
8.106442454658964e-06 
0.000375642842725532 
-0.0001614768826341876 
0.0001442191744870121 
0.0001878715931316861 
0.0001164590447861343 
0.0001732837082257845 
5.325664119202991e-05 
6.429542938969446e-05 
-0.000424945631674039 
0.0002107519984577507 
-0.0001805533783881812 
3.311575221933859e-05 
-3.081357409547532e-06 
-7.48002516031454e-05 
5.026153735948614e-05 
3.738753837063891e-05 
6.579558934837613e-05 
-0.0002355705630226169 
-0.0001209507353901519 
0.0001588076988790728 
4.241982150714873e-05 
-3.913605340438696e-05 
0.0001205814390542003 
9.247665408072926e-05 
0.0003340004462187671 
0.000255376049988088 
7.925051839553273e-05 
-0.0002034690053434604 
-0.0002972875060042212 
0.0002804187691693951 
-0.0003614010344425476 
-0.0003641226836149374 
0.0003065717865813924 
0.0003190424747451099 
-7.278603856685336e-05 
3.208812104829705e-06 
4.535366429492554e-05 
-8.04888703425151e-05 
-7.658744997941774e-05 
0.0001070165491142929 
-5.622006468049236e-05 
-0.0001365494430140433 
-0.0001412798534000243 
-0.0004831351316301294 
2.149212052207294e-05 
-0.0003547337014486639 
-0.000243108210063079 
-5.593841032597793e-05 
9.60357307958172e-05 
0.0008554632680787026 
5.595107463139948e-05 
0.0002793069867763491 
0.0002244759914294122 
1.573289270367569e-05 
-1.490969497918737e-05 
7.777477398095949e-05 
0.0003351589743880787 
1.172086936141239e-06 
0.0002819012441898095 
0.000180531310941108 
-6.876660869497506e-05 
0.0001278096671343054 
-0.0002729370725592697 
0.0001334926480568515 
-2.271872108423778e-05 
5.860693998027489e-05 
0.0003269724204103323 
6.790186912442313e-05 
0.0001984191420165032 
-0.0001151091001154212 
-6.498037737185798e-05 
5.301120692424397e-05 
-0.0001612702343320466 
-0.0001737100531586974 
-0.0003399131964209909 
-7.237563247576714e-05 
0.0002927686014985351 
0.0005436682117331237 
-0.0002804425273683579 
0.0002921638325927977 
-5.002697506484635e-07 
0.0001377713217087432 
0.000274316033861064 
0.0001180595991451588 
4.383793583108133e-05 
0.0002789524065207521 
0.0001894496440264494 
-0.0002964451146099086 
-0.0001496158019631728 
-4.542606883918365e-05 
-0.0001360861235563417 
-9.05649627029593e-05 
-0.0001583855628373932 
-1.496849260607856e-05 
6.216448263568818e-05 
-7.3731597290843e-05 
-5.608517485932511e-05 
0.0001704790475202256 
0.0001070154739238464 
6.491587897425343e-05 
-0.0003005262426065499 
0.0004801875778181449 
-0.0002256955850356786 
9.493163944086721e-06 
-7.662227507354424e-05 
0.0002881663718721187 
8.130056713067849e-05 
-0.0002680309884455453 
-3.389349873232129e-05 
-5.264035387770148e-05 
-1.827352554668972e-05 
-7.489510416986739e-05 
2.80642262813528e-05 
0.0001117127389308721 
-8.238172116516195e-05 
-7.387470041038514e-05 
-2.912477330709027e-05 
0.0002725979924779685 
0.0001566149018587889 
-0.000240342494288049 
0.0001411819274098644 
-0.0001133158464614994 
-1.525077611590753e-05 
-7.071778457129754e-05 
2.534045662590862e-05 
-7.602856462669225e-05 
0.0001180323083505459 
0.0001136094664889328 
0.0002923404060619255 
0.0002813662415748273 
-6.900735321490404e-06 
-0.0001498087385058323 
9.299556645632884e-05 
6.973997926952678e-06 
4.991181557185017e-05 
-7.160903491298601e-05 
1.759029066869559e-05 
0.0001725930293020204 
-0.000253628587105467 
-8.097688936957273e-05 
0.0003072389325085458 
2.193871146658909e-05 
-0.0001058599002083231 
-0.0002098155725819762 
-4.666080521207955e-05 
-4.44686937490148e-05 
-0.0002500324676261362 
4.090263597747581e-05 
7.758276975200919e-05 
0.000378202328856787 
-4.301958008652287e-05 
0.0002149176172810744 
0.0002164217680389601 
7.359788884962638e-05 
-1.420233831083616e-06 
7.692668536863347e-05 
0.0001104279582588071 
-6.150600106891696e-05 
1.999028516293779e-05 
2.545403092272299e-05 
9.155573733258369e-05 
0.0001508106551669368 
-0.0002744521664457453 
0.000515314868794386 
6.646209097064151e-06 
-2.600841531908309e-05 
2.182075732318154e-05 
0.0002250133171736936 
-3.001162663004347e-06 
6.419480277852264e-05 
-4.949208780702329e-05 
4.136961777743035e-05 
2.911722585449339e-05 
0.0001536139526568128 
-0.0002544590481153493 
5.010404191515993e-05 
0.000153069468543897 
4.148524917620528e-05 
-0.0003887093726503539 
-7.3516149874803e-06 
3.766230815398594e-05 
6.066919391332017e-05 
-0.0001528496390755408 
6.302216081170967e-05 
-9.219941066998992e-06 
-3.473057151417357e-05 
-3.553412554331667e-06 
0.0002482222868654773 
0.0001626049860125952 
7.6725834477985e-05 
0.000227058888736669 
-3.08617688407249e-05 
-4.553107701080645e-05 
-7.716942672182723e-05 
-0.0001855346057331054 
2.494976205016537e-05 
0.000139743586473945 
-0.0001304774426590576 
-0.0001121743866153879 
8.991513580809809e-05 
9.979463722368345e-05 
0.0003620387722608023 
0.0001174036059936016 
6.463210732076894e-05 
-9.948955342827583e-05 
0.0003069420542892243 
3.596620357141632e-05 
0.0001722706967583741 
-3.242759310402628e-06 
0.0002766817591619767 
6.037563048632189e-05 
4.089313927459761e-06 
0.0004360159900781028 
1.687520206068773e-05 
-0.0001971350741023765 
-0.0002657906158947257 
0.0001324373292063305 
8.701035862784654e-05 
-5.222600230500987e-05 
-3.970692666795421e-06 
-0.0001049530345077744 
-0.0002423198837580069 
4.027962108546637e-05 
-0.0001045625731185988 
-0.000197681208970416 
5.246153197579731e-05 
-9.942165301633232e-05 
-3.708547277163792e-05 
2.764338515921236e-05 
6.858719802565119e-05 
0.0001419720514249603 
8.434774102319484e-05 
-0.0003441490628209115 
-1.699696505486073e-05 
-8.447939439649227e-06 
-0.0003403433895440282 
7.359167102369136e-05 
6.138132029692509e-05 
0.000386489300081321 
1.068461069409442e-05 
-5.120140704886584e-05 
-6.993316962372325e-05 
2.844216379418408e-05 
4.95572215611901e-05 
1.343741100409483e-05 
4.18432311943181e-05 
0.0001541657256167393 
0.0001105365796240491 
-0.0003115787090282321 
0.0002671031292513386 
0.0003486316357731971 
0.0001930808531979598 
0.0001853830667725261 
-0.0002037929825126126 
0.0001542133184231526 
1.162211125209681e-05 
-0.0001629457974589755 
5.350828841606169e-05 
-8.917600828347266e-05 
3.29734289347651e-05 
0.0001800001829933234 
0.0001032055205962341 
4.617291646285942e-05 
0.0001628259857279134 
0.0004232071055635332 
-0.0002764266959436656 
-0.0003270610402158092 
0.0001910745184965934 
0.0002720095735605657 
8.897801704834559e-05 
-2.845704550408396e-05 
-5.921259631349584e-05 
-0.0001959356832063311 
0.0002494787580710457 
-2.186443881986434e-05 
5.593284813712339e-05 
2.473097667351399e-05 
-0.0001131080290189226 
-0.0001844391908178245 
-0.0001194984849436267 
0.0001676653427568039 
0.0001895995114056109 
-0.000498950424997283 
-0.0001700007003510407 
0.0001975713812734334 
0.0001038948718424712 
-0.0001017384479761249 
-0.0001740472361602198 
0.000700855123839584 
-9.934575541821618e-06 
0.0002215014327058433 
-0.0001050622515707935 
-7.435292875723375e-05 
-0.0001367382610204658 
-4.86617941033457e-05 
0.0006660595718621526 
0.0001347751264379061 
-0.0001606819194597811 
7.235106129499161e-05 
-0.0001527658718337618 
-0.000277811911693816 
8.309405354616353e-05 
8.565180163452783e-05 
0.000173812437942509 
0.0001373036187359424 
0.0001155134952639122 
4.91181477299958e-05 
-0.0001191233263123319 
-0.0001810899640263004 
1.268584209455487e-05 
8.273170616829358e-05 
3.302743825616512e-05 
0.0002502911392832601 
-0.0004260349976429381 
-7.619877425262053e-05 
0.0002355071756372498 
-9.417174293438979e-05 
0.0002349203454052042 
8.001713587638052e-05 
1.498058965906812e-05 
5.862837344274964e-06 
-1.61857479804808e-05 
-8.462762972467382e-06 
-0.0001452802806410503 
0.0007571823736524596 
-0.0003388305251135195 
-6.602244137343228e-05 
0.0001843931852328599 
-0.00017694098316782 
3.261850361618012e-05 
0.0001690028381026956 
-7.168748974117811e-06 
4.150351134496394e-05 
1.610662805966689e-05 
1.356795004869365e-05 
8.497515295152074e-05 
-6.650868558483002e-05 
0.0002047629403711383 
-5.181733918348572e-05 
-0.0003719646293353453 
-0.0001633232993069817 
7.037442876310193e-05 
-1.115395987693121e-05 
-5.528541263087989e-05 
9.40293657484368e-06 
5.866193629373761e-05 
0.0004063782872654337 
0.0002074909855116707 
1.979042384384643e-05 
-5.30216685419006e-05 
-8.600456694593623e-06 
2.873109963656111e-05 
0.0001159697247056206 
-7.620624728750947e-05 
-0.0003499022312713135 
-3.934259091762624e-05 
-9.055531601489954e-06 
0.0001716519198099923 
6.195185503977073e-05 
-1.968863798991033e-05 
5.659329277203576e-05 
-0.0003171780795963141 
-3.266835042733474e-05 
-7.890409831602202e-07 
2.494462544251895e-05 
-0.0001824478924474861 
0.0001996666313485688 
0.0001526811930565224 
9.326909549200165e-05 
-0.0001883848550173969 
0.0001788096469140184 
0.0001203843382646783 
0.0001541036027440919 
3.180222676955782e-05 
-8.437225405379071e-05 
0.0001392690667419476 
4.194128173183907e-05 
0.000127122273409238 
-9.70703539420741e-05 
4.201110512606587e-05 
0.0006887634483267643 
-0.0002576173359116807 
8.251162108810621e-05 
5.596395311188838e-06 
4.853433402438029e-05 
-2.276533396357004e-05 
-4.29023724709161e-05 
2.02871409614352e-06 
0.0001454959867430876 
0.000366145970011562 
0.0001557030979989178 
-9.589341550073139e-05 
-0.0002104088720608452 
-1.930080778768828e-05 
-0.0002748682149089013 
0.0005299511417858255 
-8.733926171575937e-05 
-6.640127554645115e-05 
5.498779902748539e-05 
2.659276010456086e-06 
0.0003653710792280164 
0.0001424422975210136 
-0.0002749986445418917 
-0.0001276533732938773 
-0.000113534452589601 
-4.511297589152982e-05 
9.870064191665853e-05 
8.578827438890394e-05 
-0.0002632366010039731 
-3.713352206316254e-05 
0.0001067681634134924 
-2.236706577634606e-05 
0.0002749509082407854 
0.0001139725248156277 
-2.853584251642556e-05 
0.0001557977741189177 
4.156529532223086e-05 
-0.0001123167816808872 
-9.223383757642573e-05 
-5.261948277909413e-05 
0.0002629244402422137 
-0.0001513929663723328 
3.988892728774252e-05 
1.095005973072819e-05 
-5.601869278742607e-05 
0.0002936423670651859 
0.0002591795474105381 
-4.452766482989088e-05 
-4.157484088670848e-05 
-0.0001105144064531526 
2.841914319467522e-05 
-0.0002372799504326939 
-0.0002107257416483118 
-0.0001633144857985901 
0.0001340578277064709 
-8.066056824458648e-05 
0.0002009712280191656 
0.0001635266091528559 
-0.000209132138253259 
0.0001247642966558513 
-8.171643831703519e-05 
-0.0007463432648484775 
0.0007137099392116298 
0.0003173549343351961 
0.0001881183944902095 
-3.404743524481804e-06 
0.0001121769085409839 
-1.653409590350627e-06 
-0.0001015779894634401 
0.0003553314640529432 
0.0002236444658471424 
-0.0003182526736656871 
-4.615707285186672e-05 
7.22003666306313e-05 
0.0003203614864575587 
5.910181470421859e-05 
0.0002133679680660391 
0.000153105440690196 
-6.477055603630717e-05 
-0.0001569995409291818 
-2.719544540626522e-05 
5.43783421876653e-05 
2.101938527457481e-05 
0.0001036627034085945 
-4.167144846997868e-05 
0.0002801368753902452 
-3.167288894592806e-05 
-2.041365681713835e-05 
-2.542094540951365e-05 
8.198098546661796e-05 
-0.0001852284783818878 
-4.586092042939486e-06 
1.690679498204145e-05 
1.287055640288633e-05 
4.514594074110891e-05 
-1.552950340139877e-05 
-0.0002030672167295236 
0.0001641616944896934 
8.242701175595327e-05 
0.0001700267271229518 
9.343427502628667e-05 
-0.0002066418502666563 
0.0002487189653993915 
0.0002958886532498215 
0.0001440617558172965 
-8.873160705952421e-06 
0.0001070881174367804 
0.0001193059612518893 
-0.0004122810234046795 
0.0004355008874754205 
-3.035505987141677e-05 
-5.62913563072139e-05 
-0.0001072052959670953 
4.448013339665401e-07 
6.43873424712104e-05 
-1.045397395864974e-05 
-2.971392316969297e-05 
1.613089083290925e-05 
-0.0001066527398812389 
-4.186332873738383e-05 
6.50696118599841e-05 
0.0001680364800506851 
0.0001602808288730056 
0.0002273874314139598 
-1.373988080881313e-05 
-0.0001781409309419572 
0.000127728487177865 
-0.0003170963837999185 
-2.450229931870958e-05 
4.000152335928826e-05 
-4.828118013958921e-05 
-0.0002220454441387322 
0.0001667507722623891 
4.103893617531015e-05 
9.513540332229086e-05 
0.0001724594794885107 
-0.0002659393208027968 
0.0004526936442184303 
-0.0001381750882560557 
0.0001683128978288194 
-3.455023504455634e-05 
-0.0002016253346694152 
7.375857322404976e-05 
-0.0001564016420574145 
-0.0005129206208726068 
4.97787596962059e-05 
0.00012515475463394 
-2.903122768855242e-05 
0.0004785046103721591 
0.0002030387408857464 
-0.0001054530405476455 
-0.0001130858243456176 
-5.62170406426328e-05 
6.604605896833233e-05 
7.518223683364807e-05 
4.897013282866535e-05 
5.08145694611231e-05 
-9.770866976661341e-05 
-1.520157118927083e-05 
-4.712349011444308e-05 
-2.248736127071624e-06 
8.592791274128447e-05 
5.088917120898353e-05 
0.0003069974741011598 
0.0001896478717471326 
-9.730498414565229e-05 
8.29693804336401e-05 
0.0003323707090631646 
5.344700805199318e-05 
-4.205732869141027e-05 
-0.0005847708754708001 
-9.352848912115645e-05 
0.0002698870808966931 
5.340568969776847e-05 
8.007244397585662e-05 
0.0001782752044256011 
-3.177606954866051e-05 
-0.0001187512550186384 
1.088504495479981e-05 
9.57337354059445e-05 
5.079159063431727e-05 
2.407971504114361e-05 
-3.03883090939428e-05 
3.822055601594427e-05 
0.000398268552137811 
-1.176375193817847e-05 
-0.0002716575400290207 
-0.0003185873874763128 
4.469501078181049e-05 
-6.13267230770717e-05 
-2.585423481763542e-05 
0.0003281344774109579 
0.0002638331294204815 
0.0002165480781989859 
0.00023840657020117 
-0.0001511598865266093 
-6.397954124286486e-05 
-0.0001340971194056448 
-0.0001719642468379314 
5.20228107572192e-05 
-3.540083716313671e-05 
0.0004504509703341592 
-0.0007949045620627136 
0.0002570586263416812 
0.0002397848713569286 
0.000314315778672083 
0.0003604469245857058 
2.606272092111935e-05 
0.0001680174275590024 
0.0001742623278611522 
-5.655976231053781e-05 
0.0001200513673875901 
-0.0001045980425599373 
-6.175185669282947e-05 
-3.889501051347999e-05 
-6.351371545589975e-05 
-7.512868482545194e-06 
-0.0001399336768912815 
-5.054493690655831e-05 
-4.770586701503608e-05 
-3.610902293678211e-06 
2.007201195258767e-05 
0.0001348806604745159 
-8.872817295602335e-05 
1.347124549907978e-05 
7.239359289528858e-05 
-0.000118164091627459 
0.0001861324808372752 
-7.421959373480918e-06 
2.211215699726687e-05 
8.945116970119605e-06 
0.0001400896972070304 
-2.43538328408472e-05 
-0.000104227184707754 
0.0002122963307436345 
0.0001162126194819684 
-0.0001057820612941904 
-3.57707475969609e-05 
-1.772686364830201e-05 
4.618928577023793e-05 
-7.100256104883138e-06 
9.144834177433722e-05 
7.361311561427976e-05 
0.0004392145698190734 
-0.0001412026055432719 
-0.0001277297901869861 
-0.000533942853724912 
-9.166928326048692e-05 
0.0002501452964050762 
-0.0001715174902762426 
0.0001544957691135449 
0.0003456392474587239 
-0.0001081414286003212 
-0.0002258747053552214 
0.0004585404622149309 
0.0001261341657024331 
1.752123103026113e-05 
0.0002144429112147266 
0.0002068812752939049 
0.0002707932523249842 
-0.000469974884463847 
-0.0001872632352449007 
0.000171719308476226 
0.0002151367674368615 
-0.0003765925468343403 
-6.195366693732992e-05 
0.0001712882818358932 
0.0001449095406127305 
-9.204033583479646e-05 
0.0003021279830597983 
-2.603576942399322e-05 
-6.758858357609446e-06 
-7.494114897558726e-05 
-4.929496984703747e-05 
0.0002353200238848064 
6.45497876030948e-05 
-5.056167631929737e-05 
-3.634494613638551e-05 
0.0001044159096122767 
-0.0006619297788081845 
-0.0002436558604527542 
0.0003858145564837825 
7.001123914423378e-05 
5.715891946076705e-05 
0.0002964765809510873 
0.000163847112111693 
5.466087852803246e-05 
-5.734754469105598e-05 
-0.0001500732687348912 
0.0003045718713508872 
-6.865113936098361e-05 
2.960440694365238e-05 
-5.695031951723635e-05 
6.184412802578808e-05 
-0.0001639802817599881 
0.0001079621232458882 
-9.518124553363373e-05 
0.0001210777145233805 
5.319189340110732e-05 
7.16320108574304e-05 
-6.658808138683151e-06 
7.586359812639092e-05 
-4.179236704033414e-05 
2.339186068892834e-05 
0.000320225616488825 
0.0002848790390015653 
-0.0006335156064695946 
0.0002031979000512503 
4.143215853554645e-05 
-4.335515005357481e-05 
6.513679461009601e-05 
9.469114174135764e-05 
-1.8892919449441e-05 
0.0001430952643409849 
2.455299542100762e-05 
-7.064154200625255e-05 
-6.44096186673329e-06 
-4.404215480842367e-05 
0.0001980102391472911 
-0.0001245491870473674 
1.817760486628101e-05 
-0.0002249685697785558 
0.0001226765916351248 
7.233763669448802e-05 
0.0001272709465247955 
0.0001255411293409747 
0.0001462609835945346 
-7.266880628827335e-05 
-3.304258818183676e-05 
7.363394793172256e-05 
0.000126284402320536 
-5.611275801264433e-05 
8.171463326102796e-05 
7.39838215986078e-05 
-9.629159255622521e-05 
-2.544405323693529e-05 
-2.165161430831271e-05 
0.0002584711024502778 
4.499132309271266e-05 
-0.0002719538635215661 
0.0003145422988314177 
0.0001182561228675968 
-6.862180866979665e-05 
-3.911252387234238e-05 
-3.966413756134674e-05 
4.692775236474401e-05 
0.0001576213300904456 
5.827184310997148e-05 
-7.332465884412275e-05 
0.0001543145599171663 
-0.0001176957363255906 
-7.833757584207063e-05 
2.3602006457991e-05 
0.0001637025771788154 
-2.17775060998268e-05 
0.0002098479479985807 
7.342047627330069e-05 
-0.0002898224407284262 
-0.0004241067934793522 
-0.000296590307324924 
-6.922458343653567e-05 
6.475718203046681e-05 
0.0001027406442537516 
-6.339975724695915e-06 
0.0001786822153943894 
8.784251636442687e-06 
-1.654562661732441e-05 
-9.792372812677662e-05 
5.656918135755383e-05 
-7.850149169738311e-05 
-6.069405643013933e-05 
8.977480561939601e-05 
-4.239437058920711e-05 
3.008940837666688e-05 
2.746842825296978e-05 
0.0002963102986973898 
5.826380368340738e-06 
-7.502911135765571e-05 
0.0001469232155462193 
0.0003467156430063087 
0.0004480213012501438 
-5.375956017037114e-05 
0.0001743749485359565 
-7.902457561093201e-05 
8.502857820822895e-05 
6.017145251317829e-05 
6.825070396430099e-05 
7.778502781631862e-06 
-6.32973008958674e-05 
-1.451019504204026e-05 
8.017305302851693e-05 
0.0001108198627136745 
-0.00116900738267242 
0.0002735500644455776 
0.0002194902034875993 
-3.469205153716706e-05 
-1.150116812984466e-05 
-3.963021258283402e-05 
0.0004305029857121642 
0.0005009350828366154 
-0.0003560845295176247 
0.000296099889586182 
0.0002012539526383092 
9.051817282224312e-05 
0.0001303811966510924 
-0.000239545862134454 
7.063700057232087e-05 
-0.0001234382076176976 
-0.0001712661018189878 
8.975938024457521e-06 
-0.0002327562279668096 
0.0002166930909124904 
6.297803173895392e-05 
4.519338937251691e-05 
-1.88015336644327e-05 
7.804235816844709e-05 
0.000140067802043763 
4.981414813169462e-05 
6.184358791938048e-05 
0.0001297346693065303 
-0.0002210787390207188 
0.000240423001840595 
0.0003485057887434491 
9.035769560680178e-05 
-0.000110642488282322 
-0.0003419623517832807 
-0.0002859942739200639 
0.0002269820757973786 
3.788730463295479e-05 
-2.771344945009206e-05 
0.0002243971233581293 
-4.903259026722044e-05 
1.405783807140316e-05 
1.420189494743278e-05 
-1.77545713962267e-05 
0.0003473543870035446 
0.0004836538140265451 
4.722789389441262e-05 
6.104230009101534e-06 
3.073476248474527e-05 
0.0002565944030563603 
-0.0001579341918588336 
-0.0001354998144169839 
-5.72892611689871e-07 
-1.940108078212066e-05 
6.835208903900571e-05 
-5.269887608832466e-05 
-1.582376975010331e-05 
-3.944512725576735e-05 
-0.0003445605784670793 
-0.000107187755432238 
0.000119918875631436 
-0.0001561405983479609 
0.0003663596990977425 
3.828341659385441e-05 
-8.781666539289741e-05 
-0.0002556208521079354 
5.492785080273452e-05 
0.0001823507710555908 
-6.281904148072034e-05 
0.0001025972302774566 
-0.0001945675615053459 
7.197581800017575e-05 
7.482483993855884e-05 
-0.00028177137191476 
0.0002813985133936064 
0.0001171822820977709 
4.471649458663966e-05 
-0.0001252237422055833 
0.0001122988631915956 
1.067681574113395e-05 
-7.16904604778509e-07 
0.0001066171101192653 
0.0002221390306489706 
-2.59072252098556e-05 
0.0001748909047184411 
0.0001944030130895368 
-4.231735426450352e-05 
-8.074471110384371e-05 
0.0001158374026461845 
-0.0003243865667390348 
-5.885827160394911e-05 
0.0001927596580140443 
4.181377534290415e-05 
0.0001484096405624594 
7.297230260241756e-05 
-2.205279789343492e-05 
-5.59956604186021e-05 
0.0001916249841335941 
0.0002503559376225993 
0.000284125688785822 
-0.0004199098679882126 
0.000323113164210123 
-8.67690249133684e-05 
-0.000167336592022876 
-0.0003637822890832625 
5.950180762628382e-05 
7.584960326479554e-05 
-2.842079365718315e-05 
-1.453719992728432e-05 
-6.821014852231168e-05 
3.640049582525149e-05 
0.0001305842535671282 
-8.557632074709195e-05 
0.0003069347590710293 
0.0004135511281099442 
2.840515818150681e-06 
0.0001577436750154364 
-4.751147910227087e-05 
-7.264697698272859e-05 
0.0001185444554579649 
2.064554203680379e-05 
-4.011674436921722e-07 
-8.732295978228605e-05 
0.0001248104643220651 
-0.0002336032324820277 
-1.16848449248458e-05 
8.946034631462063e-05 
-0.0001074480950202959 
0.00068722043107513 
0.0005470474934686859 
-0.0003385132993575702 
8.159479190578385e-05 
7.524392056497968e-05 
0.0001691750086653646 
-0.0001727652570335299 
-4.319393881692051e-05 
0.0002910377682187696 
-0.0001209121709366815 
-0.0001199884365922182 
-0.0007323567558097976 
0.000119662096776043 
0.0001188925902429715 
0.0001891707312893245 
0.0001382579771004571 
-0.0001467453638124583 
-0.0002036302976345327 
0.0003117734988911736 
-3.687036197801767e-05 
-2.95424333113253e-06 
0.0001683025630675615 
0.0003420780624097465 
-0.0006165805062424394 
8.477183752683589e-05 
1.083121573103337e-05 
1.898893805401795e-06 
-0.0001192391946332764 
0.0001434134083444487 
0.0001195338618541908 
-1.838276444890543e-05 
0.0001957724146540634 
-0.0001960294090288341 
-1.592346139977861e-05 
0.0003311798570272054 
5.213561903248116e-06 
7.786074697166764e-05 
0.0001931857635364409 
0.0004057168809006003 
7.739543393103841e-06 
-0.0001695183178630557 
2.247284736628129e-06 
-0.0001088331088753715 
6.969685701306736e-05 
3.438315715857615e-05 
-0.0002694347769625041 
-8.347866687502223e-05 
6.391497055413605e-05 
0.0002134080584287001 
-8.42871355490038e-05 
5.805571805255283e-06 
0.0001700786922406197 
0.0002536331017411807 
1.442067280195737e-05 
6.151427219528315e-05 
7.837831496895826e-05 
-0.0002077580660709662 
-0.0001336196784373417 
-3.077652671312933e-05 
-0.0001071680893950383 
3.121464066618666e-06 
6.606469684252902e-05 
-2.618318047966253e-05 
-2.712748068840383e-05 
0.0001498705035225142 
9.373710546169821e-05 
-0.0004590064803861412 
0.000228491881701654 
0.0004539440685689245 
-0.0008985121667237386 
-0.0003870050772619988 
0.0003496701400809534 
0.0002480157108835421 
1.106257352980397e-05 
-0.0001329452503357103 
0.0001745685266942601 
-1.067486120723641e-05 
0.0003489156328598361 
0.0001001918920308614 
-0.0004037923023300243 
0.0001656591722078922 
9.848297796658526e-05 
0.0001559714396527155 
0.0001434842063638444 
6.082666286123479e-06 
-0.0002110389275726275 
0.000251209809794473 
0.0001306163689812512 
-4.988870901468305e-05 
0.0002117494230191951 
2.472092104899824e-06 
0.0001133320319829627 
7.554239655129727e-05 
-6.187522691182302e-05 
-5.08786725227674e-05 
1.85048485727347e-05 
-0.0002973403571712047 
0.0003324239436907249 
0.0001516447929298788 
1.482854776212493e-05 
3.155506704043179e-05 
0.0006881318328162908 
-0.0001142890110709119 
-0.0002452738532471663 
6.785591439772589e-05 
0.0001822012076886855 
1.925031428220648e-05 
-6.246527559693021e-05 
6.848415885823155e-05 
7.89522292982347e-05 
3.884456623248044e-05 
-0.0001164251670946568 
0.0001811741426760122 
-7.661382292679762e-05 
1.009437975155512e-05 
-0.0001832660942283597 
6.474201683730649e-05 
0.0003053087856302303 
1.47339977298311e-05 
-3.361322661556891e-05 
9.803440070351973e-05 
0.0002720091952589592 
6.713432051860683e-06 
8.440364523642219e-05 
-1.082862046050592e-05 
0.000109761832377869 
-0.000879212358121079 
0.0001233282450818283 
0.0001929516017918138 
-6.735976911938327e-05 
3.532694151687884e-05 
2.811399742104695e-05 
0.0002019857298572848 
0.000370270377321418 
7.907206087686607e-05 
-3.013337112617691e-05 
0.0001106132347790299 
-1.058828637444991e-05 
-5.560475188000879e-05 
0.0002225073050383818 
-0.0006215117662504813 
0.0001077567141293273 
-0.0001903108353216339 
0.0002874120403884487 
-6.565083452064007e-05 
0.0002079744067676735 
0.000182507326517289 
0.0001001986684606366 
-0.0006192428053709819 
-0.0001121066570868029 
2.398055015339877e-05 
-6.646071471261464e-05 
5.765001514059791e-05 
-0.000229588140736582 
-0.0003386755002019692 
-4.201519960900795e-06 
-0.0001062344819224913 
0.000178429368478736 
0.0008279163161546015 
4.821040156026429e-05 
0.0002764833680864599 
-0.0004370461967747904 
-0.0002041438794180233 
-0.0009472795577177529 
-0.0001525998822218926 
-2.569876765310768e-05 
0.000197144854588152 
-1.288730135039227e-05 
3.001881393921588e-05 
0.0003377247224212912 
-0.0001519144083398152 
0.0001281425892401965 
1.451187370439609e-05 
0.0006378091368425669 
0.0003047148073250161 
-9.959882486822706e-05 
1.990093082003673e-05 
5.083011189843992e-05 
0.0002139805972790487 
-0.0001155306280101377 
2.815777967001361e-05 
-0.0001351049243333031 
-0.0001711839952897702 
0.0002842660043141456 
2.55015678007771e-05 
1.981947709071124e-05 
0.0005655568151053879 
1.854146332125956e-07 
0.0001615864808337492 
2.677604482505507e-05 
-9.800796071079167e-05 
0.0001573390191617722 
0.0001133271764623776 
-0.0002700331853674531 
0.0002571468390918682 
1.24846276524578e-05 
-8.459829652394427e-05 
0.0002726575720800344 
0.0001427434411595739 
0.0002104502735561188 
4.855799709934689e-05 
-0.0001753720338155205 
0.0001565187582144031 
-1.73768374122125e-05 
9.51869917288715e-05 
-0.0001055870396041767 
-0.0009130288601981978 
-8.706873752449516e-05 
0.0001297149616185125 
-0.0001358634933901255 
0.0003687155347994933 
0.0001498586243148403 
-4.943487952224324e-06 
4.160708144567799e-05 
-3.61962411097907e-05 
-7.049402894575727e-05 
4.98521013056042e-06 
-0.0001054049444814973 
0.0001284349639728564 
9.911151667484659e-05 
6.25994114442961e-05 
-0.0003506829477275859 
0.0007255355987352138 
1.176559987359787e-05 
2.266521874926729e-05 
-0.0005148296382607005 
-0.00020270511305559 
0.0001713239433267189 
0.000345508822301097 
0.0003931085151580822 
-0.0001072320539956406 
-8.767297350711651e-05 
-0.0001847873481294602 
-0.0004436482187184058 
6.062563290745647e-05 
0.0002214914905247681 
0.0005477711184421821 
4.574617249563147e-05 
3.05400445588049e-05 
-0.0001612675464170244 
0.0001554555272555051 
1.778331066974713e-05 
-6.354398740495248e-05 
9.831959927604469e-05 
-0.0002614999184828612 
0.00013028087211049 
2.250455114597383e-05 
7.845347842413421e-05 
0.0001048642996322616 
0.0001837165338095161 
-0.0002207617592412302 
0.000105254028734779 
0.0003318565245674971 
-2.951679298381057e-05 
1.875553152336884e-05 
0.0003316240680236735 
-0.0001222165056823029 
-0.0002992192363347278 
-0.00013470934776683 
-0.0003620287233036764 
0.0001216164002026091 
-8.006366918276073e-05 
-0.000469664430329878 
0.0003505384517086775 
0.000127621338071559 
-2.444886182206633e-05 
0.0004677091177063589 
4.645045970176697e-05 
0.000332277276677371 
-6.930945686826479e-05 
0.000358239501732934 
7.607917102547745e-05 
0.000218364799022727 
4.643547919037916e-05 
0.0002559265770961252 
-0.0002679576477648962 
0.0002742320292320142 
0.0002524000798665937 
-0.0002924803929259043 
5.807639637147713e-05 
-0.0001885553267062011 
2.243417117756289e-05 
-5.070096752214476e-05 
0.0001504222272582978 
-0.0001404783557227131 
3.034236661552216e-06 
-0.0001713233935046516 
-0.0001978936861847385 
-0.0001678815043710696 
0.0001296740801901428 
-0.0001184447780201807 
1.716143411588949e-05 
0.0001011449172500445 
0.0004338370936686742 
0.0001219148638216311 
-0.0004025645954161746 
0.0001136774980449587 
0.0001032543806385757 
-0.0001397407210649129 
-0.0001195616818833015 
9.016307062544745e-05 
-3.891870088509583e-06 
9.996598528855255e-05 
-8.684761845364264e-05 
-6.085742908004676e-05 
3.706526868149453e-05 
-0.0002551272516559519 
-0.0001272375714422624 
-0.0001508525149240895 
0.0004761499657468073 
0.0007225252439856015 
2.882157874392706e-05 
0.0001209487752936685 
0.0002829443600024441 
-0.0003410722673477821 
3.629259553493663e-05 
0.0001968126369595484 
1.866827210653333e-05 
-0.0001387230654760748 
8.845549045952985e-05 
-0.0002275121498707292 
-8.779145680614058e-06 
-0.0004070735033732178 
0.0002375481981439872 
5.938588381041795e-05 
0.0005300752506821072 
0.0006966629571955018 
-0.0004396687076901066 
-8.25640142064338e-05 
3.516146720608155e-05 
8.344888327737514e-05 
-4.600577130642741e-05 
8.86170467757353e-05 
7.148003530784325e-05 
0.0001309906431861606 
-0.0001560483041492484 
-0.0001374220996948252 
0.0001246128970659296 
-0.0001636945169072611 
-6.223058138534928e-05 
0.0001811157069345355 
0.0004279270794375295 
-3.05140505561864e-05 
-3.165309283502218e-05 
-0.0001658134163565955 
-0.0001384906833378985 
5.173195970296966e-05 
0.0001925519051181735 
7.613150128902896e-05 
0.0002133714704293889 
-0.0003714728733822447 
0.0001985000548160433 
-0.0007643699941494647 
2.49638854424757e-05 
4.376696868808484e-05 
-0.0001357912154513977 
0.000202588247324348 
-1.85394870384586e-05 
-0.0003352574244838152 
0.0001215563484116547 
-3.469360227491831e-05 
8.187286660767023e-05 
0.0003017642957961164 
0.000406277483593455 
-0.0002235632161022621 
0.0001822473773404423 
2.138008017941222e-05 
-9.169113426523756e-05 
-2.29735024980222e-05 
0.0005042235331963934 
0.0002547290335525481 
-5.707688359805652e-05 
-1.406452702629799e-05 
-0.0001437129577381332 
4.174793059650673e-05 
0.0001077179842262412 
-0.0001728811438541765 
0.0001747713291796534 
-0.0003535411409333097 
2.756551951224297e-05 
0.0002946169788296978 
0.0001735999654190976 
2.459181199160176e-05 
-6.234906020743246e-05 
4.429497059789789e-05 
-0.0001153492317773042 
0.0002022818502265586 
0.0003070297333544312 
8.97216894976317e-05 
-0.0002803042243588287 
-0.000455589378542097 
-9.148748919663689e-05 
0.0001211980470444941 
-0.0004320057522046418 
0.0001661827471641665 
2.813116730650946e-06 
0.0008744554023784174 
-6.665489215091929e-05 
-0.0001570978407481992 
-0.0001521745093167186 
-0.0001714440917958311 
0.0001682612907926285 
-0.0001008286641083086 
-0.0001591955164323878 
-0.0002262504523382288 
0.000120971221715744 
-1.816738236201663e-05 
0.0002561302423276621 
0.0001530372181804935 
0.0001080305847068753 
0.0001567396956916081 
0.0003489365331978186 
0.0002714317248393832 
1.815650278663084e-06 
-8.410776789543074e-05 
-2.223300798361319e-05 
0.0002027991563479718 
0.0001349951256001114 
-0.0005759836334177806 
0.0001140502872104953 
0.0002847089987015997 
-0.0001793849932480237 
0.0001758437794995941 
0.0001681827157225307 
-2.820025722777123e-05 
0.0001592942210308731 
0.000230808125274747 
6.920964694825507e-05 
-3.630166963986761e-05 
4.790822409957622e-05 
3.422606717190323e-05 
-0.0005772106876562351 
0.000208497318448143 
0.0002175840169281089 
-2.512711232273712e-05 
-1.028568192548956e-05 
-0.0005299763085388915 
-3.28678683308654e-05 
0.0003281614507525133 
0.0001894854556349481 
0.000135266426996445 
1.7440140433546e-05 
-0.0001191531411660593 
-0.000248348335181872 
0.0001248650005064015 
0.000267643618005537 
9.442838661604419e-05 
0.000157282375236882 
6.422004064843014e-05 
0.000115933105353305 
0.0001020026174398936 
-0.000145403868150522 
-0.0002624570941518839 
-0.0006430168134669939 
-8.450371757307193e-05 
-0.0001728787673322795 
-7.80055461374071e-05 
0.000220950051221616 
1.833481246830914e-05 
0.0004591999151911065 
-0.0002611254041940997 
0.0001578411141155777 
3.875416608078044e-05 
8.29201945948333e-05 
-5.772027251317438e-05 
-0.0001202069941919905 
0.0001448064785655303 
0.000291986568213052 
-2.948881986220154e-05 
0.0002864874434173527 
0.0008878073416596223 
-2.740606329061762e-05 
-8.045056726487244e-05 
-1.611335427176702e-05 
9.232970631425038e-05 
0.0001498593417277507 
0.0001401956327562002 
-0.00054593775733416 
-6.587039997930779e-05 
8.443522942719863e-05 
7.367311181136539e-05 
0.000150419330591743 
0.0003898476457444913 
-0.0002003611450220245 
-5.789408929546692e-05 
-0.0001440356922557989 
8.831372322068055e-05 
0.0002771578558588028 
-0.0002931463111512613 
0.0001179546413311935 
-0.0002213583772364908 
0.000228347398373576 
-7.642805761889954e-05 
0.0005814535034249813 
0.0001081934291612777 
-0.0001419685162235144 
5.968541018692889e-05 
0.0002643415726787437 
-3.353831372033597e-06 
0.0003593589130750927 
0.0001334130059823525 
0.0001414317423205703 
5.159944288864644e-06 
-0.0006376120602075896 
-0.000417870069424867 
7.410860672464182e-05 
1.855171148624279e-05 
-0.0002382843834464077 
5.449708476697376e-05 
6.540084257396086e-05 
-2.310670448519551e-05 
0.0001230018824522985 
0.0003847293701763026 
0.0002449643666604254 
0.0002215489285676767 
0.0001247798564305522 
-0.0001608277755541875 
7.129063845560048e-05 
0.0001769173562867984 
-0.0005252675137275867 
-4.470831663839246e-05 
-1.199070436562515e-05 
5.03764946353055e-05 
-0.0003138326480753909 
-6.581665898110325e-05 
0.000244423017819625 
-0.0001377079824163895 
2.841299364076835e-07 
9.832211349969666e-06 
6.950404627425379e-06 
1.967813842204102e-05 
-0.0001849495621568843 
5.382756784819883e-05 
-0.0003452811551137301 
0.0001959183775104908 
0.0001192282659016096 
0.0001570966406244313 
2.297172632161239e-05 
0.0002186491979388341 
-0.0002592635670972136 
0.0002163531840602918 
0.0001847967285952594 
2.235286479548082e-05 
0.0002480627956704221 
0.0001836983026279852 
0.0002406465141714052 
-2.731242118799907e-05 
-0.0001280810059344517 
0.0002334940531354253 
-3.113735231348487e-05 
-0.0003617997486233502 
0.0001471426036117417 
-2.678651111264258e-05 
-9.616474726429558e-05 
5.830074224098746e-05 
-0.0002449746680527774 
0.0003745092933609536 
0.0003506454297621555 
-4.224110331450238e-05 
0.0003336686812246696 
-0.0006077884582292945 
0.0001885957654712572 
-4.344090991164351e-05 
9.593691611537004e-05 
0.0001017529562812546 
-1.157741715125535e-05 
0.0001840427075368334 
-0.0002900967786772283 
-4.420858778056685e-05 
7.79528230708374e-05 
-5.696416367500846e-05 
-6.655876217045524e-05 
0.0001345649325251382 
3.993006762781572e-05 
-9.348648374516676e-05 
0.0001611375956857139 
8.893664043261301e-05 
-2.717110301329103e-05 
-7.065237103790816e-05 
9.938553246202139e-05 
-0.0002400634296723763 
3.733386255848589e-05 
-1.465698117796047e-05 
-5.761257059571665e-05 
5.046208826970955e-05 
0.0001673509929950412 
-0.0003264470416257531 
0.0001858824889149455 
0.0005390799584300957 
-0.0001022504509557069 
-0.0005739369667595772 
0.0002133670941649209 
-0.0001721696632735152 
-3.962585059656644e-05 
-0.0002249212486321243 
5.155967872216809e-05 
0.0003047239261546462 
0.0002342412968724694 
3.908575565024468e-05 
9.583243627612727e-05 
0.0001061694087299831 
6.557262694580402e-05 
-3.596825026609769e-05 
-0.0001955892798610594 
0.0002989134037207654 
-0.0001012016672114469 
0.0002635575529834808 
-0.0001236700372455324 
6.733763168521116e-05 
0.0001170019504238018 
-0.0001472491815895678 
-3.859022792488945e-05 
-0.0001336374261707244 
0.0004420217278547701 
-5.505417246278733e-05 
0.0003132796960324071 
-8.193792177342664e-05 
-0.0001103455790554085 
1.89675530160667e-05 
0.0004776914275491563 
6.507401121098919e-05 
0.0001067408317535952 
4.081482569756422e-05 
-3.500230629018254e-05 
-0.0001776244857794536 
-4.187676324740114e-05 
-0.0001345006663824756 
-0.0001084770736585289 
-8.915310658840105e-05 
0.0001397007488298763 
-0.0001380539349581652 
-1.557216286931895e-07 
3.663884930139675e-06 
-7.530722970292307e-05 
-0.0001313792327002992 
-0.0002332047657570188 
0.0004784347653075775 
7.856233082063248e-05 
0.0003262539130942325 
7.735123338828615e-05 
-0.000314967779932871 
-0.0003475475002840741 
-1.813608748962553e-05 
1.721806164926578e-05 
-8.240896642645843e-05 
-2.656946423906276e-05 
-1.069747671639751e-05 
0.0002226973376170314 
8.589982343310782e-05 
0.0004582867895114803 
0.0001472573183318647 
0.0002291590504744279 
-6.266036294867567e-05 
9.533954510612848e-05 
-7.115095758844114e-05 
-5.303223769366845e-06 
-0.0002238360174472127 
-0.0001074922727277368 
1.655038948763108e-06 
-2.275137668675261e-06 
0.0003023706913912285 
0.000221273161339992 
0.0001248699836930792 
0.0001038431070761465 
2.84464633771109e-06 
6.033688947868841e-05 
4.832437254828074e-05 
3.910931819711095e-05 
-1.207959059701823e-05 
-0.0001757622111560973 
4.337614575925565e-05 
-2.158093275200181e-05 
-3.73953692658228e-05 
0.0001040146315727259 
-9.416361820846632e-05 
0.0002302191105868799 
0.0002178745244225993 
-0.0001195917688785615 
0.0002703368243801011 
0.0001404729004435341 
-8.520304966671547e-05 
0.0002020711396687348 
-0.0002840294080077486 
-0.0003481045994845419 
-0.0001630275536351529 
0.0001264204808521983 
8.134852115108531e-05 
8.344489725971666e-06 
0.0002188212095716607 
8.301543435648939e-05 
-2.73398789702746e-05 
-0.0001368040264934973 
0.0006115195567695927 
-5.51821796099966e-05 
5.879930565950671e-05 
-5.009043119613508e-05 
4.272635821436213e-05 
0.000183281662353454 
-5.273219101204926e-05 
-3.734332377050646e-05 
-0.0002921292283426512 
8.93502049129088e-05 
-4.357333005754986e-05 
3.376880203768784e-05 
7.985088155920467e-05 
0.0003424028256489713 
-0.0002096167185676916 
-1.514549729205982e-05 
-0.000264957824227832 
0.0003444379451656224 
0.0002869264769282968 
4.987223716822408e-05 
-7.725359873880612e-05 
-8.926456996994952e-05 
4.544533992077282e-06 
9.635494849970801e-05 
-0.0001562348782197421 
-0.0001193372790408429 
-0.0001297892061349432 
-0.0005817197182474809 
-0.0002243089561052364 
-7.550974822444742e-05 
-6.347311815822821e-07 
0.0001963270624595216 
0.0002011363016336806 
-3.111521032049694e-05 
1.35957582360813e-06 
6.810804880226756e-05 
0.0001515209122015902 
0.0002349532141182374 
-0.0001126780185226323 
0.000243292632088565 
0.0003847972893418673 
0.000181759076131536 
6.478656483209388e-06 
2.993385984679334e-05 
2.927209461380999e-05 
-8.069004134383473e-05 
-6.207053784040089e-05 
0.0001733269864083105 
7.708543303068593e-05 
0.0001254636300189186 
-0.0001509766263742426 
-0.0001108382345139621 
9.108683782375424e-05 
-3.555311567584429e-05 
-0.0002569688481185614 
4.582929795884886e-05 
0.0001219939415205206 
1.140721972461292e-05 
0.0005270650755343521 
-1.023629341922033e-05 
3.765695351121889e-05 
0.0005518042785567463 
-4.327363090350513e-05 
-8.786629765995308e-05 
0.0003170138926292607 
-0.0003183596194194434 
-0.000180025037227949 
-0.0001672250466740267 
0.0003756680935610823 
2.011365072930426e-06 
-0.0001933006259412273 
-4.4437403656386e-05 
-8.66358204800918e-05 
0.000386957658522438 
-0.0002547939737954993 
9.218501400372103e-05 
-8.384461379110223e-05 
0.0001527292693111322 
-1.273543455142108e-05 
-0.0004840610132600733 
-4.011812957023232e-05 
-0.0003450530259554132 
-0.0001444624359005719 
0.0001648588969191069 
-0.0001612717855858952 
0.0004014141204995604 
1.382966668755248e-05 
0.0003146831865164132 
-0.000138402121924094 
0.0001040891681165116 
0.0003705100120990764 
2.299989826535697e-05 
0.0001615980159625358 
0.0002245720987163835 
0.000130678583201181 
0.000173823839043331 
4.077210333912333e-05 
-0.0003892746020467464 
9.766283183338856e-05 
0.0001439878958158575 
0.0001462219885122086 
0.0001521588710999122 
-0.0001497947046226754 
-1.440703970050933e-05 
5.592572075407608e-05 
-9.071314284640628e-05 
-9.023766565115545e-05 
0.0001242908869897203 
9.829227298577809e-06 
-0.0002035866620887982 
1.230482254211313e-05 
1.485194264009595e-06 
0.0001532425445598926 
-0.0001151686536734163 
3.074437817811746e-06 
-0.0001116827634134638 
-0.000111342656324449 
-0.0004571573759771516 
1.473733702403191e-05 
-4.841127401181283e-05 
3.206784706085936e-05 
-5.195122610579865e-05 
3.181126789013358e-06 
0.0004888428406297068 
0.000272385399444934 
8.658637791768632e-05 
0.000105242975466171 
-0.0003466078793687054 
-4.583646321510814e-05 
-6.166950966976898e-05 
0.0001179715559607671 
-0.0002463760663991697 
0.0001338860344091182 
0.000189627728745466 
0.0002161196671067641 
-5.248053217236534e-05 
0.0008130496946162426 
0.000162895013924724 
-0.0002682241848574647 
0.0001893847861978737 
0.000202740321207242 
1.766686048092697e-05 
-1.269540173686107e-05 
0.0001070023233149264 
9.205642047956764e-05 
-0.0001759424688281015 
-0.000178625599404017 
0.0003663857433066224 
-2.257300792812579e-06 
9.666096860076092e-05 
2.96961378937044e-05 
-7.605922572860388e-05 
-0.0004094140825893903 
-0.0003125184318434533 
8.656133815628782e-05 
0.0005019315648238654 
0.0001978679159010507 
0.0001559579844731626 
2.916148112220857e-05 
3.23889158809472e-05 
-0.0008417624847284291 
4.014569377336788e-05 
-0.0003313456953347479 
-9.199911038621471e-05 
0.000444061864002279 
3.728367012462106e-05 
0.0001240669330986847 
