solver_type L2R_L2LOSS_SVR_DUAL
nr_class 2
nr_feature 17408
bias -1
w
0.000141375123673142 
6.155836582315985e-05 
0.0002697338375504652 
0.0001562205021114976 
-0.0001931438138787233 
-0.0002739915833964127 
-0.0004369087726631479 
-0.0001084924149210002 
1.787192278913131e-05 
-0.0003355980904718544 
6.582628432893049e-05 
0.0004423912258319606 
3.796089073494627e-05 
-7.273576171835078e-05 
0.0001885944791043868 
0.0001836310588470422 
0.0001339833093130964 
7.323700669124802e-05 
2.976411841208586e-05 
-2.074149795956814e-05 
-0.0002094075564709695 
0.0002107147016032636 
-0.0009770146903133456 
0.0004972225441003445 
-1.381498800243409e-05 
0.0001396006999609888 
9.907449054788234e-05 
-0.0002900320409915487 
2.688697021413031e-05 
0.0002519332736931573 
-2.280927162830954e-05 
0.0003670609988916745 
0.0003441995428480174 
-0.0007620794114696187 
-0.0006484319677108608 
0.0001294876205130297 
-0.0001362202480691731 
0.0001170457527160095 
0.0003075249620146201 
0.0001433159703454809 
-0.0001070383071786847 
-0.0001072948909867512 
-5.844064979771928e-05 
3.271254161182495e-05 
0.0001221974248616257 
0.0003847983747470628 
0.0001042584645327665 
-0.0002660553132017429 
-6.170072133075765e-05 
0.0001254379086781611 
0.0001456611385011537 
-6.166483741482589e-05 
-3.585376034343168e-05 
-0.0002798592412473842 
0.0002481071955057878 
-6.963707191601577e-05 
-1.005849793992453e-05 
0.0008855373691786382 
-0.000293112868162015 
-9.497202914119409e-05 
6.995465381733828e-05 
0.0001340224434983612 
0.0001071061378495552 
3.100363649753682e-05 
-9.765844704296035e-05 
-0.0002310837905413517 
-0.0001904460497356352 
-0.0003946383602576077 
0.000238265069575393 
0.0002577637396041383 
0.0005641676132485407 
-0.000343494212386543 
0.0003868819038374111 
-8.082858188203165e-05 
0.0005423504273026772 
-9.832662152139696e-05 
0.0001099715874846781 
-0.0003654909718894857 
-0.0001739298366293274 
0.0003093674254582343 
-0.0002227318094608586 
-1.749551656230646e-05 
0.0001217551227379602 
-0.0001090396578155548 
-0.0001905374421745464 
-0.0001209335175602891 
-2.387130855357579e-05 
0.0001054034254973692 
0.0001061941180961247 
0.0005747817496370379 
-0.0004922588812438265 
0.0001924004721556704 
0.0001482948938311944 
6.352742874048658e-05 
-3.215405271048527e-05 
-9.625459743225324e-05 
7.464569537054526e-06 
0.0001975795213855294 
0.0001228377239864045 
-0.0005143226386629641 
-0.0001738252815311326 
-0.0001583083071225002 
0.0002177838054658291 
0.0001330996449221187 
0.0007624763217265532 
4.016606225896541e-06 
0.0001898147859600032 
0.0002621863956865466 
-0.0001681579921132792 
-3.137330209699092e-05 
0.0001302890038291507 
1.661381701744385e-05 
0.0002049741605329688 
-0.0001333391085011991 
5.760317382239175e-05 
-0.0002494729244852913 
-0.0001599501727199518 
-0.000301359552437921 
-0.0002280002126064777 
-1.951245402308291e-05 
0.0003585219546913314 
0.0002745030140280441 
-0.0001840843231722926 
0.000328099867748293 
0.0007387145421767291 
-0.0009780794957819402 
-0.0002248168309523328 
-4.202499072805528e-05 
-1.582799665624977e-05 
-0.0001237812498834304 
-2.798941780525935e-05 
0.0002520277231788167 
0.0001651923567657795 
-0.0002649907540372485 
-3.886737076965462e-05 
-0.0002513632066356865 
0.0003523061553528339 
0.0001086726106434598 
-0.0009445584731072671 
8.312333673458856e-05 
0.0001771210269366544 
0.000373424165184403 
0.0003365213868237017 
6.340079872479871e-05 
-5.41187162607055e-05 
-7.042002144996761e-07 
0.0001182967891300635 
-0.0001339645786789466 
-0.0001949383689516852 
4.566553438279938e-05 
0.0002423006465112466 
0.0002569130871227465 
-0.0002398106112840198 
-0.0001777653474610452 
0.0002791414979415661 
0.0001442385987441162 
-5.218939749188671e-05 
0.0002553341381257634 
-0.0001549531087228688 
-0.0001379057325360099 
-0.0003684448485466672 
0.0001149745185808927 
-0.0003917707964757383 
-0.0001797832310359653 
-8.17634340542055e-05 
-6.651845872056518e-05 
-0.0001815980396645199 
0.0006159129831356156 
-0.0001641770068931394 
-0.0002319763559035803 
-0.0001026354726866663 
0.0002680025116646872 
6.897867906200322e-05 
-3.647995424122042e-06 
0.0005125795645046122 
-0.0002835241643841392 
-0.0002575286122188131 
0.000141138489324824 
0.0001055375189741102 
-0.0002317412133825075 
-2.034968420998212e-05 
0.0001968938236326396 
7.170668349253886e-05 
0.0002956876280154277 
0.0001454143648229192 
0.000276707310299397 
0.0002663483753527278 
-0.0001139824216117666 
-1.745903422793166e-05 
1.994000320560554e-06 
-0.000129716502136591 
0.0001846921422008221 
0.0001842508294713643 
-0.0003516118899301881 
-0.0003170921380973619 
-0.0003535329251480916 
-0.0001102471708946951 
1.340927153548298e-05 
-0.0001945072274668892 
9.044507298046072e-05 
-3.517481408602746e-05 
0.0003643187286146941 
-7.116055269966283e-06 
7.753912355260652e-05 
0.0002565430717984647 
-0.0001319555857591674 
-0.0005925942822347641 
0.0005575037159213636 
0.0003217377704560008 
1.367901090823472e-05 
-0.0001706815791927145 
7.102838462223989e-05 
-0.0001130943389574904 
0.000360927175391565 
-0.000241508918705705 
-0.0001382221040122139 
-1.063271687983189e-05 
0.0001415151058304512 
0.000138480465521587 
4.0523002587378e-05 
3.255809799885824e-05 
0.0001516629669243466 
0.0003282832882200655 
6.35179861068174e-05 
-7.366722167416223e-06 
-0.0003249182878588176 
0.0004928652839568542 
-1.755832970234832e-05 
0.0003405700035943042 
3.000054908120128e-05 
-0.0002177180946963351 
-2.677735475042222e-05 
-0.0002684348142023029 
3.734802604796245e-05 
3.314138341217024e-05 
0.0001891088115002295 
0.0003841312387945424 
3.36956717101098e-05 
-4.5593694249929e-05 
0.000559790191263152 
-0.0003501149285789317 
-0.0001048693968064933 
-0.0005169775363242872 
0.0003443910451842532 
-2.693506657392774e-05 
7.164685446430552e-05 
0.0002404954997784637 
0.0001124269111146036 
-0.0001046720654315241 
-5.124904823422545e-05 
9.451593044695432e-05 
6.60155709734727e-05 
-0.0001982377835435649 
-1.032068728793229e-05 
-0.0001190582331367946 
-0.0001993896059704568 
-2.895769705120458e-05 
-0.0002801306069007304 
-0.0003231402439954254 
-0.0003028181893308033 
0.0008060741647378439 
-0.0005346378871271972 
-0.0002896262913844953 
0.0003730677638421469 
4.509270250450771e-05 
-0.0003062810919861179 
0.0001915419466330834 
5.510384391265261e-05 
1.773550215398752e-05 
3.658917706663605e-05 
-8.959811403352517e-05 
-0.0001518921524968293 
0.0001153675502737175 
0.0001584224300120576 
6.52928147195023e-05 
0.0004014254312266427 
-9.404320797950021e-05 
-0.0001486067233464598 
3.882188149647153e-05 
-0.0001893070360123874 
-0.0002213074244122845 
-1.302495868421746e-05 
-1.427912529443861e-05 
0.0001017476737724512 
0.0002688788231374946 
-0.000241636239988609 
0.0001020772864258837 
0.0008919993199160243 
-5.874484279574031e-05 
1.837593497629774e-05 
-0.0001831159262521296 
-0.0003966739694788693 
0.0004747398936489511 
-9.385615686466568e-05 
0.0002344404453595659 
5.394841856961213e-05 
0.0004684789491162945 
1.324179367205634e-05 
-0.0001733578813976895 
-3.380808932838286e-05 
2.880884930313716e-05 
0.000151286745027956 
0.0002977926550342202 
0.0001210129679618012 
-0.0004042935933205558 
5.604199402276751e-05 
-8.227607026437784e-05 
-6.432159217346181e-05 
-0.0002641685137955375 
-8.60725215356412e-05 
-0.0005757065061405557 
-8.529556264668594e-05 
7.294151878622926e-05 
0.0003350158311152433 
-0.000116167261783105 
1.130317311982606e-05 
9.878161144650988e-05 
0.0003482903573522364 
0.0001558883599032364 
0.0001174203111683258 
0.0001330296315290821 
-8.491188274019488e-05 
0.0003256529834036227 
-0.0003214146469206411 
-0.0001013659400186841 
-1.158998789713838e-05 
0.000151387652540301 
-4.143645559013106e-07 
0.0002933986533510228 
-0.0001800833500254157 
7.791408367424933e-05 
0.000141094609593995 
-8.134827408378621e-05 
0.0002557319833903306 
-0.0002823377321043547 
0.000272395538387003 
-0.0006417724660369829 
0.0003017339314696726 
-2.305724579120661e-05 
0.0003656912124542203 
-0.0001559886318580594 
-3.723656137219398e-05 
-0.0001693851836857017 
0.0005174441180511334 
8.100064229754121e-05 
0.0002316474759528952 
-0.0002104269634833619 
0.0001052192337129219 
-7.409192609645794e-05 
-0.0002453473721374726 
-0.0003686659571569237 
0.0001760480579633677 
0.0001410218115618708 
-5.24510256293205e-05 
0.0002723607895065958 
0.0001838398975164614 
-0.0001184850225336743 
-0.0002726772302452942 
7.589043732336722e-05 
-0.0006090569523039285 
-0.0001201853131975418 
-2.284707004231083e-05 
0.0002212717513839619 
-0.0003002602567556191 
-0.0001500379735162346 
0.0001048946791847676 
0.0001842575085073284 
0.0001243982302080549 
8.22901718045629e-05 
0.0002715730564261498 
-6.591155561974491e-05 
-0.0002114654902539469 
-0.0002704534254347565 
0.0002671647621977848 
1.005042807626506e-06 
-0.0001272680334345401 
0.0005439714185563472 
-0.000112346997146834 
0.0006422981031552947 
0.0002131877042039833 
-9.018539779324595e-05 
-0.0001020638151432313 
-4.597858510561553e-05 
-0.0002177998983814394 
0.0001881206354130774 
-0.0004520680730119874 
0.0003054972908139912 
0.0003714441571830196 
-0.0001283654951190448 
0.0001093768788969364 
5.954586377578e-06 
5.498861220107375e-05 
-8.264125881889248e-05 
-0.0001277188412274592 
-5.257848376473267e-05 
-0.0001636001808017336 
1.058099497986936e-05 
-0.0001279588989563063 
0.0001899604293755984 
2.524022319021761e-05 
0.0001438380305252271 
-0.0001043302407677659 
-0.0004733397775746275 
-0.000127607140513141 
-5.014767086341225e-05 
0.0005478030211828427 
4.21724285904338e-05 
-0.0002791683225895181 
-0.0002196167712623166 
0.0003373327748517765 
7.923696419552325e-05 
0.0002235215747928857 
0.000117306777464039 
-0.000159734357697675 
2.093644490824972e-05 
0.0002155150098331516 
-0.0002418668095636786 
-0.0003652710765670982 
-0.0003233271980097 
-6.045452751739686e-07 
0.0004947424610181513 
1.896062669039657e-05 
0.0001293998868099399 
0.000383219517832857 
3.75962353097373e-05 
0.0001074962808055505 
0.0001168201211746136 
-0.000181834652583348 
-0.0003977910391505266 
6.141301695604397e-05 
0.0005503868298955101 
-0.0001615313082092282 
-0.0002771303303644741 
-0.0003360232610778793 
0.0006517245108062413 
-0.0003316908855790928 
-0.0001157742312429123 
-5.220007958317032e-05 
-0.0005444321322712816 
0.0004013831258270978 
-0.0004778837515877403 
0.000314253975739611 
0.0003113690201496428 
0.0001934740720432278 
-5.979472829219638e-05 
0.0003874895662881412 
6.161134660116094e-05 
8.576675721645578e-05 
-0.0009797741090872771 
-3.876524737044138e-06 
-0.0001355931986436714 
3.438864591373725e-05 
-0.0005032905047008758 
-0.0009975196724907804 
0.0005176918411171616 
0.0003553825921249431 
0.0001020665426414695 
5.530638630522503e-05 
8.015056329728853e-05 
0.0005630072706287824 
4.062680965613576e-05 
0.0004098528190491641 
-6.004820153935687e-05 
-4.749911175123424e-05 
4.295024639688854e-05 
8.446159285383455e-05 
0.0001191345451071781 
-0.0001054687425819644 
0.0002204349099309687 
0.0001273244562321661 
-0.0003259760361164445 
0.000459570726586408 
0.0001140391231489305 
-6.210994038570934e-05 
-3.14559174536955e-05 
0.0003337520214229232 
-0.0001354426909777889 
0.000363373351931081 
-7.789259543238965e-05 
-0.0001176158766391835 
-0.0002767415125760192 
0.0002156240361451328 
0.0003715144602571855 
0.0003819824061190999 
2.147023409328565e-05 
-0.0004804022653758019 
9.640218949134344e-05 
-0.0003877633871858698 
0.0002284182868042498 
0.0002761654344222779 
6.180554985360302e-05 
7.332149195147479e-05 
-1.6789419465505e-05 
-0.0002103321299905587 
0.0005122333673009292 
7.218182877584922e-05 
4.193406102206728e-06 
-7.893559010017944e-05 
0.0002440350091524717 
-0.0002365469662451129 
-0.0001322466738607233 
0.0001296561382064762 
-0.0001915502345795043 
0.0003804762090869159 
5.50000980327913e-05 
-4.065350787444423e-05 
-0.0002715297383316242 
-0.0001246871513615638 
0.000207991326222307 
-9.95534201085811e-05 
-1.109188361536646e-05 
-0.0003336962695398736 
-0.0001543066417243095 
0.0001721690030848413 
0.0003379620202155754 
-0.0004558635732622633 
0.0001990754409061637 
-2.599803785390659e-05 
-0.000447353666416777 
-0.0002997025193760256 
0.000508722023480699 
3.213321660357642e-05 
-0.0001495419706773239 
0.0001289958658914668 
0.0002184452361469937 
0.0001752529138828861 
0.0002572527941271548 
0.000387704923878456 
-0.0007848714469627688 
-0.0001499647325955964 
0.0004904002156359789 
-3.106545295529211e-05 
-5.362675609526325e-05 
-9.425928474923412e-06 
0.0001224965690374818 
-5.544178981743187e-05 
5.214588305688527e-05 
8.652503159328913e-05 
0.0001163330527346803 
-5.113759680366188e-05 
-0.0001113386687262757 
6.047553330436385e-05 
-0.0001693488465022375 
4.284922647043743e-05 
-2.503719544910682e-05 
4.314234770101253e-05 
0.0001641910697746926 
-5.959220449902858e-05 
-0.0001775030965964059 
3.282991273255348e-05 
-2.607311180431478e-05 
-8.410449477918192e-06 
0.0002044339256646817 
8.586290462370683e-05 
2.921418963567614e-05 
0.00015402907001879 
0.0001479824625526483 
-0.0001125765571302678 
0.0001006010594337101 
0.0003444059112828252 
7.257069147072966e-05 
8.235651089548515e-06 
0.0002354921946839613 
-0.0003630965016795366 
-8.683657527356966e-05 
2.18631328384844e-05 
-3.248453683878799e-05 
0.00015077986952313 
0.0003636669273434905 
-0.0003175049371026819 
-0.0002370368970787488 
-0.0002750422086539645 
-1.645097659369524e-05 
7.286630221597249e-05 
-6.976912354666402e-05 
1.519807094594937e-05 
-0.0001345351121488379 
-0.0002999870362048497 
5.694977465483931e-05 
0.0002900494232102822 
-7.34873298957446e-05 
-0.0001611910223259748 
-0.0004018255520242629 
1.96121792420513e-05 
0.0002427467677402189 
0.0001944928293638112 
0.0004315772668955501 
0.0001376319468041023 
-3.24263870211912e-05 
-2.179557175443267e-05 
-0.0002527771058464584 
0.0003293809802686221 
-0.0002889660244511566 
-1.839821362834927e-05 
0.0006412372140757104 
-6.257082205234188e-05 
-0.0002748992331830679 
-0.0002841768732489901 
-0.000170144661494816 
-0.0002941458094911558 
0.0002084972735424002 
0.000392507474112348 
-5.422261065431003e-05 
0.0001310471369480756 
-0.0002512937122693685 
0.0003054888911024662 
7.05862559560913e-05 
6.498898558561752e-05 
-0.001294442068209445 
1.444568058526598e-05 
8.954304578150734e-05 
-0.0007696747979238129 
-6.075826445300092e-07 
5.120806402257274e-05 
-8.807571828824731e-05 
-0.0001277508675117048 
0.0006998980072324546 
-0.0001733204447174855 
4.758044750268573e-05 
1.325853452012279e-05 
0.0005883181000814386 
-0.000301181807580024 
0.0001934629087409171 
-0.0004133480002223835 
-0.0003731941594550111 
0.0002439889269011171 
-2.24610081793105e-05 
0.000145680005050031 
8.637922705906589e-05 
0.0006785215678265313 
0.000373029133406309 
0.000135196977136389 
4.831332522540467e-05 
-3.838228194078375e-05 
6.573475298110224e-05 
-0.0001088605693233368 
-8.69027487269669e-05 
-0.000111656070617956 
0.0006674617760812878 
0.0002077889670136733 
0.0002184384474363288 
0.0001085605021727693 
0.0002214967036879084 
-0.0007522768321574052 
-0.0002201618481494229 
-0.0002291659916569269 
-0.0006326675110209445 
-0.0007557858048280125 
0.0003199861685480662 
-0.0001640950095392918 
0.0002983292600545512 
-0.0004504296083481273 
0.0003129049186465459 
4.821531402833877e-05 
-2.829659513676548e-05 
0.0001789637158541422 
0.0002007990792934304 
-0.0001084116907670491 
0.0001993144362619443 
-7.941160868216946e-05 
2.148841211172169e-05 
0.0001893277096619076 
0.0007222713761365102 
-0.0002288122157560875 
-0.0004585351876756694 
9.773489909473449e-05 
-6.272914866067719e-05 
0.0004745350296545668 
0.0001620956432777227 
8.065228797836435e-05 
0.0006303234260028164 
0.0001252930442830575 
-1.207372927211166e-05 
-0.0001580629020650678 
8.860751299149461e-05 
0.000206817740547071 
2.515312241296192e-05 
-0.0002850152373302099 
-8.937655605772033e-05 
0.0001563486605456765 
-8.858257088588566e-05 
-3.079276597712488e-06 
0.000448578965770254 
0.0003173930264425575 
0.0003209147898616924 
0.0003067202023809567 
7.557906601329715e-05 
9.045924037838535e-05 
-0.0001527762129658625 
-1.953752774290402e-05 
-0.0001696227925318349 
-0.0001376587771642188 
-0.0003245796909563181 
0.0001295154865986454 
5.742672886840884e-05 
-5.366028143344401e-05 
9.08910627669717e-05 
-0.0003281595510074212 
0.0001520985364540904 
0.000146413970062606 
5.954124359680069e-05 
-0.0001703280148158874 
-0.00016979551455485 
-7.019939850354903e-05 
0.0002416560553537894 
-0.0001743608309450262 
0.0002433584634114427 
-0.000181022036068553 
-0.0010867257298031 
0.0005456066278494637 
-3.758901979131068e-05 
-0.0003926154556315778 
0.0002742534335195181 
0.0002390851452553485 
0.0002216058468086524 
-0.0005256407537075357 
-3.208524235178458e-05 
7.382279177288513e-05 
0.0001929158289118358 
0.0004058760703053292 
-0.0003150920565726704 
0.0003799407817315876 
0.0001872773945810623 
-3.658912510763528e-05 
-1.83978214191176e-05 
4.031761128262906e-05 
-3.59150723826147e-05 
0.0005034268810201203 
-4.818312174230321e-05 
0.0001461293010085383 
-0.0001275327641344465 
-0.0002626222359068751 
-0.0004404966491150241 
0.0004158409349511826 
-2.096458943343695e-05 
6.467065815649486e-05 
-0.000336846525862005 
6.716817922369463e-05 
-4.401317196988275e-05 
-0.000174838666907846 
-0.0001890553131749787 
0.0003288766247921044 
4.072947935244226e-05 
-0.0002264161659355305 
-0.0001213157733654202 
0.0003569070576758034 
6.389017874480258e-05 
-8.669895639268845e-05 
0.0002040407695032686 
2.367290652417451e-05 
0.0002222231583774142 
0.0002237445490214296 
0.0001375769434916417 
-5.781539744035806e-05 
0.0001907537327268615 
-8.022653053634026e-05 
-2.19655418342533e-05 
-0.0008117593098126528 
0.0002677993907539377 
-0.0001258673457839006 
0.0003370596449216228 
2.066804283586996e-05 
-0.0001933194615095802 
0.0003646553896902289 
0.0003087265432231189 
-9.72744274982591e-05 
-3.323072706648352e-05 
-0.0001178979539613631 
-0.0004659437428970785 
9.165007163805088e-05 
-0.0009923556621525568 
0.0004053935238035294 
0.0003075656808156301 
0.000140066641474179 
-8.615314510769364e-05 
-0.0004621200245627183 
3.238559356432605e-05 
7.63279059523412e-05 
0.0001178622043102573 
-0.0003225632118032256 
-6.691780712162635e-05 
0.0002769478703592952 
3.91486369618439e-05 
2.526902985164288e-05 
-0.000111744952041751 
0.000118137997649328 
-0.0001437131596734561 
0.0008969399276989167 
0.0001840139758783802 
4.533529006193892e-05 
4.908565362881395e-05 
-4.941092619857444e-05 
-0.0001876770553140969 
-5.625602075123854e-06 
0.0001435572315706534 
2.659343833719857e-05 
0.0001326902015051882 
-4.253934700483586e-05 
0.0005097241186914974 
-0.0002419790359933958 
0.0002424412961538969 
-0.0005148515767083578 
-0.0001814258589884526 
-0.0001806536038496321 
0.0002191116378722328 
-0.0001615863532544512 
-3.850156106127283e-05 
-0.0001303720268485046 
5.333814476708348e-05 
7.428291862576547e-05 
1.475981210810124e-05 
0.000786468707065582 
3.174035297412262e-05 
0.0001682144100832017 
0.0001108625130821905 
0.0001892301167564581 
-7.609362818515634e-05 
-4.180035658556781e-05 
-7.872893484393178e-05 
0.0001969684307782845 
6.140335695228646e-05 
0.0003470896535208864 
-6.07928702944143e-05 
9.194926831488066e-05 
0.0003595823778223773 
0.0002488562091202004 
-0.0003482092590295043 
-0.0006290966064586994 
-0.0003245555710582401 
0.0005236511862712956 
5.627270604560567e-05 
-0.0005696035693413972 
-2.074798301229941e-05 
-6.984873879426211e-05 
0.0001965011182308126 
-0.0001118300096374088 
0.0002483590002496429 
-0.0002190332134467218 
0.0001413198157309194 
-0.0001405939038982159 
0.0002673577644226578 
-0.000115701727440638 
0.0001691476800778289 
-1.220474676963302e-05 
0.0001372164410908197 
0.0001124906735119092 
4.406681719225405e-05 
1.204552461094418e-06 
-0.000590897210439986 
-0.0002912629442944825 
0.0004499969002988596 
-0.0002409050713028037 
-6.199578896492183e-05 
4.456275974943533e-05 
5.378760135417428e-05 
0.0001596402789429171 
0.0004263487670824333 
-2.23608655579721e-05 
-0.0002245968113584209 
-0.0001952905746746113 
0.0005146093345546979 
8.092077153666228e-05 
-0.0002841484790122023 
-6.160886075666106e-06 
-0.000176681607234085 
7.716917755835728e-05 
0.0001775323951308873 
0.0002614203531341085 
5.920682049107316e-05 
-0.0004040947962206016 
-1.195706395288771e-05 
0.0001126898260791531 
-0.0001332773448131138 
-0.0003688876396906019 
-0.000276543464444192 
2.741605790543519e-06 
0.0001001618323951771 
0.0002961028718766125 
-7.358745256458471e-08 
-4.775044556605476e-05 
0.0003013543652820283 
-9.953158713758342e-05 
7.600945501018207e-06 
-8.974620738520642e-06 
-8.897302803419978e-05 
-0.0002201555089266931 
1.13493231544821e-05 
0.0002399723915545281 
0.0001093386025454045 
0.0002130310944791291 
-9.059155122319998e-05 
-0.0003588466797628859 
-0.0001179965435560373 
0.0007183387095886658 
0.0002869554348465418 
-0.0001306789588476074 
-0.000363578480054417 
0.000184618887267589 
-0.0002744516476814699 
0.0001525388395934719 
-0.0005548949456138306 
1.515020780963367e-05 
-6.369793922819461e-05 
-0.0003914563258038896 
-4.395555204775288e-05 
0.0002512543564227956 
0.0001554479323447583 
0.0001924989915857698 
4.108131399104825e-05 
0.0004631107606240385 
0.0004636382296108353 
3.740040398809091e-05 
0.0002887051546818946 
-0.0001039153868497378 
0.0004742596989380844 
-0.000119350979697799 
0.0002008540676403388 
1.280162479747407e-06 
-4.093057000653147e-05 
-0.0003059883248807413 
-0.0001788563070388295 
-7.842679976369072e-06 
0.0002340130685796593 
0.000105204076763031 
-0.0002468174140761738 
4.777349298668954e-05 
-4.3453082665593e-05 
-0.0001296886878792687 
-1.376722651167457e-05 
0.0002111295479942133 
-0.0001151730119364674 
-0.000123480324707651 
0.0004576474533922009 
-0.0002256204679189258 
3.95056372206111e-05 
0.0003209120259561802 
-3.648430080919195e-05 
0.0003273797490541854 
7.249938252302984e-05 
-0.000220479108890679 
0.0001097723895210026 
8.043784314331836e-05 
0.0009483980310594802 
-0.0008218259521230253 
-0.0003918036086509204 
-9.381691359923377e-05 
5.08583639061873e-05 
0.000268396898442196 
-0.000589714547570649 
0.0003010121950782533 
5.267039085506005e-06 
-0.0002891481298320957 
-0.00021900865516936 
-9.536178519387197e-05 
9.84477014588812e-05 
-1.610841563460552e-07 
0.0001132021594929991 
0.0002554725099065983 
-0.0001125892518679837 
0.0001280467635101026 
-0.0004645875908332635 
0.0001560471829106195 
-0.0003397390397222684 
-0.0003299047777503548 
0.0001533119602060485 
-1.239034050435852e-06 
-4.710547206197526e-05 
-0.0002570284048240243 
0.0001390298036112831 
-0.0002728613471712598 
-0.0002136048327854859 
0.0001569010741202015 
2.739221853768359e-05 
-1.494978106390396e-05 
0.0001835201634068057 
-0.0002100513357026425 
-4.238194941548702e-05 
-8.88741443789085e-05 
0.0004381768737353711 
0.0007794509193176634 
0.0001090051873258394 
6.897511722788415e-05 
0.0001743126608140064 
5.216827793203047e-05 
-3.771214268229974e-05 
8.59968275521189e-06 
-0.0001318075637526624 
3.817574345516623e-06 
0.000104377722448103 
0.0001117577441532824 
0.0001015210667080252 
0.0001234335084462762 
-0.0001485718759075547 
-1.333241599682871e-05 
3.008577357466979e-05 
-2.945698203452395e-05 
0.0005784321329319617 
-0.0001034815124688432 
0.0004012746850744251 
0.0001874262653960775 
7.187215250799974e-05 
-2.066912495866155e-05 
6.30873949488069e-06 
0.0001429348876019658 
0.0001842003223023317 
3.885487394436861e-05 
-0.0003438751058911614 
0.0001185723904827766 
-0.0001255573383516731 
-5.967099832008501e-05 
4.495164084801585e-05 
0.0001388061136973961 
7.707671518350596e-05 
-0.0001671526944910909 
-0.0001679415141541586 
-0.0002800487234891944 
-0.0003994154327673082 
-0.0001213434717941769 
-0.0001748515476816215 
0.0002993689436421949 
-0.0001374190670726376 
-7.439102232287078e-05 
0.0002500315408977667 
0.0002369329719289296 
9.719553785652212e-05 
-0.0005602840978344417 
-0.0002590826868423557 
-0.0001893095543426809 
2.716141430410488e-05 
4.592634687513128e-05 
-0.0003407832728641124 
0.0002520450739190065 
-6.588829806815565e-05 
0.0005751575467492174 
-8.026706946430239e-05 
6.023426550208415e-05 
-0.0001745515308551582 
-0.0001018001685075914 
-4.756341524386335e-05 
-5.768274438889737e-05 
-7.713820999778574e-05 
6.937952619507554e-05 
0.0002117089850483054 
-0.0005715665569766395 
-2.121799147349969e-05 
0.0001046365386877163 
-8.886670256613868e-06 
-8.892666924047891e-05 
-2.204631336103739e-05 
5.038312205789525e-05 
-4.573904371216315e-06 
0.000279050833380537 
0.000826651483742826 
0.0004706141435026433 
-1.190512988507167e-05 
5.328078795971869e-05 
4.029685216369445e-05 
-5.709111790674869e-05 
-0.000105197772381485 
-5.258848504490154e-06 
-0.000145290065121606 
-0.0002905889033342404 
-0.0001423083633257179 
0.0004418598534275086 
6.892775464487958e-05 
-6.144394994240138e-05 
-0.0001854465310653654 
-0.0001536203745138535 
0.0005859124225962165 
-3.910612101176075e-05 
7.371602657825103e-05 
4.541195407469745e-06 
-0.0004548984581953972 
-0.0002943814701446639 
3.431912405040086e-05 
-5.206312473952193e-05 
0.0001690082451268465 
6.263473217592962e-06 
0.000856436617898091 
-0.0003286761762780845 
0.0001321188177725929 
7.654673044270492e-05 
0.0001404693827619462 
0.0001008627771272394 
7.704876891554241e-05 
-0.0002678268905988233 
-0.0001856518789029794 
0.0004004733256430375 
-0.0005228463681927701 
0.0006724250263395422 
8.51300313234833e-05 
-0.0005567400950268781 
0.0001322632977825829 
0.0002117155858613255 
-0.0001163708594146142 
-2.456241740245879e-05 
0.0001717497859616374 
-5.757481929324124e-05 
0.0001512380163756564 
-0.0001012507857507947 
-0.0001232837846329179 
-0.0002613448279259567 
7.212166752620266e-05 
-0.0001609994050751367 
0.0001247006399241388 
0.0001727844241752271 
-8.002940888944092e-05 
0.000119938659022806 
-0.0002348592207206546 
1.053882704709551e-05 
-3.271872496073176e-06 
-6.202945865306045e-06 
3.250058670484459e-05 
0.0002387698457939946 
0.0007693191256571006 
-4.506613646220505e-05 
2.0694611680681e-05 
-0.0002079353226353457 
-0.000102340593371214 
5.874005378556081e-05 
-2.06406256229938e-05 
-7.62073012867609e-05 
-0.0001382945532339643 
-0.0004025631497655536 
0.0001783120098296373 
0.0001119884710837125 
-0.0001822815242030147 
-0.0001772934407889754 
3.103156084250613e-05 
3.92267281372572e-06 
8.776947476614508e-06 
0.0003841975685973316 
-2.109662995629208e-05 
-0.0001934867675336782 
8.263011120673815e-05 
-0.0001459062124567284 
-2.791292661991925e-06 
0.0002098160029806307 
7.107033883551053e-05 
0.0003642709721495692 
-9.620094566272652e-06 
-0.0001550003592868789 
0.0005974363612387544 
0.0001243564506875306 
-0.000182681381509223 
3.892887135413991e-05 
8.934826438790142e-05 
4.752128570346864e-05 
3.380597994661232e-06 
-1.1724564036473e-05 
-0.0001639698230972693 
-2.347944536948443e-05 
9.415667587819811e-05 
0.0001228158290345921 
-4.77106037521921e-05 
0.0003511433594614379 
-0.0001092675557533337 
3.228464188717852e-05 
-4.400121158358645e-06 
0.0003837106570212617 
0.0001087341239787034 
0.0005927533649546733 
-3.30913377930473e-05 
-0.0004641962793701761 
4.325253034850866e-06 
0.0001685736926561667 
-7.412367121081147e-05 
-3.999468500945571e-05 
0.0001432393018192497 
-0.0009053553350685169 
-4.597521581756662e-05 
-0.0007045038172828973 
0.000141394633746096 
0.0001139798244364791 
0.0005575897381945575 
3.278184587514706e-05 
4.592104747007497e-05 
0.0002891182487535531 
-6.152835905962238e-05 
0.0001605091421707753 
0.0002566412331891684 
-0.0003282563509268612 
-0.0002819937273252467 
-5.932423222719954e-05 
0.0005435142379719458 
-0.0005648386745143299 
0.0001537787282026724 
2.056114899842705e-05 
2.440501375667919e-05 
0.0006300041546038657 
1.75047222265029e-06 
0.0001586101104028954 
1.786159484903436e-05 
-9.499335495664196e-05 
0.0003279151154783899 
-0.0009353757374643018 
-0.0001154303497077677 
-0.0001488890021664617 
0.0004285629057722756 
-0.0001612039743405985 
8.782590910698858e-05 
-4.433874488961037e-06 
0.0001077899509633574 
-2.002171044562023e-05 
9.923589610531285e-05 
-5.960336071144074e-05 
0.0003224074922481587 
-8.335027442728532e-05 
-0.0002680949702081154 
8.784910961116561e-05 
-7.582688873392645e-06 
-4.942480799915614e-05 
-0.0001707977530583067 
0.0002819903937860506 
-0.0002108381141015051 
4.07677351908928e-05 
-0.0004302463749484949 
-0.0003890153739200526 
-9.759392476289428e-05 
2.912821068595572e-06 
-5.548589299996578e-05 
-0.0001594701407553959 
1.844699354429049e-05 
0.0001797638662280514 
0.0004603525111444199 
-0.0002136011947733199 
-0.0001258325115198841 
-1.072018060414846e-05 
-6.916299976545952e-05 
9.758093636180421e-05 
0.0004214021968908351 
-4.43781554005258e-05 
0.0001539443606722824 
-4.499383699908487e-05 
8.949419048072014e-05 
0.0001110142778317381 
0.000141232081177184 
0.0001328099686383019 
-0.0002349695712247463 
-1.491040956700943e-05 
3.363223020162907e-05 
-6.899128413507273e-05 
0.0003567052327767958 
0.0006268733444139394 
6.63882999077353e-05 
0.0001039908965387918 
-3.723375577259172e-05 
-0.0005599872789215938 
-0.0002061893551945333 
0.0001237590998917597 
0.0003286657494724285 
0.0002977411802643116 
0.0007662603063850152 
0.0001895772940649101 
-0.0002194218544350461 
-0.0005124980022001339 
0.0001252029164951576 
-0.0001128581056604794 
0.0001357728376399419 
-2.053835960499357e-05 
-5.048017994773598e-05 
0.0001335376963427821 
4.080184321205358e-05 
0.0001975890056455372 
-0.0003644908185064161 
-0.0001658464073305193 
0.000253799556609086 
-0.0004076791996701764 
-0.0001750105209986115 
0.000517945321748234 
-9.653865477931673e-05 
-0.0004336365677366865 
-0.0004624396375096685 
0.0001709945563625803 
9.809592204678569e-06 
5.001273463120355e-05 
8.80683774844576e-05 
7.705418250902422e-05 
-0.0001371105569962404 
0.0002980972914142741 
-8.213292995264268e-06 
-0.0001583237262032653 
5.74586116959121e-05 
5.533697144069822e-06 
-9.361807663524876e-05 
-2.892062483119796e-05 
-0.0001868293916592701 
2.409142277204695e-05 
-0.0003777185435484951 
0.0004566031307431511 
5.420915307850579e-05 
-0.0001143324331489394 
2.943856073265703e-05 
-0.0001925846325954959 
0.0002631132756556983 
-6.154551088743981e-05 
-0.0003125557583276859 
-0.0001731589209152038 
0.0001274182163624952 
-0.0003848908521794317 
0.0006992032199775834 
3.736705395758455e-06 
-7.224217880312712e-05 
0.0002026643027618818 
-0.0007033463586200813 
0.0002361518556298668 
0.0009451445279670044 
0.0004467288600233005 
-2.467667208798237e-05 
-0.0006361903146376854 
0.0004590742569042565 
-4.147118696148484e-05 
0.0002851342405131362 
0.0007545005260599015 
4.094071238133378e-05 
9.887916377113001e-05 
-0.0001644186788642736 
-2.783151924423459e-05 
0.0001653067788481923 
0.0001597459404076227 
0.0004038598024228344 
0.0001143733951292087 
2.44463521687063e-05 
-5.275295009776455e-05 
7.880346860059127e-05 
-0.0002715587008047842 
-0.0002098652475421547 
-0.000182162533805083 
0.0001683522817609228 
5.778447066101454e-05 
0.0003979963078685603 
5.182691330971432e-06 
-0.0001942624161610721 
6.509911753055139e-05 
0.0002501089152552408 
-4.543574358626288e-05 
9.146567473651e-05 
-0.0005778803628773789 
-0.0003259361525269417 
-5.057084667396748e-05 
-0.0003564411800410482 
-0.0006130260254482772 
0.000324500579052275 
2.561326098141681e-05 
-0.000188068419227462 
-0.0002215993903404665 
0.0001759532533318498 
-4.687266735856099e-05 
-0.0007339302059244119 
7.868218348079907e-05 
-0.0004617284043048216 
-0.0004547953120967626 
0.0001880314360578764 
-0.0002053902170966885 
0.0007547216355513362 
8.0957893492613e-05 
-5.556112441379039e-05 
4.849778684067449e-05 
0.001223497854241219 
-0.0001418326144743264 
1.555626925111415e-05 
1.445372269919476e-05 
-3.33897386534951e-05 
-0.0001044859983293355 
-2.101904221135967e-05 
-4.26888535049005e-05 
0.0002087995295999609 
9.444430437583788e-05 
-0.0001203850280602638 
0.0002211572611779485 
0.0001146562838963431 
7.788125833283179e-05 
-0.0001275696371284924 
3.885167555783271e-05 
8.642276063580261e-05 
-2.329713359121047e-05 
0.0001029601412088057 
-4.135413410144621e-05 
-4.365343376074829e-05 
0.0002994521187316774 
-4.240888836454895e-05 
-2.308604782991955e-05 
-7.97803008039215e-05 
1.497254483903269e-05 
0.000200054004225189 
-0.0001579735870968666 
-0.0003137217229631002 
-0.0002027093691909423 
0.0002230628098275788 
-0.0002533323947569789 
-0.000357460673105246 
-0.001064618633722701 
0.0001929455213022293 
-0.0001333037314824429 
0.0002054778695442866 
0.0003688826088383273 
4.324503270525262e-05 
0.0002435421486876894 
0.0001359647057944164 
0.0007216906653386545 
-0.0003621298268263834 
-0.0001613340052584474 
0.0001295577302879854 
0.0002387711898381674 
5.43388517458558e-05 
-2.274759682059848e-05 
0.0006724166026714253 
-0.0001477688776954001 
-1.715681383389554e-05 
0.0005980762200173731 
0.0009272771175248142 
-0.0002052051686216909 
-0.0002226442755852873 
1.222635370439195e-06 
1.496223597008921e-05 
5.974270317912505e-05 
0.0002536981557733781 
-1.436112791089907e-05 
9.232350040944392e-05 
-0.0001911194927604039 
0.000746795974769784 
1.033736541326649e-05 
-0.000213256365041873 
-0.0001081452158347148 
0.0003181786072420916 
-0.0007810517152129572 
5.613588330726531e-05 
-0.0009392553523674738 
-0.0003539804715047674 
0.0004296498612148454 
-2.301065590986462e-06 
-3.257016855181513e-05 
1.556186217478534e-05 
0.0003013113345349458 
-0.0001447736172096805 
0.0001156202800403686 
7.520542479395484e-05 
-0.0004448388355921458 
2.47598241315352e-05 
6.975202155796377e-05 
-3.68241927866665e-05 
-3.458730760571268e-05 
6.892565560196456e-05 
-2.022086798026095e-05 
3.107307784587863e-05 
-0.0001711250171732871 
-1.253571913079988e-06 
0.0001104210804781804 
-0.0001876038598434235 
8.436597055873444e-05 
0.0001853528234350296 
0.0003069811752943658 
-7.553939829790469e-05 
0.0001317287817757818 
-0.0003320360648207567 
0.000101331348191661 
0.0001712393328253348 
0.0003923259825025836 
0.0004799085369323859 
0.000806719438773847 
0.0003437764976335853 
-0.0001428159855154852 
-9.19416735701576e-05 
-0.0002466667611481803 
-0.0005298747203927057 
-3.024767982222717e-05 
7.234137045289628e-05 
0.0006394770263006622 
-5.84748473055137e-05 
-0.0002841025432014313 
-0.0004002677695429041 
-0.0008424345158763108 
2.283432555353594e-05 
0.0001317467722565033 
-0.0002439249993756621 
-7.356804222468563e-05 
0.0002776894442983455 
-0.0003513774957005406 
-0.0002079463111404588 
-0.0006381851193165336 
1.36962248184942e-05 
0.0001299386465312284 
0.000403412292027622 
9.041864425558363e-05 
-1.401300633477144e-05 
0.0009278870903436781 
0.0003607388978071034 
-0.001026129171355158 
0.0001387353727056067 
3.116078380930947e-05 
-0.0002883123725671789 
0.0001406650100006259 
2.926192228991759e-05 
-5.482259138139908e-05 
6.062581738641345e-05 
0.0004202993133313659 
-5.893799439815549e-05 
0.0001855893607054516 
-0.0001085088424494925 
-9.15660308329848e-05 
0.0002999109329087091 
-6.483458991291007e-05 
-6.107284896054154e-05 
5.853988672785065e-05 
-0.0004330836884473935 
-0.0001270775704224068 
-0.0001296089088492403 
-0.0001365221483323254 
0.0001684931503208682 
6.704939369304175e-05 
-0.0005012885519434774 
0.0002341781079023499 
0.0001627840988539316 
-0.0003010464194128657 
0.0003211476437789081 
-0.0001465204713401833 
0.0001258405234690241 
6.998199080499513e-05 
0.000765759311094898 
-1.223867095530526e-05 
0.000134148073382825 
-0.0001117194268584674 
-0.0002365529535650527 
0.0003245669769275678 
-0.0001776011455000351 
0.0003007092905126309 
8.726759842564671e-05 
-0.0001715093077609079 
-9.958220996797795e-05 
1.349996813237015e-05 
-6.777673783900343e-05 
-2.947370318321144e-05 
0.0002060333842220565 
0.0002507704217006721 
-8.8915667012983e-05 
-2.176103002406766e-05 
-0.0001119798448551044 
0.0001613536271624687 
-8.393512795710588e-05 
1.546508697947799e-05 
-3.080271580031711e-05 
-7.792387719759453e-05 
-0.0001529658292774501 
2.526031930767586e-05 
0.0004143335972585504 
-0.0001449544520902146 
-0.000172684469584231 
0.0003792093881622254 
-0.0007377680380769153 
-0.0001178660176581896 
-0.0001250988517038045 
6.30543589611278e-05 
-0.001093516479342311 
-3.131503928564265e-05 
-0.0001790223180061627 
0.0001733489562365798 
6.030923665521022e-05 
-0.0001583225995994168 
-3.151467857813641e-05 
0.0002183306186974604 
-0.0003686879565370053 
0.0005768773116619634 
0.0005506850122993076 
-3.976811426490973e-05 
0.0006518987852935214 
0.0005565730165737523 
0.0002923689406738577 
-4.099052430179355e-05 
-1.966426232525482e-05 
-0.0006056394115545745 
-0.0002284362194909938 
0.0002180706374337099 
0.0002352228095912505 
7.212411346021231e-05 
8.598524114084257e-06 
-0.0003321638477619656 
-0.0002287310925889497 
-0.0003805601662131396 
0.0003040957957777096 
0.0004048565446250709 
0.0002571967035807277 
-0.0003344587974321433 
-0.0003333510928505752 
0.0001939990550510113 
-0.0001730252788501156 
-0.0003038241661866412 
0.0001754573489406452 
0.0002980779733003938 
0.0008108053146512032 
0.0004238719464024896 
0.0005131010454055653 
1.06850137653275e-05 
0.0001200866366505065 
-0.0001193432603628906 
-0.0001897722198323316 
0.0001465282911749434 
-0.0003888881543399214 
-0.000115617824415788 
-0.0006142323811574943 
0.0006148817432447899 
9.676162118397296e-05 
4.059467199535925e-05 
6.517942193811549e-05 
-0.0001711856895794476 
-8.418056049263348e-05 
8.394819543472525e-05 
0.0001538736383307661 
-1.113383310339339e-05 
0.0003526159934392857 
0.0001852193102379295 
-0.0001993984327884246 
-0.0001603986175021044 
3.022113315293947e-05 
2.248682295279929e-05 
-0.0001618822548809088 
0.0001644896359199253 
-0.000164311662577452 
-0.0001363110297934463 
-4.638548833479676e-05 
-0.0003349191638105345 
0.0003730739410045801 
0.000344316996262954 
-0.0002134769256135077 
0.0002344997887324499 
-0.00082323450311221 
-0.0001313755844974184 
-0.0004227453424784307 
-0.0002386824496981724 
-0.0001261888519815885 
0.0001378282118818759 
0.0001713980017096931 
0.001409254327873981 
-0.0001523323073117103 
-0.000475534492089206 
-0.0001285788633590121 
2.070154368019877e-06 
0.0004083809232526585 
-0.0001617353686229151 
7.754727404393157e-06 
2.750208308269385e-05 
0.0003959175707755729 
-1.525217381143894e-05 
-0.0002888952560503945 
-5.10919625089489e-05 
-0.0002756737953569645 
0.0001161988833644471 
0.0002220988590546217 
-0.0001300472913684484 
-8.086369033132569e-05 
1.479942285240909e-05 
0.0001755090123594145 
-0.0007706767056735936 
-0.0002322362331728529 
6.097946240869659e-05 
8.318861788649314e-05 
-0.0006438306903050204 
0.0001629601839687806 
0.0005362609948177778 
3.663491052556538e-05 
0.0004262908446645974 
0.0001599155703294753 
0.0005066092036333555 
0.0003448443316579653 
0.0001587843953617737 
6.715020154954721e-05 
2.029882307268141e-05 
-0.0001731243666787588 
3.277957114195698e-05 
-0.0004346062408457006 
-9.660806682833153e-05 
-0.0004164356942394389 
6.929522178907909e-05 
-8.767479591456412e-05 
-0.0004920493096689795 
9.918512754008763e-06 
0.0001564582758260104 
-0.000173136236753179 
6.358409378125854e-05 
0.0003963750329727951 
-0.0003704736701761694 
-0.0002570702035873337 
-3.218869139051723e-05 
0.00052899441984099 
0.0006308485482470375 
0.0004671034668686778 
0.0004066375105562721 
0.0008962417966171125 
-4.571802702239135e-05 
0.0001847654515583482 
0.0005203997639185089 
-0.0007973594112649252 
0.0001538509261479001 
-0.0003999567799770504 
0.0004212884672797036 
-8.529649857097872e-05 
-0.0007243407691966924 
-0.0003980440531924823 
0.0003056903977345247 
-6.076878280685463e-05 
8.165693269789965e-05 
-0.0003222897007181983 
0.0002307453164630258 
-0.0001375470845312145 
7.25859880465668e-05 
3.562095579584981e-05 
0.0003720486461195573 
0.0001378569158304776 
-0.0007082758324210618 
4.174361121369742e-05 
-0.0002463917848291404 
-0.0003885474895119772 
0.0001513410459664285 
0.0001293433303724257 
0.0002422764612387351 
-0.0005292371187499105 
0.0001347360409521129 
-0.0003173603882525355 
-0.0002032143773527009 
-0.0004899245724565485 
-6.613470533421911e-05 
0.0001857506642262496 
8.462964918719819e-05 
-7.081473924521234e-05 
0.001494896689403839 
1.065920771893197e-05 
0.0007426560856859384 
4.743128521712647e-05 
-0.0001231672726616476 
0.000225645664947024 
0.0002660926627455795 
2.780500893471365e-05 
-8.108436069503609e-05 
-0.0003948252123261387 
-0.0001965376802689408 
4.871131407445729e-05 
0.000160588957422138 
-0.0007972142076355763 
0.0007567477465926997 
0.0002610343891787396 
-0.0002437912468206683 
-0.0003927873915470852 
9.483262903601335e-06 
-0.0002088080160259463 
-0.0001473916953534489 
0.000481644301717897 
-0.000606789713441649 
0.001610352421681835 
-0.0002168779840155832 
0.0001381664453017317 
-0.0001557006863631163 
0.0004251612478094264 
-0.0002922860905098857 
0.0004410924753649705 
0.0002008138610522203 
3.098422393867958e-06 
-0.0001231436732027092 
-8.517718042424499e-05 
-2.048108325269906e-05 
-4.063688728722209e-06 
-0.0006495269497025676 
-0.0001193237695432903 
0.0001517702180418065 
-8.958527323865974e-05 
0.0002528393581677344 
-0.0005390002670550185 
-9.005478098297006e-05 
-0.0002049761373211046 
-0.0003268390520632209 
0.0002223044855537925 
-0.0004127988057246664 
9.77898740461146e-05 
9.851725246509753e-06 
-1.624215612257858e-05 
0.0001779692277083027 
-0.0004228647321036248 
5.394486820490478e-05 
0.0002021922311154832 
0.0006739885678013118 
0.0001821675012323826 
-4.546994837896201e-05 
0.0002147208590524505 
0.0009090221920928383 
-0.0003967788817241585 
-4.283458669732995e-05 
0.0007010391054247287 
4.608188482903709e-05 
0.0001792519358457525 
-0.0003499454760800375 
-0.0001224902892059204 
-0.0003028317064179652 
-1.514800187883656e-05 
-0.0001377988480179304 
-2.089452738036087e-06 
8.242470964680272e-05 
-0.000122928357036532 
0.0001720728164040249 
-0.0003501151685196579 
0.0008340986833335537 
4.568508255064762e-06 
-0.0005522501146791733 
-0.0001176221344194713 
2.921447614455831e-05 
0.0002241107016127538 
-0.001208543320370114 
-1.205631805594978e-05 
4.707018120281071e-06 
-0.0002977696144178804 
0.0004289005830995251 
-0.0001193876175865533 
2.161102585616229e-05 
-0.0007468899395182098 
0.0002267420575514104 
6.714092622716492e-05 
0.0007184286757356578 
0.0004156923344135933 
0.0001350376664285634 
0.0005310349786635265 
3.686286646439535e-05 
-7.027978349329698e-05 
-0.0004389864708484422 
0.0006682049377234921 
1.373177706557316e-05 
-3.737598229992891e-05 
-9.833914695598096e-05 
-9.133908325842819e-05 
-0.0008754956529943806 
0.0002877008790900367 
-0.0001688362291144661 
-0.0001434517956827183 
0.0004422420467890974 
3.932032020452008e-05 
-1.01412021375584e-05 
0.0008356296305864382 
-0.00127249183798809 
0.0001542509767274718 
-0.0003118277335953461 
0.00020579012498963 
9.054523102084577e-05 
0.0001091649077647133 
-0.0002917485739335221 
-0.0003129025765797895 
-0.0005771881392572176 
-0.0001203642053716408 
0.0002401357992273364 
9.108237017274621e-05 
3.015025881436762e-05 
0.0002365851905940883 
-0.0001414818738040623 
-8.769396286176496e-05 
0.0002065065045616147 
0.0004289620405485586 
-0.0001307172711954011 
-0.0005489576490517114 
0.0004470405098903207 
0.0003364483565763815 
0.001343033961074814 
-6.146239710328632e-05 
-0.0003431185567208163 
0.0004254181050259582 
-8.797864807557364e-05 
-0.0001800659550139718 
0.0002662411699737088 
3.969008329506222e-06 
0.0005705709333839913 
-0.0001523997175245124 
-0.0001252725634484349 
-0.000285711035549344 
-0.0003464752585169636 
-0.0004213925186123944 
0.001372841406806994 
0.0005969376826594741 
-0.0004062833749409688 
0.0003648487287347204 
-7.079674690052957e-05 
0.0001095738501351033 
-8.034397362218073e-05 
-0.000230869650180031 
0.0002042553609906767 
-0.0001858653493805713 
-0.0004470433224348473 
0.0005558578553323286 
-0.0001278074864347916 
1.31880319848727e-06 
-1.755676222109156e-05 
-4.921949129273293e-05 
0.0002734588679609507 
-9.858072239829102e-05 
-0.0005870969203536805 
-0.0004500246245956971 
0.0005683395205198264 
0.0001950818662888882 
2.767901565590884e-05 
-0.0001250098303640593 
0.0001627505301786165 
-0.0008576430294457284 
0.0001262266151418695 
-0.001142038478826788 
0.0001953129914645273 
0.0003617401907663702 
0.0002957293423990303 
0.0004268968890472881 
-0.0001163454015288434 
0.0004102681831266598 
-0.0005426286467579911 
-2.285003531577501e-05 
0.000596692263117153 
-0.000158514553809232 
0.0001418960427956351 
0.0001928797509522868 
-0.0001135163174944684 
0.0003022215279599905 
0.0008172473420901743 
7.301322629750741e-05 
-0.0004308846049738926 
-0.0001101149475821212 
-0.0001617277823099469 
0.0002136559268751283 
0.000309345955404063 
-0.0003062923099834455 
-0.0004394352952860563 
0.001006552517273659 
-0.000163584915368268 
-2.972056353535662e-05 
-0.0002251100059702371 
-0.0006359721538321404 
-0.0001177824862129563 
-0.0004126164002710249 
-0.0003616151105372223 
2.86366985782624e-05 
-9.935517181591862e-05 
-0.000158019632140696 
-0.0005216271613833785 
8.431657284992583e-06 
-0.0002758862635680471 
0.0006169098187981997 
0.0002533069981424509 
0.0001329441255591054 
-2.264984596235712e-06 
2.02194277119424e-05 
0.00169351607800113 
-0.0001304013317657753 
0.000532453876183887 
-7.278227336572029e-05 
-0.0001123032829782642 
-7.907272824978661e-05 
-0.0003211540460195 
-0.0001135532830427654 
0.0002191493528282829 
-0.0002329243232111732 
-8.926558158846073e-05 
0.0002996231865623549 
-0.0002167807156644421 
-0.0001673976935075481 
0.0009235465264723507 
-9.728652221029243e-05 
-0.0008289690376320148 
0.0004495862411272162 
0.0001629259298794371 
-6.642245271130907e-05 
-0.0002628260882215535 
-0.0007843924755836233 
0.000279742677489686 
-1.832985685364521e-05 
-0.0002815694769231365 
0.0001221019660326869 
9.740091184067077e-05 
-0.0003738611269852728 
-0.0003487413972338264 
0.0002392082801769309 
0.0004329376475371745 
2.180145328427602e-05 
3.27440468840248e-05 
-6.046884553909016e-05 
0.0003729038609487141 
0.001402820258552989 
-1.71611607744903e-05 
-4.917255436104119e-05 
-0.0009052073000801272 
0.0002835803964709011 
0.0001217567474351013 
-5.880906838773134e-05 
0.0001116495491773517 
-0.0002676422872003891 
-2.649782729754079e-05 
0.0005978903864290873 
-0.0001883982313589076 
0.0001808655619466841 
0.0009096373074777299 
-0.001244426125363209 
0.0002137197414999843 
-0.0003896820345082598 
-0.0001205842938217939 
-0.0001415689000542176 
3.6729021627098e-06 
0.0004257686103973551 
-0.0001189634525955992 
-0.0001599012283739635 
0.000153167042477083 
0.0001608254554257262 
-0.0009178627109822699 
8.872910557277629e-05 
6.438703846281595e-05 
-7.946054985837142e-06 
-0.0002420148950234921 
-0.0001003185061745323 
-0.0008920022980955111 
0.0005304110286400553 
0.001567292666542762 
0.0004367341508885107 
0.000172834689557962 
3.824197591815437e-05 
-0.0003697892125259033 
-0.0003025349932993005 
0.0002374932394144063 
3.815768937203011e-05 
-0.0001838843332161504 
-0.0002732728242353102 
8.144379118583535e-05 
-1.556126191386177e-05 
-0.0006934934955437435 
0.0001959826452690842 
0.0002265688476561816 
0.0005838948594473343 
0.0002284100193455789 
-4.949062976901508e-05 
-3.083819977755906e-05 
-0.0004987428709467333 
0.0001078132265881074 
-0.0001656869166422093 
-0.0002465202733807511 
0.0002088887159206115 
-0.0004909348586543081 
0.0001889670678833155 
-0.0002026702231042395 
5.792365602466437e-05 
-7.435329849369257e-05 
0.0002487382324293712 
6.946418420459828e-05 
0.0003788048241496515 
-3.590919809299502e-05 
0.0005647308865199794 
0.0001697036983727965 
-9.409658444493345e-05 
-3.329563431187436e-05 
-0.0002753022161014348 
-0.0003965799118289219 
-0.0002118421496602294 
0.0009172072137115815 
2.229054411226096e-05 
9.160679410977386e-05 
-0.0001503454355817179 
-3.609871774198227e-05 
0.0003042837454132451 
-0.0004622003880760514 
-0.0001171484330387088 
0.0005356028623401904 
6.432546410025756e-06 
-0.0001565610000691099 
0.000101613594897772 
-0.0003150414696880355 
0.001952473211063727 
0.0002194979030024506 
5.823257241117122e-05 
4.490516411028621e-05 
0.0001892690282874065 
-0.0002055370732021297 
0.000676654093899884 
-0.0001063130049087077 
-0.0004937288976702731 
-0.000183725172163404 
-0.0001620237355865718 
9.383718821245192e-05 
0.0005933853747380201 
0.0002280284627588901 
-0.001239799329404604 
8.321425553118822e-05 
-0.0002559726818929879 
-0.0005590253011936929 
-0.0002008707614256285 
-0.0001169846178482488 
0.0004378533026411011 
-0.0001606145549602778 
-0.0001803820711801804 
5.069131690038228e-05 
-0.0005938845698649215 
0.0001553971312447495 
1.397141715547533e-05 
-0.0005747898598137977 
-0.0002088742847189028 
7.091089518607473e-06 
0.0003333792679688604 
3.503362524653256e-05 
-3.99070223630952e-05 
0.0002721316668836868 
-0.000794566442983878 
2.157138147531645e-05 
-0.0002971359924437719 
-0.000245634742859837 
0.0006404066785778266 
0.0002037375040075057 
8.500820796884459e-05 
2.660337594162647e-05 
-0.0001465437205399311 
-0.000323206754992845 
0.0009404040918366362 
-0.0001056925192616918 
0.0002711756528879141 
-0.0004653252218991707 
0.0002807793805032149 
0.0004901405823047318 
0.0004096042494929304 
-9.847084286676446e-05 
-0.0003885330198670668 
8.380087764326151e-06 
0.0002171034174241343 
-0.0002511859309546395 
0.0002240618129559359 
0.0002210750401774334 
-0.001176120408373647 
0.0003141238314819602 
-6.440234568201749e-05 
0.0003980850343215627 
-0.0005070487035312238 
0.0001989687768177721 
4.50279864271599e-05 
0.0002685704916261246 
-0.0001986761698411286 
-0.0001919676340535723 
0.001200621927316303 
0.0001191710548169237 
0.001101572330683626 
0.0001075688774695156 
1.731551659646204e-05 
-0.0005173389534131292 
-1.824605387393022e-05 
0.0001827097197684444 
1.208839918181692e-05 
4.501434731776142e-05 
-0.0004269453611330636 
0.0001024780395543833 
-0.0003899725793364624 
1.513203003721371e-06 
-0.0004102564003250848 
0.000195194987486492 
-0.0003000140340712949 
0.0001664093496711747 
7.896685718014581e-05 
0.0007451133596046586 
-0.0002671280592120849 
-0.000105706174047127 
-7.354518478251481e-05 
-0.00011795029070076 
-0.001156955921043587 
-0.0001836492914536945 
-0.000737391057359759 
0.0003167305461238076 
0.0005014495273939003 
-0.0001142798700223333 
-0.0004762282662090965 
5.754138905206223e-05 
-0.0001358352132609417 
-0.0003545220775969937 
5.324151952832206e-05 
0.0002950923336225143 
0.001342710873847645 
-0.000151600435247946 
0.0001008370884241321 
-0.0003050101674890887 
0.0001412239862019559 
-0.0003050779426213811 
0.0001512014872000771 
-0.0001409200157324715 
5.841242352787337e-05 
0.001008575860927109 
0.0001218829927672429 
0.0002263757275853321 
7.269847877813777e-05 
-0.0001152339010941685 
0.0001369156666050092 
-0.0004901284658317687 
-0.0003088117953525691 
0.000114741953224671 
0.0004830456193491966 
-0.000723964291323503 
-0.000479082693134945 
0.0002175765886939511 
-0.0001318682342870759 
0.0001015443349017977 
-0.000396813682202338 
7.983861318722173e-05 
-3.823006250429692e-05 
-0.0001875986821838744 
-0.0002597944920332423 
-0.0001562717593722217 
4.575242387864046e-06 
0.0007620556330564772 
-0.0002365703300981924 
8.478587907948401e-06 
-0.0001273724661308194 
2.084112415521967e-05 
0.001262836284444855 
0.0007198906719574862 
-0.0002302345498879866 
0.0002764999263414334 
-9.418609227055569e-05 
2.242326868167265e-05 
-4.828697845764935e-06 
0.0001369795236872577 
0.0001392140310688264 
0.001053675713112005 
-0.0007529815358879096 
-3.295357499336854e-05 
0.00057412566941457 
-0.001189239391571561 
0.0003480178363795327 
3.052659962676968e-05 
3.747314359574936e-05 
6.842796320910438e-05 
0.0003745756550746619 
-0.0001031268482601053 
-0.0006049880206173662 
1.788490149621159e-05 
0.000358684068899585 
0.001249788793295395 
-9.011063561360802e-06 
-0.0002768574359150292 
-6.322239140309129e-05 
0.0003226529330220435 
3.800799030307636e-05 
-0.0001003150810971487 
-0.001001700955760367 
2.122797877335092e-05 
0.0001646803188777633 
-2.808949315947915e-05 
-0.000205006554459727 
-0.0002837739313609763 
-9.465556403257293e-05 
0.0002018681322786993 
8.431911298177073e-05 
0.0001007223224778289 
-0.0001408098277396489 
0.0003018724105248128 
5.646441215580765e-05 
0.0002861662220521873 
-0.0004665224842364555 
-6.242061281104635e-05 
-0.0001225574022331783 
-6.055972961341844e-05 
8.804558183763786e-05 
-0.000442949235023779 
-4.855258695007816e-05 
0.0007509968527555891 
0.0007286491820224663 
0.0009948819249874798 
-4.222912595834075e-05 
-0.0003496569754965387 
0.0004484524771893493 
0.0001208697930347658 
-0.0003016115983300113 
-0.0006957601798540861 
-0.0003585283825648342 
2.052557959108663e-05 
-0.0005029952856976195 
0.0007353782851641778 
0.0002236258905254029 
-9.377178328208211e-05 
-0.0001525212774346303 
0.0001398144427197199 
-0.0003439863846261127 
-0.000322447455812007 
-0.0002266831478119599 
0.0002787717427222251 
0.0007446329375439906 
-0.0007316169070527464 
-0.0003141727947174633 
-2.467112441387113e-07 
0.0006198424830638838 
8.486177751112841e-05 
-0.0002413783437000553 
0.0003369518813112976 
0.0001111203303407725 
-0.0002566878059880672 
0.000405465350444963 
0.0006896603481255641 
-0.0002017636673639791 
4.565807877553022e-05 
-0.0002292425446835332 
0.0003165876042118194 
-0.0001733178217755205 
0.000180817077482077 
0.0006761285519229278 
-0.0001864411109751611 
5.744540174618242e-05 
-0.0006258865613463605 
-0.001410124967433843 
0.0002869905772963516 
0.0004556865213398807 
0.0001049057374599563 
0.0007628280774621172 
-0.000203776846741373 
-0.0004132810394875632 
0.0001548022456782996 
7.644455999885478e-05 
-0.0006829410973989148 
-6.243990867224525e-06 
6.388062875930213e-05 
-0.000971751577064724 
0.001027007361072211 
0.0009608227261625525 
0.000449690691339273 
0.0001720918449356769 
-0.0001470110472903718 
-0.0001418763578773998 
-0.0001942194481487753 
6.925944360509685e-05 
-0.0001844314259886449 
3.373500225402051e-05 
0.0005766142179382625 
0.0001686242804767098 
-6.744143426156825e-05 
0.0003111391410432083 
-0.0001389634146650901 
-0.0001271207652114202 
-0.0001244580811699936 
-5.876865478014796e-05 
-0.0005676880086643266 
0.0001248144988363841 
-2.837401919103566e-05 
0.0003688138552881837 
0.0002354041103616701 
-0.0007853264271038674 
-0.0008238969955445058 
7.864599710558796e-05 
0.0005885598313284983 
-0.0002560368426602774 
-0.0001655438182103881 
9.260913221556598e-05 
-2.440944438829304e-05 
-0.0002025668304641853 
0.0002127018694822973 
-0.0002356823415099696 
0.001393512421447347 
-0.000536563273505402 
0.0001813506621220641 
0.000629838437999357 
-9.69401385036227e-05 
-4.248094320154321e-05 
-0.0002788050819937485 
0.0003042834714240729 
-0.0001397921505513964 
-0.0001651122063668778 
2.632308531465713e-05 
-0.0001227967060469388 
0.0002012712961318925 
-0.0003639081241764227 
2.549211605415587e-05 
-0.000219664960611764 
-0.0001302239608954791 
-2.893282165743531e-05 
5.770464426360967e-05 
0.0002163901981162884 
0.0003370256502164093 
-0.000248762158500909 
9.430760059266565e-06 
-0.000241450447983222 
-0.0003526067284212039 
0.0005719018172344222 
-0.0003891859214961144 
-0.0003864528077843025 
-7.350671979508357e-05 
-0.0002547981465193298 
-9.763977841691735e-05 
0.0001523084198693059 
-0.001108851592739395 
0.0003423023474852918 
-0.0002392110079771537 
0.0002978367036387577 
-0.0001433973360777376 
-6.417470587641687e-05 
-0.0002334606026875006 
6.092516635421082e-05 
0.0001918794420025214 
0.0004588232515725051 
0.0002888255246663422 
0.0001099068325416145 
-8.921509112961752e-05 
0.001291983048579177 
0.0002537926362003194 
0.0001070737942567267 
-0.0005486716459299473 
-1.337669656542032e-05 
-4.446726401127989e-05 
-0.0003074529934376851 
-2.656949854943503e-05 
-8.371272502641125e-05 
0.00105515024541186 
-0.0004922937307630102 
0.0001846748337031893 
-0.0001472683005453411 
-1.010280642958621e-06 
-9.066157402355969e-05 
-0.0001958490711889816 
0.0009882641064737222 
0.0002578689379217819 
-0.0001882074029881904 
-0.0001050411365821728 
-1.778461938373221e-05 
0.0004335781482150917 
0.0003167307688724044 
-4.75000067740139e-05 
-0.0001115483576744296 
1.935863905683614e-05 
-0.0001109268678382625 
-0.0002439540032866345 
0.0007846327294898967 
-0.0006095599697292225 
0.0006308785020982455 
0.0001880992427237639 
0.0004722726229450163 
-0.0002593862515155813 
-8.035895399338955e-05 
7.59209538758888e-06 
0.000188027882835623 
0.0001919716666071368 
-8.274262209801369e-05 
-0.0001690878118610533 
-0.0004462245300133329 
7.042676824201737e-06 
-6.937773762470317e-06 
-0.0009657792450642011 
-0.0001955981325394162 
-0.0001192183673277754 
6.408444330146905e-05 
0.0003789861870319936 
-0.0001506209219258954 
2.952815765947636e-05 
0.0003017031604064676 
0.0004866196744468708 
-0.0003669578369485992 
-0.0007165695034207842 
-0.0004452857209388425 
-0.0002337753398946456 
-0.0001587242822764222 
-0.0002472533814793709 
0.0001542260215268025 
0.0001067176121555223 
-3.572432858929946e-05 
-2.215947156288837e-05 
0.0004872666561877543 
0.0007383026833659943 
-0.0003996944563756615 
-0.0001991226481643831 
5.645302142632519e-05 
1.382079785527737e-05 
-0.0002105973150215704 
-3.708168064310887e-05 
0.000252583569410841 
-2.00699983940049e-05 
-6.910342912909217e-05 
0.0001405472191850371 
-3.745637344420245e-05 
-2.874062940596181e-05 
0.0007443033795245307 
-0.0001362539440627608 
-0.000480305573226569 
0.0001080830308574143 
1.757921503567391e-05 
0.0001989713921954802 
0.0001192823134434226 
4.979038989319752e-05 
7.350335283672376e-05 
-0.0001910306173246596 
-0.000214301503424358 
-0.0004236594641757679 
0.0001437153869967417 
0.001103307128162836 
-6.672822998950136e-05 
0.0005430087926314219 
-0.0001029295263094548 
7.093835738045592e-05 
-8.937968324886578e-05 
-0.0002205256189975988 
0.0003614886968986462 
6.412940950123748e-05 
-0.0002884816818985271 
-0.0001838966281617668 
-0.0001452871365125041 
-0.0002936017902264045 
-0.0001326327792172604 
-0.000806247479712932 
-0.0003788437433115408 
0.0002315743615119147 
0.0004217199378698727 
0.000196876529314607 
0.0007067512141043706 
4.708326891058366e-05 
-1.053175460408497e-05 
0.000173140529557926 
-0.0008261208787116792 
-9.764071898414127e-05 
-0.0001458369395109844 
-0.0002055781977637137 
-4.391797274050779e-05 
-0.0001368663182636169 
-2.382586949361909e-05 
9.180864808366343e-05 
-0.00104512839741296 
-0.0001505863650815503 
0.000132236806805479 
0.0001133192852084744 
-0.0004636280568464306 
-3.89281858202751e-05 
-5.242311727199905e-06 
0.0003464861208780373 
-1.899625575336811e-06 
-4.824276069695863e-05 
0.000237348100586627 
0.0002908101567284228 
-0.0002871431255958933 
0.0003296916175747088 
0.0003322434058616032 
0.0007564219796475199 
8.291874284261198e-05 
-0.0003443509860815171 
0.0002311304981466047 
0.0004973816155360074 
-0.0004995545182279176 
0.001200036797487582 
3.417767954921719e-05 
-0.0002590465745745333 
-0.0004527777603451677 
0.0001524578775149697 
0.0005504034364034742 
-0.0004404252870913334 
0.0008342567315758631 
-0.0003069601400864512 
0.0004295913159839682 
-4.85998418453682e-05 
-0.0001530046284678824 
4.530509118740718e-05 
-9.92760368608693e-07 
-0.0001487230411076339 
-0.0002397569941988519 
0.0008574000527710121 
-4.866155061932377e-05 
-2.96832512244284e-05 
-0.0002830900516227713 
-8.108951354870569e-05 
-0.0005001211660535632 
-0.000761297352901656 
-5.30218670524072e-05 
-5.637045762086533e-05 
-6.140032169444899e-05 
-0.0001613729588237267 
0.0002696975463651172 
-0.000128284722474313 
0.000706727629742206 
0.000353739799731966 
0.0002722614424274745 
0.0001486129602762446 
-0.0003367752887266242 
0.0003589840609932867 
-0.0001748587001612042 
-1.300478376122828e-05 
0.0004446639008683537 
8.387619221040816e-05 
4.015686120117046e-05 
0.0003132147918974622 
-0.00146047305984093 
0.001870548880681956 
-0.0001527023642817085 
0.0002330901509131885 
0.0003706609763627454 
0.0001408272958933463 
-4.075686697369549e-05 
-0.0002730644277574167 
0.0004400664376261038 
-0.0008730337153173422 
5.570167795670792e-05 
0.000141249176737618 
-0.0001673869223366685 
-7.465624640047783e-05 
0.0002169333929761058 
1.989761577880682e-05 
-0.0003825707316874464 
0.0002684249842202124 
0.0001571720471700885 
1.780350751414546e-05 
-0.0004650745815975219 
-0.0003268422471555766 
0.0001001378670472195 
-9.225856024419167e-05 
0.0001907187294776484 
-0.0003611089111034798 
0.0003358184140541459 
-0.0001904040333027674 
0.0001983317951759785 
-0.0005340720015232968 
-0.0001164520741720869 
-3.713017537840814e-05 
0.0006009091711145588 
-2.126182581476387e-06 
0.0001003128146856833 
-0.0002481656692104215 
5.735315859494179e-05 
0.0002905614881485128 
0.0001072380351127828 
-0.0001458267348502892 
-0.0006523131414646239 
-0.0001093391810987525 
0.0003014529186723795 
-9.197498170342408e-05 
-0.0005191274156224844 
5.44104223967743e-06 
-0.0001457499274241311 
0.000101409292002043 
0.0005499905810937742 
0.0006022668246001202 
0.0002204384131664712 
0.0001088690974102117 
-7.629992370804709e-05 
6.260208763737585e-07 
-0.0001214951064579785 
1.979898498323262e-05 
-7.057861408939342e-05 
-0.0001328652568733829 
-0.0006937018727546742 
0.0005893219972627244 
0.0002967449713889999 
-0.0003206736380968358 
1.117476670769202e-05 
-1.108648585946206e-05 
7.022922294742138e-05 
-0.0003149158635366887 
3.409832039156947e-05 
-5.86444664623879e-05 
-0.0001139871558560639 
7.369293739226494e-05 
0.0001345342241047835 
-0.000303486028870477 
-3.374821151692747e-05 
0.0003859904853908008 
-0.0007294049703595791 
-0.0001356358146590892 
-0.0001824277300992392 
0.0008030517959951634 
-0.0001127042292851955 
0.0004648439513826909 
0.0001336578075012113 
-0.0002645960875615892 
-0.0001523903798020643 
0.0002689167572108582 
0.0002335124389805389 
-0.000339754124947678 
0.0003456154314961252 
0.0005651671442847442 
0.0002066779437949855 
3.446639984268952e-05 
0.0001512871213549489 
-6.203938289680565e-05 
0.0001546244518529822 
0.0001152206920346879 
-0.0003177925949048856 
0.0001216622859456749 
0.0001880082923563831 
0.0006179829854003758 
-0.0003087151314793422 
0.0009514521571674737 
-0.0005070379315337415 
0.0001621310709091797 
8.648692440717841e-05 
-0.0003816450133610409 
-0.0004160854860904237 
0.0001938717782669098 
-0.0001376703154326196 
0.0004474249615718273 
2.94597714950448e-05 
-0.0002082653311746297 
-0.0002496574361242162 
0.0002135761924850742 
-0.0002172659259296738 
-0.0002445074458286281 
-0.0002329730231458171 
-0.0001479429061699495 
0.0002240996563368424 
-3.100628674724736e-05 
9.989111645813993e-05 
-9.576826905449473e-05 
0.0001108735961534583 
0.0004630810317857659 
0.0004246467125299791 
-0.0002122793234421031 
0.000220253785805914 
-1.947307629160561e-06 
-0.0004435391449914097 
-3.771234020542006e-05 
-0.0002217127185052118 
-3.791510880846664e-05 
-0.0001879843304134521 
4.383172465326749e-05 
-0.0005673033249435549 
0.0002170383705365103 
0.000312343884370191 
5.550883994004733e-05 
-7.734251683220008e-06 
-0.0004527482104298398 
-5.937358029127083e-05 
-2.620112742954822e-05 
0.0001431501786470023 
-9.558954962484482e-05 
-0.000152456449210273 
0.0001284520171239494 
0.0005546041387768287 
-0.0007342984242133983 
-0.0002839727959182352 
6.494554179241229e-05 
0.0006172319980126849 
0.0003298795021036944 
-0.0001035473296233541 
0.0003804253169379264 
0.00023746468276187 
-7.284160220100299e-05 
8.070255491900447e-05 
0.0001046452393963164 
0.0001610820895726083 
0.000109015620937539 
-0.0004392701242498002 
-0.0004635332232369194 
0.0001861992368979722 
-7.331766619337495e-05 
0.0001958163664371704 
-5.804001097910416e-05 
3.096393202765172e-05 
-0.0004506166193843367 
-0.0001492624577285831 
-6.844781138726376e-05 
-0.0001655971949140401 
-0.0001693811430822211 
-0.0001791546536943759 
0.000472370282725213 
-0.0003300825771905861 
0.001181304818901457 
0.000835774434004314 
-0.0001048388478450579 
8.638697664387787e-05 
2.166253581597172e-05 
-0.0004916887733640324 
-3.955493685405297e-05 
6.369024583492305e-05 
-2.647243594662032e-05 
-8.61341170607137e-05 
4.110650024307218e-05 
-2.337951774509482e-05 
0.0002364471182613207 
-6.118254809824399e-05 
-5.299840200422397e-05 
-0.0003079861285387474 
0.0001094595458108633 
0.0003494349823424461 
0.0005994363695168732 
2.01260731341541e-05 
0.0006730159360318255 
3.888088997518364e-05 
-6.977766240606862e-05 
-0.000559860006779016 
0.0006405931285607121 
0.000102774013686344 
-0.0002543834231604585 
-0.0002520898775923105 
0.000182711855689954 
-0.0003856804100429401 
-0.0001404485507646956 
-0.0004755528656693289 
-8.932579786433339e-05 
0.0005217196889295472 
0.0007949595854774629 
-0.0005590188140622809 
-0.000229015457244768 
0.0002319149644874348 
-0.0001643750444519109 
-0.0001704678636045156 
0.0002489251486033298 
-0.0004475460868662065 
-6.735952180543164e-05 
-0.000338065956694404 
9.829941232746493e-05 
-0.0003330914200129779 
-0.0001600426324545333 
-1.719646810149851e-05 
-0.0002107285896777918 
0.0004319877095211464 
0.0002268972129695088 
0.0002702884977690417 
0.0001948069777778588 
-0.0004608687417139088 
-0.0003538302911379603 
-0.0007121369738748499 
0.0002594280986769253 
0.0003310289540362074 
-0.000226308257340696 
3.331429710744277e-05 
-0.0001662599288786032 
-5.440827256336073e-05 
8.101151933633981e-06 
0.0002300385988565829 
2.43311077285923e-05 
0.0005126539184206857 
-0.0002100666688430273 
0.0005942255168691211 
0.0005868493934265593 
0.0003123690047841539 
-0.0001017656780234398 
-0.0001175374583386411 
0.0001627670366510656 
-0.0002634724871277231 
-0.0001116557422657049 
-3.360612499945887e-05 
-3.124977410895567e-05 
0.0003127321146897718 
-0.0001893840390384929 
0.0001989988110846355 
-0.0008399760110163617 
0.0001309648266391579 
-0.0001067095333358582 
0.0001667636882323282 
-1.73451088403836e-05 
-0.0002576568144882887 
-0.0001404107787422566 
0.0002578110940348557 
0.0001026913913538588 
5.325123778590927e-05 
0.0003089834386300527 
-0.0001643811179696671 
0.000360148138767453 
6.641265006539047e-05 
5.515669787920351e-05 
0.0001483557288746248 
0.0001042449769656194 
-0.0002574552920294862 
-0.0005666395746836582 
-7.194221136300929e-05 
0.0001377618584345369 
0.0001445680566909744 
0.0007270359268530095 
-0.0001077893129191456 
-8.202941028820866e-05 
7.399479163049536e-05 
-4.334900298177713e-05 
0.0002203582857365656 
-0.0002541113593566352 
-0.0002181624097298749 
6.766864068717183e-05 
-1.343120454576263e-05 
-4.742816014683562e-05 
-0.0002381689534316859 
3.457732462671005e-05 
0.0005177060410820822 
0.0005642946588975931 
6.202896985340615e-05 
-0.0002328563055396592 
6.330599932712075e-05 
0.0001758687208460615 
2.259943059570589e-05 
-0.0002970068120908481 
0.0002741559189603573 
-0.0004447991565206392 
0.0007054815112911234 
8.563383220632445e-05 
0.0001236982801843379 
-4.058210631544974e-05 
-1.03210497033455e-06 
-6.238979241787545e-05 
0.0002541365343823457 
-0.0006855141193629411 
5.091309961194762e-05 
-0.000140828632054864 
-0.0001188503318551763 
6.033745214477256e-05 
-1.256659508160924e-05 
-3.508533520655675e-05 
3.832721228768937e-05 
4.01357004135344e-05 
-3.002135621836766e-05 
-7.167738051699888e-05 
9.37694455126336e-05 
-0.0003040267713219129 
-0.0001856206266786115 
0.0002873975709441042 
-0.0006403067583807899 
0.0001007048021528073 
0.0002437198107934956 
0.0001245896922698605 
-7.261442523622902e-05 
0.0005790852999227086 
0.0003691451239134294 
-0.0002064524341002571 
0.0001712130971144249 
0.0001190417935762063 
0.0001768051235426448 
0.0003211820529832722 
0.0001337906674595044 
3.291181426762698e-05 
-5.035689214945325e-05 
0.0003785324121400603 
-9.467238859806566e-05 
-0.0005158614973928393 
-0.0004180527854323904 
0.000243558656970727 
-0.0006611986189049299 
0.0002015279643330743 
-6.973797715472465e-05 
0.0001051129932946415 
3.115425112717933e-05 
-0.0001590214420606399 
0.0001259765936412877 
-0.0001477959309206135 
-7.116313936284816e-05 
4.890808264062868e-06 
0.0003102092847059972 
-9.584743520831511e-05 
-0.0005829306152258061 
0.0002658357163001487 
2.876707672772421e-05 
-0.0004225018343498079 
-0.0001295869691585825 
-0.0002827733395058818 
5.645487755573193e-05 
6.906376211392558e-05 
-0.001027422145569511 
0.0008250242902705072 
0.0001279413901617752 
0.0004080779670768157 
-7.419529406194552e-05 
-2.76679278558185e-05 
0.0003352147283552891 
4.016221836302291e-05 
0.0001432479358215148 
0.0001980105384324276 
0.0003825798714860136 
9.181092806683632e-05 
-6.272391355626272e-05 
0.0005091837255404603 
-0.0005394145017098259 
0.0001093898463420229 
4.08132404323827e-05 
4.366882050260714e-06 
0.0001485964824423663 
0.0002367862054087716 
0.0001934343676533567 
4.456690788146307e-05 
2.203879064946625e-05 
7.101970337315039e-05 
3.429421251214681e-05 
-5.815972644322821e-05 
-4.953895396030577e-05 
8.755852019652155e-05 
0.0004706260053314312 
5.128870701140992e-05 
-0.0004967350704417004 
-0.0004227951233365042 
-0.000304834413264874 
-3.643812582508254e-05 
9.239794925276028e-05 
0.0004169073351521683 
0.0007848107487382749 
-0.0006234322809651484 
-0.0001180827150735252 
-0.000182964985156368 
0.0003354100555834669 
-0.0001293498661738857 
-0.0002132129709846798 
-2.758239994682123e-05 
0.0002209386050168127 
-2.706175353260324e-05 
-0.0002011974767329293 
7.548246495831751e-05 
-4.295233923004335e-05 
0.0002966035096733813 
0.0002934854812682778 
0.0003130558478095103 
-0.0002744035480067897 
0.0002222707385307671 
2.269197850038705e-05 
0.0001616637830874356 
0.000147495081399847 
0.000226851566495763 
0.0001886807061786399 
8.131986233759815e-05 
0.0002662655452987133 
-0.0001167077475271755 
0.0001100498027916734 
-0.000611602960844466 
-3.833898295767494e-05 
1.426141657956692e-05 
-1.15163438514184e-05 
-0.0001146246649538716 
-2.89065079438137e-05 
7.874300154999757e-05 
-0.0002626164060003601 
-7.711624525642113e-05 
0.0001159008159120754 
-0.0002663178928554222 
-0.0001065842097415276 
-0.001079310128683814 
0.0009703692685181122 
-0.000108393274637062 
4.200235524635637e-05 
2.763181311864748e-05 
0.0001190827521030812 
0.0005748581596654187 
6.144264311708374e-05 
-6.697655964250547e-06 
0.0004324536319491851 
0.0001355918569986863 
0.0002370622956745661 
-0.0003608389508583485 
0.000109656580584153 
-0.0002918999632190748 
-7.372805294393348e-05 
-0.0001743823579820129 
-0.0001693920597941512 
0.0002031538048389868 
0.000190379319178825 
6.487294999574673e-05 
-0.0003689525315519511 
8.76730322132863e-05 
-0.0001699579981849104 
-8.423832541853442e-06 
-1.278878930566249e-05 
1.878602511050193e-05 
-8.015429403820694e-05 
0.00019289979964061 
-0.0002557546152174649 
2.696621819073691e-05 
0.0003013418033004987 
-9.763220400106314e-05 
-0.000185839983148369 
-0.0005264871786646892 
0.0003205780199940627 
0.0001460828966673947 
-0.0001998396578191423 
-0.0003096680454622505 
0.000356464255364898 
5.699171748968292e-05 
-0.0004182607009248222 
-0.0001231913148024867 
7.060938297306282e-05 
0.0003404465106967336 
-0.000634420890731336 
0.0003559673081393062 
0.000930434313006205 
0.0007794021817742741 
-0.0003527302684647497 
3.588263105593087e-05 
-0.0001691389337865357 
-0.0002295756778439705 
0.0004392872952745653 
7.512788726627173e-05 
-0.0001484760634619363 
-0.0004309299123253937 
-0.0001469502050438717 
-3.344725084090273e-07 
0.0002174636326338056 
-4.46036471315486e-05 
8.350589693028668e-05 
3.882605403575424e-05 
-5.926957935448487e-05 
-4.857852410178173e-05 
0.001299382805536071 
-0.001063344829462411 
-0.0003187761231294852 
5.824829598465142e-05 
0.000259905415966936 
-0.000335986453916797 
0.0001478630682540332 
-5.822169448504847e-05 
-4.128912129255802e-05 
0.0002107393803637371 
-0.0006031524396061674 
0.0004012127679481895 
0.0002073825607527161 
-0.0001476572655150333 
5.090151844077874e-05 
0.0001620137438376837 
-0.0001780952883423018 
0.0002963230618090047 
7.04088085798865e-05 
-1.253278115276323e-05 
0.0002301866796752269 
-2.929158794404337e-05 
-0.00109952397649792 
0.0004932819740353788 
-1.892497895287855e-05 
0.000238221121869227 
-8.263167364236673e-05 
0.0003796569900602228 
-0.0001388016874849362 
0.0002410309253426944 
0.0002848090911996455 
-0.0002706811900085721 
-8.835160525645212e-05 
0.0002073058209360194 
-9.958862613443926e-05 
-0.0002365612370322407 
0.0001845968134072752 
0.0001975777364967034 
-4.746349562122628e-05 
-0.0003763947351507527 
3.048393091749886e-05 
1.304398648210933e-05 
-7.920685246937935e-05 
9.984659902516224e-05 
0.0002157764995162093 
-0.0002138995315078433 
-0.000380514373514749 
0.0003327677075852423 
0.0002849661845485325 
2.996999468970185e-05 
0.0001261328197454799 
0.0001750591640634966 
2.439973948949619e-07 
0.0001732244995861262 
-0.0002518463585099977 
-0.0002421325315931845 
-0.0003029108380458378 
-1.570320880348296e-05 
1.14785963551753e-05 
0.0001377252638327004 
-9.584576480374178e-05 
0.0005151080226451927 
1.943620723228364e-05 
-4.873161501309428e-05 
-0.0001680347496557731 
0.000385534740182845 
-0.0002939980310835017 
2.36606438728128e-05 
-8.685321956929921e-07 
-5.171522893298635e-05 
-0.0001273993404244861 
0.0002058886210816236 
-0.0001061419647988904 
-9.549502544331027e-06 
0.000370487007442303 
-0.0001219378655274769 
9.433974214454187e-06 
-2.597037163550488e-06 
-3.207629805040752e-05 
-0.0001996614600186933 
0.0004856829551583796 
-0.0001829413513943832 
0.0005481458045565928 
-0.000863315947705983 
0.0001052728622337151 
4.124925254942913e-05 
-0.0001370140708731704 
-0.000118286831943512 
-0.0001200801719424332 
0.0002575233220054777 
0.0003269709385295708 
0.0003737123650311707 
0.0001300701016306026 
-4.076769294691156e-05 
7.873906578320375e-05 
-9.318121191447433e-05 
0.0002693880614733909 
-0.0009733979243078935 
0.0006247343719334569 
-0.000206414949131208 
-1.487284286441806e-05 
-3.37475722804158e-05 
0.000445802170219139 
1.519879787712832e-05 
-0.0002574855784836834 
-0.0003398204360281997 
-0.000442351766101433 
0.0004605449052687244 
-0.0001540284949130246 
8.329360863822656e-05 
-0.0001971491400878361 
0.0005525450698917072 
-0.0001275276737561339 
0.000443448109464821 
-4.374265991934637e-05 
-0.0002629073485795049 
0.0003611966577824974 
-0.000970015153504438 
0.0003399308810638424 
0.0002503025727290014 
2.399849057694384e-05 
0.0001696259540686122 
0.0001506586212908806 
-0.0002337563739785025 
3.91812817821725e-06 
2.623295989518689e-05 
8.025268770581812e-05 
-0.0001588232269957751 
0.0004328764981399513 
8.982785937548969e-05 
-3.481052014697696e-05 
-0.0002186638627196174 
0.0001385008385114522 
-4.616405804278044e-05 
-0.0003816438257662867 
0.0002326318939459773 
-6.425068215805085e-05 
0.0001180068151918813 
0.0001288355615874234 
5.827928475028954e-06 
-0.0003231107591903487 
-0.000139190897916932 
7.41253162597252e-06 
-7.540293554204269e-05 
0.0003395232872712787 
0.0002866391339736408 
-1.838227033197232e-05 
-5.27317784800196e-06 
-0.0007015796842159462 
-0.0004642150316266701 
-0.0002225706380459814 
1.080859931602805e-05 
0.0003098995684004372 
-0.0001106471177439236 
0.0001023567096348892 
0.0005802517767718344 
0.000418768414512978 
5.081296677451322e-06 
0.0001417955420560569 
2.406357430526819e-07 
-5.976375903872738e-05 
0.000234760616700993 
8.627744970449063e-05 
-9.547244082632481e-05 
-1.220646358978039e-05 
-8.982000281319232e-05 
2.789393846201191e-05 
0.000417941137344152 
7.3380428010278e-05 
0.0002064911567168318 
0.0001975426426823286 
0.0002778473879087659 
9.618306881511169e-05 
-0.0001641763321989647 
-1.412477984094044e-05 
-0.0004799253189630354 
0.0004421857329361745 
0.0001710795710186413 
-0.0001981777542822043 
0.0002203749877252525 
0.0002141688238893203 
3.031270333359277e-05 
-0.0003224091383943849 
0.0001237049781137925 
0.0001522692220567378 
1.254154661884298e-05 
2.672110153266141e-05 
-0.0002451899312279854 
-0.0001289386817865873 
4.768427643229855e-05 
0.000510416210871624 
-0.001644571078005148 
-0.0002761942308954441 
0.001184473646750899 
-0.0002765520806965666 
-0.0001409754467181883 
0.0005205041928915443 
0.0009109660425081607 
-5.748186670719625e-05 
-2.40982675827188e-05 
-6.861793093174463e-05 
0.0001591805793614322 
0.0001274724625134947 
2.605108662050715e-05 
-1.712047649253952e-05 
-2.818421864995414e-05 
3.181155073944227e-05 
-0.00022817835650473 
-0.0001148833169842497 
0.0003059754546193944 
0.0002196469103188865 
1.733390924540756e-05 
-9.535141008449853e-06 
0.0002322865270283845 
-0.000189169550997897 
-4.306561445556231e-05 
3.928771007702506e-05 
-0.0001270484188712633 
-0.0001317337220786801 
9.328076874422975e-05 
-0.0002434365985548753 
-9.991722418661275e-05 
-0.0001940663137805262 
-0.0001472834979979771 
-0.0003579471097081396 
-5.699609497905912e-05 
-0.0001906331823025828 
8.555102991372687e-05 
0.00012842053394836 
-0.0003095743788410853 
0.0006072913480560323 
-0.0003746841237127456 
-0.0001311686953214747 
-8.260539236453255e-05 
1.937181879063194e-05 
0.0001093982101618988 
-0.0007748068682320274 
-1.385537314163804e-05 
0.0005751000149807948 
0.0004012466208233819 
0.0001757795832107785 
-0.0003839034156771649 
0.0001461726260950609 
0.0001682678822169861 
-0.0002494087799049778 
0.0004551065755176025 
-5.900871191218355e-05 
-1.386188300592938e-05 
2.394177516788497e-05 
0.0002003363378571866 
0.0001315148176823903 
0.0003559954787906851 
3.685351539108674e-05 
-0.0004856925075708862 
2.110297067858293e-05 
-0.0003357339207912444 
-9.823455734113176e-05 
6.477414302372557e-05 
0.0001057717128364955 
2.604396439432869e-05 
-1.026159097887094e-05 
-1.442930746540395e-05 
0.0001107093259893558 
-0.0002029692679168865 
0.0001168375869334719 
0.0001480831466909681 
0.0004613479462015298 
-2.836264331830025e-05 
-0.0002337782048818394 
-5.502895019749653e-05 
-4.190340157131848e-05 
-6.270446341152961e-05 
4.399835509385938e-05 
-6.138579611136671e-05 
0.0004324516084157566 
1.487900032949143e-05 
-1.268800173730219e-05 
-3.226172677042669e-05 
-0.0001750135601039268 
-0.0002874178034118895 
-0.0004507531249981665 
-0.0003678302110975051 
0.0001014924200300166 
0.000499327698592135 
-6.568415243852275e-05 
0.0001757350586565343 
0.0007924793254582504 
1.580261659519691e-05 
0.0001766415591096529 
-0.0002772403523128193 
-1.3169804763497e-05 
-0.0002569519628022819 
-3.169129024921507e-05 
3.142841765019725e-05 
-0.0002002593810291951 
1.993349795968322e-05 
5.738747782179814e-05 
0.0002245122822590395 
0.0003687363063864235 
6.354825646894104e-06 
4.730076245206032e-05 
-5.200686028503952e-05 
0.0003505053575562948 
-5.992334774050125e-05 
-5.335775074520032e-05 
-0.0003658232971804829 
0.0002704450953513516 
-0.0003599885293543051 
-0.000174217776578228 
0.0001659928418350241 
-0.0002334870558013307 
-0.0001840850465282872 
-0.0004722203163954256 
0.0002313446211640985 
-7.138548413804584e-05 
-0.0001534819062829458 
0.000353699398343024 
6.021817817660299e-05 
0.0005522084993370768 
-0.0001424980533214083 
0.0001318862391414944 
-3.95433706953978e-05 
8.043184958932955e-05 
8.153513746149783e-05 
2.613914289546448e-05 
-3.915681094667167e-05 
-7.669427735130371e-06 
-0.0001281205480381471 
0.0001997097463331113 
6.289074201223245e-05 
-0.0003863211323843717 
-0.000179273353358805 
1.186221081612195e-05 
0.000821689267232718 
4.944121932363309e-05 
1.988230635768293e-05 
6.093280923884608e-05 
6.530874007644784e-05 
-8.297337738101254e-05 
4.444615000242821e-05 
-8.649742665060633e-05 
0.0002928394335826864 
-0.0001604505195195843 
-0.0003667762203652856 
-6.583359416525673e-05 
-0.0002055368998343104 
-0.0004571763831422087 
0.0001003961972362267 
-6.509007640652115e-05 
-0.0001141453550140927 
9.778192082836694e-06 
0.0001441695818817731 
-0.0003339164271513045 
0.0002190739641611066 
0.0004435221920309722 
0.0005468069786358945 
-3.10378068936424e-05 
-5.02792048743736e-05 
0.0002487238772553623 
-0.0003543965104198279 
1.998873612436223e-05 
0.0002956779143310355 
-0.0002373005246043986 
-0.0001281330252605326 
-0.0003294649835661192 
-6.815894157719631e-05 
-5.167005296788056e-06 
0.0002300188586270894 
0.0002892057694202585 
-0.0002825468167492413 
-0.0001496279054229781 
-7.067394186213115e-05 
-7.488267710728913e-06 
0.0002800159035175352 
0.0005658964173411466 
-0.0006271218281790108 
8.110082976000876e-05 
4.796251691787222e-05 
-0.0002695993965955643 
-2.057461740047815e-05 
0.000396839195877177 
2.993699633236803e-05 
-0.000217964360451109 
9.310423831162555e-06 
0.0001396450786555389 
-3.614878713352952e-05 
-6.579208530492053e-05 
0.000757104813118527 
0.000670520027842292 
-0.000167202058568866 
5.395898621691413e-05 
-0.0002448043685011885 
-0.0001555880797119382 
-6.306635305358184e-05 
-0.0001740051075175694 
-0.0004597941391159875 
-5.163491728361043e-05 
0.0001362639753080522 
-6.268590694446206e-05 
0.0002036270896085353 
-0.0002072432830420943 
-5.004093478091893e-05 
-3.181407426019552e-06 
0.0002642698316979922 
3.68900877870603e-05 
-0.0002543513026649653 
-0.0003626715768266431 
-0.0001764236069911683 
0.001514100324360346 
0.0006941981846381004 
-5.082554762619207e-05 
4.161955243527063e-06 
-0.0005108506641079781 
-5.183375695993164e-05 
-4.806488011964e-05 
0.0002231134024742056 
-0.000140261203845623 
-0.000114854735398159 
-5.851990965196645e-05 
4.675119676835329e-05 
0.0003793643424890919 
-0.0001612781708556601 
-0.0001094602109356595 
0.0001947917417151391 
-0.0001482142395031276 
6.914151136822827e-05 
0.0003444384828576589 
0.0001559207794055095 
-0.0001179342471875341 
-0.0001628218825485295 
4.573840113994545e-05 
0.0001064323677084484 
-0.0001325363728768012 
0.000775421084333149 
-5.873885118565919e-05 
0.0001684619695017243 
-0.0004092682376809351 
-0.0001499648813560636 
2.636330274912992e-05 
0.0001654304522663345 
-8.628347184785403e-05 
0.000125721854555003 
-3.482998860661197e-05 
0.000853741945973936 
-0.0003190438918879591 
-0.0003906940067249293 
-0.0003068558977072896 
0.0001672215908180706 
-1.370526221266274e-05 
-0.0002330225452730868 
-0.000101285167649935 
-0.0002023011790341999 
-7.165451583696864e-05 
0.000251412435431857 
0.0001415501115820144 
6.518248225481956e-05 
-1.564601842315825e-06 
-4.220720617880157e-05 
5.148825897747606e-05 
-0.0001911189058643989 
5.227813893812828e-05 
-0.0003738614953994726 
-3.669958450189058e-05 
0.0001299606117312386 
-9.656557911561639e-05 
0.0005275210168738643 
-9.874574044699081e-05 
0.0003695430568341215 
3.13686938410974e-05 
-0.0002560131414399991 
-0.0002145369269703302 
-7.552670803020893e-05 
0.0009669104623506053 
0.0001186061451026736 
-0.0002011793694060313 
-9.814544389796319e-05 
-8.261328683888996e-05 
-0.0002692193942918373 
-4.826909224267397e-05 
-0.0001934465434704978 
-0.0003835086290878843 
8.082621325588191e-05 
-0.0001637334923758399 
0.0005519133518717073 
1.637350201011587e-05 
3.761415200009417e-05 
-0.0003071681641794364 
-6.372876354594289e-05 
1.205896912802458e-05 
6.536285996203976e-05 
-0.0002488925113373104 
4.335045027445654e-05 
-0.0001193006507132514 
1.643241352179555e-05 
2.058858121265393e-05 
1.375267932610164e-05 
-3.356950414751961e-05 
-0.00023255069304327 
0.0001862407036032321 
-0.0001904612657994998 
0.0001830904908720664 
0.0001873281006413595 
-0.0001844743097488494 
-0.0002862061264347172 
0.0001616513173218803 
0.000388129956880938 
-0.0001463026374491564 
1.753236693633595e-05 
-0.0003310672080405808 
-2.09078651284487e-05 
5.036557281402365e-05 
0.0003407146719248837 
0.0001163743227399567 
-4.499247320163726e-05 
-0.0002659200341631877 
0.001058532417569731 
9.600348333865032e-05 
0.0001198491894097843 
0.0004692196201255107 
4.914505269904948e-05 
9.661599129893529e-06 
-0.0006374093407294694 
0.0001310277756626494 
0.0006151932098060779 
-2.821572231971068e-05 
5.842188498119394e-05 
-0.0002539304790001266 
0.0001661392101929586 
-0.0002650846847250765 
-7.115951169428787e-05 
-0.0002561960012406371 
0.0002845164133889361 
-8.056558396959826e-05 
0.0001722330535607194 
0.0001689371393206905 
-0.0004128980233968332 
0.0004875558425113079 
0.0004591475363331843 
-0.0001539135965411598 
-0.0001687837921366978 
6.949325992969096e-05 
-0.0004335270160036065 
0.0003537330031708451 
0.000117381360524365 
-8.417903296411799e-05 
-7.885890383924612e-05 
-0.0001611512763927393 
-0.0003018343473253279 
4.828561567019632e-05 
0.0001050994953357899 
0.0002919966847794916 
-0.0007149257299993637 
6.20374288711806e-05 
-2.893592638833406e-05 
0.0001705427769180646 
-0.0003923565592733492 
-8.746866182504356e-05 
7.09589068083217e-05 
-0.0002846001836695714 
-0.000161662498390965 
-5.008464424644022e-05 
0.0001665339289541495 
0.0002585448329049961 
0.0008039110736090241 
4.215247690680229e-05 
-3.764006823371486e-05 
9.20434422458313e-05 
0.0003069698707861074 
-0.0002132722086085128 
-7.247822371293397e-05 
-0.000300643159519639 
5.842245534553667e-05 
-0.0001360062692397011 
-9.112982298550039e-05 
3.900062262918275e-05 
0.0003917317671660124 
-0.0002837807788306873 
-0.0002127265738440974 
0.0005646279369999544 
3.480331464408323e-05 
-0.0001258537663050165 
0.0001675472426709483 
0.0009194156298837382 
0.0002142848451741854 
-9.205027884479873e-05 
-0.0005432468069194087 
-5.909053996580143e-05 
0.0002753711059666727 
3.776091337182943e-05 
0.0004009932367597324 
0.0002005229829160453 
3.332513068739958e-05 
-0.0006045836624111964 
0.0001673147149462685 
-0.0003529888476769215 
8.116493103733052e-05 
-6.620035062602855e-05 
0.0002529150338294277 
-0.0001474249663572976 
0.0001991810781560597 
-1.452482832292661e-05 
7.372339750100874e-05 
-0.0001598790066093362 
-0.0001001521413834964 
0.0001230888609842043 
2.045425285257236e-05 
-2.996486313194916e-05 
0.0001752984379894406 
-2.539556611374359e-05 
-0.0001153522689712639 
-0.00045811531647134 
-7.587262809462423e-06 
-0.00017741270019284 
0.00090525433763931 
0.0002680994101159345 
-0.000188258559147925 
-0.0003088792542131184 
0.0005714380925097162 
-0.0001801651743769414 
0.0006117926615832369 
2.309211609691062e-05 
-7.932258868573666e-05 
4.200588460915431e-05 
-0.0003379225363135725 
-0.0005734773316763254 
6.864218657339836e-05 
-3.704443047039663e-05 
-4.26027416164751e-05 
-0.0003988333163023006 
-0.0001251848690979392 
-0.000180149741091138 
0.0002772587020715497 
0.0002815971664065395 
-0.0002172124832041299 
-6.811395120074827e-05 
0.0005169005826376971 
-4.180340176298128e-05 
-0.000324127005130533 
-3.395789190297431e-05 
0.000262097604195039 
-7.755631193109551e-05 
0.0003202320190137246 
-5.616783875019173e-05 
-0.000260267314577977 
-0.0001013798683527466 
1.539293324573798e-05 
0.0001455366009708102 
0.0001928157116824128 
-0.0001197394013733726 
-0.0001911438035008151 
0.0001577985316437836 
4.288428637986206e-05 
0.0001353615687059152 
-7.900056012361337e-05 
0.0008137700835860451 
0.0002786797419240099 
-2.089877091779992e-05 
-2.049277106008992e-05 
0.0001208614396601442 
-0.0001102829089234561 
-0.0001490395186606735 
-5.389912433522862e-05 
-2.261865042459201e-05 
0.0002671476664378219 
-0.0001592308406936493 
-5.585313529530446e-06 
-0.0001455193666343899 
-0.0004064414001171405 
-5.628496231967322e-05 
0.0007019272272730838 
-0.0006899618831259455 
-0.0003272854854580312 
0.0004896134244652729 
-0.0003002280237573815 
-5.928894813309758e-05 
9.648370727320305e-05 
-0.0002583668407439742 
-0.0001513747158337661 
0.0001227648940631544 
0.0003917731272206048 
-9.950442254543792e-05 
0.0003669627336670893 
-0.0001379579693578273 
-8.731713866355727e-06 
0.0001364686155838166 
-7.912701474066571e-05 
-0.000110498214577024 
-0.0002605713689867797 
4.068583864302444e-05 
-7.88353475700898e-05 
0.0002525913597178601 
-0.0006895421760357444 
0.0001037557131469384 
0.0005664220321905296 
4.591531066649126e-05 
1.593331882308836e-05 
0.0001438355625651169 
-5.074918968264208e-05 
0.0002400957638793938 
-0.0002406442799051867 
0.0001284476812912258 
-9.732195288710733e-05 
0.0002765298094975708 
-4.007523983668577e-05 
-0.0004306868189917893 
-0.0003757313658584727 
1.504937080575279e-05 
0.000702438821464767 
7.104671174596648e-05 
0.000860110369619668 
3.997956714211648e-05 
-0.0003710113029595288 
-0.000259562768473152 
3.211944863272792e-05 
0.0004964802222489692 
0.0009286321570598401 
-0.0001853763461657349 
0.0001229751119528263 
-0.0002118702771679668 
0.0002536527110130714 
-0.000368587307309267 
0.0003364330202117725 
-0.0001665644774611192 
0.0001509596941157936 
-0.0001571937036645508 
5.709663131404983e-05 
0.0002205519888158976 
-0.0002052192110312362 
-0.0005239264534811972 
0.0002167700699394674 
0.0002844784122198131 
-0.0001761636229078633 
0.000120449990269463 
-0.0004136498567810682 
-0.0001349087170887474 
-0.0001750158954171367 
-8.225187436502429e-05 
-0.0005749608003428424 
0.0001685631066109158 
8.591472351095048e-05 
4.3765671485766e-05 
3.89006096411432e-05 
-9.906963760317421e-05 
0.0005100252292806922 
-0.0001212597167551584 
0.0001492257931409528 
0.0003233112567637771 
0.0001752330817352299 
2.355483632829988e-05 
-3.068073589980116e-05 
-9.785310301604509e-06 
-0.0003340123320995574 
0.0002421338227306186 
0.0002552853395350299 
-4.336555285732432e-05 
6.933913114876395e-05 
-0.0001056001158436677 
-0.0001343425152343877 
-0.0002631821066320316 
0.0005332878267642946 
0.0002023862065912832 
0.0003737264194124807 
-0.0001253160772722009 
-0.0001140689992820005 
-0.0002200970515430086 
-0.0005712236187485804 
-5.175612534634346e-06 
0.0001472047244502599 
-0.0002174812224131515 
-0.0002586332956597437 
-6.148472322813662e-05 
6.734999670644448e-05 
-0.000295956442749921 
-0.000129957951614813 
-2.972901984086538e-06 
0.000765729749606121 
-8.547019362147066e-05 
-0.0005902335352993598 
0.000374690549276799 
-3.87052947104528e-05 
-0.0001495814105720621 
-6.923785020861826e-05 
-6.850135083736921e-06 
3.250136133856504e-06 
-9.27245326867077e-06 
-0.000131371318705833 
-0.00027143684452489 
-0.0001651866046978553 
0.0005093190656308428 
0.0003061938672913218 
-7.125923561849424e-05 
0.0002994585575575767 
-7.281147923843441e-05 
0.0002964345595436911 
-0.0002930161449295232 
0.0003374869060111526 
0.0001382664799699617 
-0.0001036613063876724 
-0.0002018737368313014 
7.960991125829842e-05 
-0.0005527463568809801 
0.0004274409601947728 
1.2503160733703e-05 
0.0001311686155269471 
-0.0001223326111110814 
3.928254921303711e-05 
0.000149749161066012 
-0.0001367262566897651 
-0.0001186607662411641 
-2.333777732326301e-05 
0.0002492180561774317 
-1.688599347622355e-05 
0.0004894121854086454 
-0.0001181444412229638 
-0.0003734561719040201 
0.0001564818805245983 
0.0003915822122481596 
7.427607894486008e-05 
4.777607780237665e-05 
-0.000225866877794455 
0.0001252330999869839 
-0.0001526788057194939 
2.776415284373432e-05 
1.031086996180185e-05 
-0.0001873204531197117 
-5.095919459719094e-05 
-0.0001733991396573174 
0.0007451982346724449 
-5.954854942682592e-05 
0.0002864822743527347 
-0.0005047840829381157 
0.0002486440138617213 
-0.0004080468445840913 
0.0001442191097166309 
0.0001657340293461597 
-0.0002392646985147843 
5.456973869861946e-05 
6.194770668957297e-05 
0.0001511779049556413 
6.87516348479109e-05 
-0.0001494676714585827 
-0.0002321680694663033 
-0.0002423677379429286 
0.0001208921404815565 
-0.0002893931213040335 
-0.0005164631440616439 
-6.264678283388541e-05 
4.552157294133968e-05 
-0.0002114908297127877 
0.0001111646442381885 
-0.0004084334268680491 
-0.0002113667894035455 
0.0001768149037319417 
0.0001519173171660378 
0.000247078851987223 
2.427492369305718e-05 
0.0004267264812344692 
0.000207166385198647 
8.844081457372965e-05 
7.472467258991199e-05 
0.0009533897215032765 
7.756827847457181e-06 
-0.0002792257152818981 
-2.677677261447233e-05 
1.066415758647714e-05 
0.0001552860973382229 
-2.669271565429029e-05 
-4.182239889398964e-05 
-0.000473145278194738 
0.0003360737141903029 
0.0004407702932806502 
0.0004991512832776482 
7.412603817404318e-05 
0.000482282811339848 
7.676368608705715e-05 
-0.0003182106079580278 
0.0003408543287407946 
-0.0001122440300468847 
-0.0001151279231440325 
-5.631897256812177e-05 
-0.0001628864144325412 
-0.0003278782635751055 
8.271295052247086e-05 
-0.0001190300976181003 
-3.034777279653947e-05 
2.652049002540539e-05 
-1.428294885882678e-06 
0.0002490565454685055 
-0.0004407260904689425 
-0.001100276928417096 
0.001065184754474858 
3.658412938474725e-05 
0.000352655023358079 
0.0002651924090357274 
-0.0001274176288395678 
4.915314572531987e-05 
-5.519146810353837e-05 
-7.847166179948284e-05 
-0.0003288292971512632 
-8.959955127872029e-05 
-0.0006315000196758328 
-0.0002652546141110835 
0.0001671969552541708 
9.297890005778043e-06 
-0.0002729892066112847 
-0.0001122515940284486 
0.0002648622335172443 
0.0003561729236189979 
0.0001177518679192065 
-0.0002937394433340378 
0.0003273948183322389 
5.389099442287593e-05 
-3.156924712892417e-05 
0.0005424086004673625 
0.0004321359065436084 
3.257685558245527e-05 
-0.0001480712546454404 
5.809209753822303e-05 
0.0002565904287721867 
0.0002056250972579274 
5.645256472496033e-05 
-2.536984176993478e-05 
-0.0001315082684887033 
0.0001248405867261574 
-4.462554160332852e-05 
0.0002008124315718217 
-0.0003908815727158421 
-3.89317644021622e-05 
8.801973905141123e-05 
-0.0001218978421651928 
-5.481246378503783e-05 
-0.0002907679950344975 
2.952303751395028e-05 
-0.0003479704389173316 
-5.965383455800938e-05 
7.463382321557903e-05 
0.000178952750034287 
0.0001905122794664576 
-0.0002126220570403743 
-4.513288611070653e-06 
0.000168341334778526 
0.0005168962275888652 
0.0001620235603439305 
-0.0006076206460369082 
7.372343032571412e-05 
-0.0001252761161370103 
-0.0003031985967662829 
0.0004463180097327125 
-0.0001745769025996474 
0.0002242985591930311 
-2.643142684046244e-05 
3.288695846710049e-05 
0.000212565554022882 
-0.0001404378585608205 
2.685069788528608e-05 
-4.310925406408391e-05 
0.0004340742544551281 
-0.000249990891794008 
0.0002425844464114801 
-0.0003796504919150985 
0.0001787149631453918 
7.826956701204092e-05 
-1.90767163716232e-05 
-0.0001370896115727602 
0.0002353909446188145 
-2.702450368720317e-05 
9.950022671077917e-06 
-7.171574828693441e-05 
7.223171297374372e-05 
-0.000303105428822516 
-4.92472538837624e-05 
-2.630650827209648e-05 
8.722924926043747e-05 
-9.356177071196954e-05 
0.0002983872494434266 
-5.93682014708113e-05 
0.0003473220032050484 
-0.0001045268028260076 
-1.801732623750379e-05 
-0.0001601828776100597 
0.000209391029372901 
-0.0001028762516917081 
0.0004164056834627102 
0.000370249228457951 
9.430509421755162e-05 
-0.0003301445263898105 
-2.876501328097691e-05 
-0.0002918428313071402 
-5.095319788757153e-05 
-8.771086722016334e-05 
-0.0002163525919565152 
0.0001546662452944749 
-3.717826665036043e-05 
0.0001853582103830001 
1.950380284344768e-05 
-1.559186204596913e-06 
0.0002195779204023541 
0.0001167583567641985 
0.0001476158922505853 
-0.0001454697549971031 
-0.0004146123648622274 
0.0001641254499993223 
0.0004235825669266898 
-0.0003696262025344694 
-9.57998344296041e-06 
-2.6918473967515e-05 
0.0004484003109394081 
-2.322864773919938e-05 
-0.0002089406378056863 
-0.0001107647734799947 
-0.0003266761567707866 
5.395315207567353e-05 
0.0003203358474821154 
-0.0002402478682595338 
-0.0002498640344068482 
-3.339072282301686e-05 
-0.0002877533521079816 
0.0004641655938752927 
0.0004586886833831737 
0.0001122433868962611 
-0.0001073713856047524 
0.0002144888116605956 
-2.375882303691513e-05 
-0.0001583030672047035 
0.0002006013401454011 
-0.0002367641520066942 
0.0001893946241495015 
-0.000120710214093307 
4.381170186664124e-05 
-0.0002381771745194379 
-0.0001411035067361507 
-0.0007334042638126023 
9.505530567001332e-06 
-9.922636546814371e-06 
0.0002219561400255662 
-0.0002662704874748358 
0.00025872283837158 
-0.0002183697048683922 
-0.0003941243866209764 
-0.0001843517963355673 
0.0003756987470098263 
0.0005501172655854761 
-0.0001526904048670529 
-7.666858727794777e-05 
0.0002897949690405896 
-3.355551927240883e-05 
0.0002097956627054426 
0.0001062210956079835 
-6.827657638129116e-05 
0.0002452629425652306 
-4.849326492644247e-06 
-0.0001015684428128176 
1.274332710721604e-05 
-9.818025318960864e-05 
0.0001005011298108493 
0.0001296571182731952 
0.0001010699460820776 
9.24761825582775e-05 
0.0002975188147877892 
0.0001166109770506827 
1.536917711577015e-05 
-0.0001888505597115124 
0.0002185716821756908 
0.0004606117483910848 
0.0001055889411973521 
0.0001139138859152562 
0.0002196419635941669 
0.0002506813190338361 
-0.0001272706932003184 
-2.897126868107456e-05 
0.0001985435229999791 
3.393629885441128e-05 
0.0002578697221261502 
-0.0002073735684271206 
0.0002162990338488705 
0.0004464505491740754 
0.0002826941557835523 
8.65354068781677e-05 
-0.0001657489014135297 
-0.0001641009572056452 
-0.0001870884325625965 
0.000106102697109218 
-0.0004195174311641895 
0.000227487334857524 
-9.506656310393516e-05 
-0.0005770580762688732 
-7.829201635016795e-05 
0.0001310239324547904 
-4.627092071881104e-05 
-0.0003962845726163031 
-0.0002387931846362748 
-1.068290364266877e-05 
2.702255132235891e-05 
-0.0001385957161482859 
-0.0002563024960166552 
0.0004434133680217857 
-0.000140624363541282 
1.99619599321642e-05 
0.0001201034284922521 
0.0005213754021314258 
4.376513216959309e-05 
-0.0007356860492785855 
0.0002278944006360405 
-0.0003319495937186627 
2.255486672282036e-05 
-0.0001139452153697223 
-0.000382088924476814 
3.906853010073222e-05 
-2.196498613223976e-05 
-0.0002541216655386989 
0.0003036416393639815 
-0.0002309718268808794 
-7.639628882782058e-06 
0.0003783245660307347 
0.0004032571529854889 
0.0003766988720271266 
0.0001921411681413596 
-0.0003274964607902534 
2.793241573102791e-05 
0.0002636803086238647 
-0.0004526045153214484 
-3.860408296869018e-05 
0.0005416425181970457 
-7.993143375792379e-05 
-0.0003689496319988914 
0.0001202030868038341 
-0.0002418097861266804 
-8.707840957782388e-05 
0.0006957771228941714 
0.0002904896375078524 
0.0005346883880115444 
-0.000342518732485984 
-0.0003309986287412273 
0.0002659545715708735 
0.0002205563021041364 
0.0002932112531994319 
3.162851927648902e-05 
-3.412909698256013e-05 
0.0002344366599857872 
0.000413100481297517 
8.117008083178233e-05 
-8.714735765311745e-05 
-0.0001765425426433504 
8.467298136595564e-05 
-7.999808727083145e-05 
-0.0001235586159102058 
-0.0001342195225750905 
-4.968154827529797e-05 
-0.0003585043803280302 
-0.0001630020020525686 
-0.0001038296494987035 
-5.658259425459155e-05 
-3.238298674030494e-05 
0.0001000174644410342 
-0.0001552692765867312 
2.47622218461133e-07 
0.0002764657581386067 
0.0004326677811925448 
8.894241394896911e-05 
-0.0001166271878001275 
0.0006317794852009058 
-0.0004429987737950339 
2.960471612683889e-05 
-0.0001239766925326195 
-0.0001612383910922561 
-0.000176954417103875 
0.0005159882627322583 
0.0002587968021303045 
-5.729556091335146e-05 
6.936823561033588e-05 
-4.798484578999669e-05 
0.0006466519646074007 
3.965492580818525e-05 
-8.822178256296068e-05 
2.4404772742164e-05 
1.206831821712141e-05 
0.0001730201604122631 
9.04665011533162e-05 
-0.0003632140764407914 
-1.804346375072044e-05 
-0.0002598776727366355 
-0.0001401425891656905 
-0.0001984490682520616 
7.669343822607701e-05 
5.25592593570773e-05 
-8.900966085665087e-05 
0.0002183526245066262 
-0.0009134999155113518 
-0.0003228503565092535 
0.0005535664569249709 
-7.101298745117492e-05 
0.0002636221320363168 
0.0001631947216079881 
0.0001805656199810895 
0.0002301871031399508 
0.0001386876057840113 
0.0004068971498659667 
0.0001168783135756817 
-0.0001757361316348377 
-4.682439251825317e-05 
6.654905219593125e-05 
-0.0002552789294860221 
0.0004315327993262792 
0.0003034798937756048 
-0.0003915844146956216 
5.771476560554173e-05 
5.33897345563445e-05 
-4.673899923686968e-06 
