solver_type L2R_L2LOSS_SVR_DUAL
nr_class 2
nr_feature 17408
bias -1
w
-0.0001411250345791454 
-0.0003714441870318153 
0.000484193719899189 
0.0001508109469079653 
-9.929685282658723e-05 
-0.000418392875461652 
0.0006525271485872654 
0.001025365580022309 
0.0003249256675675392 
-0.0009274767508964073 
-1.065981556552574e-05 
-0.0006563462512899701 
-0.0005165877302595515 
0.0005143819502584842 
0.0007134086684271225 
0.0002693170140313234 
8.023886593171599e-05 
0.0004824236259195881 
-7.298907825546311e-05 
0.000128930069277974 
-0.0005954231602989014 
5.624265018010594e-05 
-0.001999388878258206 
8.767370860959717e-05 
0.0005682005087616781 
-0.0003920095298969089 
0.0008203121562070825 
-0.0007480759416127709 
0.0002300683446717143 
-0.0001275234551630784 
-0.0004354295248441675 
0.0005669541744012995 
0.0007821708979593214 
5.866973646508375e-05 
-0.0001747085758237929 
8.644343053093859e-07 
6.77481607134176e-06 
0.0002657008615156321 
-0.0001933455227744936 
9.575890260913691e-05 
0.0002322414649827155 
5.291124149777207e-05 
-0.0002483076431730447 
-6.600911660657567e-05 
7.376047632628298e-05 
0.0001730525602512393 
0.001143880667682932 
-0.00072836380612169 
-0.0002258929478671564 
0.0008220604367014446 
-0.0003035960445992598 
-4.14572168512125e-05 
8.331257468056924e-05 
-0.0005252332063534659 
-0.001159411703932667 
-0.0002556729153533961 
0.0006611422044386648 
-0.0002336477156614101 
-0.0002223988978630853 
-0.0006036467759384 
-0.0003371127294431702 
0.0002307671546430808 
0.0002129936161527489 
6.654850550132408e-05 
0.0006186158313978919 
-8.32318608513385e-05 
-0.0004618667663787065 
-0.0001090153659546799 
8.620372416048356e-05 
0.000930064899228647 
0.0001928677723664688 
-0.0004530413431443915 
-0.0006612012853110311 
-0.0003144540282638495 
0.000801069179962873 
0.0001007715542852473 
-0.0001650083047539263 
-0.0003703701581988885 
-0.0004126488891734512 
-4.299511874882397e-05 
-0.0004545119025278233 
0.0002269829516376496 
-5.558282543304991e-05 
-0.0004575496815157099 
-0.0008499674668535993 
-0.0002142393920025448 
-0.0001471234663532238 
0.0005611703921148997 
-0.0002885459958659327 
-0.0001799588694007123 
-0.0008073857809371358 
0.0001801963396767677 
-0.0001236213051686433 
0.001621483775855738 
0.0005005824406431649 
0.0004761166789294339 
-0.0002816145901941538 
0.0005275835880520459 
-0.0008039057663625399 
-0.001177456946582246 
-0.00116537649960698 
-8.995729274579746e-05 
0.0004650293125192458 
9.244801733144496e-05 
0.0004825274068607463 
0.0001852219206525927 
0.000182903490290092 
0.0004391269106755807 
-0.0003087851265705824 
6.987789980242342e-05 
8.774817779898978e-05 
-4.203162557736363e-05 
0.0005723957546359005 
0.000242153675396844 
-0.0001188999175409114 
0.0001089779208576263 
0.0002306584509294454 
-0.0002125093026394838 
8.742941274338423e-06 
3.469144139780558e-05 
-0.0007178868124406468 
-5.99835445605441e-05 
8.710285111395589e-05 
-0.0006882239912422741 
0.0003335256872954624 
0.00109877463647121 
-0.0003390171456315704 
0.0003999642117611493 
-0.0003631465310478612 
5.191250703927458e-05 
-0.0006809713737569664 
0.0003235786100100961 
0.0006466567901934273 
0.001487983181234052 
-0.0003540101166837118 
-0.0001637959747040097 
-0.0001761360057254079 
0.0008323587755402788 
-0.001147763190468448 
0.0001247487315115231 
-0.0001098260869097375 
0.001083538638690053 
-0.0002718809050177119 
1.090987130396438e-05 
-0.0006863626167603241 
4.761601801238501e-05 
-0.001224715126736465 
-0.0003026087911694408 
-0.0005842288322470192 
-9.673078879068984e-06 
-0.0001463084914650508 
8.578640586928742e-05 
-6.04777953912531e-05 
0.0001605111182570953 
0.0002229048727042599 
0.0006989921516781366 
-8.886633332678536e-05 
0.0007167008685990108 
-0.0004777768573053098 
-1.844699626463353e-06 
-0.000305587355911332 
0.0004919334619978757 
0.0006235518823662737 
-0.0006699426147826813 
-0.0001931594152197072 
-0.0003136911001720654 
0.0001979803578811392 
0.0003854040836999117 
-0.000349441599393036 
0.0001569596969794633 
-4.348469917581446e-05 
-8.954360374662694e-06 
0.0003399795535487497 
-7.486754893276114e-05 
0.00129685602786845 
-0.0006758995721725831 
-0.0003754329781367917 
-5.364224358103327e-05 
-0.0001758198714303689 
-0.0005100492377817589 
0.0002391448517860218 
3.950599402716606e-05 
-0.001181831632517378 
-0.0006870217876318944 
0.0007229384126428553 
3.211755787562903e-05 
-0.0006925024641667499 
0.001197523961292255 
-5.201806324260067e-05 
0.0004316419165742348 
-0.0002969816145366903 
0.0001485961340416958 
0.000151153833862287 
-0.0005263411044599896 
0.000998785438354431 
-0.0005016218694712909 
-0.0001813776884103576 
0.0004544547036378312 
-0.0005117277584230932 
0.0004196277840857858 
0.0002326042090434659 
-4.604102146162186e-06 
0.0001008005892146682 
-0.0001755389505065823 
-0.0003607475757143453 
-0.0002135225158300623 
0.0001346809090026851 
0.0005432493814765486 
-0.0002682361780404499 
-0.0003583398079837417 
-0.0002852245033133669 
-0.0004007081723143397 
-0.0003266596199006975 
-0.0001667643327092687 
-0.0007490628887388777 
-7.939845516832141e-05 
-0.0001919663161566834 
0.0004980824215518732 
9.650009359710835e-05 
4.113637188485859e-05 
9.288900304462466e-05 
0.0001783394239376966 
0.0009696413793983722 
3.370203061720369e-05 
-0.0003171367906167279 
-0.0004876267993369429 
-0.0002222900137657908 
-0.0004139806526923121 
0.000611389000106048 
-0.0002759330698542457 
-0.0001099135429182166 
0.0001473646420729332 
8.63337358909041e-05 
0.0008074520600612851 
0.0006171794540715973 
4.74797412529418e-05 
4.615916705470694e-05 
2.897352060749244e-07 
-0.0002427649709268533 
6.32887510493718e-05 
0.000397717156873024 
0.0005349193876902869 
0.002525241713834623 
-0.0003784935267250656 
0.0001115971393015227 
0.0004058564751853446 
-0.001026290643859245 
-0.0009475078145563666 
-0.0007625255493696368 
-0.000471377348180002 
-8.111697975229186e-05 
-0.0001380447433813285 
-0.000647987154910569 
4.006064356510323e-05 
0.0002741932619690926 
-0.0005497267309174446 
-0.0005297445170453361 
-0.0009865145297553292 
-0.001462466375325076 
-0.001252652749236902 
0.002362184623269897 
0.001611819925310362 
-0.0003242766101310144 
0.0006035297841144061 
0.0004235494631861246 
7.702050576286562e-05 
-0.0005937622371872718 
-0.0002129494100992952 
0.0006711022094298067 
0.0002603102335877874 
-0.0003824897525645254 
0.0007570540434578896 
0.0001114805682786837 
0.0002590161386609596 
0.0001972573521878689 
-0.001275925797057644 
-0.0003215871711986671 
-0.0003369082592178291 
6.60296057301685e-05 
2.734555486680598e-05 
-0.0004785476032834434 
-1.005543303985912e-05 
-0.0001293973877338722 
0.0001500833781901156 
6.11746158331853e-05 
-0.0002420819391700383 
-0.0002772015218723782 
0.0008214090254733725 
-0.0001899553954330566 
-9.570738132975314e-05 
-0.0008467205404363143 
-0.001261932228244613 
0.0002287171759475411 
-0.0004031638685294583 
0.0001269717099245591 
-0.0004625826622826878 
0.0001705883062351916 
4.151847826319583e-05 
-0.0002086631360897968 
0.0001957461470598276 
0.0009645123794640669 
3.587810563832945e-05 
0.0005920292793529921 
-0.0001133693476320033 
-0.0009935041823276891 
-0.0004465706986650582 
-0.000476834855383493 
-0.0001087353437641323 
-0.000756538610974607 
-0.0008513880841652621 
-0.000463032938254645 
0.0002397856271192354 
0.0003358159623764159 
0.001184437723517637 
0.0001177615249374498 
5.197173540801029e-05 
0.001242810721718464 
0.0001722517007510237 
0.001335132276225809 
0.0002865761529946149 
2.635578459635575e-05 
-0.0005761370742191086 
-0.0001690796442354883 
-0.001092877770476865 
-4.371825157418242e-05 
-0.0002444255410246332 
-0.0001182162123810109 
-0.0001992778880547864 
0.001462943565948197 
-0.000169327351270977 
0.0001483008690566751 
-0.0002025253976518288 
-0.0004046846387167951 
-0.0001055772116644207 
-5.223795654583934e-05 
-6.211093000148329e-05 
-0.001029889534949868 
-4.101459842714848e-05 
0.0007999527168310668 
0.0003388633134511962 
-0.001027093377881181 
-8.130508887642642e-05 
0.00152842636058977 
0.001087130333233338 
-2.350948971933957e-05 
0.0003361890940308961 
0.0002575005821181232 
7.659151100944988e-05 
-0.0002055522782830196 
-0.0009602781958382442 
-3.309015862899102e-05 
0.0004234801929783587 
-0.0004249815181219531 
-0.0004029931528228147 
-0.0003469466927229834 
0.000244459264011642 
-0.0002611634281852852 
-0.000600607384812299 
-0.0004664802193830853 
-0.00187422840234868 
9.903712736291001e-05 
-9.342977491103821e-05 
0.0006034737849885593 
0.00094257891320602 
4.822431215723329e-05 
0.0003281262919734054 
0.001439365682437955 
0.0009013515103113148 
-0.0002229392813228549 
0.0003598603103060126 
-0.0009164565569856605 
-0.0002528956087281382 
-0.0008788619012936044 
-0.001000344093342818 
-8.116886145783493e-06 
-1.056123463551909e-05 
3.872958034079238e-05 
0.001473095931521792 
0.0005032514363341598 
-0.0002613546670934123 
0.000387670926743052 
0.0004198347057410009 
-3.166422519849322e-05 
-9.122901595961345e-05 
-0.0005798761999983093 
-0.0002818059538359183 
-9.045739821505759e-05 
0.0004242676726197122 
0.000374691066628249 
0.001214182472216049 
0.0004525937772686001 
-4.941690521008827e-05 
-0.0006808968515099595 
-0.0009707830533458677 
-0.0001956994440325568 
-5.390501439156356e-05 
0.0002041238687841099 
6.362903052940341e-05 
0.0001146179158595823 
0.0008803480592581731 
0.0002790673188405963 
-0.0007444695879128718 
-0.0007865721188931012 
0.0002622336200887455 
-0.000829978014073367 
0.001298503220572627 
-0.0001177168269679362 
0.0005397734419951796 
-0.0002991780215222212 
0.0008329480927762055 
-0.0003481015638123554 
5.340122400555077e-05 
-0.0004848146397013811 
-0.0001815976962357911 
-0.0002120427021668228 
-0.0004432630561958106 
0.0004650067595650871 
0.0004147074831298955 
0.0005689084247864919 
0.0003376295651105826 
0.0006326277370432156 
0.0001800567835903606 
0.0004428063524444437 
-0.0008287944384310587 
0.0001357937317333274 
4.273448623298567e-05 
0.0001377919682679257 
0.0002822489553527586 
0.0001391468617395231 
-0.000384871982428771 
-0.0009069601911908402 
-0.001652443966802452 
-0.001596837378812584 
-0.001102907255572434 
-0.00059205025420521 
-0.0003205826520522997 
-0.0001840345179733888 
-0.0001738789828674762 
-0.0004770329157539246 
0.001016209241512984 
0.0008505308463079967 
0.0001460708404333646 
0.0009583215915141462 
3.517590489841758e-05 
-1.810972650012393e-05 
0.0005364313223194268 
0.0003094604513148734 
0.0002506506887145587 
-0.001139631942520894 
-0.0004738345474559169 
0.0001464791384963154 
-0.0008359605748279243 
0.0005617800626465565 
-0.0001275544016582158 
-0.0003962485832743529 
-0.0007326401601577346 
-6.079812346185418e-06 
-0.0002923222689680516 
0.0005435186948166573 
0.001112588294113334 
0.001126709902088655 
0.00093163275197043 
-0.0002151833739514371 
0.0005658702765349287 
-0.000268601969639295 
-2.569856162820611e-05 
-0.0002036970833735294 
-0.0001160502593563621 
-0.0002116434992971265 
0.0002221798133991507 
0.0002000565878006821 
0.001100065219706175 
0.0001723578169266301 
-0.0003400542170948514 
-0.001004871676100618 
-0.000369294913729375 
-0.0003154262278224358 
0.0007210023106035739 
9.166458797109385e-05 
-0.000777305650449858 
-0.0009869633371741933 
-8.709513267649345e-05 
-0.0002767456763026159 
-0.0001304118612898631 
-0.0004255252090021101 
-0.001332212467343509 
-0.0001140183188700647 
-0.0007921941505762238 
0.001013937226659962 
-0.0003122688337726286 
0.0002733974802836949 
0.0004348649464077824 
0.0005274139691174401 
0.000463444059753803 
0.0007081727669946869 
-0.0002385608237780605 
-0.0003625237259727817 
-0.0002073406447920901 
-0.0006163874487217317 
2.313623877656175e-05 
-0.000348308969892085 
-0.000150233006458532 
-0.0006495249115522899 
0.001098692290541355 
0.0002664437708652915 
0.0003474879854720324 
-0.000311249173429845 
-0.0002058801785358285 
0.000185623021876215 
0.0002981197107162568 
0.0006962541324987988 
0.0008542620035988559 
-0.0004232538873802332 
0.0001643934339306269 
-0.0001461540775545275 
0.0002328694671268902 
-0.0005142421634797216 
-0.0006015504794412382 
-0.0009193453517602624 
-0.001579077751736548 
0.0007780820140302471 
0.001266229373365439 
0.0004922779634562018 
0.0002656178253487631 
0.000166682900796901 
0.0006905931348642913 
0.0008834997674569697 
0.001264465391001305 
-0.001943507428214865 
0.0002311580007603341 
-0.0001091200969373447 
-0.0003936654050643612 
0.001138251071425211 
-3.469969529479346e-05 
0.0005709028730014809 
-0.0004006009951687447 
-0.0004632515874758869 
-0.0005671643694225113 
0.00035447819897391 
-6.918152091737572e-05 
-0.0001314911050382111 
0.0005204361276563422 
-0.0009089006643377972 
-0.0001709252305486691 
-0.0005959850611566393 
-0.0001469089192668949 
0.0004741699418606984 
-0.000583400552762175 
-0.001481909181472341 
-0.0008157845069191867 
-0.0004896473542738628 
0.0002642528550773892 
0.0001316464977776874 
0.0003269682216361548 
-0.0001340981062669434 
0.0001304022470788703 
0.0006086863604078095 
-0.000784935344450403 
0.003127035464164198 
0.0003359743205242684 
-0.0001870307135856679 
0.0002098909151490398 
-1.40341394353374e-05 
8.406271763692663e-06 
0.001122936958711197 
0.001380439054604908 
7.206442319948508e-05 
-0.0004406921596061604 
-0.0005822389701903612 
-0.001066315265239356 
-0.001205670935576949 
-3.830437261464327e-05 
3.024028607054433e-05 
-0.0001405990615633418 
-0.0005811812557813852 
0.0007094278155575061 
-0.0001995847066621895 
-0.001099354946302416 
-9.818192521772775e-06 
-6.461170877349582e-05 
-0.002441218527097993 
-0.0009333662146581873 
-0.0002243773694989008 
0.0003270291262670692 
-8.993287592953953e-06 
8.83324980110061e-05 
0.001425853518895729 
0.0002111705736075229 
1.300755243117265e-05 
6.490159886161123e-05 
0.000723472944732082 
0.0005379350948217309 
-0.0008952847078252747 
-0.0001967288873426318 
0.002189342933121521 
7.300269373918512e-05 
-0.0005401038261614675 
0.001213507123206237 
0.0005388970442713653 
-0.00150166801365875 
-0.0002374130260405933 
-0.0005428584958211411 
8.387850275264804e-05 
-0.0005307933450152558 
0.0002409221974216455 
0.0002785083679017014 
0.0002455014217008618 
0.0008147177966517013 
-0.0007203249982081042 
-0.0004768184724730348 
-0.000809387164755837 
-0.0006870365079155661 
-0.0005864948832163524 
-0.0007371075145063163 
-0.000813466455649047 
-1.005318372546779e-05 
0.00165434806931418 
0.0001849597007472783 
-8.228980600038918e-05 
0.0001955928008758085 
0.0008509785971573181 
0.0002380662842158194 
0.001104147573423871 
0.0004465298841324578 
-0.0007185038059833608 
-0.0008734604116536738 
-3.664733613585392e-05 
7.711171721963644e-05 
-0.0006780767180529231 
0.0006337716036995737 
-0.0008512082086401905 
2.18432492357838e-05 
-0.0001482656949061591 
0.0002197707163790048 
-0.0003696399129142663 
-7.824615804295391e-06 
0.0002255489185808114 
1.213497749147236e-05 
0.002450598557725136 
-6.499122623551782e-05 
0.0007295815270959081 
-3.286676977936692e-05 
-6.697028668565554e-06 
-0.001433730370067602 
-0.0002810765985974029 
-0.0002701491898625425 
-0.0009150701143125973 
-0.001879187142780265 
0.0009389732859611867 
-6.531129715831596e-05 
0.000440950848635629 
0.0007838370004270064 
0.0009884806269761567 
0.0002068890201179564 
0.0001495839351731283 
0.0005877441178468345 
-0.0009892600051847114 
-0.0001793902933150883 
-0.0001155209201376682 
-0.0003365170540848272 
-0.0002048447857136479 
4.150676995438629e-05 
0.0008912116989163026 
0.0003507462303605675 
-0.0009024360743783044 
0.000241188029617617 
-0.000515648336132354 
0.0003758905255855775 
-3.382104229622893e-05 
6.902687982676994e-05 
0.0006640762443067944 
0.0003456460150894876 
-0.0004634461824126194 
-0.001182645397215922 
-0.0006493152403375738 
-0.001582036221124556 
-0.0004085833546132562 
0.000561741274593343 
4.273308653231204e-05 
0.0004095002448425166 
-0.0001940340548316561 
0.0004219722701720425 
0.001461453911484559 
0.001234127848855676 
0.0004828429813454581 
-0.0008516873479678714 
-4.570885681775973e-05 
-0.0003737703740025689 
-0.0007001946711191637 
2.631115719550942e-05 
-0.0006176039952447097 
0.000194072943090134 
-0.0003541208640206434 
-0.0002443875621119511 
-0.0001753568058818562 
-0.001416707861211245 
-0.0002690421352056571 
-0.0002626951696176623 
0.0002526604256386413 
0.0004781347069136801 
0.000148901743678151 
0.001736940341580024 
0.001070338022487483 
0.000913410868748945 
-0.001529364934544744 
-0.0004801036867464547 
0.0007707354759987764 
0.0006246556695423127 
-0.002138119368180761 
0.0003659522168736256 
-0.0002266490452416583 
-0.001042802227601784 
0.0005017496073765761 
0.0005960192474624756 
0.0006154557900747032 
0.0001538053977390939 
0.0002561301054481013 
0.0005741687875833578 
0.0006111261422703198 
0.0014324277116701 
-6.5409846168166e-05 
-0.000293013811440043 
0.0008821092002025495 
0.0005075198512774836 
-0.0003829735357803979 
3.15786820480593e-05 
-0.0001531356711670794 
-7.674948686659703e-06 
0.001362925474066478 
-0.0003531317196437472 
0.0001078055284565159 
-0.0002483750729105646 
-0.0003281179237564926 
-0.0004993584646892707 
-0.000626890102803192 
-0.001375238795307712 
-0.0007101269357861014 
-0.001035284270960134 
-0.0005551027013101927 
-0.0005348600149003638 
0.0005025457909334805 
0.002278363380927743 
0.0003187321794828653 
0.0004206753057825257 
6.805476748529555e-05 
-0.0006700641498806943 
-0.00116725872933587 
-0.0008670618868115946 
0.0001753667512657486 
-8.327929510996556e-05 
0.002142642124767038 
-9.667606498551577e-05 
-0.0001407458556174317 
-0.0001644691145782826 
-0.0001845574375002429 
-0.0008490388027348786 
-0.001288024807833618 
-0.0009481823879982766 
-0.0007654013645471893 
0.000932021424260779 
0.0005636039787623502 
-0.0001908537771627379 
0.0001444652594211532 
0.001168781488518932 
0.0007310132670755927 
0.001037949331642776 
-0.0002612304344632916 
-0.0003281912853880797 
-3.692433097383943e-05 
0.0002926547581159265 
0.0006335884990650027 
-1.773528527402578e-05 
-0.0002083324614027065 
0.0003196359937807745 
-9.733208418093392e-05 
-0.0002521359154807511 
-0.0004976029155095498 
-0.0003068750411592308 
0.000285882971347899 
0.0008822597677226306 
-0.00206694458138648 
0.0004591569554779298 
-0.0005186088734173793 
-0.0002273361330322453 
4.816938936260575e-05 
0.001450817187864852 
0.0008488741951034976 
0.0002334987379743603 
-0.0003884867017648422 
0.0001645759093399317 
-0.0004003179179588893 
-0.0005490090955098882 
-0.0003629785995616338 
-0.0006146430071264657 
4.289139935202525e-05 
-2.476721872650798e-05 
7.370287025179259e-05 
-0.0001518074997442776 
-0.0004164864383920266 
0.001046421199264232 
-0.0003079086765102231 
0.0004227626267218158 
-0.0001226274367950337 
-0.0003681568763713625 
4.206105699036399e-05 
0.0007508485048713149 
-0.0003258599909336232 
-0.0004415619417353636 
0.002543882202965116 
-0.0002028090640680111 
-0.0004103189322849842 
-0.0006254953961373704 
0.0001925850742717293 
-0.0003150411009818038 
-0.0005096675582171759 
0.0006630424815650032 
-0.0004439092211664749 
-0.0001991971627238431 
0.0001720969589264576 
5.855802209361605e-05 
-1.090257224321287e-05 
0.0004478989078659868 
-0.0004468455002438823 
6.546892769011039e-05 
0.0004218292049219076 
-0.001381738416469304 
-0.000788310078837421 
-0.0005710685163560227 
0.0017308853558362 
0.0002495993618354276 
0.0003524293646192623 
-0.0009987238756773969 
-0.0003197303000704744 
-0.0004016384697331328 
0.0001141706073703145 
-0.0002851258333703138 
-0.001050873054340111 
0.0006598337027711842 
0.0008458216056131288 
0.001486281207430764 
0.0001871411641112854 
-0.0006210446515036148 
0.0001972323813286847 
0.0005579570594253259 
0.0002343174975339063 
-0.0002049669413710548 
-2.142671488588508e-05 
-0.0001599643876782757 
-0.0003904621205602033 
0.0006324027610332512 
-0.001021709196731997 
0.0007727709673555916 
-0.0003185021885312956 
-0.0001364010614742131 
-7.918108897551841e-05 
0.0006833226464468976 
-0.0003538668677139349 
-1.430394351491035e-05 
-0.000576503764942921 
3.789328588790024e-05 
0.0001422962400428963 
0.0002618891163895673 
-0.000699431732457242 
-0.0005143921914637988 
-0.0002365074895934762 
-4.442460773638187e-05 
-8.612899981637556e-05 
-0.002517152993022621 
-0.0003274686983164871 
-0.001150817040920347 
-4.122943257617199e-05 
0.0003230076870191942 
-3.106484980574183e-05 
-0.0007954396878081604 
-0.0001996105035458761 
-0.0001499343771966974 
-0.0002713241361973049 
0.0001433029267784014 
0.0006229911163366071 
0.0004506513179823514 
0.0004373210262625634 
0.0009885316939673408 
-0.0005431992020918987 
-0.0004572115935699453 
0.0001966142990827965 
0.001435805246121155 
-0.0003375046274039565 
0.0007865416848271108 
5.110519441487051e-06 
-2.820261456031228e-07 
0.000839369856922496 
3.782207511398099e-05 
-0.001548965815902338 
0.00134805666485828 
0.0007434022439113642 
2.354345644606178e-05 
0.0007441467852211715 
1.169595839016551e-05 
-0.0005387764834626431 
-0.0001115374647559745 
-0.0007771689164013595 
0.0002289924655409991 
-0.0008160355429286339 
-0.0005165000381551091 
-8.674280207323863e-05 
0.0001830290272640547 
0.0002635672715745032 
0.002421286887584103 
5.708376324387987e-05 
0.0002960723439939579 
-6.811406708007818e-05 
0.0008248170703526572 
-0.0001109250242547743 
-0.0004132382486817166 
0.0002636650003253965 
-0.001447128585392454 
0.001358474403393174 
0.000500887784857781 
0.00132544920808122 
-0.001532858764575901 
-0.0004163957126278049 
-0.0002924538419685551 
-5.23038911714489e-05 
-0.0005527210566646022 
-0.0007672284960532969 
-0.0001617787478170554 
-0.0001651682297400086 
-8.286322596613588e-06 
7.392258089110498e-05 
-0.0001839804582297021 
-0.001065910958440072 
0.0004636146179437905 
-0.0001271656367220564 
8.464897748640034e-06 
0.0001057646436792408 
0.001045874524916001 
-0.0002202622351078924 
-0.0004761810405140257 
-0.0001057615686560167 
-0.0006513987200145682 
-0.0006851304539143121 
0.0008601786965991484 
0.002296560573652988 
0.0009722514315693533 
-0.001150658975804917 
-0.001229015070008281 
2.829536839341935e-05 
-0.000583365858739134 
0.001897849430457207 
0.0009061512391885566 
-8.45225478381228e-05 
-0.001326337361367142 
0.0002582672042508421 
2.411908500961649e-06 
0.0002003224186169129 
-0.0001953102785538303 
-0.0003443569205834932 
-0.0005397471719341071 
-0.0003722449675921736 
-0.0001347735789665238 
0.0007249813080547614 
4.868095695175292e-05 
-5.841479988248373e-05 
-0.0005768334833244307 
-0.0001438915292419028 
-0.000552941060539348 
-3.992940802006414e-05 
0.0002542297674036481 
-0.000669145213747511 
-0.0003217113219058066 
0.0008910348121574821 
-0.0007298802544282739 
0.000347805408758805 
0.00113974722568398 
-0.001065071432250414 
-0.0001129070991848154 
0.0004708005945148024 
0.001428039970405345 
-0.000832495632875899 
-9.990202632600083e-05 
0.0001647023115442531 
0.0003334834071069361 
3.642173591645522e-05 
7.115572317556632e-05 
-0.001555860751572594 
-5.903213938775828e-05 
-0.0002408617062252028 
-0.0003869849288669081 
7.396941857525052e-05 
5.570479401951185e-05 
0.0001806048232430636 
0.0008683062636895941 
-0.000732604196340814 
0.0003085075616962738 
-0.001025005570470555 
0.0003571191866466735 
0.001401617682495704 
-0.000740972888437041 
0.002726461181814875 
0.0008497854986821303 
0.0001203135928328115 
-5.991045073804772e-05 
-0.0001639262969656222 
-0.0009005761537075695 
0.0008593800996795179 
0.0008881355127005902 
-0.0003699367504831868 
-0.0006554929879573045 
-0.0008432863730357488 
-0.000606547129123789 
-0.0004636242688761353 
2.289392163742633e-05 
0.0003948390935982449 
-0.0004871165699510451 
-0.0002664835946957368 
-0.0004453313581155913 
-0.0003966687594930681 
0.0007112534256210394 
-0.001082260760060906 
-7.599668957800663e-05 
-0.0004904859687750752 
6.16706648893368e-05 
0.0003035564629214104 
0.0004444986150110377 
0.0001303467264767176 
-0.001422218066732404 
-0.0003700388669585274 
-0.0004674827953906131 
-0.0007903582051327463 
-0.0005475911060207002 
0.0008797104502082943 
0.001322186560486265 
0.0002132840699200467 
-0.001076011651274969 
-0.0001181822382597464 
-4.91280725237782e-05 
0.000652401348739122 
-0.000193364571123093 
0.0005422624217325691 
-0.0002565967070750074 
-0.0006332734743869629 
-0.0007731109521139189 
-0.0008316801594861126 
-0.0008111899291139359 
-4.256956220528025e-05 
4.789987276320431e-05 
-0.0002274998831868242 
-8.400137636099724e-05 
-0.0002275961531965772 
9.81012713315859e-05 
0.0002001274621203543 
0.0003961312513645528 
0.002197930442397291 
0.00196407007592325 
0.0001593166354454394 
-0.000238069084944675 
-0.001444509655578467 
-0.0001691376828769734 
-0.0003075576320501546 
-0.0002759429375720341 
-0.0003544732086814458 
-0.0007287495689124319 
-0.0004347852552965937 
7.111095062113155e-05 
0.0008788776202093853 
0.001879293922274624 
0.0004391751374677321 
-0.0009947377181505762 
0.001128197083838045 
-0.0001452708660994807 
0.00338357565067812 
-0.0001470034242173952 
-0.001687373359202113 
0.0003895018525490795 
-0.0007466182102789243 
0.0002046718539415257 
7.750643581517263e-05 
-0.0005359820984771459 
0.0004676769136003166 
-0.0004194811540797669 
-1.606133418188366e-05 
-0.0006388894871969925 
0.0001756110975024508 
-0.0005314409428960942 
0.0005533860381704115 
-0.0003352434446076158 
-0.0002497690392848781 
0.0001582481963947781 
8.570749953826164e-05 
0.001095949514394857 
-0.0002577059044995769 
-0.001949908978322184 
0.0009651307606652328 
-9.788955372709733e-05 
-0.0006024840302723058 
-0.0004238974626293006 
-0.0002249537725713835 
-0.0002432433591785661 
-0.0009581007057543368 
0.001283208984907316 
-0.0003819653702736348 
-0.0001029532370698706 
-0.001182638997386098 
0.0005858219156411657 
-0.0002355446883989895 
4.637538739117819e-05 
-5.633845406318619e-05 
0.0001916455325280442 
-0.00104745952911212 
0.0001316265792144491 
0.0004646010811141965 
-2.670504935429519e-05 
-0.0001839091998468084 
0.0004814374086466505 
0.002590835697641629 
-0.0001203789527759321 
0.0001083545569695515 
-0.0005954249827023492 
0.0003468948787575528 
-4.228183605027673e-05 
-0.0002976892489479772 
-0.0001632929940560912 
-0.001361393552514107 
-0.0008680303413535827 
0.0004155503722968535 
0.0001027404294332884 
0.0006155075412767483 
-0.0001465054438029522 
0.001277273605560639 
-0.0001129102165811689 
-0.0001978163674904215 
-0.001614625677044707 
0.00130812583800449 
0.0002821596820117214 
-0.0003897665605434675 
-0.0006535752642731536 
-0.0007020591697795908 
0.001369228933257593 
-0.0001605315432195249 
-0.0006229713015528323 
-0.0001708875997586957 
-0.0001633804752107394 
0.003203336435818531 
-0.0002670945526961535 
0.0004332880503736975 
-0.0007278157594862968 
0.0006231628983489571 
-0.0002594978698133143 
-2.136335167553924e-05 
-0.0005686723031124967 
-0.000225856629333665 
-0.0002908318307142351 
-0.000401806362516082 
0.001895008951436351 
-0.000188380171395424 
0.00160493506352578 
-0.0001281909136281699 
-0.0001416366815740416 
0.0003305224409207127 
-0.001342855763682561 
-0.0004211296790772288 
0.002119278668392867 
-0.0004894188410923981 
-0.0005360216549129868 
5.604008253881995e-05 
-6.828981505546001e-05 
-0.0002613328697834078 
0.0007955570206767606 
-0.0005462921388308952 
-0.0004942457257119512 
-8.174401668126039e-05 
-0.0007373605412895996 
-0.0007534402964762314 
-0.000294854449325455 
0.0005298633683211396 
-0.001071779352192163 
-0.0008824539790479631 
-8.021514225152245e-05 
-5.471034946780768e-05 
0.0005667382947814095 
0.001041389994421405 
-0.0002281324069153664 
3.408544332282566e-05 
-0.0001253224440082817 
0.00106871842937269 
0.0007870990424422022 
0.00157967325438893 
0.001250913129369416 
0.0002912425075804434 
-0.0006689497882605801 
-0.0007048260807801061 
0.0008574793728400668 
-0.0003795389818920693 
-0.0002869281684550626 
0.0001039595504177188 
-0.001389387844006335 
-0.0008460974227440293 
-0.0008502147485391792 
-0.0003136317530888889 
0.000549778742227374 
-0.001307061512977624 
-0.000272111590839509 
0.0001779590103642417 
0.000146009160110728 
0.0008591763236789621 
-0.0001092965150529392 
0.0002896842392234704 
-0.0002755581526248142 
0.0002181619823480451 
-0.0001501301113885857 
0.0007638555338466024 
-0.0002704137010514442 
-0.00111628240639885 
0.0002926680303358949 
-0.0006201443339763065 
-3.199946304867801e-05 
-0.001025688202640557 
-0.0004467634421081412 
-0.0004518511471889727 
0.001091198337927414 
-0.0005799412502953338 
-0.0003298895227194972 
-0.001901957754994439 
0.000592456081420381 
0.0004765541791647035 
0.0006267913945197457 
4.986010127846108e-05 
1.295340354414513e-05 
0.0002105461658635266 
-0.0002561033868491274 
0.0001518021104324424 
2.482622706630598e-06 
-0.0004897028803251849 
0.0001181687695349144 
0.0003315303016996108 
4.480583582783204e-05 
8.903983900973319e-05 
-0.0003386493642464289 
-0.000911431676081213 
6.845990233314396e-06 
0.00031795932953816 
0.0003876572332667122 
0.001384358951817634 
0.0009125836715340932 
-0.001135525925327568 
-0.0002904258465271294 
0.001813354116562951 
-0.0008192123031570193 
-0.001013602939456121 
-4.891548027544687e-05 
-2.033854351321687e-05 
0.0004952698383635047 
0.001961500356608201 
0.001167258715947692 
0.000497729983958355 
0.0004830675431289932 
-5.753234041175081e-05 
-0.0003878298386376768 
7.368160549424669e-05 
-0.0004141168504144292 
-0.0004654633814168422 
5.878093516484627e-05 
0.0001543264493383068 
-0.0004173028058847555 
0.0009854069806353443 
0.0001503032825014612 
-0.001513394466792053 
-0.001004449138710249 
-0.0001407029292873914 
-0.0007603164441211264 
-0.0005242187866849227 
-0.0001455946743028589 
0.0003441684422011331 
0.00121605244826067 
-0.0004586116130102501 
0.00035016680339631 
-0.0002632132539486132 
-0.0009373812803748245 
6.772721431634612e-05 
0.0002113499013489181 
0.0002444091517130488 
-0.0002895892412337956 
0.0002973464176330976 
3.2050917670279e-05 
-0.0001763853799627749 
-0.0001136039814744579 
-0.0007099767386228168 
-0.0002463849862585348 
-0.000955061763805343 
0.0004462031863859996 
-0.0003604062757741453 
0.0009536972587021697 
4.084352485355573e-05 
-0.0008141947427943152 
-0.0003887664613312382 
3.841421585915074e-05 
-0.0006206754576694087 
1.027889742536351e-05 
0.0001475180525904461 
-0.0004554990127834077 
0.002109056787673374 
-5.192887112092522e-05 
-6.913206149595388e-05 
1.323120584751686e-05 
-0.0009809469080361681 
-0.0005511022890815796 
0.001318558591684224 
0.002087006469620694 
-0.0004675733912335971 
-0.000422462108833338 
0.000319564192591047 
-0.0007406834653164012 
-5.602777566370052e-05 
0.001504259034925204 
-0.001170813017093794 
4.851176006794137e-05 
-0.0001456688061062581 
0.0001485091254716784 
0.0003208162147726911 
0.0008237823980982629 
-0.000359209982001218 
0.0007111411048304798 
0.0005704728118606323 
-0.0004531868230266127 
-0.0004110484278029209 
-0.0005965127549873258 
-3.929741287036966e-05 
-0.0002938373811346611 
-0.0001179853398622198 
-0.0008642827762584398 
1.847349768611196e-05 
4.867041838618411e-05 
0.0003553764863168632 
0.0002507894677951315 
0.0003965156131753962 
-0.0003913669289488896 
-0.0008088159325763032 
-0.001553033625561777 
-0.001008599560710277 
4.002328804924729e-05 
-0.0002715434160234435 
0.0009269187732508779 
0.001435721466166084 
0.0005850542331972291 
0.0002330459490042622 
-0.0004035792050704851 
-6.550197155174445e-05 
-0.0001213085768207405 
0.0005524241240440638 
-0.0002327143158484236 
-0.0007706840423464732 
-0.001234646496711673 
6.735478452330147e-05 
-0.001266102796295373 
-0.0006194589684871338 
-0.000135921595700587 
5.281093015648514e-05 
-0.0002497223509729474 
0.002945869958061677 
0.001143955518702458 
0.0007381976987772586 
0.0002430419311344908 
0.0004136077371855262 
-6.453908963085765e-05 
-5.13651689194966e-05 
-3.712437121547787e-05 
-7.283142031859482e-06 
0.0004523584488454217 
-5.006959870673439e-05 
-9.906825527865696e-05 
-0.001198741429464483 
2.750974103077739e-05 
-0.000880216402197277 
0.001135652128116582 
-0.0004122085042907791 
-0.0004617669346192978 
9.481413934190729e-05 
0.0005459171007478745 
-0.0006192360904864384 
-0.0007029143391968687 
5.362957249069865e-05 
3.442711343461518e-05 
-0.000150981694253276 
-0.0001376596776262641 
-0.0006718346216831536 
-0.001464845344877645 
-0.0009795208340106544 
-0.0004904497639674351 
-0.000876465591984014 
0.000864275504485996 
-0.000787351795136128 
0.0007885095272027161 
-0.0004011010257695545 
-0.001162252122713855 
-1.132202096221198e-05 
-0.0001842110060818956 
0.0004808844575295721 
0.0007235592809748705 
-6.457689707339122e-05 
0.001329860123357824 
0.00013554458928217 
-0.000637720815321303 
0.0001595150089701974 
5.508298542577109e-06 
0.000694882904400942 
-7.500893098445446e-05 
0.002906800060726731 
0.000243130624061676 
-0.0002516931029073475 
0.0007709819098986851 
0.002241302617564623 
-0.000944681616546673 
-0.0007709451394499923 
-0.0001565040055151694 
-0.0004332090794567832 
0.0001895214206680201 
-0.0001208392514932288 
-0.0006561453407739182 
-0.0005023402899350819 
-0.0003229984246037725 
0.002761521982687098 
0.0005650718827941503 
0.0003000867687399624 
-0.0001133987973590737 
-0.0003592337440637076 
-0.001171547835566801 
-0.001066797961810171 
-0.001193371695853797 
-0.000484504147173863 
0.0016473762779276 
-0.0001849166673555738 
0.0001149131181879413 
-0.0007830354829864574 
0.001309461692206621 
-0.0004132301789009805 
0.0001272126702435997 
-0.0008427602140811031 
-0.0001621462957375677 
-0.0002445254079636321 
0.000795180072038241 
-5.81942039684981e-05 
-0.0004909050626672453 
0.0002103961968619236 
-5.950781266284475e-05 
-0.000173841241676743 
-0.0003288346662093698 
-0.0007156652539875253 
0.0007411884978367282 
-0.0005732566005780887 
0.0003814608509806589 
0.0001604031726779917 
-0.0005523016224160276 
0.0002347847317328376 
0.0002469955567479588 
-0.001060735384226585 
0.0005066895145570908 
0.001202125765008267 
-0.0004367638376914754 
0.00145020716108709 
0.002153211030539356 
-0.0004021373109797432 
-0.0003381944348656669 
-0.0002413631907886542 
-0.0003577013073999719 
0.0002580414023945598 
-0.000697887766947787 
0.000115851266245593 
0.001519728598863432 
9.397206620273341e-05 
-0.0006325697849070451 
-0.001899127682244317 
-0.0006122629140968319 
-0.0003051277811257705 
0.0004584804849289492 
0.00126306982436446 
-0.001343530221549118 
0.0006091698673772591 
-0.0003260602263843978 
4.024330504629993e-05 
-0.001053754512616778 
-0.000603797143063629 
0.0001679990094959947 
0.0006965255319403768 
-0.001258099359582141 
1.871873354493746e-05 
0.002442823382421406 
0.001662403083391622 
-0.001690261396204421 
0.0002303830620475653 
0.0002913489935336724 
0.000178459201084415 
0.0004611541775815509 
1.108176607664349e-05 
-0.0009942247255960214 
0.0004928256272717078 
-0.0007899162820833125 
-0.0001959159734894003 
0.001454332255845474 
-0.0009351505497302591 
-0.0004567421286281167 
-0.0009934733544686358 
-5.919247564578755e-05 
-0.0004055120705131973 
0.0005755456281504483 
-0.000449756833567156 
-3.362117106238147e-05 
-0.0001211806480718464 
-8.405446334793094e-05 
-8.59039323872615e-05 
0.0005618703070981656 
-0.0002101028471726581 
-0.001777379373749514 
0.0003556000768795589 
-0.0004462132478938116 
-0.0006400409784280759 
-0.0002417212657800282 
0.0006386906042935447 
0.0008884319174862919 
0.002685854148465367 
-0.0005620160832462463 
0.001059185940637937 
0.0004040355184194811 
-0.0003566114081610534 
0.0003020403815782697 
-0.001802288626523846 
0.0003187623668899064 
0.0005089350831591513 
0.0004441672232010547 
-0.0004422104883545723 
-0.0003447242505349638 
0.000149614235706269 
5.632336279903616e-05 
-0.0001382868077247354 
-0.000122565400848685 
-0.0005959881196106237 
-0.0002750394867268397 
0.000702358995638158 
0.0005254143920781009 
-0.002474125586074849 
-0.0008788417644542981 
-3.415124803863541e-06 
-0.0002325153868691478 
0.0001124133755862991 
-9.085788377790106e-05 
-0.0007223678707675045 
-0.001259445026012611 
-0.0007990994589802121 
9.68452282100197e-05 
-0.0008083161373483882 
-0.001315779879780835 
0.001616690285466291 
0.002003405882640682 
-0.002026336813136964 
0.0002518688166536669 
-9.446473083178983e-05 
-0.0002090213219396891 
-0.0002704025121067952 
5.909232676643898e-05 
-3.755787010738164e-05 
-0.0004821850299702145 
-0.001104519029072667 
0.0005486852114415147 
0.0008302516862527094 
-0.0003452263322106268 
0.001226682826640798 
0.005371501808314819 
-0.000265218324458465 
-0.0002817090195635049 
0.0001035923683700212 
-0.001237240455657791 
-0.0006428700821376674 
-0.0003974277748074067 
-0.0001009217693642137 
-0.000176603938808329 
6.472190727308482e-05 
2.585808609305581e-05 
-0.00147876814425253 
0.001622481105292569 
2.420574293908881e-05 
0.0007884674610933007 
-7.547820153339839e-05 
-0.0002446575440817143 
0.00034940933029033 
-0.003500799407281135 
-0.0006757759135912318 
-0.0003193272901411161 
0.000986277204291603 
0.001067323877256127 
0.001617128156172749 
0.001535385433456767 
0.0003310779918018404 
0.001785995054157499 
0.0005095154349819396 
-0.0009708181882074628 
0.0002487150518600627 
-0.0007846402323402463 
-0.0003197383740939461 
-0.001092127794366796 
-0.0004041064315528135 
0.001004953070309564 
-0.0002457011789395659 
4.551748355260254e-06 
0.0001002714079406009 
-0.0002630441323641774 
-0.0002452458604139338 
0.000433597490360017 
0.001015754162277837 
-7.823513266149611e-05 
0.002173448506058709 
0.002677910548987972 
-0.0005574427567333972 
0.001845293031602569 
0.0001492110327052429 
-0.000247656651925993 
-0.0004531163825897598 
-0.000640445772811562 
0.0001648997325229705 
-0.0005049167458302148 
-0.000581207069122401 
-0.0003481111089090464 
-0.0009412954103407035 
-0.001122175196976336 
-0.0006160078261503442 
0.0001067946392954028 
-0.001437837557425828 
-0.0003606964249097181 
0.0007140592699369552 
-0.001861656262363993 
-0.0003631124479128818 
0.001847106326182442 
-3.789220438685752e-05 
-0.0006832960400359738 
5.546166509960772e-05 
-0.00271406497295421 
-5.418482385491048e-05 
0.0004131868086190157 
0.0001526230704338218 
-0.0001032652437632508 
3.000305628903757e-05 
0.0001466853402721163 
0.002603848702850666 
-0.0007898149405300417 
-6.956589026704227e-05 
0.0009889898042626591 
-0.003749358816784288 
-0.0006943003031942698 
0.000656505275895208 
-0.000199798642959755 
-0.0002133745446308977 
-0.0007746075315338339 
-0.000200112823340009 
-0.0001466903452336999 
-0.0005112170941254467 
-0.0004562953027782431 
-1.909927720640514e-05 
-0.0006012214807998354 
0.001779787855638147 
0.005105484397156066 
-0.0005744107524672359 
0.0006046265413679 
-0.001027926488516865 
9.548972918363766e-05 
0.0001322850165129117 
-0.000221862255218708 
-0.0002888961002742895 
0.00125120820076916 
-0.0005761269303064173 
0.0001873439043897947 
0.0006871712168258469 
-0.002847778269209097 
0.001225293028825382 
-0.001541805144415157 
0.0007151161540421407 
0.0004281208483635653 
-0.002026508731399979 
-7.819327052765354e-05 
-0.0003991638753525457 
1.830749778711288e-05 
-0.0001710301691994181 
-0.0008588266335113294 
-0.001202675698483402 
-0.000128810481989836 
0.001463850927410817 
0.001547125076934332 
0.002038414098265971 
-0.0002896948065985559 
0.002420744229022767 
-0.0001647066898472903 
-0.0009130156121218712 
-0.0004776803658131703 
-0.001055772627734573 
1.002152799354465e-05 
-0.0005762253346684934 
0.0009502094714614233 
-0.0001621363282694577 
0.0004599266210525267 
-0.002299760814929507 
1.233439462049257e-05 
-0.0005643764833175389 
0.001076798868626064 
-0.000387654333149532 
-0.0001040372645624921 
5.235316590025553e-05 
-7.101887955637029e-05 
0.001093803149145824 
0.0008266161371019205 
-0.0004202029021367506 
-0.001646622720657772 
-0.0001205596407503002 
0.0005007252425899212 
-0.00151105163950564 
0.0003665584173015741 
0.0002327127448017063 
0.0006731001872233353 
-0.0001434829426412045 
-0.0002711544660156474 
-0.0009948159528117243 
-0.0003506297987317494 
-0.0009486943155569684 
-0.00120713901131302 
-0.0003172091165084837 
-0.001334103114854554 
0.0004440191901626435 
0.003074208836212417 
-0.0006353441466205636 
0.001175033113261421 
0.004372318531045909 
-0.0009289187009518362 
0.0009610935857990488 
-0.0003605473632603653 
-2.502780155182583e-05 
-0.0001299827546206926 
-8.787617259780182e-06 
-7.913068851418301e-05 
-0.0003291125639167581 
-6.592197651520746e-05 
0.00121744838772553 
-0.0005612866550097685 
-0.001248190789301832 
-0.002353033429645197 
-0.001518699608835468 
-0.0001448475504364165 
-0.0004394378473181033 
0.0001477558626134156 
0.002246160571766662 
-0.0002394529079375814 
0.003287604435012165 
-9.218775847973905e-05 
-0.0002920644152495667 
-0.0006590817955364024 
0.0006990918065397983 
-0.0001211888314547753 
0.002172601769204025 
6.836005279125588e-05 
-0.001052841370105279 
-0.000514682303550341 
-0.0001494448378220092 
-0.0001242447445385929 
-0.0005569783468066746 
-9.01367803635598e-05 
-0.0003967127009688769 
-0.000484161194701919 
0.0003583330939183988 
-0.0001941111625871294 
-0.001001996291388664 
-0.002116926288233857 
0.0001606201063999283 
-0.0004551653454734039 
0.0001301673550855162 
-0.001051757851429871 
3.771940091896213e-05 
0.00027154158691269 
2.44305010169374e-05 
0.001258661905013026 
-0.0001006505411941117 
-2.664312303817894e-05 
0.0004242889665125891 
0.004821320961930025 
0.000149695204666863 
0.0003996989548661743 
-0.0001341613420807166 
0.001227883827056806 
-0.001542566108465541 
-0.0009160356001315908 
0.002216680408847229 
0.0003418238541494265 
-0.003573735331309997 
0.00146557164663074 
-0.0004730453493020901 
-0.001012226596627364 
0.0002898623649934332 
-0.0004545995785636347 
-0.0001282212726716002 
0.0001798134297987035 
-7.088560718717875e-05 
-0.0002977150722778082 
-0.00190573154635227 
-0.003918552434993621 
0.0005925701733478986 
-0.0002701811435747014 
0.0007722480945275573 
-0.0006532397674816363 
0.0002146509379701506 
0.0003039322996843714 
-0.0002893297243284144 
-0.001223193898529752 
-0.001046565237442986 
0.001568436855445673 
-0.0009539332591818683 
-0.0001214325601321884 
-0.0001843181854437594 
0.0002828119385621389 
0.0001197754876015699 
0.001739231476809831 
0.0001828846264087787 
-6.472168851553347e-05 
0.001844950679764857 
-0.0004392837215419095 
-0.0002456930623799838 
0.001448307782293874 
0.001610938665224161 
0.0008598181393286167 
0.0003892751691087109 
-0.0006528418404198585 
6.705365846532176e-05 
-0.004114513885686531 
0.0001493359468589697 
0.001226778185505245 
-0.0003267046255919737 
0.0004145355429111943 
-0.0003488231155208979 
-0.0003195753497678136 
-0.001464154845416156 
-0.0004451613033634836 
0.0004813583815802522 
-0.004931686747406502 
0.0009037406428803883 
-5.416532380973613e-05 
0.0004104159464920679 
0.0002293035107344072 
-0.00113468988559545 
-0.0004183911756939026 
-9.339818122154871e-06 
0.0005500498959174022 
-0.000478254684743733 
-0.000561725838989381 
0.0007740121856490873 
-0.0003593529039140961 
-0.0001803656654644325 
-0.000105399575797611 
0.001182497938173215 
0.002230744710917883 
0.0009204616730078191 
0.0009096665830177898 
0.002300179778109208 
0.002145975898085412 
-0.00147953218505476 
-0.0009122632597747919 
0.001551638210808373 
-6.251539304363165e-05 
-0.0006222465612289283 
-0.000554615452124748 
0.0001114483779342993 
-0.0005219074904440218 
5.563029727981485e-05 
0.0003484524991254212 
-0.0008364517514980634 
0.00215148135261923 
0.001740461304230321 
0.003883964626605995 
0.0006952069316215231 
-0.001021423534851267 
0.001407863077792104 
-5.753612808896195e-05 
0.0008146342195910974 
-0.002133648155369212 
-0.0006489439897430647 
-0.003454841583249349 
-0.001756990739863618 
-0.0004318264565766845 
-0.0001767776797333549 
0.0008181084273902123 
8.603573927560094e-05 
-0.0003026597721830203 
0.001306960771338947 
-0.000942849584657831 
-0.0002807288516844127 
0.000869678466978594 
-0.002383137047331963 
0.002973042510233435 
-0.001460737870050321 
-0.002848677585182674 
0.0001888561731210142 
-0.0008780991970264743 
0.0007719363372311355 
0.0004632134856985826 
-0.001734850959003652 
0.0005402433783631478 
-0.0006880346676914589 
-0.001334749815228634 
0.0006091744014842158 
0.0002093321011616262 
-0.0007382064131612894 
-0.001449753975361435 
-0.0004276657032916931 
0.001411077336424015 
-0.00108373030232037 
0.0006185899540448387 
0.0001941727769498057 
-0.0002597565305609327 
0.001634783478982383 
0.001562236651140928 
-6.119005339032354e-05 
-0.001934076227338092 
0.001058841199306401 
-0.0001802641424796365 
0.0006977439693091589 
-0.0002848583764058783 
0.00128365298499389 
0.003174697860802071 
-0.002952232493915191 
0.001324165664516384 
0.001591505424720393 
-0.002926119306370972 
-0.001969629579740598 
0.0002423112675073785 
-0.0009823855931854501 
0.0001437822909915925 
-0.0007917642432542411 
-0.001361678876691293 
0.0001761243613032208 
-0.00165328329590671 
-0.0001811835556331277 
-0.0004919303722171045 
0.001117148061115406 
0.002428376507860559 
0.0009549139553973754 
-0.0002867199297688888 
0.0001860819382831764 
0.002975792525241054 
-0.0006557234163691452 
0.002719111685775839 
-0.0001243851021562488 
-0.0004605090834873732 
-0.000562056444782546 
-0.0002500509074211592 
-8.127159920694771e-06 
-0.0005886538390191643 
8.676361161952632e-05 
0.002107820278744081 
-0.0001049778374424241 
-5.868080237186226e-05 
-0.0004215877694845927 
0.0001630045372592878 
-0.0002682920144137887 
-0.0006783098524672903 
0.0007019123603129 
0.0005622197201629503 
-0.0007486198459983902 
-0.0004536471777833426 
-0.0006413478721377654 
-0.001227250924822721 
0.0002144459997912425 
-0.004777528590491354 
7.08345178917223e-05 
-0.0004883558217970678 
0.0004527546332562859 
-0.0005182937929783581 
0.0005828191652166637 
-0.000437517330756452 
0.0002078405536063086 
-0.0004082400135387095 
0.001730833786588718 
0.001936376827531838 
0.003291195596081243 
-3.9656510823153e-06 
-0.0003654732719919179 
0.001625345983569211 
-0.0001527632875915962 
0.0003557160057540964 
-0.0003612690619729596 
-0.0008587411474290816 
0.0001255337184653479 
0.0004341757546717348 
-0.002843243428191653 
-0.002837401659584934 
-0.000178820513977617 
0.002002222801719553 
-0.002763805811187566 
0.0003856233598577265 
0.001437215976731853 
0.0002116935823556184 
-0.0002438070654003996 
-0.0001072185334974249 
0.001418129527765614 
-0.0001278630842930428 
-0.0005261314686851484 
-8.188880783716215e-05 
-0.0001149625047963125 
-0.001126445470302706 
0.0007453334052013811 
-0.0002147807367339287 
0.001270276872522577 
-0.0005099591786154804 
0.00325980445858079 
-0.001247241613283757 
-0.0001034588071727869 
0.002882770831682181 
-0.0003072122343507695 
-0.0005516365198011419 
0.000188342346541245 
-0.0004830935087032269 
-0.0008971391004987919 
0.0001153686240982427 
0.001585721808362001 
-0.0005925878150830864 
-0.001929207614707731 
-0.0008960453094862565 
-0.002466808875901769 
-0.002417789299571959 
0.0005106124281213754 
-0.002530423184111998 
0.003198733462372035 
0.003007462337426116 
-0.0001360344520197298 
2.14042409150335e-05 
-0.0006980199191039932 
0.0006876709544030128 
-0.0005008555711503369 
0.0006722936481020832 
0.0009592754906861624 
-0.00149317165618425 
-0.0003732276513882755 
0.0004811915982874909 
0.0008615308439541756 
-0.0001137769914486142 
0.000606373285484068 
-0.0001855775476639211 
0.001630537783746826 
0.001039858700197477 
-0.0004062238310902429 
0.001034467426980023 
-0.0001980223410376007 
-0.0009543717989844954 
0.00076809004442002 
-0.001536093244616934 
-0.0003950745351461863 
0.001395027311940165 
0.0004968752893605394 
-0.0001144757402285075 
-0.0005271518270990073 
-0.0005818864169143729 
0.001664393208396719 
0.0006826235599997844 
0.00340230229337291 
0.000290212366078586 
0.0002880532076194316 
9.799940310637174e-05 
-0.0002193030628665495 
0.0004585357365376252 
0.004321182676096013 
0.0001270667507849141 
0.0001891064218701578 
-0.0002740571333957131 
0.0005323603633396566 
-0.000532998828669386 
0.0003305057236941998 
-0.0001973003106414447 
-0.000381367806634958 
-0.000591758973560302 
0.0001103787474407215 
0.0001109182003952537 
-0.0008024868827833188 
-0.0007638714550795037 
-0.005697255906888812 
-0.0001603550507694535 
-0.001466095146361617 
-0.0003265156468699011 
-0.0008721864187566711 
5.035839284846343e-05 
-0.0009632355104682682 
-0.001960274404966188 
0.00214771370974194 
-0.002964528757028009 
0.0009624528787872562 
0.001287710736973278 
-0.001067836658398914 
-0.0001218950064321883 
-0.001167444206464531 
0.0001930385763553978 
-0.001667602839832452 
-0.001706898670988108 
-0.0001444096787950083 
0.0007614472980062105 
-0.0003042059907095995 
8.90749719332866e-05 
-0.0002635434402298979 
0.0004672668827516685 
-0.0001956913166939407 
0.0005580096716914047 
0.000155124686958987 
-0.0001506440542562314 
-0.0005177317727243925 
-0.0005618930707747394 
0.002999275492278383 
0.0001494164940424766 
0.0006776127864858864 
-0.001833206981445492 
0.001613365350263987 
-2.308415006676831e-05 
0.003001501466529332 
0.000194921240896998 
-0.0004726072731866081 
0.0006923883737788972 
2.632579024474014e-05 
-0.000401393714070689 
-0.0009176217360115027 
0.0007357099959629345 
-0.001870078125821439 
-0.002420694904480376 
0.0004882559080594844 
-0.0003415826214890666 
-0.00198080754469617 
0.000493992123136956 
-0.0005533533547136601 
-0.001121328184953151 
0.0003993455371219698 
-0.0011583309107615 
0.001119840859732322 
-0.0002302521031715063 
0.003719695148930501 
-0.0001399488733972906 
0.0009392655708373357 
-0.0003624589255674445 
-0.0002443279955318462 
0.0002021632217823708 
-0.0002802221564030663 
0.0003404338434480845 
2.669468510478152e-05 
0.003572228506864839 
-0.000368040978526873 
-0.000785810739942187 
0.0002355053879749703 
0.000300820923166022 
-0.0007979230221716271 
0.00164679438220572 
0.001151408225972063 
-0.005797544476728002 
-0.00309650197301544 
6.962115036681934e-05 
-0.0003893415681792439 
-0.0007251874004833689 
-0.0005054074328703494 
-0.0009891608309797535 
0.0008759204165751564 
0.0002347294121689973 
0.001994732838949481 
0.001192434693043354 
-0.00159105082031084 
-0.0001999076901669897 
-0.00095521595895657 
0.0006088548565314191 
-0.0004756078818793391 
0.0002938626178112487 
0.003772896407208838 
-0.0002155650877566374 
0.002319614065595254 
0.0006149256982952491 
-0.0009903156262037886 
-0.0004787698708322323 
0.0006398690791528681 
-5.998994480418425e-05 
0.0001763292387440358 
0.0002203120359413001 
0.0005246611047418044 
0.0005743290954566052 
0.0004222820485761834 
-0.0004669226623678013 
0.0001962961799067058 
-0.001941864676540506 
0.0004826660430336048 
-0.0006958248856073172 
0.0002908524688434966 
-0.007148375793835055 
-0.0001888920963383603 
0.0001913513844797876 
0.001509166376395449 
0.0004778683693519635 
0.001474427013401058 
-0.0004084956158511777 
-0.000401967577494737 
-0.0008226572780451249 
0.001238288917420674 
-0.0007656629492087078 
-1.853514578480117e-05 
0.0003170713540069992 
-0.0003028732503825578 
-0.001605146590937244 
-0.0006032328354981179 
0.0005492397926932515 
0.004112723250796316 
0.0002967203663685613 
9.533315904675946e-05 
0.001193581534031938 
-0.0003273372612774011 
0.001785255970453953 
-0.0003463619249265403 
0.001054832048710582 
4.6823649104955e-06 
0.003214835449904912 
0.0004361786085267245 
-0.00080286631136733 
0.0009575127976844743 
0.002515902488467784 
0.0001273580156976404 
9.265597349108148e-06 
0.001052220308307897 
0.0001521034765990403 
-0.0006235785372629648 
-0.0003809168520494147 
-0.001167969597869856 
-0.0002217912647046757 
-0.0003012839900778601 
0.002652891058867911 
-0.0004998510334254036 
0.0006249234756792375 
-7.532956122115686e-05 
0.001295076546901704 
0.0009552800255694454 
-0.003337105688814061 
-0.001141985410373825 
-0.001047721922641846 
-0.001058580494647535 
-0.001057680259091679 
-0.0002981692922440392 
0.0005318885691010518 
-0.0006667833745584148 
-0.002229395843394939 
-0.0003462935101757561 
0.0003709898937751428 
-0.000510695988963079 
-4.345597544110766e-05 
0.0002267059060308471 
0.0009188923792931694 
0.0009944293594980481 
-0.0002376335629843156 
0.0001559201263566211 
-0.0002624695453117874 
0.001018964248019339 
-0.001157533197102338 
0.002368200893506056 
0.002014065638985597 
0.0001876682481026873 
0.0003865233264015624 
0.0001604323504200444 
-0.001061308645763876 
0.001030434487489156 
-0.0009271361271712444 
0.0001269795501094001 
-0.007894838549783697 
-0.000766274226350478 
-0.0005538121234504652 
0.0004446543399045967 
0.001670064621674199 
0.0007264539633984697 
0.001626373984228308 
0.000230483661384571 
-7.47540533172503e-05 
0.0005885923995776308 
-0.0007566728671296047 
-0.0006807917659651134 
-0.0003046571222242164 
0.003961059257714795 
0.0006460929471892738 
-0.0008208318581392996 
-0.000666734741467568 
0.0008609100125867305 
-4.059201675445227e-05 
-0.0009356088058335123 
-0.0004735029173205432 
-0.000991125033177628 
0.0009750062350920647 
0.0009956528049520808 
0.001422790416893163 
-0.0003143184259866478 
-0.0007023465101894785 
0.001738902457153845 
6.893895271336945e-05 
-0.0007430534571095452 
0.000230051350570276 
-8.923603166553105e-05 
-0.0004170072718243938 
0.001806363715896254 
-0.0006767659590300956 
-0.003516256441598525 
-0.003328476267499005 
0.002423997217078576 
-0.0001765615511195953 
-0.001073067907474654 
0.0007457827120517057 
-0.0008698778081489845 
6.299830116625052e-05 
-0.0005053226084825055 
4.594496518536511e-05 
-0.0005626924905496426 
0.0003821437143741148 
0.001545177508326862 
0.004427614961128866 
0.001024749363106491 
0.0002980590786824425 
0.0002677284625686038 
-0.0001514569133381072 
-0.0009200107885701124 
-0.0007008676836571411 
3.514686042984133e-05 
-0.0006371646185904451 
0.0002153171349749604 
0.002411236306626481 
0.0001829698350032396 
-0.0004462591909574884 
-0.0001175042723986549 
-0.001587856826614676 
0.0003779240911122759 
-0.0003154289959907966 
-7.695255105896904e-05 
-0.0009134590273432736 
-0.0001850622881670291 
0.0002449613520451623 
0.001907391780210716 
-0.001015243318948895 
-0.002763404219048977 
-0.003056603103613447 
0.001796050147582942 
0.0004652564255990248 
-0.0006300841094129022 
-0.001857870890089673 
-0.0005911831853588206 
0.0008858039413184552 
-0.0002444099151029607 
0.0001483463927809535 
0.0005842494834791586 
0.001687465059941009 
0.001915306930794093 
0.0007178085127445722 
-0.0002018985943246033 
-2.344124629737958e-05 
-0.0006393730785665149 
-0.001221642481157686 
0.0002336610435125264 
-4.829810768879622e-05 
0.001753682908631949 
-8.293018201375229e-05 
-0.0009771140529162834 
-1.162215221280263e-05 
-0.0004684954974905178 
-0.0008970010712065158 
0.0005935401323677209 
0.001727382600758456 
-0.000226583448543151 
0.0003703630217961407 
0.0007137631779106073 
-0.001830288848996502 
-0.0007296844681335548 
-0.0003524391017934531 
-0.001840123712465196 
-0.003816614283535456 
0.002680706778157034 
-0.0001651308229669596 
-0.0003632855855799075 
-0.0004520272733605219 
-0.002097568525904453 
-0.001469849094719621 
-0.0002632286264527662 
-0.004238158936650176 
0.0009992345532405351 
0.000125172467635906 
-0.0007671680247433674 
-0.0006222342343601911 
-0.0001039947923255712 
-0.001009034565026742 
-0.000580219640895882 
-0.00121187404562841 
0.003904872566677277 
-0.001413239857023516 
-8.591812757658275e-05 
-5.590300737165392e-05 
0.002255086640411533 
0.0003131180951879902 
0.0002235982230737371 
0.0003952266840775111 
-0.000410328835211377 
0.0007609825662261871 
0.003105762595844024 
0.0006229411623483834 
-0.0002010670245722134 
0.001831583548705324 
0.001548378344441831 
-0.0001186862530052559 
-0.0006582165792816538 
-0.000320148684758546 
-0.0002751812203553861 
0.001605053411617646 
0.001154241607526558 
-0.0002176851465089678 
-0.000377995306509616 
-0.0006076006799500671 
-0.0003095589685162281 
0.004136457525598267 
-0.0001800791368190203 
-0.0002274627628919514 
-0.0006844396485789747 
4.487083083292818e-05 
-0.0005805835071341659 
-0.0002529674539409479 
0.001368682702487181 
0.0005536771368474591 
0.002065488605548804 
0.0001400261621557444 
0.0009115492828393581 
-0.001177526971410111 
-0.001594375194652777 
0.0001307393049776225 
0.0002616127768417362 
-0.0005189814906535514 
0.001492242812549175 
-0.0002447535693301534 
-0.000297502211657845 
-0.0001095852334170497 
-0.004108511440061477 
-0.0001252938381682698 
-0.001437064467103186 
-0.0008936881787409877 
-0.0001328710563282223 
-0.0005477614084281749 
-0.0003092780029210295 
-0.0001086833660712866 
-0.0002697620388397789 
0.004916197385715235 
-0.0006202078689120749 
-0.001399791718285915 
-0.0003695426058540431 
-0.003662847561132155 
-0.0004685654793530134 
-0.002978143583497828 
-0.001127317010490456 
0.001706307487051421 
-0.0002791679739103319 
0.0001202317730084541 
0.002685207189213632 
0.001021973296429665 
0.0004744842408743084 
0.001039396084944907 
-0.000917446382383895 
-0.0009078169700657544 
0.001389340389442779 
-0.0004269896959173737 
0.0002032854823415597 
-0.00034832102285585 
-7.672016373470889e-05 
-0.0001973292445449451 
-0.0009894020553646644 
0.0003242962420899969 
0.001655132964804347 
0.0002459184063970036 
-0.001077170458761033 
0.0002276552672984618 
0.000461392392630394 
-0.000220862544719093 
0.001829709356388272 
-0.0006745124060405044 
0.002652877045182718 
0.001041842043894995 
-0.0001275242044079516 
-0.0001535115275083877 
0.0001345728236646141 
0.001554279402180101 
-0.0003720732568134903 
0.000182349315921463 
-0.0003217834170614316 
-8.698097147498075e-05 
-5.009562935405739e-05 
-0.0003869413839949016 
0.0006153901885495382 
0.0001170175970292488 
-0.0008451054875939921 
0.000847254569830211 
0.0009209203212860664 
0.0006858495122160854 
-0.002914715508827832 
-0.003570104584830611 
-0.001143297865845177 
0.000376210651703109 
0.003211932315888611 
-0.0008141620703300054 
-0.002144869231247721 
-0.0003117365214309946 
-0.000915565668227274 
-0.002050356883686954 
-0.002434076866846009 
0.000360736040480108 
0.0002503927410097323 
-0.0004136755726651702 
-0.0008333829932260158 
0.001456522350434036 
0.001187397522589273 
-0.0004939751613084032 
0.0003659203480089215 
-2.387128394793241e-05 
0.0004763678402751434 
0.0005131068863363999 
-0.0007642106046653081 
-0.003544320567627897 
0.001917611135147843 
0.0002678774454826742 
0.0002948924000148311 
0.001603488449442552 
0.0002251359314857922 
0.0001757174943908918 
-0.002304848427821084 
-0.001551826451456893 
4.35047319978878e-05 
0.002885729149810889 
-8.14465203278157e-06 
0.000823288101235441 
-0.0001122362522324732 
0.0006013680838384881 
0.0002426209111928883 
0.001402619555992126 
0.001491620831585526 
0.0003400246142591496 
-0.001752418740504126 
0.0002388212461819334 
0.0003128852250554043 
0.001094375945377452 
0.002054891489767992 
0.001845654238974422 
0.0002554108004041562 
-0.0006544046904850627 
-0.000270329418194428 
-0.0004693228640305851 
-0.000317147755399547 
-0.0004711790743202609 
-0.0003877365017416286 
0.001640312555879309 
-0.0002017136735623122 
0.001304636281009048 
0.0001471058087646862 
-0.0002338811214693267 
-0.002888111547909621 
-0.002786777285829896 
-0.001270869404726797 
-0.000751113413925738 
0.0001110844658676984 
-0.0001566050012448397 
-0.00107710233258675 
-0.0008063897391690523 
0.002851756212102317 
-0.0003494389396554633 
0.001146440928429531 
-0.0003466734054814096 
-0.0003226488067363314 
7.740208985362468e-05 
0.0001305725750969418 
0.00011694330536314 
0.0006268224859601962 
-0.0003257978275835955 
4.357564299896683e-05 
0.001057352795558294 
0.002498596193178141 
0.0009941341512533404 
-0.0001867171024282746 
-0.0007898227892160551 
-9.72516433861611e-05 
0.0001266764904672353 
-0.0009151356585289618 
0.001712717815746955 
0.00146810963040197 
-0.0008651244949587353 
-0.0001222838170592426 
0.0009655162259094604 
-0.000414312267055077 
-0.0004018306533539537 
-0.000836695830562985 
-0.0001697469450694825 
-0.00139582887927826 
0.0002924921529999313 
-0.0003275983274004255 
0.0001891365935406251 
-0.002729623139426593 
-0.0003559952147528666 
-0.0001649371808483272 
-0.0002348918372616886 
-0.0004191747800968677 
-0.0007083121757193888 
0.0004279679084380375 
-0.0008777799082811707 
5.23878316804055e-05 
-0.001073752339078216 
-0.0009472606039233159 
-0.001405476090351864 
0.0002774516392715333 
-0.0009348413435902238 
-0.0008258245094767819 
0.001191867788617769 
-3.63233525131657e-05 
-0.0007276953085253149 
-7.095537007685306e-05 
0.0001582196021658193 
-0.0002640654303007755 
0.0004211444233029048 
0.001600580879145639 
-0.0005492241649534816 
-0.0003644287077386363 
-0.0008159172736347705 
-0.0003733928925314485 
-0.0003323254347764075 
0.004073699747489921 
0.0006992746090843268 
0.001872734280411812 
-0.0006940602685861178 
-0.000128685889728794 
-0.0001903220766109826 
0.0002935862026991664 
0.0003147087416090413 
-0.00107219447007898 
-0.001791183511808722 
-0.001027375467031359 
0.003238618160922996 
0.0002996988654509389 
0.001244668795707346 
-0.001607499219857451 
-6.132361647173829e-05 
-0.0008696713411983501 
-0.002095619754907643 
-0.0001602862436498311 
-0.0005676567649787441 
-0.0007233777041832002 
1.40873925330473e-06 
6.68510072885675e-05 
0.0005915327119799218 
-0.0008129036116600077 
-0.0009680748700644466 
-0.001090707669104171 
-0.0003107647479721832 
0.0007622448712942948 
0.0001276869066158063 
0.0002112099772152379 
0.006011371941065597 
-0.0005319330190142706 
5.109211134254011e-05 
-5.440686126673509e-05 
-0.000290884459010607 
0.0009418368605576918 
-0.0006319133566048162 
-0.00133054166992092 
0.002093903143511731 
3.424930321980262e-05 
-0.0003676254992643526 
0.000535955788012654 
0.0009049825696080953 
-0.0001588093280776033 
-0.0004053266934331829 
-0.0001366175022708057 
-0.0002191089931863294 
-0.0003798012827953423 
0.006096494244094201 
0.0001634904483889371 
-0.0002402281626026584 
-0.001422627383878347 
-0.0002732099818443108 
0.0001343816492375251 
-0.0001589398195905743 
0.0004308770685021784 
0.0008051774350977656 
-0.0001372299193140564 
0.0005328141203969427 
-0.000330887285620675 
-0.000644925062623757 
-0.0002860859815997382 
0.000726911421839535 
-0.002903141233901231 
-0.001729787466262092 
-0.0001140711268409131 
-0.001760260259287297 
-0.0001705219551559257 
-4.714105212015266e-05 
2.111927195032376e-05 
0.00114369840274319 
-0.0003531010455482103 
0.002487830713459544 
0.0009074066296799633 
0.0003413830676460081 
0.0004226608660986511 
-0.001038632994279244 
-0.001713945372990484 
-0.0004993759438490288 
-0.0002781041605846678 
-0.002360278870126951 
-0.0007883985592333293 
5.995537421170014e-06 
-0.001576718085324066 
-0.0006538838191970164 
0.0006167253748314953 
-0.0001679170112862955 
-0.001210737565547162 
-0.0007160958137124152 
0.0003963820980610656 
-3.583825959646691e-05 
-0.0007743902579688595 
0.001769876526858405 
-0.001416018499084987 
3.894421142792883e-05 
0.000758426884331547 
-0.0006461554473022031 
0.000148703195483633 
-0.000338509564084303 
0.003527569931156684 
0.002754343406518352 
-7.150807429681389e-05 
0.0001071666344598274 
0.0004142988095939305 
3.524352206003424e-05 
-0.0004162350767517297 
0.001358181916888707 
-0.001667086103014661 
0.001317709817352819 
-0.001460675943604043 
0.0003342287345928228 
0.0003815924156081639 
0.0001366434519832778 
-0.000436392800332786 
0.0001401844308717696 
-0.0001358533883123091 
-0.003513137695748908 
-0.0002742023526379306 
0.0001574623922903852 
-0.0004778519576769735 
0.000232611469461934 
0.0008847869020894518 
0.0008053919494175637 
-0.0005286264238717464 
0.005941378470211408 
-0.0004031930481604711 
-0.0002851677524460454 
-0.000195907413523995 
0.0001238423060317151 
-0.001549429364071429 
-0.00113638005340874 
0.0004059797656748828 
-0.000205108590665381 
-0.0003881113398405016 
4.762868336054802e-05 
0.000446830838644692 
-4.24627036703829e-05 
-5.672598850666398e-05 
-0.0003253289921463157 
-0.0002627082410329798 
-0.0003661389408253487 
0.001979580599297413 
0.0005095396511789848 
0.0004072643037919555 
-0.0004440452541948375 
7.01643689701256e-05 
-0.0006736353010814054 
0.001119213297954514 
0.002540589301488796 
-0.0006610667548947476 
-0.0006291992056036427 
-0.0007098846790296558 
0.0005117173609252066 
-0.000781932991898731 
-0.0002813103222163668 
-0.001462019945306709 
-0.0003755927971402886 
0.001893669873930928 
0.002597708287294612 
-0.003916137936000205 
0.0005885888134395361 
0.0009268154673744203 
0.0007414530671866597 
-0.0002941247297128062 
0.0003749137859455926 
-0.003455832952097579 
-0.0003260955486430295 
-0.001229756880429442 
0.0001597527542757823 
-0.000681854571483693 
8.571987911383515e-06 
-0.001005848598396032 
-5.925332458765777e-05 
0.004605578319970273 
0.0001438177377400344 
-8.574353125879719e-05 
0.0001210493864424776 
-0.0008260990818748801 
-0.0005458203332370143 
-0.00430120044238603 
0.0001363905546291524 
0.00139529132008682 
-0.0009318603638052822 
-0.0001787164145747443 
-0.0006761966299930195 
-0.0001848808435771456 
-0.0003083664876686811 
-0.0004763197636927365 
0.0001170176213583737 
0.002309621892024332 
-0.001065830854006439 
0.002379354067144732 
-0.000731215056595411 
-6.386439736780528e-05 
0.000296097537696089 
-0.0003492081031175798 
-0.0001900840455447868 
0.00249492879150518 
-0.0006315465137656409 
-0.0004828030248727363 
-3.629474339010487e-05 
-0.0001798412995555564 
0.0005999382377639368 
0.0002672727982829886 
-0.001276833935586529 
0.0008216050465778627 
-0.0008593722139562746 
-0.0007361350155872158 
-0.0001500393861422639 
-0.0009024149590255735 
-0.0007109692177457004 
7.448929355161465e-05 
0.0005309953338843371 
0.0002227976699957634 
0.000259128527227537 
-0.0003503751919828738 
0.0003733596937457901 
-4.195006681496297e-06 
-0.0001454961539820985 
-0.000347344802602741 
-0.0001501217914747219 
-3.136480717675463e-05 
0.003132505721440978 
-0.0001400011967673451 
1.637011827523419e-05 
-0.000142584081579229 
0.001814494287872091 
-0.001455346817784451 
-6.963168322084387e-05 
-7.290855065324856e-05 
-0.0002250771154285294 
2.815784646756863e-05 
-0.001407061192111812 
0.00129646778741304 
-0.001678384683067181 
0.0002100361707976063 
0.002023683159386259 
-0.0004746586312681425 
0.0002281804255415112 
0.0005011964339847911 
0.0007482236042309047 
-0.0001802482239693458 
-3.190475575707441e-05 
-5.095815996443809e-05 
-0.000545140191037862 
0.0001863025975358934 
-0.0009090310053190189 
-0.0002016479140094111 
-0.0005228242809384277 
-0.0004176583350550952 
-0.0002281460515584953 
-0.0008042478699096641 
0.0003420910600769254 
-5.434124911521506e-05 
-0.0001817297906269344 
0.002374901120210551 
0.0001533491820102987 
-8.45838571736388e-05 
0.0004705488003142783 
-0.0005762165947194959 
-0.0002048267873676301 
-0.0002700139891036364 
-9.570889247531839e-05 
9.57196809277334e-05 
5.906124642663058e-05 
-0.0004341923988612502 
-0.0001889873367046572 
0.00012910366901584 
-0.000711134917195747 
-0.0001089799510175148 
-0.0001022081522269369 
-0.0004302369803105866 
0.0006043586102075328 
-0.0001049444708176564 
0.0002636674444284661 
0.004438335303316083 
8.669782574368011e-05 
6.92255722759744e-05 
-0.0005542900033288699 
-0.0001298048892113996 
4.498307348876106e-05 
0.001344345857485122 
0.0001489807747168093 
-0.0003524199625906238 
0.0001340542565548004 
0.000225670413852347 
0.0005579945448318368 
-4.750069220058068e-05 
-0.0008209783567937175 
-0.001239972107234254 
-0.0002916326896816145 
-0.0003769360919663141 
-0.001162279767828541 
-0.0009458745032963899 
-0.0005560192685831684 
5.70709051996911e-05 
-0.0002072865494875848 
-0.0008641371933995291 
0.001383570290121953 
0.0004261399488176603 
-0.0003649117530041765 
0.0001859860139213815 
-0.0003182559727168639 
0.003926994412105579 
-0.000100863129137678 
-0.0006080298598338173 
0.0002474133870843494 
-0.0006016056520099235 
-0.0007765080185795154 
0.0007641524040394559 
-0.000238667516786214 
-0.003463504996765454 
-0.0003176425639120376 
0.0001341629416685099 
-0.0003465482664536867 
-0.0003432773638405796 
4.792191048572562e-05 
-0.0001028140393994933 
-3.6749715089482e-05 
0.0008522684953270964 
0.0001604425779424459 
0.0008881967274118446 
0.0002343715694137929 
-0.0002696837991935021 
0.0002338234751164821 
-0.001446025773836116 
0.0005078028382114743 
-0.0001884370534546912 
-1.555345230082736e-06 
0.0003710002999308409 
-0.0006022236949173909 
-0.0001025153461136898 
-0.0002275553156262839 
-0.0003190093786444193 
0.001377465939133485 
0.0006448869167486957 
1.062276427599515e-05 
1.453864144067985e-05 
-0.0003536173346562777 
-7.211827788337608e-05 
-0.0007227234675761667 
-0.001479463989353442 
-0.001040156741765394 
-0.0006092130418064548 
-0.0002767077742673238 
0.0006192199695562057 
0.0002200525011710199 
-0.000229240694078095 
0.001135152668050321 
-0.000835191611795685 
-0.0003494237056322223 
0.0006844158962455557 
0.00410571620529695 
-0.0007425091436136661 
-0.0005754203807569627 
-2.564136723742204e-05 
-0.0007979824962946209 
0.0004123836231048096 
-0.0004009435308291236 
-5.98120554953462e-05 
0.0007334935548606546 
-0.0001261884197824653 
0.001916577611798809 
-0.00189824378374337 
-0.0006072450479283592 
-0.0006638596871525379 
0.0006401786840797725 
-0.0006138104048228868 
0.0004411007675472038 
0.0002286652171078336 
4.838602149653207e-05 
-5.183011322407465e-05 
0.0001185970741039352 
-0.0005844302216201814 
-0.001682905468218568 
-8.51383522020987e-05 
-0.0003601879744090423 
2.589359901011389e-05 
-0.0005433337806936119 
-0.0002067573424111188 
0.000130859217449127 
-0.0005205654629749659 
-0.0002161918092543551 
-0.0006874006810024487 
0.001432060827708951 
-4.244198957125573e-06 
0.001589711362779871 
0.002057586177135722 
-0.0004150672490265696 
-0.0003923774450665618 
2.851163289437123e-07 
-0.0002875452158032291 
0.001752987619641478 
-0.0003897573120810673 
-0.0001607822877007673 
-0.0008528243663870652 
-0.000634814602537623 
-0.001493563997303695 
-0.001158999726281611 
4.536025942427696e-05 
-0.0002708992290648254 
-0.0008373216076128834 
-0.000470123449859906 
-0.0002054066660589266 
0.0001345102739409312 
0.0006555014119632536 
0.0001708614783697334 
-0.001281107830820689 
-0.0001648354070936461 
-9.010489151579229e-07 
0.0008375037038614052 
0.0005514336432030218 
0.000915705054918877 
-0.0002540056807754389 
8.795889380983374e-05 
-0.0009309511009702161 
-0.0007823813601915025 
0.0002416590373370767 
-0.0001777954135113652 
0.003235867216625796 
-3.67693338879789e-05 
0.001602473812088033 
-0.0001972310349043048 
-0.0002986143840744335 
-0.001366753778969626 
-0.0006945643433331227 
0.0008178096165856799 
0.0001978764369757944 
-0.001377908360607048 
-0.0002150514773197971 
7.262451666356669e-05 
-0.000933432631444259 
0.0003990297032774598 
0.0006290203322607057 
0.00278182258764333 
-0.001070003457865414 
-0.000443325539287036 
-0.0001526549518673402 
-0.0005896104398861956 
-0.0005405480240725922 
-0.0001698672407673444 
-0.0005362318527820042 
0.001653973257902982 
-0.0009163256268785997 
-0.0002650299263197116 
0.0002867214898140005 
-0.0002527309253068626 
0.0001449405301564977 
-9.9650118593191e-05 
-0.0001789510340782756 
-0.0003918665453397423 
-0.0002695674714709979 
0.002741237452728181 
0.001119762014821194 
-0.0004383240751440008 
-0.0001086954341248195 
0.001012148931493264 
0.000521771808863047 
-0.0001536936839016307 
0.00265637815218529 
0.0003805658741635932 
-0.001197400014332788 
-0.0002639391768601311 
6.440053052154823e-05 
-0.0005706827459428278 
-0.0003238712698771495 
-0.0008187824508607256 
-0.0006955228758745612 
-3.06092619627602e-05 
0.0002544684062775695 
-2.333334762918704e-05 
-0.0004751629934796094 
-0.0003647588311235931 
-0.0004488845908887756 
-0.000140835924006292 
-0.001080034699014727 
0.0007695946189864668 
-0.0004845797361023775 
0.0007038917152748231 
-0.0001027743783432377 
0.0002938096172550755 
0.0001267900163099109 
0.0006937977762820074 
-0.0002651220043105181 
0.0003912338384493393 
-0.0002754742273014837 
-0.0004008879067029463 
-0.000352704522744415 
0.0002189308923552666 
-8.244727374051439e-05 
0.0006750774943386671 
0.0006947182834631998 
0.001851227282794601 
-0.00021554988098863 
-0.0005601166676750768 
0.001098454239844504 
-0.0004162161403170222 
-0.001749373210899855 
0.0008345306051428345 
-0.0008168246890986128 
-0.0005664418470452737 
-0.0001147591801293013 
-0.0002088449660248838 
3.307156971023119e-06 
-0.0005585723634140701 
-0.0002758563117502727 
-0.0002545434061338203 
-0.0003586593663086995 
-0.0001534325601275763 
5.511512921432852e-05 
-6.581171229985496e-05 
-0.0004467227782573285 
0.002741419307598468 
1.818127846718371e-05 
-0.000467589752469635 
0.0003936537134493541 
0.0004821766540861857 
-0.0008873637092150054 
-0.0008711559656639607 
0.0002642139638655328 
0.0001112029406263465 
-2.74896759542427e-05 
0.000596210519431109 
-0.0003098035259192287 
7.810028696114212e-05 
-0.0005182947802868555 
-0.0002976568273350356 
-0.0003829527354865719 
-0.0001174531225310141 
1.145946071965222e-05 
0.0001980554198035337 
-0.0003316156267852513 
0.001319935578374114 
-0.0009111453510732009 
0.001325438361232201 
-0.0007684933224891188 
-1.889505315857539e-05 
2.824091826690615e-05 
-0.0002182633986579041 
-0.0007093472392720726 
0.000627210165921422 
-0.00091719205673718 
0.0008528032241720288 
0.00075178234488832 
0.0004939215116754068 
-0.0001622611652619752 
5.067509732158292e-05 
4.156627703011912e-05 
-0.0004197436958305522 
-8.689654127359969e-05 
-0.0009095062188152429 
-2.590899161436834e-05 
-2.484577004191216e-05 
-0.0002183410992079223 
-0.0009014549674241199 
-0.0005358408258959376 
0.0001703724097735059 
-0.001083176711141329 
0.001108234867532106 
7.50602000445541e-05 
-0.0005051085394247155 
3.968722212039392e-05 
-0.0006016334561084369 
-0.0004460043602311892 
0.0007963983828022492 
-0.0003003021098682461 
-0.0004344428038645908 
-0.0004689258205799933 
0.003064028134384714 
-0.0007296050523407561 
0.0008826427502698556 
-0.0003360972347178576 
0.0008375164991806001 
-0.0005373544980839596 
0.0001574907347538785 
2.954725842234333e-05 
-6.942895319779974e-05 
7.550228477151168e-05 
0.0007065545123385591 
-0.0001700021907819657 
8.637843154279646e-05 
-0.0003760923002379833 
-0.0006210422697521581 
0.001643289840872537 
3.842611326558862e-06 
-0.001600237351471197 
0.0003364687087924928 
-9.555676679026364e-05 
0.0001629258373629458 
0.0005972744497356778 
-0.0001094677736751705 
-0.0002778762412090087 
-0.0005488498884645563 
0.0002131473559793169 
-0.0004985120655375214 
-0.0006501588770756534 
-0.0007525672817202919 
-0.0001262883142220679 
-0.0002041763934847562 
0.001813206131296919 
-0.0003495714923174668 
-1.999376761665628e-05 
-0.0001890373241250278 
0.0003108484153805509 
-0.000318358967082944 
-2.378808321031467e-05 
-0.0003715041535395577 
-0.0007852531427315305 
0.0004279787732876917 
0.001178848879430747 
2.862362027522966e-05 
-8.46826274259523e-05 
-0.0005825625206941686 
0.0006958918206195392 
-0.0001800976785443083 
-0.0004146879773705577 
-0.001221547666440461 
-0.0005036515698193132 
-0.0009862655396076314 
0.0003047086077985325 
-0.0007935866679491515 
0.0004498898940854778 
0.0004288365685699748 
8.886094821659774e-05 
0.001135404101041287 
-0.0001814467347179496 
0.0001939252647298057 
0.0003581527210494034 
-0.0003782254871397486 
0.0006661907453968504 
0.001575913803799413 
0.001112933728755022 
-0.0003466963166062017 
-0.0005261808885493832 
-0.0004011048798376887 
-0.0006648170307911423 
0.000100614576275425 
-0.0005722977474774043 
-0.001318621917541836 
-0.0008139971313158034 
0.000763313998346594 
3.131510864634453e-05 
0.001507181644654435 
-0.0003793390998040195 
-0.0004787143464284175 
0.00107906795882341 
-0.0001713229353701006 
-0.0001864025605861085 
0.0009508874860877399 
-6.571969370244833e-05 
-0.0009184056843375588 
0.0001156533084837768 
-0.0001839094322802355 
-0.0003998301476467428 
-0.0002445047359699669 
-0.0007226335656837897 
-0.0001583424684592146 
1.300344264139182e-06 
0.0002887722985693653 
-0.002353334418664638 
-8.833951387235062e-05 
0.0008656610008955547 
0.0001654843055519478 
9.005191717865938e-05 
-4.563538262389815e-05 
0.0002132249887826152 
7.332541671384643e-05 
2.770324644373042e-05 
0.001362133869281133 
0.0003358757079416865 
7.380498241379276e-05 
0.0001065103885702606 
-0.000986726612956301 
-0.0005342593117494033 
-0.0006367122335551118 
-0.0007605399083129442 
-0.0001030013457769434 
0.004193716359405374 
-0.0008320028709841235 
4.057426520144144e-05 
-0.0007953317106374491 
7.334126312693084e-05 
7.095970248896504e-05 
0.0009520461485498254 
0.0001613256704267996 
3.89635627357206e-05 
-0.0002679000959449622 
-0.0007833413868582302 
-0.001041284966330894 
-0.0004489657355874366 
-0.0003696131568457938 
0.0002023200256795391 
-0.001321848284701507 
0.0004564475641625585 
-0.0006684211171685869 
0.001019102121248946 
0.003914914565896872 
-0.0004612699400164788 
-0.0005200766923117318 
-0.0004301520997301876 
0.0001563213137472803 
0.0004811802652566972 
0.0006101462242704678 
-0.0001528776491123716 
-0.000504523198658804 
-0.0001602108034492599 
-0.0003297418178457538 
-0.0003850672195849903 
0.0001316341325788747 
-0.0003234829483916849 
0.000298637731227038 
0.0002372806544038313 
0.0001431583716458117 
-0.000403414112700184 
-0.0001632856383967305 
0.002342024887606104 
2.663379315232717e-05 
-0.0005250536105099354 
-0.0005152890262669963 
0.0001645942235595379 
-0.0001465029901851967 
3.687329947585787e-05 
-0.0004106516536514551 
-5.337294746445275e-05 
0.000262343107905931 
-0.0002455287324017519 
-0.0005452908886489959 
-0.000133925322866637 
-0.000118612198711341 
0.000749124735788852 
-0.0005401588538603167 
-0.0005860320364999854 
0.0004685615650824979 
-0.0002471894122727222 
-0.0004841602707425634 
0.0008575152548805202 
9.832140405805269e-05 
0.0007351776443958333 
0.0008037986848351108 
0.0001497615726432488 
-0.0005699225003000009 
-0.0003677202173336829 
-0.001375253053198795 
2.332033741751767e-05 
0.0002118033302120081 
-0.0002618376347856584 
0.0002612625261362632 
-3.858905601839989e-05 
4.046758431833647e-06 
0.0008538695864382996 
-0.0002074816728824188 
-0.0007053255231729781 
-0.0002579607747111722 
0.0005992921861815219 
0.0003492253262659873 
-0.0002481037484974466 
-3.887832485502363e-05 
-0.0002026386070596734 
-0.001367743088200275 
-0.0004897649216944086 
1.133820847269884e-05 
-0.0002983287153732807 
-8.600640792359321e-05 
-0.0004461558750958748 
0.0009544491970750495 
0.000890642849221206 
-0.0003870643929460083 
-0.0006302247742186189 
-0.001068217287472394 
0.003137689415863211 
-0.0004462432165207874 
0.0002762850047231911 
-0.0001028343770376069 
-0.0008142772217575746 
0.000168256627206196 
0.0003459662768562713 
0.0003388065234389478 
0.001100036995473135 
-0.0008460311718830174 
9.300424913456697e-05 
0.0001890295486714842 
-0.001353814465542889 
-0.0001544018822689882 
-0.0006185395805706973 
0.0009591875549583229 
-0.0001415686708458691 
1.082960480625601e-05 
-3.291798780165435e-05 
-5.613570431190925e-05 
-0.0003341193395691605 
-0.0001201422499005556 
8.85555951694457e-05 
-0.0003911999485351999 
-0.0001434737366003584 
0.0004139713979401849 
0.0003117989291614215 
-7.675377642117926e-05 
-2.431238702420563e-05 
8.880966843788411e-05 
-0.0003943968723852355 
-6.718009195759574e-05 
-0.0002536491295668141 
-0.0002092414732259415 
-3.649555302441541e-05 
0.002096376961318439 
-0.0009967855537900429 
-0.0001414079967188229 
0.0002207751270789701 
0.0002913595613865436 
2.164014833556169e-06 
-0.0005510191120747174 
-0.0004877935935331946 
-5.368661018363851e-05 
-0.0002335776793523908 
-0.0003193432100222059 
0.0004233435269232076 
0.0005314914486414479 
-9.917117121399654e-05 
-0.0001482317059860648 
0.002951928920591808 
-0.0002699118190203392 
-0.0002112374612166318 
8.057911101959554e-06 
0.0001336105030418346 
-0.0006895330436154851 
0.001010766439880426 
3.399631358222367e-06 
-0.0007850829484558758 
-0.0001706143611257008 
-0.0006883707054496254 
0.000121772213501559 
0.0001762749304514782 
-0.0002205744721019044 
-0.0009488285474110217 
-0.0002773812607028757 
-0.0001543497681836871 
-9.915743791517172e-05 
-0.0002459436088829984 
0.0004226700210782977 
0.001059533927609053 
-0.000449844448393617 
0.0007989621127299239 
-0.0009598078020049483 
0.0004474774907326597 
0.0003653916385722883 
0.0003415823194830099 
-0.0001066212355090321 
-0.0001284609555520085 
8.936139739553479e-05 
0.0001199876792349508 
-0.0001734691557111023 
-0.0004635657943302229 
-0.0004713866181788454 
-9.803458971952301e-06 
-0.0005136425664654421 
-0.0002810792132585141 
0.0001013262126021016 
-0.0003499979098038735 
-0.0003021211963976945 
0.002398478932321037 
0.0001725277057950579 
-0.0004827905894640955 
-0.0001771438900668443 
-0.001715018885393554 
0.0009621315046759513 
-0.0004947293171380512 
-0.0001558249418678642 
0.000143758118624265 
8.142990078477524e-05 
5.342810323703108e-05 
-0.0002562633318681954 
0.0004065041546976493 
-6.492081693379388e-05 
-0.000137398664435358 
-0.0002528406223291822 
0.0001228920521372328 
0.001256494906213571 
0.001576588315681779 
-0.001552385300271515 
0.000175293931308911 
-0.0004204435784258281 
3.953819083782612e-05 
0.0002099316347185624 
-0.0001269987551112131 
-0.0001150907209613342 
0.0003421662209511961 
-0.0002746377406244876 
-0.0001234245877061808 
-0.001061557360709354 
5.477372613312701e-05 
0.0004414296049937218 
0.0003716721425491982 
0.0004790436476472336 
0.0002318936243151359 
-0.001039462175313635 
-0.0001740448812625398 
-0.000677039398160503 
0.0002149266223290059 
-0.0008580657531729631 
0.0003703604616224191 
0.0001347748452444674 
6.452197773655517e-05 
2.931002972208599e-05 
-0.0001745675032059221 
0.001802570835714295 
0.0001575517264610134 
-0.000352241794759587 
-0.0001789323164718857 
-0.0002899878820268812 
0.0006293013652410717 
0.0008938645071157132 
-0.0007197386169544157 
-0.0006841158297537286 
-0.0004453824024872974 
-0.0002956269211547597 
2.896144703864656e-05 
-0.0007971857624699439 
-6.062687080262003e-05 
-9.925685150038896e-05 
-0.0002480268107642896 
4.729112192451742e-05 
-0.0009207558928281236 
0.0002186573793276684 
-0.0004885876612544685 
-0.0006389685193422609 
0.0002664229398777756 
-0.0003533014008050505 
0.0001088452805550916 
4.621234430907224e-05 
-0.000331532911531762 
0.0007345376211114046 
-0.0003101363127524279 
-0.0001045231323886056 
0.0002435867048240806 
0.00195949785317586 
-0.0003754230878862571 
-0.0005041891170551729 
-0.0005831343950115722 
-0.0001234312346127155 
-0.00037222803538835 
0.0001068814303036864 
0.001789087863067259 
0.0003618890008935947 
-0.0003671365535281825 
0.000161473835643042 
3.548423450017868e-05 
7.140235480628551e-05 
-0.0002000461173224271 
-0.00110453211014835 
-0.0002418086340228014 
-0.000422549388105974 
-0.0002485518782643373 
-0.0002954496626741635 
0.0004244509964877968 
-0.0001611037525346562 
0.0002881316331939826 
0.000755681448986996 
-0.0006873222935926949 
4.374248672637031e-06 
-0.0002645668109516393 
0.0001734821499301385 
-0.0007391300730272975 
0.00227953417525147 
-0.0001771383142440742 
-0.0002246701029917972 
-0.0006276764821913547 
0.0009120204052385446 
-0.001203262971166268 
-0.0002554701582463515 
-3.017520548497681e-05 
-0.000798947070778458 
9.016154486230597e-05 
-0.0001837573816560161 
-0.0003813598243516069 
-0.0003422166195672865 
4.511459829656523e-05 
-3.357080249443867e-05 
0.0002638685900425977 
-0.0004684912286139007 
0.001271810681810936 
1.409152861702513e-05 
0.0007121735060414563 
0.001231117010776313 
-0.0007773741241874867 
-3.901812707949125e-05 
-0.0004371326755024087 
0.0002192104839746454 
-0.001502371005329194 
0.0008016323063351757 
1.261595509933461e-05 
-0.0009594884537780281 
0.0009583928153426598 
0.00118996719609505 
8.498654904267728e-05 
0.001390708666582192 
-0.000146849472395808 
-0.0005890855507368254 
-0.0001926884122133581 
-0.0003007866159152278 
-0.0001273022985505169 
-0.00172118790024876 
-6.939196038374838e-05 
-0.0002454601902740603 
-9.30410462089753e-05 
-0.0001392237683749233 
-0.0003880503763094592 
0.0006410139991416289 
0.0002324940017768235 
-5.751337496115366e-05 
0.0001018868763170311 
-0.0004336733864099696 
-9.90086094016021e-05 
0.001609701180966512 
8.536998271780407e-05 
-0.0006003292526079668 
-0.0002374128065624299 
-0.0001393581032663771 
-0.0001552930890547864 
0.000344233919035079 
0.0004920868777670732 
0.0001205778782018174 
0.0009814208818853453 
-0.0003155736616788828 
-0.0001045525207596847 
0.0002704355023962508 
-0.0004642698286261746 
-3.490461322245721e-05 
-0.0008338943790151415 
8.762356900580256e-05 
-0.0001943155507548011 
0.001130717780882498 
-0.0004977002888081287 
9.659373462801466e-05 
0.0002768185285128623 
-0.001166288956974998 
0.0005460827555564581 
-0.0003037138887680867 
0.000174902349988897 
0.0005423272536423716 
-0.0008062818096210301 
6.999211313352253e-05 
-0.0001928849093183251 
-0.0006601004528355097 
0.001685969658897317 
0.0004634120350890503 
-0.0001326569079664579 
-0.001008951459633401 
-0.0002948678450235091 
-4.609275755066444e-05 
-0.0003621212334209421 
-0.0003784180295576807 
0.0002760129934264534 
-0.0009340412987845622 
-0.0005299840217055202 
-0.000131518443822623 
0.0001804484956126896 
-0.0001262074757978166 
-0.0001191033148637764 
0.00210368719575746 
0.001068609995174363 
0.0004036890844613607 
-0.0005606797817656369 
6.87241575966784e-06 
0.0003530980203600311 
-0.001227137325735411 
-0.0005323410917329332 
-0.0003510660935748909 
-0.001177335589548742 
0.0005064352404441646 
0.0007253005438680162 
-0.001009888372459261 
0.0008282200327122595 
-0.0003847001135915424 
-0.0001838051735437984 
0.002149565336563182 
-6.290919097676227e-06 
0.0009867196214862091 
-9.714835196031414e-05 
3.55955262460621e-05 
-0.001324370887824114 
-0.0001743717854429456 
0.0006523246726348413 
0.0003039189886677964 
0.0003660377798654583 
0.0004928052012010324 
0.0001028586333059752 
2.046467892697322e-05 
2.524951938753689e-05 
-0.0006319184225672397 
1.501427859464603e-05 
-0.0001253367754909379 
-0.0002476060514453628 
-0.0002177359550648198 
-0.000296458136680365 
6.770870491795692e-05 
0.0005257671349030045 
0.0003665260078066958 
-6.23486426080747e-05 
0.0005315446386935634 
-0.0005332763419991344 
0.0007812576873729234 
0.00108178690389732 
-2.354444293187765e-05 
-0.0008849281880261153 
-0.0001159392872131461 
-0.001408693381373541 
-2.935110174934232e-05 
-0.000531101085054758 
0.0001927915763105404 
0.0002202889514202584 
-0.0006152965635079896 
-2.300458035499517e-05 
-0.0005799086009623972 
-5.247150951436429e-05 
-0.00110601096504886 
-0.000475523862130791 
0.0001471475598312857 
-0.0001809139617937825 
0.0009601923362440566 
0.001525795868491823 
0.0005409626682664447 
0.0008185468559335431 
-0.001767568674307304 
0.0006319274796852248 
0.0001887273049052061 
-0.0001878936320865223 
-0.0002916824196770989 
-0.0006169464169290795 
-0.0002592222856246783 
-0.0001299385608529894 
-0.0002439210674217633 
0.0001631534665227426 
-0.0002059393999441969 
0.0006410194982569778 
0.00222047116910805 
0.001101236296864127 
-0.0004044207600540053 
1.337872306411721e-05 
-0.0005814760103331981 
2.898753332999538e-05 
0.0001958125556854038 
8.987162875534523e-05 
-0.0007737430700056955 
-0.001200491219308562 
-0.0007883236685717487 
9.076339048744369e-05 
0.00014307448046774 
-0.0001120787338591278 
-2.988144341244939e-05 
0.0004269672437146212 
-5.747653357455749e-05 
-0.0003079982232694412 
-0.000314155465484237 
0.000401334557338013 
-0.0003840085790685026 
0.0008358950431660105 
0.0008381190537536726 
-0.0003633124273843219 
-0.000772945041993902 
5.347983350235638e-05 
-0.000155462988078212 
-0.0005613853056168284 
0.0005481652521147594 
-4.103825038279112e-05 
0.0001610227297769993 
-0.000619173854118827 
-0.001153361958026484 
-0.0001328529030155924 
-1.264532244192973e-05 
-0.0002415082381075761 
0.001087950800682713 
0.001133054426624089 
-0.0002879415089830009 
-0.000342980158019516 
9.695217256232808e-05 
-0.0004340353953406969 
-0.0001168441553750829 
0.001257439469561286 
-0.0003598265131442625 
-0.00067571347778233 
-0.0007943780847182527 
0.001794744359968479 
-0.0002511003417433203 
-0.0001107565629881551 
9.529154911938413e-05 
-0.000234073611065554 
0.0008484568166353696 
1.734288030281531e-05 
-0.0009858596476858736 
-0.0003069437973376425 
0.0003677875165431492 
-0.0004475988770133041 
0.0001061282840818689 
-0.0006371740107114973 
0.0007788077905239131 
0.0008624443908350363 
0.0004188588601341221 
0.0001301668011187586 
-0.0006172693588737787 
-0.0007858071886373646 
0.0001037320773539402 
-0.000201846936004938 
-0.001169062421641726 
-0.000150268002425413 
0.001598647873453303 
-0.0002074519523283098 
-0.0001638144981950592 
-0.0007051110206572737 
0.0005279557624016829 
-0.0003739403904688254 
0.0001268909247517691 
-0.0003153981904157552 
-0.0008618926913886011 
-0.0001260572775776091 
-9.74781854219555e-05 
-0.0001723081369199222 
-0.0004809877410215137 
0.0001591041308911105 
0.0005764687364574816 
0.001375755325764041 
0.0001302425554830267 
0.0003311198079900226 
-6.905070811544001e-05 
0.0002338167293806731 
0.0002688305728565719 
4.864146082951535e-05 
0.0002372118386698825 
-0.0003365362119160058 
0.0002590879803227622 
-0.0007810297624262543 
0.0003756356801187783 
-0.0005475505737244527 
0.0005802441858376944 
0.0001483271485552182 
0.000886319689524495 
-0.0002137287394976066 
4.241229914919267e-05 
-1.561414692165585e-05 
-0.0004745663118304441 
-0.0001044982415502184 
0.0005386241436799366 
-0.001917948472818943 
-0.0001644036162433506 
-0.0004789027244390416 
0.0004044171792476687 
-0.0002258721637124986 
0.0001909778103980281 
0.0005211620242365137 
8.252319939748863e-05 
-0.0003749250281072464 
-0.000513581160388236 
-0.0002081227627400688 
-0.0001262227373580813 
0.0004876717528320603 
0.0008214046920594321 
-0.0001171530524103794 
0.0001015636469759232 
-0.0005812358868498273 
-0.0002603785008549949 
-0.0004014402659322838 
3.492352661078338e-05 
0.0003345087860228442 
-0.000331183423269855 
0.0001100175747630259 
-0.0004832079405154155 
-0.002010191764920988 
0.0006226100762126677 
0.0007103774676618154 
-3.468308981637572e-05 
0.0007280764023140128 
4.194061571722462e-05 
7.574781477065251e-05 
1.056868195304414e-05 
0.001018535358304724 
0.0001855122689106058 
0.001179859218887045 
-0.0001612788203695153 
0.002457552141448389 
0.002082333128363019 
-0.0003357016372546747 
-0.001243803065239107 
-0.0006469625061215775 
-0.0007224144800663711 
-0.0005838701100110636 
0.0001913554092526407 
-0.001739830944719785 
-0.0005883408963943978 
0.0007460968231588883 
0.0003417233604629835 
0.000123618448976286 
0.001355301687885418 
-0.0007737659533065636 
-0.0004719236320828547 
-0.000420480444511189 
-5.637261963650134e-05 
-0.0002398022095487211 
0.0001868217478997073 
0.0001063187207209624 
0.0005160909159656064 
-0.0001796494106105628 
0.001105172431714952 
0.001846918468270255 
-0.0009052579403231654 
-0.0003358713946000142 
-0.0001719722494331443 
0.0001946965938898256 
0.0001724934563783931 
-0.0001626924205417234 
-0.001707272463394957 
0.000352188525644544 
-5.494201266006286e-05 
0.0002127245868406787 
-0.0007527223590216309 
-0.0006555805340041832 
2.112325462012881e-05 
-0.0001319197200594703 
-0.0003796020837665073 
-0.0002070788768352309 
-3.057696467035092e-05 
-9.590623167751466e-05 
-0.0005787590665254037 
0.0006080085029633642 
0.0007976552014072996 
-0.0003709191921071991 
-0.0003569895456420891 
0.0005007784407558168 
0.0004655421336960788 
-0.0002817690670865707 
0.0006491360227819397 
-0.0004066478649193307 
-0.0002224179687849897 
-0.0001418548455985365 
-0.0002677257395461373 
0.0005992268625638324 
-0.0006244017204500652 
-8.314562904877489e-05 
-0.0001568377174861052 
-0.0001221549723479966 
-0.0005155312454460357 
-0.0002910086147465768 
6.345256776679154e-05 
-0.0007928114871235653 
0.0002183881243030485 
-0.0002054123561683055 
-0.0002256130648160682 
-0.0002173433681362352 
0.0002103998856232374 
0.0003571413393193623 
0.0004560412923375964 
0.0006855543482267957 
-1.026929066585976e-05 
0.001996701101774712 
-0.0002092083108799969 
0.0001876851859150376 
-0.0001511603290791912 
-0.0005509078101760497 
-5.052444582666341e-05 
-2.963579659913652e-05 
-0.0002726176812714182 
-0.0005754056587791584 
-0.0004273943873989454 
-3.011719505695586e-05 
-0.0003321539766089321 
-0.0004650398619402694 
0.0004877002800302012 
0.0007129113309003417 
-0.0001809305741691186 
0.0005067422735822776 
-0.0007600163476895656 
-0.0003113514615724985 
0.0003542459104804519 
9.71148501833962e-05 
-0.0006555069980077003 
0.0001607960256395866 
0.0003993153160947735 
9.276494401397693e-05 
0.0003348513710363493 
-0.0005387118008980572 
0.0002521077310381155 
0.0002823166199981422 
-0.0001814415376678195 
-7.712638876263471e-05 
-0.0004221966448814444 
-0.0006331442376333425 
-5.417112821034806e-06 
0.0001043633356801693 
-0.0003070435246204114 
-0.0001996427493223959 
0.0002923367185699791 
-0.000135105732616808 
-0.000451715651678205 
0.0003658603524819251 
-0.0004223600083921033 
0.0004604334842733864 
0.001295484878720125 
0.0003542567884210007 
0.0009582113969421014 
-0.001147879687336686 
-0.000437342198348557 
-9.642067632720935e-05 
0.0003433042939166833 
-0.0007745792736957411 
-0.0003767820685261298 
0.0003270783459169519 
-0.0005495364408379095 
0.0002103542355673178 
-0.0004547508950980601 
-6.321248795382531e-05 
-0.0003743736129162496 
0.0003936213173602434 
-0.0005394759469261177 
-0.000171030690237922 
0.00154010349001723 
-0.0004483115355956291 
0.000586521626439026 
-0.0006017425019352529 
-0.0002645725444357435 
0.0004226658984423686 
8.776730630468859e-05 
-8.906704471280288e-05 
-0.000811348929873134 
0.0002926984034077855 
-0.000331204327572634 
-0.0003638901875005517 
2.300939396085758e-05 
-0.000622957995670525 
0.0002781151565514882 
0.0006726980860365149 
-1.880484301310981e-06 
0.0009110060685241451 
0.001396377852299259 
-0.0004238360179372963 
-0.001266311625166144 
0.0007808393213683972 
-0.0007873915485828388 
-2.310692625243578e-05 
-0.0005205959441759577 
3.231430946185661e-05 
-0.0006445492389742802 
8.746588871131884e-05 
0.0001120689532727019 
0.000723776128221421 
-0.0002193252578263957 
7.236468248625092e-05 
0.0008039387863500538 
0.0003198826811698979 
-0.0004014026082299018 
0.0001197327091107391 
-0.0007198884757119725 
-0.0008094416625389166 
-0.0003034956382166778 
0.001128290255206304 
-0.0004705606327349412 
0.0001956847186087567 
-0.0001748818027306162 
-0.0004530457244521115 
0.0005363553507249292 
0.0006399423028527393 
-0.0002634474705683108 
0.0001362484445601905 
-0.0006246537053901108 
0.0001714452051920535 
-0.0002558787367611909 
-0.000106623348402253 
0.0003604033562180512 
-0.0006789780389789433 
-2.950846975412907e-06 
-0.0002506191908244378 
-0.0001474656422866931 
0.000258120553682911 
9.437386044232848e-05 
-0.0003146768483493988 
0.0008623330426130892 
0.0001138651885734434 
2.724436381355042e-06 
0.001080909885091735 
-0.0001975101101316216 
-0.0002021107506897225 
-8.039495009349558e-05 
7.71044379860254e-05 
-0.0001662110412861768 
0.000198582766219469 
0.0004996506409541247 
0.000438266469876228 
0.0003883923835554056 
-7.659006165315433e-05 
-9.995367647711354e-05 
0.00117230174637532 
-0.0001037254770915131 
0.0001665820364825274 
0.0003741068702066416 
0.0002509803986358935 
-0.001495700430950198 
-3.386182432766968e-05 
-0.0001593759877407159 
-0.0003275715660318959 
-0.0001327918754430734 
0.0003654682644696513 
-0.000198729886765114 
-3.545895050744979e-05 
0.0005437513990308962 
-9.633782931071694e-05 
-6.576997369541614e-05 
-0.0001425156553515498 
-0.0001578730470465255 
0.0004280503757832338 
0.0001140116509053874 
-0.001131611238279698 
-0.00104080956981174 
3.731757840631349e-05 
5.412680630440941e-05 
0.0003024266035607123 
0.0003445439263909332 
-0.0004811118818348127 
-0.0001242260635034628 
-2.033713452433729e-05 
-0.0008738268130266377 
0.001006286387600223 
-0.0001726625041627793 
-0.0002761482976876885 
-0.0001797632868449586 
-0.0007655634157018575 
0.0002279284901887268 
0.0002936100007718882 
-0.0003139275990553148 
-0.0006774769208103615 
0.00113943652400819 
-0.000481837931961641 
0.0003078670547721167 
-0.0004792407879235452 
-0.0002534900221734926 
0.0004687904859805373 
0.0008595785316270335 
-0.000136862026926631 
-0.0004681080114008659 
0.0007665591411442409 
-0.0007756633035697642 
0.0004022918828043645 
-0.0006674946663206255 
-0.0001448558933929361 
1.457467129865334e-05 
0.0009196874372514332 
-0.0001171788431555274 
-5.612381798110068e-05 
-0.0001561602204043633 
-0.0003917848469856675 
-0.0005992470863251156 
0.0001773421427932413 
-6.331673729713296e-06 
0.0001494671906514938 
-0.0007076619988219117 
-0.000250516813209508 
0.0007220413295710664 
-0.0002828926740618266 
-0.0002438787835725104 
0.0004604981203989164 
0.0005159425640995838 
0.0005066014535214758 
0.0008841929615849164 
-0.0002310492968633914 
-0.0002757953296951093 
0.0002071336882321053 
0.0002483499079229029 
0.0003560266217327452 
9.192528060187526e-05 
0.0002112617681894681 
-0.000456488326822227 
-0.0001965575590085827 
-0.0001285921787217979 
-0.000527727004866172 
-0.0003332381010257341 
-3.6122213288425e-05 
-0.0003665961120123637 
0.0003512092636555749 
8.577477861936456e-06 
0.0002024146734513131 
-4.396400780489627e-05 
2.331389184577928e-05 
0.0001576231381356088 
0.000327350979519759 
0.0009251660356961014 
-0.0008979868710612021 
-0.0001078475101877019 
-0.0001121158074904626 
-0.0006271702657561744 
0.0002738203676070246 
0.0004977119252203906 
-0.000303559408324024 
-0.0006523917551105333 
-0.0002447897334824358 
0.0008604196961752211 
0.0001646935125894548 
-2.893826394861602e-05 
0.0009270406529570708 
0.0002130158324333531 
-0.0001850348381092955 
-0.001256694794951066 
-0.000268686864109151 
0.0002288004584544455 
-0.0001011265781574133 
-0.00010250624403349 
-0.0004150569807324176 
-0.0007281652006269349 
6.752028316556996e-05 
9.388256246178813e-05 
0.0009970483081585379 
-0.0002399814605638019 
2.916385399561077e-05 
-0.0003871144581504875 
-0.0001945678751870725 
2.652154295317121e-05 
0.0008777142140954519 
-0.0004311287603777554 
-6.33516341226708e-06 
-6.681788461522029e-05 
4.9429408681829e-05 
-0.00024315775640719 
0.0008270868919974095 
0.0003510717987075895 
-9.163547313311207e-05 
-3.970109368558768e-05 
-0.0006593771697896058 
-0.0004566061145624178 
0.0006124168825808006 
-3.528843793896964e-05 
8.403516299935938e-05 
-0.0001353263629340875 
-1.070650155228425e-05 
2.09241736406678e-05 
-0.0006121332699991561 
1.914336443177807e-05 
-3.372913234614903e-05 
-0.0001923156931955177 
0.001221152009424509 
-0.0001523826733772193 
-0.0001263873685608512 
0.0006806594220366255 
-0.0006884063493814142 
-0.0005923954535166234 
0.00108483007075235 
0.0001083749435523913 
-0.0005809714408757126 
-0.0004265241928631531 
0.0004827110665942063 
0.0008825981021418402 
0.0001337572552733903 
0.0002325583430397232 
0.0007553599402370557 
-0.001036201272309164 
-0.0004041085456887874 
0.0006221197419904429 
-1.945303539449352e-05 
-0.0008826321091758175 
-0.0006856389254868443 
0.0002855209570674992 
0.0005286898727791928 
0.000371725260996186 
0.0001709297658162594 
-0.0002195335132459672 
-0.0003901891940434976 
-0.001536351725594534 
-0.0001037454493164377 
-0.0007451654883424232 
-0.0006059964113179602 
0.001076853781019524 
-0.0002366298682905147 
-0.0002084841262173937 
0.0001004890829806237 
-0.0005980090351451327 
0.0007527282340718828 
0.0007341936484170525 
7.781671935072143e-05 
-0.0004639634423104763 
0.0005524944577196862 
-0.0001163588955019299 
2.7116798161096e-05 
0.0001308078383711441 
-0.0001253299530631269 
