solver_type L2R_L2LOSS_SVR_DUAL
nr_class 2
nr_feature 17350
bias -1
w
0.0001297350469309871 
-6.006593583439311e-06 
-5.336989351917652e-05 
0.0001044280836298661 
-3.061466858540261e-05 
5.58663332117149e-06 
2.399362211878468e-05 
1.532785247358993e-05 
-2.11700916546521e-05 
7.21276416154233e-05 
-1.008676017619819e-05 
-7.97495890155317e-05 
2.139441262642009e-05 
-1.817077688522227e-05 
8.431314462843601e-05 
-5.066022369452939e-06 
-0.000120816416262296 
-9.936477261882059e-07 
8.540201179876053e-05 
-4.07747312414939e-06 
2.312898481269694e-05 
-0.0002301037041298483 
-7.309159155674488e-05 
0.0001021053903149301 
-8.605378887248421e-05 
2.182618251494413e-05 
-1.596978469951503e-05 
0.0001809338982469644 
-0.0001349717842040227 
-4.908957909331072e-05 
2.017896088869732e-05 
8.046523972291418e-05 
2.226921910290128e-05 
-5.493653592074322e-05 
-5.625149570097895e-06 
5.872969074404417e-05 
-1.578124224959376e-05 
-1.215116962676042e-05 
2.608475782969114e-05 
4.540420307464435e-05 
-0.0001559532936923896 
0.0001343380557622881 
0.0001549650152184785 
9.655789692188356e-05 
-9.314593158897154e-05 
7.752562456576898e-05 
-6.912783093181523e-05 
-0.0002138873378878039 
5.141927736722448e-05 
3.955393901270504e-05 
6.626132571503401e-05 
2.627396999806931e-05 
-2.854658943448039e-05 
1.676881157117482e-06 
1.078346647251867e-05 
-2.038289246331159e-05 
9.376353418143363e-06 
-4.695731511035232e-05 
-8.318760908902894e-05 
-5.277753513819871e-06 
1.108760492867166e-05 
2.359696455373236e-05 
-2.668630403517184e-05 
7.287649458374443e-06 
5.901861436016316e-05 
-8.683505553139255e-05 
0.0001406685712328325 
0.0001422929300267018 
9.552597326689299e-06 
-3.725751033064472e-06 
-0.000100833611650456 
1.669370301324472e-05 
-1.829964471155741e-05 
0.0001499304394005242 
2.945842701238157e-05 
-6.577025121540082e-05 
-2.404958660812095e-05 
7.298541557088583e-05 
-3.624360984514207e-05 
4.210883757016639e-05 
-5.512517979149591e-05 
6.969600567500084e-07 
9.590342322353492e-05 
3.063883841305716e-05 
9.993360597772776e-06 
-0.0001464534675627154 
-7.049030884871269e-05 
3.727858401994352e-06 
3.225809266364239e-05 
5.668573674970554e-05 
-1.69892601185331e-05 
0.0001185811149273435 
-0.0002221920807348537 
4.742678068636698e-05 
-4.51993132862192e-05 
-0.0001348696401091405 
2.098333847935763e-05 
3.192296382101369e-05 
1.885690723885684e-05 
0.0001097447163640816 
-4.672486521679642e-05 
1.384128104962999e-05 
2.794779545154895e-05 
-8.228259746683182e-05 
6.024080883359361e-05 
0.0001117640536817139 
8.359716942027663e-06 
-6.441034891075706e-05 
5.08012385851969e-05 
-6.662631151969893e-05 
1.507186407857358e-05 
-0.0002315766756634443 
-9.227327111021851e-05 
2.751840661173627e-06 
-1.248273589357016e-05 
2.248794073575295e-06 
-1.626055184521412e-05 
-1.100167624925696e-05 
5.870134326017546e-06 
-9.534792715453788e-05 
0.0001391674171132291 
-1.449748107823e-05 
4.684730158285122e-05 
0.0001020655740016097 
4.493016076759641e-05 
4.577765557894498e-05 
-2.247416129401335e-05 
-7.169001904107093e-05 
6.594542624434306e-05 
2.435019968958181e-05 
6.435534341837389e-06 
8.739078866278971e-05 
3.702189431532058e-05 
-7.883827937722637e-05 
-0.0001336096030785423 
-2.099012832622129e-05 
-8.49576815519394e-05 
-1.420590089789605e-05 
5.420364258256585e-05 
9.668517670179343e-05 
5.210936384090119e-05 
0.0001506998983636274 
2.865047798111454e-05 
-3.337724213469194e-05 
0.0001208808728949669 
-0.0001120552036152978 
-0.0001058512636945665 
2.647458016218047e-05 
-2.025697675285673e-05 
-0.0003533408608608394 
1.215593365395212e-06 
0.0004491534920502846 
1.228874072612894e-05 
4.510667810529246e-05 
-0.000269105634872954 
4.38064087757552e-05 
-8.903986336073836e-05 
1.141424395738824e-05 
7.077027699528878e-05 
-3.742971104583714e-05 
4.466572741063922e-05 
0.0001032310629228938 
-9.196032205256194e-05 
-1.247535284420474e-05 
1.974037722527836e-06 
3.552583599352893e-05 
-3.091568804895297e-05 
2.361774759600727e-05 
-9.569543163654564e-05 
-9.412381933448045e-05 
-9.735816956003096e-05 
-3.701079460735051e-05 
0.0002202524148757 
-7.352859538618543e-05 
1.586042073666074e-05 
5.989739802673374e-05 
-3.155965129113878e-05 
6.675523975563382e-05 
-7.703535268321488e-05 
5.070575235449712e-05 
1.572769553441736e-05 
7.471046484213022e-05 
1.405186756473918e-05 
2.645858119537213e-05 
-2.91764686532283e-06 
-3.076191687523018e-05 
-2.899263202304728e-05 
-0.0001053945260316486 
4.611257295181271e-05 
6.222220165012115e-05 
1.609826435756751e-05 
-3.65924460641152e-05 
0.0002595760976109561 
0.0001758613929849242 
0.0001078513489455619 
6.718866250871128e-05 
-9.208931374955172e-05 
8.937306668913506e-05 
4.859384976304356e-05 
-0.0002685221116553608 
2.276369831312548e-05 
-6.778344584366286e-06 
6.011355127418993e-05 
-0.0001294887230594264 
-4.144626329462869e-06 
-2.988956689774588e-06 
-3.194666124922975e-06 
-0.0001590727087770658 
-0.0001131890194569797 
1.720202657262703e-05 
-4.627199804105132e-06 
2.047444758964627e-05 
-1.911193504369692e-07 
-5.009716775780426e-05 
1.195644495819508e-05 
3.539303235291863e-05 
8.592795010404587e-06 
4.113172963672593e-06 
-6.00457931129686e-05 
1.815583489284967e-05 
-6.697308254136556e-06 
8.625984970729952e-05 
-6.148430005090317e-05 
-3.931297319304426e-05 
-1.627291682426052e-06 
-8.520842261038956e-05 
-1.467006840713362e-05 
-8.894157712765177e-05 
9.348388877730217e-05 
5.11329546864546e-05 
4.861957155792285e-06 
1.262455060908505e-05 
-3.179060633901348e-05 
-4.987271638868186e-05 
5.569537163485098e-05 
-1.873830703340805e-05 
3.760172670201065e-05 
-0.0001466868119152386 
-7.611353697533358e-05 
0.0002002429790621469 
-4.273759383115401e-05 
5.476090833872946e-05 
1.05069557233721e-05 
6.777819736064925e-06 
-0.0001388466626037982 
-2.735358487794147e-06 
0.0001970006749967127 
-4.719855399847282e-05 
1.002246700074117e-05 
-4.444292109015929e-05 
0.0002186110998211821 
-2.023872846459709e-05 
-5.254687265162733e-05 
-6.919238052928409e-05 
-9.302514349423631e-06 
1.911251042809626e-05 
5.297181699603825e-05 
-2.529404901204026e-05 
-1.717958343263194e-05 
-0.000217091141370053 
-6.419867646090176e-05 
3.925210608297455e-05 
1.454704110334041e-06 
-4.95604742817808e-06 
1.161392496677556e-05 
6.361914446722638e-05 
2.306539283897298e-05 
2.509419671659157e-05 
-0.0001720161466454798 
2.158264195915139e-05 
2.874284864982013e-05 
9.763888819566271e-05 
-3.523502237935602e-05 
6.490328554016082e-05 
3.252214195017779e-05 
-1.256925935847771e-05 
-1.273567684694593e-05 
-0.0001375048748232347 
2.996941122759688e-05 
4.077629185899815e-05 
0.0001093832540907176 
8.90450301766283e-05 
4.633560239953642e-05 
-0.0001253738761870226 
5.344853750600542e-05 
-2.92138916287329e-06 
3.272471290247248e-05 
-5.52324934169339e-06 
4.510260415150247e-05 
2.535373088894196e-06 
-5.10222231817166e-05 
-2.711623938740631e-05 
-4.265018101005941e-05 
-1.708916486623196e-05 
-7.427548471512787e-06 
3.11688347911028e-07 
-8.158955293910754e-06 
9.279332554444206e-05 
5.38065375230598e-05 
4.782491298103285e-05 
0.0001038213630506984 
-1.291290592344525e-05 
-3.941216393497018e-06 
-2.016538668230971e-05 
-8.015329882278606e-05 
-1.258119091831216e-05 
-0.0001080651838268708 
-8.503892170553448e-05 
8.699248843984839e-05 
-0.0002643460448683842 
-0.0001571461680196036 
2.81279962832534e-05 
-0.0001078574121333735 
-1.951153824253624e-05 
0.000145700002571886 
7.140148006578987e-05 
9.686294060761175e-05 
0.0002380156423251657 
-3.983584224556758e-08 
4.347200079559611e-05 
8.175054616535728e-05 
-1.196664428709303e-05 
-8.036234717178255e-05 
5.759685251399746e-07 
-1.605686899502092e-05 
1.589436225750987e-05 
-0.0001098722029155216 
-3.68343879209922e-05 
7.104776460871019e-05 
-3.901112491125431e-06 
7.401647369170247e-05 
-5.73891494977698e-05 
-1.851889001728414e-05 
-4.203171556032576e-05 
3.587477356477279e-05 
9.645607193185157e-05 
-3.980203364688006e-05 
5.321153676194055e-05 
4.120658164779704e-05 
-0.0001915336435961961 
-7.07164078188161e-05 
-2.725294876481854e-05 
-2.638516761140249e-05 
7.095128823721419e-05 
-1.261475429481713e-05 
0.0001029150459510841 
6.296899553188506e-05 
0.0001259054799835012 
-4.676691577270575e-05 
-3.650334030140572e-06 
2.309181407271785e-05 
-2.866623835154175e-05 
7.823461913993322e-05 
-1.154045181356002e-05 
4.432257671602533e-06 
-1.991277651906411e-05 
0.0001303874377268649 
-2.45795505830697e-05 
6.310233550869095e-06 
-3.946557974215175e-05 
-3.262085675836199e-06 
-1.189397921376202e-06 
1.928358196586179e-05 
3.035860528604051e-06 
-2.547163945475101e-07 
1.273165072915317e-05 
0.0001195013593877353 
-8.324146532740744e-05 
-0.0001206550536271671 
-9.678599582800079e-06 
-2.66446495938611e-05 
-2.568636375809485e-05 
-8.427942528165513e-05 
2.912060037827975e-07 
2.299898669502056e-05 
-1.373375110233054e-05 
-0.0001165934838904268 
0.0002759022682515602 
-0.0003284453160926188 
-1.955232059904231e-06 
0.0001258204056266991 
-1.051332482227375e-05 
0.0001011831610658422 
5.306313563156584e-05 
-6.599157365255525e-06 
-0.0002024318023027309 
-4.163156960059323e-05 
4.825089837625044e-05 
-0.0003392747196925772 
0.0001627982945248778 
4.037824554946503e-05 
-0.0001340188749052457 
-3.775110072636534e-05 
-1.599737742494343e-05 
-1.080782282317392e-05 
-3.805127781413186e-05 
0.0001844070473366957 
-3.277984833305362e-05 
-5.249881055372583e-05 
9.255121829131517e-05 
9.953068297497892e-05 
3.425956710058443e-05 
0.0001808678593671509 
-5.05694718624909e-05 
7.394543254925271e-06 
-2.84923190526702e-05 
-1.249392903403777e-06 
-2.412205803602139e-06 
2.996196684232726e-07 
-1.145841313908049e-05 
0.0002073422135056106 
-2.537189766171988e-05 
-5.750925039760101e-06 
7.060642149429612e-06 
2.561043097688078e-06 
9.900519940828356e-07 
-8.758164371007552e-05 
3.606461323708855e-05 
5.305768546032615e-05 
-0.0001206414245316269 
-7.148433525850199e-06 
-7.983590323134268e-05 
-4.217296961262238e-05 
5.501006426068188e-05 
2.30668326777841e-05 
-1.516382819033161e-05 
1.855939734808483e-05 
0.0001109206677027225 
7.73991776542929e-05 
-4.383921464791671e-05 
2.722711456855198e-05 
-9.057987579498649e-06 
-5.19904838499093e-05 
-9.940183382434015e-05 
2.182682474171226e-05 
-4.547732629557763e-05 
-8.502375582580769e-06 
-2.405955249359888e-05 
0.0001740181160938578 
-6.828958140909858e-05 
0.0002151603568084438 
4.894699539605892e-05 
7.965293865665409e-05 
5.897083516660581e-05 
2.963083745760166e-06 
-4.839530035657703e-06 
-0.0001751274476842504 
-8.817022712739543e-05 
1.516506668438926e-05 
4.670149051154606e-05 
-2.311161551284025e-05 
9.666961705776799e-05 
-2.216514490749563e-05 
2.420774010351154e-06 
2.073843332768125e-05 
1.052285712519495e-05 
-0.0001547205716393346 
-7.384732007738123e-05 
5.855846319204055e-05 
-0.000271554928274011 
-5.987511483476559e-06 
0.0002818716056336988 
-2.935456922453143e-05 
6.653072478118464e-05 
-4.419381929455296e-05 
5.884953998417404e-08 
-0.0001492083524508873 
7.742659649093378e-06 
0.00010069580155165 
-2.945203940803712e-05 
-2.264599065173482e-05 
-1.770073170223126e-05 
-3.156204444646893e-06 
2.917515260362941e-05 
2.535354150691597e-05 
2.733185734013794e-05 
1.792905987454025e-05 
5.012151492902641e-05 
-8.589966046686263e-06 
2.964623598596174e-05 
6.57766840944036e-05 
0.0004522089032967984 
-0.0002589491815220943 
3.390966520795672e-05 
5.244178042119914e-05 
-1.262953685980098e-05 
-0.0002581447942121831 
-7.641620384655996e-05 
-4.455479211398122e-06 
-4.71136561377904e-05 
1.41836337229954e-05 
-1.760573692391099e-05 
1.162997396458557e-05 
7.367098500355025e-05 
6.938592985020652e-05 
-0.0002254727719774836 
-4.095828101120055e-05 
-3.339897531449213e-05 
4.461296039210354e-05 
8.64052681760064e-05 
-2.616227675354179e-05 
6.302842965456405e-06 
6.131381967178013e-07 
-3.035562588523711e-05 
2.650035517720426e-05 
-7.902279493012329e-05 
0.000121231334387152 
-2.31933709964307e-05 
4.367159547832562e-06 
1.990045013262658e-05 
9.252195207882461e-05 
-1.02393908464218e-05 
6.834089584094187e-05 
3.39269314087557e-05 
-8.174757010840332e-06 
-7.889746894594414e-05 
5.171659510934796e-05 
8.88985666193026e-06 
1.97084422455574e-05 
5.792131085082706e-05 
-2.937279174491864e-05 
3.627574010468878e-05 
-0.0002521215135197148 
-4.273422749227616e-06 
-6.133906884549723e-06 
-3.863825777966176e-05 
0.0001212457597702331 
4.310961972894013e-05 
-9.168657074619056e-05 
-3.492333173589822e-05 
6.770750613381046e-05 
-4.660785726419027e-05 
-3.233126170664084e-05 
3.210404247359431e-05 
2.856626889187249e-05 
0.0002323906117086397 
-8.235321498902152e-05 
-7.728178699599105e-05 
1.256866947347615e-05 
1.686048169215528e-05 
-2.350117583659285e-05 
9.427446156888266e-06 
-6.190836796924797e-05 
5.899044781391979e-05 
0.0001259000065752478 
3.333267367402002e-05 
5.282728192274987e-06 
-0.0002566553281083133 
-1.205289208253902e-06 
3.736870274876134e-05 
1.427395502793993e-05 
-2.069621060176047e-05 
4.855640068826039e-05 
-1.710443404527616e-05 
-7.473805191681593e-06 
3.06861891070976e-06 
1.013610137814417e-05 
-5.593590981696132e-05 
-2.153793953436846e-05 
-2.644448245081909e-05 
-7.246511661775531e-05 
1.729657467602113e-06 
0.0001701246005461087 
-8.826246266372926e-05 
-7.716312556216691e-06 
-9.470934557894602e-05 
7.805661780626207e-05 
2.668063580619827e-05 
-2.594847978036437e-05 
-7.301888286122535e-05 
4.407824605568431e-05 
-3.338460856974862e-06 
4.315112681208723e-05 
6.066832752061823e-05 
-0.0002269509034563755 
0.0003285999043060534 
1.71080351947324e-05 
-6.304626878859091e-06 
-3.814372564845125e-05 
-6.62697160194481e-05 
-2.720503666675725e-06 
2.057226871535579e-05 
0.0002159550860807324 
-5.262512865715337e-05 
-5.029864810342733e-05 
5.659418214166311e-05 
3.350842779541578e-06 
-5.131965443795403e-05 
-9.149280290148025e-06 
-4.090062804286858e-06 
3.312718081246352e-06 
3.697067080593483e-06 
-6.591372405886326e-05 
1.406392415281473e-06 
0.0001304255166838221 
1.565940864037882e-05 
-6.488379692569349e-07 
-4.487730213702582e-05 
2.672294679605376e-05 
6.142524884393242e-06 
0.0001417812974887208 
-0.0001933604267164951 
0.0001026858226498789 
-0.00015574118159132 
5.894650497071172e-05 
-2.228582405717769e-05 
-7.902478951420337e-05 
6.995775813459175e-05 
1.22748357132641e-05 
3.38297175460402e-05 
-4.12981332006309e-05 
4.234487200569251e-05 
-8.681769977055333e-06 
-1.410480304252915e-05 
-4.471520648024805e-05 
-5.194180357766971e-05 
-4.296278940036831e-05 
-8.232111161544275e-05 
-1.360287736108369e-06 
3.862224396669413e-05 
0.0001117562236261082 
6.912704753002089e-06 
1.3081111133262e-05 
8.447022817144316e-07 
-9.599761713742651e-06 
-2.637630306637091e-05 
5.717526487346783e-05 
2.86834181157709e-06 
-8.358231097024501e-05 
3.346307328493122e-05 
2.63918374094264e-05 
5.125173543868394e-06 
2.769482480865456e-06 
-8.617349397845206e-05 
-9.232169467102703e-07 
2.098915647678265e-05 
-4.467150768836777e-07 
6.837274921834256e-05 
4.949524071547857e-06 
4.426163277282246e-05 
-2.825129577645181e-05 
7.19603312152256e-05 
-7.681225420106211e-06 
2.455658790280923e-05 
-8.279612014042559e-05 
0.0003744895306233155 
-0.0001198364879736442 
5.384474670672685e-06 
-1.603768342111769e-05 
3.008062823162837e-06 
0.0001024992856252571 
4.63867093499089e-05 
7.061580185500492e-06 
-1.679968988503702e-05 
-2.82351857129734e-05 
-7.867754997659465e-08 
2.207372565625632e-05 
-9.88441394122566e-05 
5.558014829169555e-05 
-1.209006753052681e-05 
2.583171478752916e-05 
-0.0001563967612899603 
-8.778759775412784e-05 
-1.568983737299386e-05 
-1.260356640000451e-05 
-8.046359484836122e-06 
1.155360154187784e-05 
2.077841411422111e-05 
-1.795723714341251e-05 
1.217275171748849e-05 
-3.454664082991302e-05 
-8.113405220211037e-06 
1.968918666235431e-05 
2.942965832520574e-05 
-1.014613531090011e-05 
-8.657313105197802e-06 
-2.945203940803712e-05 
8.623243056299804e-05 
2.823075329246638e-05 
0.0001135809664832562 
-2.980436126327418e-05 
6.588157793982122e-05 
-4.565777582756872e-05 
4.7580435913501e-05 
0.0001648845005218784 
-3.514951691660237e-05 
0.0001494215381627624 
-6.334257264474668e-05 
-7.006256965836778e-05 
-2.345884993912381e-05 
1.441026442159581e-06 
-0.0001144309849537939 
-6.469357223677957e-06 
-8.62828257858561e-06 
1.994053713780501e-05 
-4.566784205977782e-05 
-0.0001653212369199188 
-4.779324621504983e-05 
-3.090164029349647e-05 
-1.598945817834714e-05 
5.305551653688147e-05 
4.697536075437015e-06 
-1.048892235687771e-05 
8.901380983767859e-06 
4.571678246911594e-05 
8.417261750840715e-05 
2.475948812183618e-05 
-1.668998014443735e-06 
-6.64830419132285e-05 
-6.639444072474353e-05 
-2.945203940803712e-05 
1.983875849606214e-05 
-0.0001484261850290087 
8.714745623694442e-05 
4.455879476522975e-05 
6.841450278909457e-06 
-2.536487954508346e-05 
-3.29296757621607e-05 
-2.044617117610343e-07 
2.737981790582175e-05 
-6.609555613270435e-05 
-0.0002241204029291966 
0.000106520167143025 
0.0001955927953330135 
6.469553802159498e-05 
-7.862088930051715e-05 
-8.230993962761991e-05 
2.856685889780593e-07 
6.913161937556585e-06 
6.762657044418135e-05 
4.564772276134611e-05 
1.627684338322032e-06 
-6.18527262356801e-06 
3.460857977705219e-06 
-4.015772749921624e-06 
3.103116333089482e-05 
-4.842112180229517e-06 
-9.336194826222826e-05 
3.01035049985671e-05 
0.0002234946371005116 
2.068807416205811e-06 
-2.905743668920655e-05 
-0.0001773021092187548 
-2.0071501671518e-06 
-1.040291258011173e-05 
-2.314194477920853e-05 
-9.217442420427091e-06 
-4.528648641628453e-06 
-1.018539864106425e-05 
9.532527418375446e-05 
5.892685419763665e-05 
3.201580807088004e-05 
-3.70985733936319e-06 
-8.573008787157577e-06 
1.30322266859915e-05 
-3.928905673428217e-05 
-1.148396347165745e-05 
9.886679116464796e-06 
3.578645002632599e-06 
-1.696654288676131e-05 
1.968874672710885e-05 
6.106871439431692e-05 
5.496138160956812e-05 
-4.950817059990084e-05 
-2.947395717116676e-05 
-1.911909573823535e-05 
-4.725170436543548e-05 
1.681612135728418e-05 
1.501492562214007e-05 
0.0001198498837315897 
-0.0001068969651559041 
-9.121585841309823e-05 
-1.848995438564821e-05 
-1.111253549011645e-06 
-3.279496444525155e-05 
-1.157739593542784e-06 
3.92325763737877e-06 
1.107068592187867e-06 
1.329557141517076e-05 
3.620652566322822e-05 
0.0002298884116447093 
7.551210219098818e-05 
-0.0001678212367267355 
0.0001659906224192775 
3.20933709237651e-06 
-2.309797781702696e-05 
-5.528463707960394e-05 
1.41549864046877e-06 
-6.389733254663265e-06 
-2.149971382811685e-05 
8.339824646520653e-06 
-3.257559309982465e-05 
2.044128804963824e-05 
-0.0001383737108169973 
-7.284161466648925e-05 
6.944610993833097e-05 
5.53964551116416e-05 
-4.84570937390716e-06 
-9.622771339745579e-06 
-3.472508663126375e-06 
0.0001264765506008366 
-0.0001239681385300917 
1.105663090660492e-05 
-2.046386057153484e-05 
-4.250722644114301e-06 
8.550074498087176e-06 
6.275445698073455e-08 
-7.415157241825533e-06 
5.730760338287684e-07 
-1.691284145974333e-05 
4.118053216371036e-06 
2.909118902863431e-05 
3.87171905563331e-07 
1.498063399420435e-06 
4.957070534280924e-06 
7.299500611712527e-06 
1.722073577609325e-05 
0.0002017247230190874 
3.746689065419371e-05 
-6.121449567085609e-05 
-3.734417136551526e-05 
-3.201562009184014e-05 
-0.0002413866273484147 
0.0002068677164056708 
-5.417435970412643e-05 
-6.970045415525785e-05 
0.0001406660896182616 
-4.131909111877056e-05 
-1.296021397578688e-05 
1.04843400330224e-05 
-2.597936573022664e-05 
-2.785057090359488e-05 
-0.0001320723599802525 
8.034477955222483e-05 
0.0001235208527276593 
-0.0002174507305683873 
-3.259315618825497e-07 
3.888392149286348e-05 
-1.784828156965372e-05 
6.700335596663485e-05 
-1.733022371477344e-05 
7.740983265739294e-06 
1.169661714780418e-05 
1.14199084540051e-05 
7.597446098817825e-05 
5.213098610716144e-06 
3.401076222494579e-05 
9.074748951171806e-05 
-1.593718577051992e-05 
3.79201016731295e-05 
2.39081057860157e-06 
-6.577125995843807e-05 
-2.818934734269029e-06 
3.033394026912162e-05 
5.793621772467147e-06 
-5.227928478378247e-05 
-5.046165409642384e-06 
1.357488257853865e-05 
1.727679544192727e-05 
3.435244450231995e-05 
-2.772901831239446e-05 
5.240845676862662e-07 
-7.098101667568291e-05 
-3.158757809965188e-05 
-7.057339643022688e-05 
9.26378166384099e-05 
-4.497949252940979e-05 
5.056259164664104e-05 
-5.860240254203159e-05 
-1.568611113626057e-05 
6.794874547822146e-05 
1.023122203441502e-05 
7.609057770227624e-06 
1.405651700044862e-05 
5.5191126796423e-06 
3.492106952605547e-05 
-1.100456934246977e-06 
7.832066677077092e-05 
-3.554426378260689e-05 
-5.67177599809145e-05 
0.0002372264644255344 
7.858819754330845e-05 
-2.387624593598163e-06 
-1.188105968173429e-05 
-5.462263761301552e-05 
-1.823387368602963e-05 
-0.000259832797289942 
-3.604539335737639e-05 
-1.946468785045914e-06 
1.034017121441418e-06 
-2.016404106913386e-06 
4.899770123756309e-05 
-1.625725808861927e-05 
4.584584356027627e-06 
-7.5087021867101e-07 
-1.351455328511449e-05 
1.92992150124425e-06 
0.0001019684706917964 
-2.64451216471032e-05 
1.955806741099063e-05 
-8.790703215837543e-05 
7.296185385541604e-06 
2.735377514261859e-05 
-4.020710744084196e-06 
-4.392269858654491e-05 
-3.77341201577294e-05 
-1.444102082422404e-05 
9.110144092192167e-06 
-1.888313021708954e-05 
-3.81577636109297e-05 
-4.036732718044397e-05 
-2.50764686444519e-05 
-1.64265821356958e-05 
1.396368319625081e-05 
1.665946002890714e-05 
-7.824074850694093e-05 
-2.908627852368603e-06 
2.271527903468918e-06 
-0.0001099814046207023 
0.0001229885069523754 
0.0001490762010849523 
7.547125417650658e-06 
-5.885519951130061e-05 
-0.0001785125507474153 
5.554890590195474e-05 
0.0001263517391059499 
3.541857290723046e-05 
0.0001163831606092269 
-0.0001077686226561257 
-8.324911699399694e-05 
2.177400399976263e-05 
-1.577223058452527e-05 
6.11328061670075e-05 
1.066980082270272e-05 
7.815294919204545e-06 
1.430814171503994e-05 
7.716697742355884e-05 
-0.0002509974409878256 
0.000208221718742659 
-0.0001446191215745361 
0.000188466360805715 
-2.337712509747544e-05 
4.260903325736294e-05 
-3.489397095143924e-05 
-1.398228374925775e-05 
1.124937059751666e-05 
1.254422814004066e-05 
-2.719805283601821e-05 
4.968608353297515e-05 
-4.992730918655736e-06 
-2.295146087454887e-05 
7.644411120287028e-05 
3.482212697239999e-08 
-2.645256753095015e-05 
6.631138471241925e-07 
4.249772589103442e-05 
-2.209524124774138e-05 
1.427883985462846e-05 
-4.229175234756282e-05 
1.262422549143935e-05 
-5.412392657529322e-07 
-3.121057495123313e-05 
-2.816938497836184e-06 
-7.281117750393878e-05 
5.808546606429233e-08 
8.031350396938436e-07 
8.541649789631134e-06 
7.510297587968732e-05 
-1.885729960551626e-05 
-1.132763977463077e-05 
2.108834741824836e-06 
2.172328984280046e-05 
3.92279586216362e-05 
-1.815604178153986e-05 
9.636080480000862e-06 
-3.33420986807276e-05 
-0.0001183354810099968 
-0.0001222341477890652 
0.0001652394967883401 
-2.808999180144818e-05 
3.845869122419982e-05 
-2.837978882416032e-05 
2.581585910623428e-05 
2.668552977710083e-05 
1.705755622570477e-05 
1.794588635597438e-06 
8.422704094997611e-06 
7.203291559271695e-05 
-8.61444631559199e-08 
-3.134855104696582e-05 
0.0001527591734237481 
-0.0001163864695470614 
-3.063194907286994e-06 
5.62664997592217e-05 
2.622052564155152e-06 
-3.053475440908919e-05 
-1.932708230114717e-05 
5.262451994549909e-05 
7.903363593119835e-05 
-1.921408804115154e-05 
-0.0003157861757791703 
-0.0002130608197232018 
4.023484009726804e-05 
0.0001766939863601986 
-3.130286564162145e-05 
-1.33072026781336e-05 
6.163209730855461e-05 
6.07043486200313e-05 
-2.103880038894226e-05 
9.170953046636883e-05 
-1.07959657788384e-05 
-8.671108166239111e-06 
1.757057627279013e-05 
3.648363057102482e-06 
-1.997940045582694e-05 
2.918483740335478e-05 
-1.971702906229671e-05 
8.289799748895656e-05 
-4.339787402128606e-05 
1.089690560517544e-05 
1.733725325425672e-05 
-4.232180122215274e-05 
4.763189210970529e-05 
1.237376651949381e-05 
-9.267667268881194e-06 
-2.421529483076942e-05 
6.058694531962844e-05 
2.372250801670392e-05 
-0.0001155786425682281 
4.113742249214808e-05 
-2.872904944608479e-05 
-9.555430106825525e-05 
2.245528947838356e-05 
-7.238820427988459e-05 
-5.678537446665431e-05 
1.298918253368194e-05 
4.251299363784653e-05 
5.677411645678405e-06 
-2.114734889720711e-05 
5.332360315439171e-06 
-0.0001059441620011912 
3.190342831054741e-05 
-0.0002350613924776255 
0.0002362630570597855 
5.513646489104117e-05 
-5.430512414007305e-05 
-1.568005607949333e-05 
5.093833950742192e-05 
0.0001937096194211901 
-8.885099888482043e-05 
9.668127702710834e-05 
1.759037798008252e-05 
5.554944533796753e-05 
4.721579703761234e-05 
-7.714341229547387e-05 
3.279404887932731e-05 
2.769250579567544e-05 
-0.0001596802410082478 
7.139427859329524e-05 
1.793054395608167e-05 
-1.413563514174587e-05 
-1.196212466676443e-05 
-1.278983775115273e-05 
4.692505826745423e-05 
7.935327477173414e-06 
-1.06655662895205e-05 
2.839017913889409e-06 
-5.12988740437193e-05 
2.026744180190814e-05 
2.886163513660943e-05 
-1.603038930604639e-06 
-1.356172806388372e-05 
2.525699660453305e-05 
-2.228817451751203e-05 
5.429918681801011e-05 
2.212905835970464e-05 
-8.003004027419377e-05 
-6.597171822246777e-05 
3.732520343867775e-06 
-1.406241023010362e-05 
-4.938477294749063e-05 
0.0002312564436671592 
3.235890668018199e-05 
-4.126695893332425e-05 
7.075039550608892e-05 
-0.0001339901861603707 
3.9670489641669e-05 
1.093644080474991e-05 
2.357198664408099e-05 
-3.296224251194084e-05 
-9.814393531693138e-05 
2.463834584356886e-05 
6.762315389299059e-06 
-0.0001169742859409081 
8.098757300300979e-07 
2.90741646451179e-07 
-1.033846762375828e-05 
-8.720634752430762e-05 
-9.412201966788331e-05 
-0.0001192355586588159 
7.016871000547944e-05 
0.0005676376693277221 
-7.87220825936823e-05 
-2.50911291572288e-05 
-6.906310035297452e-05 
-1.046063172163543e-05 
3.821409021654299e-05 
0.0002974883457475194 
1.541364455524078e-05 
-0.000142408593337318 
-0.000190311399280934 
9.372695591954079e-05 
5.344912250419563e-05 
-5.448580038743014e-06 
-3.106767871972051e-05 
-2.359914602700729e-05 
-1.339945918504654e-05 
-2.251641089757316e-05 
1.192512744664808e-05 
-1.480922232961242e-06 
-1.667346106779347e-05 
1.12749948193652e-05 
-6.979366768075708e-05 
-0.0001644696854703129 
-4.810531013928716e-05 
-4.180128878882593e-05 
5.746451566153274e-05 
0.0001289002094440986 
2.226058974792132e-06 
-8.46063427114273e-07 
-1.470884828666631e-06 
2.692122946011611e-06 
0.0001054452814876823 
-8.592160806555152e-05 
6.586798969389575e-05 
4.939468807980159e-05 
-4.397618004247514e-05 
1.928068138878332e-05 
1.332598963754418e-05 
0.0002620388668436536 
-3.339214901240008e-05 
3.135988489587152e-06 
-0.0003703653721957241 
-1.588512499060794e-05 
1.664107207933117e-06 
1.793635527996658e-05 
-0.0001572895109252415 
0.00015227554820876 
-2.653097714731703e-05 
4.408057978840123e-05 
0.0001535076023046762 
1.755464371254036e-05 
5.500446534932036e-05 
0.0001195196930540286 
6.600419319164e-05 
-5.321269942414905e-06 
6.875863452801923e-05 
-0.0001380875035653439 
-4.556403849754642e-05 
4.876758880372351e-05 
0.0001489139892945855 
-5.079362721460581e-05 
-3.687397714686711e-05 
-6.82114061094317e-05 
1.20847622126759e-05 
-0.0001119234007489446 
-1.942108690840853e-05 
8.752258908226207e-06 
3.931094276281072e-05 
-9.23877449691945e-05 
6.880282514250785e-05 
7.986255800816088e-05 
6.557994125031598e-06 
5.051490072747407e-05 
-3.131836581193404e-05 
6.1773482301646e-06 
3.050541454024697e-05 
2.856869719259797e-05 
-4.677406065936829e-05 
-1.804728509799357e-06 
-9.833756457231833e-05 
-3.315243845179332e-05 
-2.326832783267988e-05 
-3.321784943610251e-06 
-3.84875702821856e-05 
0.0002334679895958266 
4.158762119967107e-05 
1.050141217945313e-05 
4.663676581004979e-06 
-6.220544030384141e-05 
-8.111477916456915e-05 
4.597871481615922e-05 
-0.0002158588898582465 
0.0001765591350860026 
6.605259658571039e-06 
5.166074137950532e-05 
-6.127485052162524e-05 
-4.233336715182595e-05 
5.634274534536982e-05 
-6.693652611350501e-05 
-4.330114289313215e-05 
0.0001731041832873868 
-2.014026587046966e-05 
-5.979363102443866e-05 
-2.538939194094757e-05 
-1.963394492904505e-05 
3.07295759065636e-05 
4.504113840581731e-05 
1.124906499296982e-05 
-0.0001286048600224081 
-6.983817595704558e-07 
2.213956148847803e-06 
2.479721085516916e-05 
4.823755280369288e-06 
-7.873803798882577e-06 
-1.413439489704294e-05 
-2.373444088988588e-05 
-7.895765634095446e-05 
-1.048347294045819e-06 
5.883254889535685e-06 
5.752218947874299e-07 
-1.182209995414799e-05 
-6.104739609005782e-05 
2.833937806816405e-05 
-1.025692248153841e-05 
-7.592712260794941e-07 
-9.852149933137359e-06 
-3.463384030764531e-06 
4.96828076092499e-06 
-7.629270591469827e-05 
3.512449384853449e-05 
-2.947856552728953e-05 
-1.789241768484105e-05 
-3.413345844930207e-05 
0.0001081886489147181 
-2.452807276215527e-05 
7.621687620553367e-05 
-0.0001155690573383969 
-5.435577776743875e-05 
0.0001876097290065314 
-1.198860609220638e-06 
1.643085172913761e-06 
-2.147873711680676e-06 
1.50080353470684e-05 
-0.0001402421155278109 
8.299872504231593e-05 
9.035254503766367e-05 
9.141723953170668e-05 
-1.216550534399844e-06 
-7.198691731894046e-05 
-2.368938006258784e-05 
6.946504907323949e-05 
1.097984615603065e-05 
0.0001789272297771218 
2.902945492208654e-05 
-0.000101267018617909 
-1.311949882597534e-05 
-1.004422444921968e-06 
-1.499785260807821e-06 
-3.846246880184154e-05 
7.360701919229257e-05 
-5.592240308213213e-06 
8.127653194235807e-05 
-9.93548402753635e-05 
-1.636629781814193e-05 
-6.457252940830287e-05 
6.114736276896588e-05 
-1.580664734972336e-05 
-3.052916460945914e-05 
4.907063528432143e-05 
0.0001976464515000691 
-4.817480785242188e-05 
1.179083259056543e-05 
2.666916451084548e-05 
-0.0001352030954471789 
-1.38431990264424e-05 
-6.793792035607523e-05 
-0.0001218442060243939 
4.275377271382222e-05 
7.065258009833092e-05 
4.376033887548064e-05 
-2.222543044428949e-06 
4.259553263559752e-06 
-3.443267117510613e-06 
-8.409159824780033e-06 
-1.234343305521814e-05 
-6.98765614666602e-07 
0.000128885760352014 
-7.26009690651484e-05 
-3.236750406549861e-05 
8.787873775712968e-05 
-7.39266170010948e-05 
8.990253430920706e-06 
-2.951349311422072e-05 
-7.916553235940212e-05 
7.794514166499043e-05 
6.524509162834444e-05 
-2.378915205550028e-06 
-5.4228785631636e-06 
4.126670268454114e-05 
1.417414923096428e-05 
4.187304416433785e-05 
-0.0001268946432206874 
0.0001701941026459592 
4.359538688855451e-05 
-9.695426198639034e-05 
-3.657888577532075e-05 
-1.498962030983372e-05 
-6.396652086840783e-05 
-1.481497164913479e-05 
6.969614800240953e-05 
-8.95274885617986e-05 
1.955770619494245e-05 
-3.354990193959875e-05 
1.511251515481779e-05 
-4.709061726524151e-05 
-4.67685310350756e-06 
-9.9356291445875e-05 
-2.276461717082517e-05 
-0.000158057235487179 
5.956503593997152e-05 
5.303185383303879e-06 
8.945329182748262e-05 
4.086670952005666e-05 
-2.266318067822154e-05 
-2.319228063890053e-05 
-0.0001406747272660475 
0.0001508534240780085 
2.330519656150987e-05 
4.316136920040111e-05 
3.852040792585485e-06 
1.155739481477904e-05 
-0.0001386924091286703 
4.023855721129616e-05 
-2.490444727741098e-05 
-5.179529611455479e-05 
-2.327919545976533e-05 
3.144567203888834e-06 
3.791045719394428e-05 
2.977293684494552e-05 
3.28101272683177e-05 
0.0001186338663455682 
-6.790222389603819e-06 
0.0001039338340165327 
-6.866442956677965e-05 
-3.635484617959211e-05 
8.564277681880248e-05 
-1.630184088671343e-05 
6.127646865776661e-05 
0.000137660000752798 
-1.558123887311458e-05 
0.00014644749142407 
-2.788273652679573e-06 
-2.117202378644474e-05 
-5.375590890123883e-05 
1.37325200903663e-05 
1.753684316844728e-05 
-1.131479442270052e-05 
1.611239336312408e-06 
1.271924830212496e-05 
0.0001299546487061026 
-3.260987906135998e-05 
-2.956281163687215e-05 
-0.0001191313408501074 
9.329039380830518e-05 
0.0002357920312436048 
-0.0002426816513354955 
-8.866818334698862e-05 
-4.914897472257496e-05 
1.693030373082636e-05 
-0.0001271155789202321 
-4.674382192291827e-05 
2.398322067108494e-05 
-4.52931221887331e-06 
-9.313303563852391e-07 
2.202399411740857e-05 
3.071937209791764e-05 
-2.099563582099195e-05 
-1.808673037128005e-05 
-2.236228392753453e-05 
1.774153105526696e-05 
7.993950396650918e-05 
0.0001732645650854109 
9.902496456457225e-05 
5.160892844121117e-06 
4.266869437972098e-05 
-0.0001093060203257274 
-8.625457309857431e-07 
-6.481161614956546e-06 
4.563579971957045e-06 
1.980128954008669e-05 
-3.998160512968807e-06 
-6.688064850432263e-06 
1.372629749747789e-05 
-7.529204731303283e-06 
-8.262053319668153e-05 
-0.000243183304977664 
-0.0003174624628318766 
0.0001709831622604129 
2.029044954902724e-05 
3.64076708483023e-05 
-1.075999307468776e-05 
0.0001545981166686113 
7.217203205650304e-05 
1.006737501814309e-05 
-2.203324502209445e-05 
-1.762692169933204e-05 
-2.958828852858024e-05 
-1.580559868870209e-05 
5.251568736221791e-05 
-5.090236895901421e-05 
1.731599552508378e-05 
0.0002838525891974786 
3.923608380732669e-05 
-8.459663070500838e-05 
9.337919314614002e-05 
-1.883335032178765e-05 
3.278925820755272e-05 
-3.099051596096568e-05 
-1.801871507406855e-05 
2.437161733839757e-05 
9.503611167015692e-06 
-2.217490364386828e-05 
2.277872172848654e-06 
-4.611364531004526e-05 
-4.961872284681424e-05 
-2.416026659656319e-06 
8.833702742539135e-06 
-7.898545903609037e-05 
-2.304399037029494e-05 
-6.087503927888328e-06 
3.53346052954511e-05 
-2.406929489319041e-05 
-0.0001064883694552468 
1.006580928223684e-05 
-7.850237812647505e-06 
-3.579442990349457e-06 
4.088176040990647e-05 
-0.0001023106186042965 
7.307254979269287e-05 
-1.532891612710251e-06 
-1.79888028066428e-06 
-8.276499193633895e-06 
7.77117725160446e-06 
3.45277824253811e-05 
1.134956854257653e-05 
0.0001177874842808198 
-6.280850203534721e-05 
-1.48977929336102e-05 
-2.949756109996872e-05 
2.120018587823223e-05 
2.971691932890917e-05 
2.387421985256989e-05 
6.856637792675015e-06 
6.800255729883604e-05 
-4.966930039714373e-05 
8.752854354039517e-05 
0.0001103710875558807 
4.760869610157263e-05 
-1.865949450183895e-05 
-0.0001672811575121712 
1.343844975985802e-05 
-2.452511759991674e-05 
-1.114632490123811e-05 
-0.0001211459926668192 
-5.744389824952579e-06 
-1.162892225816418e-05 
7.28030066957039e-05 
-5.609627610011205e-05 
-1.503278960458687e-05 
-2.154948359518551e-05 
1.903536277067604e-05 
1.906246701776197e-05 
-3.021653232395787e-06 
1.446067137679114e-05 
-4.347672901865573e-05 
4.77067403135471e-06 
1.979383014243704e-05 
-2.953375728613372e-06 
1.708656421142903e-05 
4.656224768475863e-05 
0.0001677761537221163 
-2.565509058989114e-05 
2.444210494958845e-05 
7.807013106881454e-06 
1.298623244127575e-05 
2.388085266091572e-07 
-8.997920741781343e-05 
2.865781074024659e-05 
-7.36468668228113e-05 
-5.219837370922891e-05 
-4.034595707263134e-06 
4.212988373939921e-05 
-0.0001545109696734766 
1.304671660799528e-05 
5.664487318101304e-05 
-0.0001699266901866478 
-8.309759591487094e-06 
-4.453034980726547e-05 
0.0001805439154100323 
0.0001148236420577995 
-3.718806507767376e-05 
-4.889230496799109e-05 
-0.0001155561944775169 
1.117930827303385e-06 
-2.173988110132256e-05 
9.478069031667047e-05 
-0.0001184279226821184 
-1.302080578298086e-05 
4.365792015882599e-05 
0.0003039483968104133 
-2.844121503737183e-05 
-3.699705431556698e-05 
-2.148266073043366e-05 
6.113676273656825e-05 
5.853197801878275e-06 
5.051614371883733e-05 
-5.406837146938956e-05 
1.284894005207323e-05 
-3.689462829521999e-05 
-2.656559430612008e-05 
0.0001002186244869045 
-6.980947156983087e-05 
2.989707809055119e-05 
-7.242582275101364e-05 
-2.999855246621888e-05 
2.020915970369256e-05 
-4.995204021777439e-05 
7.937551239382216e-05 
-0.0001693479698747845 
-8.120215857461183e-05 
5.278953551183007e-05 
4.205559240383312e-06 
-3.112072346291594e-05 
0.0001480405554523874 
0.000311815462065745 
-0.0001681482597710037 
-6.341855988024072e-05 
0.0001067119331854989 
-3.03280162400119e-06 
-5.127336508799334e-05 
3.019474819502633e-05 
-5.391338569699856e-05 
1.669954165205132e-05 
0.0001537540809918453 
0.0001459034237994152 
1.890497940738172e-05 
-8.13176753441557e-06 
-7.658057388848695e-05 
-0.0001095803285162736 
3.48543305739739e-05 
5.143463658392898e-07 
1.098969128864881e-06 
-3.852973331598892e-07 
1.003357243817055e-05 
-2.40238982999114e-05 
-7.862943019922194e-05 
-1.938669645629716e-05 
-4.125330943431088e-05 
-8.102700362595172e-05 
-1.316437424367873e-05 
2.773188786258557e-05 
2.248692492334252e-05 
-8.731005534482085e-05 
0.0001863606456130914 
-3.427436351394226e-05 
-0.0001219864355651698 
-1.510925353402693e-06 
6.368439984405184e-05 
-6.489060765823015e-06 
-5.215433866677673e-05 
3.750556819528275e-05 
-4.007132604889346e-06 
-1.004030408176188e-05 
1.779101819545085e-05 
8.021705760079206e-06 
1.421170520251872e-05 
-6.07034101904576e-06 
-3.922992012395996e-06 
7.715705588491769e-05 
0.0001257518452390644 
9.771239783607183e-05 
-6.893638999241315e-06 
0.0002262322383308643 
-6.624393771834442e-05 
-3.01227486422076e-05 
5.55452547607777e-05 
-0.0001042828417379651 
-5.75112281504188e-05 
-0.0001902548876035025 
-0.0001051646107331749 
5.210261557630837e-05 
3.185531311898555e-05 
9.626430200066235e-05 
-0.000140033680819736 
-1.175201138253353e-05 
-3.966534045211905e-06 
7.629732872690048e-05 
-0.0001481665941485529 
0.0001102078832661984 
-3.310927956878382e-05 
0.000146247497207098 
0.0001249119169107636 
-6.897192344658576e-05 
-9.027718843316682e-05 
-5.488558616075914e-06 
2.931186160302778e-05 
2.883543661178469e-05 
6.090328064187482e-05 
8.083407859703964e-05 
-5.96515690325643e-05 
-1.534179384986861e-05 
-8.392694375906781e-05 
0.0002676433929870988 
0.0001501001996810403 
-2.946106267194062e-05 
6.804047529640185e-05 
-7.000846806103689e-05 
7.297065340422556e-05 
7.80640260765813e-05 
-1.459462078664956e-06 
-0.0002707191041459356 
-0.0002597729575528886 
-3.443895560916379e-06 
-1.207086314849111e-05 
5.736014421946717e-05 
-2.164695632982832e-05 
-0.0001118014495123662 
-5.695519085851423e-05 
-6.976869094319903e-06 
-4.280237059463784e-05 
1.05819912804448e-05 
-1.359367570691758e-05 
8.396584018790713e-07 
8.171372226529664e-05 
-7.022136791112547e-07 
-4.069321733495786e-05 
3.94560127650072e-06 
-4.640015251084627e-07 
0.000168824970731225 
5.137388967894937e-05 
8.794476013019115e-06 
-5.668833544705644e-05 
1.83334047865095e-05 
-5.846517842135542e-05 
4.723755149594455e-05 
-7.806407740535498e-05 
1.905258670975781e-06 
-1.881118819777253e-05 
0.0003728423298073538 
-8.48745044886668e-06 
-0.0003228815655721683 
7.435851921057733e-05 
6.011788741288595e-05 
-0.0001274619798031156 
-0.0002647900274733291 
0.0001660251345998191 
-0.0001173828470759105 
0.0001457440490803641 
-1.889319715901953e-05 
-8.451326932091031e-06 
2.13060261907836e-05 
-6.656924853344017e-05 
-0.0001155389334010065 
6.807763214178231e-05 
8.564057159395552e-05 
-0.0001020007401409495 
-4.64689666056088e-05 
-0.0001386612059802649 
5.295985459155876e-05 
-4.877944862396827e-05 
-1.115867389342215e-05 
8.401186691329303e-05 
-6.265376298637724e-05 
-0.000122919518351096 
2.766111567328798e-05 
-7.128080114582624e-05 
1.152360792098605e-05 
3.206256239539096e-06 
0.0001089751356898253 
6.877053244558176e-05 
0.0001530045028573083 
-1.928078518977305e-05 
8.591918297005832e-05 
-3.19002160035103e-05 
-1.158000577319235e-05 
-4.547016225965235e-05 
1.675424717007907e-06 
-2.206382557392731e-05 
1.730885473487476e-06 
-3.080377147519809e-06 
6.529915510886339e-06 
-1.779638195421109e-05 
2.189536284316775e-05 
0.0001205968976355315 
-4.628001939712613e-05 
-1.83471112310917e-05 
-6.102749785701906e-06 
0.0002137669312273812 
-0.0001805199790253167 
-0.0001444962996468777 
-0.0002253853738344636 
0.0002748852959202356 
-1.982310881048673e-05 
9.791357278986881e-05 
-6.309031841665274e-05 
0.0001194156118173796 
-2.754068962587727e-05 
-2.361441480099228e-05 
7.317778944727011e-06 
2.007886163181801e-05 
-5.21383904077562e-05 
8.114660838911286e-05 
-2.084603916253713e-06 
4.955440916776175e-05 
-3.990342056698577e-05 
2.894881509715474e-05 
-9.200113697293906e-06 
-5.58306522132173e-05 
-1.127763685324369e-05 
2.700496544128561e-05 
0.0001005310404209419 
6.019938410902751e-05 
-3.816667756788207e-06 
-0.0001300178270212173 
-5.54533447711639e-06 
1.5796376714717e-05 
-6.161242543569997e-05 
-5.195716949860489e-05 
0.000185840103933029 
8.075929603861413e-05 
2.023951862114568e-05 
-2.598395174039889e-05 
3.282160786529455e-06 
2.80775312567032e-05 
4.477532102770963e-05 
-0.0001555550257251242 
-2.584649882932254e-05 
7.562253773142017e-05 
8.995564567330999e-05 
-9.150417475731821e-05 
-0.0001663697640515548 
-4.94653792389125e-05 
-2.139867823683313e-05 
2.255964605418801e-05 
-2.544738047223739e-05 
2.939904415793363e-05 
0.0002344735784863648 
3.39584922519559e-06 
-9.034223657825632e-05 
0.0001490764685185675 
4.234979995832077e-05 
-3.93485509401521e-05 
6.66777905998646e-05 
-0.000166900073115969 
-1.454143698508822e-05 
-6.477705346948006e-05 
-2.312791305009269e-06 
8.423238498015351e-06 
7.390538702690445e-05 
4.347861026220008e-05 
1.340676112405211e-06 
3.956296576256767e-05 
-3.038450292499805e-05 
7.65278964679668e-05 
1.056400856654985e-05 
-3.348701127211659e-06 
7.700322684061311e-06 
-9.803206695814808e-05 
4.528793925372863e-05 
-0.0001041854433474417 
-0.0001550761641127209 
-9.859264087549721e-05 
0.0002276767188766296 
7.670563724424596e-05 
-4.001339461086038e-05 
-0.0002167469663080548 
4.38169859990794e-05 
-8.640959010659603e-05 
-1.86629748912115e-05 
0.0001208801011275106 
-2.019238414266733e-05 
-5.439750545435673e-05 
-4.189351959740582e-05 
2.473689501115465e-06 
4.920440690829562e-05 
-2.911352176462933e-05 
2.710527215825867e-05 
5.453894708616854e-05 
0.000157966928507781 
-3.014217713672028e-05 
-8.616557283101392e-05 
-2.037688209152257e-05 
4.278174863692357e-05 
-1.730945497720176e-05 
-4.95959282606698e-05 
4.562541697413993e-05 
-3.086281181468772e-05 
1.232822084709612e-06 
-1.299437658703406e-05 
-1.094218521695988e-05 
-2.504369731905038e-05 
-1.060319801645715e-05 
6.456292051456203e-05 
-0.0001369040523803082 
-8.383733535735314e-06 
4.421787188626248e-05 
6.175711623009631e-05 
-1.732751628265665e-05 
-3.863899495952985e-06 
8.720481034325384e-05 
-1.075007686196234e-05 
-6.504775982641311e-05 
-2.057549163070714e-05 
1.069287625638541e-05 
1.791240928778761e-06 
7.076603713219369e-05 
9.762859527567525e-05 
9.938383686745441e-05 
-5.398533157346644e-06 
3.270176798958853e-05 
-5.041786527672167e-05 
-4.623908537066999e-05 
-2.745789842855144e-05 
-3.220565014709553e-05 
-9.635034025723857e-06 
2.055824581267839e-06 
-0.0001006388190609751 
2.22026333045167e-05 
1.654463137240713e-05 
3.105125847267872e-05 
0.0004061540479922666 
-0.0001414377104660214 
-8.90754578183514e-05 
-5.759610834593405e-06 
5.100313252504936e-05 
-0.0001652370060019976 
-3.955493118885075e-05 
1.772692948016704e-06 
6.998531277954105e-05 
3.121230231349683e-05 
1.036711874356228e-05 
-3.518825425392256e-05 
-2.783385487326685e-06 
1.187119095327135e-05 
-7.104459188893784e-06 
-2.857555920627682e-06 
4.346896560052629e-05 
-1.778302656609657e-05 
7.706406374040137e-06 
-7.887591134759696e-05 
-6.010788103618322e-05 
1.98940009894671e-05 
-1.108208025644078e-05 
0.0001330400932660927 
-0.0001102022767554125 
1.278293660721997e-05 
2.299335720575124e-05 
4.39718019191062e-06 
0.000126332016078366 
0.0001075643160186405 
6.558340952897224e-05 
-6.122256790158174e-05 
-2.720833572284247e-05 
2.93092276798421e-05 
-0.0001019156419701388 
-0.0002061607490501005 
6.386986736165922e-05 
0.0001658133292875496 
-0.0001576219904668511 
0.0001927672356743411 
1.21462235076279e-05 
-4.57478754190097e-06 
-7.861566108730544e-05 
-4.286217760818857e-05 
0.0001368155045589359 
-9.493271223442963e-06 
-9.032594925064337e-05 
3.185664839601431e-05 
-2.243541541261828e-05 
1.530196318215637e-05 
2.551251870561871e-05 
2.944866959457892e-05 
-1.856841229109423e-05 
7.6466966843357e-05 
1.884759998931534e-05 
-0.0001750567939427843 
-1.534106172415486e-05 
8.358059236653016e-05 
-7.524897397603448e-05 
-7.883911595768925e-05 
3.096338016051897e-05 
-9.997316652557068e-06 
-6.905327254352218e-06 
8.77263979623743e-05 
-2.437149756566341e-05 
-2.786525529845135e-05 
-2.618487026454623e-06 
-2.894598486850525e-05 
3.197204376984033e-05 
5.470659849493706e-05 
0.0001659163398651013 
5.616678725561484e-05 
-3.205904208506888e-05 
2.581459124109745e-05 
-3.166077314054302e-05 
4.073062038644533e-05 
1.547653143384068e-05 
-6.121160540487301e-05 
-3.263417188201666e-05 
1.470983410465866e-05 
-3.317177598900739e-05 
-0.0002272436410570962 
-0.0001479480524158502 
-6.176346955991524e-05 
0.0002985750644226748 
-1.923436891339715e-06 
6.820972800496708e-07 
2.427305019284233e-05 
-1.270125861100883e-05 
-6.646547692645054e-05 
3.482625158014432e-06 
-8.455271366584692e-05 
-3.543407714692411e-05 
-0.0003679253575402238 
-5.558526427701827e-05 
1.711737686597831e-05 
6.64868092920411e-05 
3.682198650211066e-05 
-0.0001208432289446519 
-4.913270371590525e-05 
-5.800016146568684e-05 
-2.446674500414471e-05 
0.0002703584799667326 
0.0002216124882790523 
2.533511463530558e-06 
-3.141781375142796e-05 
-4.074985321576453e-07 
1.26762791471145e-05 
0.0001067480765463876 
-2.126785376723861e-05 
-0.0001064579959534446 
5.599643300997932e-05 
-3.273890317419266e-05 
-1.709461769255522e-05 
3.675370276431466e-05 
0.0001610295185103128 
7.487701613377756e-05 
7.86625100009619e-05 
-6.926296862075791e-06 
-2.219390642240409e-05 
-1.086655274941456e-05 
-2.775616579490285e-05 
2.246719336087593e-05 
7.71766295574006e-06 
1.63433331106698e-05 
-6.98686946214747e-07 
8.214842752191857e-06 
-5.75710104529286e-06 
7.262072620822569e-05 
4.509976641770313e-06 
6.000906430080293e-06 
-1.911317195944282e-05 
0.0001465985574447262 
3.169626204671227e-05 
-6.741410716131994e-05 
-1.961670575102256e-05 
-1.612176530115183e-05 
0.000100784819505763 
-0.0001496313620959428 
-8.002795360401636e-05 
0.0001648759980108622 
-3.554223860435822e-05 
-2.0688092355815e-05 
-3.924708258752249e-05 
0.0001569201517263563 
-0.000391076345542439 
4.492913643369595e-05 
4.866687347931513e-05 
2.489266167429778e-05 
-4.951721017956245e-05 
0.0001312313551291095 
-2.385097504502354e-05 
-3.648771964449787e-05 
0.000101509567225299 
4.088654943981705e-05 
7.08522656557145e-05 
6.702862973371007e-05 
-4.896570371155425e-05 
-1.362256134557181e-07 
0.0001313680620962369 
1.159179504147421e-05 
6.663416258336908e-05 
-2.941771485484993e-05 
-4.95539536483561e-05 
-7.457729927218562e-06 
5.920080956612863e-05 
-4.266095852612885e-05 
2.301603455059501e-05 
-5.217440008421784e-05 
3.872666460826603e-05 
2.295556905572596e-05 
-1.186268785974925e-05 
-2.951936302315174e-05 
-8.888374549696934e-05 
0.0001910327377251478 
-0.0001196382448559719 
-0.0001603122523347235 
-5.803725387501127e-05 
-0.0001064958897229037 
-6.550480633122053e-05 
7.309508606373688e-05 
-4.135706004666141e-05 
5.096873785487915e-05 
3.114397854349376e-05 
0.000247153533951677 
4.52083354265937e-06 
7.164793876041529e-06 
-3.664761083964011e-05 
-5.764518554575508e-05 
-1.224191086616919e-05 
9.582668586069459e-05 
1.96156757722378e-05 
3.156271030410359e-05 
-8.154235791622021e-05 
0.0001567760419189735 
-0.0002133956774094183 
-5.467244394931455e-06 
-9.603385659371506e-06 
-1.863046474650551e-05 
5.509631960588433e-06 
-0.0001983291927564805 
-6.642859280586159e-05 
-0.0001450840300140463 
-2.039190726285381e-05 
-0.0001049299066035032 
0.0001329092800114768 
-5.649659107885298e-08 
1.246187717957357e-05 
-9.852717977960517e-06 
-7.056878544395039e-05 
-6.769240168467146e-06 
6.815375447427456e-05 
-3.480281922582283e-05 
0.0001789963858697833 
0.0001609694782489092 
2.311783443995054e-06 
-1.175775599419859e-05 
4.177940368770827e-05 
9.431941218413676e-05 
0.0001163949955600166 
-1.913029389718778e-06 
-5.55377599147478e-05 
-4.819552342445763e-05 
-7.067836336364639e-05 
6.213471069355393e-06 
6.095221367904159e-05 
-2.80150651434546e-05 
7.431688011635828e-06 
-5.942699391631525e-05 
-0.0001977871648595761 
0.000143407304743656 
0.0001832327063643282 
-0.0001056459954607032 
5.39054134521328e-05 
8.303846809649192e-05 
-1.258497899861332e-05 
7.604398185074486e-05 
6.494967264305966e-05 
-0.0002118947394840329 
0.0003052780353252589 
-7.273502465706532e-07 
-4.59971201563917e-06 
-2.92857770850855e-06 
-5.961809091982784e-05 
-9.447475683691286e-05 
-0.0001222781687195886 
-0.0001295287366382175 
1.219093655411314e-05 
2.468589397526719e-07 
-4.41078305750787e-06 
-1.459008415317601e-05 
-3.036062653684341e-06 
0.0001390004666783457 
-3.840719897803137e-06 
-5.869331305288483e-05 
-5.028108603105984e-07 
1.158504953091057e-05 
-0.0001005066841092444 
1.671383166688772e-05 
-5.126066287916317e-05 
-3.578006492160019e-05 
-7.790815397994379e-05 
3.108557412951005e-05 
5.683455387606471e-05 
-2.885908656122402e-05 
-0.0001545075499509732 
-0.0001760851329028 
0.0002320734392168475 
-4.180820898781166e-05 
-6.258279345907526e-05 
3.813061737056959e-05 
8.900088416717907e-05 
2.438550713879305e-05 
2.013299439884173e-05 
0.0001256442463252052 
-4.46824234409532e-05 
8.979317267190621e-06 
-2.021810722515205e-05 
1.318517456780591e-05 
0.0001038190670063552 
-4.225768962252704e-05 
0.0001462365291476619 
0.0002880191152179842 
4.057021929114819e-05 
-1.160495616037628e-06 
-7.951999344325939e-06 
-2.253377217284977e-05 
3.558896421056356e-05 
3.349823680566747e-06 
-0.0001139430116282613 
-2.875905507136296e-05 
3.324273676727724e-05 
-3.412762266484303e-05 
-1.6814232349062e-05 
6.143167431920677e-05 
-7.362608830509416e-05 
-6.024361633385337e-05 
1.083057837080304e-06 
-1.145110899436351e-05 
-3.66549686317286e-05 
-0.0001503963022630566 
0.0001607907849396256 
-7.079172872369579e-06 
-1.030802758999758e-05 
3.96512343179426e-05 
-0.0001576166184007094 
-9.581529092213183e-05 
0.0004891291998646537 
-0.0003192216390923132 
-3.118948453202026e-05 
7.20017630690164e-05 
-0.000118399966068875 
1.201550995216777e-05 
-5.994700330289116e-05 
4.442631566405746e-05 
7.61688402876405e-05 
-1.99700483145009e-06 
-9.691910379697887e-06 
1.687605192535859e-05 
-3.151443408236606e-05 
4.520650471882889e-05 
-7.247608852073408e-06 
-2.558291607464676e-05 
-0.000117974352886798 
-4.573680818023802e-06 
-4.472529428736893e-05 
-2.303058302083595e-05 
-4.722183603009375e-05 
0.0002031250976032799 
5.139288342779698e-05 
6.581386490755977e-05 
7.30299894067215e-05 
2.403509030756841e-06 
-5.378262605851443e-05 
-8.565447114350711e-05 
2.155997804369611e-05 
2.055157801709328e-05 
-0.000116321528405062 
-0.000103378437469568 
-4.298055322583333e-05 
-0.0001151400428034659 
-2.039325569408156e-05 
3.669143139041682e-05 
0.0002734409251778544 
-0.0001112132681217856 
0.0001275485152299522 
-7.471956365846275e-05 
-0.0001531433458230781 
2.414124757152542e-05 
6.544757674083143e-05 
7.077140957114137e-05 
-1.357583674283529e-05 
-4.087976564824578e-06 
1.133064945194332e-05 
2.757157521403906e-05 
-3.482758155419257e-05 
1.004730281699435e-06 
0.0001382285144738124 
0.0001030097471143218 
-2.251891564202001e-05 
-8.962028168927789e-05 
0.0001481330505597204 
-0.0001324673504373688 
0.0001260116248930897 
-3.178723410752311e-05 
-0.0001354977751018516 
-0.0001375968137252704 
0.0001258037195602924 
3.633617739637936e-05 
-8.518547804255849e-06 
-1.476801505235693e-05 
4.674644434864311e-06 
1.221314000334264e-05 
1.301742535812315e-06 
-2.121892340146509e-05 
-6.42169541924828e-06 
-0.0002032067793353327 
0.0002405462393482351 
4.229093094164344e-05 
1.144620581951394e-05 
0.0002148979981219453 
7.779873148556441e-05 
-7.691708513132306e-05 
1.600595619343684e-05 
-1.655418507363916e-05 
-4.071959946023192e-05 
4.369595574626745e-05 
-5.238556625942771e-06 
6.300732772287298e-07 
-3.513346783867557e-05 
-7.145401034772841e-05 
-2.872956765923718e-05 
-7.341865335404177e-05 
-0.0002028372125904399 
3.946538197920866e-05 
5.958332776351486e-05 
-0.0002095850140860457 
0.0002849050826627066 
0.0001143131900135775 
-0.0001901306684020412 
4.760484680625972e-06 
5.422748182305379e-05 
-0.0001280597085716711 
-2.954864392461361e-05 
-1.357595016269205e-05 
1.785808575989264e-05 
0.0001186482251907425 
1.558069194344722e-05 
1.211438339170163e-05 
8.681985383246759e-05 
-5.109343412030536e-05 
-2.589968560396635e-05 
-1.304285322467796e-05 
2.096178189698627e-05 
-5.053593722788297e-05 
1.021435474631301e-05 
0.0001764184409154553 
-0.000183795169993551 
3.640995584197004e-05 
-1.759870468231916e-05 
-0.0002680451541199707 
4.56495098778089e-05 
2.074592441658038e-05 
3.65132174596809e-05 
0.0001702280824490127 
2.698738268383835e-05 
5.076561781477027e-05 
-1.969193239209173e-06 
-3.20087401852195e-06 
-1.034778152716002e-05 
9.52542859200685e-05 
-0.0001694119833071403 
0.0002257210874435155 
-2.469844114493513e-05 
-7.758952410984231e-05 
-4.632048088892436e-05 
5.648668559598268e-05 
-8.575285924597118e-05 
3.913607828764768e-05 
-4.957962593247304e-05 
7.000923433404991e-05 
1.354461384970393e-07 
-0.0001725523523623383 
0.0001068445431597812 
9.482609242242398e-05 
2.704768364265179e-05 
0.0001150776405012612 
-3.155841634230839e-05 
-5.488695002954831e-05 
-7.114139691110532e-05 
-0.0001637543303310341 
4.159348657002516e-05 
-9.738520655000327e-06 
-9.80487088675385e-05 
0.0003339692425688324 
-7.403154544884919e-06 
-0.0001386515452732051 
-7.0893344161508e-05 
-2.485034422585032e-05 
-0.0001726749995875071 
5.106315665087611e-05 
-9.945275917524468e-05 
3.855194880874479e-05 
0.0001792410137710108 
-8.48396456366167e-05 
0.0001280167394858541 
-1.910207275519293e-05 
3.096337168643164e-07 
1.011308509407943e-05 
2.038544868237776e-06 
4.22194679768998e-05 
1.00365213357425e-05 
-8.886762137772784e-05 
1.776102306699499e-05 
6.629455575534568e-06 
-0.000109784203257968 
7.531464665468732e-05 
0.0002926060535278675 
0.0001901235225866112 
-6.551507165671978e-05 
8.211397154546485e-05 
-0.0001277051071470363 
2.277007740695109e-05 
-8.824467191196196e-05 
-6.639466492062451e-06 
2.844573266145719e-05 
9.999130388714562e-06 
0.0001142585622662504 
-7.223268337846854e-05 
3.856698266696199e-05 
-2.050990348310062e-05 
-8.5154872819829e-05 
-0.0001940764265643051 
9.074100390658423e-05 
-4.966515807827504e-05 
-6.61639661210309e-06 
-4.985502603852486e-05 
3.664868919014556e-05 
3.028812447905461e-05 
-6.216716274547515e-05 
-4.94586559671585e-05 
2.824982377727185e-05 
7.138466749604568e-06 
3.638210126751435e-05 
-4.047843408293071e-05 
3.524395211280268e-05 
0.0001814835613437777 
-0.0001077330893218592 
-9.244058186365675e-06 
-3.353390678590129e-05 
5.299989732977939e-06 
-9.271046030650699e-05 
5.791064640085951e-05 
8.105259159188401e-05 
4.790348730637009e-05 
-7.61994046586118e-05 
-3.527739637117595e-05 
7.70995537679396e-05 
-0.0001676604894782571 
-0.0002909120986174503 
-4.812629329510688e-05 
0.0003759600547151356 
-6.31216715693145e-05 
4.175554831313104e-05 
-8.502243201657727e-05 
6.048501107278292e-05 
7.093619489808036e-06 
9.606417126801674e-05 
-9.782396578228216e-06 
-0.0001054440208305338 
-1.437721179751607e-05 
3.757523722871092e-06 
1.552970473291667e-05 
7.494068396552522e-05 
6.478022172877178e-05 
-1.519201718228598e-05 
-4.213821433444092e-06 
5.73615551994193e-05 
-9.865479671736331e-05 
-0.0003379783781400582 
-6.997720173844067e-05 
7.785556580351028e-05 
0.0004572514672332657 
-2.307045988607333e-05 
-3.74916064673268e-05 
2.090846764619397e-05 
-1.587829260450201e-05 
4.019253905312447e-05 
-4.478616420973279e-05 
1.598261266991144e-06 
2.577309932148354e-05 
-0.000197873063555279 
1.132376733554335e-05 
2.14529160581267e-05 
1.07402814757691e-05 
-6.60564281799094e-06 
-8.378086562900888e-05 
8.723032776347247e-05 
8.557930433485574e-06 
-1.317813398713704e-05 
-2.33541480488108e-05 
0.0001255029230169731 
-7.160125535134777e-05 
6.933546038058802e-05 
7.757950624008091e-06 
5.788657121474308e-05 
-1.749543914561243e-05 
-3.244873907618809e-06 
-9.798452838441447e-05 
-0.0001281808862510747 
7.424446081635739e-05 
-3.953969604626322e-05 
-4.44359400200562e-05 
-0.0001462492175800671 
0.0001333595418294538 
-5.257253191404113e-05 
-8.949798935828069e-05 
7.121916047709523e-05 
1.339086326165277e-05 
4.38578931286833e-05 
-9.428590546735688e-05 
-3.589072521176274e-05 
3.000742009196461e-06 
2.180920315843387e-05 
9.628709436795945e-05 
3.285193909881086e-05 
-7.368187346269655e-05 
2.17259245731216e-05 
4.824156468990442e-06 
1.275880237986959e-07 
-1.369235313395853e-05 
1.466807272149367e-05 
3.733078549974004e-05 
-6.007513226979565e-05 
0.0002793945651358664 
3.458834234972087e-05 
0.0001296391400611062 
-4.532013262741825e-05 
9.414352355164309e-05 
-0.0001535111446189852 
1.145120299486634e-05 
-5.518198768242562e-05 
-4.265503816970357e-05 
-0.0001979542808570805 
0.0003084917921708519 
5.410761250053467e-05 
0.0002573644298525302 
-5.750513857872254e-05 
0.000252738169683187 
-6.321292814677424e-05 
-0.0001299597579446184 
3.426683940831223e-05 
2.214829746539408e-06 
-9.876377761125646e-06 
-1.52683136879187e-06 
-9.715141973164085e-05 
-0.0001063318634502252 
3.233322396553021e-05 
3.797075950166186e-05 
5.044886806853872e-05 
-1.426789219689376e-05 
-7.847865214963305e-06 
-8.097842314291553e-05 
0.0001298165496545725 
-0.0002234727433791551 
-5.421640134049658e-05 
0.0001029677647790697 
6.173278482821152e-05 
-6.564727498255276e-05 
5.136745360356671e-05 
-0.0002563382648858335 
0.0001083971482628927 
1.862778230874587e-07 
-6.057483388130691e-06 
8.887243983693026e-05 
-9.490908551957815e-06 
-0.000136791089808257 
5.796979864437798e-05 
3.836060597259094e-05 
0.0001509283819724969 
5.217916275067192e-05 
4.546941836275028e-05 
4.575297269063693e-05 
3.053304958083046e-05 
0.0001179846522088887 
2.37756083081929e-05 
-1.05900128062004e-05 
-0.000135816839759852 
2.688443522120056e-05 
-0.0001514043544673317 
0.0001513902553866095 
-0.0003138056021468501 
-2.018012978450705e-05 
9.456861592561469e-06 
1.008483370234442e-05 
-1.308087682650394e-05 
4.884675586842775e-05 
-5.162031722393828e-06 
-3.184393941691614e-05 
1.342262242169129e-05 
-5.86508053977949e-06 
-3.45645667268135e-05 
2.980673201113842e-05 
-3.570700822298136e-05 
-3.041593168905595e-06 
-4.144388103977474e-05 
3.199238159835226e-06 
3.609260042612069e-06 
3.812910647212707e-05 
-0.0002483655025998902 
0.0001162613807066036 
-0.0001151197701660031 
5.105715316106118e-05 
-0.0001191703666046932 
3.4596654038496e-05 
5.37751303079488e-06 
-0.0001488147892877911 
-9.249369133967204e-05 
0.0003963311670263723 
0.0002061105787776533 
1.496010712730409e-05 
-0.0001053626429235701 
1.098379610799062e-05 
-6.783928993814523e-05 
3.063168784461664e-05 
-0.0001036496761994937 
-6.429462003122946e-06 
1.994946165161784e-05 
-9.595505766728146e-05 
-7.933276226924631e-05 
0.0002578181084194483 
1.658368229424571e-05 
1.75301438709855e-05 
4.179203089680261e-05 
3.907702588246599e-05 
-4.543467011649103e-05 
1.948397657233262e-06 
5.144166727181372e-05 
2.281678950533711e-05 
-1.852533383076287e-05 
-0.0002027698768069665 
-8.301378907483886e-05 
2.406971042456382e-06 
4.635045616317027e-05 
-9.242694917450188e-05 
4.544197706266113e-05 
3.256278123711164e-05 
-5.234865182569397e-05 
0.000210464064777506 
0.0001589335439105578 
-5.88900639120389e-05 
0.0001276233968599973 
-6.965031406731338e-06 
1.666151350729294e-05 
2.063878889775184e-05 
8.754341315273196e-07 
-3.830781313905028e-05 
6.129991148879356e-05 
6.29810206426452e-05 
-0.0001494061612954711 
-2.185681847737491e-08 
-2.278442576393677e-05 
-3.601848748421793e-05 
-3.323744069565272e-05 
2.057310651710642e-05 
-6.419083911033483e-05 
1.409776328847645e-05 
-6.665923435812181e-06 
3.234265793215863e-05 
-4.047349104806909e-06 
-4.583444560064148e-05 
3.567162819150664e-05 
0.0001014796447082232 
8.118660195758184e-05 
-6.248053299245232e-05 
-1.251742354696404e-05 
-5.482298318068391e-05 
-0.0001328087563859931 
-5.781045663776608e-05 
0.0001287293045657883 
-2.877654823874482e-05 
9.993096162104178e-06 
-0.0002523860085490614 
9.670138450659213e-05 
-3.043296409628026e-05 
-9.547827659564328e-06 
5.467541542908834e-05 
0.0001006103688912778 
-6.507518797566039e-07 
-1.787646919679347e-05 
4.279303531333074e-06 
2.857313497846693e-05 
0.0002391579420988633 
6.072857866999016e-05 
-0.000249391246693632 
-3.733609025955811e-05 
0.0002356350328471997 
-0.0001654695790890731 
-1.245161383445393e-05 
-3.578107336998172e-06 
1.927674629082877e-05 
2.798152595016413e-05 
-2.530627411150128e-05 
-1.278654510028653e-05 
-1.717479934555508e-05 
2.156294436276894e-05 
-2.557616010433064e-05 
-2.567843471022188e-05 
8.027004773780637e-05 
0.000117383207700492 
-0.0001086114241636182 
-9.163059881552801e-05 
-1.151795727377846e-06 
-0.000156315170975371 
-0.0001094458710513887 
-9.921640499179187e-05 
0.000342121761344367 
-1.107891266715882e-05 
-2.933651337008732e-05 
0.0001335361644106892 
0.0001529685267196773 
1.001088459988948e-05 
-0.000275840761288422 
7.130703863156981e-05 
0.0001251214404159057 
-0.0001051030557018176 
-5.737155819573045e-05 
0.0002760474649788146 
-8.827750145696347e-05 
5.941765187235574e-05 
-0.0001033881197513317 
-6.217056329989311e-05 
-0.0001486360371659761 
-0.0001438614740188073 
9.069505512372379e-05 
-1.677915395964316e-06 
3.893988905014619e-05 
5.069722785043521e-05 
-0.0001424680043213247 
2.68595867081348e-05 
-3.969044092675434e-05 
-5.496580473833547e-06 
5.093684816962776e-06 
8.261484008499184e-05 
4.314645935689667e-05 
6.829378548164219e-05 
1.058930323984139e-05 
2.392586992468792e-05 
-5.141235972146347e-05 
-3.124259289304735e-06 
4.582050847489662e-07 
-4.919723778056629e-06 
4.899053275261904e-05 
-3.05824113386194e-05 
4.041573947825985e-05 
2.004723745124218e-05 
-0.000127603290238383 
-0.0001324889560140873 
0.0001120821746808045 
-3.208821789990989e-06 
0.0001398928469513051 
-4.752014393418438e-06 
8.69900151614846e-05 
-1.826522414499186e-05 
-4.318960806975141e-05 
0.0002823099731871973 
0.000139696915795998 
3.400435248095096e-05 
-3.575939379427386e-05 
-6.930685215032638e-05 
-4.035733263542527e-05 
-5.801433986583127e-05 
-4.051690603630694e-05 
5.237451167499809e-05 
-6.205068339125304e-06 
1.949612641774539e-05 
-2.134289143254392e-05 
-3.502399768458855e-06 
2.015927635701527e-06 
-2.098886368221285e-05 
0.0001149230494113583 
2.608821510055841e-05 
9.914526749053899e-06 
-8.156855572351891e-05 
-0.0001167427121853384 
-0.0001600368694729241 
-0.0001290476369207026 
-6.426905529354481e-05 
4.912520925299053e-05 
2.533580680604565e-05 
-2.49339636857029e-05 
8.701871916113875e-05 
5.342468775405985e-06 
0.0001441999745518292 
-7.027419341021055e-05 
2.575580565217984e-05 
2.61268837521617e-05 
-3.604567921734277e-05 
-8.326919379929012e-06 
3.47408041545802e-06 
-4.527084361296511e-05 
1.947067128336896e-05 
3.312608951773951e-06 
1.270056360831149e-06 
0.0001113940740355544 
-4.686110924712222e-06 
4.486073904003145e-05 
-0.000152061620869456 
-1.028426746854135e-05 
-1.22265900220809e-05 
2.452279748056072e-05 
1.822431202395135e-05 
-0.0002137823528025679 
3.13829007824205e-05 
0.0002108584087819397 
-1.518154236308355e-05 
-0.0001620483263641005 
0.0001990782117934124 
-0.0001145056212584333 
-2.681925702375929e-05 
8.147541568138759e-05 
8.446248408251213e-05 
5.19834282551813e-05 
4.374566843224472e-05 
-9.253254257476535e-05 
-3.071675517594671e-05 
7.91623379267335e-06 
-7.525605700828207e-06 
5.327583891165293e-05 
-8.791792074043018e-05 
0.000170925075326449 
-4.43209085513659e-05 
-5.621436055825338e-05 
9.348279361237164e-05 
-0.0003014542531903079 
0.0001031825441106955 
-1.951915091653706e-05 
2.847754401848147e-05 
4.426491245600675e-05 
1.922131383524599e-05 
-4.497257072144494e-06 
-3.580543048663789e-06 
0.0001577474840213065 
3.965632775200768e-06 
-6.682154893551959e-05 
-1.269185186988776e-05 
3.787286782583047e-05 
0.0001972271592789881 
-0.0001122033325487811 
-2.646899165537314e-05 
-8.862547578092567e-05 
-1.865672632557819e-05 
-3.65113446482804e-05 
-1.136552324104729e-05 
3.377219446958161e-05 
2.505945269234904e-06 
-5.328061614261064e-05 
6.15229414863614e-05 
-3.176950198474774e-05 
-6.650362270308955e-06 
-4.500830556706746e-05 
-1.332689782908173e-05 
2.335670131462726e-05 
2.506070666089058e-05 
-2.653793309929285e-05 
1.233505616647122e-06 
1.779267632684346e-05 
1.823275220471649e-05 
1.294306710239069e-05 
-6.407810009923683e-06 
0.0001790622401707303 
3.972549500501321e-08 
-4.626814510508969e-05 
-0.0001600511439736233 
7.266821086442548e-05 
-0.0001421140253657339 
0.0001830301699542721 
-0.000144330455460453 
1.174177197998094e-05 
-2.91581926483382e-05 
-2.669298525867891e-05 
4.863673363264831e-05 
1.090180568549175e-05 
-7.430230899164149e-05 
9.96182853967436e-05 
7.19630247978785e-05 
3.333263200403099e-05 
3.050882938304552e-05 
-3.149714825924692e-05 
-6.845538534712e-05 
1.22232007821834e-05 
0.0001293907962742134 
-1.738542969932353e-06 
-9.000288250976297e-06 
-3.666295167770945e-05 
-1.603274867257256e-05 
-4.941303700300957e-05 
-9.338629439821595e-06 
-8.829812292982414e-06 
6.127653139574258e-07 
-1.997676140307431e-05 
3.16893861234382e-06 
-3.222912512694308e-06 
1.262933823741721e-06 
-5.478581724519329e-06 
-5.412878698636509e-05 
-9.494685496339811e-05 
-6.227278939049533e-05 
-4.128419710601059e-05 
-2.667472588158325e-05 
-0.0001167339075671511 
-2.609219126097702e-05 
0.0001033226276080838 
3.635474604902495e-05 
-4.963796334695637e-05 
-3.394145725747465e-05 
0.0001686867462613016 
0.00010768265609429 
0.0002796727160541742 
-0.0001057392473293924 
-5.018879144014241e-05 
0.0001773156199804181 
-0.000154590427407361 
0.0001389777471217406 
0.000194488074561768 
5.07304169360028e-05 
-6.22885070115792e-05 
7.497192537061299e-05 
-0.0002484175941019704 
-2.828169603492327e-05 
4.59353455430978e-05 
-4.184153508221493e-06 
-3.080714120172295e-06 
-3.180592687206069e-06 
3.790930623567972e-07 
-5.214499312063789e-06 
-1.774886892967735e-05 
2.519921278391906e-05 
-0.0002281479776497266 
-2.733513714667586e-05 
-0.000233745052301577 
0.0001547215288986692 
-4.715291232768318e-05 
1.958574274895697e-05 
3.091053508625842e-05 
3.194865941600342e-05 
0.0001126117491500744 
-7.316753481496578e-05 
3.370854250860309e-05 
1.106604730147438e-07 
9.727536410508257e-05 
2.429924938528026e-06 
-8.720463665313278e-07 
3.777037952350402e-07 
1.898486990938813e-06 
1.275087771488644e-05 
8.155836928826734e-06 
-1.918090319731767e-05 
-4.615020032627858e-06 
9.196393172251324e-06 
-1.074182302571954e-05 
1.250528394090088e-06 
6.335437144580194e-05 
2.360815544067944e-05 
5.455773042590552e-05 
-2.29164591799884e-05 
7.643641227251768e-05 
3.257782574004148e-05 
-0.0001472715915333852 
-0.0001021425050359787 
1.637438741507443e-05 
-1.621809176883034e-05 
9.495441989837756e-05 
-9.628917425388449e-06 
-9.209626782874838e-05 
-0.0001867462871275133 
-4.239542981256136e-05 
-6.316507610370966e-05 
3.712076570653736e-06 
2.034562090251494e-05 
0.0001307188889563157 
5.338327079021075e-05 
1.750659431384352e-05 
9.990586174808322e-07 
-3.071947363625127e-05 
0.0001576018499045606 
7.553500791769894e-05 
3.34853620943588e-06 
9.887027852457476e-06 
6.516408988728531e-05 
-9.43897670866946e-05 
6.834706867141091e-05 
3.53213034552683e-05 
-1.401160746715545e-05 
2.096417617894908e-05 
-3.504079378097618e-05 
1.415472790466877e-05 
-9.102237383580545e-05 
-0.0002231105094663849 
0.0001147491311822668 
-8.260526934964678e-05 
-0.0001323585784334253 
-6.14211221292151e-05 
-1.407062741648713e-06 
0.0002176101362324783 
5.084307247177344e-05 
-1.762424471716201e-06 
-4.108422840430337e-05 
8.990811253965558e-05 
4.252914895382811e-05 
4.817112119509053e-05 
4.139463697599551e-05 
1.162687238897671e-05 
-4.266806560103026e-05 
-5.490216315197882e-05 
5.683040959999331e-05 
-2.314499073684863e-05 
-3.591068277344973e-05 
-0.0002169193105299719 
1.689703480766497e-06 
-1.265378338523546e-05 
6.637185768240759e-05 
7.587150514019305e-05 
-6.365707173493805e-05 
0.0001657151243755222 
-2.567458593434634e-05 
0.0002133631272387153 
0.0001145220613967032 
3.507660970831859e-05 
7.562004075633991e-05 
-1.685090384216712e-05 
-2.486703813062071e-05 
2.751731444927052e-06 
1.794088021291881e-05 
-0.0001093247748044567 
-7.347344522902233e-06 
-5.656052332926924e-06 
3.725245715068824e-06 
4.438829237650532e-06 
1.537952334212867e-06 
5.33714164377939e-06 
5.082443134692584e-06 
-0.0001747384211735529 
-1.418560386970598e-05 
0.0001726350364521124 
0.0001152440611912591 
-0.0003331906545653736 
-0.0001187959819810468 
-0.0001562388139247351 
0.0002347219297733421 
-8.92749550362782e-05 
6.767470756773984e-05 
3.467960520155316e-05 
4.380594535727691e-05 
6.783730662419176e-05 
-2.455248005828276e-05 
-3.347260751117493e-05 
-0.0002180328804758662 
7.864927994957804e-06 
-4.985501086917371e-05 
0.0001933247837063618 
7.234363637668531e-06 
-4.056956522631547e-06 
2.694400723934662e-05 
-8.496306830485584e-05 
6.931581929574694e-05 
6.814341446208531e-05 
-7.470984408954561e-05 
-1.549036651732171e-05 
-1.189885256262197e-05 
-2.513764703008823e-05 
7.996998118452937e-06 
-1.572819719392088e-05 
-7.494008683238877e-05 
0.000101499799398037 
-5.561670449398644e-05 
-0.000160014730372595 
8.006329520876612e-05 
9.213854641879264e-06 
6.918913962081476e-06 
0.0001138822640295286 
6.288932161200908e-05 
-0.0001389269198747172 
-2.753054010378689e-05 
-5.863907527318386e-06 
-8.690746342308584e-05 
-1.722158514855595e-05 
-9.713576817461591e-06 
3.351349082186454e-06 
-1.360064640649717e-05 
4.610863577284013e-05 
6.424354359205141e-05 
0.0001467712659888346 
-0.0001711878100429953 
-1.435631311170028e-06 
-1.762885976362275e-05 
-2.173387458393856e-06 
0.000179741385396764 
-2.805683675341366e-05 
-4.790537660594554e-06 
-9.799444790970371e-05 
0.0001855957597634243 
-6.544661130292154e-05 
0.0001265677043843032 
-9.856911293277507e-05 
-2.100085714433369e-05 
6.371654336882077e-05 
-0.0001482514617746888 
3.084274916533655e-05 
0.0001361807178353891 
-9.147374433229835e-05 
-8.885749475821692e-05 
0.0001127333398498718 
7.232337843367917e-05 
-0.0001067077187001002 
5.951644750147542e-05 
-0.000166573753624312 
-2.857487557846107e-05 
-5.644643841563484e-05 
1.953392396532614e-06 
2.34776250418953e-05 
5.304041811134599e-05 
6.258184841852646e-05 
0.0001205120298334196 
-5.593381287730511e-06 
-8.866113721357019e-05 
5.400232071455257e-05 
2.228617874673018e-05 
-1.516838298851467e-05 
-1.081788981348311e-05 
8.287841178380867e-06 
5.036904427848984e-05 
7.505913639794792e-06 
5.224758167721896e-06 
-5.886459069362529e-06 
7.449824450751117e-07 
9.191552236488901e-06 
3.622225936010205e-05 
-0.0002218965611785878 
7.818017673656253e-05 
0.000241784508757894 
-2.206029040689429e-05 
-2.265196766050783e-05 
2.045826092520745e-05 
-6.864608823962915e-05 
-4.109674126457621e-06 
0.0001272970995371441 
0.0001084288341711269 
-9.150595836483459e-05 
-6.51811831249497e-05 
1.020391479846578e-05 
-2.697965101687565e-05 
0.000148538461553531 
-6.15725802934592e-05 
1.308996358099244e-05 
2.520903901682462e-05 
2.661762488318404e-06 
5.201601784985844e-05 
6.765208583838617e-05 
-0.0001577715194260323 
-1.959623667630475e-05 
-2.229141309899818e-05 
4.151072656461564e-05 
-6.724516205309647e-05 
7.522663887805899e-05 
-6.294583713517028e-05 
1.801588351874309e-06 
1.270121397307139e-05 
1.014254303504049e-05 
-1.49694740809691e-05 
9.947588401594331e-05 
-9.230249222475673e-05 
-6.88813022309446e-05 
3.619511857049867e-05 
-9.042731300525398e-05 
6.826352645546087e-05 
2.210087565483584e-05 
-4.930023141544944e-05 
1.612706242934728e-05 
0.0001387847887651862 
-4.339543250072333e-05 
-3.380684362268799e-05 
-3.581963064580799e-05 
-3.547685113153893e-05 
-3.172448914453099e-05 
-1.070935539921251e-05 
8.969665593673446e-05 
0.0001133889192386955 
-1.331172257775409e-05 
-1.077023300980024e-05 
-3.948963127628802e-05 
-4.130983586694118e-05 
-0.000284888360867869 
0.0001056153815331521 
3.463177990778926e-05 
6.343584707077056e-05 
-3.116307257769318e-05 
-5.871383506324361e-06 
5.765890235851905e-05 
3.842869473673612e-05 
-5.725754758271177e-05 
0.0002363449673201383 
-0.0001118904066185292 
-0.0002305341908722063 
-1.42540277472897e-05 
-3.825982665142598e-05 
0.0001789564391968582 
0.0001398471378096306 
-4.803635684503511e-05 
-6.340243767223933e-05 
-7.289370786424862e-05 
-4.661295383153659e-05 
-5.249061292377098e-05 
7.309225310623365e-06 
-1.554893759719905e-05 
-1.242328986888197e-05 
-6.658580008934814e-05 
1.250475621861095e-05 
-5.365082864417311e-05 
1.108232239193033e-05 
-5.222099185141274e-05 
-5.200524388310793e-05 
-5.345381980668619e-06 
8.81784307685504e-05 
-1.33545990937911e-05 
0.0001886968552394694 
8.937873477795452e-05 
-9.027550664538896e-05 
1.73657725745787e-05 
-2.734105291621885e-05 
0.0001089454333924431 
0.000187585077972797 
-0.0001730623553495006 
8.141059734019453e-05 
8.025177628379335e-05 
4.711284939913499e-05 
0.0002054006234535735 
6.039800533567974e-05 
-3.468782074575146e-05 
-4.078357613514332e-05 
-0.0002794574915030585 
-6.533536934918295e-05 
-1.211579573712228e-05 
-3.102886449331054e-05 
-3.741410668582493e-05 
2.162464614988529e-06 
1.11099668129709e-05 
2.74207483194659e-05 
2.54467031289257e-05 
5.049208397178929e-06 
2.565046995804747e-05 
-2.86553579316205e-05 
-5.57217560636907e-05 
1.105161750227189e-06 
-1.659659467027513e-05 
2.155345454061866e-05 
2.021085724553667e-05 
-8.104609569578528e-06 
-6.264629441902607e-05 
-0.0002215215367209558 
3.853803325374438e-05 
5.222805431503766e-05 
0.0001354985776876225 
-7.451902063034465e-06 
-1.845308904392675e-05 
3.505067784901758e-05 
2.40316741168692e-05 
8.513688218462171e-05 
-6.300383208326642e-05 
7.465361077820116e-05 
-3.074609499618534e-06 
1.841162576603771e-05 
-3.090085892356746e-05 
2.497597737265662e-05 
8.239010715361263e-06 
-4.106647743148328e-05 
-3.321152170988405e-05 
-9.890797381618436e-06 
-3.80459709176738e-05 
-5.110440678137231e-05 
4.488820394846551e-05 
5.331804970637826e-05 
5.289837342603985e-05 
0.0001332863726250167 
-0.0001067673986377254 
1.87502108421441e-05 
-0.000274893628970255 
1.302874071414809e-05 
7.271617576227558e-05 
0.0001723445949422675 
2.401357995172144e-06 
-4.087098978288788e-05 
1.191344583020207e-06 
-6.073256264274275e-07 
1.682586465215834e-05 
3.315764150686325e-05 
6.507968848984489e-06 
-3.338533191053309e-05 
-7.104593395532272e-05 
-7.503675254479738e-05 
4.920493353400369e-05 
1.157714222318288e-05 
-8.570789603842913e-06 
3.362060703659722e-06 
8.63743631271898e-07 
0.0001214804750803647 
2.630788184867232e-05 
2.568648308888748e-05 
1.113559051591983e-05 
5.662166895743875e-05 
-0.0003227520511526146 
0.0001254376533703328 
0.0001047136115466929 
-0.0002154847643885596 
4.58878205639398e-06 
4.366738809410219e-06 
-1.824498969408929e-05 
6.762633432497434e-05 
-2.811468557783774e-05 
1.614593907154765e-05 
4.794451751344319e-05 
-1.794857982617363e-05 
-3.17232359411493e-05 
-4.216799572708675e-05 
-7.777835362221102e-05 
0.0001138575036172786 
0.0001222664177754724 
1.998486740683028e-05 
0.000140068168954021 
-1.96507960775156e-05 
1.310305266958661e-05 
-2.178406423478685e-05 
-3.472265410400719e-05 
-5.521736772110747e-05 
-1.163298030275191e-05 
4.318660702443945e-05 
-1.144989248231603e-06 
-1.312937074626842e-05 
2.300022878794688e-06 
0.000110338513103097 
5.065441888515932e-05 
-8.352200690555099e-05 
-8.061447059872382e-07 
2.754713172936802e-06 
-2.320311792155579e-05 
6.063929121585012e-06 
-4.580111131090346e-05 
4.641742459124918e-05 
1.587710544772837e-05 
8.23938636956344e-07 
3.328827082281604e-05 
-8.495726715032776e-05 
-4.519811723892919e-05 
8.462248341446712e-05 
-4.794129395339652e-05 
8.934412672721485e-06 
1.086863624029502e-05 
-3.704488219618158e-05 
2.555876506554221e-05 
0.0001073871036109036 
3.800081727399615e-05 
-1.014878788045307e-05 
4.933311859320532e-05 
-0.0002040262824543017 
-0.0001125712601902789 
-0.000143774045557375 
0.0001955072846496752 
0.0002012953621318114 
-9.63039822413119e-05 
-2.318308041943492e-05 
0.0001017633634621018 
0.0001108834774174308 
7.060684889489656e-05 
-8.828953532603299e-05 
-4.864061250406401e-05 
5.492547869979651e-05 
-0.0001396931803494579 
0.0001327051686232045 
-2.355819243241226e-05 
1.033000261388713e-05 
-4.535450499209564e-05 
-1.427748678431043e-05 
-0.0001396505920030887 
4.360133455947404e-05 
-0.0001214337933387253 
0.0001001898553358554 
1.181634402633834e-05 
-5.791544538148183e-06 
-2.784983936310501e-05 
1.868930284790099e-05 
1.14951669885097e-05 
7.295017510148669e-06 
-0.000111134558928463 
0.0001207301571195467 
-4.192785731554405e-06 
-3.451159799345471e-05 
-1.313219139897622e-06 
1.086285902379121e-05 
-4.393605399072445e-05 
5.145464219092157e-05 
1.967522319062686e-05 
4.148195098052996e-06 
-5.271855048173996e-06 
4.259292344819389e-05 
4.713026045756572e-05 
-5.329131987377134e-06 
-1.94264645931027e-05 
4.295770892752005e-06 
-3.83932474954048e-06 
5.460832193286885e-06 
-4.291694341225367e-05 
-3.231337556354667e-05 
4.012564635678006e-05 
2.074438902613186e-05 
-4.052815180137149e-05 
-2.702365955919798e-05 
-1.579713337327409e-05 
0.0001090782927883087 
-7.904920659187903e-06 
-3.98040046924658e-05 
-8.066366225564694e-06 
0.0001309034784774451 
-0.0001344339677736619 
0.0002037062729239109 
-9.864137646382219e-05 
0.0001611971053405828 
-0.0001321956441848545 
7.458753905939349e-05 
-0.0001084879231804319 
-5.18397030759185e-05 
5.862960962342002e-05 
-6.377956777609556e-05 
-2.020244048092769e-05 
-9.105225800052631e-06 
-2.747499852488479e-05 
-2.222590170642407e-05 
-1.986705931354591e-05 
5.832069660448191e-06 
0.0001461313392439981 
3.655624833401201e-05 
9.537023793952494e-06 
3.894910390707291e-06 
-0.0001040495380257664 
0.0001037604199850437 
-1.937985452760648e-06 
-9.157117997044216e-05 
0.000111678310059093 
-4.825548999313022e-05 
6.878598537144385e-05 
-0.0002746271669194633 
6.228883958624999e-05 
3.25614972255073e-06 
1.358137723050755e-05 
-6.911861253082581e-05 
-4.643601778811191e-05 
-0.0001524256507072269 
-5.107126325489784e-05 
9.023978788086542e-05 
-7.494664241019517e-05 
5.66402570026465e-05 
0.0001848945899869739 
-0.0002599446034960815 
0.0002711564865783412 
0.0001005783330092132 
7.684291609500231e-05 
-7.015799365034905e-05 
0.0001287706146633448 
-0.0001504725135984181 
0.0002146979205763548 
1.884764808093424e-05 
7.4543628846536e-05 
-0.0002559048368041393 
9.913259354618022e-05 
3.138491196469132e-06 
-3.742488586803951e-05 
-4.435862411575344e-05 
-8.264961753188849e-07 
2.107123430041052e-05 
-0.0001164247375389902 
2.337533234584969e-05 
2.68559384207329e-06 
-3.932734048432298e-05 
-2.706752542411533e-05 
1.808993084352295e-07 
4.847729898259618e-06 
-1.467096564727289e-06 
8.235852565581948e-05 
2.196920051956086e-05 
0.0001234941342741901 
9.649200303857556e-05 
1.875152274984161e-05 
-5.187972900170506e-06 
-3.194727694957482e-05 
-1.370208077130308e-05 
2.396945712349864e-05 
6.784033602857584e-05 
-0.0001283796229975286 
-0.0001421309156155603 
1.632270407282458e-05 
-4.92153780988769e-05 
4.607520665763473e-07 
-6.098782780463395e-05 
0.0001344496555403702 
3.427379986059456e-05 
-5.844119792472762e-05 
-0.0001607214945073101 
2.335733584136874e-05 
2.801275751553512e-05 
6.170396110147803e-05 
-0.0002833527240436082 
0.0001232729442411049 
2.339285674284118e-05 
0.0001349928855816818 
6.229474015305359e-05 
-5.164303340776732e-05 
-2.946201652579326e-05 
6.910360306935566e-05 
4.086721799832995e-05 
-2.36454292690484e-05 
-9.137356984872143e-06 
-1.954512918205193e-05 
-2.422233813404358e-05 
1.837556240654874e-05 
-1.657754319717861e-05 
0.0001052076605369467 
-7.113795555728615e-05 
1.236926263946681e-06 
-1.217369410901074e-05 
5.104964217114047e-06 
1.937773172349016e-05 
-5.676558427473437e-06 
0.0002456928500330787 
2.438506415846253e-08 
2.12165514819318e-06 
-9.1942143437929e-05 
0.0001188065638645307 
-7.325189877028668e-05 
-7.996640227189551e-07 
1.29891984571209e-05 
2.562988863604722e-06 
3.493975927922884e-06 
-4.568980499196654e-05 
2.591467651813981e-05 
3.027173579192547e-05 
-3.091401974674408e-05 
2.1933248699859e-05 
4.507884451692432e-05 
8.811369143034144e-05 
6.874028385826972e-05 
4.071541826078592e-05 
6.305248039653752e-05 
0.0001359548704585997 
0.0001366581658330164 
1.635780563991515e-05 
-0.000126400509628673 
-0.0001231897865318871 
-0.0001604208384125842 
3.022447332159122e-07 
8.796667179396235e-06 
-0.0001238755278025778 
-0.0003082243320186676 
5.434827330292652e-05 
-1.078376513711382e-05 
-8.515493874437066e-06 
-7.637665493729998e-06 
-4.70043001568161e-05 
-5.405490671454913e-06 
-8.090451800370015e-06 
2.017846176161245e-05 
2.709201816175946e-05 
-0.0001226796117026347 
-9.437575106362648e-05 
6.498654690842049e-05 
0.0001308728169577787 
7.044063353322634e-05 
0.0001670071700333092 
-0.0001117802494374819 
2.274073823958209e-05 
-3.693273973169847e-05 
3.759645689697536e-05 
-7.429838876279425e-05 
1.621184460719564e-05 
-9.133154072676437e-07 
-5.493789697168517e-07 
3.305023192865291e-06 
3.02434454024417e-05 
6.177583006300867e-05 
8.929580035095137e-06 
2.354165755624177e-05 
-2.291092413303655e-05 
-4.96724430009892e-06 
-2.203931172993596e-05 
8.684036075932576e-06 
-8.317723686627771e-05 
-0.0001955424267248911 
-4.536902409681436e-06 
6.095544170518934e-05 
-3.789626717426224e-05 
-4.712736308159168e-06 
1.31884123971819e-05 
1.540758985068055e-05 
8.466209417096109e-05 
3.543449853394243e-06 
-8.782080116118919e-06 
-7.095508119088655e-05 
4.435353027763377e-05 
-1.816560059077906e-06 
-4.653505788513328e-06 
-6.516411158521866e-05 
-1.368241389441803e-05 
-3.80444769011976e-05 
6.239248122656703e-05 
8.907111938614079e-05 
0.0001499981698340347 
-2.575047559402826e-05 
8.068450735739926e-05 
5.019430676320437e-05 
-9.554657248913427e-05 
1.465269229785407e-05 
-5.03125516612993e-06 
-3.033944383106558e-05 
1.61026014750618e-05 
-4.955436965131908e-06 
-1.27128147844515e-05 
-3.353889542598579e-05 
-4.611735082470286e-06 
6.048962097949613e-06 
2.415981881913026e-05 
-6.151287007919109e-05 
3.133499098348259e-05 
-0.0001265310603807597 
-9.298738509644614e-05 
5.646554137282048e-05 
3.50610090955178e-05 
0.0001707768514000529 
-0.0001100168855338092 
-6.343334186121459e-05 
-3.616874149512028e-05 
9.915962675100573e-07 
7.680271890140046e-05 
-3.53586171716874e-05 
-4.159232144132841e-05 
1.221421366915363e-05 
-2.28967473516263e-05 
3.845510693713524e-05 
7.570387976653867e-06 
7.874048396011143e-05 
-1.738339727976715e-05 
2.532558542421335e-05 
-1.151839066332424e-05 
0.000199823495860529 
-1.818208206909141e-05 
-1.938087214397673e-05 
3.619811685727968e-06 
6.058735510283424e-05 
-7.1751197341629e-05 
-6.310734437583077e-05 
1.46459854571046e-05 
0.0001508591569404977 
-1.310766802109156e-05 
9.100806641915045e-05 
-0.0001571858223792808 
-0.0003982260252016641 
-7.840682822905771e-06 
0.0003604893463693207 
3.586782105733626e-05 
4.927051916550132e-06 
-1.359833716287609e-05 
-6.399364915285899e-05 
8.427566157600409e-05 
2.031663325713127e-05 
-6.068616794442837e-06 
-1.996433446939534e-05 
1.237045311095364e-05 
2.968439941104145e-06 
2.620759250566362e-05 
-1.063817977489558e-05 
3.624510763279794e-06 
-2.630418045658843e-06 
-3.96312061413992e-06 
-2.038463129294312e-05 
-3.146040789103684e-05 
3.699403779221377e-05 
-3.08054958464348e-06 
-3.789138936164481e-05 
2.704183415665769e-06 
1.621586948056175e-05 
-3.52746571457225e-05 
-6.621380100388129e-06 
-0.0005556450640863915 
8.942072480162592e-05 
3.072336251318427e-05 
2.211375757042775e-05 
8.021224338726607e-05 
-0.0001185926983970005 
6.758085566664264e-06 
-4.293617112962052e-05 
-0.0001899516455362048 
5.291649060971713e-05 
5.593967507341251e-05 
0.000276739281277309 
-5.047335482834029e-05 
5.13561537841646e-05 
-2.630124928680432e-05 
-5.176679883050168e-05 
0.0002935727988140794 
1.223576903701174e-05 
2.34019660893963e-05 
-6.335357936097863e-05 
-1.037470682082839e-05 
-1.444551261927333e-05 
-5.871843042527639e-05 
-4.971857909581378e-06 
-0.0001041345698830157 
-2.174276593086214e-05 
0.0003264849167908432 
-2.308334210201232e-05 
-2.826988827696782e-05 
-0.0001256199187916697 
0.0001990615885432915 
9.896805438891426e-07 
6.266899135176018e-05 
-1.318785089272944e-05 
-1.95060421802166e-05 
0.0002056407185292962 
0.0002440548349352513 
-0.0003112233340231084 
0.000115856300678422 
-9.915391162258331e-05 
2.147033066924308e-05 
-6.303307839895624e-05 
7.68299070443224e-05 
7.091108092662715e-05 
1.973449564625833e-05 
4.660480840089557e-05 
-9.628755840530191e-06 
-0.0001439391394289505 
-4.656717764088605e-05 
1.151030004252282e-05 
-8.882144486384649e-06 
1.094065641990886e-05 
-9.614765462316928e-05 
-1.214319277206704e-05 
7.588383069855942e-06 
-0.0001606875814236317 
-7.868679345614569e-05 
0.0001347545247816233 
0.0001809932557411028 
-3.437211431076138e-05 
-2.707525237203721e-05 
-1.264577194881714e-05 
-4.113385262916446e-05 
-8.751196494922328e-06 
-0.0001802439349170784 
-2.825465335791014e-06 
3.930465667877801e-06 
9.13627264311302e-05 
2.250484531252387e-05 
-1.68714525998232e-05 
-4.906413177548566e-06 
-7.099700884773482e-06 
0.0001528366404660435 
0.0001220020755644046 
-4.146279481884734e-05 
-0.0001580541427676332 
-0.0001458664589644405 
9.616550215466474e-06 
5.374374346157464e-05 
0.0002187702748100964 
-3.557465008131638e-05 
6.869986711217621e-05 
3.232281936016756e-05 
-2.771830950202823e-06 
4.351286155342599e-05 
-0.0001068094139091603 
-5.636539832181788e-05 
-2.581952968008428e-05 
-4.254245448842391e-05 
-4.51300456654604e-05 
8.838197312222454e-05 
-2.605977351768196e-05 
8.845328812330409e-06 
-6.783072668227707e-06 
2.895249754074226e-05 
-5.4851394619174e-06 
-7.001921622521459e-05 
-1.079710220886782e-05 
-5.26932130686211e-05 
1.720741213612671e-05 
-1.131062192804861e-05 
1.292028871138272e-05 
-3.733460561237374e-07 
2.049048127649459e-05 
6.722593177173769e-06 
1.557007381814735e-05 
4.08951089377528e-05 
-0.0001349828445320236 
-6.550461021592414e-05 
3.259240581139755e-05 
-2.600592939013312e-05 
4.934814212517437e-05 
-0.0002229031769117789 
-2.287260590982944e-05 
0.0002363302810252575 
3.032480653317657e-05 
5.676977848695437e-06 
0.000192741293468569 
-6.540052484502518e-05 
-1.821863556415469e-05 
-5.30353352600391e-05 
-1.464290534155688e-06 
7.058015721765547e-05 
-5.873324644220847e-05 
-5.514252705471427e-05 
5.237019214804424e-05 
0.0001227170915606804 
0.0002503546861526365 
0.0002113413395488215 
-4.387417144521139e-05 
-2.854771194539875e-06 
2.897956835456224e-05 
-0.0001577584746413652 
-7.125923937930124e-05 
4.988883832957845e-05 
3.782444723610429e-05 
-3.956944063351823e-05 
1.906939635803006e-05 
-8.725219486251219e-05 
4.876421277207411e-05 
-7.735373186269541e-05 
7.475654080042467e-05 
5.893599708726227e-06 
-1.467652904055733e-05 
7.464655320884235e-06 
2.96314594519832e-05 
7.149769844191136e-05 
-6.708203839784227e-05 
8.815853178487506e-06 
-1.039713049096863e-05 
5.254059402172146e-05 
-0.0001032114734554966 
-0.0002338544219844376 
0.0001581621164255307 
-7.925108985855142e-06 
-2.29633111440179e-07 
4.970589405179071e-06 
-8.704972268505039e-05 
-2.406257314891021e-05 
4.773919095587229e-05 
-0.0002738389255772684 
-0.0001850967731649369 
0.0002435923719090233 
6.825557152821474e-05 
-4.401046671724637e-05 
-1.322777469468909e-05 
8.581611177197353e-05 
-1.974037762518925e-05 
1.11275003434584e-05 
-7.348182594095278e-05 
-4.250049534055943e-06 
-4.740499001715518e-06 
2.291070203621878e-05 
-9.334636969515245e-06 
8.522143091265352e-06 
5.912035235789539e-05 
-0.000112115292263661 
2.796997009228333e-06 
1.67625241433351e-05 
3.13430038211315e-05 
-3.848298759741226e-06 
1.300270539119065e-05 
2.13939366276132e-05 
7.918511758667752e-06 
1.867934604987234e-05 
1.822798113773966e-05 
1.887255729685452e-05 
9.71901710650282e-06 
7.338357553152779e-05 
-2.14028891651951e-05 
1.74486497335327e-05 
-0.0002793062238495802 
5.236361265695189e-06 
8.501035110704655e-05 
-2.749729700287502e-05 
-3.704466404728308e-05 
-2.182650550004864e-05 
4.508299795772249e-05 
3.646166936215823e-05 
6.597327992398823e-06 
6.354555791096158e-06 
-2.05083663795065e-05 
1.435991037094328e-05 
-6.70437104922861e-06 
-1.607646801966793e-06 
7.547971054280642e-06 
-1.069332685030323e-05 
-1.627891521937933e-05 
0.0002267432400790158 
2.098768338380797e-05 
-0.0001121403831913947 
2.083356725136071e-05 
-7.278431529334932e-05 
5.710717067663025e-05 
7.396312299144407e-06 
1.788913881193078e-05 
6.158571955048442e-05 
-4.529710015138978e-05 
-6.516981494591517e-05 
3.11731473970115e-05 
-9.427300336286399e-05 
8.531605801965747e-05 
0.0001069936914616549 
-1.204090087638124e-05 
-0.000158001559630953 
1.137479580739469e-06 
6.09623104098274e-06 
-2.172992938080624e-05 
-2.996713616801446e-05 
-8.380433079919624e-06 
1.744117101261932e-05 
-9.034417606953211e-05 
1.064017601915912e-05 
-0.0001324924098097254 
-2.056951292688486e-05 
1.603838037496751e-05 
-3.506839966707127e-05 
0.0001017988112300151 
5.806633167884629e-05 
-4.557251752211646e-05 
-7.804226816333461e-06 
-0.0001345194119132409 
2.297532965172095e-05 
-2.640076934081866e-05 
0.00015040272724713 
-2.451606731769239e-05 
-3.534895375687234e-05 
6.543296610389601e-05 
-7.270079114622638e-05 
0.0002066274899947703 
4.230321586241849e-05 
-1.941390435508703e-05 
-4.787485686305303e-05 
0.0002949687003767193 
-3.963811334630722e-05 
1.347055120501649e-05 
-4.474545975956799e-05 
-2.179063222748729e-06 
-5.906164177577931e-05 
4.871695721798261e-06 
-5.449325838497944e-05 
-1.324108848541822e-05 
-1.977336963692078e-05 
5.497089738179544e-05 
-1.252362212530953e-05 
4.032448552821179e-06 
1.164625263489523e-05 
-4.396867252290246e-05 
-0.0001203417750955307 
7.589298360666968e-05 
-2.713664669484362e-06 
-1.139886422204062e-05 
8.707387083956096e-05 
0.0001928727371929979 
-0.0001467762280065725 
-8.251819611924163e-05 
-0.0001741514553008863 
6.318797143663095e-06 
5.461071771281744e-06 
-1.890949344746926e-05 
3.331967715604501e-05 
-0.0001379208453296187 
0.000227954254517474 
7.021755120420497e-05 
0.0001227917353339716 
1.566325282068343e-05 
4.970386120854498e-05 
8.260466264865524e-06 
-3.297460721032548e-05 
-7.493110164157655e-05 
6.096071493134453e-05 
-6.187375988793362e-05 
1.446774220387196e-05 
-3.289609230834878e-05 
6.193149379652299e-05 
2.789946698751836e-05 
6.163678485997057e-06 
-5.394913621302894e-05 
-6.430732479578001e-05 
-5.314173317123425e-05 
4.760751621198355e-05 
-0.0001687879349576455 
0.0005645570408651272 
6.459119950423483e-06 
7.608700836393906e-05 
-0.0001107539473025447 
-2.01001139656753e-05 
2.224164865746711e-05 
-1.439039300656915e-05 
5.035708285831847e-05 
-5.256362458950002e-06 
-1.646154855983994e-05 
-3.09054949450583e-05 
-2.551857712777529e-05 
-3.572562693016197e-05 
-2.389988078833887e-05 
-3.107225438231089e-05 
-5.85021497373284e-05 
-7.437377159283916e-05 
-0.0001056320368186084 
-2.753855230554695e-05 
-5.695916762848461e-05 
5.756044360813294e-07 
4.725659207733616e-06 
2.591467651813981e-05 
2.730841305796517e-05 
1.180050888970119e-05 
1.230614547159143e-05 
3.27224818291909e-06 
2.736195388546604e-07 
3.327217788642725e-05 
-0.0001084360307773952 
0.0001469799114382902 
1.881725995088191e-05 
-5.021217187932653e-05 
7.517680321229351e-05 
-2.152732823925027e-05 
0.0001318406180402639 
-5.068974430619852e-05 
0.0001044635783217166 
2.792908227284845e-05 
2.554230009857283e-05 
-0.000208311004333195 
6.076649021724933e-06 
-5.083071358952452e-06 
-0.0002755125813443147 
0.0002202529759084924 
0.0001385258851956932 
7.884647347808135e-05 
-7.808018935721068e-05 
1.146909551164304e-05 
1.398551440059976e-05 
4.538267684097962e-05 
4.212924481008741e-06 
-8.923478950004166e-07 
5.153738130774517e-05 
-2.855079694317313e-06 
-2.144580546536208e-05 
-2.824706840636383e-05 
5.349514800489183e-05 
-3.683502824930266e-06 
-3.231367759021394e-07 
-5.154552841178444e-06 
-1.112238299205639e-05 
-3.056811740329936e-06 
3.298380454725048e-05 
3.040010351569886e-05 
1.563784555360676e-05 
-1.803802589001725e-05 
-9.240571472140673e-06 
3.041899931591986e-05 
-2.884442088826679e-05 
-0.0001128713808128311 
-5.599374586709409e-05 
6.600866450892663e-05 
1.080040469570473e-05 
1.532558868930564e-05 
-6.580473967301256e-05 
0.0003206885948657931 
-0.0002140623908385142 
-9.641783480920718e-05 
7.251992834402217e-06 
3.264706310187063e-06 
3.619308660781347e-05 
-1.281063789636866e-05 
-1.30371093540723e-06 
4.31287603292415e-05 
2.830038649473616e-05 
-8.142512362911397e-05 
5.483669007842196e-05 
-1.396677882752443e-05 
7.833572996762198e-06 
5.232999252619083e-06 
6.916199882904721e-05 
1.877021835242707e-06 
-4.196283872603844e-06 
-9.865657291282186e-06 
-2.374635329740647e-05 
1.849304023445931e-05 
-3.581338998295398e-05 
2.801061698831627e-05 
-0.0002433111170002013 
2.95847486747096e-05 
-1.641313039682436e-05 
-0.000108947491937263 
6.101296824827168e-05 
-7.232465215369322e-05 
0.0002696154351789342 
-0.0003560691789634506 
2.921577890992348e-05 
0.0004954289165481807 
-0.0001302519638694216 
2.642902077907841e-05 
-6.562933805547893e-05 
0.0001388910811487298 
6.758495300686235e-06 
0.0001301766055654414 
-4.745413539110621e-05 
5.150984172011942e-05 
-1.816728647261174e-05 
4.6615036126469e-05 
-0.0001570264552838546 
-0.0001289433637972476 
-9.463688502709286e-05 
2.401912766202472e-05 
-5.79061900836491e-06 
-9.660085744030443e-05 
5.109340658521527e-05 
0.0002185699748650917 
-0.0001662301194705489 
-4.302059435576878e-07 
2.880611299360618e-05 
-1.234348360740729e-05 
1.587876381103134e-05 
-3.220139390924438e-05 
1.931413165664986e-06 
4.556557573749638e-06 
-8.895137396970507e-07 
5.680802340448789e-06 
1.249093523432533e-05 
6.134106403362169e-05 
-2.747630532860805e-05 
2.141634648037141e-05 
-6.557412486648824e-05 
-1.976752187533743e-05 
-8.685147019714952e-06 
-0.0001620351745400853 
1.213694008256669e-05 
-3.722403430230456e-05 
7.163731182420623e-05 
4.583124280873232e-06 
0.0001197386053700935 
-3.687344097273995e-05 
7.995151079671102e-05 
3.624334371260009e-05 
2.00014691359465e-05 
5.564287193550179e-05 
-9.246179733261822e-05 
1.096570204270757e-05 
-1.861513355423976e-05 
2.027664504148457e-06 
-6.303396596470253e-05 
6.035663100648887e-05 
-8.212169991123952e-06 
7.606048364905278e-06 
-4.753335396859302e-05 
5.62969832018784e-05 
-4.196283872603844e-06 
-5.22134084706791e-06 
-1.865026426123027e-05 
3.737878787438462e-05 
4.374294009231666e-05 
8.671845367219866e-06 
-7.353086036747725e-06 
-0.0001933075905200479 
-2.976971679621905e-05 
0.0001411422747807684 
-3.173737239118414e-05 
-1.354082158538606e-07 
-2.105724827144127e-05 
5.181239569095764e-06 
-1.107233582161695e-05 
-8.267889717204416e-05 
-0.0001255554277651372 
2.637267589416103e-06 
-5.549499347982292e-06 
-1.984304681410024e-05 
2.39605256096093e-05 
-4.196283872603844e-06 
-2.189504974071417e-05 
1.975626218963634e-05 
8.767008073651508e-05 
-0.0001879334310270667 
-8.34474997798277e-05 
0.0002765817693629097 
0.0001327842571960864 
-0.000113973635440181 
0.0001755073304235637 
-3.473035928481468e-05 
-3.627263923632474e-06 
-4.412975507788808e-05 
2.840328750260721e-05 
4.937278866039643e-05 
2.105489849709058e-05 
2.148138061302127e-05 
6.065139871859366e-05 
-0.0003325491313658206 
-0.0001347860495170803 
-0.0001700845875460164 
0.0002368391017448405 
-3.062214433166784e-05 
4.694280695336176e-05 
3.043756616993561e-05 
6.670023965145205e-05 
-6.367340855311334e-07 
-0.0002384848295363647 
8.418101490194014e-06 
-1.065882080829619e-05 
-1.461501654026334e-05 
5.408832278307007e-05 
-1.980709300429304e-05 
7.122268206620879e-05 
-8.042032808909005e-06 
-2.64112088594696e-05 
-4.978439205668572e-05 
-0.0001333525517094505 
0.0001454578566481694 
1.098271477985424e-05 
1.119083118139561e-05 
6.889822773870873e-05 
3.062063487170911e-05 
8.628184301848703e-05 
6.051722920684102e-05 
4.162327086223235e-05 
-0.0001043366136114559 
0.0002351963079268779 
0.0001002984088749115 
8.355937101864238e-05 
-0.0001760593586671771 
2.294386282959785e-05 
-0.0002308565184665587 
3.421350086731012e-05 
-3.542636113388833e-05 
5.610017071156336e-05 
8.955524268490972e-05 
2.562237000859551e-05 
-8.26661288377955e-06 
-4.004142720174265e-05 
-3.134093400915198e-05 
-3.5070170361637e-05 
1.969259945980561e-05 
-0.0001860461120869372 
-2.662340130518795e-05 
-7.656003205061131e-05 
6.983749510946273e-05 
3.163565916488192e-05 
4.35092934772108e-05 
-8.294189937153934e-05 
-1.833634266311737e-05 
6.228081663974665e-05 
4.644706889085831e-05 
0.0002563951276586161 
4.327604653694578e-05 
0.0001004111883899529 
-0.0001862759112318218 
4.655091073886478e-05 
0.0001030403367578785 
2.538199501156797e-05 
4.936965663686413e-06 
-4.41004633346351e-05 
6.707297726120177e-05 
1.874602173633469e-06 
5.061775669283156e-06 
-2.337860687645636e-05 
9.281064290395338e-05 
8.874348432443127e-05 
1.914575268194397e-05 
-3.779958884096744e-05 
-0.0001265584677280722 
-5.668458752513937e-05 
0.0002063249318040239 
5.908523669065104e-05 
4.062498174741199e-05 
-6.763339693610594e-06 
-0.0001298426467792632 
2.876181453806849e-05 
3.942037929923302e-06 
-2.500306419876768e-05 
-6.081369147897047e-05 
-0.0001761571491163193 
-3.557988256269775e-05 
5.641292168616089e-05 
0.0001562743772838677 
-1.945360854001999e-05 
-2.617867981149356e-05 
-2.912898455399422e-06 
2.401977658211838e-06 
-2.590464002801078e-05 
1.339534088868739e-08 
2.701914201077461e-05 
-2.689379654765418e-05 
3.715717975389138e-05 
-7.824975889491731e-05 
-2.999545001767327e-05 
0.0002055266687646149 
0.0002464965200624268 
-0.0003028418793916394 
-1.074913109550023e-05 
-0.0001310037551544812 
-1.860056145884397e-05 
-5.885003201731109e-07 
2.076298650528756e-05 
5.262764572025974e-05 
0.0001804730608204721 
-1.028226475787616e-05 
2.229416669247484e-05 
-3.692686455392959e-05 
-6.380610845754334e-05 
-0.0003310660027818633 
8.049138863962016e-05 
-3.179304681677832e-05 
8.388967172121822e-05 
8.064431645417715e-06 
0.0001514395693720495 
1.971857404098594e-05 
-1.390617229422262e-05 
-9.691243645063976e-06 
-1.945165353483451e-05 
-3.120014572785251e-06 
-5.342823393927448e-06 
2.525042549634478e-06 
1.749326504064706e-05 
-8.595594930072921e-06 
1.661953454309577e-06 
-2.186629999328887e-06 
1.099987530889924e-05 
-3.594092706633944e-05 
-2.417486868380598e-05 
-6.223795309088579e-05 
2.368550926062987e-05 
-4.454232300477167e-06 
9.681217561713002e-05 
7.930369546891554e-05 
0.0001281931686168341 
-2.462758313215344e-05 
5.211817987982738e-05 
6.408273308206704e-05 
-9.441949789999613e-05 
-7.007422570170278e-05 
-3.877299224229105e-05 
2.00638120390443e-05 
0.0001484275790720678 
7.120159400925101e-05 
3.062501874693606e-05 
6.294771214985946e-05 
-2.075044676611221e-05 
-5.076588510187204e-05 
-0.0001165416308357806 
-6.817835277861631e-05 
-9.06868733998786e-05 
1.227727704480248e-05 
-5.915211520986588e-05 
-8.117311566829238e-05 
8.187758124384796e-05 
4.146726570106864e-05 
2.220204626158409e-05 
2.459832553074249e-05 
0.0001062611624656037 
-1.017115246000027e-05 
-0.000179864447407903 
-6.954793813905963e-05 
6.037573552849671e-05 
3.043687302984064e-05 
1.02362596080039e-05 
5.317097011776359e-05 
1.402571556065738e-05 
-1.495327384632702e-05 
-7.243037377524582e-05 
-2.675064222089451e-05 
2.696582863755381e-05 
-3.234991540828837e-05 
7.406821821754769e-05 
0.0003291394927850169 
0.0001379759949728215 
-0.0001190379492808845 
-9.238603113914569e-06 
1.27526524052323e-05 
5.655454029581189e-06 
7.653294263186241e-06 
-5.474069406776446e-05 
-6.287325107132952e-05 
-1.996752777908234e-05 
