solver_type L2R_L2LOSS_SVR_DUAL
nr_class 2
nr_feature 17394
bias -1
w
0.0004243042477839324 
-0.0002711023460508848 
8.395986114729751e-05 
0.0006152730406812919 
-7.646648632330932e-05 
-2.497360069222798e-05 
2.15181101499461e-05 
-2.653759924062069e-05 
-0.0001662590974826646 
-0.000208361631836239 
-0.0001123109408053351 
9.512061747281414e-05 
-0.0003821111819711043 
4.201811911861015e-05 
-6.75067075806921e-05 
-0.001226825662755065 
-4.47108162982461e-05 
-0.0001014500122638213 
-4.815948896337326e-06 
0.0001002674126727253 
1.491768853453334e-05 
0.0002670199942109884 
-1.214175120771819e-05 
4.790372042928474e-05 
0.0004584912425438885 
0.0002535071853487265 
-7.773052893663465e-05 
-3.77884715951831e-06 
4.781218817380147e-05 
0.0003189223811953058 
6.743990692320196e-05 
2.944528289574333e-05 
-0.0001391725996789293 
0.0001679579945822328 
0.0005061497772573113 
2.477879559090795e-05 
0.0007535436868361901 
6.642717570347697e-05 
0.0002962136843659139 
1.264096031389369e-05 
4.77397275372391e-05 
4.719830262081338e-05 
7.431994773598345e-06 
3.733514499382591e-05 
-0.0001604801212081164 
-2.416116024010617e-05 
9.71485407666046e-05 
4.514295809025332e-05 
-0.0001687157449841368 
-2.98114977656991e-05 
-0.0002325422033322886 
-0.0009321389126024374 
-1.598610598861882e-05 
7.027637481620217e-05 
0.0002258652023024951 
-3.148489771544645e-05 
-0.0001169213497324491 
-0.0004081532998592948 
-4.027198430123906e-05 
3.567331979711875e-05 
0.0001160760392156576 
-0.0001029039370601205 
-5.947090433192594e-05 
-1.454712098125e-05 
0.0005228522347622703 
0.0002053456450454143 
2.352273650137013e-05 
0.0001841467328345816 
0.0004150282861566124 
2.654780811762347e-05 
5.921050800405934e-05 
-0.000106103906768688 
-0.000106888550024635 
-0.0001063121515788021 
-0.0001574005888497146 
6.032419049861493e-05 
0.0002596912952249395 
0.0001151671249544346 
0.0002055319153339947 
-0.0001537747609605729 
-0.0005908593354244976 
-0.0003901423489943785 
-0.0001393685596969548 
7.664842435609971e-05 
-0.0001324949884796569 
1.276987251767837e-05 
1.375347465876888e-05 
-1.161269357391695e-05 
0.0001402391599950437 
6.652475503118677e-05 
0.0001061809828725509 
-4.220481693144031e-05 
-0.0002898598556609993 
-2.448413550284253e-05 
-0.0001705106844343011 
9.370069797834328e-06 
0.0001525441715265545 
-1.759389283218117e-05 
7.396526575302546e-05 
2.557482247627981e-05 
-0.0006303453471246161 
-0.0003786476022036307 
0.0001028327999987286 
-0.0001772701721050343 
0.0001087453830592417 
0.0001720389112869537 
-1.092628140987092e-05 
3.264769958638818e-05 
-9.355830237894526e-05 
-0.0001292909728023164 
-0.0004458785676851436 
-0.0001229278407956964 
1.285145548912832e-05 
-3.063582021105353e-06 
-0.0004714942237281079 
4.765023792619085e-05 
6.313650727682031e-05 
0.0001359415857807856 
0.0001181853126658212 
0.0001477073477006479 
-5.18214657180521e-06 
-0.0001199616686740732 
0.0002922603502273393 
9.460185602740033e-05 
0.0008386170130052337 
9.605752192801836e-05 
0.0001382675110711507 
3.335268732850278e-05 
0.0001249678875222006 
1.788555559492255e-06 
-0.0003978588041273173 
-0.0001409958399599995 
-0.0004676000661433268 
-0.0007446257156346283 
-0.0001224117968214793 
4.048997782670351e-06 
2.399276950792216e-05 
0.0002344862728288796 
-1.433055228164759e-07 
7.315547382742546e-05 
0.0002592139834171631 
-0.0003130351136539203 
8.655696722933545e-05 
-0.000127241654315742 
-4.328646217471122e-05 
-5.541201397585022e-05 
-8.297672047907308e-05 
2.921299083648804e-05 
-7.257316874571321e-05 
5.379458604302766e-05 
7.128681066645342e-05 
2.601599337684285e-06 
0.0001178384337726533 
2.672374480229335e-05 
0.0002823007908172662 
-1.053192895067317e-06 
0.000416003358012229 
0.000426275943998725 
3.408816953872961e-05 
0.0003817143587306852 
7.473992271837239e-05 
-0.0003269443473720532 
3.802291402127065e-05 
-6.592844280223132e-05 
0.0003778554164313231 
-0.0001043392371003152 
4.511104918510358e-05 
-3.523163600828921e-05 
-0.0004810439289435419 
-0.0006558631843575605 
-0.0002977248407339858 
1.207585122267719e-05 
0.000133396232301641 
-0.000209075554768485 
7.899145732134932e-05 
-3.256063738445735e-05 
0.0009009634203062914 
0.0001957988741354832 
0.000100880793766365 
1.509924145805793e-05 
0.0004019770997365595 
-1.333571781499026e-05 
-1.941371657024286e-05 
5.772004840706643e-05 
-0.0002744371823342247 
0.0001110064515843822 
-0.0001722912528091575 
4.965657784047209e-05 
9.846804781097886e-05 
0.0001466757470867348 
-3.476879752082118e-05 
-3.464282903209295e-05 
0.0001742451810069405 
-3.301300914775848e-05 
-0.0003995839281465894 
-0.0006204439025667895 
-0.0002009568885717345 
-0.0003319544402543737 
8.3282344707741e-05 
-0.0001325168975754972 
0.0001808836406621162 
3.466104043752754e-06 
0.0001161533006031106 
-0.0002249685425507064 
-7.176237702752755e-05 
3.873509430075593e-05 
-7.05667518732716e-05 
5.919685959531193e-05 
0.000449443872491433 
0.0006395481345102162 
-0.0001634206485890191 
0.0001944875662703271 
8.290724567169471e-06 
-5.209359240299426e-06 
0.0002412218433548443 
0.0002124355195413576 
-0.0001536723131945003 
5.181106756148675e-05 
-5.591941738258235e-05 
-0.0001627113278797339 
-0.0001510686349622424 
7.52872127126336e-05 
0.0002218903162504917 
0.0001082274965646134 
0.0006540953055214775 
0.0001629678119259742 
-8.700499025229935e-06 
0.0003694845926330948 
0.0001687273293376742 
4.348553469448346e-05 
2.560091850638491e-05 
3.169202528735298e-05 
-0.0002196449728636709 
-0.0003106561385685551 
6.133234590717924e-05 
-4.680303087039298e-05 
4.532892444229311e-05 
-4.519363861690688e-06 
0.0001804929921634398 
0.000113445782913716 
0.0001216323310257999 
6.796389662446299e-05 
-0.0001428098898046541 
1.647683484414111e-05 
0.0001918633339293925 
-1.752596580675284e-05 
-5.871771169993449e-05 
0.0002576609432980873 
-0.001025389568304782 
-0.0001217363160023927 
-0.0001914775428654063 
3.384497952458749e-05 
-0.0002402030575254478 
-0.0002091484262631955 
0.0001405769994308952 
-8.502558766649909e-06 
-3.134865069901252e-05 
-0.0001386198089848882 
-6.339026602064947e-05 
8.339656760916784e-05 
-0.0001641743875914599 
-0.0001286597466467387 
0.0001964293782118914 
-0.0002976836624468434 
0.0001843540224208717 
-4.054165950080389e-05 
-0.0004646801423446929 
-0.0001556765050636408 
0.0006898596099136996 
0.0001297191799855313 
7.068914927099247e-05 
-6.291579946579669e-05 
0.0001216958846354822 
-6.392729165599462e-05 
5.862874190331029e-05 
-9.560158846712603e-05 
-0.0001131253683774879 
8.572029245441573e-05 
0.0005434000859709778 
6.71806557119052e-05 
-9.019555927152858e-05 
8.939394423317554e-07 
1.231118114566549e-06 
-5.192816589020149e-05 
-0.0001064049344972186 
5.764955615367872e-05 
3.824964325675133e-06 
-0.0001449617694187443 
0.0001448721942443368 
0.001028323371082517 
-8.807731725894686e-05 
-0.0001095555992874455 
0.0001227411092265607 
3.697747059046107e-05 
-8.51309430725746e-05 
-9.981961384702265e-05 
-0.0003509129715531351 
0.0001869270726860077 
-7.094057334366806e-05 
-0.0001344622018429668 
-0.0001358488952837501 
3.016264909780135e-05 
0.0004820666134005694 
0.0003616199025969963 
-0.0001386504550516422 
-0.0002999432606256097 
0.0001573813062784782 
-7.484877437460258e-05 
-0.0002212581001884351 
-4.895365425304543e-05 
8.163507075143028e-05 
-0.0002449319475204906 
-0.0001244250882331206 
1.706124668359904e-05 
7.429040991959287e-05 
4.254133743875816e-05 
-0.0001603398157603201 
-4.098680124763396e-05 
-0.0001766207757562322 
-8.005512571479479e-05 
0.0004037153691801976 
0.0003770892979170525 
0.0005685365282928713 
-0.0002345306351882733 
-1.061030188988392e-05 
-1.180520686413512e-06 
-7.892840932612494e-05 
-0.0002273325954213177 
4.492356498098376e-06 
-0.0001847138856889639 
-0.0001568542371761147 
-6.028818960879805e-06 
-1.63560295345103e-05 
-0.0001461794581426161 
-6.99940055403958e-05 
0.0002393807701535418 
8.84623394908643e-06 
0.0001435590405757689 
-0.0001722943638797436 
0.0001213000863223373 
7.40048672176808e-05 
-0.0001458206157623256 
1.755081669260935e-05 
-0.0001475045494854852 
-0.0001621405486470211 
-0.0001115210108610484 
-0.0002183558083618059 
-6.72123248408949e-05 
-7.042721974130779e-05 
0.000287550395389626 
6.025873339159998e-05 
2.538683336333186e-06 
-6.163383457783597e-05 
0.0001472692990842515 
-0.0001478375057084382 
-7.303052026521302e-05 
-8.091256168113362e-05 
8.202380603543563e-05 
-0.0001857878046391871 
-0.0002116805233541324 
-0.0003750644189714251 
-6.614842677877362e-05 
4.893919328852696e-05 
0.0005469619097262135 
2.314731634522028e-05 
0.0003395550795578983 
-9.672280038714446e-05 
1.269805731758366e-05 
-1.424848096978806e-05 
0.0001502829528973348 
-0.0001779803147699185 
-0.0002517063813358786 
-7.134317705888246e-05 
-0.0001218482493183619 
6.415354243012306e-05 
-7.530360986994154e-05 
0.0001490512457714384 
0.0002134841101713517 
-2.903450236554112e-05 
0.0003529424163494013 
-3.473796955587769e-05 
-7.934363208114058e-05 
0.000105432935235883 
-7.393107403651862e-07 
-1.132948408066759e-05 
2.307583546565334e-05 
-1.433870250743942e-05 
-4.419644282353188e-05 
-7.308654843457789e-05 
-6.494843174231685e-05 
1.44607338445582e-05 
-0.0002044089423824798 
-6.031477496501269e-05 
0.0003694478955270279 
6.919341971049891e-05 
-0.0001272541669079189 
-8.228980641530085e-05 
0.000324350223036041 
0.0006199564685794842 
0.000348641399857707 
-0.0004334794061563109 
-0.000417289173842867 
-0.000118785593024934 
-2.40036186800313e-05 
0.0001055731441608257 
-9.431340293624489e-05 
-0.0001597728564387392 
-0.0001259836150163484 
7.288685790682751e-07 
1.791717401381614e-05 
-3.017135036980975e-05 
0.0002152962440393253 
1.823576539719967e-05 
2.187083691123342e-05 
3.672309863556582e-05 
-1.866695125179176e-05 
0.0005945848679223466 
6.972747426929928e-05 
0.0002174740684540207 
-0.0003023678138523536 
-0.0001978280596510692 
-2.946110267500144e-05 
0.000246419200358374 
-0.0001425654133543033 
-0.0001377150250781927 
-0.0001801257154696618 
-9.753358113978921e-05 
-0.000201804700406878 
0.0002090661513306013 
-0.0001936938679998287 
3.881070983662694e-05 
-0.0001624056670401979 
-0.0001617706607288969 
0.0006653108568276605 
-1.261046038388127e-05 
0.0003868731156618175 
-0.0003439765767148663 
-1.115494349824133e-06 
2.81731664915131e-05 
-3.320288129061919e-05 
-3.516386864587357e-05 
2.644518852732113e-05 
1.26561047111986e-05 
-1.083113595997347e-05 
-5.181071451205303e-05 
1.638551354442917e-06 
-0.0001076140410330113 
-1.274483567726685e-05 
-5.959495572416036e-05 
-2.315484521761106e-05 
-0.0001249388477455933 
0.0001649048072169893 
5.732240267400007e-05 
-0.0001730852513511115 
-3.851171294038982e-05 
-1.469564397262669e-05 
5.455505582943905e-05 
4.295948881236262e-05 
0.0008032596125537995 
-8.043552118686091e-05 
0.0005759077803144665 
0.0001234113395221505 
-6.036931337671641e-05 
2.755359928988288e-05 
5.979659861571989e-05 
-0.0002024084457051399 
-4.029711970862985e-05 
-0.0003635939080966177 
-0.000214449572634784 
-5.063589669345562e-06 
-0.0002489732272737131 
-0.000244294080544 
-2.906671091433594e-05 
6.78278579999507e-05 
3.500470932361579e-05 
7.87045763861987e-05 
0.0001234573686997985 
7.788702688527388e-05 
2.051564914674552e-05 
-0.0003092972874270835 
-5.704585900935866e-05 
-6.22034381410042e-05 
-1.819792425931985e-06 
-0.0002541897411650131 
5.169775479009099e-06 
-3.803985262849619e-06 
-6.514571461357466e-05 
-0.0001671813039340191 
-0.0001206975470463695 
0.0001703167382500261 
0.000792565435684211 
-0.0002202772368213286 
-2.421199833296796e-05 
0.0001746953303623674 
0.0002188360490037386 
-0.0001340082897179383 
-0.0001498472036945295 
0.0003429124457482926 
-1.750317888723654e-05 
-0.0003156827530253475 
9.213919193813507e-05 
-0.0005173724035419702 
-7.450703447764522e-05 
-0.0002152285189754131 
1.189367838498567e-05 
-0.0001271331635083415 
5.942600746824413e-05 
0.0001428241540232065 
9.633728631257704e-05 
2.594400736871329e-05 
8.972848934448351e-05 
0.0003859084129945239 
-0.0002241118942350137 
-0.0002455370877603498 
-0.0001419485792238407 
0.0004997951579971729 
0.0001769973281838715 
0.0002503464213247106 
9.677417009976062e-05 
4.839396749051086e-05 
-7.588594692420923e-05 
-1.096716750401786e-05 
4.489410357243059e-05 
4.891222734701146e-05 
-2.021248298331251e-05 
1.264819225205566e-05 
1.633854896970353e-05 
-0.0001056372949052745 
-2.690338085437055e-05 
8.936113608967519e-05 
-7.190956655011472e-05 
-0.0001728945758534473 
4.078518830593054e-05 
-0.0001839305697401831 
1.945992894319485e-05 
1.162188329067636e-05 
-0.0002257339717963308 
-0.0001643244617927557 
-0.0001512641417093977 
0.0002899599418310356 
0.000174582831219971 
0.0002967934203517482 
-7.141515269015159e-05 
-0.0001441503329650128 
-0.0001076128277289695 
0.0001159181248378198 
-5.291150479864221e-05 
2.206812799329959e-05 
-1.462353902675794e-05 
-0.0001383274246215084 
-5.840980004059238e-05 
-2.4716165878223e-05 
-0.0001987483075467958 
-7.758346660676758e-06 
0.0002026635709639297 
0.0001729663706016028 
0.000270783409396082 
4.660469486947146e-05 
0.0004568802780534473 
-2.052969986396703e-05 
2.731143227898903e-05 
2.921539732665999e-05 
-0.0003860251901656292 
-0.0002123566381451859 
-1.744412763111258e-05 
-9.172076553884279e-05 
-0.0001706704160914544 
0.0001456861808971368 
-6.954217749023782e-05 
-0.0001169213335700033 
-7.376124270780776e-05 
2.287880188154822e-05 
5.574049386501148e-05 
2.485917687509535e-06 
-6.433384903006739e-07 
0.00027235788512588 
-7.488414074287715e-05 
0.0001137191049503568 
-3.525313725020639e-05 
-6.839419049420916e-05 
-7.295232232782562e-05 
-6.970711253153381e-06 
-3.057288833349617e-05 
-0.0001512730215989133 
-3.884278849032894e-05 
-0.0001752972267102704 
-1.5389041000162e-05 
8.896222998411236e-07 
2.212556746023985e-06 
2.513079676632637e-05 
-3.577962300484853e-05 
-0.0005505899676857628 
4.784433266623512e-06 
0.0002077637771539387 
-2.788509116559158e-05 
-3.858033415927006e-05 
-4.978682103106427e-05 
2.437482688105723e-05 
0.000131111378565791 
-0.0001716081270326858 
0.0003135644562936926 
-0.0001822519035349844 
3.432582179706113e-06 
0.000143516502138237 
0.0001698814677794961 
1.534980411413624e-05 
0.0005892154663771465 
6.220240008495112e-05 
-0.0003984783898570679 
-0.0001513535184080715 
0.0001690157734675406 
-0.000106181662724023 
4.127532102343208e-05 
-6.61408103014523e-06 
5.347534106822983e-05 
-5.854364569172812e-06 
-4.318302741268994e-05 
-6.669073845314006e-06 
-5.68772164471734e-06 
-6.440307847176255e-05 
-1.428807860693554e-05 
-0.0001382862105760487 
0.0001558110332300831 
3.509102028457078e-06 
-8.945874858518086e-06 
-1.093967259524403e-05 
-0.0001409228837522548 
8.215427178177119e-05 
1.167816590546315e-05 
-1.939068611611345e-06 
-3.89263485912942e-05 
7.410214900825599e-06 
0.0001567595398313318 
-0.0001927502795203274 
0.0006392376688419025 
-4.734030322340622e-06 
5.285013146132578e-05 
-4.313673461731692e-05 
0.0001279051341113187 
-3.694975785515283e-05 
-6.797445274182173e-05 
-1.52472582761493e-05 
-9.98120331719748e-05 
1.443686445713878e-05 
-3.358022000398073e-05 
-7.149313131222462e-05 
-3.13276504155128e-05 
0.0002243306708457588 
0.0001572795316882093 
-7.567898050011192e-05 
0.0008170247824815159 
-0.000185708908059483 
0.0002299321085903994 
0.0002446917492901351 
-0.0001807111473565063 
-3.256492529772116e-05 
-0.000341174555496847 
0.0001254420164741394 
-0.0001449805816769259 
3.146074924019411e-05 
-0.0005196189255990252 
-0.0002360918919858262 
-5.643445826835207e-05 
0.0002196493461169849 
0.0001890860739413256 
-6.668908284138121e-05 
8.81766677713066e-05 
4.852612018647995e-06 
-3.174253066146313e-05 
6.980400891073881e-06 
6.851525824849438e-05 
-0.0001501902586083433 
-0.0001941256109857315 
-3.01117327796382e-05 
5.030103264720493e-05 
-8.578280355826279e-05 
-1.001977540903508e-05 
-0.0001566642020247764 
-0.0001650146494980681 
0.0001224352621375521 
0.0001143664775528561 
0.0001636088559035532 
-7.926819138831768e-05 
0.0001849580925555605 
9.511147570071662e-06 
6.042447652896002e-05 
1.61888646621556e-06 
-0.0001709109945664152 
-1.663778997336036e-05 
-0.0001147776616867979 
0.0001540129605601282 
-4.743623062962453e-05 
-1.595570596115049e-05 
-0.0002724968594270143 
-9.238239014248585e-05 
-5.340062498076966e-05 
1.810562166297164e-05 
4.737277062945147e-05 
0.0001029525601252713 
0.0001813855082177855 
0.0006943123109720707 
-5.2439121751824e-05 
6.306763200921766e-07 
-0.0002677344553047935 
-0.0002263211598827536 
-0.0001603723180298817 
0.0001519788325275429 
0.001065541696040293 
-2.811009963111248e-05 
9.006369941268685e-05 
-3.615910708301843e-05 
1.424733323289995e-06 
1.105429827413601e-05 
-1.19201340592779e-06 
-0.0001095001485517131 
-2.392800129809856e-05 
8.775231469067645e-05 
8.15058263116012e-05 
-2.452388556808869e-05 
-5.788768349157153e-05 
1.291957218713188e-05 
-5.727693078277365e-05 
0.0001428050064425733 
-0.0002160163900571784 
0.0001055044980230513 
-5.988749309776591e-06 
-6.140945650438797e-05 
-1.007006039166337e-05 
-2.782070959252319e-05 
-0.0005239911420963148 
5.074013809331326e-05 
6.923370113223069e-05 
-6.501749901401031e-05 
-6.082561101839346e-05 
8.159056709337418e-05 
-0.0001748660780610473 
-2.397319211583019e-05 
-7.756483456916108e-05 
-7.754579562565995e-07 
-2.997029348223881e-05 
0.0001571669708956684 
-0.0001868217107711543 
0.0001211227894243971 
-0.0002971077440560019 
-1.823585607158896e-05 
-4.689212641677236e-05 
-1.839899337883357e-05 
0.0001215474782432494 
5.281993927040867e-05 
0.0002535152155162522 
0.0005287136637948587 
0.0004089936292534605 
-0.0002409122214961733 
-0.0007046327226865303 
0.0003727836178967865 
-0.0001456115023246327 
-4.588790339071443e-05 
-8.696549113192748e-05 
5.881335692886654e-05 
0.0001106698508418726 
2.174297622385033e-05 
-1.122974667234391e-05 
-3.709434930102455e-05 
-0.0001044803603986343 
5.758338711036441e-05 
-6.189572209456096e-05 
-8.923254374402695e-05 
4.304773644005002e-05 
8.633246627928843e-05 
-0.0001939627909845595 
-1.277159139997369e-05 
1.990565937065773e-06 
-0.0001158586694016343 
-1.98854421851802e-05 
0.0001588076643088848 
-0.0001361478323051153 
-0.0004007968163126628 
0.0004697292093089366 
0.0002223237674573663 
0.0001548193486903196 
6.016982327733075e-05 
-0.0002042666859859556 
-3.469060321794453e-05 
-0.0003873399826162231 
-0.0001584326347410709 
6.030702356498893e-05 
0.0001505634589307606 
-6.325522142441376e-05 
6.600896714267623e-05 
-1.084113545217287e-05 
0.0001056165772652254 
-2.792801437117902e-05 
-5.73025564715377e-07 
-4.576403869982539e-05 
0.0001447965359086712 
9.168163058417089e-05 
3.182427516958019e-05 
1.734077127099704e-07 
8.152406561568922e-05 
6.683537290634841e-06 
-4.843299520772426e-06 
0.0001353477407166768 
-3.134814419569225e-05 
-3.024004296321544e-05 
-6.957471334404553e-05 
-5.941335364049785e-05 
0.0001732772354682386 
-7.588265141813466e-05 
7.977005245704473e-07 
-1.818066046166141e-06 
-6.567965071046222e-05 
-0.0002094387413960205 
0.0004043149051991818 
-8.870864269039499e-05 
4.766756967427842e-06 
0.0004154409175465411 
1.36330591822224e-06 
-5.924010583352853e-05 
-0.0001756004517931728 
-5.934542832622465e-05 
4.165304402976078e-05 
-2.333259951725098e-05 
0.0001195193546084951 
-0.0001570934652426559 
-0.0001709354337946717 
0.0004449379729636597 
-0.0003954008113406876 
0.0001271787242534385 
9.171195359702452e-05 
-5.081367224141614e-05 
3.558032232277859e-06 
-0.0001543205302288241 
-8.778703871759577e-05 
7.565773289055919e-05 
4.955577473580112e-05 
-3.843004303953044e-05 
-3.404826201093333e-05 
8.220613101891682e-07 
-2.492376901914617e-05 
-2.183362684751322e-06 
-0.000282205931937707 
0.0001186795012478372 
-2.635020314347971e-05 
7.36333183380671e-07 
6.488286578200684e-05 
0.0005382780055551957 
3.638434311399266e-05 
0.0002337750736534158 
-0.0001195717707660151 
-2.477480971355258e-05 
-3.889143661674281e-05 
-6.994094935445552e-05 
-0.0001693038426495069 
-0.000210791099545598 
0.0006475410892780722 
-0.0003826450726850172 
8.651007664028621e-05 
0.0001386140690675587 
-9.208654847184161e-05 
-1.385287457426228e-05 
2.953240381604483e-05 
-9.4007303502385e-05 
6.401851506736824e-05 
-0.000292355687127507 
9.141057334335644e-06 
3.497855979686298e-06 
0.0001307996046852116 
-2.904462109561812e-06 
-0.0002248177593851527 
-0.0004113806038146729 
-1.602901450824152e-05 
-3.628221614893719e-05 
-0.0002941673628460189 
0.0003611437630632207 
-0.0001744028106307882 
-0.0001312415774881515 
0.0002525638519810899 
1.199718209895344e-05 
-3.494458619938983e-05 
0.0002666120967538161 
0.0001541884732880024 
5.498067561702917e-05 
5.313477251213518e-06 
7.106968185795606e-05 
-4.537436601958099e-05 
9.111123035956697e-06 
1.129307068699281e-05 
-6.934331106620168e-05 
0.0001184656806187671 
-8.159483626511012e-05 
0.0001181077895587074 
1.518190020479853e-05 
8.337228992887049e-05 
6.861696493874453e-05 
-4.03731467640012e-05 
-0.0001017626458558685 
-1.933939599823158e-05 
8.279303664802918e-05 
4.378923758334569e-06 
-0.0004773808632366564 
-7.70542766842811e-05 
-2.622994188656207e-05 
-0.0002169262899455053 
-1.555264277690618e-06 
0.0007189216134036864 
-2.851508452091942e-06 
-5.291613682518557e-05 
2.369039748770589e-05 
0.000193174307970409 
-8.84583627484084e-05 
-0.0003028963563984775 
-5.178621340216667e-05 
-0.0001302106762893959 
9.266545118775868e-05 
0.000248515686488874 
-1.203332345842277e-05 
0.0002035615104307736 
0.000105834328216563 
4.690171484993056e-05 
2.287865664218283e-05 
-0.000137619952452303 
5.750072120650168e-05 
-4.665946705284002e-05 
-4.598979910354865e-05 
4.836616232946237e-05 
-3.956170036760972e-05 
-1.276943480707984e-05 
-2.610570745207503e-05 
-0.0002954259586799269 
-8.929859014193838e-05 
-0.0002774928791923934 
-0.0002094270176622448 
4.294880665241112e-05 
-2.080907091641679e-05 
-0.0001063719171535126 
-2.781230131267677e-05 
7.171459418136608e-06 
-0.0005334999358247506 
0.0007246648731478919 
-7.482123620692906e-05 
0.0003126967038014023 
4.66248293104919e-05 
-1.502917294414112e-05 
1.829545182669039e-05 
8.640621795149741e-05 
8.727808492963978e-05 
0.0001095833791846035 
3.238471315306522e-05 
3.082411288355769e-05 
1.346017142802488e-05 
0.000106262044688911 
6.184077121450547e-05 
0.0001198781827852238 
1.134635372556663e-05 
5.52051594465423e-05 
-0.000290120656986713 
-4.812392632405696e-05 
0.0001406109016515348 
3.282566932037268e-05 
2.87626166073051e-05 
0.0003921499920802523 
-1.990394310712987e-05 
0.0002430252424525473 
1.747973067200291e-05 
-0.000171866772685434 
-1.65657876822496e-05 
3.170774733011769e-06 
-4.958438488544176e-06 
-0.0003446834753056823 
-0.000124448950033356 
-1.194758009873827e-05 
-9.889182562831149e-05 
-6.255185092517553e-06 
-2.708882122318415e-06 
0.000108153570945943 
-6.112344904736939e-05 
-4.89738492945661e-05 
0.0004829620423789004 
0.000235873615427824 
-9.105069949866966e-05 
0.0001800495525980489 
-0.0002740325572533485 
-1.623648851048878e-05 
0.0002281744097189519 
-0.000108556723892948 
3.74285374819715e-05 
-9.19154427047571e-06 
-2.127369378404048e-05 
-0.0002328091419311375 
9.509625822080717e-06 
-0.0002169335640970742 
2.527329729454295e-05 
-1.226158756126495e-05 
-2.315898891643023e-07 
3.963160737404411e-05 
9.799448405590834e-05 
-1.633025279434809e-06 
4.358505784869764e-06 
4.307139992838592e-05 
-0.0001367816060302442 
-0.0002500429138321694 
-0.0002099539356352064 
-6.00736197248253e-05 
-0.0002234760946038053 
-2.396174818894301e-05 
0.0007081806780524806 
0.0002895908463065639 
-0.0002987315405972243 
-9.82323592724634e-05 
-0.0001520835629676546 
0.0001425158309512883 
0.0001054918631020912 
1.978803653289735e-05 
-1.41285925760096e-05 
3.904573132282525e-05 
-3.821670292812969e-05 
-3.328627665567082e-05 
0.0001338401199477607 
-5.056072868474584e-05 
3.581514572350584e-05 
-5.253542969395296e-05 
-5.030561831969256e-06 
8.575548018778765e-06 
7.415991863314855e-05 
2.731799608728633e-05 
0.0001082247631207683 
-0.0003221281572207794 
2.676220820619945e-05 
4.594515900801658e-06 
1.857101564889605e-05 
6.458342649236568e-05 
0.0001741213668843719 
0.0001255130262500984 
-7.480804032866306e-05 
-0.0003682841970376324 
-0.0003110539352669728 
0.0001228037311728027 
0.0001065657989294067 
3.279369521833925e-05 
-7.544414117043404e-05 
0.000125531548001482 
8.698094600613984e-05 
-5.46551902997613e-05 
0.0002320582696355038 
0.000145219009038118 
0.0006973688727291803 
-0.0001030548959561761 
1.29013062962905e-05 
6.552213583071957e-05 
-0.0002565013113948453 
-0.0002663899149004773 
-7.123863274777346e-05 
-4.695241345049463e-05 
-4.495935802195095e-05 
-6.115230173948831e-06 
-9.501037369718612e-05 
-1.275718345588638e-05 
-0.0002015816004534949 
0.0001661933679335768 
4.923890439765636e-05 
-1.37327425405495e-05 
-5.013481342622301e-05 
0.0001450255592937183 
2.390502671735786e-05 
1.877088398273114e-05 
-1.609159079190021e-05 
4.346034284909299e-05 
-0.0003669802518931436 
0.000130938631449619 
-2.379584894642971e-05 
-2.200900105156755e-05 
-2.127875970067176e-05 
-1.014317062206599e-05 
1.226251127860803e-05 
-2.663091493700102e-05 
-4.665635046327779e-05 
8.71397044964662e-06 
-2.837550831774436e-05 
-8.355810828409928e-06 
-1.297744247138114e-05 
8.394720186830786e-05 
-3.553744900295856e-05 
-0.0001142833929930086 
-0.0002366988872773851 
0.000442361986557885 
-0.0002947328049786616 
0.000234417258812204 
0.0002643557183430372 
-0.0002082214641930148 
8.863495848504159e-05 
4.998917424562407e-05 
-5.440472059851109e-05 
9.094716519937054e-05 
0.0001976111530872725 
0.0001995863525231345 
3.278844508246361e-05 
9.210982412868826e-05 
-0.0001824381350619741 
-0.0001181948652678061 
3.545817663310162e-06 
-2.528603382448382e-06 
-5.829367664563561e-05 
-9.301596057752584e-05 
-0.0002324806436798446 
-0.0001175788710766391 
-3.237568151979954e-05 
-0.0001730273300827234 
-2.106514145448324e-05 
-9.568961037047816e-06 
-1.667098506530425e-05 
-6.531665225601737e-05 
-8.393850752229556e-05 
9.033275025434024e-05 
0.0001385761911953667 
0.0002832286574051524 
3.526879736179203e-05 
4.914844449573021e-05 
-0.0002917707067261496 
0.0002162382546746592 
0.0002737227601269497 
-5.60208711633426e-05 
1.582618774499702e-05 
-5.747054965997051e-05 
-6.579155619075051e-05 
-9.618880441751876e-05 
6.001447475428451e-06 
-8.850359353625549e-05 
-6.838633978709467e-06 
4.110053541454653e-05 
7.081997249024916e-05 
6.063907322205222e-05 
0.0002018881978203956 
-7.63338576451862e-05 
0.000124797631087448 
0.0001778191597605159 
0.0001096645038131615 
-6.177187463831494e-05 
-8.758146432024504e-05 
1.04681020153341e-05 
-0.0002260427779198173 
-3.286865195196663e-05 
-7.455549360654462e-05 
-0.0001940243216249911 
2.166629385185469e-05 
1.152026109135797e-05 
-2.393947644338393e-05 
7.865939844128822e-06 
0.0001219077761719927 
7.165709721336679e-05 
1.281076699284245e-06 
0.0001381100331181924 
3.573647804436481e-05 
-1.10403888366521e-06 
1.135499282271603e-05 
-8.516280002738238e-05 
-0.0001536119334283638 
-0.0001288000277587609 
-0.0001944309619861497 
0.0001594760338895261 
0.000229053796830052 
-7.158911642667335e-05 
-3.715094073452079e-05 
-4.172948759061321e-05 
-9.689634199586663e-05 
-6.006341609858881e-06 
-6.29192390393582e-05 
-9.78294530523257e-06 
-7.161830560578603e-05 
-7.988055275301571e-05 
-4.012730103348388e-05 
6.201333132113272e-05 
-1.477313145816182e-05 
0.0001182950070889454 
8.963490343485482e-05 
0.0002661485271799998 
8.240010813226362e-07 
-2.471509791178813e-05 
0.0002754853115485209 
3.228805944348079e-05 
-2.12396961071911e-05 
1.347378918925056e-06 
-5.094122115554492e-06 
1.514805439207242e-06 
-1.996592744557968e-05 
0.0001588709771093639 
8.531410202716145e-05 
6.295177087419686e-05 
4.320416179100325e-05 
-8.704303114886908e-06 
-2.684881779126241e-05 
-1.375646313199094e-05 
-4.955370544294862e-06 
4.610784493351416e-05 
-3.301097623707514e-05 
0.0002020094174930761 
-5.721096436970329e-05 
-7.20279578250872e-05 
-0.0001627827246732112 
-2.291338773436041e-05 
-1.60753322103028e-05 
-0.0001137181137303809 
-0.0001014406926106751 
-4.423925048813058e-05 
0.0001985107350023584 
-6.410540041849156e-05 
-0.0001426342316312548 
-0.000179592281587643 
0.0004183660478423371 
8.446239910268533e-05 
0.0001900285262831777 
0.0001081167218282909 
-4.341979265195046e-06 
-3.662747458188293e-06 
-0.0003129757862852395 
3.343609275995193e-05 
-0.0001655441761580634 
-1.649125439781497e-05 
-2.323445596045477e-05 
0.0002179666173817603 
-0.000126267818667192 
3.308145036939768e-05 
-0.0001600323974220026 
-7.759978055734412e-05 
8.350609654423505e-06 
7.025195652691047e-05 
0.0001447779265536093 
-0.0001363500718938863 
-0.0001825964525953404 
1.137790828166925e-05 
3.152437126711616e-05 
0.0001849819572824064 
7.020685392938425e-05 
0.0001656513899913399 
-0.0001489949855419744 
0.0001800752000349785 
-0.0001081901575772824 
0.0002264523222727318 
-4.308894979145666e-05 
3.008888625621383e-06 
-0.0001413544635955672 
2.413183770679291e-06 
-4.501455897381933e-05 
-7.036605245456738e-05 
-6.12733702783819e-06 
-3.010196868558744e-05 
2.070534528566585e-05 
-4.223817016422461e-05 
6.806073386033282e-05 
-1.602450081585394e-05 
-0.0001284370377372551 
0.0002605324129803967 
0.0001291099024584441 
0.0002120475309204203 
-6.453350191770756e-05 
-8.90583752817114e-05 
0.0001370207351338865 
-6.794972346088493e-05 
-4.809094438192801e-05 
-2.939683258158849e-05 
-2.731793072262238e-05 
-0.0002385435865719602 
-0.000191197390068901 
6.221646873051518e-05 
0.0001044732704650252 
3.05035395784112e-05 
3.06537003145669e-05 
-2.432049967126786e-05 
-4.294360111845818e-05 
1.008252665848618e-05 
2.788328954371972e-05 
-1.204123824768244e-05 
-1.881322031120944e-05 
8.975749003593167e-07 
-9.334292244068964e-06 
-1.13050374501058e-05 
-5.612587762710394e-05 
2.187715933446551e-06 
-1.176837077218868e-06 
-4.114018224682487e-05 
0.0001909797816983512 
-0.0003446083575455656 
0.0001380590739660256 
4.790406949753881e-05 
0.0004303846823218762 
-7.227740773693639e-05 
4.326161556974664e-05 
-7.215054147748142e-05 
0.000797178047518324 
-5.441128424939793e-05 
-0.0001460963819982077 
-3.215449994063048e-05 
5.493129506438815e-05 
-0.0001029258986633025 
-4.235625786166074e-05 
-0.0001283334581905471 
-6.077183050952062e-05 
-2.036338252562707e-05 
-4.144123833391945e-05 
7.527629497565946e-06 
0.0001035414428477842 
1.364183280426971e-06 
-2.737391276246179e-05 
4.01138983553984e-05 
1.762440907814608e-05 
-3.419399100178319e-05 
-2.068748186923357e-06 
-0.0001780452056388659 
0.0001726004653591672 
-8.964193987799565e-05 
-3.334473896368245e-05 
-0.0001942852363519046 
-9.680866075829876e-05 
-6.785165793093059e-05 
0.000167663476804998 
3.542344555614436e-05 
6.652707953887063e-05 
-6.65598687858205e-05 
-9.262471893556662e-05 
8.392781893481787e-05 
-1.135679014515777e-05 
-0.0002402757034754944 
-3.044624018377976e-05 
-2.294967161362064e-05 
-0.0001557155727294741 
-0.0001675999199985557 
4.721769112809512e-05 
2.265259862564398e-06 
1.349747062778677e-05 
-3.514147235808287e-05 
2.585311075062489e-05 
-0.0001266920961141862 
-0.0002068818481565453 
-0.0001561603628941369 
-3.652787937934064e-05 
0.0001994006770067321 
-0.000106914995812693 
0.0001033468579826947 
0.0004682026896463987 
-5.746975693258513e-05 
-0.000131923185023662 
0.0005419531739220552 
8.918822587331762e-05 
-7.572426066474625e-05 
2.518686328095817e-05 
0.0001956519920037387 
-7.500087751343868e-05 
-1.840273448180134e-05 
-5.365801237553014e-06 
-5.906840928860394e-05 
0.0002804147053933228 
3.508648216247426e-05 
5.921448120642932e-05 
-0.000514343668662818 
-3.436915759381596e-05 
-3.888207771774706e-05 
3.376417949915453e-05 
1.841671031085289e-05 
0.0001247365670647891 
4.774626554077269e-05 
0.0001223732433853391 
-7.80192108826078e-05 
2.056608094789054e-05 
-0.0002151755927223668 
-2.443159791369257e-05 
0.0001486547002056016 
0.0003152405924813092 
-0.0003067239977008336 
-0.0002640604789221972 
-0.0005573795283778389 
0.0001335311722414373 
-5.016698680117488e-05 
0.000409310198500208 
0.0002112230136469617 
0.000267258174271529 
-7.314585383874783e-05 
-2.781474542490172e-05 
1.601531675512148e-05 
-1.063182156799483e-05 
-0.0001855349970023767 
8.658837951779522e-06 
0.0001413694584404327 
0.0003871966439696466 
-0.0002509453477655705 
0.0005713544706993554 
3.999619742834256e-05 
-0.0003989580354991772 
-3.34910872106304e-05 
-0.0002664650274282548 
5.964343974744268e-05 
0.0001578332630176492 
0.0003750142119118655 
-2.237169152838842e-07 
4.672766182276418e-06 
9.98993057195722e-05 
-0.0001325151753634514 
6.226946151217046e-05 
-0.0001603490599993414 
-5.212899186610197e-05 
7.096919204200314e-05 
2.254827790842464e-05 
-0.0003689687293035983 
-4.310047101653244e-05 
1.77595633007751e-05 
-1.767389834555179e-05 
-9.689065584272331e-05 
-5.085417250200417e-05 
7.138683355773942e-05 
4.298178726567661e-05 
6.234694583483052e-05 
5.095413162565272e-05 
-5.073193468675356e-06 
-3.79897902115316e-06 
0.000102375303532307 
5.289863123240184e-05 
5.47085656720737e-05 
-3.229592140005906e-05 
-2.353298902694112e-05 
-2.005940655468102e-05 
-7.553257729905232e-05 
-2.475380380815269e-05 
5.326096411703743e-05 
0.000172030628798569 
-8.727120414054202e-05 
-0.0003980887178146419 
-0.0002124749519000799 
0.0001360324140208093 
7.873518763770393e-05 
0.0001194064131296833 
6.368921343001842e-05 
-9.42908216441127e-05 
-0.0001966771166165861 
-0.0001596273378631984 
8.666507801474728e-05 
-3.056015046600545e-05 
0.0001839213859640193 
-9.81484289550323e-05 
4.857823287487801e-05 
2.967611408276144e-05 
0.0006826336172835139 
-0.000434889387490413 
-3.552470279425055e-05 
-2.746769437146611e-05 
-7.091009038277307e-05 
-1.978782934515302e-05 
2.619399489575268e-05 
-0.0002743073649170315 
-0.0001543711125718908 
-2.393545843377466e-05 
9.17898271188051e-05 
0.0005782493135863449 
-2.909385740579114e-05 
7.794167651273177e-05 
-5.901538366484632e-05 
0.0001040487220064397 
7.457184110902392e-05 
0.0001971137926042738 
5.574054551223509e-05 
-9.863139908469858e-05 
-8.360581192224146e-05 
5.966657374057798e-05 
-0.0002472640378909523 
-0.0001145959655010781 
-5.939317539595354e-05 
-7.160958998971659e-06 
-0.0001679393096238112 
-0.0002084167690184631 
-0.0001613435363725856 
0.0003012956289978343 
0.0001457999702110644 
9.172099004029242e-05 
0.0001271559117751388 
-7.68649063310741e-06 
3.097477944680294e-05 
0.0001008361310876651 
-5.402157584342938e-05 
-2.774364875878961e-05 
0.0001084018889214951 
-9.9185047095723e-06 
-1.493521136560239e-05 
0.0001651288844655796 
-4.732513881844941e-05 
-9.376067497806567e-05 
-0.0001217981222891588 
-0.0004625184338972289 
-1.812075949087925e-05 
3.56825363933696e-05 
-0.0001478506319296835 
0.0002117825795728687 
9.881591763665295e-05 
0.0001173146182173848 
0.000436784105187258 
-8.17282278551527e-05 
5.99562316968288e-05 
7.294344825145564e-05 
0.0001154734866531874 
4.190038986313508e-05 
-3.511545830461848e-05 
-0.0001748388994696779 
-1.958880398646474e-08 
2.377507299666716e-05 
-6.220306274526189e-05 
-0.0001762993354139688 
-1.735605534626057e-05 
6.621099411111551e-06 
-9.492445641507506e-05 
0.0001954758846598598 
-9.825468955217961e-06 
0.000200469027999516 
2.196805012364806e-05 
4.478654497700427e-05 
3.672114740644513e-05 
3.972378400131647e-05 
-0.0001131797652326816 
-4.750434130004854e-05 
-7.171233129625551e-06 
-0.0002252874017717095 
-9.466906383182707e-06 
0.0001145798799298479 
-3.208078866489859e-06 
1.219131238249678e-05 
-1.486237031562145e-05 
-1.51916645248605e-05 
-3.970680494605187e-05 
-0.0001514464890693469 
-5.540996808941842e-05 
-0.0002811148669189446 
-9.04771841903541e-05 
1.133434144482712e-05 
-0.0004756692811237736 
4.300320194114689e-05 
0.0001891534931730163 
-5.112234316331224e-05 
-0.0002468385243044865 
0.0007140371241017647 
5.660490512352767e-05 
0.0003331962912174668 
6.754941056680854e-05 
8.095444883974937e-05 
0.0003289036848843251 
9.174503817238112e-05 
-1.592407166132458e-05 
2.382062476388333e-05 
8.264975587574047e-05 
2.738529290026474e-06 
-0.0001234934711828931 
-2.378049369224655e-05 
-0.0004089315760138409 
-0.000128416467332629 
-2.75462807364842e-05 
0.0001264748275110795 
0.0002497198955448578 
2.652925512370591e-05 
2.228091455827203e-05 
-1.107030586410453e-05 
-7.910194663080311e-05 
1.429091890086826e-06 
1.08008226702314e-05 
-5.899023472759197e-05 
2.654949166544502e-06 
5.686424324415491e-05 
6.226718168588767e-05 
-0.0001172495143679128 
-4.788514973412888e-05 
3.341108883285981e-05 
-0.0003267375890915905 
0.0002101010546679073 
2.923978135203127e-05 
-6.016965782331031e-05 
0.0001035717400497009 
-2.88425967482508e-05 
-2.120870680411222e-05 
0.0001852009107813391 
-0.0003605678033762447 
-7.919193966269681e-05 
1.007168836235682e-05 
0.0003515955419258216 
0.0002203246375303934 
-2.869505176621781e-05 
4.392815936926474e-05 
9.967370155404449e-05 
1.756538045459906e-05 
0.0003920578428816732 
-1.259379501709396e-05 
2.72011429878954e-05 
-7.658775439881172e-05 
-4.612095980457374e-05 
0.0002442715019824393 
-0.0002192868821431666 
-2.699127571282564e-05 
2.482703313098745e-05 
5.123216861035527e-05 
-0.000125636701840372 
-2.46510560002893e-05 
-7.830939874588503e-06 
-0.0001966321073891057 
6.871024930629648e-06 
-0.0004788192705036757 
0.000103282192414164 
-8.27751342615662e-05 
1.559514811960775e-05 
0.0002175604473190811 
0.0001345587688588344 
-0.0002482975378161478 
6.382607298720153e-06 
-0.0001510227262658584 
-5.37446945957071e-05 
4.985746530342523e-05 
3.842487225964119e-05 
0.0002690620683221882 
0.0001188112248198471 
-6.194261537296073e-06 
-6.677917160862426e-05 
-0.0001022467034554157 
8.994911888271983e-05 
0.0001935193838131509 
-0.0001454569341774291 
0.0001084356594057798 
0.000144455741816539 
1.387071809692708e-05 
0.0001008463918013949 
-7.015288537950422e-05 
-1.281827093623e-05 
-6.292344676304178e-05 
-0.0001004031991649931 
-0.0001455076924024079 
-0.0001666561711031674 
-6.433652138832733e-06 
4.629313217035722e-05 
-1.492546445474425e-05 
-4.900271552592901e-06 
-6.933920738518219e-06 
-8.579275629642355e-05 
0.0002933585598536581 
-1.454977043153784e-06 
2.62900769085019e-05 
0.0001577798765910974 
-0.0002705737860164271 
3.031196033706347e-05 
-4.547688861508244e-05 
0.0001343427733025095 
4.985380949054891e-05 
-6.61415411653279e-05 
-1.777990838880313e-05 
-0.0001921688595375496 
7.01775520196107e-07 
-0.000297118452717857 
4.869694330389058e-05 
-0.0002474524709868741 
6.768526411641209e-05 
-0.0001533596895704161 
-2.124622035440736e-05 
0.0001673026254819767 
-7.617920358795115e-05 
9.150517336893142e-05 
-0.0001238152830676738 
-0.0003249290264541456 
0.0003821904160178054 
0.0001253641140979283 
-4.047363464554538e-05 
3.886468561784185e-05 
-0.0001426945972478743 
3.782136708447358e-05 
0.0003849972520143078 
6.463570607361945e-05 
0.0001817567871165248 
0.0001502073278085182 
-7.301580093670253e-05 
9.459105171721946e-05 
4.854357499025459e-05 
-2.441195006055079e-05 
-1.135399551494347e-05 
3.732043942104685e-05 
-3.173004655680141e-05 
0.0001320009409994172 
-7.947210223401894e-05 
-0.0001330856047348249 
1.839778025225661e-05 
-1.246435558628811e-05 
-7.803300552420458e-05 
7.51827082809449e-07 
-0.000152728261436795 
0.0003188447678609148 
0.0001552992641048318 
-7.527313782506195e-06 
-0.0002666745297029976 
5.673284195953531e-05 
-7.880219244426634e-05 
-0.0001518496810206579 
4.507216248310437e-05 
-3.310893493663093e-06 
2.521012721537108e-05 
2.961337172759584e-05 
2.035274510838571e-05 
4.156425676261979e-05 
3.254309590025505e-05 
-0.0002035047896997608 
0.0002809289306832011 
-0.0002771699920695651 
0.0001263688147490499 
-5.450103216334998e-05 
0.0001686713183215625 
0.0001579927676765836 
-0.0001772793670377828 
-6.728557867488281e-05 
-7.893298108452201e-05 
2.023014897248807e-05 
0.0002127521352667356 
-1.726032535400783e-06 
-6.272472425025968e-05 
1.423273001033649e-05 
0.0001367148623404793 
-3.320968875387526e-05 
-1.136350903877997e-05 
0.0002658691581010611 
-0.0002251873424521838 
5.32228476270298e-05 
-6.655461941550408e-05 
-9.915655134554817e-05 
-0.0002269727054423462 
1.21184129218611e-05 
0.0002522676233158853 
4.228600075917742e-07 
-4.612614044178466e-05 
-9.185661437409604e-05 
-1.28179022588776e-05 
9.241057026270012e-05 
-6.596713388563936e-05 
-0.0001145334252504904 
-2.110945468001818e-06 
6.18616327301814e-05 
0.000458522852379202 
-0.0001914511334708253 
-6.794083801438074e-05 
4.974755148078246e-05 
-0.0001167331810230461 
0.00026215600150926 
0.0001055472467102151 
-6.183513014807353e-05 
3.338149936718853e-05 
0.0001823795291765018 
7.133176541948093e-05 
-1.98549375387535e-05 
-0.0002357523265399688 
-5.894470931437886e-05 
4.08435971342788e-05 
1.675199039820869e-05 
0.0001741059962199879 
-1.418423837672407e-05 
-1.60890962554946e-05 
1.40656057575324e-06 
6.338011044389843e-05 
-3.369590943739569e-05 
-0.0003087383947023942 
-0.0005928084355747684 
0.0002158296621503059 
0.000117176088868778 
-4.553157932522204e-05 
9.497013828266483e-06 
1.130829694043518e-05 
-2.871870036163129e-05 
8.807503268825477e-05 
0.0001542862337165462 
0.00010548415207266 
-2.703735192146052e-05 
-1.549853652091358e-05 
0.000233640685071392 
6.869791925093638e-05 
-0.0001133266764203843 
2.237735339556958e-05 
5.92249681937386e-05 
1.591889649187249e-05 
0.0003750087229973293 
-0.0001082655479847109 
-0.000145674718481128 
0.0002343426610139895 
5.81760969900503e-05 
0.0001645651088000131 
8.674558857938114e-05 
-5.612627341281375e-05 
-0.0002096255367197667 
-0.0001838424116831763 
-0.0001054256173804936 
1.187186496030861e-05 
-4.492985930798682e-05 
-2.482335883965478e-05 
-4.775569183979511e-05 
-9.132189473789364e-05 
9.088874451642736e-05 
-0.000193863162232343 
-4.100028756839961e-05 
-2.209953841113833e-05 
-0.0002578497254947383 
-0.0001439054294750356 
0.0004228487199122378 
1.381256764778755e-05 
-0.0002369664379021593 
5.602388121906404e-05 
-0.0005995031856015913 
0.0004414043238595773 
-7.909283193515769e-05 
0.0001404902588227813 
-0.0001787717436839931 
8.749361993824417e-06 
-0.00024255362713899 
0.0003073058173565981 
3.449895161065149e-05 
-9.845067406491682e-05 
0.0001654201669248578 
-9.449964091190089e-05 
3.508141712485713e-05 
-0.0001474024482700309 
-3.155683110498626e-05 
-1.395563826618642e-05 
-2.609990396772809e-05 
0.0001402338994203516 
0.0001113062652324322 
2.969438657935638e-05 
-2.943777482621685e-05 
-2.14527725035022e-05 
-2.574135451971523e-05 
0.0002133046320446866 
-2.820643907063842e-05 
-6.38213425946053e-06 
-3.535794246518024e-05 
-0.0001097174391479739 
0.0002707029844269565 
-7.7947469791868e-05 
0.0001255092704734404 
-5.777586842584593e-05 
-5.612149091886058e-05 
-3.864003811357956e-05 
-8.260818988348649e-05 
-4.415325194951252e-05 
-0.0002239982428435369 
-2.013568986028645e-05 
1.182182266872941e-05 
8.913954829723437e-05 
0.0002310015999691206 
0.0001572589172737998 
6.771965876827305e-05 
-0.0001994525965189198 
0.000108790281490678 
-3.30909581880176e-05 
3.280221058627084e-05 
7.909771226625188e-05 
7.980949419732051e-05 
-5.909150629963351e-06 
-1.590443158163332e-05 
-0.0001672424447971759 
-0.0003623368704216881 
3.562687961123553e-05 
-0.0001900332062101419 
5.223976489469038e-05 
-1.758626281445793e-05 
0.0001155056160530361 
0.0003264656809015856 
1.524236347415393e-06 
-7.193813402439652e-05 
-0.0002442620593876868 
-3.762941636312427e-05 
6.936690476179479e-05 
-3.003445695125439e-05 
0.0006695339171724438 
7.419280865557551e-05 
0.0001315779937693118 
7.492537324609124e-05 
-0.0001077316797156138 
-5.795827408015321e-05 
2.411818338237176e-05 
-5.798617399186429e-05 
-1.291039428425936e-05 
2.390630620558707e-05 
-7.490164566751265e-05 
-6.558409689346141e-05 
-0.0001308143008270816 
-9.30715529955235e-05 
-1.797114006768483e-05 
0.0001876643377657918 
0.0003021358774355853 
1.802770372385174e-05 
-9.714825904857569e-05 
3.682709612714268e-05 
-6.243050548971065e-05 
-0.0001129497006882243 
-0.0002708509114372943 
-8.979691306120713e-05 
3.078343146248869e-05 
7.222328470085199e-05 
0.0001488780500697831 
6.868199694601192e-05 
3.259815932340878e-05 
-0.0001111628378602548 
0.0001405746652427536 
8.356993976287455e-05 
-3.433291655536496e-05 
-3.014842948964548e-06 
-0.000187017392735804 
-6.273630232311136e-06 
-0.0001325527866790553 
-0.0001270103752513778 
-7.783393362764011e-05 
6.825075394358609e-05 
-8.456143554114513e-06 
7.677216017135013e-05 
-1.099459614969406e-05 
0.0001650136942852369 
-0.0001663551250243561 
1.240107778885665e-05 
-0.0003055328531227315 
0.0003252521670517328 
1.443228070719989e-05 
0.0001619286541690942 
-9.904859901343738e-05 
7.133616593518173e-05 
-0.0001339231190205111 
-0.0001423397266808538 
5.123592327935287e-05 
-2.655427552791341e-05 
4.551973680540683e-07 
0.0002318601077215864 
3.25996182124746e-05 
-1.23350272565622e-05 
1.791039315435403e-05 
-0.0003028196839152176 
9.141318004786782e-05 
6.512883743447032e-05 
-0.0002254341201756903 
0.0002860695037179763 
0.0002307678693603697 
-0.0002005495165565729 
0.0001434089919835456 
-0.0001878622522844463 
-6.829531756116559e-06 
-0.0001446079167055382 
0.0003266207225725784 
-0.0001436170218029133 
0.0001078145591975906 
5.71841695578895e-05 
6.15753305362114e-05 
-3.224392111500225e-05 
-6.975538793788516e-05 
-0.0001917530819992638 
-6.844422523487639e-05 
0.0001543374543070361 
-1.624555048228607e-05 
-3.538047729279628e-05 
-5.612935559046266e-05 
0.000153891708723647 
0.0004006121757516842 
-0.0001488997126613651 
-8.883765316600954e-05 
-0.0001167522388430108 
-7.39098472365233e-05 
-0.0002071294371424516 
-9.440309040737267e-05 
7.61887982115749e-05 
-1.127271590315918e-05 
-6.092520592211178e-05 
5.803232294548171e-05 
2.424338445818648e-05 
-0.0001653984032221246 
1.575182646958858e-05 
0.0001516522506421584 
6.551446157490183e-05 
1.85919256762555e-05 
6.06486367331544e-06 
-1.25243470212543e-05 
0.0001630914788261401 
-5.372522819245879e-05 
-0.0001653677143246309 
-0.0002060933072916202 
-0.0001179515375552383 
-0.0001135679437204424 
0.0004451172491685112 
-7.262777081007108e-06 
-0.0001049379820976403 
6.190939035172236e-05 
-2.684238853742915e-06 
0.0001996816127621439 
0.0002013318792344976 
-4.417381180044479e-05 
-3.126142399536833e-05 
0.0001237295877005326 
-5.747418014574412e-05 
-9.003023751315997e-05 
-1.959274607503112e-05 
-3.526651541805886e-05 
0.0001368126865588182 
8.369217013339314e-05 
2.313486254592149e-05 
3.133414105878971e-05 
0.0001719943502675503 
-1.656761778593456e-05 
-9.641998786471798e-05 
0.0001626193508016831 
2.348964890769363e-06 
-0.0003301075371111806 
-1.02567090187095e-05 
0.0003240979041088595 
0.0002778384998632758 
-6.564796304555392e-05 
-0.0001369628684545347 
5.34665961291916e-05 
2.469175858233285e-05 
-0.0002331121752715439 
-0.0001403558448396141 
0.0003206174541705007 
-0.0001525481032292253 
-0.0001049223486384703 
-9.66169850505657e-05 
-0.0001430567199687625 
-3.705333367546907e-05 
-0.0001276992187786473 
0.0003454024371138126 
-6.249228106015726e-05 
2.149585635611801e-05 
-0.0002433634493732632 
-9.763125706970117e-05 
-0.0001398173409943899 
-0.0001616884958033785 
0.0002371092097715199 
0.0001808065735700745 
-2.942534438275065e-05 
-4.103138000628545e-05 
9.409005073859383e-05 
0.0001849005184854982 
0.0005074752182933956 
-0.0001568107361726995 
6.120062044320839e-05 
5.258595203155059e-05 
-2.098365024290075e-05 
-2.568700349184474e-05 
-0.0001163038633622305 
-3.459862766477083e-05 
3.92226540816763e-05 
-0.0001072184167052963 
-1.017189131626223e-05 
3.132787524178905e-05 
-0.0001537376504046118 
-2.6193997014249e-05 
-0.0002727399328466535 
4.659684149258211e-05 
-4.254888295588457e-05 
4.272323612749082e-05 
-0.0001100037775470681 
-3.175442600763393e-05 
0.0001029093352697993 
0.0003215998775963728 
-7.653702158118674e-05 
0.0001577881619694779 
0.0002643393756638163 
-0.0001370215976098575 
1.724985104067457e-05 
1.404153597342048e-05 
0.0002265923492783193 
0.0001054637379905764 
3.805475051880191e-05 
-0.0001148135770356671 
-0.0002878687808390847 
-7.753093779249005e-05 
2.543563610655638e-05 
-1.126276663776457e-05 
-2.06205855142122e-05 
-9.57427410918144e-06 
-4.639815755785481e-05 
-0.0002047435833143924 
-9.145565100702045e-05 
-0.0001068436812428579 
7.370039638354646e-05 
-7.31181773414624e-05 
-0.0001254792409801818 
0.0001056177045131788 
0.0001652305708335806 
-0.0002137562877186065 
0.0003096765482432399 
0.0005145548500619872 
1.996055135077633e-05 
5.062089972842586e-05 
-0.0003615300125936373 
-4.893474699924809e-05 
-0.000103868046953421 
1.049167435459576e-05 
8.247930053928152e-06 
-5.020527601510069e-06 
-0.0002576551354615036 
4.723368920046763e-05 
0.0001375236423610668 
-8.219053293301953e-05 
2.496439830188896e-05 
6.421515527487954e-05 
-0.0001299855549735727 
7.43630304563886e-05 
-0.0003415557683783979 
4.860751277380264e-05 
-2.687698775848989e-05 
0.000278073182874516 
7.824548137811396e-05 
-0.0002634180167566008 
0.0002174436598658149 
-1.794267457698039e-05 
3.454500317142967e-05 
2.111023586384671e-05 
5.423580631095954e-05 
0.0003251976545259623 
0.0001853731563566926 
2.945883313813856e-05 
-0.0002240148179296549 
-9.91069701847687e-05 
-3.019755222244945e-05 
0.0001208641125109133 
-0.0001877624429966022 
9.023870973524512e-05 
-1.957186323199268e-05 
-8.238073730662926e-05 
-1.880919274779171e-05 
0.0001021543378367304 
-4.20024684341809e-05 
0.0002622675719025897 
1.928742642728918e-05 
-0.0005406476066954519 
7.876395705478051e-06 
1.119669473267131e-05 
-1.642838042410225e-06 
3.043877737879538e-06 
7.970398871934615e-05 
-3.69305490737286e-05 
-0.0001496778811874458 
0.0001222695884220925 
0.0003028658231479207 
6.15654355665731e-05 
-7.899669458631754e-05 
0.0001254703148436528 
-6.142736804034464e-05 
7.336744008626637e-05 
6.879144599860401e-05 
2.451296715658712e-05 
4.071531648197362e-05 
4.23806245563781e-06 
1.605821588692376e-05 
8.971641715657981e-05 
-5.130590896711989e-05 
-4.019793716886586e-05 
-0.000246795463575051 
3.612302857420425e-05 
-4.722001243420704e-06 
-2.610438304430829e-05 
0.0002764539125662803 
0.0003100340450258308 
-6.633377994536528e-05 
9.991190701209909e-06 
-8.388872694098897e-05 
-2.075477515912796e-05 
0.0001221315139946873 
-0.000490682302481557 
0.0002732069623540685 
-1.277564327684896e-05 
-0.0001687018079012341 
-0.0001941337992518888 
3.771327358694067e-05 
-6.924270596953446e-05 
3.394421810909142e-05 
0.0003202260780252976 
-0.0001584399634226455 
0.0001352396869387611 
-4.250676558450107e-05 
0.0001337464825582091 
-8.83855189459825e-05 
4.128212792859878e-05 
5.148864599128868e-05 
-0.0002646649334762261 
-0.0003842932731712043 
6.792021452233609e-05 
-0.0001464533206134278 
0.0003698721994819501 
1.89175324214638e-06 
0.0001177792351832433 
-0.0004858218905026826 
-0.0001972927397793204 
3.485701462229844e-05 
6.934899489066218e-05 
-7.436743229945096e-05 
-6.994544006939651e-05 
-1.868110390201883e-05 
-3.059576480625837e-05 
-1.984349824962715e-05 
-0.0001994199325599206 
3.874014261097448e-05 
-0.0001695008568900893 
8.523060283465421e-05 
0.0004791258450936948 
-6.186190014945153e-05 
0.0001656258054720112 
-6.995990396330834e-05 
0.0005188453054468861 
0.000283972341296976 
-4.691517778010919e-05 
2.678012198038255e-05 
-8.564919665061035e-05 
-3.937996589241229e-05 
-5.907825771757564e-06 
-0.0001171924543448089 
1.193745795245416e-05 
3.358394972473813e-05 
5.46241477762643e-05 
-9.343040494806102e-05 
-5.778848791014696e-05 
6.19542069994963e-05 
5.976587954962169e-05 
-0.0001085941002350947 
3.342362454606592e-05 
-0.0001651549720959066 
-0.0001443850241573705 
-3.729220972859345e-05 
1.710244878920861e-05 
-0.000116291026330895 
7.393349404164897e-05 
0.0002395334734888264 
0.0001866968575627238 
-3.29840348780247e-05 
9.950601060732697e-05 
0.000101255779463161 
-7.054175976656325e-05 
-0.0003023179478961552 
-5.928998978048146e-05 
-2.438504786729408e-05 
0.0002433153794710078 
9.689278843038889e-05 
1.125012557135516e-05 
-2.073677916620144e-05 
-4.935238831110741e-05 
-1.416807027130722e-05 
-0.000108796052224138 
-0.0001387536117155808 
0.0003071238373542571 
0.0001796814873621454 
-4.423778799785739e-07 
6.928402498317213e-05 
-0.0001911118064984554 
1.717835129574253e-05 
-1.074264438220407e-05 
-7.737438915607697e-05 
6.316729427898689e-05 
-0.0001688577681622944 
-0.0001198763432741945 
-0.0001724255669146086 
0.0006171672926614557 
6.52768197869452e-05 
0.0001081153422402089 
-0.0001246405170875094 
-8.780835138281485e-05 
-0.0002338610795500308 
-4.228734872997939e-05 
2.424012827398027e-05 
4.570594478918337e-05 
-3.015913491452176e-06 
-3.587671176600699e-05 
-5.306002933394883e-06 
-2.737720583277116e-05 
0.0001551927398714393 
-0.0001244621272363574 
0.000122399931383718 
6.385343813001118e-05 
0.0001373587174763098 
4.329012333928317e-05 
-1.611526469006965e-05 
0.0001023908835906367 
-1.200390431107404e-05 
-4.091209928940343e-05 
-8.034376632581915e-05 
-0.0001511408182674952 
6.600563282532444e-05 
-9.641270464454169e-06 
4.115347290432517e-05 
-0.0001849279860091007 
-5.551085237552123e-05 
6.330758562968726e-05 
-9.143755147871691e-05 
0.0006531066412732865 
-1.691079446706576e-05 
0.0001702288244470317 
-6.462951212068628e-05 
-7.955313766524552e-05 
-4.9219199026078e-05 
0.0004270947164938411 
2.980875472501717e-05 
-0.0002308850049267831 
-0.0001365476590502264 
-0.0002187999208509218 
0.0003603267068429369 
4.914075238272032e-05 
1.18747577428496e-05 
-3.344159326289092e-05 
-9.903028657144202e-05 
1.199373625213335e-05 
-5.304776744764028e-05 
1.676234206860625e-05 
7.217797665952239e-05 
2.85711068116703e-05 
-2.61340601479914e-06 
-0.0004370419499105033 
-3.67422270931767e-05 
9.963748473190393e-05 
0.0001407447016389887 
-0.0003047528725520474 
-3.558680382388686e-06 
-2.895775095774264e-06 
0.0001340673634246535 
-0.0004504088702685583 
1.002314931699453e-05 
-3.424863639389834e-05 
-5.224251885284446e-05 
3.230462196284143e-05 
0.0003555085264411805 
0.0002504846389609913 
-0.000104987265104543 
-0.0001184588702540076 
-3.161407575059723e-05 
0.0001573057794996849 
-4.571304917411819e-06 
0.0001472289659891623 
-8.123196518710055e-05 
5.482608669773992e-05 
-0.0002762603241506185 
0.0001085125319666246 
-5.383636874973251e-05 
-5.430952169993429e-05 
4.440821646050685e-05 
-5.624940065073685e-05 
-2.253716486771038e-05 
-0.0003122978225353973 
-0.000108491903737528 
0.0004375102271390888 
0.0001556882243109495 
-2.839353362630007e-05 
-3.270255224514061e-06 
-7.166234939146948e-06 
5.841153767940035e-05 
4.444868291704762e-05 
4.507318639500879e-06 
-9.105498176079052e-05 
0.0004043096664433287 
7.337655410937637e-05 
-2.404110809688651e-06 
-0.0002124866906054039 
1.062146371807518e-05 
1.461017184645121e-05 
0.0001154064726469142 
0.000192423722987393 
7.024564339583619e-05 
-0.0003251389726675877 
-8.014527592991835e-06 
0.0001379390260395938 
-7.595558144270532e-05 
-4.046264726657305e-06 
-0.0002983845789089579 
-6.317623272004008e-05 
3.36956119600056e-05 
-0.0001189786014105782 
-0.0001849475712006655 
1.145618241360577e-05 
-0.0001389863798005445 
0.0002410906255458323 
0.0001581378608563691 
1.305711613361417e-05 
2.179665354153889e-05 
2.712650652742049e-05 
-4.418310364919487e-05 
1.593461967617973e-05 
4.003860579238448e-05 
5.808754400429695e-05 
6.895798894511754e-05 
0.0001597038955366613 
-0.0002670422475892823 
7.101489602113832e-05 
9.978090362167602e-05 
-0.0002181421085158117 
0.0001374014427385199 
2.788041994670101e-05 
-0.0002154228795883992 
-0.000251035243468646 
4.20787382017341e-05 
5.847455936260301e-06 
-2.605329730749192e-06 
7.632136238054806e-05 
-7.131756854018231e-05 
-0.0001483481231591176 
7.302107275483824e-05 
-1.31152168656445e-08 
-0.0001259115269019535 
-0.0001476247234638412 
-0.0002289452670305559 
0.0001350151976155996 
1.084181526178131e-05 
2.309619285712977e-05 
0.00020055917465023 
-0.0001214579230716467 
4.668304620837192e-07 
0.0004287855947582838 
0.0002427411930542356 
-2.293642848049315e-05 
-0.0004137751338737407 
0.0001891742561986095 
1.46136658475465e-06 
7.733646373918595e-05 
0.0001136492813283937 
-6.201025335916511e-05 
2.455572421926686e-05 
0.0001738694353278727 
-6.324763534223185e-05 
0.0002580392354034213 
-4.075774368890124e-05 
8.087717411623799e-05 
0.0003038355895369195 
9.981518928337415e-05 
-0.000307159687454117 
8.035330759599038e-06 
8.719876444149561e-05 
-5.165981211163597e-05 
6.550693745071998e-05 
7.27551811222621e-05 
7.619048999161091e-06 
-0.0001236225279654279 
-4.116496728364913e-07 
9.15461457248329e-05 
-0.0003306495244634396 
-0.0002432091338236168 
0.0001013040290697242 
-6.244499201807318e-05 
0.0001828455480793147 
-0.0001258699101957811 
-2.5556532651794e-05 
-8.212324982706297e-06 
-2.131044779204576e-05 
-1.864578688590425e-05 
-5.546306962786661e-05 
4.742762729659767e-05 
0.0001753342115824106 
-0.0002338677663138337 
0.0001444910817056837 
-1.069092718358382e-05 
9.267330271971751e-06 
-4.504766719816611e-05 
0.0001640285883009372 
-0.0002885248159352111 
-0.0001657326490773311 
4.830294578555926e-05 
4.728238594335259e-05 
-0.0001420919474485558 
6.848305122395994e-05 
-1.384345629853794e-05 
0.0001350311466702703 
-8.611415016018655e-05 
0.0002283677927557407 
-0.000125605622778342 
-7.141354436889556e-05 
0.0001208433897520551 
8.427979089922657e-05 
3.603862794116245e-05 
6.704428061752575e-05 
-0.0002401401073820487 
-0.0001108851884456164 
0.0002129543070497123 
7.012828021644631e-05 
5.091014866519025e-05 
-2.624044325764911e-05 
3.146937430844259e-06 
3.608531010039293e-05 
2.838733816708468e-06 
7.797248346149377e-06 
0.0001924959832902105 
-0.0001776966280043059 
-0.0001282049470069184 
2.804158197993313e-05 
7.016390629874133e-05 
2.342844540178253e-05 
9.490333129868915e-05 
-0.0001017423850482166 
0.0001313270090756721 
0.0001121084502555097 
-3.999086779211378e-05 
4.477587552249394e-05 
-0.0002103858547968384 
1.824679497114034e-05 
-1.301815325233016e-05 
0.0002448541967870161 
-0.0001856596388392506 
-0.0001009077996961073 
0.0003656333206595407 
-0.0001254174385662645 
6.547150495524804e-05 
8.25153064147483e-05 
-0.0002816306074309987 
-3.429124123917658e-05 
-8.649520918264217e-05 
2.557920283525394e-05 
4.310591445440975e-05 
-0.0001258941419096952 
8.199708304642244e-05 
5.673265386129011e-05 
-5.848628481528822e-05 
0.0002471257985097499 
4.683222284325528e-05 
0.000160830026019176 
-4.628160117131719e-05 
-4.615437376130684e-05 
-6.316440101308382e-05 
-1.970716580373438e-05 
7.624799810119771e-05 
-3.44751792190176e-06 
4.057218812945205e-05 
1.027181472262251e-05 
-3.059869627126033e-05 
-0.0001348903246884317 
-0.0001854629109555281 
0.0001512002469787339 
-2.983423293662737e-05 
3.743861079621001e-05 
-5.639195442154595e-06 
0.0001330615604986395 
-0.0001918993072216726 
-0.0001380185022896933 
8.823845870695659e-05 
6.072708450457413e-07 
9.408508449112479e-05 
-0.0001036608652188225 
0.0001271357571612319 
-0.0001217680376769155 
3.336862416799999e-05 
-0.0003575938096055936 
7.017229000964972e-05 
-0.0001998427943483708 
-0.0003178413900320858 
3.231689795719162e-05 
2.52140884752567e-05 
-0.0001034750859094014 
7.870736497883008e-05 
7.765927239394504e-05 
2.584244571579104e-05 
0.0001686831859592453 
0.00015467150300994 
0.0002501916491708788 
-0.0002045521754824016 
0.0001514311773103027 
0.000287615410076249 
-0.0001203798181178544 
-3.538327426416182e-05 
7.982276119235696e-05 
-1.971632586599086e-05 
1.374164323216815e-05 
-0.0001475775037044302 
-9.600945018012063e-05 
-0.0001860219380233514 
0.0003049208786446473 
-0.0001874900420495259 
-0.000217669767428859 
1.32157952911529e-05 
0.0002848902396105801 
-0.0001130115865030256 
0.0003140350921357389 
5.427110613292683e-05 
-1.222949119079268e-05 
0.0001302573820196166 
6.270821915380639e-05 
-6.765493296902e-07 
0.000698912843523243 
-5.169342041162309e-06 
-7.075853399102298e-05 
-0.0004690731499159418 
-0.0001122766384854736 
-0.000746090634927456 
0.0001878978918415032 
-0.0002379109901340985 
-1.655850089026849e-05 
0.0001953978187201537 
-0.0002209037161086271 
-0.0003355732974422826 
2.354199009382557e-05 
1.260135402760836e-05 
2.861213151729327e-05 
0.0002471320359780786 
3.705310008703035e-06 
-1.074768977523183e-05 
7.354369782733429e-06 
-5.507611210854279e-06 
0.0001404709225871934 
0.0002516003521562715 
0.0001162564227565657 
7.773675275209386e-05 
0.0001948219062929271 
-2.870222973057163e-05 
-6.070565956531473e-05 
3.471417130884862e-05 
1.602717762638048e-05 
1.853896544406607e-05 
-9.95462600141607e-05 
8.897043342976706e-05 
-3.744167917546579e-06 
-1.487335327169075e-05 
0.0001827020235797512 
-5.180694374577157e-05 
0.0002068581297198767 
4.049438632374694e-05 
0.0001174089782636953 
5.307305601009814e-05 
-0.0002475887939837228 
-3.405591847850177e-06 
-0.0001821013725595631 
9.571011831406596e-05 
5.188979276949282e-05 
0.0001533583110671686 
5.65774853814663e-05 
7.378288085333623e-05 
0.0001450061282900799 
0.0002738947797003789 
-0.0001075892599426162 
7.32939032020945e-05 
-4.425975835673158e-06 
4.818494526220176e-06 
1.292380206057858e-05 
2.025351485394833e-05 
-8.486498305359636e-05 
-4.778339943751996e-05 
-0.0003691017617475077 
-0.000387912658277314 
4.990320754296029e-05 
-0.0001171461221717611 
-1.218692212220235e-05 
0.0003242676554181781 
0.0002007572807136222 
9.25215748663919e-06 
-0.0002748858401388899 
0.0003584994782748285 
6.917785400555646e-05 
-3.603023046303145e-05 
-8.707524779505809e-05 
-0.00049422643433263 
3.292299553300881e-05 
-1.992059621143873e-05 
-0.0002065903820467265 
0.0001769934348089745 
6.607080188389042e-05 
6.541871424251895e-05 
-1.664716195582571e-05 
6.158789809666308e-05 
1.652938738458382e-05 
3.175507292666738e-05 
-0.0002003369163641517 
-6.455549582768979e-05 
1.973800414524087e-05 
4.401053538098611e-05 
-8.657669053305927e-05 
0.0001191194388925323 
-5.067275343819492e-05 
-3.74028020066042e-05 
0.0001124917400928438 
2.659577835924272e-05 
1.853098855811218e-05 
0.0003180101926440739 
1.230935098469312e-05 
6.484604797556464e-06 
-5.110434468278115e-06 
6.010748168505148e-06 
0.000169478220901377 
3.573661368010493e-06 
1.507709059004886e-05 
-6.059540936626671e-05 
0.0002893693845992348 
-6.508550504080561e-05 
-9.739998168841015e-05 
-4.439754541808882e-05 
-7.689567977202297e-05 
3.054302116135544e-06 
6.214175638750775e-05 
-0.0001930131492728882 
0.0001904063860048574 
-0.0001269867251566449 
-4.616782461224712e-05 
5.109851833784885e-05 
2.4324537762665e-05 
0.0001057931093343803 
-0.000117297004400111 
6.875320330790508e-05 
0.0001908437287331562 
2.689582376674459e-06 
-0.0001067631312660782 
0.0001613522101428152 
-0.0007391819355322485 
6.043058866020873e-05 
0.0001173643835187547 
0.0001601279808474138 
9.759596155383095e-05 
-3.804822262851888e-05 
0.0003173721591611925 
-0.0001132465655828757 
0.0001993713570839084 
5.499993232117923e-05 
1.842560358868032e-06 
-7.52667034938983e-05 
2.291555523160444e-05 
5.913892191398633e-05 
4.008769883230136e-05 
0.0002838406610856808 
-0.0007334902403282961 
2.645420340907576e-05 
0.0002367559159684288 
4.403864794495021e-05 
-0.0001386093680578451 
-0.000317437693114473 
-3.738758440250106e-05 
9.925213773994502e-05 
0.0001059794481640381 
0.0001004932899184817 
0.0002108157128947051 
-8.380638277745955e-05 
-4.634960436359056e-05 
-0.0002782680075456672 
-2.62883403169088e-06 
-8.062182314271484e-05 
-0.0001001603651382659 
-5.228729355887452e-05 
-0.0001497348798555459 
0.0001052995499957671 
-3.410143557189663e-05 
6.784370729977857e-05 
-0.0003644088432824738 
7.216656933376052e-06 
0.0001734892248154059 
-0.0002382636477648022 
4.890288331694458e-05 
0.0001705482120047285 
-0.000328032923861417 
0.0002083481560375281 
-7.28560223592162e-06 
-1.017843265127716e-06 
-9.861904851757055e-05 
8.588390762211828e-05 
1.370698810447577e-05 
-8.287907145705838e-06 
-0.0001017718909019971 
2.098637417930038e-05 
1.016988083935941e-05 
-0.0001385144769291933 
2.097465466392451e-05 
0.0001060241484246551 
-4.385832234505714e-06 
7.988830874907481e-05 
-9.142929484020713e-05 
1.667764190747404e-05 
0.0001819269165036147 
0.0001176187604706233 
-8.019164948163333e-05 
0.0002913771438015289 
8.975490947589226e-05 
-9.482373162410881e-05 
-0.0001304151992237122 
0.0004010492081641352 
-1.885276627752847e-05 
1.51199314187448e-05 
-5.12832202486377e-05 
-1.396309245635321e-05 
-1.722214610168894e-05 
0.000269421438816662 
-0.0004723264690644378 
6.512400931984129e-05 
3.748135654133783e-05 
-0.0006383721997180079 
0.0001385915399667907 
-3.935898849577533e-05 
0.0001162481492671089 
0.0001470292999495384 
1.596279139405e-06 
-9.56039629569052e-05 
-1.123673604801738e-05 
4.863310090853861e-06 
-4.677015463230375e-05 
5.702719422879334e-05 
8.936949288604551e-05 
-3.017009211617078e-06 
6.59609335344058e-06 
0.0002196303049554307 
0.0001002234260525936 
0.0002032440585731742 
-0.0002559544144659657 
7.667928106949007e-06 
1.564316727241444e-05 
-1.119389125253779e-05 
4.402895909337867e-05 
-5.082092586345273e-05 
-5.111677540198713e-05 
-0.0004435202060344857 
-6.142829068572474e-05 
0.0002025761376461172 
0.0003210628248300237 
3.736306818749757e-05 
-8.89475162695713e-05 
-0.000202698347422509 
-3.818501867876078e-05 
-1.218843357063037e-05 
7.17395574843705e-05 
0.0001156379324210562 
3.904680481135731e-05 
0.0001390220421518245 
1.969050205226776e-05 
6.593361558493205e-05 
5.052885634465298e-05 
1.678149697849379e-05 
-8.134870640283919e-05 
-5.150086072374492e-05 
-4.139809287533056e-05 
-3.321272446791023e-05 
-0.000122474888169876 
2.071102123625776e-05 
-0.0001092025036884976 
4.119227589078452e-05 
0.0001959520067252944 
8.31647525788062e-05 
9.514540954373744e-05 
-0.0002979822591363963 
5.470302161866661e-05 
8.511856215249169e-05 
-0.0004382462793798431 
0.0001202647303973303 
-0.0001668575213528018 
0.0004601693996838968 
-3.017779106879679e-05 
4.660428082015539e-06 
-5.525775826492044e-06 
4.276054702717258e-06 
7.865865963119785e-05 
4.189709544092058e-05 
4.524549089307909e-05 
-2.051929101639279e-05 
-1.664969353850195e-05 
-8.247968608151288e-06 
-4.088103243244456e-05 
-8.353548469044551e-06 
0.0001864170789835315 
-1.393432856226957e-05 
-3.544148579577398e-05 
-5.818280050765746e-05 
0.0001016322954963127 
-0.000107589208491548 
-0.0001018622088117837 
0.0001572535873812311 
0.00018230906169896 
-0.0002510384733430285 
6.96397393729319e-05 
-5.063108956420279e-06 
0.0001281201926477492 
-6.134155902741736e-05 
-5.539758023477018e-05 
-9.495328243838358e-05 
-0.0001469309902019561 
1.706241820569725e-05 
6.958002665441005e-06 
-4.550860388798252e-05 
-1.065962413080711e-05 
0.0001229290299053934 
-6.116848133114337e-05 
-7.557245155232419e-05 
0.0002087852079235802 
1.010533468352221e-05 
-0.0008075796510751045 
0.0003844838510210259 
1.037387464172604e-05 
-8.173086808121495e-06 
0.0001131700508270242 
-0.0001277598843135001 
0.0001433028414503456 
8.65206657649912e-05 
-8.558635171165156e-05 
-7.270361034969769e-06 
0.0002335045041074982 
-0.0001022495434709967 
-9.017033210241848e-05 
-1.947879063016306e-05 
0.0003341638317468582 
-5.510011436557992e-05 
-0.0001598273204854072 
0.0002960860429935205 
-5.637576444649591e-05 
0.0001621563861912645 
-4.776981574091791e-05 
-2.5738870921816e-07 
-0.0004265568225341185 
0.0001116583224004343 
0.000235318177567001 
-0.0004344395205090915 
1.086649866836969e-05 
0.0001369237944924308 
-1.760428762792905e-05 
2.885899220271869e-05 
-0.0001060138412057755 
3.824461751371776e-05 
-0.000249071011664623 
0.0001577230467800875 
0.0001521817897743889 
0.0001388857183436538 
1.364793697149133e-05 
-3.468045819590804e-05 
-6.712202391961981e-05 
4.315442236046106e-05 
8.877682076589919e-05 
-4.568846516261464e-05 
0.0001699363040426157 
2.039055369904502e-05 
-3.743690827987313e-05 
0.0001084456337707625 
3.766140085538402e-05 
-2.237885427805533e-05 
-2.583847169624311e-05 
-2.758942647559789e-06 
1.130356809976857e-05 
0.0002167728932677131 
-0.0003094470123989724 
2.994336628166657e-05 
7.283957794380714e-05 
4.67822468845155e-05 
-7.475122016556596e-05 
-1.354243855223826e-05 
0.00020375879693964 
8.415022304216147e-05 
0.0001156892520747641 
0.000378489455061898 
1.731226755742247e-05 
-8.318170862130251e-05 
2.615237838120829e-05 
-0.0001277820220552182 
0.0001043976832342998 
-0.000210713552337892 
8.291961792534618e-05 
-0.0002458898694587895 
0.0001156426997933503 
-0.0004747275642898393 
-0.000427981453431207 
0.0003180300010294814 
1.502620415818383e-05 
-5.668708391684585e-05 
-2.87582252273814e-05 
-6.987805124301208e-06 
0.0001722640369362716 
0.0002213304474427986 
-8.125109631865283e-05 
-1.026582437441357e-05 
-0.0001862206554456712 
0.0001009266011884782 
-6.947842126403495e-06 
-2.415667702247346e-05 
8.983535183481428e-05 
-0.0002891672993167622 
1.314074877871847e-05 
0.0001633342509853033 
-7.284604160351021e-05 
0.0001056418727171204 
-4.137206456616801e-05 
8.589417492758281e-05 
0.0001050311562039701 
0.0002429562694927897 
3.912135244606033e-05 
-5.548059407603066e-05 
8.873857281493015e-05 
-9.026181543776914e-05 
0.0001581127382068815 
-0.0001156652773266416 
0.0002944820146872083 
-0.0001653592337912122 
5.584718222148062e-05 
-6.884522962198674e-05 
-0.0001296580816852797 
1.503126823765421e-05 
-7.538280121166936e-05 
-0.0003218134483289682 
1.071404377314181e-05 
5.137805357981925e-05 
-3.067880450934301e-05 
0.0001345080537556131 
2.061866371860758e-05 
0.0001061258244082892 
-1.509877926215896e-05 
0.0003018853338526805 
-1.810738101969845e-05 
1.005186222512348e-05 
2.269755910224581e-06 
-1.30039965123147e-05 
3.822621304397363e-05 
-4.354989556339363e-05 
-8.793494966475611e-05 
7.570602285988307e-06 
0.0001028563438081734 
0.0003697067484898086 
-0.0001005904038344081 
-0.0001270653160739721 
-0.0005036282264585866 
-2.372739658850912e-05 
-0.000102344830306273 
-0.0002470634897419584 
1.251056293811349e-05 
7.690040524733994e-05 
5.743846128230224e-06 
-8.224450608778077e-05 
5.776489398771506e-05 
4.329738445343475e-05 
4.173692375492452e-05 
-3.453832548292941e-05 
-0.0003054474531372472 
0.0005124513825006601 
3.556095377857685e-05 
3.990508898380299e-05 
1.95940786185988e-05 
-1.740808423862245e-05 
0.000126417259728376 
-0.0001331279722795275 
2.832810805083968e-06 
0.0001374915977008163 
6.856652018349407e-06 
0.0001000869099956274 
7.64365353008006e-06 
8.814575163736193e-05 
5.429311412902646e-05 
4.402690831276518e-05 
8.987231869605071e-05 
7.338336002373099e-06 
-1.759597723986901e-05 
-2.817201212870073e-05 
0.0002361742278113895 
-7.945045113224005e-05 
-9.570634623884946e-05 
-8.260776105155812e-05 
0.0001312382641715115 
9.690761643007316e-05 
6.520176756997647e-05 
-3.123738611332224e-05 
7.823246184515167e-05 
-2.88889893765112e-06 
9.940004765131618e-05 
-0.0001693062494457167 
-4.202912016001443e-05 
2.445783291419536e-05 
-0.0004095232909374481 
-0.0002263202198829244 
-1.291707172994576e-05 
0.0001147820817934752 
-0.0003442416874557324 
4.818220007460245e-06 
7.987639440497238e-05 
3.196217483745105e-05 
7.51503804840796e-05 
0.0003070995185246175 
0.0001553368699481665 
4.830485768312753e-06 
3.933234551788749e-06 
3.669269023446702e-05 
7.264857001938877e-05 
0.0002083128562158783 
0.0001265419719792456 
-7.232529190035538e-05 
-8.404564153527094e-05 
-0.0002275465465698268 
-0.0002256473894533876 
-0.000488390114076474 
4.455747409523615e-05 
-4.673316270919641e-05 
5.703395572476871e-05 
-8.789785509691551e-05 
-4.672770265150702e-05 
9.675060853921955e-06 
-4.146991009436764e-05 
0.0001528765851345732 
8.182147610971818e-05 
0.0001637726641748989 
-2.816158907763754e-06 
2.987370710000336e-05 
0.0002625042815249532 
-0.0001085475399668142 
0.0001273583410773832 
0.0001305013090204532 
-0.000176896168962983 
-0.0001226660595671966 
-0.0001511852123575034 
-7.502690804004405e-06 
-1.051168874231055e-05 
-7.542125501236201e-05 
8.115401491052553e-05 
-6.901218898208848e-05 
-9.401287379618497e-05 
1.697432655762153e-05 
-1.825418447074114e-05 
2.728069828089229e-05 
-0.0001126959655774191 
-6.936489854215239e-05 
0.0001006338269209754 
0.0001782529356164853 
6.944158117640192e-06 
-2.260346682030073e-06 
-3.247435736678787e-05 
1.525159959994195e-05 
5.148991264918852e-05 
2.10716403439839e-05 
7.848134256045465e-08 
-6.066044658453861e-05 
4.785595114990443e-06 
7.703858723604678e-05 
8.225103151126779e-05 
8.732977371886183e-06 
0.0001955518985157581 
0.0002101435063028152 
-3.325925841469672e-05 
0.0001410419873957554 
-1.779232808215559e-05 
-0.0005995284978513544 
-0.0002777107148307585 
-3.184231732860621e-05 
2.667789698332871e-05 
0.0001553970359963885 
-0.0002051499695910524 
2.793186801804361e-05 
0.0001479706610507405 
-1.343788627442392e-05 
1.622907253788092e-05 
8.058438542495909e-05 
0.0001803334440148352 
7.68821911522211e-05 
0.0001809453258865564 
6.233244589520859e-05 
6.770180526052503e-05 
-3.544223838828987e-05 
-2.979819730063181e-06 
-7.040460508625499e-05 
-4.276323671224136e-05 
3.71224039794867e-05 
-3.016620544311374e-05 
0.0001217506227505274 
-0.0001444281661476572 
0.0001010004017065637 
-5.789281138378163e-05 
-0.0001859610578254693 
4.536302552169239e-05 
5.663940158574239e-05 
-1.406332933676716e-06 
-6.793591339252916e-06 
2.927540453597114e-05 
6.449766467940462e-05 
0.0001171188256415402 
-4.216963976680407e-05 
-0.0001407312842658383 
0.0001075911280695548 
0.0001201289810873986 
6.767471112645136e-05 
-0.0001023075798185361 
9.490729104164246e-05 
0.0001648887902923572 
-0.0001374978404305465 
7.412088181463469e-05 
-0.0001850824529087309 
-2.38597381653291e-05 
-0.0001492211217521238 
-0.0003937326480361847 
1.511282608495648e-05 
0.000104521817389436 
-5.820128159032061e-05 
3.140945908592076e-05 
1.322142432599363e-06 
-1.299187728911657e-05 
-1.766206155116963e-05 
5.811033718685369e-07 
3.163760967688436e-05 
9.897229695045312e-05 
0.0001267319292407994 
0.0001042028701440675 
-1.564297469416859e-05 
0.0001514355475890619 
-8.212421209579671e-05 
0.000240809776236141 
0.0002040294129675419 
-2.233634432446633e-05 
-2.641411204549496e-05 
0.0001137961109465802 
4.402915980152194e-05 
-0.000120614932377825 
3.975393493448667e-05 
-9.183084418850733e-05 
3.558225337588517e-05 
-0.000107093155992312 
-0.0001185666848823183 
4.344193821639366e-06 
2.641751810471319e-05 
3.8314886741316e-05 
2.58305200342081e-05 
1.578907104934942e-05 
8.201968892193067e-05 
-0.0001462690643693821 
-0.0001437433700830926 
3.741564158082694e-05 
-9.981432603942429e-05 
-3.504663289185027e-06 
-8.992388936463825e-05 
6.129915131430508e-06 
1.308004186033135e-05 
6.958449385261237e-06 
-4.122257909800562e-05 
1.880611764135299e-05 
-9.400301667940638e-05 
0.0001463090246446616 
-2.050920890098983e-05 
-0.000159062451916428 
-0.0001901328910819426 
2.605186556786689e-05 
2.116354354214804e-06 
9.719576377267117e-05 
0.0001293552038661511 
6.060530054886742e-05 
-4.338115067270859e-05 
0.0002621323886390346 
0.0003083492347259209 
-7.400052936019675e-05 
2.403628044594571e-05 
-2.265435938088937e-05 
2.928805464998351e-05 
3.70783442126599e-05 
-8.22229202341844e-05 
5.439454627327979e-05 
-2.87385229482849e-06 
-0.0006658033235212945 
3.590371272126404e-05 
8.414924273719471e-06 
-5.355127059595018e-06 
-6.216017855879804e-05 
3.195155733583003e-05 
3.163407470426512e-05 
-3.35922169586676e-05 
0.0001674035263150927 
6.556279170882855e-05 
-1.094151507928126e-05 
-7.70875904460456e-05 
-7.329617346565268e-06 
-2.395242721580854e-05 
-0.0001126758064382906 
0.0002018271448358755 
-0.0002527495767255147 
0.0002668974964610255 
7.972276479395457e-05 
-2.035604871635806e-05 
2.128078135316388e-05 
1.86473279543246e-06 
-8.773047824767244e-06 
-8.362245181468429e-06 
5.457055390498845e-05 
1.660137568741433e-05 
8.453062593461911e-05 
8.426455005762098e-05 
0.0001204497680131704 
0.000286688144618126 
3.768946479117977e-06 
1.916700452821698e-05 
3.849905000501093e-05 
-3.201961105442661e-05 
-0.0001258880629695267 
6.926605507731715e-05 
-6.394668692811186e-05 
-0.0004832964675340641 
4.370825646989286e-05 
-3.488291477843881e-05 
-4.651266244422974e-05 
-3.495130550369414e-06 
4.082458070522939e-05 
-3.82834345676352e-05 
7.505467642643455e-05 
0.0001128490111446948 
-9.797993962850229e-05 
-0.0005115760580232997 
2.242571589671526e-05 
1.598676796571397e-05 
1.495586745738355e-05 
7.580630576551291e-05 
-7.741606943539831e-06 
4.300034676835866e-06 
-0.0001145544464497948 
3.519416591417133e-05 
-2.802330423471101e-05 
0.0001920383629721356 
3.585571665329482e-05 
-8.248255750853231e-05 
-0.0003275555285912733 
0.0001642192960081611 
2.087191665094879e-05 
2.084043730274971e-05 
-7.349660152210829e-05 
5.545943641773242e-05 
0.000277383108378954 
-1.535585751751087e-05 
0.0005310789180151369 
-0.0003100138327337473 
0.000109065860929327 
5.430307428400809e-05 
-9.374766593473538e-05 
-7.686458012807854e-05 
-1.764344415893823e-05 
1.090547109579879e-05 
6.780940381189156e-05 
0.0001487592387102442 
-0.0002152029484940608 
7.463629235044616e-05 
-6.642647811651284e-05 
-0.0001317346442728131 
0.0003015538737801916 
4.505110990709582e-05 
7.994407264323574e-05 
0.0002092285663697605 
2.002779781219439e-05 
4.766774197011241e-05 
-0.0001295539622628682 
-0.00062314287973162 
-0.0001448034599123639 
3.976724450036011e-05 
0.000209571563930315 
3.903918279185003e-05 
8.885597316356657e-05 
-0.0002461282436817711 
-5.749650410450988e-05 
-4.134005808372019e-05 
4.877290637983177e-05 
0.0001209448841004604 
8.821519154798398e-05 
-4.151054427985177e-05 
0.0001517085911516163 
5.172536728542182e-07 
1.428424492417828e-06 
1.416222698481299e-06 
5.423684384484144e-05 
3.031681749008358e-07 
2.320860482482622e-06 
0.0001240628147022617 
0.0001249069324417597 
3.399131906991436e-05 
-8.365374329330094e-05 
8.333950251027506e-06 
0.0001149055144737516 
-0.0002312228795736096 
5.138984070201414e-05 
-2.16472178669217e-05 
-0.0001265571080888591 
-1.112400236466608e-06 
0.0001578707606709032 
1.33984971772452e-05 
-2.844181836003023e-05 
0.0001806573188844564 
5.045055890142555e-05 
3.669024794875392e-05 
-2.554459982556841e-05 
1.268517774833963e-05 
0.000204478690092304 
-0.0001395604309465562 
9.772925145154707e-05 
7.544132277444173e-05 
-4.372288456945247e-05 
0.0002849517313750662 
-0.000353296327737167 
-5.430704165389577e-05 
-0.0005520174583298191 
0.0001131169490958922 
0.0001489089749103435 
7.121618541365774e-05 
-6.552962513531264e-05 
-2.339913876043077e-06 
2.581022208274181e-06 
0.0002345080370158979 
6.482211370595764e-05 
-8.125545044886005e-05 
0.0002231031086422534 
-1.743799083534008e-05 
-1.828905210550449e-05 
-4.915012365295367e-05 
-6.017097737539069e-06 
-3.408714828257547e-05 
3.687924069017572e-05 
3.967205595545176e-05 
-6.191125895513909e-05 
-6.955559453069088e-05 
-0.0001334264764902734 
-3.988111763538037e-05 
-6.863555407203986e-05 
6.087617689254373e-05 
7.999389922908108e-05 
-4.388034062312513e-05 
-6.394302886719365e-05 
-0.0005894505358150611 
8.973023442909259e-05 
0.0001118958618466982 
0.0001484555205661021 
6.737841881585049e-05 
-1.643937819749846e-05 
6.204667672082796e-05 
0.0001112298935385645 
-2.819666483412944e-05 
0.0001906012760422266 
6.546718371415383e-06 
0.0003320830493296586 
2.736177038531657e-05 
4.595271737495501e-05 
-4.804069059567251e-05 
-0.0008099855150929913 
-0.0001622343503171806 
0.0001661519412183593 
0.0002522245592888942 
-0.0003401367444321215 
-6.314880239561836e-05 
-0.0001079933095070994 
1.276353529101044e-05 
2.962688221406277e-06 
0.0001696002486155229 
0.000244704436029742 
-1.606257255113961e-05 
-3.840942363445318e-05 
4.379100886652823e-05 
3.83014512763679e-05 
4.857138554173847e-05 
-9.370022350525258e-06 
-1.115567800345975e-05 
0.0001137781409611337 
1.056496726789632e-06 
-1.838496381985341e-05 
2.267496144890726e-05 
-9.234128100452732e-05 
-4.058420208089651e-06 
-0.0002630653334538458 
9.500764452208851e-05 
7.836582999667554e-05 
2.180234377818303e-05 
-0.0002101894286343194 
0.0001175489456535876 
-9.390074922038859e-06 
7.909217941134934e-05 
-1.151833585998878e-05 
-0.0001289880844629759 
-0.0003459826140568398 
-1.331072594372997e-05 
-1.526867314800505e-05 
9.391270009502738e-06 
0.0001260262854099418 
6.317752516745409e-05 
4.621733497293064e-05 
0.0001033341070184167 
-3.358121020466792e-05 
0.0001258619302137605 
5.519386688159981e-05 
-1.13453688630672e-05 
2.054944806119432e-05 
-5.432780365255269e-05 
-2.838950940848955e-05 
0.0002746993440643291 
-7.76699991598545e-06 
1.360478225483915e-05 
-1.442103378514708e-05 
-2.468017203493235e-07 
6.108428003326479e-05 
-6.232727963544009e-05 
-0.0001328235234130347 
-0.0001634684816652898 
5.931906107071129e-05 
2.370424985771537e-05 
-0.0007314026526942576 
-0.0003348175180240948 
0.0002385304127320704 
0.0003442197018276374 
-0.0002535338987222758 
0.0001589326151290591 
0.0002432436904277954 
0.0001271506255272817 
3.597922682410846e-05 
1.373077618599072e-05 
-5.274466416207022e-05 
-3.275125576211856e-05 
7.144945320618166e-05 
-4.653541092126564e-06 
1.673726670771543e-06 
1.339193230283169e-05 
7.549010863993618e-05 
0.0001020981216048387 
3.750605474692147e-05 
0.000155731101070764 
-4.091813120915279e-05 
0.0001342883366769945 
-0.0001831284435021183 
3.18383553665837e-05 
3.330970143057698e-05 
0.0002073531120712896 
-0.0002269114298092177 
0.0001290510164673714 
-1.61030468256833e-05 
-0.0001549953676533827 
3.748637398194632e-05 
0.000161311963196318 
-4.049221840288445e-05 
1.429252446020864e-05 
-2.567110620976993e-06 
7.6198713313597e-05 
6.960523345678443e-05 
-0.0001311660690265092 
-0.0002518326728151777 
-5.649704576930728e-05 
5.998710028214576e-06 
0.0001040697099991739 
0.0001094867528175531 
0.0001451847906466194 
-2.576747955057923e-05 
-0.0002846076269907165 
-0.0002837641146025015 
-0.0001332687481673348 
-3.35083576152635e-05 
1.952895345671898e-06 
0.0001496887730165219 
0.0001633865382366762 
8.682164449736506e-05 
0.0004415625291547789 
-3.415566981790159e-05 
-3.845344125299827e-05 
3.320543588163739e-05 
4.416523561284507e-05 
-4.992657402170607e-05 
-2.64744407313055e-05 
0.0001824301808572814 
4.581017163068028e-05 
5.853077023603542e-05 
-5.050738531314825e-05 
-8.003516074957745e-06 
4.731120845542352e-05 
0.0001378762188254959 
-0.0001262305164023414 
-0.000114262150833898 
-0.0001280133913694831 
8.472459426673553e-07 
-1.469914312433825e-05 
4.324933013551442e-06 
2.319732438052598e-05 
-0.0001125678060729677 
3.232414281042435e-05 
-0.0003310555362197132 
-6.57442739035769e-05 
-0.000685727419113391 
0.0001061173555474665 
4.506195492727478e-07 
0.0001814109203091801 
-0.0001180440579792843 
-9.211655238650332e-05 
5.432384814841368e-05 
0.0002654387018900156 
0.0003089481052099278 
3.088978237810722e-05 
0.0003286114679797811 
-4.065097926545725e-05 
0.0001394652228863056 
2.015234779017852e-05 
1.673726670771543e-06 
3.828727667796222e-05 
-7.861716552447672e-05 
8.597320711136931e-05 
-1.759644078735211e-05 
-5.850538536896824e-06 
2.847863028434477e-05 
-4.543060524830754e-05 
3.497590676453072e-05 
3.324776804302429e-06 
-5.922805193410727e-06 
3.61390025553466e-05 
3.390854814617189e-05 
-4.868225699281875e-06 
0.0001009409414518283 
2.298760745079292e-05 
0.0001120624051145571 
7.321322125345373e-05 
-0.0001830543420250595 
-1.887738925131251e-06 
2.849804812245543e-06 
7.764957055632689e-06 
1.522962016233759e-05 
-6.389052059363187e-05 
-0.00018742184152997 
0.0001196245795641443 
-0.0001561437082680998 
0.0003151142586455839 
9.898919460949717e-05 
0.0001833512532905378 
-0.0007971917288322811 
0.0003138245825201702 
-9.553746955701024e-06 
4.122168751515953e-05 
0.0001033793154288785 
4.442325955904021e-05 
-9.670753042509565e-06 
-6.927140173495222e-06 
7.860088866846937e-06 
-1.552851075201254e-05 
-0.0002202787094945188 
0.0003169085655609923 
0.0002423431578312143 
4.812799906582341e-05 
-1.038108780006914e-05 
0.0001338119139283611 
2.3914042466258e-06 
-0.0003209624311587829 
-0.0006401573447143609 
0.0002854273793115931 
0.0002043831983691678 
-0.0004097359882459984 
0.0002882449546823852 
9.255875638776123e-05 
-0.0001483489518076682 
8.801760593806266e-05 
-7.8647838604513e-05 
-7.965684011035548e-05 
2.620520390854553e-05 
0.0001754422531682331 
-7.067870738580314e-05 
-1.787642268582315e-05 
1.942868375983877e-05 
-9.331148152414965e-07 
0.0001694672546658203 
9.733788570001598e-06 
7.036903163757419e-06 
-2.184290514867928e-05 
-5.641527656896008e-06 
-0.0003101199067187197 
-0.0004346858685822466 
0.0002347563888701772 
-0.000112325141072354 
-0.0001051520046075547 
0.0001926980399990583 
-5.238561342024344e-05 
-3.451368884355863e-05 
0.0001497737543043845 
-0.0001752227980645727 
-2.22201229087755e-05 
-2.900956819009302e-05 
-0.0001328100339880423 
-0.0001659623797728582 
0.0002877262681467093 
1.658090009095889e-05 
4.513165671568859e-05 
0.0001578622076997282 
0.0001712949751505681 
3.734558861139493e-05 
-9.606475296146417e-05 
9.15875712753449e-06 
1.367769974400745e-05 
-9.682517207895198e-06 
-1.722786420625311e-05 
-1.963466178871671e-05 
0.0003230950120608121 
0.0002618715416748727 
5.468468314824191e-05 
5.491932599426604e-05 
-0.0008118389060807147 
4.966999652591973e-05 
6.999784169925982e-05 
4.878906162071672e-05 
0.0001947386605035954 
1.256208943519031e-05 
1.37431181411162e-05 
7.875486054279423e-05 
-2.680026559235122e-05 
-1.654271283220261e-06 
2.670744231860091e-06 
-0.0001207755604401766 
0.0001616449195459083 
-2.158636513441004e-05 
4.939847611662961e-05 
1.352580060302408e-05 
0.000125384343168926 
-0.0001403889505791611 
1.771128798417193e-05 
-0.0001054620303185875 
-0.0001016510874374462 
-1.940057446461694e-05 
-2.19025259291404e-05 
3.779492694356266e-06 
-2.679585664206797e-05 
0.0001155636644573251 
-9.314772589339738e-08 
0.0001483602343598987 
1.417238961390485e-06 
5.176468629073115e-05 
-0.0001293474879866065 
-1.673697491335953e-05 
0.0002812699747105941 
-0.0001775197499916003 
-0.0001930158142634722 
0.0001340171901499378 
0.0001482945090415704 
5.929077317591646e-05 
3.731451642493935e-05 
-5.782754314633606e-05 
-0.0003090505952592359 
7.422698391350635e-05 
-0.0002273844149837076 
-3.639526427344476e-06 
0.0002162642145462467 
0.0001428718827010512 
-1.806081827175915e-05 
1.821557216849636e-05 
1.013832152849017e-05 
-2.786803789623237e-05 
-8.033174274216119e-05 
0.0002054957284249245 
-0.0002011934578922021 
-2.024387411054194e-05 
6.77668421037147e-06 
5.195799735677244e-05 
5.393232510097605e-06 
9.186540712712622e-05 
4.835421267831293e-06 
5.194353995397222e-05 
-4.887875783634031e-05 
-0.0001117655008967996 
8.622406850740231e-05 
7.823330594378742e-05 
2.85067379863827e-05 
0.0002363598690767518 
0.0001910932944601012 
9.236817458554875e-06 
8.925472202188939e-05 
-0.0002095587740727391 
1.678547528036964e-05 
-0.0004525973087552233 
0.0002215747030120923 
-0.0003244398896256491 
-0.0001013085501863627 
-8.422832987936034e-05 
-0.0001153865842877187 
3.039008516631814e-05 
1.714444472876906e-06 
2.913277128959545e-05 
7.372797763714685e-05 
5.03702824557353e-05 
1.998012724726568e-05 
-6.253646416066882e-05 
6.481563192910225e-05 
2.100842429436247e-05 
7.630400870428088e-07 
2.956463649935574e-05 
-1.100009390222946e-05 
0.0001503377728812912 
9.600799498605402e-05 
2.066468154513151e-05 
7.912471309819649e-06 
0.0001278361138814359 
-1.015365157298273e-05 
0.00019956184561182 
3.958886867412365e-05 
-0.0001433723627157675 
-5.016018037778872e-05 
3.769513415442448e-05 
7.7155740566345e-05 
-3.274559318163494e-05 
5.572479019791642e-05 
-0.0001756323638516394 
7.235880352080266e-05 
-0.0001962786302270158 
-0.000291810301767877 
8.342817302812723e-05 
-0.0001136683454456103 
1.927548627369041e-05 
3.593154586270205e-06 
-6.35300970929911e-05 
-2.112269222830112e-05 
6.586925019397038e-05 
8.862621961158262e-07 
1.502592009820099e-05 
7.43042936044387e-06 
2.028599188232832e-05 
-6.483078683783176e-07 
-3.217505204688199e-05 
-1.881655210118772e-05 
0.0001166604301945512 
0.0001922688071880298 
5.448668404836734e-05 
4.182008460276483e-05 
5.693812526814231e-05 
-0.0004270638435841915 
-3.872854868210061e-05 
0.0001106193532481943 
6.012776581268336e-05 
6.210230538929412e-05 
-0.0001653602413831989 
-0.0003831709547536542 
-4.168950612936062e-05 
-0.0003692666698426289 
0.0004075461022237353 
0.0001167354013853989 
0.0002454573712776651 
0.0001315983356061953 
-3.499764191917908e-05 
4.294096759746974e-05 
-2.629136752919831e-05 
-0.0001429676659550213 
-1.201159468973967e-06 
4.362934075202205e-05 
9.047999394669703e-05 
2.691747138005754e-05 
-1.490958587654725e-05 
-1.194342851028338e-05 
-6.560737073862232e-06 
3.625999361164329e-05 
6.646767856104219e-06 
1.630331024472758e-05 
3.551645153867153e-05 
0.0002972210441086613 
-8.883955925403773e-05 
4.678864849655156e-05 
1.430151754915297e-05 
4.116527944697189e-05 
-1.548186456107332e-05 
-1.077492655762987e-05 
0.0001428664068947913 
-0.0001302796507641141 
0.0001809035369239138 
-2.082465710576182e-05 
-9.025475687613923e-05 
-7.730995121229246e-05 
5.880230131561049e-05 
-9.362597191620922e-06 
5.769549960687281e-06 
0.0001808936425476745 
0.0002046188454276647 
-7.971038460441384e-05 
0.000269653702723968 
-0.0002771123810176338 
-0.000159062856044321 
-0.0001448726374712344 
5.448174042569369e-05 
1.380081059066294e-05 
8.375866629047662e-05 
0.0001806048089895819 
1.210092316738491e-05 
-0.0001236403791304448 
5.111759339142877e-05 
8.749414376311315e-05 
-0.0002064653445694873 
-0.0002645191481375666 
0.0001913834561493321 
-8.320755053269511e-05 
-3.782970156222636e-06 
-3.675858980047811e-06 
4.301131320541267e-05 
0.0001651943807124944 
-0.0001798029963512923 
1.592515512685218e-05 
-1.688253499615646e-05 
1.754796275726463e-05 
-5.535240996708604e-05 
0.0003149891913515364 
-0.0001229221402235786 
0.0002027016320880022 
-7.434365442415707e-05 
-0.0003176446036042314 
0.0001312849321488534 
1.745910120604401e-05 
0.0001304109199335254 
-0.0002011715103491362 
-0.0003798439552058852 
-4.773927610425529e-05 
1.318712714330125e-05 
-0.0001023864322126472 
0.0001917041813768088 
0.0002660477185912518 
9.284749895058186e-06 
1.347119395954304e-05 
0.0001780158725868895 
3.621923470761237e-05 
-0.0001163248298981096 
-7.656342855158618e-05 
7.850293317950801e-05 
-4.568315916389225e-05 
-1.044582579060025e-05 
0.0002287561661385232 
-0.000309434302229536 
0.0006016115715256704 
-8.195953621893199e-05 
1.227319860568561e-05 
0.000343684654637837 
9.850449060913846e-06 
-8.2245654929537e-06 
-0.0004425571204685144 
-4.122025963056563e-06 
8.699259237401686e-05 
4.589800809835651e-05 
0.0002989475171040629 
-0.0001076470602994194 
0.0001610001097342711 
6.661197742648593e-05 
-0.000727184895448214 
-6.231233560603894e-05 
-0.0002212648611186458 
0.0001747271669865671 
-0.0001297887655204384 
7.639107228555281e-05 
8.635462474381872e-05 
5.620514994560049e-05 
-5.131085556075347e-08 
-1.483062835188218e-05 
0.0001074769949969886 
-0.0002569085272767708 
8.823051918967899e-05 
-1.089425147721575e-05 
2.34520790454295e-05 
2.286717340836033e-05 
0.0001228476851704009 
-0.0001221995819720143 
0.0001639054848712028 
-0.000361984746785123 
0.0002317309723252055 
-5.272244099846604e-06 
-5.42176286909444e-06 
1.478791990686386e-05 
-6.208305879598716e-05 
2.352214526148968e-05 
7.451995225944436e-05 
-0.0001050591516220655 
2.728055452509534e-05 
0.0001268838341353349 
0.0001638751585387764 
6.739426913208406e-06 
-4.640141744576551e-05 
-0.0002789196978439028 
-7.654272599527217e-05 
1.353054748632242e-05 
5.277254910184577e-06 
1.052532512761178e-05 
-2.193804466762213e-05 
6.687611660454458e-05 
-7.88457639563776e-05 
9.082646930572318e-05 
4.345883242163957e-05 
0.0001554364670113414 
-0.0004515212524851103 
0.0003221880693548857 
9.94789878222652e-06 
-0.0003040934886874721 
-0.0001310380709759339 
0.0001299058933859515 
-0.0001751940497434819 
-2.109758624866154e-05 
-0.000108316559352137 
-0.0002494389324056829 
6.757911340168196e-05 
3.286003567594096e-06 
-0.0002004455211197907 
0.0004084479627740955 
-4.881333878910489e-05 
0.0002289532239974062 
4.427783288590912e-05 
0.0001521952839102411 
4.52004442370205e-05 
-2.658053638891087e-05 
-0.0002800049428551061 
-1.91992227385688e-05 
-8.735582430893055e-05 
-3.041808391654014e-05 
5.185608425115126e-05 
7.455062899324929e-05 
1.306591336228134e-05 
0.0001273300083626462 
0.0002791890390991909 
-0.0002536694091590131 
0.0002212432828791909 
-0.000298770130847998 
0.0002809638314554654 
9.246198616067089e-05 
9.476700459526389e-05 
0.000224220713736325 
9.643833104169669e-05 
-6.487329259357549e-05 
-0.0002036341288614783 
0.000247778860950671 
0.0002561345770872094 
-1.281692912591708e-05 
2.060946861078736e-05 
8.634878589326608e-05 
-6.353877971157428e-05 
-7.711168985548581e-05 
-0.0001869667457554804 
-2.640922724096608e-05 
-1.72178111077587e-05 
-0.000146220812725769 
0.0001175812058259791 
-4.857615435470108e-05 
-4.903313273732533e-05 
0.0001799273355880701 
0.0003216355314431447 
1.474388556488346e-05 
4.096068985269445e-05 
-2.727931191640834e-05 
9.516220955432851e-06 
-0.0007714418733547688 
-4.320834216670038e-05 
-1.988392791625329e-05 
6.247873077433713e-05 
-0.000101344334367617 
3.427404012134602e-05 
8.211653834014344e-05 
0.0001456294177874686 
-1.097213401607279e-06 
-9.11613456053425e-05 
-0.0001143705458063777 
-6.992618053402062e-05 
-5.420222580360183e-06 
-8.690688171770398e-06 
2.574398542610178e-05 
0.0001630756320557554 
-9.012862811224986e-05 
0.00022417416493088 
-6.557675021933788e-05 
-2.406161095489847e-05 
1.59897456516632e-05 
-0.0001374093952247859 
7.685100026810032e-07 
-4.208643140910489e-05 
0.0001637597920901967 
9.389459982807524e-05 
-9.682776451456877e-05 
4.701055811031171e-05 
-0.0002087128188247952 
-7.000576277733928e-05 
9.453362936288667e-05 
5.880215618782634e-07 
6.801483696499941e-06 
2.284682302854805e-05 
0.0002751686051591966 
1.759216553141643e-07 
-0.000115157136539092 
-9.092427658662173e-05 
0.000160955438605021 
1.690769987893638e-05 
8.870463594405401e-05 
0.0001622143438279388 
0.0002811024413808598 
0.0001638588438545935 
-6.937215174232091e-05 
0.0001643392307354671 
-8.283768703677431e-05 
0.000141618407822538 
7.891185330681998e-05 
-0.0001655398991305115 
-0.0001524523328420781 
-0.0004474140386229393 
0.0001473754852157843 
-3.759100736465785e-06 
-9.277081385464514e-06 
-6.446637346432014e-06 
4.060359548670557e-05 
-0.0001705957190220399 
-0.0001051905886787778 
1.166587841684551e-05 
5.109818621609188e-05 
0.0001265556843053808 
-0.0003690661876221297 
8.746911478577656e-05 
-8.623050211256731e-05 
0.0003113328813561374 
-0.0004558084374518646 
1.095673089617614e-05 
0.0001076888016430292 
0.0002036475452045342 
2.751583218537433e-05 
-1.831289072065807e-06 
0.0003600239086713562 
9.273126023345064e-07 
-0.0003817281063858837 
-0.000268194794749569 
7.003528070465259e-06 
-1.716917399782521e-05 
3.202793835905216e-05 
0.0001524977001802187 
7.134557782429347e-05 
-3.54508443891449e-05 
0.0002294862787787627 
9.758218113237756e-05 
6.046311460522815e-05 
6.195387891159511e-05 
2.681602100164991e-05 
-2.894779881000655e-05 
0.0001220031034950632 
4.319734970121905e-05 
-0.000116658209841451 
-0.0003815688883829768 
1.121812895432139e-05 
-0.0002205524277248438 
-2.611940093258185e-05 
8.474000080710786e-05 
2.950599098204253e-05 
3.253024329820769e-05 
2.508743407390594e-05 
8.077628464992852e-05 
2.378960257964835e-05 
-0.000104432131271957 
9.148090081904105e-05 
1.720313677009171e-05 
8.625383557885016e-05 
-7.27997103466587e-05 
-0.001050296848358132 
-1.616101899329173e-05 
-0.0001575335534449725 
0.000193007247761451 
-0.0001397997190329979 
3.316029310941971e-05 
-3.890265353048633e-05 
2.615649292650674e-05 
0.0001120057456464581 
-4.815633494739525e-05 
5.027179241940349e-05 
0.0001793407150623452 
-7.829577482497902e-05 
3.161057900615378e-05 
-0.0002173973272969232 
6.028992017798327e-05 
-1.619398068208205e-05 
-2.422150100767697e-05 
9.280363844357805e-05 
-0.0001422969815907009 
0.0003980941439023419 
0.0001838863180259536 
0.0002209407199583921 
3.852236749911113e-05 
0.0001091685513749276 
0.0002758554883606821 
7.811204539327392e-05 
4.586510998214417e-05 
-0.0001664453991590087 
3.399363836800773e-05 
3.103507736967065e-05 
1.383616229114767e-05 
8.539148055063835e-06 
0.0003139510216785092 
-0.0001105888981498571 
3.385893742664387e-05 
3.339498149568327e-05 
0.0001147046275978612 
-1.507721255932472e-05 
8.812085518480823e-05 
3.461428093433698e-05 
2.9281136050829e-05 
-0.001036514249164271 
-7.369843310448183e-05 
1.608437969196344e-05 
-2.47875890274085e-05 
6.655618092170334e-06 
-0.0001060430090249615 
0.0002347349875499189 
8.219619552446963e-05 
-0.0001475162137885755 
0.0005044442995839239 
-8.673418064756737e-05 
-2.888506682091179e-05 
0.0004441795007342482 
-2.596727984104153e-05 
-1.376800290058545e-05 
-0.0002032792909572428 
8.490679115787621e-06 
-1.969975183418523e-05 
7.954536690932463e-05 
-0.0001042702376842659 
2.577167754889039e-05 
-4.747104575290135e-05 
-6.8020524597992e-05 
-0.0001035217460109338 
0.0002297413271667115 
0.0002197136722123957 
-7.401680567582367e-05 
-6.590095774669928e-05 
0.0002866477081127734 
8.904146087408949e-05 
-3.997707105502767e-05 
7.546901356111168e-05 
-0.0002409918524684358 
0.0005936454095984707 
6.817676868010895e-05 
-0.0001013991226144255 
-2.385902035192602e-05 
-3.463669508049126e-05 
0.0001825797234153524 
0.0001484883710048998 
-0.0002965617966025864 
4.385940658929042e-05 
-0.0007071647477301999 
-0.0002111378848719233 
-4.077793654618825e-05 
7.846048593962073e-05 
6.545371933926681e-05 
-0.000102254096184153 
8.488923002624886e-06 
1.60601971079658e-05 
2.069652116662018e-05 
8.623475775119423e-05 
-0.0001113037190733228 
-0.0001950353700249981 
0.0002430836808621518 
5.961938072658021e-06 
-4.822599308848021e-05 
-0.0001583858750932118 
-1.119368332955482e-05 
-0.0006989255100147045 
-9.861353051859807e-05 
2.269465995925855e-05 
5.134785303330972e-06 
-0.0004501962346058697 
2.150780209650858e-05 
0.0001802085615023117 
2.459123864806541e-05 
-3.640699623591452e-06 
-5.086128750569248e-05 
-2.70439721525143e-05 
4.436843930731536e-06 
5.574024690081158e-06 
3.177144781829465e-05 
-4.29719873805548e-05 
0.0002078963533845607 
0.0001672741785016619 
-2.970204536372203e-05 
0.0003440116988054793 
-2.025080641541193e-05 
0.0004554483494654654 
0.0001452155706766768 
-5.027913423821909e-05 
0.0001849385399744095 
2.771801451847761e-05 
-9.552318768309303e-06 
-1.084144151164234e-05 
4.705972796135161e-05 
-3.038738371014589e-05 
-1.235143963445534e-06 
5.205115032137019e-05 
5.132308901792545e-05 
0.000117448675672401 
-0.000123470636813039 
-0.0001685950003106954 
4.380600082754493e-05 
6.773576173851142e-05 
-0.0006462554030584985 
-0.0001080292759423978 
-3.426433893708426e-06 
0.0002121234612877925 
-3.11824448506689e-05 
9.439339149026058e-05 
0.0001717438711751131 
0.0001731897586594616 
-6.246760045508619e-05 
4.366334449618486e-05 
0.0001135887488429942 
4.944826693073733e-05 
0.0001422248347179278 
0.0001453527290578001 
8.472776574058622e-06 
-7.048421040400117e-05 
5.002355342433628e-05 
0.0001003581195879085 
-0.0001099700546624136 
-0.0002272720736579534 
-4.558951867863127e-05 
0.0001631631293982735 
-0.0007298112744453479 
-7.092350805085937e-05 
-2.962000448393471e-05 
-6.510857265209668e-05 
-0.0003388103455325267 
-0.0001382948754720183 
0.0001003481538257221 
0.0001215864054722827 
1.728380779947907e-05 
0.0001154539826220652 
-4.13458170730463e-05 
0.0004622725102478031 
-0.0001267425561948315 
-1.523751661639047e-06 
0.0001473845556308005 
-0.0001867841020384822 
