solver_type L2R_L2LOSS_SVR_DUAL
nr_class 2
nr_feature 17394
bias -1
w
0.0001320618235946745 
0.0001984520710618696 
5.785202166919485e-05 
-0.0001685135338893354 
1.695073748380677e-05 
8.887159180912084e-05 
-2.908874127515109e-05 
0.0001322765856585367 
-0.0001221720089048304 
-0.0004687187387293983 
8.506875176142632e-05 
6.986106702620752e-05 
-0.0001716366526853727 
-0.000109728413173141 
-4.170379124300046e-05 
4.948583096739022e-05 
-5.260934413708525e-05 
3.745280394611989e-05 
2.274481790254489e-06 
-0.0001446520250185313 
0.0001295533580963898 
0.0001064387980275863 
8.528365048890607e-07 
-1.846896628231043e-06 
6.611244855302961e-05 
0.0001400772559139179 
0.000104883398914786 
0.000129620069020208 
-1.950460407251993e-05 
0.0003219907653364967 
2.32299277965646e-05 
-0.0001385532665124519 
0.0006456756308724511 
8.539353930031002e-05 
-0.000294583958151454 
0.0001043148088794529 
-0.0002188044798383393 
-1.778130507968269e-05 
9.427116228826043e-05 
4.651552973946508e-05 
0.000138058170763002 
5.887825373032791e-05 
0.0001399394276654262 
-0.0001572791929938833 
-7.424462501566686e-05 
0.0001248458625804031 
-0.0002105841835806539 
6.70671362446009e-05 
-0.0001064224144302803 
-0.0001180049601248723 
3.106002639509372e-05 
-0.0002033674540635928 
-7.311843709267729e-05 
7.882921494276191e-05 
1.171665262069749e-05 
2.408534158384214e-05 
8.398755119533449e-05 
-2.571119340085207e-05 
0.0001137716830598161 
-5.936688064334295e-05 
0.0001229047850949565 
4.086906185570143e-05 
-9.343647652467885e-05 
6.5160330791489e-05 
-0.000132721983903999 
-8.354378678361009e-05 
3.090439620744753e-05 
-0.0001062550815961618 
5.841708680536619e-05 
5.526674253971472e-05 
2.986700190114312e-05 
-0.000104426539532449 
-0.0002562534907297862 
3.852889522490224e-07 
0.0002359498458277897 
1.648051874339757e-05 
0.0004027728930603781 
-9.689365119983496e-05 
0.0002027974724653254 
0.0002076652750483034 
-1.235148708320173e-05 
5.188961714508345e-05 
-0.0002186908039369363 
9.287075300335001e-05 
0.0002544696887648775 
5.227183225190678e-05 
-2.586139968649427e-05 
-5.265623501469236e-05 
-5.371450729191427e-05 
-5.252311399082873e-05 
2.875064269131501e-05 
-3.433269993535271e-05 
3.653178175781658e-07 
-0.0001976102338891529 
4.522895125103407e-05 
8.612029876157101e-05 
-0.0001231473837047831 
-0.00016059334375936 
-1.498976446649135e-05 
5.476933219005433e-05 
0.0003401572203395642 
-8.025817162252002e-05 
-2.258517713484969e-05 
-8.670547530192426e-05 
-4.286221107741947e-05 
5.650013059546207e-06 
-8.962316864702754e-05 
-7.583749702252772e-06 
0.000234247798667466 
1.50935108649218e-05 
-6.765417488380217e-05 
-0.0002757574362591646 
0.000127047533968604 
-4.068013871315157e-05 
-0.0001695127359947765 
0.000107700750031079 
6.787193202349004e-05 
1.977739868157122e-05 
0.0004968179641401425 
0.000227627859288393 
5.62102118328392e-05 
-0.000185579685537215 
-6.88397147665371e-05 
-2.194834253611406e-05 
9.043230365522623e-05 
8.950273933057987e-05 
0.0001296504865309258 
-0.0001795977718335947 
0.0001028118747914673 
0.0001526404975008329 
-0.0002324108681824263 
-5.669426283233417e-05 
-0.000281216927142103 
0.0002524882686405947 
0.0001513997288147474 
-0.0002298012095426194 
0.0001114525315246182 
-3.438502975986682e-05 
2.900373156961614e-06 
7.905265917526538e-05 
-2.105285033749071e-05 
-2.77882855838654e-05 
-0.000147788382971804 
2.239496078401318e-05 
-6.762275159560484e-05 
-0.0001218912836905391 
-6.376202154514744e-05 
5.633028139843686e-05 
9.969465720613101e-05 
0.0001450236705629899 
-2.521169824028258e-06 
1.224091112785028e-05 
-6.140994574467232e-05 
0.0002812014365479503 
-7.960777422513445e-05 
-5.07228494521619e-05 
0.0004278339347620043 
0.0002865887694738183 
-0.0001550117554746967 
-0.0001257285788997687 
-0.0001742479181489671 
-0.000390575411187468 
-9.23474067391584e-05 
0.0001724284229761162 
6.273576869386473e-05 
2.110237337724749e-05 
1.86489243902919e-05 
0.0001408838502215188 
-3.902109678718774e-05 
0.000196122366823083 
-0.0003029779758440373 
5.956360996416725e-05 
7.789330348231027e-05 
-7.627071563657787e-05 
3.244324899930808e-05 
1.996783810555862e-05 
0.0001244257186040557 
-0.0001937094777048159 
0.0001340350969765553 
-1.005265791595223e-05 
0.0004323880328047093 
4.431801671354475e-05 
-3.924347508877109e-06 
9.439061487852416e-05 
0.0001823185484508411 
-3.109265143090577e-06 
-6.327455425080539e-06 
2.733896090230034e-05 
-1.179044528173666e-05 
-8.962142382439524e-05 
4.36700326427733e-05 
-6.606052319600689e-05 
-0.0003121999952759025 
0.0001722876621399662 
5.44014204442257e-05 
0.0003606250191092472 
4.207498299822154e-05 
-0.00024092037407682 
-8.098676094274801e-05 
4.331466055999439e-05 
6.664808782015755e-05 
7.031924295026291e-05 
0.0002558302312809426 
-0.0001263990205389261 
-0.0002304775368804255 
5.253466689951887e-05 
-0.0001009362236896379 
-8.566635735540791e-05 
-7.002017963005379e-05 
-1.749031490290595e-05 
2.18903949108665e-05 
-4.887681702319733e-05 
-3.759303844194086e-05 
8.419692013553533e-05 
0.0001265463678151012 
0.0002023661364561571 
3.998213002240509e-05 
2.996777774859607e-05 
0.0001174424483442968 
-0.0002503221950964362 
-0.0001249141042249629 
1.717668958428034e-05 
0.0001166761267177625 
0.0002771605608052396 
-0.0001923282447415065 
-0.0002125425332043891 
0.0001288653088753455 
0.0003544380778434891 
0.0002361779294963371 
-9.29354236618607e-06 
-5.61499818802514e-05 
-0.0001883234964622032 
-0.0001199073116323555 
0.000186775240812328 
7.9540662570584e-05 
6.041280285677903e-05 
-6.093290961670962e-05 
-2.183687502509762e-05 
6.303623496255233e-05 
2.224904247410138e-05 
-2.840887256671349e-05 
-0.0002136234065370521 
-5.218924340747047e-05 
2.468674346558397e-05 
2.910049963155148e-05 
4.328401841215278e-05 
0.0004792053091746942 
-6.835716411152832e-05 
0.0003170407524038624 
-6.524825872165429e-05 
-0.0001946343975822507 
6.619050444234732e-05 
-4.483176087857498e-05 
-0.0001950305197761321 
8.723370185784879e-05 
-2.995970210606776e-05 
1.839719515487165e-05 
-0.0002093294846369113 
0.0001059888611677211 
0.0001681732114504691 
0.0002618619704394659 
1.332435912704678e-05 
0.00011895460905591 
0.0001490050138882 
-7.183751115693697e-06 
2.431325056444271e-06 
-0.0002893874258091532 
-6.538317183293501e-05 
0.0006418539346346622 
-0.000411671706083815 
-8.136598151197377e-05 
0.000224086366587308 
-0.0001323219178198901 
-0.000244055349408777 
2.069764205105325e-05 
9.470139786617227e-06 
-4.942873495052397e-05 
-0.0001316798524123221 
-0.0002473806750146034 
1.135249107769335e-05 
0.0001117829696529251 
1.647466515438886e-05 
-4.312138496343375e-06 
2.270330358997017e-05 
0.0001042016914233583 
0.0001810483673183156 
2.392413655892772e-05 
9.240654458100912e-05 
-0.0001130942708195359 
-0.0001510934452173289 
-7.246525889362762e-05 
0.0001322084736348262 
7.328423024445656e-05 
1.641838295335147e-05 
-0.0001363144139544573 
1.291112017362478e-05 
0.0001069133064886227 
7.234878875363264e-05 
1.976417936271358e-06 
-2.902900070185652e-05 
-1.358301122967731e-05 
-0.0001696221589462046 
-0.0003272892671452662 
5.623708397819104e-08 
3.134570580067215e-05 
-6.083351364746213e-05 
0.0002869790367318721 
-0.0001453090051543191 
-4.656843396905745e-05 
7.730730625785077e-05 
0.0001207079920504159 
6.634976910330728e-05 
1.457029587856311e-05 
6.71289668535496e-05 
-0.0001994865594002263 
9.642350608871211e-05 
0.0004109107324670183 
1.15532834622652e-05 
0.0002238728766440027 
6.606051913544417e-05 
-0.0001861069853075726 
-7.587464830657827e-05 
0.0002909949694683995 
-0.0002512315983757335 
-1.384022824176178e-05 
7.375293201370017e-05 
-0.0001540308345234775 
0.000325352353707636 
-1.222532348707686e-06 
-6.870972153564226e-05 
-3.813969577454268e-05 
-9.951275274355427e-07 
-1.698559504198841e-06 
0.0002470643104958165 
3.505347645335711e-05 
-7.156928658001549e-05 
-4.262602640442192e-05 
-1.353056970826513e-06 
-0.0004000749299118345 
0.0001052943432454674 
9.961226039365333e-06 
-3.32238779794298e-05 
0.000111225385117921 
8.499457419235236e-05 
-0.0001003462150721445 
0.0001914174143646024 
2.181526740247997e-05 
6.089778526002341e-05 
0.0001484007094421223 
0.0002043164738375195 
-3.689364543908942e-05 
-7.965642573932576e-06 
1.566945528417585e-05 
-0.0001608872670062026 
1.723798891322008e-05 
9.050864389174061e-05 
8.309279893349945e-05 
0.0004847653515385544 
6.940490077418352e-05 
-1.421958252000539e-05 
3.174434028765131e-05 
-3.190970392975311e-05 
-0.0001606282920446537 
0.0002718220248806384 
2.417797770293825e-05 
-0.0001653115786131168 
6.685091386677116e-05 
-0.0001542465169196207 
-4.463299198601845e-05 
0.0001176642198955805 
6.218051535838187e-05 
0.0003277830794073407 
1.258736031590583e-05 
0.0002154027661182479 
-0.0004013678049517185 
0.0002808563932421941 
-0.0004079991591955406 
-0.0004081089681178078 
7.004418525895509e-05 
0.0001580120770067703 
2.024623918369183e-05 
6.139665661565889e-06 
-4.627969342011462e-05 
-5.960730154038069e-06 
7.515238293054842e-05 
-0.0001264198282876282 
-1.516308219523662e-05 
3.469953136275172e-05 
7.340017657772751e-05 
0.0001265350691896869 
-4.775751934238602e-05 
0.0002396382249677568 
0.0004151793928656882 
-7.25480170007953e-05 
-0.0004073805610071164 
-0.0002168359473382034 
1.405824482702343e-05 
8.235348964342047e-05 
0.0002927606051851971 
-0.0001342332711948186 
-0.0002064144520727981 
0.0002097951867808987 
-9.496729507075414e-05 
-7.370122025598872e-05 
-1.318449376046723e-06 
-2.338732197356477e-05 
0.0001311674044649801 
1.710350611778356e-05 
3.467324215386583e-05 
4.155357875803767e-05 
3.713187084922045e-05 
5.306170471848953e-06 
-4.972929806252652e-05 
1.850409603874905e-05 
6.095538229156813e-06 
3.938716042694083e-05 
-0.0003764823854131442 
7.631229679129317e-05 
0.0002316669416041675 
0.0002530097506511613 
-0.0002679090054290534 
-5.958782242783025e-06 
-0.0001427922774614729 
9.497225847740782e-05 
7.989521401974413e-05 
0.000205315719930261 
0.0001062760917012574 
0.0003313241406599623 
-7.90218393840691e-06 
0.0001172405091505877 
2.897391861169665e-05 
-3.047704437122557e-06 
-8.150089040918763e-05 
-0.000257066350197337 
-0.0001772253580131112 
-0.0001131595731372136 
3.26837886127036e-05 
-2.726301160388259e-05 
9.776606124383369e-05 
-4.302471861094042e-05 
4.795086467817568e-05 
-1.009499442053528e-05 
3.313077551515577e-05 
-3.120860787614736e-06 
1.487739616065648e-05 
8.370934959522871e-06 
0.0001639488501839342 
1.747119181369859e-05 
7.856998440285911e-05 
2.405132908949498e-05 
8.597110361771987e-05 
8.890894105754112e-05 
-0.0001177523640326864 
0.0002433961060859852 
8.713458931711543e-05 
-9.730187657659287e-06 
9.846075818388283e-05 
-1.824522027783053e-05 
0.0002242231830199713 
0.0001284997623658695 
-0.0005902035298484258 
3.767731894705392e-05 
0.0001960403870518901 
-0.0002167844552476976 
-5.112598657166014e-05 
7.464384748815444e-06 
-0.0002789453227549696 
0.0001305526929173259 
-1.008403419955896e-05 
-6.276082116607458e-05 
7.883514333446791e-05 
-1.412137457998946e-05 
-1.553236823403852e-05 
1.511522025029579e-05 
0.0002158619833262213 
-0.0001081456941002299 
-0.0001328142395459415 
0.0001956044772114028 
-4.465255807179198e-05 
0.0001591694000240678 
2.233511410428591e-06 
-9.516489512200234e-05 
4.90912252056624e-05 
3.396923786740523e-05 
0.0001041438066497783 
0.0002450389372682099 
-1.437827238779284e-05 
0.0001192841075290482 
0.0001948565681906168 
-0.0002141822155540607 
-7.727728566499856e-05 
-5.769914696663749e-05 
3.089833376704315e-05 
-2.567100145983458e-05 
0.000200423088308161 
0.0002272911362798491 
-2.33335562729424e-06 
0.0001361251764560084 
-4.260364037403914e-05 
8.037517281960058e-05 
0.0001318208472494062 
0.0001050805537647194 
-3.851204774317562e-05 
9.715874190860829e-05 
-0.0001400268416481135 
-0.000151852907368382 
-4.433671576577145e-05 
1.614230926056531e-05 
9.816660896777736e-05 
1.951895610550914e-05 
-0.0003181978847408227 
-0.0002447434999220542 
9.800019525416394e-05 
-0.0001239116768329473 
-0.0004842946587255365 
9.860824083705924e-05 
0.0001044095860755775 
5.195342497107052e-05 
-5.446526159461351e-05 
0.0002271928179692461 
-9.771161161293141e-06 
-2.03747058212894e-05 
-8.220005199261391e-05 
3.17752217015374e-05 
0.0001083488777132138 
3.421603069401155e-05 
0.0001083333074580359 
0.0002370024619262358 
0.0001581968070254418 
-9.256363074754872e-05 
1.345973836016962e-05 
-7.756292312210146e-06 
6.91856823453055e-05 
-5.753688728664206e-05 
2.854216913600931e-05 
-1.32639523323773e-05 
3.268231379694782e-05 
0.0002172223596395862 
-6.121411854266353e-05 
-3.235526848656329e-05 
-1.529197671255427e-05 
-0.0001797975034527748 
-2.24997481289028e-05 
6.280626789033731e-05 
2.535776109693988e-05 
4.499032917365288e-05 
2.209311990671426e-05 
-5.692534482057732e-05 
4.87146539668648e-05 
-0.0001646991161717081 
3.287517758531967e-05 
-2.88012297889759e-05 
-2.100755476287722e-05 
0.0003077309825041541 
-0.000698469991471742 
2.159042123038584e-05 
0.0002171474431932379 
-6.12693327454541e-05 
-0.0001877218402450035 
-1.447599754702766e-05 
-1.307637182286575e-05 
3.607215821158853e-05 
0.0001119243474521175 
4.825430827519799e-05 
0.0001204670992090685 
0.0001409441419764231 
0.000137215288656602 
0.0001866215799859037 
-8.701338417827994e-05 
-0.0001757584910922798 
0.00017888264015934 
1.804639972341436e-05 
5.873624089024666e-05 
1.662714272337905e-05 
-8.296814348436959e-05 
0.0002425341708740273 
-2.757179392562891e-06 
-2.072342399775451e-05 
4.190092359186123e-05 
-0.0001341386824363273 
-4.302698720606112e-05 
0.0002231877674723393 
2.210979108087487e-05 
5.447976886721893e-05 
-5.469291900267805e-06 
0.0001143833860773343 
4.970694924021164e-05 
3.11917264842019e-05 
0.0002443573271846884 
-0.0002142639232361614 
0.0001366104030373449 
0.0002582100215748199 
-2.603553973079933e-05 
8.89117718700369e-06 
-7.296855886529253e-05 
3.247182837769701e-05 
-0.0001455222634887306 
0.0001233989329320445 
0.0001919886790974355 
0.0001166341873732019 
-0.0009410765537584558 
6.661583116573503e-05 
-1.061414982046343e-05 
-2.585229991708859e-05 
0.000245065381960903 
3.738076416155201e-05 
-8.970212350853065e-05 
0.0001582047390554422 
9.157424740706847e-05 
0.0003946056835043324 
6.660929343509824e-05 
7.213630704822169e-05 
9.537297073219705e-05 
-0.000110783815914976 
-2.662380518242042e-05 
0.0001076653791026572 
1.394351754381818e-05 
-3.663836461689428e-05 
-0.0001038110078480716 
5.754386584653637e-05 
7.646535897601273e-05 
0.0001870622967838889 
-4.414772422363763e-05 
2.700917382578087e-05 
1.942495775635533e-06 
2.135292123884923e-05 
6.897659866506281e-05 
0.000355058649578434 
-5.15137211289814e-06 
-1.074525005558748e-05 
-0.0003286420133822643 
7.216255857393407e-05 
-6.71682367041594e-05 
2.973348556414732e-05 
6.47609725747216e-05 
-0.0004920202016888989 
-8.871393012421466e-05 
0.0001046861521893327 
-7.083155772439042e-05 
-9.874604012390758e-05 
-2.032235274445729e-05 
3.621034591338303e-05 
3.719063414180908e-05 
1.462123090131485e-05 
3.24101779692088e-06 
-4.907016412895007e-05 
-9.681131698015433e-05 
-0.0001183280682364322 
2.764869848252406e-05 
4.445801028090715e-05 
7.481500996914089e-05 
0.0004665351195521077 
0.0002069731249783155 
-3.352078109077509e-06 
-1.023986824499323e-05 
2.541284818467261e-06 
0.0001210045990688692 
9.42985223977899e-05 
-0.0001762755152096397 
-0.0005872763778882996 
0.0004026249446386705 
-1.458387391213877e-06 
-8.41362699783844e-05 
8.230204485248459e-05 
9.355234492757033e-05 
-7.544888380669019e-05 
-3.534515761425716e-06 
3.186689488851279e-05 
7.203317769819484e-05 
-3.229963148060371e-05 
-9.159513095224184e-05 
-3.7129835731004e-05 
-7.72040795855731e-06 
-3.004358876519618e-05 
0.0002452670487093774 
-4.57697114012744e-05 
-7.655928511378582e-05 
5.762808435738278e-05 
0.0001697223610182983 
-0.0002158659571526777 
-2.558102379579733e-05 
2.303732214190991e-05 
-4.950048534340769e-05 
0.0003965470280455493 
0.0003188883793225572 
7.162571540900098e-05 
-7.489300030027522e-05 
-8.623485015519553e-06 
-6.713947994138372e-05 
-7.181142027448361e-06 
-2.337873883257168e-05 
5.194589644764453e-06 
-4.183869657020505e-05 
-3.135517900926081e-05 
-0.0001083557583831547 
0.000206147717876741 
-0.0003021469003628559 
-0.0001524108917017848 
0.0001215722601227608 
1.453875484264687e-06 
0.0001267334049770577 
-0.0001810262267009561 
6.781272437711449e-05 
6.239805555274685e-05 
0.0002869284160742411 
-6.853910556469484e-06 
-5.600057806230261e-05 
-6.361156806203706e-05 
1.357954097837356e-05 
0.0001713528785987281 
-0.0002985417369014076 
7.02782641156075e-05 
-5.896504039021246e-05 
-5.372773144567215e-05 
-5.009291643547593e-06 
-5.160781733503383e-05 
0.0001801979859651551 
-0.0001407432971364759 
0.0002340526322449909 
0.0001227564811953455 
-6.401861742947105e-06 
2.074841279153437e-05 
-0.0001977243144148048 
0.0001590602120054872 
-7.651729261796446e-05 
-9.096467726059931e-05 
-9.681924565861575e-05 
-0.000131628547306029 
1.014609943166436e-05 
0.0001840676820783985 
0.0001209319169167687 
4.564292055399486e-05 
-2.859613726950927e-05 
9.140102977772724e-05 
1.361815511502152e-05 
6.358902862401016e-05 
-6.78321057100617e-05 
0.0001028061016894786 
2.256470696419249e-05 
-9.888375379820251e-05 
-1.078159080686862e-05 
-0.0001128813867796111 
-0.0001376321910606403 
0.0001022369064884079 
5.104536113154313e-05 
0.000101320219292482 
-7.830559791582098e-05 
2.665039567012879e-06 
-0.0003766927951167933 
9.994819638863504e-05 
0.0002000680299167628 
-0.0005129057036867798 
1.927165689504852e-05 
0.0003896361588813025 
4.582791131405646e-05 
-4.769103171701332e-05 
8.174060089004e-05 
-1.260638492580592e-05 
2.081842518506501e-05 
-8.860947595183578e-05 
0.0004040225722293028 
0.0001589892585091209 
-4.569925496537379e-05 
-1.342789884136849e-06 
-4.352229547672282e-05 
0.0001913412636925374 
-4.924927382319382e-05 
0.0001149718312472969 
3.905030702327637e-05 
-5.894699239743405e-05 
6.736366373055677e-06 
6.581553637786173e-05 
-6.518374396820722e-05 
-9.020772850780755e-06 
-8.524202286933766e-05 
-0.0001292790884375058 
0.0002080938799301355 
0.000311493955615611 
-3.487550582294545e-05 
7.547694830156625e-05 
3.70512672336498e-05 
2.924581556975194e-05 
6.479538148776349e-05 
0.0001869273795098415 
2.159131810608516e-05 
-0.0001195154252540287 
-0.0001575556960666283 
-1.21372427121775e-05 
-5.845418233423212e-05 
-0.0001111605213387171 
0.0002215034956306652 
-3.585547755511898e-07 
8.2003824218584e-05 
-0.000155363674463701 
0.0003123887913848067 
2.038250337489088e-05 
4.847745008732677e-05 
-3.743127416179357e-05 
-0.000242201723805796 
-2.966919030261519e-05 
1.957407870799285e-05 
7.881402900261373e-05 
0.0001087557380346155 
-0.0001421492242415191 
-6.883236297063813e-05 
-2.778298365939639e-05 
-4.502678674831708e-05 
-0.0003145992037672684 
-2.587191806016282e-06 
3.489105314813469e-05 
-0.0001596522192408604 
4.010014861319822e-05 
0.0005494649306857905 
1.584229775484586e-05 
-5.694936980976698e-05 
0.0003998919937220162 
1.403144165418483e-05 
-2.087591630649294e-05 
9.907274923397693e-05 
-0.0001093916806735454 
0.0001649738559108449 
4.833784078298266e-05 
4.361205478285936e-05 
5.558685471567162e-05 
0.0001380870786875719 
-0.0003652653835696441 
0.0001795020389212618 
-0.0001153247586222108 
0.000149866345760289 
0.0001895656528129246 
-9.9063528954053e-05 
-0.000377830963898633 
2.043852582410491e-06 
-2.741841802928988e-05 
1.136282695231016e-05 
2.061777120326999e-05 
5.069606942644985e-06 
-6.366673800394745e-08 
-1.083950192355951e-05 
8.805622364384355e-07 
-0.0001805255688366554 
-0.0003179907056597518 
-1.973208964073277e-05 
-1.348119843922783e-05 
-6.634021726789477e-06 
2.10258105027824e-05 
0.0003501549637730846 
0.0004229761585570424 
0.000208357941377081 
-7.422510464414582e-05 
3.988861902702216e-05 
7.166232219923598e-05 
2.018271362994727e-05 
-0.0004087492715759521 
3.233590249964699e-05 
7.678411235764608e-05 
-4.632701754805426e-05 
-0.0001819217745238026 
0.0001268835604380419 
-0.000108989898446469 
-2.197794404628351e-05 
0.0004201547413729482 
0.0001752431117317707 
-0.0001621097869411924 
5.258689603978395e-05 
2.910009766292059e-05 
-8.264185802897577e-05 
-6.155330522882975e-06 
0.0001269333857404898 
-0.0001269666603747074 
3.975672486597091e-06 
1.719997719020783e-05 
0.0001053925692745226 
8.788533246357699e-06 
9.711867032162831e-05 
-9.612573371818571e-05 
0.0002880495048388097 
0.0005246346216360829 
-5.716446434819824e-05 
-3.056043942263695e-05 
-0.0002709587642977695 
-0.0001231251488431164 
-5.609091042038518e-05 
0.0001478304338042657 
2.071931930613187e-05 
-7.021741107064796e-05 
-1.434541767889459e-05 
-6.249335715173558e-05 
9.488780342328294e-05 
0.0003348026943235355 
-0.0001079044243785417 
5.112914279527969e-05 
0.0001319998235298913 
-0.0001227359604984415 
-0.000146765080647549 
-0.000236259575553702 
2.374192204915281e-05 
-7.029472546059512e-05 
1.711669801028977e-05 
7.708196223437954e-05 
-8.102264189884591e-05 
-8.660043379743101e-06 
-0.0001146626080443365 
4.080313930814484e-05 
0.0007394633597310537 
-1.860686590664411e-05 
4.237586347164385e-05 
3.630614324510257e-05 
-0.0002991927992244825 
-0.0002545136436875366 
-8.686261256642544e-05 
8.857147433924308e-05 
0.0001211699095612143 
-8.691838611627673e-05 
3.423743682082592e-05 
0.0002296927912452616 
0.0001050537993847138 
5.977895724884106e-05 
1.415757763403745e-05 
1.614678168507748e-05 
-7.486743408325175e-05 
-2.054994801669576e-05 
5.564769759191019e-05 
-1.737045200554201e-05 
0.0001251484503681005 
2.720646116108469e-06 
-0.0003100527494670983 
3.899890847578381e-05 
6.833734828389294e-05 
-0.0001799644026964496 
-4.662060698100966e-05 
-3.648376518514209e-05 
-5.290756112629625e-05 
-1.18017862909391e-05 
6.227978480052298e-05 
8.41551220971398e-05 
-0.0002408255727749113 
0.0004747203955299759 
6.182299845231026e-05 
0.0005353100216049995 
-0.0002262658562904457 
4.848008726810248e-05 
6.590637015074953e-05 
-7.29161577384863e-05 
0.0003123011140588293 
1.669979937312401e-05 
-0.0001793924617369861 
-0.0002343723942678514 
-2.118713508784616e-05 
-8.911157114961889e-06 
3.286170036205053e-05 
0.0001307741879400664 
-8.34653167386417e-05 
0.000321519130418349 
6.166388667249311e-05 
4.551930790358291e-06 
3.98308492312599e-05 
-0.0002075587927108646 
-0.0002085998608313288 
-8.530329079864465e-05 
-0.0001228591778168853 
-1.245827943555956e-06 
-6.513946640848296e-05 
-3.161001663663544e-05 
-0.0001156306762429151 
-0.0001532693463936929 
3.018124793856086e-05 
-5.731411525337407e-05 
-1.884718525959894e-05 
-8.744008616198451e-05 
1.88534333352929e-05 
9.121018454977749e-05 
1.726665339512591e-05 
1.563619284351686e-05 
0.0005059237885742256 
-0.0002748690298694064 
0.0002262844713873568 
-0.0005712176383152653 
0.0001160563574974159 
0.0002276184391311795 
0.0002967932864873699 
-0.0001774471137120304 
-7.39088208810331e-06 
0.0001595530751332896 
0.0001095218615533095 
0.0001734621485532012 
0.0001190323461957161 
5.10039764897608e-05 
5.803731823340407e-05 
6.672267861216135e-05 
-0.0001748957391061064 
6.574499607858503e-07 
-0.0001539224432934355 
-3.592090724119961e-06 
-0.0002823184073843454 
9.610575223522256e-05 
5.341417250575705e-06 
-1.268678478826392e-05 
4.424006111250657e-05 
0.0001428101661659124 
0.0002922006971186062 
-3.33916955530289e-05 
-8.530738489804267e-05 
-0.0001528216833553709 
-0.0001657453668830917 
0.0001782521983371244 
0.0003215590276451656 
8.112253410784796e-05 
-8.456947326840901e-05 
-2.153164017998028e-07 
0.0003008005206050438 
-3.461692391052621e-06 
1.720184019699252e-05 
1.094126364885061e-05 
7.400595441394162e-05 
0.0001053610134424593 
-9.598497547715655e-05 
-2.924090543535678e-06 
7.925796961965267e-05 
-1.78144718971689e-05 
-5.984055722466371e-05 
-0.0001144028997233649 
-3.457776286473161e-05 
-2.098471056490069e-05 
2.097984914876871e-06 
0.0001543665902211512 
-0.0004349585492755448 
5.484856421368393e-05 
-3.676212560737351e-05 
-3.295671139109917e-05 
6.928821257433512e-05 
0.0002219185684613875 
9.495301891443314e-05 
-1.005274401216545e-05 
-0.0004458397428370016 
-7.243029429384518e-05 
0.0002432926452412646 
9.012950341870852e-05 
0.0001160343185698093 
-0.0001307768707566466 
0.0003433633287745837 
-0.0002081913290190532 
0.0001242440625358465 
9.249097889744783e-05 
0.0001719725488672669 
-4.192885329448667e-05 
2.493573716785857e-05 
8.695439012177741e-05 
0.0001354117713524196 
8.373369650568703e-05 
0.0001809583846504019 
-5.116741595857973e-05 
-0.0001361135703645214 
-0.0001343375352190972 
1.890400399740903e-05 
-0.0001497439587075116 
-2.422341347155205e-05 
-0.0001773012437339432 
0.0001427940002990399 
-0.0001384559941264566 
8.22657273368949e-06 
5.782145450448092e-05 
0.0001535336262144744 
6.12413330622355e-05 
-6.746671170473461e-05 
5.461231355857631e-05 
-4.314161200003556e-05 
-1.146603336697275e-05 
8.481150630889026e-06 
-0.0002416665906281993 
-0.000104130797441076 
2.624036963285552e-05 
1.514790086933392e-05 
-2.867651174907179e-06 
6.995858080117781e-05 
4.757763089666827e-07 
2.120369354811358e-05 
-1.491053672933022e-05 
-8.893816237435996e-05 
-0.0002095196743255023 
0.0001163349146658594 
-2.577033350642668e-05 
0.0003098796817477458 
3.829689569504216e-05 
4.428410819674746e-05 
0.0003183556691681014 
0.0001207361307863264 
6.873190823257556e-06 
-6.487353961919461e-05 
4.922457543078552e-05 
-8.269784322201268e-05 
-3.935204181797774e-05 
0.0001565295777170195 
0.0001734622563547334 
0.0001805945356554975 
7.782370257370417e-05 
0.0001302274563649414 
-4.190146573283828e-05 
-3.308577335353652e-05 
-0.0004066447529102824 
0.0001272036777060074 
8.229108077932456e-05 
-0.0004218892222716832 
3.987578486869423e-05 
-0.0001320465135291644 
-3.937128267446532e-05 
-5.81738505014954e-05 
-3.723831104414644e-05 
4.85401322525481e-06 
8.126451160400967e-05 
0.0001116738083707336 
0.0001152947256897611 
-0.0001960419428650317 
0.0002581666704965378 
-0.000138792817689652 
0.000412690592126093 
-0.0001234476373792197 
-0.0001475245340401963 
0.0001272368628968048 
0.0002593063054544166 
-4.550973530588597e-05 
-1.054473272458698e-05 
0.0001261028125231883 
0.0002476565053671785 
4.4492342782084e-05 
1.751739484543485e-05 
3.521323877552708e-05 
3.949280925501735e-05 
-2.697992193358701e-05 
-0.0001886670880461731 
3.798498950820987e-06 
-8.833431768625492e-05 
0.0001091233197938719 
-0.0001730479724322199 
0.0002118298267594646 
0.0001471126970032278 
9.085682749492244e-05 
-0.0001078916277824978 
0.0001013363520833589 
-3.053036351305247e-05 
-0.0001685627927233445 
7.877544492499578e-05 
-0.0005346209931997289 
1.410195369204442e-05 
-4.407406399050835e-06 
1.512339937358204e-05 
4.562216383778716e-06 
0.0003576749743294372 
-2.468344490667088e-05 
3.765834103144522e-06 
8.149214215230302e-05 
9.839041472309126e-05 
-0.0001117745855647922 
1.899561729604152e-05 
0.0001973366068957067 
7.75630726225384e-05 
0.000118795657465553 
-0.0003691225848921299 
0.0001220342103741374 
0.000611101338818376 
-6.285116389277393e-06 
-0.0001317919958500547 
-1.575777764907759e-05 
0.0001074406119199747 
4.911029185705667e-06 
9.96646435687885e-06 
1.001860284285818e-05 
-9.470123975021099e-05 
1.02647438447949e-06 
-2.462531587967651e-05 
-2.905506646072331e-05 
-0.0004449747289307381 
0.000272296662011621 
0.0001313945414050207 
-0.0002384008472389425 
-4.596735179271735e-05 
-3.160970771552371e-05 
0.0002985123294647457 
-0.0002130036992782336 
-6.072785748523344e-05 
-1.930301047472703e-05 
-5.762336125574965e-06 
-7.249679521842215e-06 
0.0002933582906192459 
0.0001691328262907027 
0.0001788696649968904 
-0.0001967840039436838 
-0.0001271677008380116 
-3.288208862689904e-06 
-0.0002846386697913396 
0.0001964735974012592 
-3.425937901749261e-05 
-7.93443328984597e-05 
-3.947320858311421e-05 
-1.609110154689334e-05 
0.0001680307632248213 
-5.173147763946235e-05 
-4.791419650422934e-05 
-9.553904555123858e-05 
2.462530121277741e-05 
2.621524123676833e-05 
-0.00014193029733503 
3.752167684308871e-05 
-6.470653291274296e-05 
9.133174408557172e-05 
0.0002576880064934462 
3.259207402332033e-05 
0.0002061423931035893 
-0.0001253203799725814 
0.0001620415010229147 
0.0001249513297259706 
-9.038378686101893e-05 
4.66166548239804e-05 
6.613014773584891e-05 
3.954310199652673e-05 
-4.695093296070003e-06 
-0.0001044034201624235 
2.107919951497441e-05 
3.950079361791561e-05 
0.0003141154048914999 
-1.190800674542826e-05 
-4.800973432777201e-05 
-0.000155861393730336 
-0.0001061974802916609 
0.0001459662905496635 
1.555148727483366e-05 
0.0001690454560595665 
6.801980592938384e-05 
-3.59000268621117e-05 
-0.000163100278008557 
-0.000209441925741654 
-5.631826284295491e-05 
-0.0001945545580135937 
5.406970546015325e-05 
0.0001141243710040395 
0.0001212894473424763 
-0.0002157052162719939 
-0.0001421198315183315 
-0.0001174216612873383 
6.733621356169791e-05 
-8.536512391853479e-06 
-2.413419211271435e-06 
-1.94486857286131e-05 
3.129093490293122e-05 
0.0001064804425704808 
0.0006062247369917691 
8.396314789685596e-05 
5.792158423107245e-05 
7.218544248241283e-05 
1.881539787751958e-05 
0.0001736087165615884 
-0.0003975757569765753 
-7.455803779954934e-05 
0.0002142454511398877 
0.0001068213207962534 
-0.0005764833649322624 
7.902199057215744e-05 
-4.806654184268966e-05 
-1.342378664822632e-05 
9.842887645327118e-06 
0.0006952344491906774 
0.0002270443237358475 
-5.309036109093268e-06 
1.97935366293894e-05 
-8.701064135281859e-07 
0.0001100040147741025 
3.229420812304584e-05 
9.187256476036081e-05 
-2.856108372175877e-05 
-0.0002362914511482477 
-1.030810001947006e-05 
-0.0001238178314794641 
3.332677492459353e-06 
1.094123759832402e-05 
-5.374444842921098e-05 
-0.0002230548697969032 
9.645586544151257e-05 
8.828492354185754e-05 
9.241550209894176e-06 
0.0001576624654077707 
0.0003071117696996008 
1.868099642777229e-05 
6.180228482902509e-05 
0.0003363558414051777 
-0.0001818112384003356 
-7.92496649745694e-05 
8.912760481114367e-05 
8.823245973577659e-05 
-8.824539727439976e-06 
-1.207019700192863e-05 
1.081369223914484e-05 
0.0001291789378751713 
5.569755200468472e-05 
-5.991085409142249e-05 
-0.0001309442427131665 
-2.805772259734811e-05 
-1.71974094367392e-05 
4.855904740095449e-05 
9.259521036930065e-05 
-0.000151995511696916 
-5.653600537038373e-05 
0.0003041747024393871 
-1.061463941257527e-05 
-7.937904141647085e-06 
-6.594040934916097e-05 
-1.879782897422018e-05 
-9.918832378806807e-05 
0.0001148597629740748 
-1.547066650318066e-05 
-6.675568233005328e-05 
-0.0001302653646999356 
-9.09830483387053e-05 
2.693788083300925e-05 
0.0001600746555022492 
4.020695464708601e-05 
-5.455592675810419e-05 
3.440680822695621e-05 
3.311898565093795e-05 
-9.886691116223766e-05 
-2.710750463513796e-05 
0.0001718037779014881 
-3.453924474429684e-05 
9.785939318986795e-05 
-3.596366932709732e-05 
0.0001553909408669387 
-0.0001235485803503541 
-0.0001898902729418419 
-2.148416924305179e-05 
-0.0001228101590663854 
0.0003055788338761669 
0.0002963482568667625 
2.336554506356774e-05 
-0.000142136617150316 
9.793715903472508e-06 
1.351392834310953e-05 
0.000151588496568018 
0.0002789717948265974 
-9.985202804959646e-05 
-7.99511046613122e-05 
0.0001153189569816425 
-0.0001023306152823353 
-0.0001139346823337412 
-0.0002233988242734067 
-1.927000660523461e-05 
3.754840986034765e-05 
-6.001462523291899e-05 
-2.947338380134989e-05 
-0.0001782502902177216 
-1.264542710667626e-05 
0.0004010440711579285 
4.210429031087227e-06 
2.595916269614934e-05 
-0.0001587560090361662 
-5.369446923266004e-05 
-0.0001123645774385068 
3.267569736187702e-05 
2.814962357078103e-05 
4.577094898134274e-05 
2.005786404212538e-05 
-0.0001062296079236511 
-7.31632881133058e-05 
3.249646723966441e-05 
0.0004007827358196504 
5.382865250198253e-05 
-1.867178933451342e-05 
-3.334715055146368e-05 
6.240886247376107e-05 
0.0001096648243256478 
-0.0003719206507739009 
-1.052241332530923e-05 
0.0001689059847630982 
0.0001451634261864774 
-0.0001703394749322311 
0.0001743967361856461 
0.0001373104659890589 
-6.634259650283177e-05 
-4.442443870638648e-05 
-1.869716161358115e-05 
-0.0001026133406380809 
3.860192524660482e-05 
8.146275962472261e-06 
1.593401399169955e-05 
0.0002024517995051965 
-0.000273856624278698 
0.0001968372690535618 
-5.42305589605663e-05 
3.625718899199312e-05 
-0.0001543675797096283 
-7.881123662842957e-05 
0.0003678116605556262 
0.0004063130772487445 
0.0002257809104738511 
5.692147392744432e-05 
-0.0001119316327514716 
0.0001396719875105176 
-0.000189235119308598 
1.442567307625259e-05 
1.656157687483874e-05 
-5.136539565976682e-05 
-0.000203864020236864 
-5.359543140542845e-05 
1.78975374579209e-05 
-3.20394581108312e-05 
8.73401476426778e-05 
8.186897532451153e-05 
4.305506056022137e-05 
-0.0001421575639763407 
-2.004838275604421e-05 
-1.317082955056592e-05 
-0.000111302051126556 
-1.087565712148755e-05 
-1.768961340982031e-05 
-1.702476411718498e-05 
-3.088743569922898e-05 
-6.726987808984397e-05 
-5.984655722901808e-06 
-3.981051843118535e-05 
0.0001224963666104038 
-9.198627480217807e-05 
3.130781397853056e-05 
-6.953371058776539e-05 
6.551478240167484e-05 
8.189923748097943e-05 
-0.0001344241209044723 
0.0002267141433213737 
0.0002416258727429703 
3.015972627452102e-05 
4.514964574951146e-05 
-0.0001865520027438013 
-4.526147004836243e-05 
3.647881827613073e-05 
2.894741656949407e-05 
0.0002619204547413762 
-0.0001783230790649138 
0.0002334218442680049 
3.400507900281625e-05 
0.0002779677126415379 
8.629194070042438e-05 
1.409962527023745e-05 
-0.0003732658099463057 
6.959505486756453e-05 
1.834176163716439e-05 
-5.443426365049194e-05 
3.313293943198944e-05 
-8.617638572909127e-05 
9.066942087852525e-05 
-0.0002920504413271572 
6.760145090989757e-05 
-6.905838245640642e-05 
0.0001793401054833623 
3.575057945725212e-07 
-0.0002167343662807336 
-5.825954072496715e-05 
-5.825430892617105e-05 
0.000113692704393714 
0.0002112832408569786 
-1.8355104001051e-05 
-2.576465151134501e-06 
-2.322648954129925e-05 
-0.0001345372551217419 
4.272000083805633e-05 
1.486771070225992e-05 
6.701885173443216e-05 
-4.726886845583227e-07 
-5.244474169544034e-05 
3.067084436876577e-05 
5.731554929534295e-06 
0.0003400520627118913 
0.0001077055810159796 
0.0003977762472335983 
-0.0002924634011016689 
-6.874594732956909e-06 
0.0002394276954688097 
8.135537708101111e-05 
-1.083808062257476e-05 
2.179687224258322e-05 
-0.0002180868797941121 
-4.750004542261575e-05 
2.31017279312943e-05 
0.0001648198946534304 
8.95227889468282e-05 
0.0001659693798513406 
-0.0001753993496240082 
6.666302588583302e-06 
-2.356238684298211e-05 
-0.000148964188647541 
-8.232854652263973e-05 
3.630013991164915e-05 
-0.0002219547351992 
-0.0001057611883663245 
-0.0002499677146755851 
-0.0004560245147168899 
-2.693333196770917e-05 
8.998843160399977e-05 
3.057053498324386e-05 
0.001014207877851738 
9.5468414462906e-05 
7.052780027946972e-05 
1.38994122143317e-05 
-2.794340499618073e-05 
5.889883913718225e-05 
-1.958325974349442e-05 
2.784934042080829e-05 
9.115406176074698e-06 
9.898133499694841e-05 
0.0001288405232062131 
-5.001876186427018e-05 
3.972043673336061e-05 
-0.0001461455245921429 
-5.381700118254187e-05 
0.0001342683851796771 
-6.509123791533558e-05 
-4.76153423175023e-05 
-8.17328252913135e-05 
2.714427927429055e-05 
-0.0001066496410613547 
1.84347312134662e-05 
-1.478874358592538e-05 
-2.802784136201616e-05 
8.242606789647363e-05 
6.511687434688124e-05 
0.0004564834992692272 
7.824393580977469e-07 
5.70443916937055e-05 
-7.696707309036525e-05 
-8.241128309394607e-05 
-2.566786913104118e-05 
8.324298227871324e-05 
-5.445807839118259e-05 
0.0002708511392588358 
-0.0003473535000455599 
0.0001513138521301723 
-9.570175468129343e-05 
0.0002556196303343562 
0.0001777168468406958 
-0.0003469023277418989 
2.623144586715115e-05 
-1.82642274617164e-05 
0.0001135467483742049 
-3.456438547539029e-05 
-1.038876791245027e-05 
8.94967606730532e-05 
5.592948758959247e-05 
5.545796575670758e-05 
-9.28193873439639e-05 
8.111296206630713e-05 
0.0001609677563969092 
-1.86202836344643e-05 
4.891641031897285e-05 
2.785892502421735e-05 
-0.0001265664089271264 
0.0002172509341954499 
-0.0001413979874172349 
1.562313946167057e-05 
-2.430372230029716e-05 
-4.573053741731808e-05 
-2.942905975407545e-05 
-2.326553764979534e-05 
-1.771300456837729e-05 
6.463800438269076e-05 
-0.0001444518387598767 
0.000482571035217697 
-3.475365446445818e-05 
-2.579690987102937e-05 
4.752300662551137e-05 
0.0001000971173257207 
-0.0004108534496731107 
3.633607201824055e-05 
0.0001093016394567465 
-5.417793565478598e-05 
6.138535765661935e-05 
0.0002121912127968686 
-0.0002439813519869127 
-1.423217559011242e-05 
2.860104725952183e-05 
-0.0003107705423840968 
2.260788389307073e-05 
2.217292621276743e-05 
-5.992015466227009e-05 
0.0001850749928584458 
-6.377945754695982e-05 
-0.0001807800523427343 
2.005417922333054e-05 
0.000258806121483331 
0.0002092540597906808 
3.361171765101865e-05 
0.0001021316908969249 
-0.0002607156172884266 
-6.909641756512121e-05 
2.737424668419153e-05 
-6.734509751892018e-06 
-7.371411013810918e-05 
6.060372621070266e-05 
-1.177755099831199e-05 
-0.0002178798271663613 
6.066464249024908e-05 
0.000438896331613693 
4.625785798692984e-05 
3.272221588180391e-05 
6.04864616926158e-05 
-0.0002035042397469452 
0.0006722176253111645 
0.0001316203020261385 
-3.40197276859886e-05 
0.0002052567317930377 
9.951156676288106e-05 
0.0001078615521235449 
-7.200501495641824e-05 
-0.0002167618446798045 
7.804416567156325e-05 
2.266968881698568e-05 
-6.250273796204451e-05 
8.436513469245097e-05 
1.431361683069069e-05 
-0.0001375399116177432 
-9.495565975492296e-05 
0.0001145269953249495 
-0.0002598854686168396 
-0.0002609922924179081 
1.855443248935756e-05 
0.0001130484251608079 
-1.178745151544355e-05 
0.0003843797491292712 
-4.683228509990218e-05 
2.950851523271942e-05 
-5.909218241714627e-05 
1.847842273074748e-05 
-8.088246645123017e-05 
-1.66590261412437e-05 
-3.993190353451792e-05 
3.939120597380966e-06 
-7.630522343218007e-05 
0.0001463925434445754 
0.0001698280957773465 
-3.166125467161224e-05 
4.327862810059224e-05 
-0.0003050797274492099 
6.619956504043162e-06 
-5.401552294403011e-05 
6.296124335411133e-05 
-0.0002034641198456653 
-0.0005644178096905502 
3.053397320055987e-05 
0.0001391501024348487 
8.129653779726464e-05 
0.0003504942237427407 
6.280538610546312e-06 
-0.0001250906479195803 
-8.164562342435598e-05 
-0.0001985823498685186 
-4.059902820716246e-05 
0.0001900761284471226 
-9.655599419941713e-06 
7.320108151109461e-05 
-2.743099292985051e-05 
3.393930655577315e-05 
0.0002070768915078848 
0.0001928406666746924 
1.475832507687964e-05 
5.486475147338089e-05 
-0.0001063123453525282 
0.0005026527294482033 
-0.0001838884010327508 
5.023630775751364e-05 
3.755717510417637e-05 
-2.645191320216248e-05 
6.88751919599454e-05 
0.0001423747970775883 
-2.640431972272314e-05 
-5.592065910666776e-05 
-2.539845820140068e-05 
-0.0001743177515059042 
0.0004646777815033624 
-5.16858650550924e-05 
7.03541722203421e-05 
0.0003348885797460446 
2.359533535172458e-05 
-2.924439217223904e-05 
-9.570012241868808e-07 
-2.105992503767924e-05 
9.663832129107294e-05 
-0.000193878215459284 
-0.0003478753822312037 
-8.985452018988521e-05 
-0.0001393834543264691 
6.628842487881774e-05 
1.079779106488385e-05 
0.0001114742586347773 
-0.0002010529894827146 
-8.520118473601266e-05 
-5.537364163471347e-06 
8.382527862468612e-06 
-0.0001306946280466312 
6.749724456250498e-05 
0.0002426368800419498 
0.0002835181512274921 
1.766043588928031e-06 
7.152566961456087e-05 
3.771795097229063e-05 
4.083910711185815e-06 
-1.825470899697982e-06 
0.0001910002581191359 
-0.0003067228458314042 
-0.0001295645348701142 
6.459434693400384e-05 
0.0001400780809226301 
0.0001280940023248928 
-6.005575405781727e-05 
2.950997548062688e-05 
0.0001543126161943569 
0.0002341803234218384 
0.0001204370929296862 
-3.455966699590811e-05 
-0.0002769865479982972 
0.0001989236205532685 
-1.567732214145292e-05 
-3.794668186856834e-05 
-0.0002189969794759054 
0.0001311402842148242 
2.12867576228913e-05 
-9.586352120281283e-05 
9.799530315509204e-05 
-2.367581767496857e-06 
8.79817564507905e-05 
-0.0002722934478302174 
7.59545091184406e-05 
3.788046201690841e-05 
4.903599925675744e-05 
-3.253163091253188e-05 
0.0002640746984640916 
-0.000114514890852313 
-3.295987847605434e-05 
0.0001017743579490219 
0.0001404744587344907 
-0.0001130373841573272 
-0.0002364940736535091 
0.0002854653876425823 
-1.722859080854746e-05 
4.408073837150002e-06 
0.0004376413441664105 
-0.0001640608551549178 
-4.891327654802089e-06 
1.960286670264764e-05 
0.0001417726866830444 
6.459208128157802e-05 
5.904622563617842e-05 
-0.0001780073072099297 
-1.524516769739233e-05 
-7.145249053985648e-05 
0.0001064677056139835 
2.570848336307625e-05 
-3.814579551671887e-05 
0.0001908756768685491 
2.000222686568871e-05 
-0.0003387133079165425 
-5.297071054073991e-05 
-3.278439813741549e-05 
-5.72197320848116e-05 
6.040120246713299e-05 
2.588673701195603e-06 
-4.783782413191159e-05 
0.0001373526897115118 
0.0002597419252055889 
5.222368217090254e-05 
-1.117011080804352e-05 
7.7021736149296e-05 
1.368279838955262e-06 
-0.000129833204374541 
-1.313135664269078e-05 
2.704173492009727e-05 
-5.438637948467959e-06 
-0.0004467713396517234 
-4.126285795836226e-05 
-0.0003480350611681133 
0.0002849883327399864 
0.0003914906995136696 
-0.0002533275439290074 
8.580694487846665e-05 
-4.620721778935685e-05 
0.0007526296643701243 
0.0001667507156516214 
-0.0001095183246250311 
-4.615299907473646e-05 
-0.000318196043894807 
-0.0002163503498856897 
-3.612398032530572e-06 
5.446637252625926e-05 
0.0002142009230733306 
-4.8398130101768e-05 
-0.0001437332500529109 
1.673679722245388e-05 
0.0001317947607608446 
8.367924142712011e-05 
-0.0001245283325784344 
0.0001691105555339325 
0.0002493748046666495 
0.0002508717768284961 
-0.0004532026432426401 
5.641417789625431e-05 
2.973810754566818e-05 
-0.000312612135838855 
-9.803009532166378e-05 
9.358953479977265e-05 
8.540443187624066e-05 
-0.0001243620204401445 
2.176416424778385e-05 
8.565242919306362e-05 
-8.299175369015092e-06 
2.614528365310605e-05 
-1.291627245870656e-05 
1.140371646416854e-05 
0.0003116091844789748 
5.79067884178025e-06 
-0.0003277009453673396 
0.0002074821684650035 
0.0002607410439489803 
-2.770227726454836e-05 
1.062555421423405e-05 
-4.977399858626329e-05 
7.690546444702137e-05 
-7.959175243113022e-05 
6.097562948232045e-06 
-1.761190970717918e-06 
2.719567056389479e-06 
-0.0002560984864739122 
-0.0001557889353002654 
-1.608995437305471e-06 
0.0003344095154423112 
-5.410763307008576e-05 
4.715901122199465e-05 
7.544525773412867e-05 
-0.0002761590963172636 
0.0001180326827234583 
3.411799667086763e-05 
-3.969939759800003e-05 
-2.0968037914786e-07 
-0.0001127408324149018 
-0.0001269232941967731 
0.0001484736463399224 
4.105673518511762e-05 
-0.0002551128130721982 
0.0004707443310235285 
3.833521392432952e-05 
-7.643323004300685e-05 
0.0001165619362479399 
0.0001867812739648969 
-1.31239000036527e-06 
-5.230894180269997e-05 
-4.386152382732451e-05 
0.0002471066696741802 
-4.805043703378961e-05 
7.069755805066724e-05 
-0.0001320081700218299 
0.0002124979247931218 
-8.81854317670806e-05 
3.828144422904991e-06 
-0.0002838330929519821 
0.0004239452323093002 
0.0001160308079485975 
6.057887809459651e-05 
-4.679458031154326e-06 
0.0002135754315950203 
-0.0004656621807726322 
-4.701960990504786e-07 
0.0002340406913601185 
-0.0001353850524713693 
0.0001218053630662175 
-0.0001017073441591041 
1.658604945489283e-05 
-6.057585151185324e-05 
-2.692860861733772e-05 
0.0001305792118349846 
-0.0001253906609644902 
-0.0003399793305223021 
0.0001040731356529335 
0.0001014747916831078 
-0.0003509914988941787 
0.0004679330867469801 
0.0001588914157142617 
-1.37789944952817e-05 
-0.0001749331227909779 
0.0001399182769659173 
-2.502411966276122e-05 
0.0003525306628588399 
-9.942661926760682e-05 
-6.331306260714059e-05 
0.0001445091977654095 
-8.975443056853808e-05 
-0.0005181747310812041 
-0.000268284176558889 
3.278651598707701e-05 
-0.000233431931815271 
0.0003366217654402487 
7.880604406152341e-05 
0.0002732098895511814 
1.138299818627893e-05 
0.0002547846886499353 
0.0001170694455532862 
0.0001413560264202812 
-0.0001483472709729609 
-2.184603931366077e-05 
7.805582847240902e-07 
-0.0001221846385115851 
0.0003946163351784067 
-0.0002169961700711611 
-5.700429017517822e-05 
0.0001714306721392478 
0.0001639236074421417 
-0.0003205453691638489 
9.402363134841482e-05 
-6.089809577971222e-05 
0.0001647892571341778 
-5.844090715469478e-05 
-0.0001276622683730943 
7.69198599790704e-05 
0.0001139303431576989 
4.736898403552694e-05 
9.74655291277957e-05 
-2.722644599610884e-05 
3.441479195376763e-05 
4.132564156846528e-05 
0.0002155543971619035 
0.0001580394270989559 
-8.363233453803318e-06 
0.0001862354387229577 
9.471879671203605e-05 
-4.385512370444779e-05 
-4.463908607533203e-05 
-1.107019120510793e-05 
-3.800655021738163e-05 
-8.261028661430107e-05 
4.680070401416637e-05 
-7.32073102139688e-06 
3.520758160767943e-05 
-0.0001751614630752376 
0.0001041559078369705 
-1.496659712421552e-05 
-2.295506300676479e-05 
-0.0001441164487182409 
-3.576466535942928e-05 
0.0001358331342417302 
-4.837082256501385e-05 
-9.786795828360895e-05 
-0.0002377917116265983 
-7.977006015981755e-05 
0.0003385889736894573 
-4.642268330708554e-05 
0.0002931645929826596 
3.054029017574377e-05 
0.0002026389087136855 
-8.536427713326785e-05 
-0.0002337482332119422 
3.194988214852667e-06 
0.0001402427743485978 
5.827231690308258e-06 
4.69041311337465e-05 
-0.0003695005259750421 
-0.0003528440776446566 
0.0003285354271768375 
9.938883126604022e-05 
0.0003449245943630891 
0.0001374618159223277 
-0.0004261904068265194 
-2.836628800497841e-05 
7.884900136274049e-05 
4.555110156506986e-05 
0.0002008002492856956 
1.842621953113069e-05 
0.0003174570624307803 
-3.480152399395379e-05 
-0.0004258545272848931 
0.0001466994829934135 
3.141986367231841e-05 
-0.000219248578209086 
-4.97395358207197e-05 
6.220015176805938e-05 
-9.370510248068117e-06 
3.672846402004752e-05 
-0.0002120000679320553 
-4.706682709958714e-05 
-0.0001461601437190632 
0.0005036655128402225 
-0.0001043886086023636 
0.000301893326439122 
3.135288648301465e-05 
3.91326414157233e-06 
0.0002465252122553154 
4.873700993111632e-05 
9.17905566144471e-06 
-3.145562242670464e-05 
8.254591204780864e-05 
9.454177108674768e-05 
-0.0001171781800421722 
4.443679137201682e-05 
-2.289499500466846e-05 
-0.0001388671446425564 
-0.0001021701505837371 
0.000384275211233544 
-0.0008555886273165786 
2.468807403234256e-05 
-0.0001957900632313276 
3.78521686035202e-05 
-1.623026042095767e-05 
-2.463154544416589e-05 
-0.000196070956481092 
-4.486990666051731e-05 
9.536258684282425e-05 
0.0005393727653160055 
0.0003104532412586196 
-3.80979904600077e-05 
0.0001268037215644877 
-1.172519955833887e-05 
1.757952022860761e-05 
-8.82712843503529e-06 
3.504977455570952e-05 
9.636741275657688e-05 
-0.000362823788018577 
3.135067329272343e-05 
-6.287150138927144e-05 
-0.0003277788434593385 
0.0003036992796069696 
-1.27385856113247e-05 
1.040511782851679e-05 
0.0001900119999168747 
0.0003262197067314731 
-0.0003940904247506269 
-0.0003191340421493732 
-0.0002669826367234724 
-7.944553203962101e-05 
0.0002072541537694824 
-0.0001531839060676434 
0.0003104983951919505 
-9.422228256745744e-05 
0.0003216248414969456 
2.695353570615221e-05 
9.853541610464022e-05 
2.396161137184155e-06 
-0.000167001509953257 
-8.424774704142188e-05 
3.680501267918185e-05 
0.0005064683764447887 
-0.0001181630703853731 
0.00017716211625248 
-3.151692710335082e-05 
0.0003617379105134636 
-0.0001017586088577042 
0.0002101665666373755 
-0.0001206912485289735 
7.091599421253345e-05 
8.564668286769212e-05 
0.0002117499152297293 
-2.599454330063222e-05 
-1.810372383886221e-05 
2.130558070810596e-05 
0.000195470551337772 
-0.0001410185431328408 
-4.854359910925388e-05 
0.0002000250558756626 
0.0004179511911558766 
0.0001132288259267696 
-2.305676120562835e-05 
3.046551520913706e-06 
-1.12915123064842e-05 
-2.690143439317042e-05 
9.631979876931085e-06 
2.18538839730286e-05 
4.126512172754053e-06 
-0.0001274592016202348 
6.73244000532136e-05 
-6.854122085556481e-05 
9.635155331937599e-05 
-0.0001095501465736899 
0.0001004445665755703 
5.515382367040904e-05 
-8.672696679830851e-05 
4.262561733338721e-05 
2.310313091218352e-05 
0.0001861399436904531 
-0.0002010036354312938 
-0.0006132658631829832 
-9.718620745132211e-05 
-9.555872986216312e-05 
-6.788690602714428e-06 
-5.702343846980351e-06 
0.0002741833527181196 
-3.726817480609443e-05 
-0.0002247912555607952 
0.0001301981168448272 
-0.0003424368033262767 
0.0001221554215812514 
6.503467725675858e-06 
-1.422347294263534e-05 
-4.232010541422363e-05 
6.896519695784454e-05 
9.220324361564565e-05 
0.0006174847000093524 
-0.0001517187826102426 
-0.0002272413384703799 
0.0001809471047098681 
0.00019407776232625 
-5.344569459886377e-05 
-8.443245556281273e-05 
-0.0001803072938444846 
1.510511987940021e-05 
3.554938889307654e-05 
0.0001452594499579446 
0.0001321565165603746 
0.0001778757877476809 
-1.521851535122948e-05 
6.634351294761914e-05 
-0.0001649411453841676 
-9.078852417613149e-05 
0.0001439599761451585 
7.786958669800189e-05 
5.697981844976437e-05 
4.360521160480676e-05 
-0.0001105909691020125 
-4.511740321364444e-05 
-2.630227113813491e-06 
0.0002628241055391915 
4.610088913710423e-07 
1.121193808876319e-05 
6.768640749813852e-06 
1.399193012766561e-05 
-0.000201097069921866 
1.276416583586588e-05 
0.0001104788638383137 
-9.7541077684677e-05 
0.0001010478027695355 
8.826047268196556e-05 
-1.544098772157079e-05 
1.108575408579478e-05 
6.381104721742304e-05 
-0.0003762267397001295 
-6.668257114287252e-05 
-0.0003631942481816887 
0.000127909603147288 
0.0001760333374788002 
-1.41051861309284e-05 
6.64695373780863e-05 
1.810027063761065e-05 
9.814046920228462e-05 
4.447407404430971e-06 
0.0002210441406046814 
4.848290019251881e-05 
0.0001321031443989255 
1.786634906007896e-05 
3.274463026738967e-05 
-6.59213524319136e-05 
-2.477606065373767e-06 
2.298312708790853e-05 
-0.0006626848572764722 
-3.396518653826207e-05 
0.0001986755685148862 
-0.000125700604239542 
-5.09586398224603e-05 
0.0005180757199331081 
-4.746145756203386e-05 
-5.138282941331998e-05 
-1.373658831068214e-06 
0.0001251873655844537 
2.479287421480165e-05 
-3.006789813209813e-06 
-0.0002930190716304689 
9.317407493838956e-05 
0.0001532246489679365 
3.083749538609206e-05 
-3.876037350031119e-05 
-0.0001543715107911107 
6.629851115275004e-05 
-8.234379441881493e-05 
0.0001360517577056239 
-5.526570448683427e-05 
0.0001277355925102844 
0.0001857944533658914 
0.0001793038322035774 
-0.000138156775591272 
-0.0001184957109703974 
2.745762694238202e-05 
2.887370243880897e-05 
5.258287870248891e-05 
4.629980127610604e-06 
-1.108873144211436e-05 
-3.618659682905351e-05 
-9.862971932052982e-05 
3.816626926543237e-05 
-1.057208258021413e-05 
-0.000202704649635389 
-0.0003028612770234468 
-0.0002257311573327498 
-9.526554477314011e-05 
0.0001755283090296484 
7.975803758817158e-05 
1.7672568090029e-05 
0.0001709281628400284 
0.0001815419341847092 
0.0002490608252399716 
0.0002769001496007516 
-2.79080493163074e-05 
-6.242667704607752e-05 
0.0001739097037074418 
-4.201735393179345e-05 
3.169557726183481e-06 
3.491292637772644e-05 
1.951175644616124e-05 
0.00016281068514584 
2.677027245112332e-05 
7.249758855139399e-05 
-2.06672344189421e-05 
0.0002180652000602517 
-0.0002203122575522074 
-7.588294380159935e-05 
5.377363279766847e-05 
3.350744785172931e-05 
1.765003325329615e-05 
-1.605805853009867e-05 
-0.0003330561292736491 
9.421109135747646e-05 
0.0002019280969661964 
-0.0007155017597510996 
-0.0002339080357695349 
0.0001001657753489478 
-6.902349814299858e-05 
4.655744482777841e-05 
1.593707725069637e-05 
0.0002657249187950835 
0.0001959243422364881 
0.0002678341400443124 
0.0003607088983516751 
-7.646762886800451e-07 
-4.789668438214081e-05 
3.58599852044529e-05 
4.762851288267599e-07 
-0.0001762726510591795 
-0.0001987515178021864 
0.0003890138556181119 
0.0002011039717638183 
1.677926385224871e-05 
3.479578857219661e-06 
1.403301586945372e-05 
3.318951351724364e-05 
0.0001885490738024782 
-0.0004905738478920208 
6.170545284472288e-05 
-0.0002350204837815369 
1.665211516293036e-05 
-0.0005861157471362049 
-7.050474821487427e-05 
-7.192736411207449e-05 
2.61311271483355e-05 
0.0002116061666459818 
6.001611310620574e-05 
3.421024781940313e-05 
7.813020415186865e-05 
-5.150007264004126e-05 
2.447872600340754e-05 
1.717800419192485e-05 
-7.183853676468133e-05 
0.0002852957279260729 
0.0001750704477690155 
9.458516748686589e-05 
0.0002883969103054929 
-0.0001018601883587421 
-9.691700953756753e-05 
5.236344852800857e-05 
7.821118634465942e-05 
0.0001210338536120122 
0.0002304134193393024 
-1.465292043144031e-05 
1.176587147334371e-05 
0.0001421460198544502 
-1.55792695011246e-05 
0.0001357804916588511 
-0.0001585363544438942 
-0.0005500241943188614 
6.794393757500462e-05 
0.0001208095917431304 
7.036596016149039e-05 
7.893239770234046e-06 
-0.0002035440522941779 
-1.032244435578345e-06 
-5.143948017089285e-05 
6.565410535625365e-05 
0.0003894644588364113 
4.177631501005956e-05 
6.271218086346081e-05 
-0.0001652256658645393 
-8.205506940212341e-05 
0.0004610679021521604 
-0.0001423149770414534 
0.0001635903066461226 
-3.059558863951681e-05 
-0.000147012453267248 
8.541417181162403e-05 
0.0001366700578438403 
5.453723024372234e-06 
-1.97449637761463e-05 
1.105440266179075e-05 
-9.48486183802909e-06 
9.132771869162275e-05 
8.166840183227482e-05 
-5.278050982915997e-05 
0.0001511038117235152 
-0.0001113217533771799 
-2.841520102419071e-05 
-1.357628416110451e-05 
0.0001153809230948426 
0.0002610592692002229 
-1.124388585645213e-05 
-0.0002041002529351693 
0.0002946114463169693 
-0.0006309057283042244 
0.000244053812080655 
-0.0002283691308557611 
-0.0001032986075538511 
0.0001686177521966542 
0.0002124270750472258 
0.0001886679173522278 
2.734033760650013e-05 
1.242355774676937e-05 
5.434709463778888e-05 
0.0002270479501492035 
-0.0003866272666489734 
-1.67086671140618e-05 
0.0001322850279780091 
-2.246384121814873e-05 
4.036303611684899e-05 
-2.765689112236442e-05 
0.0001208690888322448 
6.126388014841768e-05 
0.0002235414875830415 
-4.769433743922619e-05 
-0.0001269876696623445 
-6.254902017311917e-05 
-7.14735025914914e-05 
2.240923923627561e-05 
-0.0001258449857518822 
-0.0001054302680947659 
0.0001040259863222409 
1.431054000593496e-05 
-0.0001678821294889619 
0.0002282120896489696 
0.0001487240783115904 
-0.0001257196042255311 
1.225881531981141e-05 
8.493618606437609e-05 
-9.598510102217818e-05 
8.303810066110433e-05 
-2.809591012835962e-05 
-2.651394310000586e-05 
-0.0001030166681332098 
-0.0004142200991711222 
-7.460454383918636e-05 
0.0002931834523743861 
-0.0004621487187059687 
0.0004190820786250958 
0.0001895790780686118 
0.0001731166682249724 
-0.0001096741559809415 
-1.044239002796202e-05 
2.773907496652324e-05 
0.0004756870386078042 
-0.0001149404418480028 
0.0001349105835903957 
-0.0002123656837107218 
0.0002185472089265955 
-5.735471017641195e-05 
5.152698235021575e-05 
0.0001824375258693934 
0.0001031338873292939 
9.642031090139393e-05 
-6.24163033123151e-05 
0.0001911891538426875 
-0.0001084577024574847 
-0.0001410570484122255 
-0.0002398940983225976 
0.0001467718976337748 
5.715748858060495e-05 
0.0002690660060544727 
-0.0001608086652858499 
-0.0001662961956941034 
-1.573337258764521e-05 
0.0001000875518886749 
5.589648451143006e-05 
-3.941834472070734e-05 
0.0004959507906450275 
-7.481993860675702e-05 
-2.06624796213868e-06 
0.0001113955488863016 
7.916163685626859e-05 
-0.0001758639061204507 
-0.0002210786857598105 
1.849976363681745e-05 
6.815076159359025e-05 
-0.0001640525850357241 
-3.710513496253544e-05 
-5.365211099007125e-05 
-4.675260770535705e-05 
0.0001067316966819243 
5.206105168753465e-05 
-9.632290173982031e-05 
-0.0001276047877738392 
0.0001015136403606635 
-0.0001549610925015247 
-4.970014655177646e-05 
6.301234741133329e-05 
-1.348969995659567e-05 
-0.0001571289181521508 
-0.0001493808090173839 
-0.0002277549148254207 
0.000117902866181252 
-0.0003743574303369385 
0.000286187828954732 
0.0003632653703738285 
2.167696940316293e-05 
-0.0001195321026293751 
8.643601922825901e-05 
0.0003229019209448994 
-9.571488816122416e-05 
-4.273975908499495e-05 
-5.645996260313878e-05 
0.0001694077316039201 
-0.0001117232905258283 
-1.068088506548945e-05 
0.0001664068039277303 
0.0003117185743974754 
7.361475951118193e-06 
9.565065760856773e-05 
0.0001628876265536512 
6.550405945956048e-06 
-4.686135109485189e-05 
-2.382869016277585e-05 
-0.000231665526256551 
0.0001208104123114391 
7.165372646337955e-05 
2.861343840691014e-05 
0.0003721810104037344 
-0.000154045379856553 
0.0001344329380297003 
-6.82755647407586e-05 
-2.204179825502293e-05 
-9.370598905143167e-05 
0.0001343493667080306 
0.0003505611244357608 
4.439229240392703e-05 
7.432902018457663e-05 
-0.0001173814073866722 
2.246202177878764e-05 
3.764368842917363e-05 
-0.0001625197243409552 
-7.049429085797225e-05 
9.436339675388518e-05 
-6.302179573989912e-05 
8.708847106234774e-05 
6.567368929397904e-05 
6.924036654573507e-05 
1.032107716904253e-06 
-0.0002647399482905093 
-0.0001286321970775891 
1.877199951911775e-05 
0.0003334160194672849 
-0.0002517604127248093 
2.255662613378886e-07 
-8.318012933873887e-06 
8.739023684597765e-05 
-7.865146709430585e-05 
-1.081680876097964e-05 
2.012336863983812e-06 
-3.114660410643832e-05 
-0.0001260538106120299 
-0.000119134552627258 
-0.0002328561534879238 
-6.127758052684613e-05 
0.0003090654234822101 
3.295058011108154e-05 
0.0004459544560979774 
3.27342411579226e-05 
0.0001794127518148102 
-7.850170190385268e-05 
0.0001831893876166738 
-3.115830075919524e-05 
-0.0002104886682381418 
-1.578052023050326e-05 
-0.0001601483928444113 
-3.121049172692932e-05 
1.393595963314791e-05 
8.842302009246951e-05 
0.000289549537646021 
0.0001627033258209549 
-2.36942184110353e-06 
-0.0001663974458471102 
-0.0001450874227619578 
-7.74778098459748e-06 
6.223449007658521e-06 
0.0001278670078671082 
-2.79459810409906e-05 
8.488269545038642e-05 
-0.0001952787985008682 
-0.0001155157870298026 
-0.0001117887067696977 
2.402544642639746e-05 
2.932594001497191e-05 
0.0001641767876851102 
-5.245133079565687e-05 
0.0002108779724855007 
0.0003631683686552339 
-7.437907347543707e-05 
0.0001466816176148813 
-1.208134480369093e-05 
-5.662697780708294e-05 
-7.011470358686761e-05 
-7.345251849286091e-06 
-0.0001090918966135968 
-0.0004381115602482084 
0.000187800283530251 
5.572633806367573e-05 
-8.221803764723761e-05 
5.793060669278395e-05 
-0.0002145812643725874 
0.0001059184514759902 
-0.0001027951244115376 
0.0001230163987520446 
0.0001147452830612963 
4.756523009516776e-05 
-3.06899054146748e-05 
6.202249607972193e-05 
0.0005672949058743501 
-0.0002474504499681116 
-2.747437739023058e-05 
-0.0002037939810472875 
-0.0001213545976894052 
0.000255090220091347 
4.553071338053323e-05 
3.552441904692048e-05 
-0.0001879592924111922 
0.0001261701260578774 
0.0001231486883886213 
-0.0001216286340064644 
5.765238623072931e-05 
-7.955071834443978e-05 
-0.0003257308277235996 
-0.0001261937434495056 
8.123424216459885e-05 
5.648312813693296e-06 
0.0003799743104534619 
-2.594814378535718e-05 
-9.402668978225452e-06 
7.301239936160989e-05 
-6.245487536413362e-05 
0.0001280107808084111 
-8.618491940292102e-05 
1.56675922706232e-06 
-7.731777539016184e-06 
-2.568536438560893e-07 
0.0001715586844151713 
2.819261146650575e-05 
0.0001339089945922654 
0.0001476936549189079 
-0.0001751885839318336 
0.0001915752999531694 
-4.049052259890635e-06 
-4.998788922057137e-05 
4.23233276898913e-05 
4.097856688921526e-07 
0.0005017496681607328 
0.0001772733018061433 
-0.0001235942881206894 
0.0001397302245227611 
3.169395795841372e-06 
0.0002175543022550617 
4.080363622845313e-05 
-0.0001091647016031272 
0.0001575814962407185 
0.0004249344377693553 
6.364979988997205e-05 
-0.0003370323212600685 
-3.508399206989167e-05 
2.499777411739567e-06 
-0.0002073963421024969 
-0.0003589776821950731 
-6.723564656366461e-06 
3.810590787525469e-05 
-3.641938799714556e-06 
4.298574334295657e-05 
0.000131983754529845 
-2.694447010369954e-05 
-0.0002052931697404424 
-7.076430988312041e-05 
-1.474051799361002e-05 
-9.86674512336689e-05 
-4.227965135666442e-05 
0.0001342253920748901 
6.61452353836403e-05 
1.078311488730132e-05 
-8.016033672300793e-05 
-8.601949818396704e-05 
0.0001108269399371223 
0.000154169422310948 
0.0001094511780949938 
-9.121899738384216e-05 
7.635154990558597e-05 
4.095671451562404e-05 
6.261380609182855e-05 
5.078184401499152e-05 
-6.389723777020225e-05 
0.0002793662367782631 
0.0001168170568886952 
0.0001506106822182186 
0.0002478741805159805 
-0.0002018586047215111 
2.139068953709312e-05 
-0.0001188079557008467 
-4.043092397182005e-05 
-0.0002065436790591827 
-0.0001009530561292863 
1.336293278065566e-06 
5.515684745952071e-06 
-1.65844322311897e-05 
-6.771167771680224e-06 
0.0001564529620854618 
8.296166894478779e-05 
-2.975265646339281e-05 
0.0001048979260152057 
-0.000381666031376416 
1.624864564599453e-05 
0.0004804666877504412 
4.857120759764932e-05 
0.0002039849392395971 
-5.644954865025855e-05 
-0.0002292857140388253 
-0.0003616842254410586 
0.0001045205963575576 
0.0001109879911203687 
0.0005199213534444879 
7.848508291084502e-05 
-5.562116042337298e-05 
5.699468487496873e-05 
-5.867218697376806e-06 
-8.953780523583722e-05 
9.467832272506084e-05 
4.682090226075362e-05 
-0.0002599629272941078 
-3.97608706976163e-05 
-0.0002155987482442798 
-3.223257589726183e-06 
9.266509829675902e-06 
0.0002041115547781353 
-0.0001386509280746304 
-8.439717378995756e-05 
-1.756409938709517e-06 
-0.0002112159306110972 
-5.526986677796843e-05 
6.476224546157362e-05 
-0.0001047309134691657 
-4.250640268057803e-05 
0.0003403369863208693 
0.0001270521119212967 
0.0002947969428742864 
-1.672306206850157e-05 
-6.821633026810754e-05 
8.010702914001665e-05 
3.958407469144538e-05 
-0.0002222485766244145 
-0.0002159610261195937 
4.855084364094343e-05 
0.0001350726543668303 
-0.0004427329078373272 
-5.457540670081451e-05 
-0.0001566918703444076 
-7.242276628867454e-05 
0.0001524545473975547 
-5.507350476524825e-05 
2.540293084375648e-05 
7.706338002372353e-05 
1.111910284368383e-05 
0.0001588018504474742 
-0.0001836301101817214 
-8.535177131606075e-05 
0.0001098987591556181 
-0.0001294949735509048 
0.0004604188893703803 
3.558988485562305e-05 
0.0001102988498812953 
9.358746021425357e-05 
-6.537228355365767e-05 
3.244811620064255e-06 
0.00026079386110742 
-3.070478611281064e-05 
-0.0001616909078211062 
-0.000147864869181278 
6.440648314280488e-05 
-0.0001274026008542521 
0.0003158298161332942 
0.0001353947542098684 
-3.563247756969653e-05 
0.0004918736614195874 
-7.322445354739062e-06 
-6.47475635894646e-05 
8.410409744889893e-05 
-1.253755244312348e-05 
-3.508799211942013e-05 
-0.0004716827636735956 
-9.778792090862054e-05 
-0.0002093582926789762 
0.0002010899423541781 
8.88200681569282e-05 
0.0001925296623124209 
0.0005181563344602729 
1.476280053338837e-05 
0.0001737479012947619 
-0.0001739045765922888 
0.0001714904004351716 
-0.0001306076731550016 
-0.000357982445458393 
-0.0001270418343267119 
-3.514973192088769e-05 
-2.404607431495856e-05 
6.277088659835976e-05 
0.0001646140494915787 
-3.510452736558571e-05 
-0.0001836339296591049 
-2.148817763166202e-05 
-0.0001696284043439327 
0.0002341408752296727 
0.000182056080785163 
1.757538939637524e-05 
-0.0001216482185940864 
4.841854635396919e-05 
3.117593972416801e-05 
8.929739372578808e-05 
0.00031841203479356 
3.663012940800533e-05 
0.0001894951003253765 
-1.822597403707149e-05 
0.0001343708337588149 
-2.70095719832166e-05 
-9.112006145264845e-05 
0.0001343018823051703 
-6.236689308379555e-05 
9.493906732611823e-05 
9.291796428525651e-06 
-5.050701690444871e-06 
0.0003352201310206551 
-5.343447170622538e-05 
-7.333592805999892e-05 
-9.750268787239076e-05 
-0.000236736737525333 
2.36653760216581e-05 
-0.0001177733537742336 
3.454301053395637e-05 
-0.0002048073782148466 
-5.13248884456558e-06 
0.0003636334843831416 
3.798609901919012e-05 
0.0001280454306386757 
-0.0006277549902006023 
4.49751961931674e-05 
-4.121496582518987e-05 
1.092086080221806e-05 
9.930813750108073e-05 
-0.0002607930628321992 
0.000316624668284555 
0.0002072437307523668 
3.359018944257143e-05 
0.0001708754468818419 
0.0001976189441906952 
0.0001200854720284937 
-7.846719025505034e-05 
0.0001005546705139943 
-1.416599264738883e-05 
4.858326913423472e-05 
7.047739923560587e-05 
1.754239850080876e-05 
-4.533659472041639e-06 
-2.408471065831849e-05 
4.354868480367743e-05 
-6.857017706460231e-05 
0.0001523388414932127 
-2.871073703970063e-05 
0.0001206958611486625 
-0.0007478179785519962 
-4.968111420255232e-06 
-5.864430584938732e-05 
9.971570553195453e-05 
0.0001299242059578833 
-0.0001146040996310707 
5.745368024724962e-05 
-1.859077816434526e-05 
2.003463435573011e-05 
0.0003101606081304624 
2.882147985062951e-05 
-3.670028909273993e-06 
0.0002065331550547612 
5.199972636901914e-05 
0.0001661093830760996 
-0.0002606039126947878 
2.013766721666793e-06 
1.937433471776106e-05 
-3.613291363520238e-05 
0.0003991136150572576 
-0.0003053790018529326 
-0.0001902642253797237 
-7.896262778736623e-05 
-0.0001423240972804585 
7.018210705778842e-06 
5.172875709598215e-05 
4.589235879855838e-07 
0.0003682542669418716 
-4.555853251886652e-05 
-3.365787368632799e-05 
-5.992793151680714e-05 
1.900662799748505e-05 
-0.0001567494695324038 
0.0001319850482147349 
-6.057002621973141e-05 
-3.835629660964181e-05 
-1.147385056709876e-05 
7.170726644543803e-05 
-0.0001809494750059028 
-1.583385574366957e-05 
0.0002030020283360979 
0.0001391932295765643 
0.0001402532172023972 
-0.0001396478352418674 
-3.090806148533499e-05 
-8.467939300694579e-06 
1.28452588349316e-05 
-2.350582426593295e-05 
0.0002329248739117198 
-2.028610126824836e-05 
0.0001275553757260734 
7.110142311556134e-05 
-5.778922876338958e-06 
1.339256662144159e-05 
-0.0001381710114878671 
3.9466504244871e-05 
-6.993407819531704e-05 
9.570551237047658e-07 
0.0001328137585646116 
2.965341423896713e-05 
0.0001405876364519422 
0.0003096117877186544 
-6.175631380474411e-05 
-0.0001446682154352085 
-5.215829874096854e-05 
-0.0002906714627470859 
1.480892719896681e-05 
-6.102446848224375e-05 
8.781768866488178e-06 
0.000119616925207143 
0.0002185520094137701 
5.161152065997655e-05 
-5.107744116197647e-05 
4.040118451799003e-05 
2.677667568388121e-05 
-6.522321286027842e-05 
7.018496857641832e-05 
0.0001148721839115712 
-0.0001229630045667493 
6.077156904863657e-05 
1.803400554860611e-05 
2.558085076223302e-05 
4.707003936198577e-05 
0.0001686339490816167 
4.436009724975217e-06 
-4.560934467090888e-05 
-8.06248460903428e-05 
0.0001253789296922006 
-6.296460359937502e-05 
-7.995650113493519e-05 
-2.387846521923662e-05 
0.0001484124406527942 
-2.57186915006942e-05 
-1.579629332409907e-05 
-2.163815014425397e-05 
-3.341302194157597e-06 
-0.0002109206564342603 
0.0001643522396832413 
6.739371177501455e-05 
-0.0002465098606038532 
-0.0002867048224256582 
-0.0004335898933036653 
0.0001922832509509744 
0.000660698350816609 
-0.0002801120298662059 
6.538621947926766e-05 
0.0002129569346558258 
0.0002143150147834247 
1.016119706065598e-05 
-5.290417091746329e-05 
-1.909220638940066e-05 
2.078309706641167e-05 
0.0002393270663140029 
-0.0001646755093330191 
-1.436077441895477e-06 
0.0002794032688097893 
3.21114093022298e-05 
-2.426249325998575e-05 
2.929099567793213e-05 
-8.897660966506435e-05 
6.836622495709618e-05 
3.674325346436281e-05 
2.159895814039591e-05 
-2.468355770392242e-09 
-0.0002915555227350393 
-6.849900009771944e-05 
-0.0001067248437818464 
1.69190456195635e-05 
-1.634565886584806e-05 
-6.164847205075478e-06 
9.666584973470141e-05 
6.867462547382447e-05 
-5.734528400695513e-05 
-3.669015461811184e-05 
-5.825742893904856e-05 
5.014679606807425e-05 
0.0002103746234415335 
-3.304940528132586e-05 
-0.0001431854008037931 
-1.947800270055263e-05 
0.0001205797425446213 
-7.421316094645515e-05 
0.000168763875555485 
-0.0004047405543341017 
-0.000211676532275159 
0.000143532931137508 
0.0001781436929539275 
0.0003913004311779761 
7.6938188664937e-05 
7.28769459651059e-05 
-0.0004799551518148276 
-1.066750758458352e-05 
0.0002149680088269086 
0.0001004779537407589 
0.0002385437141119027 
-0.0002363160365405471 
3.106505297176277e-05 
3.050613779977292e-05 
-0.0001124463864698682 
3.779969992632893e-05 
0.000128671738672476 
6.656590281101773e-06 
-3.982530038751512e-05 
0.0001411387915260817 
3.252186988680412e-05 
9.885608492158717e-05 
1.505146936630553e-05 
-0.0001628930943831233 
0.0002121474894302599 
-0.0001201100845440078 
2.830946896207114e-05 
-5.053415404383336e-05 
-4.049880643947229e-05 
8.343303308676403e-05 
1.814707624310024e-05 
2.067382924659677e-05 
-0.0001424036837399787 
2.234700290708305e-05 
-0.00019860931099813 
-0.000175714489975353 
-0.0001396287528020335 
-0.0002592832666043902 
0.0001635198984618475 
0.0001390955703239814 
-0.0003409359012481122 
0.0005418467578518242 
0.00010805110467599 
4.602195746234495e-06 
-4.163663736760364e-05 
-4.935918364745529e-05 
0.0002795162910230456 
0.0002723280154053334 
7.135846847982194e-06 
4.570469907917812e-05 
1.830139726957251e-05 
3.465687372135348e-05 
-7.068906668677569e-06 
-0.000109598721245383 
-1.505027416055062e-05 
-0.0001144313210059185 
-1.408494074133758e-05 
4.893269243352299e-06 
0.0001051701109772304 
-2.813414630305989e-05 
1.713648859739365e-05 
3.076505526850636e-05 
-4.258304464265933e-05 
-1.955041479575282e-05 
0.0003897242689949443 
0.0001157448470665357 
-5.716609713725721e-05 
0.0001629131170093057 
-1.042721713570366e-05 
-0.0001280274124343925 
-0.0002248533347255201 
0.0001000547852946998 
3.295217590011595e-06 
6.323745635362048e-05 
0.000170756413443064 
0.0001358299410089265 
1.085682521869906e-05 
-1.488102749729621e-07 
5.163445294819597e-06 
5.029600878267184e-05 
0.0001087017328896341 
-0.0001884555003114055 
-0.0001013978936934055 
1.107766090599882e-05 
-8.636887322746938e-05 
-0.0001887253513611191 
9.492169783683436e-05 
0.0001964931584066429 
-3.40137013292803e-07 
-8.97271658534925e-05 
-2.169578205059318e-05 
-6.817792930370429e-06 
4.031227382416527e-05 
-6.1356570180972e-05 
5.620638888117099e-05 
-2.888394792355662e-05 
-3.12947841035408e-05 
1.542225063810275e-05 
6.059269859251522e-05 
8.786502391880209e-05 
8.744975234986194e-05 
-0.0001514286302475009 
0.0006084952705914077 
-0.0005092199750299441 
3.147039984796604e-05 
6.104265999283086e-05 
4.320219324399475e-05 
-1.247115601331103e-05 
0.0001316147602166931 
4.176831607785331e-05 
0.0001192034891538106 
4.170363059006178e-05 
0.0003105662371668889 
-0.0002916170878374471 
-0.0006846333310717411 
0.0005608889921781633 
0.0002416987441683935 
0.0001551255605896921 
0.0002945810815396986 
0.000168973021488666 
-0.0002378675879697961 
-0.0001013462652284945 
0.0002988778588276772 
-9.822724740015159e-05 
4.280299309593035e-06 
-5.010791342084847e-05 
1.302535119785845e-05 
-4.849978482972214e-05 
-8.596265236279783e-05 
-6.001189456444503e-05 
-0.0002392314114936962 
0.0002010794466231492 
0.0002687103238988218 
-0.0003116199365881592 
0.0002206034823379798 
6.220613396011948e-05 
-6.636024819588296e-05 
-1.349022106478305e-05 
2.645599886092593e-05 
5.803415129755853e-05 
-5.148043752531277e-05 
3.347194967386495e-05 
4.995515263676873e-05 
-5.830262738145251e-05 
4.216508606109856e-05 
-0.0003313571737814685 
4.224672018959558e-06 
3.503569597960598e-05 
-0.0006287912541213753 
-2.136096007788587e-05 
0.0001026234627404063 
-0.0001478302265512313 
9.281912137731976e-05 
0.0001698593109593791 
0.0003171994634676509 
-1.129606674745985e-06 
0.0001078125260085247 
-6.644096412524758e-05 
0.000115779145213544 
7.396126308760574e-05 
-9.525008638191812e-06 
2.027164542678384e-05 
-3.867503757294015e-05 
1.626338539510021e-05 
-8.665639206217871e-05 
0.0002363484498343068 
-2.838780495991177e-05 
-3.30979062812141e-05 
-1.729962314152927e-05 
-6.480116328453786e-06 
6.671337387092768e-05 
-7.570411952924553e-05 
4.971477216489683e-06 
-1.436491973776532e-06 
4.967315949184055e-06 
0.0001114243026717678 
-1.283910839061901e-05 
1.64199354345374e-05 
4.935000074148177e-05 
9.350904969695596e-05 
4.713518396291872e-05 
-0.0001910033773650006 
-0.0001530120116139147 
0.0002822906183906199 
-0.0001618931989018354 
0.0001890809180244038 
-3.283871664564243e-05 
0.0001959931258584941 
2.482267400128866e-05 
0.0002129447448372079 
0.0003744905408491556 
-0.0004491110368820397 
-3.575920969150715e-05 
0.0001282478294844034 
-5.95682704740477e-06 
-0.0001029940768054605 
-0.0001905157061450659 
-7.257664696728121e-05 
0.0002989438565699275 
4.626422453346471e-05 
-0.0001221612326785615 
-2.15022562631637e-05 
-7.69236249532776e-07 
2.357000948034688e-05 
-0.0001230000206916952 
-3.767670591006814e-05 
-0.000124236077021973 
-3.954528785307668e-05 
0.0001342266331039196 
0.0001110946311575533 
0.0001129807626560859 
0.0001071044804868549 
-0.0001150454904506143 
2.664693550777281e-05 
0.0001882673479739734 
4.022356961219059e-05 
-5.05619020298121e-06 
-8.594236421002337e-05 
6.12485071489381e-05 
-1.880372016313983e-06 
-5.102352494686381e-05 
0.000104957544378939 
2.304682676750583e-05 
1.429602008900493e-05 
-7.466366154119963e-05 
0.000245492221007862 
-9.222173390524606e-05 
-8.587397714085422e-05 
1.586942299243901e-05 
1.924258407791746e-05 
7.389668417455464e-05 
-3.645065517691169e-05 
0.0001332410528437758 
0.0001032649533309438 
2.784481518193018e-05 
-0.0002388664834193537 
-1.305146706080458e-05 
-1.851675855742541e-05 
2.462368337828298e-05 
1.345884984397849e-05 
-1.305674966552207e-05 
2.232973282952452e-05 
1.598577465199279e-05 
0.0001023515111660087 
5.589327412613401e-06 
0.0002164621089363785 
0.0001365172118651683 
-0.0001858237106086967 
0.0002241952490663329 
5.654005399058088e-05 
-2.625037043992546e-05 
5.449456064510474e-06 
-3.103359802721832e-05 
0.0001103363777608284 
3.285606658610048e-05 
7.526890254283533e-05 
0.0001336498912877426 
-3.539642539328386e-05 
-0.0001107278657916277 
-0.000196404622124239 
1.387471320119892e-07 
4.572166088752961e-05 
-8.556825854387461e-05 
-4.727589396960104e-06 
5.190810657911624e-06 
-2.861388742722622e-05 
-6.657722455666257e-05 
2.38883628900027e-05 
-9.005956428313544e-05 
5.894554674145335e-05 
1.609302319101085e-05 
0.0001164933389346026 
1.894663735079847e-07 
-6.107184427607788e-06 
-6.17178103090892e-05 
9.012111767184349e-05 
-0.0001317687382415805 
6.584149014123928e-05 
-9.318920569630141e-07 
-0.000190703523206011 
-5.45745505892882e-05 
0.0001299578275571578 
-0.0001235353470980298 
1.769337908734479e-05 
0.0002072092541094189 
4.433813724740835e-05 
2.820112338553656e-05 
-4.310506924329902e-05 
0.0004670620636261002 
-0.0004334017153348886 
-3.917634545868488e-05 
9.268593691960368e-05 
-4.648680511920265e-05 
-8.366676482378113e-07 
0.0001844407254810822 
0.0002491759951256075 
7.697048438121284e-05 
-7.791085174720397e-05 
0.0002499311997146448 
-0.0001560047210834651 
8.47662062250703e-06 
1.119766863894996e-05 
-0.0001809081625130932 
-1.75931494198899e-06 
-5.931821067547241e-05 
0.0001503575738595859 
-0.0001077898760576947 
8.931091978112008e-05 
-0.0002569861112531421 
0.0001025032131941925 
-2.437206518020024e-05 
9.054964639587245e-06 
0.0001128916894363831 
-1.964006297228668e-05 
9.774690556266376e-05 
-0.0002494551836723376 
-7.656376862014223e-05 
-0.0001031090177261705 
4.184614865910488e-05 
0.0002157482746877283 
-3.152400930376372e-05 
-2.057084817832031e-05 
9.408976655622699e-06 
5.200136365376727e-06 
1.893420694354717e-05 
0.0004158678470145154 
-1.033311885636678e-05 
0.0002740911123796411 
3.804777105293484e-05 
8.939233341793671e-05 
0.000483282143305573 
-7.111027825066584e-05 
-0.0001131113070312553 
-0.0001132314251329314 
-0.0001745082543646028 
-0.0001829577654940259 
-4.322067133625558e-05 
-4.164719794306496e-05 
4.32716129924969e-05 
-3.076423283539866e-07 
0.0001148065737359039 
0.0001470915584563737 
3.862951084581577e-05 
-0.0005245995236780142 
9.41588120907825e-06 
4.310349992807694e-06 
-0.0003112895146317338 
0.0004522507414906923 
2.26524267723401e-05 
7.346928383232964e-05 
5.689632157066481e-05 
7.739480558834168e-05 
2.15551697177959e-05 
9.838806479757409e-05 
-2.741022331006491e-05 
-3.18799695324779e-05 
-7.448593091953345e-05 
-8.458131761442841e-05 
-1.434572450365612e-05 
-9.767409689393701e-05 
-1.112308719077534e-05 
2.360857969734823e-05 
6.78966111003869e-05 
0.0001621405625910046 
-7.983337092748188e-05 
3.781949517228338e-05 
2.721534231385719e-05 
0.0003193583026958754 
-0.0002392093545641408 
8.007891075705155e-05 
6.613023713655969e-05 
1.996199295557424e-05 
-6.722293988772544e-05 
-4.599138452448973e-06 
6.246499445342667e-05 
0.0001992266548365462 
-0.0001614939897868673 
4.103874396540225e-05 
-9.408911756614034e-06 
-0.0006058665673628051 
0.0002622968702480303 
-6.98794111469779e-05 
8.067609104240412e-05 
0.0002486911554908148 
-2.966859589786548e-06 
-9.557481604692825e-05 
0.0001792889541161531 
0.0003487156753604482 
-2.721070760904007e-05 
-3.333369586529638e-05 
0.0002484172095126079 
0.0001208403894955969 
-5.300849058860586e-05 
-4.386885313576409e-05 
1.791515266983214e-05 
-2.35298933683708e-05 
7.701255843122565e-05 
-0.0001245026362446944 
-6.408481304910441e-05 
4.112410480947555e-05 
-7.19060012988708e-05 
-5.210178992267073e-05 
-6.189594894886084e-06 
1.36791642389075e-05 
-4.868836370539465e-06 
-6.982415068422779e-05 
-1.765370141561209e-05 
-0.000120469346032216 
2.818863680811041e-05 
-7.1362423467032e-06 
7.557924520381771e-06 
-1.153737649939151e-05 
-0.0001659946447923399 
-9.941972963513666e-05 
0.0001373825328147252 
-6.771285055932518e-05 
0.0002104661973480425 
-2.878884056962004e-05 
-0.0002849924183653949 
9.396249944807546e-05 
5.225291509217122e-05 
0.0002667678253312972 
1.162477692469706e-05 
-7.664780040536803e-05 
1.303478599317686e-05 
1.721386700754307e-05 
-0.0001355785586875195 
0.0002032917064033812 
7.82184645417478e-05 
-0.0002530516372245537 
0.0001870769058877228 
-0.0001459329440884735 
0.0002405451417995426 
-5.581112207411821e-06 
0.0001337582889449565 
0.0002384863296816834 
2.539140034882954e-05 
-0.0003789323182594154 
-0.0001671659859449975 
4.86048466375888e-05 
-9.156615322880928e-05 
-0.0001007032629217006 
0.000284174158769616 
3.650084982969899e-05 
0.0002117613316248443 
-2.647502759281058e-05 
0.0001382049840476786 
2.171608562915944e-05 
6.80771020341975e-05 
1.186163519311115e-05 
0.000227021638447167 
-6.107045150007981e-05 
-0.0001589650941922759 
-0.0002030809285229655 
-9.748848689175646e-05 
2.465637154446984e-06 
0.000368823362815993 
7.108824561219842e-05 
4.058127140264395e-05 
1.987392081761703e-05 
0.0001544109602339876 
-6.94992044447309e-05 
0.0002676299439538748 
-0.0002101876881894534 
-1.960144303437679e-05 
8.00140261882354e-05 
-7.917040614287423e-06 
-6.090970673981169e-05 
0.0001295832760574742 
0.0002719672102261912 
-0.0001955172261457362 
0.0001759012242789618 
-0.0002533316013680156 
1.959119272163434e-05 
-4.387679882815914e-05 
2.810774778004879e-05 
-3.309765058309385e-05 
0.0004107962233930987 
-0.0004247039891459374 
0.0001350394622552064 
1.13753076777153e-05 
-0.000123332117951989 
5.49512544036406e-05 
7.550611762825657e-05 
-2.480493671027152e-05 
8.745423736405923e-05 
-0.0002142020190242327 
-3.265247060458805e-06 
0.0001775055427462672 
-7.310725044489596e-05 
0.0001376775942106505 
4.966244021101741e-05 
9.368987844376527e-06 
-3.361163377653219e-06 
0.0002538529134300126 
9.554395328063369e-05 
4.67334148374619e-05 
-0.0001215275662204429 
-0.0002275981745441262 
-4.253750278273474e-06 
0.0002483734054572376 
0.0001473075208287184 
-4.334766582533586e-05 
-0.0001109954469266493 
-7.633465609979037e-05 
9.69493518939949e-05 
-7.49580016011461e-06 
2.105008270986321e-05 
-1.094275490280547e-05 
-0.0001011687321334186 
-0.0001209939246850498 
-4.415759879543205e-05 
3.272976879154273e-05 
0.0001312494378839467 
-8.22098135619663e-05 
7.646085640887029e-05 
8.311512960615303e-05 
-6.741397498813268e-05 
0.0001935405391488118 
1.037880348253347e-05 
-5.270808731709078e-05 
2.215364292972507e-05 
2.904394601110461e-05 
-1.745414469386051e-05 
-9.221320303494779e-06 
0.0002657495853937249 
-2.668596756551259e-05 
-4.826354534052352e-05 
-1.693667855275441e-05 
3.324549915264462e-05 
-1.115790321265067e-05 
-0.0001192209459708716 
9.375384004229263e-05 
-0.0001507141135230217 
0.0001402975724888926 
7.491497633149021e-07 
5.493004203109576e-05 
0.0004943247234671929 
5.268550099604196e-05 
3.636801503955654e-05 
7.904939687255561e-05 
-6.113468275542331e-06 
-8.088835333246642e-05 
6.008232764266105e-05 
-0.0002609256188350882 
-8.64746215231933e-05 
0.0001109027596310942 
0.0002034318496633328 
-1.749230717569585e-05 
-0.000362751721922056 
-4.006343609527317e-06 
1.368267626290494e-05 
-6.65693084366894e-05 
-1.14001833224457e-05 
-7.800549656925813e-06 
-0.0001191715300628954 
-4.716076446832889e-05 
-7.253267895523892e-06 
2.565890282679373e-05 
3.647673849293198e-05 
-2.985036290734283e-05 
0.0001575919475129194 
4.237929566720397e-05 
8.084638520938183e-05 
-7.850594096811939e-05 
6.520180864100739e-05 
0.0001257957417972441 
-0.0002007208209546897 
-2.428720048554395e-05 
0.0001343557133063918 
-5.246210524429587e-06 
-0.0001356326136382137 
0.0001387198571854305 
-0.0001445222891173383 
9.170960052857405e-05 
0.000131040410452953 
-8.796680928421558e-06 
-0.0001452182386586474 
6.532930838448894e-05 
0.0002190095209461437 
9.901830594737414e-06 
-0.0001318289697823474 
0.000216442806676419 
-0.0002136091057813565 
5.591889757570783e-05 
0.000345592664817153 
1.207629112406372e-05 
0.0001048551668076501 
1.762753279545099e-06 
-7.601740973996535e-05 
-0.0001521708507173332 
-5.415276979940488e-05 
-8.31540815525169e-06 
-6.394220813007926e-06 
3.876904801903057e-05 
5.35759185909493e-05 
-8.577190242315137e-05 
8.410818985300222e-05 
3.02337847073166e-05 
0.0001930868486530224 
2.182479087810658e-05 
-5.994598266205851e-05 
-1.262553217801799e-05 
-3.687408206267218e-06 
0.0001658275926800175 
1.986837814781949e-05 
-3.46734310895468e-05 
-2.242908522762072e-05 
0.0001030113081427802 
-7.295787606144319e-06 
-7.842005288046299e-05 
-3.358073079896519e-05 
0.0002273016260981847 
-0.0001499106216678143 
0.0003079442826144312 
-9.006784216516161e-05 
1.10623190134776e-05 
-8.533892194473341e-05 
-0.0001126256831804028 
0.0001667775694091845 
-2.359683305389203e-05 
0.0001258928535390427 
-0.0003819597026875861 
-1.558310236742494e-05 
0.0002797299361609293 
1.387892154598968e-05 
-0.0001097624750704272 
-1.863469757021166e-05 
-4.006343609527317e-06 
4.658639180202388e-05 
-0.0001520849887015822 
-0.0001148855900487373 
9.864456685671432e-06 
-7.034725448711366e-05 
-1.056102405034224e-05 
-3.514169853092201e-05 
-3.344262088531545e-05 
3.655874020239129e-05 
0.0001192438180929836 
-5.46298281518731e-05 
-1.434366358328308e-05 
4.156010896948338e-05 
0.000353374268686274 
6.079136970320495e-06 
-0.0003881229669692764 
9.133346439243239e-05 
-4.087306221921817e-05 
2.814579691481892e-05 
6.215544362637518e-05 
0.0003277560965899571 
-4.900264132352854e-05 
0.0001454264397844783 
9.370257157789612e-06 
-0.0001281919596037038 
-0.0001116333533969814 
-0.0001423573080423485 
0.0003552041521828716 
9.384684245718216e-05 
-6.106079793523499e-06 
5.386357754564565e-05 
-0.0001903685852460498 
5.741049165445066e-05 
4.083539745707154e-05 
9.56437010967727e-05 
-1.116106847624749e-05 
1.690584637622021e-05 
-4.069213966774374e-05 
-1.772512003440014e-06 
0.0001817836041943344 
2.973496648196581e-05 
-0.0001313668486242037 
0.0001455141625399265 
0.0001166421900178912 
-1.713926734152842e-05 
8.642767550912622e-05 
8.686168851892383e-05 
-0.0002578224279059774 
6.847585877948864e-05 
1.405915982059534e-05 
2.772385292094949e-05 
-0.0002102930047119969 
-4.988403617086199e-05 
0.0001055907894191497 
7.798171054730074e-05 
-1.334311192642599e-05 
-1.265248479261052e-05 
0.0001105207534111873 
0.0001549956577431885 
-1.303238594592923e-05 
8.467479587789614e-05 
5.371532495810578e-05 
-0.0001813311458481118 
0.0002335789950965057 
0.0001372971747967582 
3.463384152662544e-05 
2.993642617013281e-05 
0.0004776148797863677 
-0.001102601957812281 
0.0004239938535816446 
0.0002605897477291356 
-0.000195822231183478 
-3.464956578706562e-06 
0.0001919061943714469 
-3.957807601149996e-05 
-0.0002553401842314539 
0.0001116255531239427 
-1.822405077483694e-05 
-6.234081408071192e-05 
4.69986272536112e-05 
0.0002588123823487878 
-4.971822320769696e-05 
-0.0005719202314270412 
3.675295415225587e-05 
4.628417578475284e-05 
8.934991978218741e-06 
0.0001909757606365259 
-1.690947861609786e-05 
0.0001060142635393981 
0.0001635233641159074 
-7.283431181002036e-05 
2.414298788101142e-05 
-3.466552334435468e-05 
3.869036619922334e-05 
2.575210766934307e-05 
2.417610519142277e-05 
-0.0001261570720349642 
-0.0003986350314291932 
-6.829961602522267e-05 
2.927438621658444e-05 
-2.770853071985949e-05 
0.0001333121628125877 
-9.126297364296967e-05 
3.862494830591424e-05 
-1.413248990205057e-05 
8.441528726960936e-05 
0.0001598295172535854 
1.391703472586057e-05 
0.0001085804907619037 
-0.0001147605800308642 
-9.979893356274177e-06 
0.000141078174083919 
8.110320959661441e-05 
0.0001193582026512162 
-0.0001854023343187132 
3.045955300086146e-05 
-6.906402829536123e-05 
6.41474279209441e-05 
0.0005378016696943168 
-4.710631852027827e-07 
6.147334215977584e-05 
3.073622229147767e-06 
1.943759136701386e-05 
5.657072545751448e-05 
3.687335415206792e-06 
0.0002003935949059026 
-0.0003802021594158125 
0.0001355209260753968 
-0.0001280630301404605 
-9.168573194244243e-06 
0.0003850323162231812 
-0.0003142700211155209 
4.557873337060049e-05 
3.894853476200767e-05 
5.792231233730545e-05 
4.278594115952501e-05 
-7.555270296240188e-05 
0.0003370935962481606 
-0.0002292389426385172 
-0.0002077844596253552 
0.0001549221190268463 
-3.708280191704483e-05 
-0.0001685835848083639 
-6.080911413814001e-05 
-9.605735520481643e-05 
-2.589414000953727e-06 
0.0001261145332926854 
-5.038515731207625e-05 
-8.868516174013953e-05 
6.505268407454095e-05 
0.0003083034432622248 
-3.431904309281965e-05 
5.449118122551067e-05 
-1.513326652803167e-05 
6.454341696281942e-06 
6.95243455134708e-05 
4.679016935019333e-06 
3.260210317984035e-05 
7.733510869970683e-05 
3.683519992232848e-05 
9.643821757603271e-05 
0.0001036431273249212 
0.000223267551020701 
-4.138183868653819e-05 
9.961351579233919e-05 
1.980937844460917e-05 
0.000120001185300205 
0.0002221349471019637 
-0.0004569888443624711 
-0.0002161403904742489 
-0.0003138230082203901 
-0.0003360795696048764 
0.0003791136531615365 
-0.0001248417369075583 
0.0002261874314305928 
1.49448304460227e-05 
9.982256648702303e-06 
6.838640972205541e-06 
-3.285575012099703e-06 
7.389793127445099e-05 
1.472782051584793e-06 
-3.356855469040171e-05 
7.40684823534465e-05 
1.924437438899828e-05 
0.0002017427559500062 
9.339074371330913e-05 
3.743358764975153e-05 
1.556176221498811e-06 
-6.905942066341261e-05 
-2.250277431479017e-05 
-1.93064471450009e-05 
8.558849216350289e-05 
9.219888180418001e-07 
-0.0001292633192886653 
1.247664102343027e-05 
0.0002219249777843425 
0.0004703073634253846 
3.119453109283064e-05 
0.0001062631302934045 
3.20701000935678e-05 
0.0002109128907509844 
-0.0002077754226711269 
6.599540486901736e-05 
-0.0005214873370199666 
-3.753253382407235e-05 
-0.0001990164473634962 
9.453782184124478e-05 
7.245775307691984e-05 
-0.0001269254028062855 
-0.0002462580714635029 
-3.000436603597693e-05 
0.0001470714488854019 
-5.845413902938505e-06 
2.557577109318792e-06 
3.008645201913421e-05 
4.238834665557592e-06 
-7.203420860960411e-05 
-0.0001591365096163272 
0.0002813826836209969 
-1.936778925004919e-05 
0.0003366101485119774 
-8.172358131694147e-05 
5.441077178732071e-05 
0.0002143632751717266 
-0.0002718467715578738 
-0.0001647367128967605 
0.0003742903432943959 
4.216715030572233e-05 
-0.0001052828722209839 
0.0002291067829303993 
0.0002119426104725629 
5.908973776267937e-06 
9.233847954040329e-05 
-0.0003464673572258467 
4.438497439046333e-05 
0.0001289390818225677 
-7.539250339884343e-05 
1.503088478172118e-05 
4.259469784797561e-05 
-1.3855229020073e-05 
-0.0004082210168533165 
0.0001197047587696666 
9.668492584858508e-05 
7.735770269133177e-05 
9.755463147178112e-05 
1.936731835437832e-05 
2.772578132899645e-05 
-4.632390284064218e-05 
-7.382528858598556e-05 
3.842153253992288e-06 
-2.395024570010526e-05 
5.729686632439058e-05 
3.398452427744392e-05 
2.136781127800031e-05 
-1.413218968920458e-06 
6.560230724005587e-06 
-1.126431263911529e-05 
3.637094040025107e-05 
5.968073898058702e-05 
0.0001340070685120645 
-0.0001310672047967666 
0.0001805055708885458 
0.0001440930938810266 
0.0002542211583672585 
-6.069248731487231e-05 
-9.98520879536315e-05 
-4.983373324847526e-05 
-4.462409638240136e-05 
-0.0001097519878183593 
2.273049954851993e-05 
8.990157563185028e-05 
-0.0001615470686344007 
-0.0001930804236756144 
2.544870545923305e-05 
-0.0003128781647140886 
-1.426363149323626e-05 
-1.907097208623716e-05 
1.951682005143986e-06 
1.615241362006262e-05 
3.07197638278357e-05 
-4.746307961989404e-06 
-3.284950935611815e-05 
0.0003248362177201561 
-0.000104380627946231 
0.00018939574890097 
-7.736930116610931e-05 
0.0003353351173835513 
-7.094743664585166e-05 
0.0001415701218442737 
8.097972143616433e-05 
0.0003689435364536409 
-0.0003732884156516952 
0.0001138119499562694 
2.981862261388118e-05 
-5.7676151049861e-05 
3.901808675021293e-05 
7.974181875011299e-05 
1.35050566687953e-05 
-0.000873844841107628 
0.0002491964935108636 
0.0001375422261706968 
3.612883237497779e-05 
2.538567968368958e-05 
3.336723296380091e-05 
-0.0001648546205278445 
0.000230016534041452 
6.934129287728652e-05 
6.677816430446914e-06 
0.0002915894876644527 
-2.741576184758176e-05 
0.0003394543011315112 
2.771535905816783e-05 
4.465647472128974e-05 
-3.442648235377193e-05 
-0.0002023255633861973 
-0.0003635414722866158 
8.540939906934853e-05 
5.830367689102538e-05 
9.078563245810948e-05 
1.915867141237413e-06 
0.0003448665577264597 
-0.0003478425969402888 
-0.0001018419150918225 
1.962278374944496e-05 
2.102637561684258e-05 
-0.0003077384283599811 
6.372655105511521e-05 
0.0001096118720371646 
-2.409269263118451e-05 
-4.227351605355961e-05 
0.0001911397995154744 
-1.758172339541204e-05 
0.0001737486536686014 
-6.113809026143703e-05 
-0.0001580679420762694 
-0.0002694341234220478 
0.000326268253412356 
0.0001666044173967184 
0.0003442781379307249 
0.0003393839928360271 
-0.0001856295807870554 
-0.0002565630235533752 
0.0001719523985023977 
2.684879937040214e-05 
1.743018477266501e-05 
4.960263576306236e-05 
-1.614932153985524e-05 
-0.0001603846266738081 
3.473716511705824e-05 
4.921735034746098e-06 
-3.4309991196982e-05 
-1.023376401369299e-05 
0.0001381556409095531 
0.0002130369186154128 
-8.932364589051104e-06 
-5.326019886924954e-05 
-0.0004096267817508444 
0.0001969542852379158 
0.0001398322816958765 
0.0001413943961346996 
-8.611871922855885e-05 
-6.261105356156037e-05 
-0.000582746302900677 
-0.0001495328839132046 
0.0001425405787803324 
0.0001562917997004408 
0.0001104550396253393 
-0.0002010871907094494 
4.015850386576512e-05 
-0.0001049179729101227 
-2.349917970986286e-05 
0.0001288497468299194 
-5.480012313227781e-06 
-1.514234452740678e-05 
-6.301902498162341e-05 
8.350183566437151e-05 
8.377987349579958e-05 
0.0003476814260590103 
-9.392342811806985e-05 
0.0001377231242956003 
-5.316765410826834e-05 
0.00025466147356146 
3.29205603967936e-05 
-0.0003173785434129019 
0.0002936981496215301 
-2.575845040299339e-05 
0.0001509259134507751 
7.707805659682626e-05 
0.0002439163686587575 
-7.290217769915535e-05 
-0.0002079068187664188 
-1.816067691004588e-06 
-0.000242110474194102 
-0.0002044357195646051 
3.649529267407288e-05 
-9.939397538410132e-05 
0.0004371796485209165 
0.0001062384116546475 
-3.494001349455467e-05 
2.10892657529422e-05 
-0.0002112643108722185 
1.038228467313054e-05 
-7.138476232343764e-06 
-3.384464267784519e-05 
-9.613857231747285e-06 
-4.319787266493191e-05 
0.0001715465797738534 
2.546172774382665e-05 
-6.093241726840825e-05 
-0.0002248566105678865 
0.0001068319975690514 
0.0005470891912099598 
-0.0001935913953380421 
0.0001552613144185223 
3.252622980786478e-05 
-0.0002097599231037956 
0.0001168528040114639 
0.0001460562146808489 
-1.685840394249171e-05 
-3.306133594706925e-05 
-5.740423713344055e-05 
-4.868806107757262e-05 
1.248657833138503e-06 
-3.816783496700786e-05 
-4.051533992610015e-05 
-0.0001302315706653347 
7.608684139426958e-05 
-4.253669753312596e-05 
4.132575656846653e-05 
-0.0001412684121454354 
-6.311692809120347e-05 
-0.0002063923536502161 
0.0001156335811307747 
-0.0002560675408517594 
-3.589392192353352e-05 
0.0001067848067244687 
0.0001342398005951751 
-6.99325746012929e-05 
8.540406133393181e-05 
-0.0003475863487630754 
3.361717577935782e-05 
0.0001330031099740209 
0.0002776028680837263 
0.0002837198874123425 
3.522084717638023e-05 
0.0002364111382299925 
0.0003389125420575163 
-4.514497272751215e-06 
0.00028092395862972 
-0.0002671842930206855 
-0.0001117374314899276 
9.526034313533642e-05 
-2.602970402526567e-07 
3.329654187992149e-07 
0.0001274606955945422 
2.9437489730452e-05 
0.0001857084039163092 
0.0002010413161051609 
-7.505952844865133e-05 
1.363532287869651e-05 
5.89443225454062e-05 
3.518342515642015e-05 
1.393929457137209e-05 
2.081044892237008e-05 
4.83176869646242e-05 
0.0002975918125173984 
0.000304180048730248 
-5.974618918048824e-05 
-0.0008526389054251598 
0.0001267791536080005 
0.0002382745977050818 
-0.0002130928813088519 
8.887923983511317e-06 
-5.843771370863716e-05 
-0.0001281066672628619 
0.0002487590356275069 
-0.0001030509640207394 
0.0001239192333458221 
-0.0001609195022443521 
-0.0001822587519090636 
0.0001277084076574082 
-0.0002670250755065259 
1.564117268544291e-05 
-0.0001697028265651733 
0.0003089599071284318 
7.120300812380258e-05 
-4.870538606047251e-05 
-4.786730808626836e-05 
1.713255144301817e-05 
0.0004077275468710448 
-0.0004434243763067717 
-0.0003220868980150361 
5.225578613297714e-05 
6.833235134188326e-05 
3.702792884459315e-05 
-5.148904683395317e-05 
-8.827613606465219e-05 
-0.0001538119313834914 
0.0001023177222638645 
2.201222452117292e-05 
-0.0001519063557983269 
-3.903918191942042e-05 
0.0001862907464267279 
0.0002093426784214865 
1.524957514986206e-05 
-5.928544236140915e-06 
0.000111710631049692 
2.493096708640004e-05 
0.0004422728714546294 
6.318929301022647e-05 
0.0001128550577360496 
0.0001541009983969473 
0.00018904966597216 
-9.17223490751384e-05 
0.0001663113434899177 
5.211608790418726e-05 
-4.505029858282804e-05 
0.0003272715893432945 
-0.0001320082146532957 
0.0001194331204170947 
8.929286637750172e-05 
-0.0002278888059894383 
2.555390536833588e-05 
-4.12908278463607e-06 
-8.079550747377551e-05 
9.757747197226761e-05 
-0.0001872029833466768 
0.000157566560047127 
3.99842388509314e-05 
-0.0005106070886569756 
-9.754678633067981e-05 
2.550522924951997e-05 
0.0002001293088551565 
-0.00024374406057686 
8.010085928924049e-05 
-1.67760860051803e-05 
0.0001419360832954691 
2.038878475784724e-05 
-6.037766221991325e-05 
6.462140315246381e-05 
0.0001156752962751793 
3.948068939081036e-05 
1.639203195336353e-05 
-2.570973904372807e-05 
-0.0002411190555053063 
0.000105256068515384 
-0.0002816755508639561 
-4.653994705952632e-05 
0.0003146877932326187 
-0.0001059409673282489 
4.471354776449464e-05 
-3.085786322830535e-05 
5.275944702689484e-05 
0.0003266574559455917 
4.773483040283565e-06 
-5.608845945491032e-06 
6.475039061056596e-05 
6.40195356926059e-05 
6.702797228392052e-05 
-0.0001523108782364349 
6.032312181059882e-05 
2.478366026210021e-06 
5.905387984247198e-05 
4.92524767260326e-05 
-1.939814804358136e-05 
-0.0002139255730508272 
0.0003478702673802165 
0.0005976750643509316 
8.867110914571523e-05 
1.538166045475469e-05 
-0.0005531756011921286 
-1.808631297978359e-05 
7.823351392156693e-05 
-0.0001048150556557816 
-0.000119783006974344 
7.274508149986784e-05 
-2.356259846640761e-05 
1.958185622961461e-06 
-9.504612131967452e-05 
0.0002451202748400811 
0.0002509652250003155 
5.083563413773345e-05 
-1.151696170003138e-05 
9.379730364866301e-05 
-8.642221959857857e-05 
-8.462471872507131e-05 
-5.620397465918247e-05 
0.0002080105676201801 
3.501771551309411e-05 
-0.0002477454450459487 
0.0006074981242425183 
-1.337347722447175e-05 
8.185744759313718e-07 
7.218943030643408e-05 
5.440548947598029e-05 
-0.0003739986441244198 
-0.0001835560028471753 
0.0001448534999910337 
4.298016696670268e-06 
0.0001801310061328125 
5.36320272868101e-05 
0.0003152645401289222 
-8.100878657021034e-05 
-0.000546629119518089 
3.290305319297042e-05 
2.377524724041858e-05 
-0.0002198923185907173 
0.0002164303167316329 
6.741620380461168e-05 
6.782764619792228e-05 
-0.0001918566697417426 
-0.0004831604631559439 
-7.088398418796654e-05 
-0.0003687116793532743 
-2.809665962100085e-05 
-6.373529305963537e-05 
5.122724425234357e-05 
0.0001898597843024785 
6.030321380940802e-05 
0.0004954514700929415 
0.0002174686596381391 
-0.0001266901160376774 
9.980155886572688e-05 
0.0001789517147813103 
-0.0001425670706412008 
0.000332486234272835 
6.610601714020162e-05 
-1.434813792103259e-05 
0.0002141423114804312 
-0.000370223745697195 
-0.0003496446291255012 
2.856927082974167e-05 
-1.386725438867603e-05 
-4.031129414393202e-05 
0.000118836308028871 
-5.894259642852561e-07 
1.236798530098304e-05 
2.674566778080975e-05 
0.000245333424392084 
5.646840159816914e-05 
0.0002413044999727608 
-0.000237568379092791 
0.0001678433395272588 
0.0001535024798512108 
-8.251850075794813e-05 
-0.0001733843293779889 
-9.76700258390613e-05 
0.0003495924519795997 
6.988772803994401e-05 
-8.936705180559246e-05 
-0.0001847285059629387 
-8.982041291629522e-05 
0.0001559232714897419 
2.281076226567239e-05 
0.0001409293251915297 
-2.449018673091253e-06 
0.0001353009637584185 
-2.129604789373028e-05 
-1.539976036393521e-05 
1.98698851877018e-05 
6.212152476228188e-05 
0.0001704265264516144 
0.0001591559141237441 
0.0002435879569929796 
-6.962961850149094e-05 
0.0001046018073502622 
-0.0004838747570995102 
7.768075689340308e-05 
-0.0002343871880116649 
1.502061112216653e-05 
-0.000139296001599006 
0.0001573364433212856 
-4.638060704300617e-05 
2.236566273382474e-05 
3.922066982800592e-05 
8.395142844648695e-06 
3.220264482125436e-05 
0.0001726584216026974 
0.0001804100939407753 
-1.271347967645941e-05 
-0.0004677015043348922 
-4.411456225022872e-05 
0.000212673660994296 
0.0004416923466224415 
-6.641632858722578e-05 
-4.06780004960787e-05 
6.49918656804796e-05 
0.0002073924942981457 
-0.000319031028291491 
-3.644512184067306e-05 
0.0001471376653957756 
-0.0001723762414792248 
-5.120501724584891e-05 
6.357431530303245e-05 
-0.0002981104211146514 
0.0001705074374636632 
0.0002407520335483239 
0.0001748116513914885 
-8.466320228107389e-05 
0.0001908062382794281 
-7.760698534817998e-05 
-0.0002002468785343768 
-0.000184600800882737 
8.568121749581898e-05 
0.0003257867747150787 
-0.0002740346317566567 
0.0001596990016092632 
-1.138128330382068e-05 
2.382622016559908e-05 
0.0001593665116934381 
-3.117796510449315e-05 
0.0002462357965488264 
-1.969746275279667e-05 
-0.0001545151329975997 
-0.0001128661643464091 
0.000152362006681268 
-9.134417113909797e-05 
0.0002084284210065719 
-0.0003649175498463495 
9.886589280805276e-05 
-0.000136478204619407 
0.0002099958133890143 
1.959515550598316e-06 
5.534400833248073e-06 
9.279560470551907e-05 
3.521665948272084e-05 
0.0001318174997193551 
