solver_type L2R_L2LOSS_SVR_DUAL
nr_class 2
nr_feature 17394
bias -1
w
-0.0003219266177730845 
-0.0001565764701094329 
-8.982003636432845e-05 
0.0001382957225060126 
3.182483040550261e-05 
0.0001596564776158036 
0.0002330268281380746 
1.756633647307341e-05 
0.000272111353907476 
-0.0004150899495476605 
-0.0002243552162084146 
3.043607366433641e-06 
-0.0002467252224733356 
0.0001430236142246755 
4.930499644948917e-05 
4.618808431332196e-05 
-3.169703079922367e-05 
-8.35516536561647e-05 
-8.357828413405412e-06 
0.0003602775425052062 
-0.0001806025324416096 
0.0002651485473120339 
1.741257804098206e-05 
-9.278882532208438e-05 
-3.203654030469382e-05 
3.358898690121525e-05 
0.0001086780845329061 
8.506225173981731e-06 
0.0001127619975933785 
-4.214995387806581e-05 
-2.82838579553346e-05 
4.191968158579531e-05 
-2.267108807876058e-05 
0.0001212141939695921 
-9.100153520440848e-05 
-1.507055077205751e-05 
-7.667885908760531e-05 
0.0001825954073933082 
0.000205151850944403 
3.578906462328745e-05 
4.837908736800308e-06 
0.0001442058544922033 
-8.427941152472844e-05 
5.088599896034259e-05 
-0.0001274741793845888 
0.0003552894491826244 
-9.489201459541763e-05 
6.275860588849616e-05 
-0.0001837320453823983 
-0.0001524237630519948 
0.0001366937930509619 
-1.816446139389225e-05 
-7.0845864808114e-05 
7.584607454861556e-05 
3.043234873152449e-05 
-5.289400093247878e-05 
7.27923507450287e-06 
-0.0002155800777242936 
-0.0001974856074698119 
-3.792776591735582e-05 
-0.0001821144006393416 
4.082908184441244e-06 
0.0001223357405959557 
0.0001722109513887071 
-0.0003220930042694447 
-5.882847519714811e-05 
0.0003268819169361441 
0.0001131271548183319 
-0.0003106583431349032 
-0.000254594961580511 
0.0001051608729310117 
0.0001339114230997965 
-2.7653600873844e-05 
5.620959532468225e-05 
0.0004005130994916571 
-3.976342200156917e-05 
0.0003578938844063874 
-0.0005378442157032239 
-0.0002564251191050699 
-3.933653537189565e-05 
-0.0001715261238030884 
-7.279804500354207e-05 
1.989089047334237e-05 
0.0001179231227234754 
-0.0001581347199589711 
0.000220852701003251 
2.090693001921612e-05 
0.0001013793959461752 
0.0001886073208891022 
-0.0001556129697156107 
5.905074187986884e-05 
-2.66032899311378e-05 
0.0004366063466549071 
-6.190462794210587e-05 
-1.589088605623967e-05 
-6.087329715051682e-05 
0.0001010153078488369 
-7.212128641055637e-05 
0.0001028137063607462 
8.248133837559439e-05 
-4.752805198556841e-05 
6.293556121878068e-05 
-0.00010265387501777 
-5.540128527324533e-05 
-0.0001364429934772032 
0.0001761936384995289 
0.0001089830069379248 
0.0001059575950554867 
0.0003660597235110062 
-0.0002154320737875729 
0.000150158780976383 
-0.0001887986348620124 
-0.000127704234934598 
3.608019395416425e-05 
-0.0003238080083893296 
6.686429775653547e-06 
-7.019455194741845e-05 
0.000111041968650581 
0.0001117040720505207 
-0.0002146913418387034 
-3.938452016315304e-05 
-4.091787041638066e-05 
-7.398360034901288e-05 
0.0002270132911876271 
-0.0004994375650121027 
0.0004539595440471848 
-3.217242594945427e-05 
0.000125961921162578 
7.773993983670101e-05 
2.33105723578881e-05 
-0.0002791695899218278 
-6.606370147553256e-05 
-0.00023674816807163 
0.0004607631715150895 
8.900333482522327e-05 
6.492154393171327e-05 
7.041744573541952e-05 
3.367653759539857e-05 
7.236635901295027e-05 
0.0002032834606427423 
0.0003025557126668731 
-0.0004019271038104653 
-3.05199322637276e-05 
0.0001262131468679404 
-5.590248381012486e-05 
0.0001556952920138933 
3.864256826888361e-05 
1.94207838799722e-05 
-0.0001532338732256552 
-1.401371259564908e-05 
6.431729863058676e-05 
7.616873128517403e-06 
6.083258866986515e-05 
7.755237102340729e-06 
1.383867056559954e-05 
6.143961672814692e-05 
-0.0005092246966642617 
-2.840665794875179e-05 
6.074095881189464e-05 
-0.0001509674332014972 
0.0004417225936871581 
0.0003001229069121692 
0.0001288402982304559 
0.0001258751315671491 
9.740506888389852e-06 
0.0001547186429443101 
9.021933735989514e-05 
-9.599225703712017e-05 
-0.0003239874893728727 
0.0001789077495383007 
-0.0001949125785355798 
1.624268963551923e-06 
-5.271688755655692e-05 
-0.0004262427407252053 
9.775364902433776e-05 
-4.669083065159974e-05 
-0.0003657682671619799 
0.0004635590355480321 
3.391705701162109e-05 
0.0001004994752821405 
-0.0002374335414083099 
-0.0004408786650532072 
-6.544965721560074e-05 
0.0001315827676568699 
-4.326583599986031e-05 
2.485632354028222e-05 
0.0001337431499207437 
-2.170014388400934e-05 
0.0001455848597412842 
-0.0001314173082252091 
-3.272560920274964e-05 
4.287818011689826e-06 
0.0003915960022670088 
-0.0003062251077282679 
-8.861713254513293e-05 
-0.000147501079105775 
4.907375996543821e-05 
6.302253689383062e-05 
8.018993562319758e-05 
1.095772436562926e-05 
8.729578794595811e-06 
7.440516838664681e-05 
1.004129563268172e-05 
1.461091924382981e-05 
5.708848763326515e-05 
-0.0001130148211694641 
-0.0001569961016323223 
0.0002539203878827384 
0.000281352799926506 
-0.0001657895606673552 
2.09105890375275e-05 
-5.276540752712824e-05 
-9.270202341220374e-05 
-6.541546957895342e-05 
-0.0003103876982215629 
-0.0001207115730428435 
1.746155883540142e-05 
-0.0002983237221509966 
1.525972948355952e-05 
0.0003782481854756332 
-5.348975527919554e-05 
-8.131623121951386e-05 
0.0001898873860875487 
0.0002248733975442011 
-0.0003645280375007537 
9.163783415447433e-05 
8.634072952258043e-07 
-0.0001273270512186806 
-0.0001747144908094645 
8.403100837273322e-05 
0.0001344199513228322 
-0.0001463928019105444 
0.0002461908494806627 
-0.00021321470384233 
-8.375949125578147e-07 
0.0001087817638767067 
-0.0001067620939474266 
4.395902803791076e-05 
-0.0001334422960653262 
-1.162483987152756e-05 
0.000130061319637448 
0.0001173076658207056 
0.0001439631659804019 
2.619627003005124e-05 
-0.0001060461846452849 
0.0001292610350403633 
-1.13079958427483e-06 
0.0002536444262839114 
-0.0002730629180023406 
0.0003033650399043878 
-4.370592547337669e-05 
4.058607676852716e-05 
-0.0001311989043278796 
-6.701614835150299e-05 
0.0001395695540219029 
-4.459845766446548e-06 
0.0001603518984098168 
0.0002862023386369919 
9.348094863401958e-05 
-2.342298851462586e-05 
0.0005121511969916222 
2.762219031474439e-05 
-2.253700813120823e-07 
7.197825733696671e-05 
0.0004226937478808007 
0.0001451229736072522 
0.0006379599003439958 
0.0001480172198845738 
-0.000785284539272869 
-0.0007117351097544813 
0.0001769645511519611 
-3.886050641585417e-05 
-0.0002293305838152369 
-6.97904656397403e-05 
1.10744949455549e-05 
-5.462081634404816e-05 
-8.988841124783577e-05 
0.0001421880327382431 
-0.0001676309060638976 
1.753530186162076e-05 
-0.0003198773638209427 
-0.0001009688026901633 
1.654166191157675e-05 
3.723884318045828e-05 
-8.828836166994244e-05 
-0.0001182361357118376 
-1.748220748648027e-05 
-3.107229502406999e-06 
-0.0002233792153396188 
-0.0004722596593892611 
-0.0001085962901629054 
4.912378327252349e-06 
-9.904863077643193e-05 
3.339634870187395e-05 
0.0001735126274707075 
4.691133588934602e-06 
5.070135818364031e-05 
0.0003037356391751016 
3.004684226177644e-05 
-0.0001192263038397193 
-1.971863460153335e-05 
-4.216703368041358e-05 
-0.0005469191262592433 
4.597185796966015e-05 
-0.0003018447152364362 
0.0002240680032475133 
5.234031312456268e-05 
-2.844677297873989e-05 
-8.120400411372106e-06 
3.490860725650131e-05 
-9.454522845172487e-05 
0.0001606288141312694 
0.0001277024615115671 
-0.0002025230944286897 
0.0002747559901789431 
0.0001068046229437147 
0.0002943353603072545 
2.47426320200256e-05 
0.0004574002876381985 
-4.948641268389105e-05 
6.451762329632447e-05 
-0.0006398340229655018 
-0.0003886118931896487 
0.000189361094188702 
-0.0001071419724576477 
2.455211607744053e-05 
0.0003660151144575682 
2.937020460528502e-05 
-1.381881265599281e-05 
-0.000133242282889056 
0.0002075489604367861 
8.477315085181793e-05 
3.548163971791126e-06 
8.854431384793246e-05 
-7.466814761053034e-05 
0.0001434601723547782 
-0.0001522180022276824 
-0.0002386822953480288 
0.0001521572383103652 
0.0001297060298691349 
-0.0004237526044263059 
-0.0001508236605124075 
0.0003915562852043651 
2.554689790668882e-05 
5.39316135867319e-05 
0.0002446973063164626 
8.52807134212433e-05 
1.740527382668101e-05 
0.000111726095649277 
0.0003844484340578756 
-0.0003265439180185071 
-6.043543013741667e-05 
-0.0001010538419278215 
0.0001747666215972089 
0.0001005612604845391 
-0.0001903376122188281 
0.0002635475403462937 
-0.0001921775052816188 
4.319954833547943e-05 
-9.869004869042209e-05 
2.063123977440393e-05 
-0.0002030898883714793 
-0.0003407665099985524 
-0.0009918141025888785 
-2.664377829556481e-05 
-0.0003330922102146733 
-3.069336500494559e-05 
9.662578949574394e-05 
5.237099799050479e-05 
0.0004007940416642092 
0.0002312601587768992 
0.000402263301325445 
0.000283672984808403 
-8.155787807657688e-05 
0.0003672616109450988 
-0.0002326874198774369 
0.0005591115024210885 
-8.987636939633313e-05 
0.0001287076518316567 
-0.0003945363363955892 
4.192999248468153e-05 
0.0001651944215890543 
2.182272624360853e-05 
4.166923602292811e-05 
-9.426341437504089e-05 
-3.528300686767301e-05 
-6.831653498391832e-05 
3.862977955503154e-05 
0.0002083925947421925 
0.0002166035088079496 
4.922751347929141e-05 
0.0001962240955619208 
-0.0003704658371334157 
-0.0001776910269658482 
1.44583033555426e-05 
5.770025308871664e-05 
-0.0003811674347119289 
-0.0001071235704975963 
-0.000543602458359159 
-0.0003825768156483409 
7.929463605152811e-05 
0.0004280958069526342 
-8.754667614300394e-05 
3.760896354583516e-05 
0.0001220301827178909 
0.0004377281528737303 
-9.901594671808658e-07 
0.0001512281898638807 
6.407485274393673e-05 
5.232565667704713e-05 
1.490676502326514e-05 
0.0001809075153652555 
2.331215906467796e-05 
-3.953431123905638e-05 
1.778577488781158e-05 
-1.359969816745556e-05 
-0.0008142981789532511 
-0.0001530525813831411 
9.468542049142639e-05 
4.499676830465482e-05 
8.265472594431678e-05 
-6.783824346913908e-05 
0.000397253655735674 
0.0001841722038593229 
0.0001054553832427705 
-0.000122259676387135 
0.0003632805320172951 
0.0003476161243108889 
0.0001283591466089943 
0.0002348253401999201 
0.0002883093947329509 
-5.689794443847078e-05 
0.0002167296982367224 
-0.0006445371618521984 
-5.42168297137881e-05 
0.0002684354257099952 
-0.0001288285926688509 
5.920348571168696e-05 
-6.305392666178796e-05 
-0.000110603849771527 
-0.0001141562244154233 
-3.797140669894338e-05 
0.0001266066266595991 
3.35775793855147e-06 
5.369329798621313e-05 
-0.0001333406399650609 
-0.0003041040264572372 
-0.0001061019450565039 
-4.294548392352779e-05 
0.0001001011011022432 
0.0001078360200962354 
-5.232926264560463e-05 
0.0002603602119873781 
0.0001452117685149655 
2.018249507281299e-05 
7.16588964311817e-05 
-0.0003490326361700951 
0.0001153313783337814 
-0.0004584005675084697 
-6.718600653659608e-05 
-0.0007057145599344831 
-0.0002666064942891326 
9.949914550595657e-05 
-0.0003727220060321412 
-0.0001591543105339917 
-0.0002568943170983265 
0.0004878604804798818 
0.0003141864148933803 
6.578752237979674e-06 
3.155536526732065e-05 
0.0002282572527825468 
-4.681468029246725e-05 
0.0001106226121781611 
-6.356169863748739e-05 
-2.1295268714143e-05 
-0.0001180712861239696 
0.0003367242205191885 
6.727247986370284e-05 
0.0002619007546397645 
0.000303962988332478 
8.493515935864906e-05 
-3.774959746393346e-06 
-0.0001812432107961324 
-6.251490220684311e-05 
3.861815740473594e-05 
-0.0001653290429512552 
3.352329453704471e-05 
0.0002782307294029185 
-0.0004422561178483323 
-0.0001510023247474943 
-0.0002800868920945843 
-2.44431987764295e-05 
0.0001405497673557979 
3.464697384748703e-05 
-0.0002501460367774259 
2.737662365450716e-05 
-0.0003983798006242496 
0.0004748335031504503 
0.0002629819017233267 
0.0002065022877482779 
0.0003110928829694103 
0.0001704072953841963 
0.0001026633203586431 
-0.0001238012865294415 
5.401527196817309e-05 
0.0005268090676210577 
-0.000223490328410523 
-2.872033871863412e-05 
7.567288970616478e-05 
0.0003323811037411894 
8.718708432512943e-05 
-0.0008188651142308993 
6.632152189354841e-05 
-3.077841593224981e-05 
0.0004241898933049321 
-0.0002994422569655589 
-0.000148145822315858 
-0.0004974846505227679 
-0.0001220517285062425 
8.242759917308806e-05 
5.440813154545243e-05 
1.063663698957401e-06 
0.0001277756929475263 
8.957690540108147e-05 
-0.0001120214552441089 
0.0001492891157397273 
-2.026342866308493e-06 
-0.000358681444969706 
1.26483429309125e-05 
0.0003267618404306265 
5.61084710282521e-05 
9.787274760396605e-05 
-7.364225140661007e-05 
5.827298005483573e-05 
4.705419181211071e-05 
3.188637669055046e-05 
3.616606742408014e-05 
0.0002127050674881831 
6.55587509446081e-05 
0.0001057627267120535 
5.805503185964099e-05 
-3.453748585682007e-05 
-0.0003607060169583751 
2.398651265899139e-05 
-6.001064458307163e-05 
-7.114296030451522e-05 
3.595787073829381e-05 
0.0001770072508991449 
-0.0001158123353763611 
-0.0001586311040106996 
0.0001752128713483388 
2.398929211039714e-05 
-2.216404543076885e-05 
-0.0001722794416591418 
0.000322045323392601 
-2.152253164806759e-05 
0.0002112698413049485 
-3.350498730877907e-05 
-0.0001449843621831207 
-0.0002814107725325309 
-4.427192323477682e-06 
-7.877440604175536e-05 
0.0004864675626951619 
8.361803648887823e-05 
-3.177594108328426e-05 
-1.591855584315157e-05 
-0.0002355532321586315 
0.0004319491469591852 
-6.529369598613225e-05 
2.606562152052249e-05 
-6.823173902516174e-05 
4.431639058092794e-05 
3.585335311702247e-05 
-4.787422203814103e-05 
-0.0001312852834255467 
-0.0002047813483945632 
0.000122861951844023 
0.0002595573720018585 
4.132701601007848e-05 
2.411597987616786e-05 
-5.747901318767401e-05 
4.480859921914342e-05 
4.10215262007607e-05 
-4.567398969340695e-05 
1.657251462728345e-05 
2.615183701909816e-07 
9.403371053681279e-05 
-3.089040726564282e-05 
-5.260264404972421e-05 
3.892103558627673e-05 
1.817878695442852e-05 
2.953974211398894e-05 
2.32528901293792e-05 
0.0001167329329755739 
-3.055636721144855e-05 
-3.85968562561594e-05 
2.792006850317661e-05 
-2.066959043350352e-05 
-0.0001898934861486821 
8.924287751798861e-05 
-0.0001325782063182106 
0.0002709145901715446 
0.0001017085413832836 
0.0003966853753789753 
-8.67361210913845e-05 
-7.6022678392913e-05 
-0.0007790340211101715 
-0.0001285498884434919 
0.0003950596194054219 
9.318137287710647e-05 
0.0004101254810974189 
2.576325702095399e-05 
-6.060627594182535e-05 
0.0001903435594449504 
8.927919792049139e-05 
-3.220141705959083e-05 
4.769897618820665e-05 
-5.618993571032769e-06 
5.749437990580639e-05 
-2.529311360337827e-05 
-0.0005908624329088997 
-2.149184832200974e-05 
-6.001687422374458e-05 
-1.975469337551986e-06 
-6.436639649636939e-06 
-6.941401193445056e-06 
-1.604736881344814e-05 
-0.0001273793994256105 
2.582087325547704e-05 
3.153931430963023e-06 
0.0001414892606613373 
8.914398250846464e-05 
2.938396212961994e-05 
-0.0002107200836992399 
-0.0005925912232330646 
4.62683161367049e-05 
7.540219315809856e-05 
-6.835746678271827e-05 
0.0001543822771219019 
4.092312730079534e-05 
-2.556386714480207e-05 
-2.762268053800776e-05 
-0.0002015182812244501 
5.212276459344382e-05 
0.0002380130989207765 
0.0001447969558081739 
1.825368120607251e-05 
-0.0001400010131824483 
-0.0002892948787126162 
-0.0001679605310995277 
-0.0003102679627627848 
0.000262048792048282 
-9.951626768068757e-05 
0.0005518464016878198 
1.856643861263773e-05 
1.29984123886189e-05 
0.000290382700281584 
0.0002158976926036323 
0.0001110963542536097 
0.0004213684767546221 
-9.399938132351867e-05 
2.675989282908787e-05 
-4.232562320022469e-05 
4.13807539408176e-06 
5.521155272604946e-05 
-4.733013277588634e-05 
2.179672998160691e-05 
-0.0005967889330617353 
0.0001521108925292722 
-1.201327240910466e-05 
-0.0003841766219716151 
-7.065570573343479e-05 
-0.0002978935276788624 
0.0001643988683778695 
0.0001147834050157301 
0.0001713731562863605 
0.0001156900418932545 
-0.0002097135265981741 
0.0001500620718506004 
-3.579399152969104e-05 
0.0001005714981406166 
-0.0001421875935380016 
-2.9522226090896e-05 
-0.0001083690169092975 
-1.590850281378824e-06 
0.0004057138445087571 
0.0001282328897509268 
-4.151806258811776e-05 
-0.0001667002786235147 
0.0001617128293342425 
-0.0001587877302658436 
0.0002316178102372794 
1.05563214064093e-05 
4.400548397619972e-05 
-2.659546474054586e-05 
-7.756759831208546e-05 
-0.0001159567456390175 
-0.0004132234889661242 
-5.179646578295443e-05 
1.885339897011811e-05 
-0.0006387469744696913 
0.000193510674568101 
0.0003989525239882498 
0.000194302483508011 
-0.0001613097231341108 
-0.0001058934629647684 
0.0002366986039314867 
-0.0007051282440104869 
0.0001298437723618455 
2.941352606954502e-06 
-0.0001838109084987218 
-2.606530074535048e-05 
0.0001183680335154943 
3.597614869804202e-05 
1.563428535039125e-05 
-0.0001521847287821872 
7.608966080880582e-06 
0.0002419295432455004 
-5.842338020321492e-05 
-0.0001761827865524784 
-3.926209981960779e-05 
4.407028805589275e-05 
0.0001065090399772816 
-0.0004021728236286103 
-4.401354131556872e-05 
-6.523087033299721e-05 
0.0001137319032154778 
4.00926844607418e-05 
9.153162184596058e-05 
0.0002305412555291673 
8.710048292579193e-06 
0.0001370863060550659 
0.0001615809996646687 
7.197643679351737e-05 
0.0001176997895804598 
0.0002955205505252301 
0.0001512395366653841 
1.216752571476389e-05 
3.828136283257874e-05 
5.631448594145831e-05 
8.178396467723807e-05 
0.0001168371075085635 
3.898453510782635e-06 
-9.847501814712936e-05 
0.0001571726283255653 
8.776368531285798e-05 
-3.182332935029177e-05 
0.0002633770629148065 
0.0006175057158977216 
5.389623884178138e-05 
-0.001151000875990176 
-0.000263569608460512 
0.0001299860000091567 
-5.201550977535317e-05 
9.998861548307325e-05 
3.903668164827763e-05 
-7.625760464905242e-05 
0.0001003788802519224 
3.270781813129625e-05 
0.0002195767115088451 
-0.0002079658057591106 
-0.0004131899674517038 
-0.0002036734491398088 
0.0001186484832562908 
6.638938991032541e-05 
5.249572958900524e-05 
4.212727326876059e-05 
4.477157732122274e-05 
3.251818374565034e-05 
-7.140188694796837e-05 
-3.917845005470554e-05 
-3.70847947850663e-05 
0.0002409536990657347 
-5.461911153093947e-06 
-2.208063667416254e-05 
8.569967281221662e-05 
4.276204495609521e-05 
-0.000115842926759567 
1.366374942252304e-06 
-0.0002355627972958281 
-9.777433551579619e-05 
-0.0001911039010030765 
0.0001052913465685179 
-0.00020842121147814 
5.193471044234215e-05 
0.000201332124024625 
-0.0001407099812559123 
0.0001256520830448521 
0.0001163234614931484 
0.0001844047259620998 
3.491746383790991e-05 
-1.029127474418268e-05 
-8.861365707425435e-05 
-0.0001619678896686718 
0.0001913290490594486 
5.019779263294757e-05 
-4.617148780882334e-06 
-2.794530153519813e-05 
6.427001286945243e-05 
1.747911906773186e-05 
6.47036486673518e-05 
-9.200264862948787e-05 
-0.0001608200879731668 
7.139240795905771e-05 
0.0001252634885913659 
-6.060571799922807e-05 
1.664563295832531e-05 
-6.899379751515503e-05 
1.022349452130106e-05 
-3.883167519637089e-05 
-4.069752605010736e-05 
4.544617639839223e-05 
-0.000473150398979754 
0.0001499139038433341 
3.155457399406618e-06 
-0.000224976732421679 
7.933290942829758e-05 
0.0001083033197925508 
3.32095400422056e-05 
-7.889110596617019e-05 
0.0001502597198439631 
5.896969438279068e-05 
-4.223417844587012e-05 
6.935389539440815e-05 
-8.222739740104921e-05 
0.0002136984341980984 
-7.026954446438557e-05 
-0.0002757919360584795 
0.0001933220616980452 
-0.0002867652043483606 
0.0001343645817541366 
0.0005570733443747519 
-1.593291822235789e-05 
-1.506898596726806e-05 
-7.697349951640419e-05 
-4.890093561360141e-05 
-4.818371347969393e-05 
-4.302532583721163e-05 
-2.321131940734472e-05 
-5.89801141557473e-06 
-5.596108987943951e-05 
1.645811781160258e-05 
5.628202652694867e-05 
5.930096679893154e-05 
3.742814425410025e-05 
-0.0001466678343393425 
-0.0002872183569369042 
6.481365408177704e-05 
-2.762258195798981e-05 
-0.0001322123376602954 
-0.0001935821787840357 
6.666700184913358e-05 
-0.000370111169093584 
0.0006897275405299909 
-0.0002427182478677786 
-0.0002565710031395758 
0.0002088857572088485 
-0.0001195955041942496 
-5.337313182147358e-05 
-8.838962327418676e-05 
0.0001472737075321741 
0.0004622069024629621 
1.115728131001428e-05 
0.0005193904278403573 
0.0001277879058381011 
-3.585570317837092e-05 
0.0002500922399245879 
2.714366517591771e-06 
0.0001110426263635699 
-1.241820395534881e-05 
-8.441260451786283e-05 
-0.0001012346227203568 
5.553390018436325e-06 
-0.0006648457403144216 
0.0003480719470429124 
0.0002266190656667229 
-3.719715170686608e-05 
-0.0006784300340867548 
0.0003260104632343019 
8.792620541530065e-05 
-0.0002518583595130046 
0.0001116696697960348 
1.247691609011466e-05 
6.785220130220147e-05 
8.912606315208942e-05 
-6.228968073804472e-05 
1.352225610558894e-05 
-2.98629921062819e-05 
0.0001198852020821819 
0.0001116814410899966 
-8.854525028369301e-05 
4.190696729724877e-05 
-9.04253926461127e-05 
-5.39520427541745e-05 
0.0003441555901155711 
-0.0001183929787327294 
5.871531396161054e-05 
0.0002271013767686394 
6.682144600243887e-05 
-0.0001207466145554839 
-6.43977657506436e-05 
2.811534468961651e-06 
-0.0001871060501845648 
8.795183201578054e-05 
-9.522566049656549e-05 
3.002320659246564e-05 
2.462349024693548e-05 
-1.453192497430832e-05 
0.0002822172663471359 
-0.0003312886394349289 
0.0001846182322987873 
-0.0005379575708680914 
0.0001983167487978453 
-0.0001997741382075865 
6.214653822167706e-05 
-3.303429439726787e-05 
-1.245353222228126e-05 
-0.000177932664497454 
1.945260295211249e-05 
-8.046226881643085e-06 
0.0002243629488953198 
5.785676349447737e-05 
8.029224051850286e-05 
3.253890694149213e-05 
6.361925372597585e-05 
3.318868824530938e-06 
4.19991752447669e-05 
0.0001220810959498929 
-0.0001026710855953425 
-5.900872235729875e-06 
5.069888705254545e-05 
-4.22516947043563e-05 
-0.0001731977086248231 
-6.599594321471992e-05 
0.0001496599785967607 
-7.889712439312997e-05 
-0.0006174015432873305 
0.0004240718694259859 
-0.0005592878531531347 
0.0001833983891634561 
0.0002887451236169284 
2.052244490339847e-07 
-0.0001245944696896807 
5.09190375588421e-05 
3.566907118311467e-05 
-8.787167019528239e-05 
2.262700863887389e-05 
5.043847495019824e-05 
8.121379116980535e-05 
2.083790419246524e-05 
-8.366242574776978e-06 
5.929604407947752e-05 
-9.750302748943084e-06 
-6.727720927601295e-05 
0.0001078165670217814 
0.0001011624615863514 
0.0004336430307476693 
-0.0001938212526253665 
0.0002534139299127515 
-8.815806122889376e-05 
-0.0001606097218843216 
-0.000109543155259614 
0.0002871342674583613 
7.083304104261208e-05 
0.0001248568852738514 
-0.0004323588727618663 
7.314480744756373e-05 
4.953485014111639e-05 
5.221344210343802e-05 
0.0003686942420799893 
-5.250240167474385e-05 
-8.242974982733966e-05 
2.573995448871591e-05 
0.0001058390929294767 
-1.072899213127671e-05 
0.0002022820301680669 
-0.0006077038033036692 
0.0001776080929023425 
0.0002491646206129876 
0.0002743652670946198 
-0.0003194408911641298 
-4.560783194089936e-05 
-8.176057965416534e-06 
-0.0001068263799351212 
0.0001103432233002706 
0.0003536600172329852 
-3.108264505370066e-05 
7.261864225366349e-05 
-0.0002330092323967337 
-0.0001020168446732895 
-0.000219402451943706 
1.178031518429196e-05 
-7.328307625558859e-05 
-9.288380380053064e-06 
-4.091623511382819e-05 
-0.00010805996061525 
1.493281456973151e-05 
4.692340179104956e-06 
1.333298517602542e-05 
5.599714650447835e-05 
-7.4920211236922e-05 
-0.0002190062859301045 
1.658001141346133e-05 
-7.351303719776479e-05 
0.0003241767505530831 
-0.0006341960958651284 
8.664581792206884e-05 
-0.0001644704583713193 
6.594438117501071e-05 
9.858910031836124e-05 
0.0004145955995880159 
-0.0001175519415800183 
5.862766241861525e-05 
7.935290668187758e-07 
0.0001563799501003545 
-0.0001186577295457924 
3.20425233513923e-05 
-6.945281383488846e-06 
-3.541208009021176e-05 
3.168035834589327e-05 
-4.216075395054272e-05 
8.626326481781959e-05 
0.0001052835255059805 
0.0002401975263083224 
2.015877874907565e-06 
2.295158862594574e-05 
-0.0001845467639932945 
8.767198150478392e-05 
-9.587538150451526e-05 
5.815848453431876e-05 
-0.0001054550356525445 
-0.0001838441875380891 
-0.0001922797626878969 
9.136717760710952e-05 
0.0002905545943711891 
-0.0002161694115660045 
-0.0001172749413840661 
0.0001193415406828001 
-0.0001455853185321884 
0.0001116092418523576 
5.695618854229959e-05 
0.0002005086492787295 
-6.780094142154536e-05 
-0.0003400047227169272 
-0.0004589742813221112 
0.0001066912305422017 
0.0002935791695418911 
-7.228203918913613e-05 
0.0003576476075758377 
0.0002874370601526377 
9.140295237955584e-06 
6.137600561060572e-05 
2.757211519496973e-05 
-6.374019349420724e-05 
2.937766849284876e-05 
0.0001182502635776562 
-3.301332867030127e-05 
-1.892884205273052e-05 
-0.0004527949467530149 
-5.982240256258973e-05 
4.134224889398693e-06 
6.076957089325674e-05 
7.37835694285996e-05 
0.0001297701404276749 
8.337606716840591e-05 
-0.0002689205493371306 
-4.915422496846448e-05 
0.0004213694926475572 
-6.044599938519102e-05 
-1.536148340498284e-05 
0.0001084083113799175 
3.265733226229873e-05 
-4.671379447976529e-05 
3.656767620631079e-05 
-0.000145382450703899 
5.917161680124541e-05 
0.0001717202022995105 
0.000128723340467412 
-1.748493091878656e-05 
0.0002799172882181876 
3.210202483133673e-05 
-6.95664773461104e-05 
0.0005109936961901711 
-0.0001796059274359025 
-0.0008624977471329947 
0.0002013226100386827 
-4.144503264935508e-08 
3.332114583307215e-05 
-2.362760613334017e-05 
8.400973731054586e-05 
-8.342456293540391e-05 
-5.636491479134175e-06 
-1.697624950164555e-06 
5.951122933471836e-05 
-3.43663199951099e-05 
1.375006583729564e-05 
-0.0003550592650825432 
-0.0002350443791607238 
-0.0002117187119511127 
0.0001928591809067513 
3.189301977348829e-05 
-7.737166707075925e-05 
0.0001713130022910844 
1.151500514657331e-05 
3.480412288834735e-05 
-1.311820210205729e-05 
-8.483167722331986e-05 
6.264123489603857e-05 
-6.081361678475622e-05 
-9.496344607153381e-05 
0.0001212883647272781 
0.0001360186161711444 
-0.0001649530671617142 
0.0002821510879574122 
0.0001674579948299252 
-0.0003681722763407499 
-1.357193303310318e-05 
0.0003398914000492221 
-0.000109426461392974 
0.0003170670065471945 
8.761379087648873e-05 
-2.699693635278189e-05 
-0.0002528307001148291 
0.0003012166926286864 
-5.849219085794893e-05 
0.0001110269968817292 
0.0001933558625300399 
-5.498864866677711e-05 
-5.792118279473856e-05 
-0.0001633120854265305 
8.80906324012121e-06 
0.0001330675591497287 
-0.0001260917239261296 
-0.0001559737473930961 
-3.42773712867678e-05 
-0.0006043744456432877 
-2.954508200228977e-05 
0.0003186024798268409 
-0.0001418310393261351 
-0.0001026104676912651 
-3.161290880432523e-05 
0.0002357554113440849 
0.0001678218044595176 
5.105034110942048e-05 
4.233741790515484e-05 
9.717567147514609e-05 
-8.938913178627422e-05 
0.0001392595036338544 
3.498339043950787e-06 
1.872916619234332e-06 
1.136012871344049e-05 
0.0001147974424342709 
3.240179867566821e-05 
-0.000169577324134734 
1.662831452510074e-05 
0.0001777891512392013 
-5.642880437424507e-05 
3.152452145248265e-05 
-0.0006615988528531568 
0.0002263840504328315 
2.263985669301367e-05 
0.0001465424199299554 
0.0001282688424311063 
4.392424688940161e-05 
1.057314086305354e-05 
-3.33035877708341e-06 
-5.222802799994214e-05 
0.0002559605576420008 
1.113992080550924e-06 
-1.485146595555711e-05 
-5.123540548440835e-05 
0.0001359158182869811 
8.758033410533737e-06 
-5.301264014859716e-05 
0.0001929919418696246 
-0.0001728099725401531 
-3.963226870222645e-06 
-4.292663239675261e-05 
-9.120637308058438e-05 
0.0001362192202406605 
-5.12947630302922e-05 
7.561013066433937e-06 
1.95797253499631e-05 
-8.19390376343108e-05 
8.774807824228768e-05 
3.881192626203797e-05 
-0.0002078984758858745 
0.000257883460347535 
-1.163799866871422e-05 
0.0002185321179519072 
-3.476390172342133e-05 
2.925689550145284e-05 
-0.0001646255468297057 
-2.531809542469631e-05 
0.0001243335523167013 
0.0002282558386821891 
-0.0001454881676108569 
-0.0001277099885214944 
9.33712539598843e-05 
-2.863816259305836e-05 
0.0002325561576506759 
0.0001033528171292427 
-0.0001424787694644311 
0.000127038623820544 
5.454680132803912e-05 
-9.37072459444582e-05 
-0.000764126811965782 
0.0001356943822087209 
-2.567148045714077e-05 
3.716907055468003e-05 
-4.656954422606561e-05 
-6.103914918447439e-05 
9.183065965621841e-07 
0.0002125472076867152 
-2.854458495194317e-05 
1.457519301145867e-05 
-0.0001330707955557109 
-9.21960902617807e-05 
0.0001578969882361704 
-0.0001080743704338533 
0.0001112725753880265 
5.280791136523009e-05 
0.0001380240625154913 
-3.419029115492255e-05 
-0.0001364844098744866 
-4.398861302954608e-05 
-0.0001720756024211381 
0.0002841826185860355 
-1.87775779872218e-05 
4.419737940777138e-05 
0.0001807195336252516 
-8.25119612982319e-05 
0.000500091382729066 
-8.95516431358642e-05 
-0.0003264792155837134 
-0.0001307361919322738 
7.644635684409895e-05 
0.0001849990353501891 
-0.0007665915060195554 
-0.0003095504969183037 
-4.913555912929847e-05 
0.0001710622832968599 
9.834017931972676e-05 
1.030921424945641e-05 
0.0002734601905086862 
0.0001598403339166041 
-0.0001319083078989002 
0.0002700463470946639 
9.272123701585762e-06 
-1.919545422993103e-05 
-0.0003500860253165121 
0.0001399992261871076 
-0.0003426332713653999 
-0.0008445743655121686 
-0.0004535673078962869 
0.000650532984485901 
-3.250625426313972e-05 
6.599683142619908e-05 
3.814911503633496e-05 
2.535050584663999e-05 
2.960514035782073e-05 
2.782086271048946e-05 
0.0004002323754169204 
0.0001746859265256118 
-4.685331392890603e-05 
-0.0001030374102782611 
-3.218577710396321e-05 
-4.839074976008686e-05 
7.866078644554958e-06 
9.496970037466106e-05 
0.0001720259611915167 
-3.38721753026867e-05 
-1.537942400948141e-06 
-4.214647832086249e-05 
-3.407431226055611e-05 
7.732773087991348e-05 
-4.580607833334978e-05 
5.231657976359608e-05 
0.0004165603737771881 
0.00013612915974554 
-0.0004756294778118561 
0.0003689566033123688 
0.0005033455813376888 
-0.0004842175409536462 
-0.0004127404514388709 
-0.0001800891757908111 
0.000133690763326177 
0.0003139446876028737 
9.382056600120038e-05 
6.48287253712962e-05 
-4.549694643508406e-05 
2.386837056979682e-05 
3.319129584695252e-05 
2.641156797279408e-05 
3.331623671962374e-06 
0.0002750485695812747 
3.976998181994127e-05 
7.422117331819438e-05 
-0.0001606631330268254 
-0.0003042176306242111 
0.0003055788834943178 
-5.707563055998203e-05 
-1.874800105081662e-05 
0.0001180297397022108 
-2.829243563699403e-05 
6.199851835044252e-06 
-0.0003991590592099469 
4.790743766582922e-06 
-0.0001463101990954664 
9.51057507550916e-05 
0.0001125437275175186 
0.0002043352346297546 
-0.0001771037267380959 
-0.0001828816163246196 
-1.528049560895631e-05 
-4.792405377475698e-05 
-4.025280632370423e-05 
6.843897066442015e-05 
-1.551156120674457e-06 
-1.35034307727026e-05 
0.0001475351409275279 
-0.0002147562087611783 
-5.969859649239662e-05 
0.000175341998665483 
0.000373632776693078 
0.0001525690171400217 
8.199486894772294e-05 
6.256424551373933e-06 
0.000265304349866973 
-0.0001068232406008566 
-0.0001360679807524047 
-0.0005763400954084411 
0.0001337276826037331 
0.0003298655176743232 
0.0001560486875316662 
-8.027542530246461e-05 
0.0004485947429055043 
2.472766314838725e-05 
9.656189512485218e-05 
-0.0001120375268124668 
-0.0001744304135793005 
2.216858756167738e-05 
-0.0003514573867123547 
-0.0001040104041228506 
0.0001149023116535147 
8.003200015936869e-05 
5.180690434841422e-05 
0.0002257867421285946 
3.14225220054267e-05 
-0.0002325002713774365 
0.0002150099209880318 
0.0001341961701365156 
0.000224848208025584 
-0.0001160988748555612 
0.0001395498592215381 
-6.452897411591275e-05 
2.038471637334281e-05 
3.184607740328657e-05 
0.0001173344346311363 
-8.484888178093702e-05 
-5.391930589146133e-05 
0.00023465380063362 
-0.0002508737691794497 
-0.0004963758184761667 
-0.0001235511579083129 
0.000551255513273927 
4.399025412624844e-05 
8.785059835825926e-05 
-5.502122289825529e-05 
-0.0002292488043201885 
-0.000352458882931188 
0.0003443774278742233 
-0.0001104675423848163 
2.80944788331535e-05 
-0.0004574011571976833 
3.832648294170774e-05 
0.0001376952349911755 
8.883530669623984e-05 
0.0003092557955012165 
6.96780668033258e-05 
-0.0001329776288877637 
0.0003343954280280768 
9.992748179419522e-05 
0.0003729552335401384 
-0.0001955485796710869 
-0.0007262427626370234 
-5.902112522333253e-05 
-0.0001140536160461905 
-8.271101925909344e-06 
1.066091322229321e-05 
-0.0003133443990136989 
-7.902841175020081e-05 
-4.371551516489632e-05 
8.757133030615285e-05 
0.0001362200861532544 
-0.0002865936959904125 
2.122624767153382e-06 
0.0002053834131394681 
5.931608682924937e-05 
-8.578571053015623e-06 
-1.358498394869212e-05 
3.193115137970627e-05 
0.0001073805203955694 
-1.532361601462705e-05 
0.0001131316635097971 
-4.532899455347364e-05 
-0.0001282382059340377 
9.176463055587178e-05 
-2.410616100223018e-05 
9.369728126509343e-05 
7.318521548865425e-06 
-9.232249365592585e-06 
0.000162011096853929 
3.184323666914514e-05 
-0.0001112968014097833 
6.645018755956562e-05 
-6.017746517595994e-05 
-6.772799552562636e-05 
-0.0001454495847207556 
0.0001727204851459136 
7.740276682781239e-05 
6.277851025739813e-05 
0.0002593916898131175 
0.0001412358663330418 
-6.178888952162851e-05 
0.0002169960346940281 
-0.0002109526097840195 
-0.0001820427209935529 
2.48578833542765e-05 
0.0002270597354706025 
-0.0002692995742541007 
0.0005856253244171756 
-2.980165779121485e-05 
0.0001598919700368211 
-0.0001952516236735213 
3.37214820362952e-06 
0.0001332877255096557 
-0.0001987810927948176 
-0.0002961729298915766 
-0.0004754853482571675 
-0.0001186765532567928 
9.758322994101453e-05 
3.659194648528574e-05 
0.0001626619640728859 
0.0001156581620497779 
0.000338549038789458 
-0.0002922167612526896 
0.0001118075516499554 
0.0004350934488364786 
-7.647439930626549e-05 
4.857933406859336e-05 
-8.431249571948922e-05 
-2.696333237946208e-05 
7.055342137952722e-05 
-4.99893999888887e-05 
8.18349024287485e-05 
8.4140477405637e-05 
0.0001096824781883237 
0.0002581285920103341 
-1.459256509771615e-05 
-0.0003055915558646369 
-2.928924218411408e-05 
5.365114719381202e-05 
-3.145718662524155e-05 
-0.0001911091887324951 
-1.312240356615137e-05 
-0.0002186433210302241 
-4.442586873257953e-05 
-0.0001236695110496646 
-0.0002186903955316813 
-0.000222111213002902 
0.0001451934586196828 
-1.578646902616083e-05 
-4.210311067690057e-05 
-7.026848119090804e-05 
7.761839365508249e-05 
-5.224195947122558e-05 
0.0001344992352610058 
-9.651620345650052e-05 
-0.0002204539405464175 
7.334663373808207e-05 
-0.0001910911688234943 
-0.0002774186127224634 
5.013245751598568e-06 
4.337750247440226e-05 
0.000152963413005525 
-0.0002124502898544119 
0.0003995400416733914 
-0.0004762750454832905 
0.001232190215818779 
-9.875613046467136e-05 
0.0002230502306641666 
-0.0002088660658937541 
0.0002187628152704106 
-0.0002256681077393523 
-0.0009865377940737124 
0.0007450265511160212 
-0.0002954541268998509 
1.173258507893133e-05 
-3.720506851230229e-05 
9.997078899096378e-05 
0.0001484979008092865 
9.363965858418103e-06 
2.051281546788078e-05 
3.689228746868265e-05 
0.0001350977914119434 
2.493232994009437e-05 
5.06507898426653e-05 
7.688925263820322e-05 
0.0001307659804878146 
2.593100363552946e-06 
9.733214887240606e-05 
-0.0001836339061255787 
0.0005501703784114165 
-4.881940744413531e-05 
-0.0001560765293844066 
9.438949956909781e-05 
9.327044653729101e-05 
1.062550331274791e-05 
1.76794706228465e-05 
-0.000123562289743575 
-0.0001226500267783826 
0.0001469859016721343 
4.420460771485462e-05 
0.0001473208096219063 
-3.987021604537625e-05 
0.0001434038319794177 
-4.605762224751215e-05 
-0.000230708732686597 
-0.0004442444331638362 
-0.0001825844574356301 
-0.0002430815630156396 
0.0001519765489164312 
-0.000336121303221734 
0.0001839075932052427 
0.0001066959745021699 
0.0002207752296960829 
-8.421179566820269e-05 
-0.0006226864710945509 
-8.156557693426261e-06 
4.083430266605848e-05 
0.0001316537634632708 
-0.0001185711825387893 
0.0004059362076805267 
0.0003230492192520865 
8.673681937590323e-05 
0.0005382961797023868 
-0.0001115309917421736 
5.98322842225034e-05 
0.000287054089788999 
0.0005819573901289537 
3.779453922374768e-05 
0.0001443154597842744 
5.741493195469548e-06 
0.0001374894087100242 
5.30366292798999e-05 
-6.204989076772485e-06 
8.62170717299466e-06 
-7.352717229425165e-05 
0.0002040654694937711 
-0.0006152932307695298 
-0.0008715439479091013 
1.889564304076767e-05 
0.0001277548041223709 
-0.0002504576082254101 
-0.0003405823683040567 
-0.0002452369739057761 
2.253640902046916e-05 
8.639116508729565e-05 
0.000656532291159285 
-5.86337772235479e-05 
0.0004949104970913934 
0.0005087850985141471 
-0.0003089404281067253 
-0.0005634272325968768 
0.0008181904176181247 
-0.0002323339921218026 
0.0001313003488839891 
0.0009095935887312908 
0.0001970797130629411 
-0.0003339957989539152 
0.0002902471075574965 
-0.0002832389605456757 
-0.000393549199916767 
-0.0004693572798679202 
-0.0001760501375283475 
-0.0004778577753451864 
-0.0003821014425468922 
-5.519234270632336e-05 
-0.000106933564400489 
-0.0003125604712415406 
0.0002076891826344938 
-1.68308342207233e-05 
-1.193731594613229e-06 
-0.0002824203489061207 
0.0001025007020723095 
-0.000360111532455822 
0.0005333085226223729 
-5.877550817988589e-06 
-2.754847413933731e-05 
0.0003927412745852903 
-8.933624221354814e-05 
0.0002957469245245775 
0.0002556474026481792 
0.0001194466167311235 
-0.0001715779952532396 
4.631200113092927e-05 
1.872145040531725e-05 
-0.0002942041176339914 
-0.0003475221789900191 
-0.00042914207751955 
0.0006107272578247457 
0.0001391671255583287 
0.0001512239728833738 
0.001087707561267213 
-0.0002474230544150036 
-0.0006665068286807384 
0.0002225098947617701 
0.0002833612288335045 
-8.74176457351053e-05 
-4.63980311654336e-05 
6.630756028659835e-05 
-0.0006272194582245167 
4.185995956196051e-05 
-8.415820678570159e-05 
0.0001947393100304411 
-0.0001620865412935483 
-0.0004740279068295617 
3.667359774094156e-06 
-5.408945828405006e-05 
-0.00013140648914408 
7.100309115915649e-05 
-0.0005303884199581475 
-8.856285081912152e-05 
8.101839480981676e-05 
-0.0003045379491384499 
4.197314738622082e-06 
-0.0001978091126776105 
2.434789260588112e-05 
-2.673494485744381e-05 
0.0002038828512289413 
-0.0003237947409216925 
7.39709295822067e-05 
3.682089221313932e-05 
3.820556055518428e-05 
-0.0002776548312940415 
1.648763159172341e-05 
0.000595355844231116 
0.0001013034024909218 
7.324272725803393e-05 
-9.200092406803071e-05 
0.0003265456185954682 
2.085017469838041e-07 
-0.0005209656393020585 
5.28813546130708e-06 
-0.0002506319745179647 
0.0005080334138866504 
0.0002889969639117852 
0.0001301123719771256 
-0.0001997028780256748 
9.313897569086097e-05 
-0.0001645863232700271 
0.0004715282417987207 
-6.941315725705355e-06 
-0.0007796473722329014 
-4.560780582128414e-05 
-0.000101121084396744 
0.0001078140322527092 
5.108740968162222e-05 
4.096546639661084e-05 
6.315770023407198e-05 
-0.000101219748322864 
0.0001774181633676393 
0.0001420663216402989 
0.0001382456386658176 
-0.0001634392902442261 
-0.0001121169527256704 
-9.136411938204968e-06 
-7.901968215766506e-06 
-9.674480255896105e-05 
-0.0003900691386846673 
0.0007419730628746017 
0.0005364866308598843 
-0.0002973028362519121 
-0.0002968351716386505 
0.0002866460632870019 
-0.0001271876058294059 
0.0001233333894186006 
-0.0001235279882583685 
0.0002045449278001459 
-0.000106746431944516 
-7.092727989399267e-05 
-3.947020745127964e-05 
-8.245444996796397e-05 
0.0001392776741084994 
0.0002868138255883944 
0.0001076332775264107 
4.646278344998784e-05 
-0.0001729815755510499 
4.889467303578805e-06 
-0.0002365576371315762 
0.000299799777068752 
0.000259390919829177 
1.737566440169543e-05 
3.331099429713028e-05 
-0.0004254026564466388 
-0.0001838683023234618 
9.248039005561623e-05 
-0.0001290201055771952 
-7.599248243091625e-05 
5.125936377501185e-05 
-0.0002688156332955708 
-7.753716650451951e-05 
0.000446830585629758 
0.0001314446348828698 
0.0008353022468605024 
0.0001503106664772924 
-0.0004728134246327216 
0.0002339228340275099 
0.0001054076292508316 
2.822175816219743e-05 
-0.0004395593261646044 
-8.261957101143571e-06 
-0.0001770333892304336 
-7.900218642610757e-05 
0.0001506043176196209 
-0.0002992640462527776 
0.0001398363382492957 
1.678079305691654e-05 
-0.0006233923209321919 
0.0002475225214262651 
-0.0001805791797058045 
-7.990538408617045e-05 
0.0001399836893062525 
-0.0003659411145465214 
0.0003943962835577114 
-0.0003769513240472155 
0.0002865586321809934 
-0.0001153759309040425 
-0.0003807964431013502 
0.0001015753730695704 
0.0001117966819735574 
0.0002307133616725914 
-0.0001251159121469713 
7.53512508832768e-05 
-0.0001836225754172675 
0.0002915039876078199 
-1.951425846727894e-05 
4.579861737255236e-05 
-0.0003088142843372019 
-3.409023592595625e-07 
-3.586661171586343e-05 
0.0005081505495676746 
-0.0004338984569850857 
0.0002052564972807276 
0.0005617030566140109 
0.0001378029681903531 
2.264839674512131e-05 
-1.7703559541339e-05 
-4.135064241330735e-05 
-0.000391830078529054 
0.0003013347581130558 
-0.0002027875448000097 
3.985745630910561e-05 
4.096013349328927e-05 
-0.0001000818225699482 
-5.587066369831449e-05 
-0.0006066742680114269 
-1.069410725181295e-05 
-7.201960358794269e-05 
0.0003826935902834183 
0.0006281800551354824 
0.0003156341726943309 
4.447557224934274e-06 
0.0001662359445703999 
0.0001067425126093108 
0.0002325433349765623 
0.0002886599810050982 
-0.0003101767370636663 
-0.001191248897092266 
-0.0003660701300724659 
2.637353517403328e-05 
0.0004868974117381041 
0.0002475898316779361 
0.0001919838571322437 
1.759250292144457e-05 
-0.000145539999810163 
0.0001240514482069493 
-1.908047180425693e-05 
9.028609686934667e-06 
-3.090995262358732e-06 
-4.726761360043307e-05 
-0.0001146858572638062 
-0.0001155043498061182 
0.0001143178165372549 
0.0004164874266901555 
-0.0002602715027671726 
5.459709380124818e-05 
0.0003086138463298766 
1.537117789994219e-05 
0.0001937516907521648 
-0.0002399450748747237 
-0.0002539728471022698 
-0.0004478160762211576 
0.0005063352313825126 
8.386810373605905e-05 
-0.0005267853813425758 
0.0004244361848509193 
-9.075533350262963e-05 
-0.0001265337817886848 
-6.271074827937488e-05 
-5.654326911257999e-05 
0.0003368752345782 
0.0003629408425106822 
-0.0006494061451613697 
-0.0002556902966028469 
0.0002608406385038762 
1.701541021182662e-05 
-1.662209412404464e-05 
0.0001304027481565822 
-7.122552789702158e-06 
-0.0001395773616496711 
0.0001195385223643269 
0.000106924463881626 
0.0007619652966995899 
0.000419904450938771 
-0.0002045809681322121 
-0.0002908654377004199 
-8.53757495547023e-05 
2.459165931815515e-05 
-0.0002722626869619295 
7.110286428057172e-06 
0.0001523936960404699 
0.000401587550267849 
3.324993703756014e-05 
0.0001885512928284161 
-0.0005644157864314558 
-0.0003908004489461045 
-0.000446358369656215 
0.0002039648019146548 
4.997486332219203e-05 
-0.0004028765826291015 
0.0002996439328640454 
-0.0002230937632571311 
0.0001616341762582323 
3.129497737839484e-05 
0.0001120976135064237 
-0.0001104931325301207 
-0.0001690100497011873 
-0.0001872584735790812 
-8.455216350938509e-05 
0.0007660960087205429 
3.855148190053379e-05 
-0.0001544655992837755 
8.386437315309037e-05 
-6.169342690562795e-05 
0.0003409476206202179 
-0.0003352401648500086 
9.237370907324404e-05 
-0.0001351485068935242 
0.0003949072391401688 
0.0001584954940297537 
0.0004697043770585926 
-0.0003534856671648449 
-0.000350526554488934 
-5.005082143657371e-05 
-0.00026653209747582 
0.0001717798548826708 
0.0001062904591223433 
0.0001910849732129483 
4.563550981972489e-06 
4.258315635665082e-05 
-0.0003436334552561038 
6.586998674985449e-05 
0.0001073494865251497 
5.56425745017558e-05 
2.774978429515837e-05 
0.000308596547478405 
0.0001445500341563723 
-0.0003489813445817344 
-0.0006304456936036477 
5.536922228242509e-05 
-0.0001214648181205559 
-0.0001964550354851183 
0.0004673076818514198 
-0.0001358676178946291 
6.245997137597994e-05 
8.857981335493166e-05 
0.0004507224253439988 
8.960351646484325e-05 
-0.000398598859921276 
0.0003727134273553902 
0.0001167653208345092 
-0.0001680410803615634 
-0.0001203704329954865 
2.222480314958913e-05 
-0.0002159103041726366 
-0.0004753995335545836 
4.951129767045177e-05 
-0.0001360528356371536 
0.0004378079941264974 
-4.163861316245118e-05 
-0.0001447925130440197 
0.0001266362088688106 
0.0004593899954735539 
-0.0008582624016394572 
6.900777202774376e-05 
-4.479408419538094e-05 
0.000208128582336419 
-0.000280776874508215 
-0.0002129740137194058 
0.0003836722365469534 
4.253355235631545e-05 
1.03632617569481e-05 
0.0004635855843854514 
-0.0001829493114070633 
-2.76699451076633e-05 
-0.0001689236373089755 
0.0001894762166215613 
7.338600521481855e-05 
0.0003500961263833323 
-0.0004263956262732978 
-0.0001402098942402516 
-0.0003017493509753238 
-0.0001281815862609631 
6.253515927676494e-05 
0.0004706048150112966 
-4.19750814750456e-06 
0.0002006674507113682 
0.0001786785967969959 
-8.479260147452399e-06 
7.440147849062475e-05 
6.759216549944428e-06 
-4.936641781675819e-06 
1.264940770928394e-05 
-0.0008865042482003056 
0.0003072844958539482 
0.0003132023542489124 
-3.167105917147699e-05 
4.51532653982722e-05 
0.0002195657965274322 
-4.454488465785039e-06 
8.037144066839273e-05 
-0.0001257964014205296 
-0.0004984627302220263 
-0.0009725052651434292 
4.72236307727178e-06 
5.418258923995204e-05 
0.0002733933398076618 
0.0003171188297917171 
0.0003045834756291577 
0.0003459476190762149 
-2.819331101150921e-05 
0.0003806487041443684 
0.0002080086866139198 
8.689810349655942e-05 
-0.0001547019518216228 
-0.000183375709981509 
-0.0003839936457669852 
0.0001611490287090956 
-0.0002605196875057254 
0.0001799490488033792 
0.0003061825242938849 
0.0001245601879985555 
-0.0002063629253772957 
-0.000212390751931192 
-0.0002405180671762634 
0.0001930460731562725 
-7.145296641275324e-05 
-0.0005995567770123956 
0.001127460344259517 
-0.0002363568009671275 
0.0006144489479821183 
0.0001362558828827106 
-0.0001334030053527473 
-4.592760824589154e-05 
6.393544045002968e-05 
-2.557125420622621e-05 
0.0002685707455184366 
-0.000120256595987243 
-0.0003112636418632314 
-0.0003245275103673827 
9.192100735740397e-05 
-0.0003162887548806296 
-0.000419341328454325 
-6.281415201160393e-05 
-0.0001515661035398708 
0.0005251125282186109 
-4.026402924020954e-05 
-7.592249680501784e-05 
0.0001450118616648321 
-0.0001987294958366991 
0.0003244510908362895 
0.0002071448765801192 
0.00015722006161685 
8.032454648712053e-05 
-6.046188606723614e-05 
-6.85220592849001e-05 
0.0003725949327667547 
-0.0005620679751395792 
-0.0001200660512870922 
0.0003261768893743921 
-0.000118774046562884 
-0.0001000617415591724 
0.0009077810176325029 
-2.368230903551709e-05 
-0.0002205441547455203 
0.0001507709455798701 
-0.0002440264292557283 
-8.357122537067011e-05 
-0.0004391886981354963 
6.424357623244116e-05 
-0.0005085670752036585 
6.481251666770486e-05 
-5.127582489053235e-05 
0.0003121759985667489 
-0.0001755164441710712 
-0.0003241446985506562 
-7.56032988623823e-05 
0.0008177734880709458 
-0.0002415338715787305 
-4.303121354237621e-05 
0.0001105411625558977 
-1.600412184340817e-05 
0.0006161902889235292 
0.0004697999619107104 
-4.343551503421698e-05 
-4.418358563374295e-05 
4.154622821889734e-05 
-0.0002147804343642747 
-8.823926180376739e-05 
-0.0001566006614710484 
9.038072230476584e-05 
0.0005406896564786986 
-0.0001767806290151409 
-0.000144527826117698 
-6.779773754321918e-05 
0.0001161848050739995 
0.0001105635013481387 
8.006756992216703e-05 
-0.0002461179469996547 
0.0001110884047217517 
-0.0004094645357693469 
-8.431444897545289e-05 
4.153258057198219e-05 
-0.0003690258964014213 
-0.0003450962002748913 
0.0002082137176495388 
0.0005032874725764528 
-1.186046080344842e-05 
-0.0001066940492067711 
6.686657047653439e-05 
-5.427063753085963e-05 
-1.400871466840137e-05 
0.0002417664220391943 
-0.0001178680351448204 
-4.292843648573791e-05 
-0.0003970245442353299 
-0.000261343904469015 
0.0002663925091777554 
-0.000312476111638477 
-9.885706530558025e-06 
-0.0001233949672872799 
-3.56643856361072e-05 
0.0001141279298490672 
-0.0005552335363319584 
-2.42038740468788e-05 
-0.0001713212048632699 
0.0003818213917210364 
5.413239573034716e-05 
0.0002025491714996412 
7.705409092974718e-06 
3.598491854947474e-05 
-0.0004588199327276855 
0.0005592040944628031 
0.0003695944411587017 
8.210663316301494e-05 
1.654696090722626e-05 
-0.000188986730873119 
7.227267187401979e-05 
0.0002079322826751592 
7.619660705930151e-05 
-5.35000125679165e-05 
-4.987205808007294e-05 
-0.0002217343095935742 
0.000134523790930893 
0.0009789483273070774 
1.895111917874257e-05 
-0.0002054675441572203 
-3.449188469997845e-05 
-0.0002281759181265708 
2.908179963905757e-05 
-0.000320821633630763 
-8.874202062832152e-05 
2.877385969585022e-05 
9.944713183908575e-05 
0.0002828546153422714 
0.00071894938628461 
-0.0002650640704652074 
-0.0001242676980012467 
-0.0001800894217246531 
0.0002310436043899155 
-0.0004457896153843717 
0.0004086442636851094 
0.0004609512622903968 
0.0002104534288748121 
-0.0003605636022886995 
-0.0002857957673401976 
-0.0001068126097444194 
-0.0003573364190835366 
-0.0006509490032863827 
0.0001810958694093834 
9.210270421972407e-06 
-0.0001760356187866579 
-0.0001009784068288909 
-0.0002348821801390488 
-6.184868839716786e-05 
0.001087891900758283 
0.0001510633465240251 
-0.0001248317029805933 
4.487064869576417e-05 
-0.0001004673898565636 
-2.522930334495992e-05 
-4.5059310373068e-05 
-0.0001090117623555509 
5.081801254233067e-05 
-1.517857974250107e-05 
-0.0002044654547574055 
0.0001987000736670464 
-0.0002616755043035425 
-0.00084962478830937 
-0.0001947862617668004 
0.0001875370482842764 
0.000767738655900429 
-5.394311835010786e-05 
0.0001671284339284533 
0.0001343591251441164 
7.722556974104493e-05 
5.299172867501506e-05 
-3.276344055688795e-05 
-0.0001366960374313062 
0.0002377448207949197 
-0.0004047360868011711 
5.330775980244089e-05 
-6.101773374642696e-05 
-0.0002975195188110703 
-0.0001832576260282954 
0.0002331991670648762 
-4.851254268198122e-05 
-0.0001196904222780616 
0.0003856954587570365 
0.000685173315165478 
0.0008417333472306577 
-0.0002152675885715023 
0.0008184586497359123 
-0.0001188394171104705 
-0.0001838615809431604 
-0.0002378212186935543 
8.968922388504704e-06 
-1.742247360337231e-05 
7.296493888068164e-05 
0.0001764349052427576 
-0.0002520377968383128 
-0.0002981918128779471 
-0.0002933359042393067 
-0.0004882057902318034 
5.131752442240955e-05 
-9.924911100373363e-05 
-7.471353976217076e-05 
0.00059592454425114 
-0.0006094600115700206 
-0.0001183664050525451 
0.0001009817049411023 
-0.000511366858499557 
-7.773081435289228e-05 
0.0004233894486141598 
0.0001374849961243957 
3.990897846371557e-05 
-3.104958059617828e-06 
-0.0001524255528935706 
-0.0002880783628975826 
0.0002395994091367117 
6.352300344392019e-05 
9.091753257330423e-06 
-0.0003882128611098876 
0.0003005657666671035 
-0.0004663016215236611 
-0.0003658147784343897 
-0.0003187395236867094 
0.0001856254084104564 
8.770517284169369e-05 
0.0003332468615308203 
-0.0002117734439740815 
0.0003361517085921369 
0.0001721537518074017 
-8.301091394630119e-05 
0.0003335380124486148 
3.65154629219297e-05 
3.460823033473801e-05 
-2.086062014234276e-05 
2.048569036066217e-05 
-5.502907349422381e-05 
-0.000146883447740418 
6.497665057311667e-05 
0.0001059157860294347 
5.617682687353861e-05 
-0.0001615658392007796 
0.0001929012870843677 
-0.000196861815539249 
2.187189877165524e-05 
-4.625637217261783e-05 
0.0002826285285569476 
-9.947777345011015e-05 
-6.130422423506108e-05 
-0.000134815019500604 
-2.011833054090853e-05 
-0.0001032028692194301 
-0.0002195347267862129 
-0.0006345628945083844 
0.0002092036736585291 
0.000474706357855515 
-0.0002355636752950583 
0.0001079082011573344 
-0.0002728988729435988 
-9.104983372993083e-05 
0.0007239398119505972 
-0.0003368064994054737 
0.000433531378829468 
-4.477842333199534e-05 
7.912300584702468e-06 
-0.0001029350731132752 
-8.651089376614684e-05 
0.000335717330872939 
0.000121067707857952 
2.019093789845476e-05 
-0.0002586916674383889 
4.568277629183467e-06 
0.0003452372057251676 
-7.417049637372999e-05 
1.942960980024972e-05 
0.0002462656550470718 
-0.0001381457936324174 
0.00014206906317461 
-0.0007336111864292542 
-0.0003756862428496628 
6.328510282732397e-05 
-0.0004785851018113633 
0.0002324710302811488 
0.0003150375179658316 
1.309961519332034e-05 
0.0001020476414095454 
-0.0001629567350460224 
-0.0001037753760935287 
5.570545381553911e-05 
-0.0002102663961679724 
5.776433336893159e-05 
-6.628687429213423e-06 
-8.126962505218698e-05 
-2.468518803436658e-05 
5.661423050388691e-05 
0.0007613564220751329 
-8.721514477628105e-05 
-0.0002434109720857267 
0.0005465366678099819 
0.0002826188246055623 
0.0005218066668709239 
-2.956752848650398e-05 
-0.00028241887818712 
-0.000285477109553501 
-4.492704635146962e-05 
-4.836610958810911e-05 
2.868865642441305e-05 
-0.0003402289936361276 
-0.0005127533444745326 
-0.0003745107483230131 
0.000283699510734959 
-5.762292039075603e-05 
2.811232664336671e-05 
5.004367413737172e-06 
8.673539752653757e-05 
-1.597422613958855e-05 
0.0001623330754868547 
-0.0004252613034700533 
-0.000603412102245919 
-9.710354283166721e-05 
-0.0003965810529126533 
0.0001527840705514256 
0.0008885855620672715 
2.20593198719752e-05 
0.0008478853525529749 
-0.0003582057489733828 
-4.583565920158017e-06 
0.00038602994539638 
0.0005021216718277016 
-8.56891455286007e-05 
3.028188125447888e-05 
-2.974644858891752e-05 
-6.673191599983948e-05 
-8.596094488047628e-05 
-0.0002305695322979413 
4.557645873198292e-05 
-1.548291597028412e-05 
-6.672030340449956e-06 
0.0003542553026632434 
-0.0001659427094411939 
9.625497806466283e-05 
-0.000370764843252083 
-7.50775665343044e-05 
-4.977598281721391e-05 
-0.0002332214845433777 
-0.0004429113763195354 
9.141237782612352e-05 
3.874459224262614e-05 
0.0005570783975939895 
-0.0005608393337948903 
7.072925411786975e-05 
-3.628308054160631e-05 
-4.769007378573038e-05 
-3.957737657223867e-05 
8.488391340429494e-05 
-4.677604688223274e-05 
-8.091103703004677e-05 
0.0003789165480103253 
-0.0002317505250100412 
-0.0003409032537101686 
-0.0001003868981031589 
-0.0004248271532628642 
0.0001828348381836005 
-0.0001131428556134082 
-0.0005766583422131615 
0.001967729232864702 
0.0004215482589170528 
0.0003310798940919515 
-4.217444422675487e-05 
-3.447701503678971e-05 
-0.0001187471268279001 
0.0003432200992081913 
9.974799657300158e-05 
-0.0001255642226247836 
-0.0001253174217275564 
0.0002497240807087844 
0.0002091266564827213 
0.0001103464937534417 
-6.092508665596304e-05 
0.0003679741635859918 
-0.000149600957179146 
0.0008778580622284109 
0.0006482940907223128 
-0.0001576725589348416 
0.0003869405215844822 
0.0002498548770705351 
0.0001443266840276193 
5.064315967290173e-05 
0.0002301543178600849 
-8.993559506132218e-05 
-0.0005312011758795019 
0.000360007460121922 
-0.0008247666410461747 
-2.8296389350281e-05 
-0.0009391142972047136 
-0.0001237728889831248 
-0.0002188663839600643 
0.0001546127623076618 
-0.0006479151345263888 
-6.471698557371069e-05 
-0.0001111196993252865 
-9.479328698059783e-05 
-0.0001008789410960912 
-0.0001798537558378576 
-0.0003078183723503795 
-2.782613226176898e-05 
-0.0002168781979608457 
0.0003424607235836706 
0.0004359758110183333 
-0.0001193277727153604 
2.024341802954931e-05 
4.94864213136542e-05 
-0.0002824523138058496 
-0.0003400361433397033 
2.140381807968275e-05 
-0.0001714399873693896 
6.481857821937338e-05 
1.888840923925057e-05 
4.182423517248425e-05 
0.0002461799920372691 
-0.0005024466528493217 
3.029220398870827e-05 
-3.88218396428857e-05 
-0.0004443648331821765 
-0.0002109936997452318 
-0.0003045827867382876 
0.0001831632352251839 
6.548212588583054e-05 
-0.0002452058415423983 
0.001145936126272876 
0.000839270224292624 
4.465782107961497e-05 
0.0003854041772719128 
-0.0005486214274178553 
9.355619584782904e-05 
-2.447567764755183e-05 
0.0006693332538826456 
-0.0001991437827427236 
0.000213212480890428 
6.214501782388661e-05 
9.674846665799289e-05 
-0.0001022579818834678 
4.533754884090149e-05 
0.0003452483028744965 
-0.0002238158518763186 
-0.0001286870303084216 
-5.205977064999371e-05 
-0.0005581594969170708 
-0.0001594109058329371 
-0.0007831537972144983 
-8.338158083919851e-05 
0.0006046357587922291 
0.0002777881701509643 
0.0002755679883965566 
-1.649571579334297e-05 
4.319034592004417e-05 
0.0004146099493597939 
-0.0002824109364322899 
0.0001558898631559237 
2.181213770901074e-05 
-0.0001104769737686644 
-0.0002287550307386222 
6.47823904665355e-06 
-7.708980023115043e-05 
-4.587929171944812e-05 
-0.0002276584308050876 
0.0001596882916977765 
-0.0004035191795751563 
3.970616623330432e-05 
-0.0001169592039250871 
0.0001002472898861442 
0.0001943042061146918 
8.623448913249163e-05 
-0.0005122637059454461 
-9.17251674600245e-06 
-4.883238419252957e-05 
-0.0004134253282226711 
-0.0005849754141268051 
-0.0003839611629902202 
-0.0001990035678237133 
-0.0001485923660777565 
0.0003197474551537126 
3.650590593711084e-05 
0.0002738760744603642 
0.0004946976731799055 
-0.0002647224142520543 
-0.0001458453485798985 
-5.621062961850603e-05 
0.0005134108879047599 
-0.0001558594838472586 
-0.0002534152798932239 
-0.0001157513724387023 
-3.193398814885095e-05 
0.0002144121837299629 
-2.052908434285691e-05 
-0.0005512087376618529 
0.00197763580878377 
0.0003227109875078772 
-6.893419981701465e-05 
-0.0001533320989789815 
4.724312124956256e-05 
-2.046285488678244e-05 
-4.384849895830986e-05 
0.0002346244739221498 
-0.0003291349982766416 
1.470530335618711e-05 
-0.0001863946255478647 
-0.000163549889427175 
-0.0002567732678195589 
-0.000160455368387032 
0.0002695111087235035 
-1.984780710017357e-05 
-0.0002009325905406409 
-0.000448841238851253 
-0.0001986160413084641 
0.0002040869919982788 
0.0004305432605132703 
0.0001603897651249351 
0.001772284936802374 
-0.000132234044812234 
0.0001324247159406151 
-0.0003128169035510186 
-1.11053803156976e-05 
-0.0002621558404506882 
0.0001454683706910908 
0.0006608866039192118 
-0.0006934933829411721 
-0.000183731745016057 
-0.0001236503678091798 
-6.768816504006635e-05 
-1.472978242365855e-05 
-0.0004111190219631481 
0.0003328223036417353 
-0.0001844468061757968 
-9.72808044052905e-05 
9.713142738514907e-05 
-0.0004029351574624173 
-0.0005404556857060993 
-0.000137155075197468 
0.0002472093173099904 
-0.0003122579166443482 
1.449041235507062e-05 
-0.0002359649406893234 
-1.165381970447791e-05 
-0.0001472439025675352 
2.318372377432934e-05 
-2.318642155675327e-05 
0.0002530219921226605 
0.0001838535509654254 
0.0003033694357605292 
2.258335203215269e-05 
0.0004426680345456592 
-9.896794203883793e-05 
0.001170854958719636 
0.0004228733823198098 
0.0002884013678215872 
-0.0003954805572503498 
-0.0002146455390922551 
-0.0003326978621151502 
3.4781972413422e-05 
4.556497506356867e-06 
-0.000353882831816952 
0.0001459463155112237 
0.0003974224937079964 
-3.492388264879554e-05 
0.0003969216558240002 
-0.0002529201506121161 
-0.0002760176378725243 
-0.0003252808420577489 
0.0003263285715475864 
-0.0001898738605726313 
0.0001227085674178032 
-0.0003790716625334388 
-9.900320271688306e-05 
0.0002311702786101595 
0.0002274984765834015 
-0.0003688635325291479 
-0.0007482742169107896 
0.0002170106780824303 
-0.0007096391704198753 
-6.667434352055749e-06 
-1.719875652382628e-06 
-8.542564141041181e-06 
-2.73834870580851e-05 
-0.0003393785330825995 
0.0003151707230939201 
-7.03394854447273e-05 
0.0009193232653100795 
0.0001330298982432396 
0.000107429551531963 
0.0001966808686895795 
9.884143559241252e-05 
4.336169535286263e-05 
0.0005349497026188902 
-0.0003415745638029689 
5.187867628961681e-05 
-7.26359622514662e-05 
-0.0001842906582636904 
0.0001034280120752379 
0.0002328811910499221 
0.0001713614736165458 
-0.0005316219874818463 
1.866690678341476e-05 
0.0005455521307451483 
0.0007942731264058718 
-0.0002788867542020738 
-0.0001065187102518815 
-0.0005791563330585235 
-0.0001776535139779084 
0.000945050816188404 
-0.0007892773558522341 
-3.072778668760151e-05 
-0.000399559326696655 
-3.258907893547832e-05 
-0.0003492400411765921 
-3.904267336088446e-05 
-6.2119141588563e-05 
6.19436606769233e-05 
2.639240347883947e-05 
0.0004301802874801352 
0.0006279853014507989 
8.589860512557303e-05 
0.0003370380700710929 
-0.0004201291268393594 
-0.000395434537620833 
2.669493334231514e-05 
7.80311532642656e-05 
-3.63440014768429e-05 
-0.0004368791676911367 
-0.0005252396090635166 
-2.485153347746629e-05 
7.416591284679484e-05 
-0.0002294373731296488 
0.0003175920071492527 
0.0001714986103790036 
-0.0003051277778220504 
0.0002025326436854809 
-0.0002003958328980857 
-6.01119449237249e-05 
-3.130012999117589e-05 
0.0004165204740021615 
-8.650752508151847e-06 
-0.0001111783874129775 
0.0002415985822087235 
0.000166284752674914 
2.937719676680527e-06 
-1.583912987397463e-05 
-2.758986477783625e-05 
0.000233050470697548 
-0.0001980445072972137 
5.583968804566126e-06 
3.220594538012482e-05 
4.875789828756587e-06 
-6.322066895782703e-05 
-0.0001850578345241883 
1.431344395094832e-05 
-0.0001176669077273665 
0.0002806906610444517 
0.0005014582010223102 
0.0009457824413794568 
0.0008957407898974369 
-4.412716800617545e-05 
6.648159329701829e-05 
-0.0001334714806929007 
-0.0001848729651621682 
0.0006269106911180438 
0.0003177215223719691 
-0.0002661198975799089 
-0.001038022430235059 
-0.0002424031175843483 
-0.000441555426945205 
-0.0002797790483051615 
3.57141495523469e-05 
-0.0002565169334736234 
0.0004746663451381985 
-2.655776624201751e-06 
6.767107707036877e-05 
-5.857604400229985e-05 
0.0003500952555604161 
-0.000155611978887635 
-2.332136732046822e-05 
-0.0005887406415450814 
-0.000313312441466617 
5.918172770914627e-05 
-3.937545232199474e-05 
0.0002248653483685717 
0.000203256374298645 
-5.085388008585949e-05 
0.0003339277654821383 
-0.0007285777766280681 
0.0003342525054215433 
3.933050797489087e-05 
1.196950291621277e-05 
-0.0001158772321367689 
7.072701757745631e-05 
-4.525405540551079e-05 
-0.0001219645352475589 
-3.657333457567288e-05 
0.0001469617265009232 
1.768835926987115e-05 
-0.000696504110978144 
0.001804785130264662 
-0.0004609027411733018 
0.0009971619773302197 
-9.513899293044206e-05 
0.0003958178093386004 
0.0001576564485638545 
0.000134857899734597 
-0.0001005161087528403 
-0.0001120231002957968 
-4.554417903946665e-05 
0.0001889047305597284 
0.0001197134446992553 
-0.0004960556765851792 
-0.0002310120396764005 
0.0003164180553419591 
-9.66613705578338e-05 
0.0001839419910761662 
7.62913259859739e-05 
-0.0002156248526442007 
-0.0002800916071685719 
-0.001539804660159536 
0.0001156964299913745 
3.390449637657197e-05 
-9.789941541209018e-05 
0.0001233988918448034 
-3.926317962560507e-05 
-2.315608595875255e-05 
0.0003672540715677701 
-0.0003807072130201681 
2.572352530130539e-05 
4.986170995217277e-05 
4.802627402142837e-05 
-4.779241833320911e-06 
-0.0002166761909044586 
-0.0001288360441101372 
0.0006432111007211047 
0.001694180339326526 
0.0001039748747795191 
-2.316331224350401e-05 
0.0001193551185153714 
-1.705058644606385e-05 
0.000313938087836375 
0.0004282814672877584 
-0.0003429081809889918 
-0.0005181792174208407 
-0.0002023842802224056 
-0.0006403001932685663 
-0.000439286593082092 
0.0002981573743975757 
-0.0003130125559515417 
-0.0001227605201307204 
2.836798257330455e-05 
-0.0005651494988702562 
-0.000113749245213555 
0.0002649625939519324 
0.0001487930141843511 
-0.0002128789935538201 
0.0001291826670555328 
-0.0003042183664400725 
0.0004632859165474023 
0.0003600264826858435 
0.001461148890367708 
-1.419954005294617e-05 
-0.0002661383949066832 
-0.0001444524981118309 
-0.0004942825424721889 
-0.0001953248703855504 
-6.015614994966692e-05 
0.0001314548397513157 
5.282345667121477e-05 
0.0001194172990897197 
0.0003206760596626056 
-7.907747639425514e-05 
-0.0001206915181594632 
2.351169967688678e-05 
-0.0003033532531965819 
-0.0003437943404521603 
-5.546820348930666e-05 
0.0001709685934706083 
-1.047672894949913e-05 
-0.0004235800179421732 
-0.0002613248425536092 
0.0006484339317039045 
-0.0005607971565524888 
-0.0004971682765937311 
0.0001410714851355341 
-0.0004109612972153466 
0.0002975257519853677 
1.082492590223347e-05 
0.0004352336262228923 
-5.654603556365243e-06 
-0.0003408354258574883 
0.0001777913922472224 
-0.000228004661750846 
-0.0003093084181659123 
-0.0002455285147387302 
4.453725778288852e-05 
0.0003822599143074024 
0.0001614499694878647 
0.0007790892208888097 
0.0001160359677167629 
0.0004686011807685788 
-4.862721118873248e-05 
-2.287324355166703e-05 
0.0001246486914366566 
-6.782499068924934e-05 
-0.0001423652908890423 
-8.16230383668196e-05 
-9.651987904637096e-05 
-0.0001091834191503803 
1.210333269865022e-05 
-0.0001878325408309064 
-6.597809184939189e-05 
-8.737178030652595e-05 
-0.0003178590254050402 
-0.0004110419674719813 
1.105164944248086e-05 
0.0002466142789415081 
-0.0001068586132029299 
-0.000172537055918277 
0.0002063640386656062 
8.020087641632622e-05 
6.594474388147181e-05 
0.001276368066238924 
7.782856387448507e-05 
0.0002984642963467143 
0.0001887059587398868 
9.805673677941794e-05 
-0.0007442959706333064 
-0.000208745191260077 
-0.0001496441303191126 
1.694778812412397e-05 
-0.0001120808963609589 
-0.0003252181715524439 
-0.000154168245397739 
-6.328354205400155e-05 
-0.0001496419464747096 
6.298264840553894e-05 
5.375515452935459e-05 
-0.0005088865814058742 
0.0001495203966083885 
-0.0001764357001561989 
-5.942179603325271e-06 
0.0001012254870371766 
-6.396691070042805e-05 
-0.0004300024346285846 
0.0006755697266657916 
0.0001341656614202019 
0.0003338020814876247 
-0.0003598208957545418 
-5.693464865064456e-05 
-0.0005844482656049583 
-0.0002055747927057559 
-0.0002757019307606823 
-8.762873482608475e-05 
-4.996344411013955e-05 
0.001520813150450362 
-0.0001215399642548785 
-7.845861838457491e-05 
-8.688634510644503e-05 
-0.0001760097288013286 
1.475128083716827e-05 
1.444060979665628e-05 
-3.004407179601875e-05 
0.0001888364347906813 
-0.0002206812578885338 
2.916262220906271e-05 
-8.214744544858427e-05 
-0.0004841143713858815 
-0.0001349923833338613 
-8.47334259183661e-05 
0.0001412491124893863 
-2.041080124775779e-06 
0.0001113118929348764 
-2.607999532413332e-05 
5.522747535511737e-05 
-0.0001570290894945189 
0.0007974856834106795 
-2.021046386616567e-05 
0.0002648093003464607 
-7.891132095676273e-05 
-5.582424078832691e-06 
-0.0001579048192502895 
-2.648434289850578e-05 
-0.0001513745204683193 
-3.889453256772767e-05 
6.195912539178587e-05 
-0.0003037820963890868 
-2.166131789407156e-05 
-0.0001183065720837417 
-0.000642407676565045 
0.0001840022995402277 
-0.0002785321970857773 
-1.442823881559021e-05 
0.0003987703683098474 
7.178388637104717e-05 
0.001010949827114944 
-0.0003425714103716256 
2.891285063528437e-05 
0.0002047269039306124 
-0.0001609429343861335 
0.0001957595301026117 
-0.0002316788408384549 
-0.0001232420396102283 
-0.0001343405910958861 
1.555620901925794e-05 
-0.000466375532266936 
0.0002440531116280146 
-0.0002843260978584503 
-0.0001923837158880892 
0.001081476482178945 
-0.0005734115540098394 
0.0005989120700665887 
0.0002545601258531583 
-2.58232239033545e-05 
5.774099237464866e-05 
-4.247062655462439e-05 
0.0002027912134654542 
0.000290480450328944 
0.0001604929225805615 
-0.0001233100052688819 
4.792970793542059e-06 
-0.0001100491577821669 
-0.0001208004031765924 
3.486141512958382e-05 
1.872024777269385e-05 
0.0003862335238140021 
-0.0006710683038141813 
-0.0001411413592590278 
-8.89236886568239e-05 
-0.0001197473684722016 
9.399711809425559e-05 
3.46327500549934e-06 
9.341695304008343e-05 
-8.524809241647873e-06 
-0.0001014871010445047 
1.01267696309531e-05 
0.0004424861137631934 
-0.0001618764018277379 
1.804432575057896e-05 
-8.018786931835635e-05 
6.753074792753e-07 
0.0001696221680449384 
0.0001419850145961533 
-0.000104787029885489 
-0.0001413596736602394 
0.000111976107518513 
-0.000361179634234325 
0.0001930098300362522 
-0.0001754092943532554 
1.70740126588085e-05 
0.0001120981792836856 
-0.0001194257756292432 
5.109734273255952e-05 
4.907406823909155e-05 
-0.0004514514620435995 
-0.0004385409973069093 
0.0002327885720816149 
-3.478550416513365e-05 
-9.708487676006201e-05 
0.0001773856666262681 
0.0004615843147238064 
-0.0003477574365693745 
-0.0004683698588381011 
4.208850210388993e-05 
-0.0003099984964715578 
4.911050096457784e-05 
-0.0004079802764756135 
0.001040948052345369 
0.0004567283060741013 
-7.996211481317054e-05 
-6.442842100919729e-05 
-5.043405124665825e-05 
-3.238611363995186e-05 
-9.447718246973418e-05 
0.0005872871079951659 
0.0001678858687005184 
-0.0001280911762598131 
2.02779779180778e-06 
-0.0001519826026201029 
-9.999087198711067e-05 
6.039412642226437e-05 
-0.0002647486728871527 
-5.156696942621809e-05 
0.000194512420354734 
0.0002529308785820193 
0.0001792364918581173 
1.455646173613217e-05 
8.776741657443665e-05 
-0.0001275893830775534 
-0.0002332633843273881 
-8.8729720393357e-05 
-0.0004323596519456992 
-0.0001620991288520732 
-0.0001630976853155954 
0.0004329778335332655 
-0.0004777764433555118 
1.606835580444333e-05 
3.923219934839173e-05 
0.0006949718055552425 
-0.0003060628081068333 
0.0001044946934095283 
-0.0003607292515184372 
0.0006274513340003969 
-0.0004114867317187327 
0.0007759968416760024 
1.536369119273114e-05 
4.14001416322201e-05 
0.0001051842965577459 
-0.000224709720699188 
8.245737395080323e-05 
-2.284020170086394e-05 
-0.0001187060592635498 
-9.868921135456145e-05 
3.681777021137763e-05 
0.0001832517364994822 
-0.0002585676105725476 
-0.0001750890433276625 
6.497898272909973e-05 
-0.0003990012410157779 
-5.839954701018446e-05 
-0.0001494666169942534 
-0.0002732425040135211 
0.0009516504959965195 
-0.0001045039552864718 
0.0002179097450061602 
0.0003416634048453103 
0.001111891733734919 
-0.0006197267215692693 
-0.000803153335642138 
-3.558798459777263e-05 
-7.105062803988578e-05 
0.0004132196632542861 
-0.0001470778049836894 
2.635398003922433e-05 
-0.0001219265739434607 
-1.004642921853305e-05 
-5.207619508530159e-05 
-8.28568534507224e-05 
0.0002077400406486504 
-2.121911007972169e-05 
7.366646003259426e-05 
-0.0001862436936129422 
-6.255971023712757e-05 
0.0001322418574627942 
-0.0005496838866684317 
-3.320357056696625e-05 
-5.800121119767972e-05 
-3.728220816758956e-05 
-7.355694490443313e-05 
4.51152269462663e-05 
9.343820497838966e-05 
-0.0001944734429214656 
4.917441038524352e-05 
1.629632131644071e-05 
4.533083133673342e-05 
3.95849402951324e-05 
8.394944502604964e-05 
5.119586207888555e-05 
0.0002708418582957223 
0.0004815608073654432 
-0.0001666814878595003 
-0.0001502876543377249 
-9.778987652018294e-05 
-7.381051924177158e-06 
0.0001485399477182124 
-0.0002655960818500199 
-4.639411575527513e-06 
-4.769006403555382e-05 
-0.000284654873034518 
-0.0004376344523705014 
-0.0003768394900176227 
0.001729049838094954 
-6.374667969978649e-05 
-0.0001825979357970055 
-0.0002767642279346539 
0.0008357425713555755 
-0.0001612180317206204 
8.350966290057109e-05 
-0.0003531234593159987 
-8.06153220669136e-05 
8.056979363757191e-05 
-6.440968353974154e-05 
-0.0002199439357574049 
-3.078512249768744e-05 
4.344096200554418e-05 
-9.007666141065064e-05 
-0.0002047954658348443 
0.0003612118186217995 
-6.114183433192134e-05 
-0.0001388682062606763 
0.0002452418101254125 
-0.0004903913684062222 
0.001232916992025466 
6.743277194514402e-05 
-6.549829364490875e-05 
-0.0003354381846726804 
-9.414721532166536e-05 
0.000174881737315828 
-5.870865720213131e-05 
-0.0001917279817282809 
-5.157049079267724e-05 
3.500710246470102e-05 
0.0001481444578537497 
-1.53431595036688e-05 
-5.256068271249056e-05 
0.0007669942802087337 
0.0001832356815724108 
-5.436256793295661e-05 
-6.512527523088853e-05 
-0.0003322502233362685 
0.0007553455066152899 
-0.0002500163426006314 
-0.0001916316632035547 
5.733979506472962e-05 
-0.0001777464121550911 
-0.0002472907488069768 
0.0001760650991449737 
-2.348890738890481e-05 
-4.705392136704198e-05 
-2.762186551791204e-05 
-3.791750924305831e-05 
-0.0004579018591269273 
0.0001002448421261101 
-1.762658012278694e-05 
-0.0002957212958604989 
4.281363738224643e-05 
-3.416068280968632e-05 
-1.862458368730055e-05 
5.459611282251404e-05 
0.0001239118707308508 
0.0001957453892662124 
2.1749965008019e-07 
-9.593554364894668e-05 
-4.432207482304988e-05 
2.975224039523108e-06 
-1.175543418808215e-05 
5.944231222540602e-05 
0.0002466518336244179 
-2.741242336163577e-06 
-6.103077411120959e-05 
-5.150705278608156e-05 
0.0006104339334848356 
0.0003325978170825722 
-0.0004700197208164183 
0.0001393749806846686 
-0.0001966383130885239 
-0.0002018073167498458 
0.0001879842198781562 
0.0002757856460485437 
-0.0004179161099302045 
7.419422966003928e-05 
-3.459973343843836e-05 
-0.0002184938383790368 
-2.474459270346745e-05 
1.875066521839978e-05 
0.0004395659045509561 
-3.046236638451328e-05 
0.0001505166200985126 
0.0001112550192689406 
4.567219494963107e-05 
-0.0005952420461194044 
0.0001300760436795264 
7.469794062293678e-05 
-0.0002734540587039537 
0.0002724414613477277 
-0.0002221190822693265 
-0.0001149749213306946 
5.324369882512706e-05 
-0.0001591172800791899 
1.990517454904134e-05 
0.000256553958952504 
-0.0001776631847867938 
8.32016603188704e-05 
-0.000120676646553542 
0.0001161488539798524 
-0.0001723702844670415 
-3.380855845665592e-05 
0.0003395506288512192 
0.0001909851344747992 
-0.0001367161002914694 
-0.000300149982822688 
0.0002140209252138654 
-4.261766764425859e-05 
5.128970831396073e-05 
9.721675575404944e-05 
-0.0003314341055596645 
0.0005511268845557808 
-0.0001899113861245046 
-0.0002365439724474313 
0.001122289014923746 
-0.0001469630080866768 
1.371947856481583e-05 
-3.408285920814625e-06 
-9.211791522665693e-05 
-0.0001087587759121937 
-0.0001030099621957391 
7.444134903413213e-06 
1.964818030866753e-05 
-6.745246384703908e-05 
-0.0004393385397922771 
-0.0002917858937306175 
-5.72613757624764e-05 
0.000119377173933555 
-1.91406588781051e-05 
0.0005257943634594961 
0.0003358959885840113 
-0.0001334865290601475 
7.910407684802499e-05 
-0.0004530764062542465 
-9.696364795519871e-05 
-0.0001475933595086 
6.055987949442822e-05 
8.973406055482617e-05 
-0.0001398262212214027 
-0.0001026706158304636 
0.0005019827202740163 
-8.901052066180548e-06 
2.149103240835918e-05 
1.279198932592482e-07 
-6.650063177030232e-06 
4.093022440541907e-06 
8.344664731861826e-05 
-4.225124831887867e-05 
-0.000272103276049156 
-4.440548053248554e-05 
-0.0002653173067511624 
3.492277471927533e-05 
3.542568070525022e-05 
1.270010795504582e-05 
-1.409701876441544e-05 
1.559159651111739e-05 
2.476501359619427e-05 
-5.289403876754252e-05 
-0.0004109308629852286 
-0.0002115743797514726 
0.0001587733685652069 
-0.00014571967181082 
0.0001292528073772309 
9.366212488500791e-05 
0.0001695481996797039 
-8.250127241545588e-05 
-8.356427999251374e-05 
5.442233706238129e-05 
-0.0002492917161709361 
3.80905528778907e-05 
-0.0001630448932356626 
0.0009978041129170832 
-0.0002394867557337702 
-0.0002336977337354044 
-0.0002700373786671115 
9.048689349366764e-05 
0.0001891960237005251 
-0.0001087382172792723 
-4.392312708492626e-05 
-5.614729075249646e-05 
0.0008152780184416389 
0.0001442675584510747 
-1.223607547057575e-05 
3.121552381734474e-05 
-8.176941729546267e-07 
-0.0002584025553093162 
-4.377753931149023e-06 
2.799239129135566e-05 
-0.0002541463676755415 
-2.297812658699153e-05 
-0.0005155952790596098 
-0.0001372359135480417 
-2.48654379775851e-05 
5.245125697676164e-05 
0.0002655179424418464 
3.618172186393349e-05 
1.622808571904204e-05 
0.0001134587365145742 
6.266834078252693e-05 
0.0001715847178164098 
-6.014853238344502e-05 
-3.583311313634175e-05 
9.179441671307894e-05 
-9.411658914641952e-06 
-9.168105189089038e-05 
-9.15493687874435e-05 
-3.103553672414597e-05 
-4.357620364949298e-05 
-6.253632510881888e-05 
0.0004009350419070411 
-0.0001024419656603974 
-0.0002223752278443332 
1.625352238271481e-05 
-0.000481853881411793 
0.0001738256242762432 
5.951985302222126e-05 
-0.0002474567033420545 
0.00115043731802606 
-6.080443281462334e-05 
-0.0002681292770717746 
5.867681171241643e-05 
-9.462972103090584e-05 
-7.888273458424582e-05 
-4.375603755141572e-05 
-0.0002733175503992571 
0.0009262487125354096 
-0.0003434561660845537 
0.0001868047845873008 
0.0002734363901451028 
-0.0005682768165995354 
1.786990491100954e-05 
-0.0001597695864798814 
-0.0001883524435224081 
-8.160042395424249e-05 
0.0002661451024686169 
0.0001017483838740001 
6.157772862294582e-05 
-2.265189727232147e-05 
0.000126878177579754 
-0.0002308349418092169 
-0.0001689406163059414 
-0.0002005379551921325 
7.512502319655916e-06 
-9.867728053352601e-05 
-2.052154794519806e-05 
-0.0001425477572936622 
0.0002358881069469566 
-0.0001958170859496128 
0.000576947680996372 
-0.0001285884011301787 
0.0001617033466640506 
-6.048143090657414e-06 
0.0001135538031056612 
-1.536347926032344e-05 
0.0004972672343949422 
-0.0002466019442181354 
-0.000269714432994336 
-0.000180250746892124 
-0.0002544654428750931 
-9.657253248483136e-05 
-0.000235138319025233 
0.0003322607910185765 
-0.0002720494203562001 
-1.734619683491096e-05 
-9.405597204043161e-05 
-9.891255711811753e-05 
-0.0003081857172570043 
5.854402609453951e-05 
0.0001189694076789461 
0.001143851089256811 
-6.763781555102388e-05 
-0.0001435380304918562 
0.0003824163366998581 
-0.0001932552908604178 
7.08772826937265e-06 
-0.0003470420646599024 
1.244117030013867e-05 
-3.960870475031289e-05 
-5.5241962755091e-07 
0.0001589217937773586 
-5.793641042242565e-05 
0.0002846623060650824 
6.881947450335271e-05 
2.073931748551533e-06 
1.451934389464694e-05 
-7.059685544374859e-05 
3.854816082314993e-05 
-6.818934135725406e-05 
-0.0001602748510285189 
-7.461328051995997e-05 
-0.0002457442072285175 
5.863966982425686e-06 
0.0001263504921748323 
9.757808860082114e-05 
-6.550102972523072e-05 
0.000780662323983542 
-0.0002738540380133527 
2.635997046629402e-06 
5.799731303852833e-05 
-7.724730517110799e-05 
-4.773735822576315e-05 
-0.0002308841558063961 
8.72722199465643e-05 
0.0001245942447035918 
-0.0003884428227669804 
-0.0001960177686966854 
-5.088548230239253e-05 
0.0001031801122995971 
-7.463372615225908e-05 
0.0001556393161674032 
-0.0003143399324838098 
-0.0001453679006391521 
-2.547229696907746e-05 
-7.064164858275584e-05 
0.0006077558777664218 
4.836316835220017e-05 
0.0004970831033181487 
-0.0001353034797361156 
-0.0001027465912383311 
-0.0001305856655997837 
0.000477889633384112 
0.0003780266435030405 
-0.0004688358168374989 
-0.0003400445626152763 
-0.0002714228187563035 
0.0002797749137028131 
5.330663802044122e-05 
0.0001753265928628436 
-0.00020142744362576 
-6.241943036519084e-05 
6.74365925394402e-05 
-7.184550862623015e-05 
-3.880609446431412e-05 
-4.050525403704234e-05 
-7.151555654846918e-05 
-0.0002467894858146993 
0.0001197641646466491 
-1.023826299678251e-05 
-0.000177999903605818 
0.0001780228134693912 
-7.879715601981286e-05 
0.0002728676792072736 
-0.0001715419555161672 
0.0009374818289595397 
-0.0003042387281851989 
0.0002798966668353555 
-0.0002659598644290267 
0.0001856766668031199 
2.906862930202011e-06 
-0.0002642838377839826 
-0.0002261577647283558 
-8.773154010538496e-06 
0.0002040272101635244 
-0.0002108840916351059 
-0.0003927086106236573 
-4.899300997795735e-05 
-0.0001841650036233097 
2.665242298177944e-06 
0.001127823739781951 
0.0003675119413545512 
8.361998041716773e-05 
0.0001112738904696947 
0.0003010653955976025 
-0.0002560758219401284 
1.544865938049765e-05 
0.000260111202740112 
1.543452610885824e-06 
-2.361190731914848e-05 
0.0001557931327179581 
-7.364237968815872e-05 
9.300633654121018e-05 
0.0001296060787711151 
-4.995906092136004e-05 
-1.651908485347037e-05 
-0.0001746871543129195 
-2.621978007513048e-05 
-0.0007858220546928246 
-0.0001823625764297852 
-6.077284423636816e-06 
-5.251452505056315e-05 
-4.631901031321904e-05 
3.697715733380907e-07 
0.001026941518422473 
-0.0001938805240790391 
-7.286476196783308e-05 
-0.0001185850066304052 
0.000266726570927454 
-9.445962288196696e-05 
-7.265519359880358e-05 
2.266775804509578e-06 
0.0008179125791961343 
-0.0006957722464819213 
0.0001716899835809049 
6.042867497243547e-06 
7.576014400422093e-05 
-0.0002854881504831077 
-0.0001181537166474416 
-0.0001942937438161734 
-4.617726208115219e-05 
0.000161607605310863 
-0.0002107400710821084 
0.0002727363803176054 
-4.910665875654751e-05 
5.018985344447217e-05 
-8.420466763153089e-05 
-0.0004358282444519948 
0.0001163621836730326 
0.0001127488213820157 
-7.026837583225778e-05 
0.0001226663052996176 
5.316588000039101e-05 
2.128788975191592e-06 
-0.0003333912711919676 
-9.470298042335183e-05 
-0.0001449237591765131 
0.0003738182228568219 
0.0001035136008441245 
-7.599095285317581e-05 
0.0003066704315346957 
0.0005270170936420571 
-0.0003550554235566624 
0.0001278702820268342 
0.0005067167384797775 
-0.0001919537764684282 
-0.0001533573522443866 
-8.466986079047567e-05 
0.0001551763153872012 
-0.0005991454640032982 
-7.00919292069039e-05 
-3.022462451517596e-05 
-0.0002345594626717085 
-2.374358221917185e-05 
1.001135058693665e-05 
-7.128518331379587e-05 
3.795547503369016e-05 
5.186534600300257e-05 
5.751248848050026e-05 
0.0002542440525920931 
3.843484796479437e-05 
0.0002523154058095872 
-0.0004283836906667029 
2.388603463520173e-05 
-0.0002680444150056231 
0.0001357683128686895 
1.599549494062696e-05 
-0.0001589682571960879 
2.75889045545609e-05 
-0.0003076667288751471 
-0.0005357554706241424 
0.000133649345779236 
-3.688443241024994e-06 
2.333752053814764e-05 
-9.909590241874037e-05 
5.367362288471471e-05 
4.676561929148953e-05 
0.0009453184228331762 
0.0003055471970549913 
-0.0001259973533218032 
1.301713960523802e-05 
-5.99872525917803e-05 
-0.0002273409356434718 
-0.0003650504542251752 
0.0001575978167512941 
0.0006899067156972082 
-1.53950618197263e-05 
-0.0002111797015951761 
-1.559315283085665e-05 
0.0001820906088574083 
-0.0001597549750914646 
-5.226457271884406e-05 
-0.0001083846601373053 
0.0003523797583179473 
0.0002239010335185604 
-0.0003036323661959768 
2.687765424995286e-05 
-7.656232155628349e-05 
-7.59928433649966e-05 
-0.0003499354038834926 
-0.000368908216673642 
3.738569387750752e-05 
-2.6061572880162e-05 
-0.0001899039427772838 
0.0001175450891901105 
-2.238266186712425e-05 
0.0002516551203719331 
-1.706356360587791e-06 
-8.472865382587726e-05 
0.0001412761339056676 
-5.568181295459889e-05 
3.806551350386098e-05 
9.104269833037714e-05 
-0.0001165197887509745 
0.0003649152103302789 
-5.324273091762364e-05 
0.0001406131438152211 
-0.0001300305815721444 
0.0009122940048237497 
0.0003795470672968601 
-0.0001427514552458881 
-9.142079251649137e-05 
-0.0001954419935518909 
-0.0003321256361686392 
-3.400512318774643e-05 
-0.0003218724730565454 
0.0001778898247581934 
-0.0003055874700259929 
1.961264286515864e-05 
2.201211290701856e-05 
-3.959206562065204e-05 
-9.351716822354323e-05 
1.001135058693665e-05 
2.724789678442176e-05 
-0.0001925847022826977 
-0.0001548302282398262 
2.726878478291984e-05 
7.782836280802763e-05 
1.382018107152082e-05 
5.609991118084977e-05 
-0.0002361161512386517 
-8.784591443171062e-05 
-0.0002855747715723301 
-3.766113923975205e-05 
-4.943035093080114e-06 
1.260460633345682e-05 
-0.0001390611694389126 
2.652551783610563e-05 
-1.499725768309299e-05 
-5.399943588610152e-06 
-9.231081887009943e-06 
0.0001430987836408859 
-0.0001900560324971424 
-0.0004425611779588028 
-1.808691979501932e-05 
-8.077019757379889e-05 
0.0003904570567214453 
-6.816127026930782e-06 
-4.696741722837389e-05 
0.000185329642920839 
6.248549428498125e-05 
-0.0001147841306671272 
0.0003917458028759279 
0.0007321377654130736 
-9.669197751578776e-05 
-4.39758339620732e-05 
3.215663966395042e-05 
-0.00054937941798186 
-3.613664042091054e-05 
2.563636977594154e-05 
6.161813232545316e-05 
-9.387827761295342e-05 
-0.0003601678886946052 
-0.0003213184555649651 
-0.0003734074699303856 
0.0003536194075390349 
-8.217912287460532e-05 
0.0003410767778279856 
0.0001337049661708621 
-0.0002514130792447079 
0.001088985664144452 
0.0002957717900484882 
0.0002512756083297061 
-2.04431958243276e-05 
1.695404009833165e-05 
-9.379221366013902e-05 
-3.431678147709379e-05 
-0.0003765390197788151 
5.063649588974838e-05 
7.843190693415185e-05 
3.834356343379914e-05 
0.0001331674929058817 
-9.128461817161237e-05 
-0.0002639518774651953 
-1.825400033635931e-05 
0.0002941247752271338 
-0.000254893112880283 
-0.0002006424090533026 
7.412272765575001e-05 
8.726689703315356e-05 
-1.269386231487979e-05 
0.001321182223439521 
-0.0004276963137567057 
-7.655185711723052e-05 
0.0002298480664728929 
8.536795917792965e-05 
0.000211779181913658 
-0.0001558766045736748 
0.0002221303149838554 
-0.000149505158465465 
-3.841352065745552e-05 
0.0001185298120809046 
-4.29668243793465e-05 
7.360574604818906e-05 
0.0002331874374205344 
-0.0005238450311001581 
4.527175144439908e-05 
-2.78670809260971e-05 
-8.912694608750899e-05 
0.0002337093366119994 
-0.000119975928644442 
-3.212803163032241e-05 
-0.000188536840210215 
8.933445059569752e-05 
-4.946454758437144e-05 
-8.095917189901105e-06 
-0.0001619195256949997 
-0.0003767626328135987 
-0.0002534056905729501 
3.867534401981226e-05 
0.0002477230376463519 
0.0008493835894176144 
-0.0002046514145620292 
-1.266291876645851e-05 
2.955147197680333e-05 
0.0001633082086353529 
-7.903151234377196e-05 
-1.890781476710938e-06 
-3.048305171427172e-05 
-4.088089278801621e-05 
0.0001476533001376317 
-6.079152731491867e-05 
0.0001220890245354644 
0.0001330408565153789 
-0.0001558819269819781 
-0.0001795314425191278 
0.0003343860979379328 
2.877601704113303e-05 
-0.0001264423330961001 
-1.106870744735543e-05 
-0.0003975651577382396 
-3.218612391843299e-05 
0.0001032716411565173 
-0.0001136891503703233 
3.97717398437149e-06 
8.377897029499786e-06 
-0.0003333032303939163 
6.886866042128327e-05 
-2.453632829027841e-05 
-0.0001327063703617394 
3.843607872732882e-05 
-0.0001533615332485387 
5.580316684074773e-05 
-0.0003119027188348152 
0.001295169628156228 
0.0001435738469505948 
7.714218033030257e-05 
4.543307055866125e-05 
-0.0002996040477977226 
0.0002024861263414794 
3.037512835055317e-05 
0.0001277021244001618 
-0.0001276506714850359 
-0.0006209728331212433 
5.477192693207537e-05 
-0.0001160126877806938 
-2.502450044000428e-05 
-0.0001366693923010791 
0.0001617171471073183 
-6.43071149821944e-05 
-6.888374408233521e-06 
-0.0001021257989587205 
-5.517033680043237e-05 
-9.364065877481822e-05 
-4.197044839842282e-06 
-6.369012913197183e-05 
-1.210653823825189e-05 
4.977870484886758e-06 
1.730181284038733e-05 
1.150923620568905e-05 
5.224211574321669e-05 
-3.694331902751888e-05 
0.0002605545091119908 
0.0001114976758749503 
-5.663345475364702e-05 
2.881143559967271e-05 
-0.0004698500209637172 
-0.0001783076644498666 
9.119633915829799e-05 
-5.981004442266556e-05 
-0.0002792736392168482 
-0.0005386194327806521 
0.0006698464209672656 
5.716749475404957e-05 
0.0003469149875582212 
-8.891470711516535e-05 
7.590558950788353e-05 
0.0001536318221050439 
-4.156362356329858e-05 
1.102142013262839e-05 
2.32105492762802e-05 
-2.869042169839537e-05 
-5.383498954185305e-05 
-0.0001104279999080816 
0.000104959030043446 
-3.52996706729214e-05 
-8.107527790303583e-05 
0.0001683532334696051 
-0.0001221987234743293 
4.204998767890758e-05 
5.659704759711253e-05 
0.0002257780620042249 
6.786519318234393e-05 
-0.0002624873677589089 
-0.0003629738514907061 
-5.32093456713706e-05 
-4.635246288193955e-05 
-0.0005341063964968836 
0.0002659204612110025 
0.0003041803934352935 
6.612456409031738e-05 
-0.0002495528971758856 
-1.852129564607915e-05 
0.000293522057823615 
-0.0003295394255618395 
3.935169980062721e-05 
0.0003251806461558068 
0.0003666230317686724 
-5.240647016079537e-05 
5.046686712560895e-05 
-3.057251503711692e-05 
2.266518620267375e-05 
0.0001234680480531347 
-0.0001009354756718866 
-4.877351308510206e-05 
1.397220020191937e-05 
-0.0001061217185464941 
-5.260228833217442e-05 
4.037402492655136e-06 
4.059305889743816e-05 
0.0001134834480350434 
-0.0001837034546962008 
-7.734449514732956e-05 
0.0002618003757439637 
-2.531474907916679e-05 
6.901467344172039e-05 
-0.0001660718331083831 
0.001408774068164172 
-8.092699139380218e-05 
1.492124837365932e-05 
0.0001619048140558037 
-9.945648901352357e-05 
-0.000288924105045528 
-0.000197279747592761 
-1.213681809911336e-05 
-0.0001904779680081316 
-0.0003766052872177866 
-7.30064355942436e-05 
-0.0002009906320012991 
-4.744974037298587e-05 
-2.084846307713969e-06 
-9.873512713584987e-05 
9.373729714712089e-05 
9.200411666222122e-05 
-1.214018653620015e-05 
-0.0001354834576812164 
8.651327971411228e-05 
-3.161273069413254e-05 
-0.0001348777472617533 
0.000110400038660992 
-6.432658342154157e-05 
2.866067706818833e-05 
-1.170597082062304e-05 
3.755414885202612e-05 
-7.66458871950642e-06 
9.970584363538027e-05 
5.524735911360511e-05 
0.0001309081543773331 
-4.465032906128643e-05 
-0.0001560008788355121 
1.647451602809726e-05 
-2.031610433136926e-06 
6.830620764771272e-05 
0.0001437568731938617 
7.313294747035707e-05 
0.0001575197824924682 
0.0002637634800609536 
0.0002567254569107703 
-5.33174160655048e-05 
2.58070169154648e-05 
-2.525582726403365e-05 
0.0002068176003761986 
-0.0004979200570160414 
-1.969296654359014e-06 
0.0004553311879591937 
-0.0003909915412608221 
-0.0001664199078099571 
9.879029765697423e-05 
-0.0003241476032100457 
1.678669247656515e-05 
-0.0004188878018230039 
-0.0001321528809124708 
6.092850266282017e-06 
-8.64445042178493e-05 
-3.449780483782292e-05 
-9.264731784624899e-05 
-0.0002103929554871678 
0.001134984169192343 
-0.0001536675290243771 
-4.452005708907983e-05 
0.0001629769540325364 
1.911664810606927e-05 
-0.0003402888394196869 
-0.0001036136318794171 
9.10355562319183e-05 
-0.0001895136645149663 
2.367825327262992e-05 
-0.0001712188938265954 
2.919004222765731e-05 
-7.67571109796936e-05 
-0.0002298806522339005 
0.0003936808119901766 
0.0002746137345159328 
-0.0001450911232182434 
-0.0002307170761753764 
5.439749954333447e-05 
-2.175623944954351e-05 
-0.0003622746610905018 
4.83926178865404e-05 
-0.0001103665636695114 
-1.10522764236153e-05 
-0.0001278547127536737 
0.0002426964755266902 
0.0004484278750070089 
-8.108002303063049e-05 
-5.764637769767015e-05 
0.0002783228981100765 
0.0001035145549863652 
0.0001050259159237131 
8.517911191988622e-05 
-0.0001667551434162045 
0.0001539918002972291 
-1.931384863971168e-05 
-0.0004035117209467678 
-0.0002332908209723484 
-8.124862376905212e-05 
-4.6132280274631e-05 
1.240518198441169e-06 
0.0001786221730061462 
-1.241503207736062e-05 
-0.0002605085294377952 
0.0006383819231529658 
0.000153339982490796 
0.0001647211182010442 
-0.0001584199207691381 
0.0002235456803767084 
-6.392920181849493e-05 
-0.0001642189227467735 
0.0002149722432951301 
5.632384654864853e-05 
-0.0003287734416453554 
0.0001110693782592149 
3.918243647029189e-05 
0.000192216289780695 
0.0003745943376889145 
0.0003206032262390264 
-6.958231700061544e-05 
-3.352088729562618e-05 
-7.911807462232892e-05 
-0.0001777294042480892 
-0.0002714330784936663 
-0.0001773318568903136 
-4.764708089455183e-05 
4.768564863312338e-05 
-5.258513505883261e-05 
-5.122865811313618e-05 
0.0001284146613184022 
5.382692487836058e-05 
-0.0001151865237993321 
-0.0003356578720782135 
-0.0001074205191340362 
-5.128278542479886e-05 
0.000158020421544814 
0.0004063360118653978 
0.0001564895846758187 
0.000374770121982348 
-0.0003433661606122818 
-0.0001011298966492093 
-0.0004089088471534885 
-7.194750466024696e-05 
-3.050241418995576e-05 
6.420617875220609e-07 
9.309675107632526e-06 
6.563857038491317e-05 
-6.481996518166543e-05 
4.420053217610423e-05 
9.11557500913299e-05 
-3.53333573847035e-05 
-0.0001282236802597344 
1.847808783098182e-05 
7.695185708453533e-06 
-0.0004844708716939576 
-0.000262467223495758 
0.0009400641016369218 
0.0004648303134445187 
-0.0001869668297456437 
0.0001175406258468 
3.034751276184861e-05 
-7.646724431845895e-05 
-7.161535709350796e-05 
-0.0003589273249670276 
-1.705245557678723e-05 
5.704606808678962e-05 
-6.688113088956386e-05 
5.198826414863712e-05 
4.372779725856605e-05 
-0.0005231517734908441 
-4.202814175097466e-05 
0.000117759820364316 
-0.0002290386251949021 
0.0001431721132244935 
0.0002027969979822416 
-8.482680055830363e-05 
-4.200948980189164e-05 
-2.866298463626502e-05 
4.448803105444698e-05 
8.999965521403208e-05 
-9.909816592881674e-05 
0.0002265300123466265 
-0.0001544341307122762 
1.712353248989904e-05 
0.0001081803899449014 
0.0002939741965540635 
0.0001487718838507639 
0.0004546272388147913 
-7.213839863231615e-05 
-0.0001042981928919305 
-8.907016370082521e-05 
-0.0009019415392636264 
9.446649263768177e-06 
-0.0001796104120526358 
0.0003208589836198377 
5.859922282711406e-05 
0.0002042333934510001 
4.34667961888415e-05 
-1.441588817806301e-05 
-0.0002004271650449319 
-3.99184123365225e-05 
0.0004574208486634925 
0.0001858149344743854 
-0.0002398001130752697 
1.423861416359551e-07 
9.093018863422307e-05 
-0.000293835001441199 
0.0002458477330321855 
1.751466908910104e-06 
0.0003546152014783055 
0.000175073988311373 
-5.507397491299056e-05 
7.508245378417053e-05 
8.160228476852996e-05 
5.240838665766773e-05 
0.00065332137941702 
-9.101418553360678e-06 
-0.0005623327190476113 
1.319467441331632e-05 
-7.043570166862241e-05 
-0.0001078394628132919 
-0.0001124526179038167 
-0.0001482527859452996 
-0.0001994546049096502 
-0.0001121186207195799 
1.488448026875771e-05 
0.0003144197243900885 
2.226129130718209e-05 
4.499395988762116e-06 
5.332142919629002e-05 
-0.0003373671101391481 
4.002107572266406e-05 
-0.0002205177652012409 
9.030712953147065e-05 
-5.850811280736933e-05 
3.685988204269757e-06 
0.0002711578461094468 
3.885258168816629e-05 
2.322035066470991e-05 
-0.0003739496167208319 
-2.746235342927814e-05 
0.0001761813362036557 
-0.0001817692190158585 
0.0006045822915532839 
-0.0003518961485066446 
-6.581678406598615e-05 
-1.597277255685859e-05 
0.0002991879411187262 
-5.840904276326982e-05 
3.900672005542678e-05 
0.0001023489406101893 
0.0003006184936065221 
-4.505053120933051e-06 
6.038650048394086e-05 
-0.0003628225529483808 
-0.0001829305396284008 
-0.0003603799290903852 
-0.0003528709699095804 
0.0007867055832313547 
-0.0001543435606529564 
-0.000277424115626026 
1.23519955710832e-05 
-3.334860138652384e-05 
-0.0001093777469107331 
-0.000243913200275588 
7.904008809066458e-05 
0.0003933323612719918 
4.647210397265289e-05 
0.0002015608843009682 
-0.0001055526051380927 
-2.852899532565998e-06 
-0.0001229327815971862 
-7.062254027895146e-05 
0.0003199025980028742 
6.074278286354951e-05 
-4.43558753803103e-05 
2.232469480414514e-05 
-0.0002441995690848788 
5.245550915335566e-05 
0.0007466052440251427 
-0.0005539095191116276 
0.0006920709989281351 
4.011640810420136e-07 
1.256512255251899e-05 
-8.107126156540659e-05 
-0.0002489371716900164 
-0.0001491344841917253 
-0.0003999463740061989 
-0.0002578478989413874 
0.0005861679756780192 
0.001206302693121836 
0.0001111197207274426 
4.982267534300408e-05 
2.532527411783797e-05 
0.0001112597608206139 
-0.0007452235373833565 
0.0001536226860130448 
0.0001256172465101106 
-0.0003399773871191337 
-9.921282543293804e-05 
-0.000142529918420357 
0.0002461509659320565 
5.905252026374331e-05 
-9.494308733872547e-05 
-0.0001659757873937612 
0.0003206370793122326 
-0.0004417276358568548 
-8.134276882714387e-05 
-4.896620206550602e-05 
0.0004352485237205389 
-0.0002145058864851538 
5.583872337366885e-05 
-0.0002808932002928422 
-3.572358454197827e-05 
4.841052172682575e-05 
-2.543898819071941e-05 
-2.145016528255875e-05 
-6.351031234551023e-05 
1.301295306167315e-05 
-6.31686520689198e-05 
-0.0004200555591377375 
0.0004668803160714106 
-9.773639755002397e-05 
0.0001813465639014907 
0.0008341143497240097 
2.005153667119886e-05 
-0.0002801483228256635 
-9.432860406498043e-05 
-0.0001172636316657912 
-1.521771029471581e-05 
0.0002834305426418755 
-5.909851482260794e-05 
-0.0002776959512217376 
-0.0001783440271059879 
1.428961901661109e-05 
5.839073756162592e-05 
-0.0001949961290795877 
3.558121294645533e-05 
0.0002425214031952538 
2.628195396628032e-06 
-0.0002029651936953375 
-1.154306514175386e-05 
-4.296660358000149e-05 
0.0002758895497036367 
0.0001117897681944994 
0.0001580146184354463 
-1.503817699795244e-05 
-0.0001994843231955139 
-5.28760129389512e-05 
-0.0001577263086782627 
-0.0001159014695960916 
0.0001170544668590977 
-0.0001442236779098856 
-6.873383821564623e-06 
-8.444884372092043e-05 
-0.0002122273104976768 
7.352271208170161e-05 
0.0002997910559498067 
4.300732810867172e-06 
-7.473876685968281e-05 
-0.000218140990249158 
5.668803699391028e-06 
-7.976911623067507e-05 
9.437813134298054e-05 
-0.0001870224957499525 
0.0005387917094405236 
0.0002199842646258079 
1.469979455239573e-05 
-0.0001455298613949087 
0.0001412656712676914 
2.653625274450895e-05 
-2.145469971642305e-05 
-0.0001806516972781777 
-0.0001436854873614239 
8.280708526045505e-05 
1.142082018371775e-06 
-5.716891251273317e-05 
-3.902057790922604e-05 
3.286601480854637e-05 
-6.680041464683214e-05 
8.869137462759556e-05 
2.000972618320432e-05 
-1.137988261517754e-05 
-0.0001096152632302974 
-0.0001814930080283399 
-6.702425725675718e-05 
9.348935951328448e-05 
-1.149769979314191e-05 
-0.0005144851518746034 
0.0004031245982187981 
-0.0001353844487031747 
2.817483315289131e-05 
-0.0002062970834775805 
-4.055828037058071e-05 
0.0001312157608690402 
0.0002715901237084838 
9.484513139975471e-07 
0.0004689230583393188 
7.716531278473844e-05 
-2.18733724122327e-06 
-0.0001071186293832817 
-1.10081605102894e-05 
0.0001630572339978539 
-0.0002893273719360863 
9.390627711739321e-05 
7.968880020764425e-05 
0.0006588821762541593 
-0.0001093128688996268 
4.194448394019791e-05 
-0.0002717776767766764 
-0.0003379457562972613 
4.751483333397493e-06 
-1.908297022261375e-06 
-2.963905760689407e-05 
-1.90784454459485e-06 
0.0001439102337404477 
-0.0001093752968457023 
-6.253761656738497e-05 
-5.708411786790406e-05 
9.140792425594127e-05 
-5.165489074982608e-05 
0.000313882926145521 
0.0004188067237783989 
-7.413813021042473e-05 
-9.704155564772521e-05 
-0.0001646858343753121 
-0.0001231952119403818 
-0.0002002436486500408 
-6.970785212849269e-05 
7.767131488701719e-05 
0.0001574331425661624 
-0.0001989986261549204 
-4.003135768479056e-06 
0.000124139893491451 
3.054205008236073e-05 
1.239442784907729e-05 
-0.0001290135826756538 
-0.0001825872169656489 
-0.0001862187120418733 
0.0001409626974195586 
6.821469125403702e-05 
0.0002396083983252244 
-0.0003390050781916839 
0.0003066637312994368 
0.0001006211465281979 
-0.0005069738175713097 
0.0004185787825284487 
-0.0002608554067644499 
-6.994749320358108e-05 
-2.946009024575416e-05 
5.670125626777321e-05 
1.17194476552526e-05 
2.280728051349551e-05 
-5.78734685250275e-05 
-2.446861296367944e-05 
-0.0001461811051173181 
-0.0003450305283088746 
0.0001210617513762741 
-0.0003263492488175143 
0.00111314452055553 
0.0001588886764763421 
0.0001150431498984378 
-0.0002877176009382946 
-0.0003139147489209863 
7.846613346249952e-05 
-0.0001546048519117223 
5.643008402360061e-05 
-0.0002056259360271741 
-5.002951042141347e-05 
-0.0001650024777579538 
-7.13229141095464e-05 
-7.554689945364167e-05 
0.000264622362265111 
8.34084105379656e-05 
-5.349899167391114e-05 
-0.0001529091361938135 
-3.72109590160804e-05 
0.0002847414009893656 
0.00054888926614762 
5.544973091774228e-05 
5.895277633454244e-05 
0.000273422955745348 
-5.095842941858517e-05 
-0.0001449148303373316 
-3.310225017205787e-05 
-4.146300019093714e-05 
-0.0001632552070677694 
0.0005967026652795742 
6.121415994706628e-06 
0.0001593770126153574 
-1.798171759380855e-05 
-0.0001190757038378039 
-0.0001101411584010057 
-0.0003338301333070886 
5.572158999719976e-06 
