solver_type L2R_L2LOSS_SVR_DUAL
nr_class 2
nr_feature 17394
bias -1
w
-0.0001318261730820305 
-1.000124925315117e-06 
1.666019245621431e-05 
-0.0005312626925962498 
0.0003096649073775802 
0.0001769699579767124 
-3.381021870003412e-05 
-5.193558269537384e-05 
-0.0002770919798882041 
4.74042018590321e-05 
0.0004504537043908729 
1.44519701675448e-06 
0.0004371516832736931 
3.722344247213203e-05 
-0.0005273210734551109 
0.0008478806785680418 
0.0001813814128004515 
3.112608151285907e-05 
-0.0001171240322407136 
-0.0001483388475404081 
-0.0002393137436112315 
0.0001923679450164893 
0.0001161550743878756 
-0.0001249241151813555 
7.205887621369141e-05 
-9.037457908743039e-05 
-0.0001073451597014519 
8.187519400848121e-05 
-3.965057506470591e-06 
1.410547377786495e-05 
-6.849476713810571e-05 
-0.0001178165666590189 
0.0002042877111411226 
0.0002770034589739844 
-0.0007704240930518221 
4.530999332422606e-05 
-1.347071240339286e-05 
1.677975000693291e-05 
-0.0001174564193461029 
-2.354560396795388e-05 
0.0001895431180082396 
-2.839342623261936e-05 
0.0001493164948417891 
-0.0002531064912961126 
-0.0001405392021509885 
0.0002905191608131546 
0.0001854228826301906 
-6.899712413913253e-05 
0.000402512473794137 
-1.979155314917534e-05 
0.0002138821997426841 
0.0005668147149458419 
6.154725953576966e-05 
0.0001443129008648835 
-0.0002563371689655059 
-0.0003939939542733028 
-0.0003907426376739117 
1.688575249142644e-05 
-1.697553008932134e-05 
-0.0001789561272206598 
-2.770909639856056e-05 
4.264328413136867e-05 
0.0001428223282007411 
0.0001928149660123177 
-0.0004979824072356779 
-2.751696527369617e-05 
0.0001551689184043542 
9.571605853079522e-05 
0.0002664497421959899 
-0.0001433384833833816 
0.0001243701683112733 
-0.0004164952081921065 
-0.0002801355316506255 
-8.986530735228094e-05 
0.0006155804619192786 
9.078585629416739e-05 
0.0004306593504460409 
-0.0004979491261203086 
4.008200356386975e-05 
0.0003610300641960137 
0.0008487436485517124 
0.0001407378638587933 
6.402095707096771e-06 
-0.0003219464533414203 
0.0002916210777750066 
6.827388471331342e-05 
-0.0001775719357796274 
-9.459246194765946e-05 
-0.0002622802741937107 
-0.0004112609318106423 
-9.923346333729116e-05 
0.0001254999822920335 
-7.85657502311455e-06 
9.625911683773263e-05 
0.0001768021341456968 
-0.0001641779940013821 
-1.795514939707165e-05 
0.0002070185492995792 
-1.247800688821084e-05 
-0.0001608014184550553 
0.0009520537794619739 
-0.0001258784520903807 
-7.525536440833968e-05 
3.410445479428896e-05 
-0.0002011220166002007 
-3.679049540615247e-06 
-0.0003201966567723398 
-4.325573071897166e-05 
0.0001995251287137952 
2.281454392360658e-05 
0.0002253624873157043 
0.0002681809664867607 
-0.0001990248450155386 
-3.6397599486231e-05 
0.000485536685967357 
0.0001330874660118554 
-0.0002516924790142155 
0.0003008387654719696 
0.000241556705055023 
-0.0004145515680524588 
-4.813461574068377e-05 
-0.0002179420505916278 
-0.0002426275070114371 
1.771379693787142e-05 
-0.0001350160715994003 
-5.45847399490567e-05 
0.000179015399299567 
-0.0002642360983072687 
-8.56362772937757e-05 
0.000144156408636032 
-0.0002759051017158917 
0.0004244106106275221 
0.0003306365175098257 
0.0007896271906357621 
5.474481791821164e-05 
-2.36455410728676e-06 
-0.0001495169091695398 
2.767256723382541e-05 
8.912204887091725e-05 
-0.0001096535361166991 
-0.0001153903807941364 
4.609821998903182e-05 
-6.733885760785075e-05 
-0.0002440748327836305 
7.474135229745744e-05 
0.0001350233442303322 
8.310406711946792e-05 
-0.0001043797585400158 
-0.0001560598904805609 
0.0003646894442847944 
-1.428266083401855e-05 
8.722264708235707e-05 
-6.350521926747233e-05 
-0.0001929499438557991 
-0.0003506582167735232 
-7.27957307629135e-06 
0.0004719316102080121 
-0.0003833157910310441 
-0.0002262100870370997 
-0.0001326799470586557 
0.0001918962966834651 
-0.0006329050758699493 
0.0001072221044404233 
0.0002111338994941138 
0.0002653202542176364 
-0.0003476882366452876 
5.067746927458856e-05 
-0.000158757754351728 
-0.0002466715819676311 
0.0007868026918683892 
0.0004023323334978262 
-0.0001282889025095392 
5.944098361199883e-05 
0.0003344868187682794 
2.998711429421864e-05 
-2.999896759859456e-05 
-0.0003470803252960407 
0.0002703699780034355 
-0.0001654986091273914 
0.0002448037693922636 
0.0001620519412757937 
-9.731581729706705e-05 
0.0002826432027410534 
-0.0001530119369114176 
-0.0001028228365011396 
0.0001426830485119764 
-2.306017491129258e-05 
-4.154769612522864e-05 
-0.0002265662983839051 
-0.0003594778499429774 
3.616334775732307e-05 
-7.53438812933513e-05 
-8.126673462972153e-05 
1.212701346391066e-06 
0.0005960875090548956 
0.0006163598382615088 
0.0002291717910696059 
-0.0001858450065522812 
9.042572720142351e-05 
4.525822957838687e-05 
-0.0003876560664757559 
-5.577841359759198e-05 
8.660481927547512e-05 
3.720398575245264e-06 
0.0003110294088481763 
0.0002620754370604084 
-5.636489373262412e-05 
-0.0004750646084303615 
1.615722821826173e-05 
-0.0001071914484863268 
0.000145051345796403 
-0.0003876976191845032 
9.718782179204156e-05 
-2.587102708835632e-05 
-0.0006426842535542907 
0.0002220392164650289 
8.643215398100819e-05 
-3.489347906746255e-05 
8.834348277688897e-05 
-0.0001195391140310042 
-1.620679739753841e-05 
0.0001968111816727439 
6.552548941634685e-05 
-0.0001414550090621664 
-0.0004279396678260481 
-0.0001500840106324456 
5.121899067362282e-06 
0.0001073408866119447 
0.000377994464610994 
-8.676036976477707e-05 
-0.000248580001930348 
-3.382120910950596e-06 
-1.561635980133301e-05 
0.0005042371113644582 
-4.134684350804779e-05 
8.636755167710017e-05 
-7.132039432070702e-05 
-0.0002972153785827324 
-0.0002603899413371751 
-4.530953538073932e-05 
-2.351383602589425e-05 
-0.0001411372891696913 
-8.884716537698335e-05 
5.923982022002789e-05 
-0.0002589062435519171 
-6.328181357109487e-05 
-0.0002204569078186797 
0.0001851647012873213 
0.000644819018563453 
0.0001757005813117426 
5.889945724678857e-05 
0.0001085065973965323 
1.893096199088363e-06 
0.0005284213953333388 
9.18227690191452e-05 
-4.94621612994818e-05 
-1.985819400285337e-05 
0.0001559265853901237 
0.0002003060505722288 
0.000333516427988481 
0.0002171713277097193 
-1.86079340076688e-06 
2.408613119127008e-05 
0.0002845600149315918 
0.0003890254044037079 
-0.0001387748749071841 
-6.342933074962781e-05 
0.0001265618930650138 
-3.921501277591017e-05 
-0.0001432505083488523 
-0.0001466202884961064 
0.0006856857143472944 
-0.0004355894996664453 
-0.0003782295131088563 
0.0001009476533291063 
-8.010686905492024e-05 
0.0001965088926716624 
-0.0003488839195423813 
-0.000414329599413864 
0.0002588442624985284 
-0.0001189330948050636 
-0.000213558995633039 
-9.91605549626856e-06 
-3.075763764973277e-05 
-4.628318662995263e-05 
-5.33833616175436e-05 
-0.000125458220960057 
0.0002772779072609459 
0.0002714558425863152 
0.0004999222466937769 
-0.0001057137754338497 
0.0003070429394214829 
-5.69811533352467e-05 
4.271182888392033e-05 
-0.0002738233863222518 
-6.518296677652525e-05 
-0.0003853672750310095 
9.097151549703616e-05 
-3.608211198993027e-05 
0.0001192859868382305 
-0.0004095540656772535 
-0.0001697488314776762 
0.0007121023662596863 
0.0003060713202987029 
-0.00119791639632174 
0.0001557188970864738 
0.0003271016652531545 
1.315762402983695e-05 
-3.010898388856181e-05 
7.714424636715967e-05 
-3.031576752338937e-05 
-0.0002526202921700336 
-1.489749027386791e-05 
-6.082746870750218e-05 
0.000340002760643848 
0.0001434874461019406 
8.837151788623845e-05 
-0.0001166843504867452 
0.0001106046974791846 
4.26507231888217e-05 
4.924451697256798e-05 
0.0001157489736834331 
-2.013768295789411e-05 
0.0003082148756403368 
-0.0004109461459876434 
0.0001044548441227644 
0.0006765377148961371 
0.0001679583861691879 
4.868333090255488e-05 
-7.360969370297567e-05 
0.0001560455378732721 
6.454830839458485e-05 
-9.639768060327814e-06 
-0.0003725638285003417 
-0.0001602040790290409 
-3.525718138695197e-07 
-0.0003201497544643766 
-0.0001770293645088675 
-0.0006249570262788178 
0.0001213278624778876 
-9.454280687185343e-05 
6.858405078599126e-05 
0.0002879743384927032 
0.0001833786965363152 
-0.0001825071521161905 
-1.796357664915304e-05 
-3.240639403835556e-06 
0.0001089848170047061 
-4.821560945252009e-06 
0.0006799671121162602 
-6.926764133387258e-05 
-0.0001577407643441507 
0.0002008993693416465 
0.0001861094971947235 
-0.0001935532543024923 
-0.0003235235715542488 
0.0006324435584951402 
0.0002847848675687458 
-4.159520822358887e-05 
0.0002594619863624963 
7.082268845848564e-05 
-7.512022534656717e-05 
-0.0006410696482784342 
0.0003711981897393326 
-4.305720791909977e-05 
-0.0002483516612750519 
9.707997119467988e-06 
-0.0001554535792772212 
-4.753402740647217e-05 
-7.030787189921253e-05 
0.0002682034995058113 
8.415025694942002e-05 
-0.0001716733458942844 
5.977384221422823e-05 
-0.000158950762837373 
0.000318964028692699 
-0.0001456406967293384 
-0.0001203611852858046 
5.472763815879087e-05 
9.36888723242786e-05 
-0.0001573323094914291 
3.567225713631604e-05 
8.196799483809252e-05 
2.292732072120407e-05 
-1.03342889749669e-05 
5.686777742772434e-05 
-1.94940537517923e-05 
-8.004573536938516e-05 
-3.785720898967994e-05 
-0.0001399067553347657 
8.048665645665711e-06 
0.0003367442583263254 
0.0006859281355617335 
0.0002143427466248874 
-0.0001270311150402916 
0.0001095182920671488 
-0.0005248583891425613 
0.0005633545626688914 
9.606612307784899e-05 
-0.0005756302511775349 
-9.057097126527154e-06 
7.673626126551578e-05 
-0.000185518683032721 
-0.0003046226359894426 
-8.268967052993006e-05 
8.974184307081339e-05 
-9.945736585610381e-05 
0.0001473131378046497 
8.126803655361256e-05 
-7.490070072409509e-05 
-9.671854211534599e-05 
1.795834014789056e-05 
7.083700202438695e-06 
-3.495965187969825e-06 
0.0003040207535047718 
1.860513349343877e-05 
0.0001833807042581341 
0.0002388693864639969 
0.0001126444720966911 
0.0004959069661359702 
-0.0002473887010337945 
-7.679422753735859e-05 
-1.520543121422576e-05 
-0.0004889325924993128 
0.0001578767449258196 
6.561365829979136e-05 
2.939268785990741e-05 
6.306186303707153e-05 
0.000666053200222071 
0.0001848217056050517 
0.0002037764931319013 
0.0002331697633741103 
-0.0002077572298693578 
-0.0007705342952658031 
-0.0001600335548824176 
0.0005440808471134758 
4.039016698865669e-05 
-0.0002773038541529649 
0.0001371929013862183 
-0.0001234928006534962 
3.729842061597814e-05 
1.98733551652455e-05 
-0.000218807608825481 
-6.936172015135797e-05 
-0.0001302410199925106 
-4.983995301735765e-05 
-5.835961405589014e-05 
-7.737142442851333e-05 
-0.0001073372686883239 
9.36269532539914e-05 
0.0002583471524476278 
-4.134118233537559e-05 
-0.000257178109976764 
0.0001697654798264256 
-1.21854639286168e-05 
-2.965143947289112e-05 
-0.0003128874241943153 
-6.873668549427171e-05 
0.000249772307454679 
0.0001066981954562771 
6.638196913636495e-05 
0.000161435399457586 
0.0002234941484387584 
-0.0003955029330583294 
-9.085777009327845e-05 
0.0002776296951724894 
-0.00045985234041068 
0.0005779315106299561 
0.0001410933460036985 
-0.0001047859282317108 
0.0001295661975831548 
4.181096602131988e-05 
-7.795635302728585e-05 
-9.592003709065302e-06 
-0.0001290373233288947 
8.61719542841076e-06 
0.0001056912436318069 
0.0001013696082032136 
-0.0002323786569867933 
5.802882389108735e-05 
2.247120509186643e-05 
-0.0002332930858497154 
0.0001480122282184629 
4.167210785614437e-05 
0.0001440874261104407 
-0.0002697819715852622 
2.805388603849984e-05 
0.0002924025627169095 
0.0003200520256226261 
-0.0001385275346719591 
-0.0003566234307658828 
7.581901321415376e-05 
-3.714284366040666e-05 
-0.0002636617156555906 
0.0001112205981914694 
0.0001010933265066168 
0.0003306549637674924 
-0.0001881290185804236 
6.942445126140607e-05 
4.10927285113857e-05 
2.92721973462573e-05 
0.0002575734972190815 
0.000116063958470204 
0.0001612418041048617 
-0.0002386526775827577 
-0.0002655562654691272 
-8.030863123322567e-05 
6.22449639657458e-05 
-0.0001236157589736137 
0.0001545748847760032 
0.0002087339075053769 
-7.848949336677963e-05 
0.0001407103270165899 
-0.0004970896109186827 
-0.00034370483385945 
0.0006130327529846547 
-0.0002798341354035482 
0.0008810836511533322 
-0.0002008319886115959 
0.000216700160661456 
-0.0001326539066464013 
-0.0001470693817452682 
-0.0002084358741298878 
1.887311189541983e-05 
-4.506485016052885e-06 
-5.888751367417705e-06 
1.180610235788116e-05 
0.0002462558582415014 
3.989693279074357e-05 
0.0001763307875181901 
0.0001466882105154748 
-7.182951983771414e-05 
-0.0001710751837429604 
-0.0004243590043458332 
1.413822638517207e-05 
3.124807371189529e-05 
8.455252812560722e-05 
-3.571400078555493e-06 
0.0002260885739064299 
0.0001098205103253665 
0.0003992925605978094 
-0.0003465965978965207 
-0.0001374251782810014 
6.033279279360656e-05 
-0.0002202484573538017 
-9.514829679787521e-05 
-4.080644988146449e-05 
5.133167980164102e-05 
-8.47382106722112e-05 
-0.0003626173603048232 
0.0003195132453371926 
1.304916338937382e-05 
-0.0002496761634749654 
0.0001163158111259979 
0.0003603620857161907 
-0.000370553064243888 
0.000292345774245096 
-0.0001653134222824693 
0.0006432831006288022 
-0.000302537888616054 
4.139295517459321e-05 
2.082113457344519e-05 
0.0005804465830316727 
-0.0001530596901383258 
3.252994101455302e-05 
4.2516178417124e-05 
0.000314710018658549 
-7.864311863012546e-05 
-0.0001029107007625664 
-3.272508500835663e-05 
7.672809808367543e-05 
-0.0001356880784562345 
1.652566005423353e-05 
-1.239559895782952e-05 
-0.000187126322957613 
0.0001142957883867134 
-0.0001786218458454678 
-0.0003381118276316766 
-7.644943553060399e-05 
-0.0001315446637018766 
-9.489079975174545e-05 
0.0006111042102737901 
-1.056644219630204e-05 
4.388871102302644e-05 
6.460481368173112e-05 
-3.560680530188657e-05 
3.064540103098209e-05 
3.044364931272389e-05 
4.009634477540238e-05 
-8.956681824505079e-05 
-3.454569708430225e-05 
0.0001461724595963585 
-1.829962903502641e-05 
-7.335604511848202e-05 
-4.357382872439568e-05 
-0.0001063530432344245 
8.47553077188638e-05 
-0.0001438236012589305 
0.0001242812505574362 
-0.0001268664711944676 
-0.0005780376318979269 
0.0002132545349423596 
0.0001891768007130372 
0.0003449469817080734 
-0.000205400648937735 
-0.0001070423189533222 
0.0009930988090581393 
-8.18324116480587e-05 
0.0005721703738164922 
5.598230915051377e-05 
4.322003865628046e-05 
1.61581053881028e-05 
-0.0002168840849848262 
8.486243537253472e-05 
-0.0001866059637163175 
8.513670651952877e-05 
1.212502573970666e-05 
2.624216011069333e-05 
1.422527413103302e-05 
1.454886465694692e-05 
-4.655917583036056e-05 
0.0001883643782558882 
-7.329518412839047e-05 
-0.0002139766421115681 
-1.450907076106038e-05 
-2.565625474263037e-06 
-0.0002955866062955166 
0.0001102554503731932 
0.0001374482551349338 
5.555591792581731e-05 
-0.0002740981214814956 
-0.0001001993679534099 
-7.077813353605504e-05 
0.0002350225232170322 
0.0002007697413816983 
0.000135828524606013 
-0.0003512619189468599 
-4.100512258931511e-05 
0.0001962091762551933 
0.0001451790662180951 
-2.210188100312851e-05 
2.303532099634009e-05 
-0.0001162788965635466 
-0.0001709722545564967 
0.0002991297667974716 
-2.387718769398549e-05 
-0.0003253565616981926 
-0.0002436391244588252 
-0.0001386933899849108 
2.126686763977373e-06 
0.0009279483667253998 
0.0007106323957178281 
-0.0001698675411872969 
0.0002113631087223493 
-0.0001943183049645372 
0.0001035753398843862 
0.0003578491729338613 
-4.440530386746969e-07 
-0.0001655724607298657 
0.0001562545702636418 
0.0001996314098547264 
-0.0002959327560835402 
-0.0001955301437966783 
-8.248813277576341e-05 
-8.196426711318113e-05 
-2.478554973980652e-05 
0.0001428938116774232 
-0.0005334540428135447 
0.0001344936673917574 
-1.699209322541458e-05 
8.556344529069666e-05 
-0.000110249112492218 
-0.0004706822646307927 
6.934303613582392e-06 
0.0001497306045165734 
-7.837780265047743e-06 
-5.273874989550989e-05 
0.0001870791397933891 
-3.43578750926544e-05 
-9.606914609872976e-05 
-0.0001005956048274503 
5.806615355885787e-05 
-6.871145248330969e-05 
0.0003901585139419216 
0.0001635438844457345 
9.305734026010958e-05 
0.0002032696649839062 
0.000194451200220171 
-8.949750761561569e-05 
-5.92301996064534e-05 
0.0003832583448616571 
3.471664790408826e-05 
4.621721292574762e-05 
-0.0003295247662059623 
-0.0001384138835116471 
7.165276119870199e-06 
-1.167108741066868e-05 
-0.0001037110858862179 
-0.0005452191687315292 
0.0001075764367296459 
0.001140537485840658 
-0.0003296802528952833 
9.550617991402281e-05 
-0.0003813482553728447 
1.330206073732885e-05 
-0.000135327425046198 
-0.0004099072096439373 
0.0007021321569984752 
3.079078763873542e-05 
1.058505513183829e-05 
-0.0003567996652354309 
-0.0001914279928239397 
-0.0001459610733084166 
-4.332466532111396e-06 
0.0001762937679706525 
-0.0002068606498350906 
-1.98767581961775e-05 
1.710785541291143e-05 
0.0001691681517117593 
1.101341203810871e-05 
-0.0001366538316048784 
4.305164794714701e-05 
-0.0001862610115005392 
0.0001526719604154384 
-3.570776932917861e-05 
-0.0002968744326851759 
0.0001141937129495471 
-9.748713371200834e-05 
0.0003291354422467922 
-1.989400630582865e-05 
0.0002709889100017393 
0.0001470787069698239 
1.172691723642565e-05 
0.0001144761809882226 
0.0001395146951298907 
0.0002321193133343321 
-0.0004649485069117803 
5.697265835925774e-05 
2.074190662606397e-05 
-0.0001201885550841572 
0.000105167896507766 
-0.0003050203260039396 
-8.860317909573678e-05 
-0.0001656255630727529 
0.0002867124069540348 
0.0002383286895888738 
-3.766015419087429e-05 
-0.0001789706619942735 
0.0001142725805058862 
-0.0002027060061768891 
0.0003389804373166671 
2.160606054597184e-05 
-0.0002482268923120029 
0.0002380878972350369 
0.0003278461754907652 
0.0002874509274244996 
4.231787609230982e-05 
-3.231821367945131e-06 
-0.0001391516853852654 
-0.0002290444806492816 
0.0002828923310098443 
0.0002008575672970295 
-0.0002723352664985694 
8.039732410457023e-05 
8.065874448289979e-05 
0.000244388487182021 
0.0001226618832375304 
-0.0001926494421173089 
7.98525749514664e-06 
5.70525245439663e-05 
-4.636095041103675e-05 
-0.0002102344459005698 
7.223060778192878e-05 
-4.417633775564092e-06 
-9.323921853286733e-05 
0.0002080474819952981 
9.234217287009128e-05 
0.0001936297799503636 
5.542493186554513e-05 
0.0003323269088052569 
-0.0003539601881808909 
-5.411867364685461e-05 
0.0001459150367161103 
-0.0002547760994965951 
9.854796079913542e-05 
0.0005480789372916648 
-7.855028981012803e-05 
0.0002931388268403063 
-0.0001465755793946555 
-0.0001948831353300182 
2.812882084954027e-05 
5.087853759422796e-05 
0.0002386350953819445 
-0.0001048193435246254 
0.0001566674451404545 
-9.365283356885292e-05 
-1.168957971706743e-05 
-8.448434714886628e-05 
-0.0002644238699103281 
-0.0001408648284718063 
5.092273205305956e-05 
-0.0001189308456470853 
3.887300109347596e-05 
-0.000139640007003877 
0.0002282417697606606 
-4.545982063295117e-05 
-0.0001258484660600761 
-0.0001985097958232744 
1.364549384784285e-06 
8.767219574519835e-05 
-8.457540138321883e-05 
-4.594719361738288e-05 
0.0001986940378443324 
0.0003223100747516845 
0.0001917720363931728 
7.512970665400165e-05 
-3.80291422581671e-05 
3.186599844124203e-05 
-3.412704264668371e-05 
-0.0003946137024668087 
-0.000129024083842118 
0.0002053929169058536 
-0.0001733712830856 
0.000163748740212032 
0.0001065027823255446 
-0.0002725150219375224 
-0.0004199908615411696 
-0.0002481811476383991 
0.0004475275015163219 
5.967592316126434e-05 
0.0001223266057552918 
0.0005787225526866734 
-6.4064988683874e-05 
6.710444007784277e-06 
-4.639702021213381e-06 
-1.760714315393244e-05 
-6.079357160126955e-06 
-8.121572582725339e-05 
-5.335747372557432e-05 
4.382635464854999e-06 
-0.0002533824455816157 
-0.0003204612187369645 
2.118463004071085e-05 
0.0001157962249684426 
-5.329951798150395e-05 
1.075899686913352e-05 
0.0008431018654385285 
0.0004193326647648282 
0.0002525328142308872 
0.0002393188707447037 
-9.574737456241227e-05 
-0.0002725206216955476 
-7.254084502779641e-05 
0.0004172291315291546 
-0.0002445543576526706 
-0.0003022066548796233 
0.0001641580613500861 
-0.0003325335446092543 
0.0001073556154879202 
-4.912727319258875e-05 
0.0002747856736517377 
0.0002275198642869993 
-5.429173341459105e-06 
-0.000433420765902112 
0.000150813705359082 
-0.0001792038152331004 
-7.659872323547569e-05 
1.214222031067709e-05 
9.398416604009343e-05 
0.0001301552895518017 
4.138720368861021e-05 
-0.0001363102272456697 
-0.0002081327416588342 
0.0006037910347900463 
-0.0003708133172318529 
0.0001770798421510518 
2.500899372388309e-05 
9.777163914948252e-05 
0.0001931207658530381 
0.0001117827014975414 
-0.0004932518289656427 
-0.0001090039303749735 
-0.0001593605630737781 
8.994458603251081e-05 
-8.398509184324058e-05 
6.806061025942704e-05 
-2.148541279845785e-07 
-5.605364893131351e-05 
-9.726093379941139e-05 
0.0002044359844161822 
-1.322392599948425e-05 
-7.42131894817348e-05 
0.0001526144097437071 
2.749157058213345e-05 
0.0005387617533746713 
-0.0002187403762211887 
-0.0001078727282075412 
0.0001530293367578569 
2.594489104681473e-05 
-3.546914606699847e-05 
-0.0001704894219272944 
-8.133401208806707e-06 
-0.0001281492863483593 
-8.007690180160961e-06 
0.000633458419553967 
0.0001348175905394918 
1.654644294785353e-06 
1.511135192394112e-05 
-0.0004283629643863269 
-0.000941165097060792 
-1.687403135133506e-05 
0.0006720889335445796 
0.000236571405770961 
1.375118410099257e-05 
7.499185698708952e-05 
0.0001723913993549123 
-7.383777927714113e-05 
0.0001551010133089093 
5.305160484641302e-05 
-4.849531477080065e-06 
-6.710484347270966e-05 
-0.0001518217835268692 
9.933988997764954e-05 
-1.241187350345995e-05 
7.093279726057003e-05 
0.0002087235174305334 
-4.685722857455573e-06 
-0.0001197452267468854 
-4.765398504069751e-05 
-0.0001779922447199021 
-5.933766746028339e-06 
-0.0002442426360002531 
0.0001278119195657435 
-0.0003306633730368203 
0.0001526202319223362 
-1.347021921518215e-05 
3.975067903815457e-05 
-0.0001987125677165495 
0.0006084305058646898 
0.0005969678064400424 
-0.0001178493282597874 
0.0002823423650389305 
-0.0004353858907188561 
-0.000125446341300076 
0.0003686105920066427 
-8.330319186517298e-06 
-0.0002443109826950007 
-0.0003176187933410735 
-0.0001045280092466402 
7.60472027079316e-05 
3.178908613071539e-05 
0.0001075202458575834 
-0.0001826021161553229 
0.0001048517355634033 
0.0001549788170579717 
1.092199412080484e-05 
0.0004595368229669357 
0.0001752525396051405 
-6.144854039505531e-06 
-0.0002945678073685634 
-0.0001043514758751129 
-0.0002178571740024385 
0.0001346594324903627 
0.0002966767954106814 
2.15497258042637e-05 
-0.0004841020782323367 
-0.0001594042742818405 
-1.679251480632064e-05 
0.0002699621155268654 
-0.0001118282285690011 
6.309882937332708e-05 
-0.0001101979691899452 
8.080967399881789e-05 
-2.20914418418667e-05 
0.00025670746736668 
-0.0001068146050912686 
-3.59325288996415e-05 
0.0004943645643998508 
0.0004314749895745471 
0.0001236508590464589 
-0.0003923886288733232 
-4.377788746271878e-05 
-0.0001314126215863511 
-2.519743742964194e-05 
0.0002756596490839171 
0.0004038821119389243 
-5.215029287326437e-06 
2.222987884200118e-05 
-2.761799965154017e-05 
-4.049529147483603e-05 
-0.0002742516436529765 
-0.000123017953547952 
-0.0002704851516133948 
1.197575800777109e-05 
-0.0001947739998318959 
3.166867721983277e-05 
0.00015353657195104 
1.340567600642786e-05 
5.71386274325771e-05 
-1.689708597106754e-05 
-8.108430007123373e-05 
5.967896071262627e-05 
0.0002274615659034781 
-0.0004555457313036381 
0.0002036366355135159 
0.0008291141477420546 
0.0002843390951087128 
-6.954661366824937e-05 
-0.0001298327083163513 
5.252618554033249e-05 
-0.0001323879599112469 
0.0001697789164892103 
8.86519176913212e-06 
-5.412658311680548e-05 
0.0001493999133824399 
-0.000100041678859549 
-8.260857305030658e-05 
4.099480596618478e-05 
4.910748419798344e-05 
3.315760734975757e-05 
-3.434804198915728e-05 
-0.000362257342866467 
2.542832162430328e-05 
2.470093775223531e-05 
3.702070897991648e-05 
0.0001253207000505314 
-0.0002473003698623878 
-1.777519424427307e-06 
-0.0001408653420887295 
0.0001298591201961102 
0.0002413814525592609 
-0.0001365704569124731 
0.0003360107558766696 
-2.064934437050225e-05 
-0.0005486329431675668 
-0.0002176854332340019 
0.0002603871751628122 
2.696586592737749e-05 
0.0001986669722726309 
-0.0001049073654658863 
0.0001032802487280387 
0.0002174221132648721 
0.0001456281648611326 
9.126799675134964e-05 
0.0001668308918702955 
-0.0002875208842814904 
-0.0003720665345805094 
-0.0001833779306962097 
0.0004193028363749322 
0.0002307227729226743 
0.0004873806683255875 
-0.0001738743700597467 
-0.0001922951051992525 
0.0001019274604616412 
-1.899446343886889e-05 
-0.0002308785327035264 
-7.911379377487101e-05 
1.49103013637338e-05 
-0.0004843630967530648 
-0.0001069255335330808 
8.142024262628827e-05 
0.0003617530098888398 
0.0002864271854022024 
0.0001900226358845603 
-2.594676358048991e-05 
2.246562752163245e-06 
-8.46654545393475e-05 
0.0006297161069154463 
4.409923218281272e-05 
2.669433905801933e-05 
-0.0004384469733708073 
-4.912162783177356e-06 
1.497712159272744e-05 
-9.019737933953536e-05 
-0.000106865285845307 
3.924467901890823e-05 
-0.000271508150388203 
2.219722740421312e-05 
-0.0002324680693000686 
-0.0001868792076908153 
-3.166657663495482e-05 
2.51027903968206e-06 
0.0008697001869536743 
9.523416808722284e-05 
-7.433652041576983e-05 
-0.0001115546957664994 
0.0001971410421012826 
-0.0001064653474555339 
0.0003584494154323492 
-0.0003074394378263769 
-0.0001220458391908592 
-0.0001113887990675286 
4.663350826270518e-05 
0.0002443103788272385 
-1.936744908725589e-05 
-5.530755526937415e-05 
3.470046676846371e-06 
-0.0001463351722923451 
0.0002267196659024072 
0.0005063874265133839 
-0.0001261868295630633 
-8.687869947524127e-05 
-0.0005983851217127307 
-5.211452674972363e-05 
-0.0001089087323495003 
-1.57030256683459e-05 
-0.000258737911532298 
-7.926163041166898e-05 
-0.0001179092220353378 
-0.0002686048592837451 
-0.0001850778997523116 
0.0003593734080759796 
-0.0003861743501075382 
0.0002464644291585616 
5.994048438613506e-05 
0.0003571898053154908 
-0.0004867054512042923 
-0.000188497718106327 
0.0007345020310205364 
0.001019568940214489 
6.61019881042096e-05 
-7.375365986252165e-05 
-0.0001447085029819951 
3.366790942830404e-05 
0.0001541212761320967 
5.366188433621657e-05 
-4.577091484768584e-05 
-6.533050053126582e-05 
-0.0001153648434759749 
0.0004832835640584746 
-5.631967832477133e-05 
-0.0005858216689734615 
0.0003604145820111375 
-4.105844844487165e-06 
-0.00042272956170604 
-2.089607343355636e-05 
8.359028706628379e-05 
0.0007884439087255007 
0.0002671117685560083 
0.000239176547171313 
-2.178793288813675e-05 
-0.0001963718956431368 
-0.0002800861524956519 
-3.160307829889285e-05 
-2.013593603344296e-05 
-0.0001722653529305326 
4.849578927643925e-05 
0.0001189905537635186 
2.143454347156672e-05 
-3.342736192546589e-06 
7.567079614019596e-05 
-9.179175567690888e-05 
-4.68532455152376e-05 
-0.0001493692608498162 
0.0001170481582560498 
0.0002995148212046739 
6.061328927242579e-05 
-0.0007378630997614459 
-0.0008110171768629542 
0.001555813683520113 
-6.691052129281371e-05 
-0.0004521646750357549 
0.0001012392150629533 
5.856860988703639e-05 
-0.0001077216788540195 
-0.0001274393763844463 
-3.30077771429791e-05 
0.0001954416684507787 
0.000163744039558846 
1.260191980742135e-05 
-0.0001085593665761305 
-0.0003148475205206204 
0.0002907502768644303 
0.0001884211863142851 
-8.425695114182996e-05 
0.0003361220935736559 
-0.0002996766195850805 
0.00035337594533103 
-6.770973884526765e-05 
-0.0001564336315194622 
-4.510834371452634e-05 
-2.386841785185334e-05 
3.188884674523637e-05 
0.0003096429567055231 
0.000130910740352071 
4.795542396507864e-05 
-0.0003155328110394212 
0.0007769169014673648 
-7.929773271945955e-05 
-0.000240304375101811 
0.0001748244577636557 
-0.000191889806836517 
4.66190409906001e-05 
-0.000198602103706114 
-9.503705984250223e-05 
0.0003546768337793086 
-0.0001484031127533379 
-0.0001566842651337268 
0.0004715707103971876 
0.0003301702848288935 
-8.008087809052329e-05 
-7.478597672215488e-05 
-0.0002850007668673384 
-1.998169301851881e-05 
1.494324789845433e-05 
-0.0003469046179598325 
-0.000685984198753497 
0.0009284280452364849 
-0.0002003906825044544 
8.319325333859874e-06 
1.637309694836761e-05 
-2.679130196689904e-05 
0.0002776733395979072 
-6.749214338364426e-05 
-0.0001509915528087543 
0.0002267529397495172 
-0.0001752641420364385 
0.0002213063643130991 
-0.0001642344003391773 
0.0008360313080451325 
-4.81754423296701e-05 
0.0002747820452323941 
-0.0003609372339340285 
0.0006160919622591994 
-8.112444072787349e-05 
-0.0001005653270446038 
-3.895210850638281e-05 
0.0006224679382424561 
7.360933269330587e-05 
-1.188111901587141e-05 
-0.0003025257696723066 
8.480475780072229e-05 
-0.0001822787710821677 
0.0001493244190828731 
-0.0002973291407288318 
-0.00032313690855484 
-0.0003043027154217278 
-2.685423520148649e-05 
2.105224218764751e-05 
-0.000323539827525913 
4.146631591159177e-05 
1.989154476110609e-06 
-0.0001274781353588207 
1.633434172436119e-05 
0.0001723223156301505 
2.142028619967221e-05 
-0.0003651049669004147 
0.0005226612096820844 
-0.0001280266505815652 
0.0002146785527931925 
0.0001951115158200001 
0.0003992502629816262 
-0.0004674263891802741 
0.0007474206299168558 
-0.0007216814239928492 
-0.0005396864560429512 
0.0002303687677576112 
-9.795331826104645e-05 
-9.00208143805021e-05 
-0.0001061650441976217 
0.0009563660452908155 
-0.0006832587222144815 
3.366386771247662e-05 
-0.0001427521134187481 
0.0003028158750027087 
-0.0001462986548774073 
4.402646178531808e-05 
0.0001321743098433979 
-1.40804843675416e-05 
-0.0003690284242046558 
0.0001253305843309661 
-0.0001246109715204993 
-1.905699507771965e-06 
-4.8727722235035e-05 
-2.464651033094486e-05 
-4.090854090680801e-05 
3.082356729111479e-05 
-2.309824180212713e-05 
0.0007101024808976951 
9.012256969929672e-05 
-0.0002110627416270447 
-4.048341947762086e-05 
0.0002270047540701634 
-0.0001029529815894792 
-0.0004290602370271516 
0.0002884410933175221 
0.0006709979728031876 
-0.000160559407214022 
4.714291504826286e-05 
7.530762718580236e-05 
-7.118967937607306e-05 
0.0002289173726522847 
-7.359688266093319e-05 
-0.0001993021794875394 
5.728256001352835e-05 
6.739952321690999e-05 
6.602813054426951e-05 
-7.94775395067998e-06 
-0.000119317724118013 
-0.0003258986961823758 
2.330638395176062e-06 
0.0001286829755969691 
0.0001117303792996753 
-0.0001948380850905088 
-0.0001450410819541942 
2.814430317350533e-05 
0.0002954121674764585 
4.088087354671762e-05 
-2.494186331915592e-05 
-0.0001940210505417654 
-7.841655174953799e-05 
0.0004849063581259117 
8.036326679534956e-06 
-0.0003853618789834576 
5.148167318438327e-05 
0.0001862626506011314 
-3.871477968365702e-05 
-3.860091682686631e-05 
2.73535503379692e-06 
-1.755472404508922e-05 
7.060153006644213e-05 
-0.000373971410076319 
0.0002354522062206959 
0.0004972886570324713 
0.0005856585474404056 
5.049501892411312e-05 
0.0002480597139559638 
4.167145008164311e-06 
-0.0002518007394698179 
0.0002285965752032152 
0.0005927602646942028 
-7.2320887026685e-05 
-0.0001838927717264042 
-0.0003943196365294123 
0.0002999421279785928 
-0.000436559601936352 
-0.0001202700844100183 
-0.0001717106041694196 
0.0004728522131408729 
-0.000415846658257915 
0.0002115910822932306 
-0.0005688830450760683 
6.037940412033601e-05 
0.000105426555740185 
0.0002971212877470227 
-6.652535174730282e-05 
-8.224107156381454e-05 
0.0004258890074839326 
-6.240399757580367e-06 
0.0001292808856444983 
0.0003788342834375786 
-0.0002493449560422766 
0.0003279395273793225 
-0.0001602462800660627 
-9.499000701346538e-05 
-4.394783326635622e-05 
2.786559528294604e-05 
-0.0001053565000771 
-8.691704847605624e-05 
-0.0001040183135083881 
3.875259754297978e-05 
0.0001459519217111484 
0.0001609239584279683 
-0.0005027353061858866 
0.0002622441702227564 
-0.0003069593705744597 
0.0001839768102592867 
-0.0002186438780801905 
-1.881512379704923e-05 
-0.0001556832380391237 
-0.0003840829883690301 
0.0009538219304153118 
-0.0005748306328531816 
0.0002958414274904427 
2.528178675952651e-05 
-5.016758128714461e-05 
-9.019096930130303e-05 
-6.539262181425726e-05 
-2.847254344801089e-05 
-7.933641323133163e-05 
-1.246021409690039e-06 
0.0002119057804481522 
3.22766623052305e-05 
-0.0003713349549391774 
-6.874690055193199e-06 
-0.0001084115084739715 
0.0001761032767149153 
-0.0003205213325208776 
-0.0003984742147305068 
0.0003516074626628113 
0.000514452759247383 
0.0008752588725925712 
-0.0002458006107398581 
-1.946271707173301e-05 
0.0004828170043428297 
-0.000704171923529546 
4.419379198840688e-05 
0.0002771777864643423 
3.747526398232168e-05 
-0.0001863446769029202 
0.000387825674235659 
-0.0006268342593299585 
3.359310118480262e-05 
1.368323074912791e-05 
0.0003329143896775647 
0.0001121831129811174 
-8.624168391132532e-05 
-0.0001023777190673157 
-0.0003147025759407504 
-0.0001053512283332853 
-1.928668932202717e-05 
-0.0001487139791394464 
0.0003387145145307418 
0.0001257709938126601 
6.39021477759192e-05 
-5.595096112701933e-05 
-0.0004471061840658013 
0.00024384011699154 
-3.529811640661194e-05 
0.0001586559573317739 
0.0002131452741527992 
0.0002237234500100791 
-0.0001698827820894304 
-3.389750990513286e-06 
7.82124156079361e-05 
-0.0005310897661295523 
0.0002261616261028611 
0.0001344913037190178 
-0.0005646974761958186 
-0.000317588698591266 
-2.084690917527323e-05 
-0.0001948286772922314 
5.709598279690611e-05 
-0.0001613393590467859 
-7.862177459101805e-05 
0.0002363335756958902 
0.0004357671689036013 
0.0001452816982333464 
0.0009618312529036255 
-3.225324103161741e-05 
0.0001861711668413601 
-6.207738110699744e-05 
-4.119863410230741e-05 
6.727927233849871e-05 
-0.0001441879208957377 
0.000246975642413049 
-0.0007585877143367453 
-3.937468557422483e-05 
0.0007367182362125643 
0.0001426544156573551 
-0.0001100223942842223 
-0.0002278955214112775 
-0.0001461024959709307 
-0.0002000448086008695 
0.0002494072862062325 
0.0005192672008538466 
-0.0001079582198728676 
-1.660763902824712e-06 
5.81255790750947e-05 
-0.0002237978867904883 
5.441941734701437e-05 
3.691244568778633e-05 
-8.061267368867407e-05 
5.1219815300149e-05 
3.659779489402458e-05 
-0.0005965861629931297 
0.0004054588959456081 
0.0004876653384235251 
0.0003425918495758347 
1.525217693456259e-05 
-0.0006246758297183053 
0.0001700458686433572 
3.977831360906584e-05 
-5.378769978146224e-05 
-2.732033360540205e-05 
3.392391275281822e-05 
-0.0001594728803027317 
-4.859562705206318e-05 
-9.128520955080086e-05 
3.197850755529507e-05 
0.0003952612290375578 
0.0005799319464518773 
-0.0002997872159156729 
-0.000180094397404454 
-0.0001793778895155914 
0.0001845706117775417 
3.528214983322588e-05 
0.0009187690332287255 
-0.0008658578599571268 
0.001388386696121816 
0.0005263146946996847 
-0.0003904520848526771 
-0.0002416213495024052 
-0.0003066460056891631 
9.409265705939037e-05 
-0.0004077477309403352 
-0.0001415045592794699 
-4.990770139882076e-05 
4.442274470358893e-05 
-2.227660987565032e-05 
-4.669499159966404e-05 
-0.0003230986236290766 
-1.051941561177547e-05 
1.53149977340037e-05 
0.000316823595433387 
6.064159504688089e-05 
-0.0001542914066854257 
0.0001332873759755531 
9.945245213893799e-05 
9.036869807327753e-05 
-5.267680613729456e-05 
6.514558241079619e-05 
-0.0002233598254475485 
0.0001004360355851583 
0.000162654700534585 
2.163905140979358e-05 
6.93370759571049e-06 
-4.147878522852749e-05 
-5.524959487098485e-05 
7.197420331559069e-05 
-0.0001503561335417695 
-0.0002256867423317663 
0.0001319609117520587 
0.0001536886502340322 
-0.0003991592663765055 
6.125846778546592e-05 
0.0003389886961529316 
4.526479984383129e-05 
-0.0007495764401361922 
0.000467631094714741 
-0.0009705513480181207 
0.0002087604664362367 
0.0001830127891246667 
0.0005237099201200012 
0.000127680069116839 
9.305279507390503e-05 
0.0001696365494530364 
-1.573767599979583e-05 
-0.0004778965806735792 
-8.401372921004547e-05 
-5.075543370664025e-05 
-0.0003248700855529414 
0.000516632065671643 
-6.396244490293487e-05 
4.223280419207646e-05 
-9.88711242165929e-05 
0.0005718134155045289 
-0.0001536763929897978 
-0.0006576040361346819 
-7.291017371731419e-05 
0.0008769546406299005 
0.0005773753615640185 
7.534488436038375e-05 
-1.066134141830568e-05 
-0.0001110335780191704 
4.988822082540192e-05 
0.0003354737702866717 
5.332990057271634e-06 
-0.000189469145059266 
0.000399597337879818 
-0.0004677863342075194 
-0.0005257991020518346 
-0.0001580328836069592 
0.0004501515746410121 
-0.0001894234342739361 
-0.0001277697089169079 
0.0002764717733385487 
-0.0001246528746458387 
-4.281152953507061e-05 
0.000481106635569027 
-0.0004667701552451891 
0.001025256327118307 
4.57552634422353e-05 
-0.0004588174899881972 
0.0002261227696435721 
-0.001011754520309348 
-0.0001447271603786485 
1.63895402913258e-05 
1.743937469425443e-05 
0.0007696840521585294 
-0.000535800644318779 
-0.0005850840564172463 
-0.0003334156213405134 
-0.0001400405095273695 
-0.0001483174547063322 
-0.00040832115053709 
-0.0003983298146857088 
0.000771397516985539 
-7.520258634898422e-05 
0.0001737396198447102 
4.567213687402605e-05 
-3.029097795673087e-05 
-0.0001225446135044325 
-8.747747762084728e-05 
0.0003643860911631689 
9.130684683393544e-05 
0.0008909872212778734 
0.0005492361744031566 
-8.618972089446166e-05 
4.939522211554096e-05 
0.0001261142084063596 
0.001160986705525995 
0.000432877460821045 
-0.0001163334676110167 
0.0002702016398213307 
9.979669676801266e-05 
0.0002156151472580215 
0.0001020621946033727 
-0.000233919116679841 
-0.0006235372264285651 
-6.529264751328458e-05 
-3.270385521806742e-05 
-0.0002378900761328176 
-0.0007999137712275333 
0.0005731948758281762 
0.0002539039550627379 
-0.0004794029716588103 
0.000758861259146392 
2.250247002281144e-07 
0.000296502663124494 
0.0001479331273857236 
-8.062545623903834e-05 
2.717452597620773e-05 
-0.0001658907783824684 
-0.0001277244021579796 
-7.209133805151534e-05 
-0.000320917869620869 
-0.0001956270088788819 
-0.0001290472768917076 
-2.393201666874613e-05 
-0.0002763601520837387 
-4.226074388296494e-05 
0.0001701464548893042 
1.463168384733037e-05 
0.0001549722256389995 
-0.0004469302258738176 
0.0001728805856522061 
-0.0002469202385482897 
-0.0002691214592011069 
0.001000826083777007 
7.751513737053361e-05 
-0.0005371421756207317 
-0.0001322731473950641 
-0.0001852295054914094 
0.000569781878002365 
0.0001649162492925607 
-0.0001194814913427083 
0.0005739106546649746 
9.868046797023287e-05 
-0.0004578834406274666 
-0.0003837469958304511 
-0.0004625016988076503 
0.0001423543664956166 
-0.0007802796101125361 
-0.0001208754534495657 
-6.83442309161828e-05 
0.0001611953748277296 
0.0003328445631831424 
9.124634201750386e-05 
-0.000222210335556526 
6.677309421724798e-05 
0.0008384884188220794 
0.0002280222225037052 
1.573351470121947e-05 
0.0001241122606756803 
-0.0001136865643394468 
0.0001849885134667212 
-0.000337899920563464 
-0.0003425097749935987 
2.130788006425945e-05 
0.001301892761088751 
0.0001962604644482175 
0.0006445133075731661 
-0.0001142562362219172 
6.078042985090973e-05 
-0.0006020856775804127 
-0.0002100433844558427 
7.654435730400851e-05 
1.98762357653143e-06 
-0.0003360987215779064 
0.0005428002512122349 
-0.00127065708287921 
0.0002847756285703955 
-0.0001566931154379024 
0.000759844721749495 
0.0003075361271224242 
-5.789003325382632e-05 
0.0003841136084912138 
-0.0007452803740134897 
0.0002055976333182688 
-0.000387479517412103 
-5.628615007694112e-05 
0.0004758317147806702 
-0.0001228162109094854 
-0.0003725325269765606 
9.530731649940317e-05 
0.0001638091113094688 
0.001084571870945016 
-4.778404199356002e-05 
9.634647547560331e-05 
-0.0001501245955917106 
0.0003090853982520355 
0.0008064435151775107 
1.794653444294565e-05 
5.912370009769902e-05 
-0.0002720363102577181 
-0.0002121635111426425 
-0.0001446923815488577 
-0.0003724190312439613 
-0.0002118769552877307 
0.0003911980876390559 
-0.0001166868707763172 
-0.0009344136501971725 
-0.0005532192460312698 
-0.0002673767435936172 
0.0007403268907891923 
0.0003825677303068689 
-0.0005763949164863255 
0.0003217525642035517 
0.0001106535754448204 
-0.0005360888910437123 
-0.0003905140796951089 
-0.0001415809099400024 
0.000337560984594191 
-0.0007398385647495946 
0.0006199990290589585 
0.000198193113994623 
0.0004696114269480185 
-0.000166086843322321 
-0.0001172349939445487 
-0.0003948671880042014 
-7.426464239532269e-05 
0.0002618136035681186 
-3.228436405900443e-05 
-2.637158587860732e-05 
0.001025688825712027 
-0.0005071203443173445 
0.0004167798297729727 
-0.0002134083478878802 
-1.92194316577065e-05 
-7.590250190379009e-05 
0.0001899254459271944 
0.0006118268586198534 
-4.593211004517393e-06 
0.0001834281520349385 
0.0002132826091461287 
-9.712757760566036e-05 
0.0001100699040900522 
-7.082042825343859e-05 
-0.0003470703717816116 
-0.000107536170319951 
-6.653946391454036e-05 
0.0007041970951139108 
-0.001139137218204936 
0.0001782984069870253 
0.0006858594962313982 
-0.0001949941373332219 
-0.0004609889298279034 
-9.827901416620349e-05 
7.465584767932082e-05 
-0.0002985796584206944 
0.0003676603139760616 
0.0003173531541466928 
0.0001452315233790401 
-5.409918469965504e-05 
3.80638925576395e-05 
-0.0001893319061691518 
-5.695589980938107e-05 
-6.310793535525979e-05 
0.0001512978791513087 
8.550031365415024e-06 
-0.0006745317599697979 
6.435475082023068e-05 
-0.001396122711255384 
0.0003417361073142932 
0.0007054817365264182 
-0.0003157002319596583 
0.000646676858720905 
-7.304702290688983e-05 
-8.302056050345546e-05 
0.0008014784064325921 
-0.0001800111544038556 
0.0008929362874936839 
-0.0003927373582140593 
-3.257460951316877e-05 
0.0001813241454901799 
-0.000120071963388331 
0.000472826093623516 
9.101392682653562e-05 
-0.0002738913640809912 
-0.0004382034154525974 
-0.0001420190626219494 
-0.0005332701884647384 
0.0001494732544758466 
8.063440146718698e-05 
0.0009206785886846366 
1.636869074207857e-05 
-0.0001311497327466996 
0.0008304785869739194 
0.0001847350267372269 
-0.0001484663072262502 
0.000198467811049465 
0.0001920383499829297 
0.0001954977770987562 
-0.00216684743896263 
2.525258243273812e-05 
-0.0002567232684411925 
0.0008137069934348449 
-0.0002844436610518765 
-0.0001533458792103021 
-0.0003834710051803317 
0.0003448194532200877 
0.0003939309184339844 
0.0001637271206996325 
-0.0002611779785015261 
0.0003335066163684434 
6.442682861544907e-05 
-0.0001382594200166433 
3.232447251373225e-05 
-9.429633285566513e-05 
-0.0001346844584280922 
0.0001852156721745319 
7.383390738958644e-05 
-7.100207230890224e-05 
0.001189786187391931 
-8.169848103817957e-05 
-0.0004211298720608997 
0.0006236468324776982 
-0.0001603679813160891 
-0.0005770244054967774 
0.0004540763028516623 
-0.000934472077758874 
-0.0001663397096271191 
0.0006607952816934763 
-0.0002112342689884557 
-0.0001386942524210555 
-0.0008363038797067741 
6.768369160128868e-05 
-0.0001954453355984821 
2.230984565444061e-05 
0.0007050599833278332 
0.0005066153105192211 
0.0005047448385063733 
-0.0002286117267477074 
-0.0001600363954294679 
0.0001949397928218945 
0.0002575820939484713 
-0.0002642458571640843 
-0.0005144876228797042 
0.0001890257093457312 
-0.0002823943971380122 
0.000698588882621716 
-0.0003259009144600721 
-0.0003148366544643084 
0.0002453461373426845 
-6.49977487081112e-05 
0.0003304685094710832 
0.0001153619189980679 
0.0005388741895998628 
-0.0001550851898143537 
0.0004058017915035164 
0.0003632209833431639 
7.37619038757462e-05 
-0.0003212717618731007 
-0.0001912049688781155 
0.0001718718343108242 
-0.0003531253594800636 
8.370934986200634e-05 
-2.53185928840347e-05 
-0.0002330853458803515 
-0.0001049882825749944 
2.479592509657651e-05 
-0.0008331980857596428 
-0.001199180305341495 
-0.0001808406668225054 
8.754562483435985e-05 
-0.0007452105335498679 
0.001019791412506581 
2.822625224615583e-05 
-0.0002668271786776476 
-0.0004350975704236954 
0.0001635218617362337 
0.0002985425575185769 
0.0007419799195270417 
0.001163383552753895 
-3.968439213125303e-05 
-0.0001187885671519504 
3.402852315962797e-05 
-0.0006663048477671581 
-0.0003975732382419884 
-0.0002536852827688346 
0.0003490731808754845 
0.001048690882920487 
0.0002459593461718366 
0.0002693044990993888 
-4.926102809360709e-05 
-0.0002285876296619477 
0.0001654333230658905 
0.0001708124226236474 
-0.0003295149920238072 
0.0006447793209677675 
0.0001055293904548384 
-0.0008193533890610716 
0.0007288524822536782 
-0.0004917421204505511 
-0.0008654075130519946 
0.0004742720330954969 
0.0005568005780602615 
-0.0008596424703002099 
-0.0006072037507669676 
-0.0003354065768020807 
0.0002468212219559862 
0.0002624739634493374 
-7.713582013349815e-05 
0.0003611165913475646 
0.0002354621641375637 
-0.000322889649126912 
4.752112292040657e-05 
0.0007213255223100942 
0.0001114595716411501 
0.0005458742846861096 
0.0001455128385476618 
8.756878837856242e-05 
8.3957946642776e-05 
-0.000321125313762451 
0.0006033269926120907 
3.716315482511177e-05 
0.0003134727970113612 
-0.001810693538908123 
2.054041403095833e-05 
0.0003140109254566436 
0.0004483648032833221 
-1.75946485122185e-05 
0.0002468945871740282 
-0.0002078638380892759 
0.0006896994721899746 
-1.948817688968327e-05 
-3.656710203237116e-05 
-0.0004456121671665805 
-9.463452122676742e-05 
-0.000275506610445108 
0.0002944251452299861 
-0.0003399058839673795 
-0.0005594772374740825 
-0.0007198276977407511 
-0.000231065015277869 
5.191725833588421e-05 
0.0009184356825718162 
-4.559208677424338e-05 
-9.831843739121465e-05 
0.0005262476803090185 
0.0003378388134730528 
-0.0001370237578470059 
0.0002211120360458083 
0.0002691060431070856 
7.66995329885236e-05 
-0.0005224426397352196 
8.675656082026415e-05 
8.376755160534209e-05 
0.0003038029135918529 
0.0003635862025060793 
0.001002827253291874 
-5.028515370080774e-05 
-0.001718578857448266 
-0.0008381305298082836 
6.023326598534343e-05 
-0.0003090856341946522 
-0.0001181154961387875 
0.0003913740577827314 
0.0001200590700591953 
0.001073401484767139 
-4.490332643370521e-05 
0.000523408334674038 
-0.0003019542360504079 
-0.000199572308880583 
-1.622511387632572e-05 
0.0002071016879491861 
0.0001047641029267013 
-8.805162682971143e-05 
-0.0003568512789643257 
2.413340076025764e-05 
0.0003821892105783073 
-2.127812029465225e-06 
-0.0001489956284019339 
-0.0001811473034157454 
4.63339604289269e-05 
-0.0002236908937981151 
-0.0001819934516136813 
0.0003055025943336566 
0.000280809185619546 
0.0005067155729936695 
-0.000267317599223723 
-6.761253886307165e-05 
-4.647624836847273e-05 
0.0002406701439000634 
1.074243337083867e-05 
0.0002553294138329674 
0.0009747675788056871 
-0.000462705937354273 
-0.001889774862013018 
-0.0006487706281545692 
0.0003029035582094277 
-0.0005326688261234284 
5.837242025055283e-05 
0.001732281003716045 
-0.0001421766832526992 
-0.000258696094444119 
6.973481932366681e-05 
0.0004518235842751212 
-0.0001294004193563535 
-0.000301548503086898 
-0.0001152912058216346 
0.0002222973834306552 
0.0001655310154329079 
0.0002921057814520937 
-2.466994538578964e-05 
6.752893258705011e-05 
4.723310031100543e-06 
0.0001104218335173288 
-0.0003457640004889845 
3.311629623200977e-05 
-0.000170633383935877 
6.46751558723333e-05 
0.001217980413022583 
0.0002828032777228011 
6.724249040754743e-05 
-0.0005710738014364636 
-0.0006021340006035108 
0.0001698467049142076 
0.0001783110581863159 
-0.0001672173477883684 
-7.569099708241417e-05 
-0.0003428708321875575 
0.002133340424844183 
-0.0003470923689156147 
-0.0001910755305625148 
5.631944128858584e-05 
-0.0001636032443922462 
0.0001043219217555163 
0.000148298209324396 
0.0004250650997825079 
3.142791588533859e-05 
-5.510759739839978e-05 
-9.877909173074276e-05 
0.0005436564012368145 
-0.0008183806185323505 
-0.0007138174134621539 
-0.0005338593489931711 
0.0009341825235511123 
5.04417770750449e-06 
0.0008401294383261806 
7.456590002608909e-05 
0.000105932527290344 
-0.0001204722811912271 
0.0001855905047189409 
0.0002512122803883737 
-9.059446616462335e-05 
-0.0005076579610660832 
-4.703217000914496e-05 
-0.000140712365190289 
-8.847745709941308e-05 
-8.532364705704789e-05 
-0.0002596828237218771 
-7.840423558189693e-05 
0.0003086503339778108 
-0.001339174526064805 
0.000871938474473203 
-0.0001119421112060895 
0.0002417966032113557 
-0.0001849422541299046 
0.0008009479082545501 
-0.0002677494996535745 
-0.000500741290347326 
-0.0007677590100995194 
0.001463057250291867 
-0.0003788142227469461 
7.117486178365866e-05 
0.0002909917312108985 
-0.0007469241768467237 
-0.0002868307079351479 
1.204336101003394e-05 
3.609924529890611e-05 
-0.0001955113567247789 
-4.36069699873728e-05 
0.000181763958899309 
0.0001646144091770631 
0.001572846502528871 
0.0001972965554367414 
-0.0002885753155361256 
9.256137764338089e-05 
-0.0002048583777921857 
-0.0002005586563367834 
4.499457635588814e-05 
1.43874838165315e-05 
3.674787395762767e-05 
0.0004576410821350837 
-3.046881447741366e-05 
0.001072228071728024 
-0.000488397650803503 
0.0003417352014870833 
-0.0001673429133418392 
-0.0002606750739662535 
-0.0002238270969364669 
-0.0002910494062727541 
0.001109400632581553 
0.0003590895694959367 
-8.917673653197354e-05 
0.0001525135136604889 
-0.0004906357946487229 
-0.0006123483336473377 
-0.002010551188608364 
0.0001935995794996063 
0.0004080309402709192 
8.003966701720525e-05 
-4.107889021377261e-05 
-0.0003738447523370371 
0.0002186672576218549 
0.0005586046700874836 
-0.0001273927374869832 
0.001370801233320323 
-4.278866925826415e-05 
-0.0001950229050473451 
-3.181676244002782e-05 
-4.46444243455046e-05 
-9.35822437106417e-05 
0.0001124027970930061 
0.0002991590997903507 
-0.0003877834873397499 
0.0007198130653128677 
-0.0004094340241188336 
-0.003581214130662566 
-0.0001653501034890365 
0.0005013512827157719 
0.0002194666407524367 
-0.0002556910362571644 
-0.00040919576241378 
0.0005129123689724245 
-0.0001337293867075821 
0.0001434289394074745 
0.0001478653393378258 
-0.0001269434057907726 
0.0004414156728424489 
0.0003331808032361474 
0.0007943522529407861 
6.230927410634666e-05 
-0.0004332777224813243 
-0.0002248414766704793 
0.0001517975913025227 
-0.0001758672379410773 
2.183863378749039e-05 
0.0003476701776558804 
0.0002937099177189645 
0.001244017703183954 
0.0007195480132449998 
0.0004842511950098131 
-0.0002157131793226535 
0.0002226659572242907 
-0.0002946723408631756 
-8.814486986323442e-05 
-0.0002090498106346814 
0.0005839768967657596 
-0.000869938666202757 
0.0002073350452552364 
-0.001705112721930618 
-0.0006786512410929213 
-5.261878559765163e-05 
0.0002821769401388955 
9.744090652535053e-05 
-0.0002333512065058225 
0.0008054789805607202 
0.0002292676087512898 
0.0001626093541368104 
-0.000123106088396685 
-0.0008897835859691523 
-0.0002721097960588389 
0.0009921238432629941 
0.0006696638001341866 
0.0004500472756702782 
-2.73400150408473e-05 
-0.0002923814639584125 
-2.794034461514773e-05 
0.0003248209646673492 
0.0001401777856595284 
-0.0003129931034689683 
-0.0004706979075471816 
0.0004604351213813266 
-0.0006009039960355794 
-0.0007271780951614389 
-0.001306431869358963 
-0.00101227777069113 
7.135661888711372e-05 
0.0008999984033595865 
0.000159762783575723 
0.0003908250244384315 
0.000458808993615715 
5.839370039290147e-05 
0.0006653127901370395 
0.0008854425678539437 
-7.783503416777865e-05 
-0.0001136379662496277 
9.205916556202548e-05 
-7.050779035796868e-05 
-0.0001797000566409507 
-9.208060614343849e-05 
5.282922946261868e-05 
0.0001434625930695807 
-3.222697888097216e-05 
-0.0001372845104487215 
-0.0001243023204949834 
8.402822871026893e-05 
0.0002774487124426851 
0.0005547522395802424 
0.0001790602435609687 
1.650763245388124e-06 
5.870117109267883e-06 
0.0002389446681079492 
-0.001306225372375581 
0.0004601755485136572 
-0.0005232750918086537 
-0.000596683677613383 
-0.0007555656713443936 
0.0005298190473734662 
-0.0005990393390667351 
-0.0003935089775000322 
0.00029238311803462 
0.001025150924051863 
0.0001125117952187075 
0.0007844936146096182 
-0.0003230250930530856 
-5.592786741403456e-06 
-6.274835346469792e-05 
-0.0001680922443322851 
0.0005870944873728213 
-8.520937302333203e-05 
-0.0002762014521148013 
-0.0002722515142486862 
0.0005297606420527816 
0.0003813347965715607 
-0.0001536404010883814 
4.286203081479447e-05 
0.0002716635633017553 
-0.0003301281039596931 
-0.0003453321601929671 
-0.0009841316254476215 
0.000190252170314838 
-0.001145493638021393 
-0.0005992792211487778 
-0.0004411675868232301 
-6.130419346836568e-05 
0.0001304419172555678 
0.001657218919339968 
-0.0003992632338858538 
8.555879843147456e-05 
-8.367850385278652e-06 
-0.00026057037030972 
0.0002210352836969379 
-6.059965194969252e-05 
0.0001610772182457263 
0.0001429360149875618 
5.51954891960429e-05 
0.0003896536487493628 
0.0004141946072890155 
-0.0002151341817923538 
0.0001292589525365681 
0.0004430468394157024 
0.0004489474155329164 
9.706755045047459e-06 
0.0008436856941625555 
1.546771978792327e-05 
-0.0001352875058824268 
-6.292425646314553e-05 
-0.0001183781184582064 
-1.490752159650154e-05 
-0.0005321889359530061 
-0.001684889222829561 
0.0002834276883656231 
0.0003388067070482192 
-0.0002065882171544386 
0.0001051799152955343 
-0.001071513473979514 
0.0001209679228441783 
-1.440200650346606e-05 
9.921324937467645e-05 
-0.0002109993689318786 
-0.0001661170056340158 
6.505804668292635e-05 
-0.0001765400405823721 
0.0008790330162322766 
0.0008685607157783563 
0.0005063121925133841 
-0.0001295945280056924 
-0.0001080201529893732 
0.0004572129710022088 
0.001160854905016946 
0.0001107330209757429 
0.000166859467351392 
-0.0002226708734398918 
4.9042413341417e-05 
-0.0001126574326524921 
-0.0001491623055721825 
0.0001721020158900421 
-0.0002562375007470176 
-0.0001916420736841604 
0.0003067457216428808 
-0.0001569826601696691 
0.0002968804985123301 
-0.0002272695495299541 
0.0007798896715254989 
-0.0002790223938805058 
-0.0009957660781599077 
0.0004415260774030325 
-0.001218385680992072 
0.0008339938705393728 
0.0001026947812052816 
-7.907035812379032e-05 
-0.0001095376797714332 
0.0001375721113248051 
8.169204263155438e-05 
-2.70166769574334e-05 
0.0001910916370446662 
2.283375551687845e-05 
0.0001354891530704492 
-0.0001883623362252239 
-0.0004457124286986644 
-7.595884766394395e-07 
-0.0001254747521658948 
-0.0002327774231208491 
-2.343825687114488e-05 
0.0001848310714415155 
7.792206854109378e-05 
0.001652808307918116 
0.0008845494128748238 
-0.0003707290593294399 
-0.0001270216950671569 
-0.0005007507508552441 
-0.0002737177820541477 
0.0001352048308940872 
-6.829185923210584e-06 
-4.578358853908736e-05 
-0.0001304123340803815 
0.0002784884089939025 
-0.0003600108535503867 
0.001167079834652478 
0.0001970787441989415 
7.185050828181013e-05 
-9.239171993471429e-05 
0.0005901377767469591 
0.001144928867091179 
-6.098452478406704e-05 
-0.0006119704089381349 
-2.921942532655197e-05 
-0.0002709417601095442 
-0.0001379885128549178 
0.001397145740738291 
-0.0006443009772860573 
0.000168446781216599 
0.0007176138675012799 
-0.001091614760426731 
-0.0001204540650476274 
-0.001482072804054634 
0.000917792045665746 
5.729847765245668e-05 
0.0001280658827847851 
-0.0005081827129261911 
-0.0006523107764001029 
0.0001858332258806157 
-0.000374788786670902 
-9.472848634565061e-05 
0.0002701886185686021 
-2.932390785408493e-05 
1.240009337531497e-05 
-0.000666429559714133 
0.001215471259176489 
-0.0002333779958305797 
-0.0003267153420474898 
-0.0003671818469221034 
5.264703977719485e-05 
-0.0001497248522311282 
-0.0007361898787313291 
0.0004268969084533118 
-5.784227012308295e-05 
0.0001283793080422485 
0.0002600752250168192 
0.0001155243316010316 
0.0004864832158498719 
0.0001660340147806294 
-0.0003394440469865646 
6.158148364297724e-05 
-0.0002635700555749919 
5.102922663786706e-05 
-0.0003840464588085083 
9.046902260771797e-06 
0.0003975112281381079 
-0.0003113347277581817 
0.0005363481297721071 
0.000177739148725726 
-8.365183299598809e-05 
0.0007252465559998572 
-0.0005830786063833328 
-0.000118711998757199 
-0.0002379571380819737 
7.569051035695154e-05 
6.409579857204879e-05 
-0.0006078131720469043 
7.992267151158676e-05 
0.0001034492798169311 
-0.0001733810453484045 
-6.899868616963208e-05 
-0.0001614144757751045 
-0.000717514015298323 
0.0002746632938075661 
-0.0001189145375669666 
-6.605674278610859e-05 
0.002056840851687016 
-0.0007785746486910791 
-0.0009591001822788195 
0.0003263821012036342 
0.0007397319665594139 
4.186255158326933e-05 
1.262543417322921e-06 
-0.0001401294157793089 
0.0005696034102910654 
-0.0002624238886226685 
-0.0001991026679462183 
0.0005013653336879276 
1.952686535124514e-05 
0.0004145187570401576 
-0.0001485575525772469 
-0.0001049673683840844 
-3.915748056545809e-05 
5.69440936793013e-05 
-9.981770154688951e-05 
-0.0006627544717110332 
-0.000194767045024528 
3.487898053162013e-05 
0.0001251249542193689 
0.001072094265302272 
3.919980332796396e-05 
-0.0006363554070671713 
8.244324836440352e-05 
-0.0001255681818894697 
0.0003114214035674681 
0.0003563518935920472 
-2.692785765828161e-05 
0.0001054403398777013 
-0.0003777111902000478 
0.0002910477717485987 
-0.0007777244421314563 
0.0004257688659294568 
-0.0008534277210347369 
-0.0002117678179381358 
4.361403904260195e-05 
-0.0001336787675942086 
-0.0001431700014639233 
5.944387190728013e-05 
-0.0001991241383133602 
-0.0002083140905626658 
0.0002002629820702048 
-8.641432521046516e-05 
-0.0002315338344021453 
0.001192428879682535 
0.00115319759319404 
-2.862713884395851e-05 
-0.0001528731522117485 
-3.48053858893482e-05 
-8.965517362254315e-06 
7.670423861239226e-05 
6.76442242880624e-05 
8.801748579498546e-05 
-0.001365098208064516 
0.0002492669375597415 
-0.0001451183299432947 
-0.0002738629872598045 
0.0009126386686469362 
-7.529936267877137e-05 
0.001660740872697887 
0.0005677585890990275 
-0.0001053951005378856 
-0.0004783565957197248 
-0.001440914596849244 
0.0008222368027724757 
0.0001659237420940819 
7.324944491194789e-05 
0.0007052151302034241 
0.0005060585420464018 
7.073585850698457e-05 
-0.000684976361040161 
6.501630716554149e-05 
-4.164966787079101e-05 
0.0001810056615876749 
-0.0003851984365109441 
-0.0005214786726473339 
-0.0001580706264105564 
1.033020231489672e-05 
7.410801677328025e-05 
-0.00013548156719086 
-0.000332999944935212 
7.819320542801949e-05 
-0.0002781644291073729 
-0.0005426661377563094 
0.0003069234658196727 
-0.0001822858560340829 
-0.0003656686519873185 
-0.0005524093020390221 
0.001238073290317678 
0.0003139952165952531 
-9.14613751987093e-05 
5.926325245352061e-05 
0.0005030655880241701 
-0.0001074301541521569 
-0.000244814380335458 
5.66027127936503e-05 
-0.0001279322722676434 
-0.0001916899255521634 
0.0002795882456233098 
7.960961710212667e-05 
-0.0001375109694533436 
0.0001994759579289648 
0.0001202809189136007 
0.0004729472815066636 
0.0001254029323132113 
-0.0003024038387982856 
-9.388728732374904e-05 
-8.786255524117002e-05 
1.399855097583314e-05 
-0.0002725566560764276 
0.0004431246495798377 
6.317815998317529e-05 
-0.0001981759561017152 
-0.0006437995390242083 
0.0004084278257793565 
0.0008930683103225445 
-0.0002961639039811059 
-0.000229286034680863 
0.0002253409488120037 
-0.0001506458164837747 
4.60887620268273e-05 
-0.000136886699346856 
0.0001634436136276016 
0.0003685340841270256 
-0.001603543985636953 
-0.0008709234295853455 
-0.0009407601238958899 
0.001191250832686869 
0.0005149775190704958 
7.816675327752267e-05 
-0.0002617294035194022 
4.694994561924491e-05 
7.562496526430266e-05 
-0.0002527549801476744 
-0.0001328740963912562 
-0.0001950015087538039 
0.001022909171321721 
6.324376468580063e-05 
0.0001966168511243725 
0.000243110022686602 
0.0003228794384423042 
0.0003312463686507244 
0.0005645952731460801 
-0.0004019496640223096 
-3.320528437215202e-05 
-0.0002164404048448776 
-7.477159558335421e-05 
-8.924711856424633e-06 
0.0002904710256991896 
0.0002161689082635066 
-0.0006828545309453257 
-0.000267870783371134 
-1.950865038818864e-05 
0.001168047987766874 
-9.454891843302128e-05 
0.0006797252235663639 
0.0001884296695121407 
0.001759392206216599 
-0.0005735982224582695 
-0.0003769320174216808 
0.0002830496085716145 
-0.0004124290114169299 
0.0001621893068989512 
-5.304876466765852e-05 
-4.792484365624055e-05 
-5.142722917715347e-06 
-0.0001732144614001079 
-0.0003700303824698468 
0.0002166262263815025 
-0.0001938903704748017 
-0.0002070524827651229 
-4.015601342356517e-05 
-0.0007385843604776121 
5.419167999269468e-05 
-9.333593830272245e-05 
0.000107151937877566 
9.459976958901587e-05 
-0.0006313608391040637 
-0.0002940704519382843 
-0.0002237926661683147 
0.000119294681020824 
0.0002260006446777367 
0.0003989634168740158 
-0.0007580934158605106 
-9.577988582185443e-05 
-0.0001076675949371137 
-7.253337042578098e-05 
0.0001245726021541966 
0.0002387526849812852 
0.001655891491436509 
0.0003402023006269348 
-0.0003553180625350306 
-0.0003071434512628704 
0.0001704935802120343 
0.0001353888113532183 
-8.293005013261087e-05 
0.0001660313860419155 
0.0002129669468921228 
-8.868928242712436e-05 
-0.0001135184535674747 
0.0001347549154687426 
3.139351840676758e-05 
-0.0001186500232198636 
0.000358324575030453 
-0.0005818775696738401 
-0.0003017217248097157 
-0.0007180621440215046 
0.0008855569702404284 
7.823651538166349e-05 
0.001196624691919061 
-6.977942469628995e-05 
0.000155630947665271 
0.0006534131961825298 
-0.0002438213404480794 
-0.0001922635579243175 
0.000626011560926998 
0.0001896595133672442 
-6.010140553460126e-05 
0.001128007697540433 
-0.0002143778931929087 
-1.276707701681228e-05 
-0.0001708794875024893 
0.0002327542596637367 
-0.0001992893984985362 
-7.330838019176035e-05 
-0.0002955079868799202 
-5.234451505229887e-05 
-0.000135106346971394 
-0.0002127798212427291 
-0.000497598048918016 
5.601801149023508e-05 
-0.0003082804388782357 
-0.0006311039862966429 
-4.690830193997023e-05 
0.0001438091477292277 
7.136354422942086e-05 
-0.0004770896808536878 
5.273781011824016e-05 
-0.0004883354649811133 
0.0002393549699059957 
0.0001314183336177471 
1.014875321791836e-05 
-2.300926584260159e-05 
4.570109865994418e-06 
7.930248121885004e-07 
-0.000123058058066716 
-7.667399338153381e-05 
8.787091624672024e-05 
5.028344038536048e-05 
-0.0005615766929548369 
0.0006151068245497741 
-0.0006486337238898304 
-5.765114252107022e-05 
-0.0001040483251945336 
-0.0001929903707371364 
-0.0001732916050249866 
0.000342448153414655 
0.0005427324792098081 
0.0001275588583219538 
0.0007607264395741625 
-0.000180227773174337 
-0.0003948832357936435 
-0.00147858821391379 
-0.0001857507875520422 
0.002357675845284941 
-0.0002780578577460499 
-0.0005434054117280924 
0.000475031821231596 
-0.0003202230578009633 
-0.0001227247805475041 
0.000215076155395071 
0.0001853324498420343 
-0.0001577801260609839 
-0.0003502182143328768 
-9.666447036213496e-06 
8.071342116273941e-05 
5.367626239666561e-05 
-0.00028629112245432 
-0.0002012783938311803 
-0.0001889439024869519 
5.46988948762474e-05 
-3.051649341180358e-05 
0.0001150047129410557 
-0.0002279297887203212 
-0.0002151683217505998 
-0.0002554278570585107 
0.0005940120833769234 
0.0003352167707006282 
7.743980412195091e-05 
0.0001906107279609965 
0.0003031006742111796 
0.002624509365902658 
0.0001536530482161962 
-0.001243097109187115 
-0.0005323191181743903 
-2.27100865340022e-05 
0.0004618788063525118 
-0.0008634575400000585 
0.0002210932841977305 
0.0004415588685162902 
-8.857591592227131e-05 
0.0001296889436495038 
-0.0006977599864234046 
-2.37359360980276e-05 
0.0006259010356830526 
0.001026390690126893 
-0.001022541039950001 
0.0001081983475256496 
1.324038596482943e-05 
0.0002086486523977903 
-0.0002009924743568463 
0.00078935466533959 
0.0003685162113068238 
7.717329670727381e-05 
-0.0009328967398531961 
-0.0004750883228898756 
5.69272768932873e-05 
4.121475649407277e-05 
2.79979302632491e-06 
9.178401335296343e-05 
-0.0001081382075790261 
0.0001421202066368143 
1.597015054772126e-05 
1.864132337186036e-05 
3.991826260325087e-05 
-0.0002827843508788873 
-3.126585566196899e-05 
-1.250799292718128e-05 
-3.401695746855099e-06 
-0.0001665421275526534 
-0.0002694931472082056 
-0.0002294017261794643 
0.0004949135815929123 
0.0002144577732530172 
0.000163166672177961 
-0.0003223041051176793 
9.197931756868533e-05 
-0.0001299802351032305 
8.424826807040448e-05 
-0.00117624589889667 
2.487477917849122e-05 
-0.0005894829288053019 
9.309051193982254e-05 
-0.0004271303898772427 
-0.0001909388214895965 
0.0003550904500823121 
-0.0002261555271625398 
0.0008386076301936939 
-7.032706186321973e-05 
0.0009324516419709428 
0.0002104635871427125 
0.001048061534828285 
-0.0001271370161120926 
8.39207549102878e-05 
-1.991212993298609e-05 
4.974896234782909e-05 
-5.535832754246499e-05 
-0.0001267512244651368 
5.691118095942095e-05 
5.9746420042855e-05 
0.0003241448869884357 
0.0002018496374798697 
4.970710896894584e-05 
0.0003427114535875865 
-0.0005948978294292453 
-0.0004196596670569532 
-0.0003970048697209617 
0.0001453531102972948 
0.000265491331106013 
-0.0002330247392623872 
1.758651909952176e-05 
-2.341999061090145e-05 
9.230760771448995e-05 
0.0004126335891041281 
0.0001045068139045518 
-9.082358678875301e-06 
-0.0001158519215998306 
0.001457653157599674 
0.0003529391462859037 
-0.0006204972270586041 
-0.0001015084714065938 
2.216616156205285e-05 
-0.0003535014869476481 
0.0003432521884339873 
-0.0002614778154894783 
-0.0004372127879650874 
-0.0001548020181863791 
-0.0002069017237776524 
-7.761900606732467e-05 
-0.000698096755616601 
4.284110594653912e-05 
0.0008544769133023203 
-0.001157851023830431 
-2.707241866207467e-06 
-0.0001992521489659976 
-0.0001089598819860613 
0.0006173723278902509 
0.0002085810716078705 
0.0005026549215345489 
-9.071694667554109e-05 
-0.0005416492208289614 
-0.0002506095437224312 
-0.0002178509063677909 
7.061076388164323e-05 
0.0003916962478491318 
-0.0001922619125970622 
0.001672369704838168 
-0.0002727967307461014 
-0.0001291908386154491 
-0.0001305571573172345 
-9.374758027477698e-05 
-0.0001160265905319217 
6.194773123798705e-05 
-2.162742425643078e-05 
0.0002548068466649094 
-0.0001852462667392716 
-1.317858683670578e-06 
-5.376265089357201e-05 
-0.000152394175586239 
-0.0001335809747888495 
-0.0001261933793985163 
-4.263432043473219e-05 
0.0001525846706833127 
0.0001172900377614301 
-0.0001572682075239747 
0.000439455670491475 
-8.35305111796394e-05 
-0.0003186308964988137 
-0.0001349392001464926 
0.0003645906671930197 
-1.148432760158975e-05 
0.0002839276432327058 
-0.0001204187725112075 
-2.742021414776754e-05 
0.0001911327566810547 
0.0007261749910477395 
7.428048202214197e-05 
-9.667284458773667e-05 
6.153663854645494e-05 
-4.678713041965854e-05 
-0.0001926100163666127 
-4.874615790383009e-05 
-0.0002797609794330874 
-5.334763688019415e-05 
0.000311533337794119 
-0.0004315108396412136 
0.0007409672338939581 
0.0001961647128848906 
9.597754427391662e-05 
4.515437081893038e-05 
-0.000127633134964242 
2.442159353498978e-05 
-3.615293783546384e-05 
-0.0001135133913054011 
-0.0001632719038830365 
6.659951344925745e-05 
-0.0007895311295654201 
7.110932194816172e-05 
-0.0002825461321936862 
-0.0001266667902005124 
0.0003866920617816954 
5.686605072744729e-05 
-9.431696952602538e-05 
0.0004242756810605961 
-0.000456101192278074 
-0.0002940307847411974 
0.0001195144183060806 
0.0005414967873568323 
-0.0007843976181943986 
-0.0001072582923853028 
-0.0002020285668106606 
0.0002904005668432368 
-0.0001450179156176646 
0.0001051530652943946 
4.704258718404653e-05 
-4.202665582900306e-05 
0.0004882160025025343 
-0.000511829673864209 
-0.0002145043099265907 
0.0001750230031393582 
3.497787776750097e-05 
0.0001938097324560232 
9.706489084979918e-05 
-0.0001271757483569858 
0.0001124908266985816 
-5.466512459406886e-06 
-5.406066038946191e-05 
0.0006941489448686267 
-0.0003097024632784917 
-0.0002203494071515207 
0.0001798337188084454 
0.0001182759278207614 
0.0005247424803983307 
-3.77165536096159e-05 
0.0001211429321834493 
0.0001103119015148328 
-0.0001285475434560004 
-0.0003982769821257758 
0.0002630831251000362 
-5.685780431344278e-05 
0.0002753475641417989 
-6.839948090858155e-05 
0.0001760128130162044 
-6.497793702701357e-05 
-0.0001173439283070057 
-0.0005148021005217792 
0.0001627399132898425 
0.0002174298999968421 
-0.0004368740559432734 
-0.0002173260733636307 
-0.0006737220564850764 
0.0002372963007700773 
-0.0002336331693314685 
-4.854062820744863e-05 
-0.0008162574921944342 
0.0001887891952169331 
0.0001565585710564952 
-0.0006539780928229913 
0.001795020537830882 
-0.0004419064415924729 
-0.000127813887761382 
0.000110535283992075 
1.42817430397652e-05 
0.0002722376164591516 
0.0001776130796412171 
0.0005516896304906024 
0.0005874537672642527 
0.0002551479421558466 
0.000263440582184374 
2.254935676157051e-05 
-0.0001116435862397895 
-0.0001417475819791051 
-0.0001560391350557039 
0.0007084197484878654 
-0.0001605130722217973 
-0.0002011080875276594 
4.73559683108905e-06 
8.747706008696668e-06 
-1.479977033707254e-05 
0.000168365042344809 
-0.0001673025564197371 
-3.640423944934345e-06 
0.0007025786781139528 
-0.0007711726082841321 
-0.0003485808302178723 
-0.0003093262013809722 
-0.0005624561898562205 
0.001146503262479761 
0.0003405688121328895 
0.001353557251243188 
-0.0005800819922022144 
-0.0003441554266329688 
-0.0003267207269435855 
-0.00038244958318277 
3.235878072081993e-05 
0.0001802622150458357 
3.614495895174596e-05 
0.0003383745964326535 
1.345532579131169e-05 
-0.0002963448320038004 
1.897874882886565e-05 
0.0002197391004461397 
-1.870222025762962e-05 
5.964314835190621e-05 
5.402384419397656e-05 
3.029398538668077e-06 
-0.0001671101725508428 
-0.0006566085591769804 
-0.0005187388452284397 
-0.0002911390229274891 
-0.0001695583673269317 
-0.0002295030396136801 
0.0003921163075204636 
0.001433862784940043 
0.0002587387862897337 
0.0004774355684357933 
0.0004833008389297784 
-0.0009064955916717556 
-0.0003632719093465503 
-0.0005829615750652923 
8.265733488595896e-05 
0.0001671683335205358 
0.0004669646695931454 
0.0002120966708389697 
-2.187090578521987e-05 
-0.0001427904656242083 
0.0002543934491258579 
-5.09426283809225e-05 
-5.439814040965379e-05 
0.0001172169219579819 
7.640615969823668e-05 
-0.00016170131363022 
0.0002021940448369741 
0.0003652802238525095 
0.0001447241652700258 
-0.0003880765733845057 
1.201848041609794e-05 
-3.045389401313793e-05 
-8.526500929105578e-05 
0.0001375179309887793 
-1.737558091537232e-06 
9.972139652336361e-05 
-0.0001111027204807004 
-0.0002159407626830271 
-7.941712021707707e-05 
-9.270492303092026e-05 
-6.426668616285151e-05 
1.021791770378417e-05 
-0.0004366605790256289 
0.0005169033028103381 
0.0009367906327601204 
-0.0006371606147610713 
-0.000301854014381456 
1.63409113039216e-05 
5.631059350930948e-05 
1.941761386255613e-06 
-0.0001742247760595095 
-0.0001252991728863391 
-7.544459637156745e-05 
-0.0003242890397478842 
-0.0004587170369112956 
-0.0001635201798727425 
0.0006856182213317316 
0.001022534983779347 
-1.406802095876092e-05 
-6.526999957055172e-05 
0.002212188300280375 
-0.00041022367105572 
-0.000215378112037307 
-0.001046386755546355 
0.000180252579745404 
-0.0001741554001583417 
0.0003518022996574475 
2.752099019179021e-05 
-3.581435078940724e-05 
-2.71311048586529e-05 
-9.939096562016795e-05 
-0.00016511689173745 
0.0004048541480132844 
0.0001754333037872592 
0.0001919507270982586 
-0.0001815349003967243 
-0.0001211056598979615 
0.0001921168049001291 
-3.909294571332767e-05 
-0.0001479111254354578 
-6.724655660053639e-06 
-9.606219374859681e-06 
-0.0001806222657764006 
3.679064400310887e-05 
0.0002234408744431007 
-0.0003138280808008292 
-0.0001180936924686161 
1.260469285937504e-05 
-6.649112114198631e-05 
-0.0001290301168803538 
0.0004829352575502995 
-0.0004973638870271444 
-0.000102981784791106 
0.0003148150826012485 
-5.395562235418001e-06 
-2.118340150196963e-05 
-0.0001668942890465775 
-0.0002248165683548895 
0.0002293301986977246 
-0.0001935403237551335 
-0.0002154870594629403 
7.091504510151963e-05 
-0.0002340088486392244 
-6.303894275030464e-05 
-3.814495866258797e-05 
-7.362477539572565e-05 
-1.566599232230127e-05 
0.0006469952086673036 
4.798525434327812e-05 
-0.0002009623722607017 
3.79083960029735e-05 
9.079975973639929e-05 
0.0001947776331685725 
8.418410416740392e-05 
-9.210441911073791e-05 
0.0002046556140131442 
5.739773018321273e-07 
-1.252952071969406e-05 
-7.819171598335523e-06 
8.844911483523649e-05 
-1.841987185074391e-05 
0.0001316364123988485 
-0.0001757375782404277 
-0.000389286855447256 
6.469556940756993e-05 
0.0005510516170682334 
-2.96447472656479e-05 
-3.436514057933024e-05 
-6.974358862541725e-05 
0.0002164338446412857 
-0.0002005296901057291 
-0.0004671960868284722 
0.0009292681914307584 
-0.0004503552565570353 
-0.0007013157013774544 
0.0002263220151499058 
-0.0002037206551419825 
-0.0002701778273147409 
-0.0007608491695208488 
0.0004721613915164202 
0.000420208906764335 
0.0004571705671961579 
-0.0001284380064217912 
-0.0001465211855559709 
6.158767442586776e-05 
0.000290681949914125 
4.279582752261579e-05 
-0.0001591040448182091 
9.974517572976782e-05 
-0.0003411105686017137 
0.0005563530924643136 
-0.000168829148630538 
0.0002181159516874145 
0.000532312785214044 
-0.0002812445758054937 
0.0001396351279303074 
0.000176098199555215 
-0.0003767104866237926 
-6.272380261086903e-05 
-6.782136399579362e-05 
0.0001352874331057234 
6.006408983702531e-06 
0.0001542309504580401 
0.0004856894357164839 
-1.260771530625432e-05 
-0.0004268271192656911 
0.0001270017025614471 
-0.0003881171007744503 
0.0005681328238801906 
0.0004872471778283743 
-0.0002047558108178078 
0.001390727985546116 
-0.000128505050575272 
3.546007300928215e-05 
0.0001362081642252609 
0.0001435497750961659 
-0.0002710313592194729 
-0.0002991735743439148 
0.0001075560381674588 
-8.430374380526575e-05 
2.429484188244186e-05 
4.448139744158223e-05 
-7.830952375577966e-05 
1.307253985867231e-05 
-0.0008288729751788597 
-0.0002216965640674896 
-0.0005277857264502347 
9.274569972859209e-05 
0.0002997191135621917 
0.00135009473024261 
0.0006147297184161868 
-0.0008005224036809045 
2.060999137192896e-05 
4.695101699959316e-05 
-0.000298898276329657 
-0.0002111116539110529 
-0.0001490483171903506 
-0.0004997761378427594 
-8.27224367462318e-05 
-0.0003036861860827583 
0.0003468504486525938 
-0.0002079764674941012 
-7.537965527104704e-06 
8.237007304481656e-06 
-2.342270563425139e-05 
3.800654689429416e-05 
-9.487727231474461e-05 
0.0001421948129468926 
-7.67915872524935e-05 
0.0003367115436535351 
-0.000380711678118691 
0.0006290720177246045 
7.572048344250922e-05 
0.0001100998736267225 
-4.324119913800937e-05 
-1.669424679088222e-05 
-1.900435056171142e-05 
7.404491559944056e-05 
2.381857079071284e-06 
0.0004174416707136626 
0.0002488446192208603 
0.0002518671915912526 
2.615025953494898e-05 
0.0001946008260443915 
0.0001762287713152431 
-8.598558358571798e-05 
2.517130590804589e-05 
-5.640192078243138e-05 
-9.578218345033789e-05 
0.0001255283504007409 
-0.0005212865829021146 
0.0009765914483449187 
4.647566374353243e-06 
-0.000162791055667718 
-0.0002976201929819892 
-0.0003186520610714381 
-0.00025004487235613 
0.000745794805060191 
0.0001429718288729202 
-0.0001383292068012226 
0.0004392961170949599 
-0.0001827471617275772 
-6.608172383010819e-05 
1.445072227271137e-05 
-0.0003530921849691558 
-7.590695239629857e-06 
-0.0001823831436320908 
-0.0002184798373273402 
-0.0004402647652308145 
2.754514082777801e-05 
3.18188853328885e-05 
-2.403779606649938e-05 
-1.613791461934332e-05 
-4.436005122018301e-05 
-0.0002320238713848195 
-0.0001826783310230951 
0.0003616304339541534 
0.0002119432453323732 
0.0001670127308704161 
0.0001530755986330189 
-5.401420525541713e-06 
0.0001828638019490871 
-4.494566947420345e-06 
-1.161679152488794e-05 
-0.0001540571841963149 
0.000105453396906434 
-4.877374450961954e-05 
0.000254831949071235 
-0.000198330838119138 
0.0006466048411747652 
-0.0001235488749929667 
-1.048777138352042e-05 
-6.824785930539558e-05 
-0.0004345148287792151 
0.0005073707796380632 
-0.0001657777312716955 
-3.437197057332704e-05 
1.862759521131658e-05 
-5.590331158977069e-05 
-0.0002439111066717043 
-2.493593682980646e-06 
-0.0001380843905860581 
2.723404351418498e-05 
-0.0002628568723304727 
-0.000213156416299702 
-0.0006931358185833172 
-0.0002425253638345579 
-0.0007574057299307019 
-0.0001268249574825043 
0.001304232340105508 
6.39795621159818e-05 
-7.2732677905877e-05 
0.0001221966242467339 
0.0001669862412777877 
0.0001136958684909636 
-3.604339117522735e-05 
-3.087265312645769e-05 
-0.0001615628823043461 
9.371199083156997e-05 
-0.0002132194861473165 
0.0004451682469127701 
-3.307037518833592e-05 
-3.459875623962417e-05 
-6.185008701234669e-05 
-4.176756208587279e-05 
0.0001609615301310919 
0.0002754055131601379 
-2.739575481711041e-05 
0.0002393139826548782 
0.0006470747967029023 
-0.0002203275319186972 
0.0003664327614180808 
-0.0001414864650244269 
-0.0002135814110554376 
-0.0003179968939609399 
-0.0005482765453355921 
-0.0002028171511130405 
1.679110020010047e-05 
-0.0004747205528097731 
5.586626287239629e-05 
-0.0003911703354502705 
0.001007776245233408 
-0.0002287038256445779 
-9.930377035606568e-05 
-0.0001918023854420592 
-0.0001685719625364335 
9.964659763356713e-05 
-0.0003856829558784453 
0.0002562855494652972 
0.0006419491991897421 
5.943218477612788e-05 
7.384996779247855e-05 
0.000976408519683214 
0.0003645594847569305 
-0.0001005096508298369 
-0.0002040210299822733 
-0.0001509625529674638 
9.699059595384182e-05 
0.0001663430334149711 
6.773599533993883e-05 
-6.474817900567351e-05 
0.0003682841110848485 
-4.177632524582067e-05 
-0.0002225637458576055 
1.550875017111887e-05 
-3.182042605187424e-05 
-5.500626528435423e-05 
-0.000147913154756341 
-0.0002756602303716648 
4.238292675402555e-05 
-1.025751693760996e-05 
9.591791728871968e-05 
0.0002363821888235536 
-0.0001955784932928797 
0.0001238887299469989 
0.0008657914430221996 
-0.0001743280511284979 
-3.425381576467423e-05 
0.0001312850787532492 
-2.533172126203829e-05 
0.0001154793256384547 
0.0003804050774288742 
5.781158607320066e-05 
0.0001047503948593764 
-0.0001335529670549821 
-0.0003253489498026323 
5.465375309225135e-05 
0.0002225137784296878 
0.0002517326238613276 
-0.0002584013472911343 
-0.0001398617868426279 
-0.0002420002700764119 
7.968339667073185e-05 
-0.0003693204954567502 
-0.0002233710820953857 
8.57500216646008e-05 
0.0004269015044294068 
-0.000223164290218414 
0.0002337408465429236 
-0.0004360955796250906 
-0.0001136271733365619 
0.0005211967971594492 
1.157419861612525e-05 
-0.0002370254712432687 
-0.0002901680855912834 
-4.867947676233359e-06 
0.0002942232838617876 
-6.570358769184234e-05 
0.0001333155388617558 
6.99621938161385e-05 
2.603673638483995e-05 
-3.329600164795719e-05 
7.515844331493492e-05 
-8.172021041921357e-05 
-7.09642556218226e-05 
0.0005077188144277892 
3.564635220324233e-05 
-1.763591363355396e-05 
-9.009631346066528e-06 
0.0002026818009172243 
8.707526150078439e-05 
0.000230157042730405 
-0.0009621206998750509 
0.0008247760332783351 
-1.287562602543408e-05 
5.330752003186387e-05 
-7.573611036977973e-05 
-0.0002554042464436702 
-5.522702821600273e-06 
-0.0001928183111789217 
-6.410570887915679e-05 
3.087044769973303e-05 
-0.0004902686253522999 
-0.0001901274448709501 
-0.000449306019712131 
-4.74074964550536e-05 
-0.0003039416118252932 
7.009309326474962e-05 
0.001218066859543595 
-0.0003694739682838819 
-8.824355574335762e-06 
0.0003181334385714144 
0.0006459447976936096 
-2.882450922629145e-05 
-0.0003006141109481286 
8.085752515130328e-05 
-1.548122103785836e-05 
0.0001545237204259002 
6.582083376407955e-05 
-6.292896613911949e-05 
7.980962100900391e-05 
-0.000134334712154288 
0.0001857815941263498 
0.0003408646893471727 
-0.0003042205795767015 
6.096001501408053e-05 
-0.0004032908417929303 
0.000194813462947004 
3.377900141786e-06 
7.500852467474648e-05 
2.398793443810915e-06 
8.780416411032456e-05 
0.0006895792188069266 
-0.0002905276770981504 
-0.0002308060874040085 
-0.0002992888660917315 
0.0001266623174129299 
-0.000138032430289622 
-0.0001423061541946449 
-5.356026478258992e-05 
0.001623150121794422 
-0.00109334614680837 
-0.0002108643912497774 
0.0002123374084351587 
6.793378057947445e-05 
-0.0001316328214117136 
-0.000319650213901139 
0.0003349191591329156 
0.0002074826021406714 
1.651872075425319e-05 
-7.80152022707478e-05 
0.0001948531043438063 
-0.0001567728798574155 
-0.0001283149526437749 
2.771287692108244e-05 
0.0001033642334445672 
7.268516148007439e-05 
0.0001303707867976998 
2.399675022316418e-05 
-7.186119653134376e-07 
-3.648796831587558e-05 
0.0001684407381995932 
-0.0001316961962953254 
-0.0001160068067863062 
-9.628160443855663e-05 
0.0003622955420311975 
0.0004361331556404146 
1.112657756009867e-05 
0.0006789418610372994 
0.0001916768898075361 
-0.0002699934655182981 
-0.0003819043461576221 
0.0003919594617561405 
-0.0001184303628226479 
-0.000314076157313906 
-3.463276322336155e-05 
8.537622507281251e-05 
-0.000100504973491482 
-7.874239645670633e-05 
0.0001450766698623632 
0.0001635295080604769 
5.235225443579251e-05 
4.132538336232736e-07 
-6.87939149828175e-05 
-2.342561412782949e-05 
-0.0002601499975075835 
-5.269831524031001e-05 
-0.0001267157438794727 
1.710983166326653e-06 
-3.9265928768304e-05 
-0.0001942605435031343 
-2.806125497679416e-05 
-0.0002187175340686886 
1.652501681947558e-05 
9.419636767115855e-05 
0.0002173204588230544 
-4.136913983916505e-05 
0.0002562215743522805 
-6.825371534404962e-05 
-7.921945503326568e-05 
-5.637742055520664e-05 
8.841075859494874e-05 
-4.614231960016367e-05 
6.356616126102733e-05 
0.0002955464542434829 
-1.365358614769813e-05 
0.000684377403819894 
2.471580470606598e-05 
-0.0001065018762042375 
-0.0001734481276679975 
0.0001954128286608996 
-0.0005427400274253024 
1.749712476434862e-05 
0.0002057676427066322 
-2.549465333243678e-05 
-0.0001594897776566674 
0.000197581324838099 
9.1491667945009e-05 
4.921854569160388e-05 
6.696621822381356e-06 
-0.0001648583014853602 
-6.354578391058853e-05 
-3.71065644797898e-05 
0.0001627186066254009 
-9.691653704800147e-05 
-1.939674201044564e-05 
-6.185580025070696e-05 
-0.0001408733829407404 
-0.0002500833076020526 
0.0003385252506929417 
0.0001483293572862095 
0.0003558343403847947 
4.846192522817477e-06 
6.722630147676923e-05 
5.108108729896908e-05 
0.0001162613141978338 
0.0001281344395063037 
0.0003717172375068773 
-0.0001686787234755305 
-4.123514888461795e-05 
0.0001089849843741142 
-0.0001671451036997255 
2.302421023736932e-05 
-0.0001645923426959698 
0.0001126433494798517 
-8.998301170385506e-06 
0.001023723608043755 
-0.0005084165631142298 
-6.896626741162478e-05 
-5.904518421994074e-05 
3.033479462541168e-05 
-0.0003843399024969325 
-1.066449013514549e-05 
-2.27830039752639e-05 
-0.0001661378711307419 
-7.358033765404827e-05 
-0.0001206366054527329 
0.0001604783993569785 
-0.0002787492719656153 
-0.0001051131328061978 
4.132538336232736e-07 
3.811415810027677e-05 
2.621996233660814e-05 
-6.559275893888845e-05 
5.842223179202686e-05 
-8.902739689182667e-05 
6.062994560882106e-05 
-0.0001137467031019052 
-0.0001165846394052865 
1.065193559252917e-05 
-0.0001033547980325771 
-2.037683955010251e-05 
4.943198141450732e-05 
-1.085902760850084e-05 
0.0001639165958538659 
-6.976926674708838e-05 
-5.7049965601718e-05 
-0.0001078886888672535 
-1.082364689761736e-05 
0.0002688122813075176 
-5.413721917236361e-06 
5.811420017489599e-05 
-0.0002078175557434576 
0.0001922888873611661 
5.000843334562386e-05 
-7.267142350788223e-05 
0.0001617700834315348 
0.0003754974718528102 
-1.853819570667191e-05 
0.0001357003434241117 
-2.680159893343931e-05 
-0.0001116962288782121 
-0.0002077337323752207 
5.692733134782455e-05 
7.217333400698063e-05 
-0.0002736025154503836 
6.281501189085827e-06 
-5.213772591174017e-06 
5.625111314621762e-05 
8.181963552008044e-06 
-2.780477297175788e-06 
-0.0002593140595813366 
-0.0004575043637631108 
0.0001337992389984163 
-3.263756995427822e-05 
-0.0001646363048319875 
0.0001494255790729163 
-2.144895889507227e-05 
0.001398542224592666 
5.306183844472738e-05 
-0.0007204802181565078 
0.0002098299629703057 
0.0001201731133486363 
2.961344399793438e-05 
-0.0002833331029684381 
-0.0001061299667746268 
-2.373038473915514e-05 
7.438096855054866e-05 
6.803889858205252e-05 
0.0001178568615978759 
-0.0001192778831538318 
0.0002282095276005287 
-0.0002593473495369436 
0.0005964030681707592 
-0.0003727986741699089 
6.272298599101998e-05 
0.0001136713518650106 
-3.774834640886559e-05 
0.000430497386318057 
-0.0001488910015228535 
0.000554154191005146 
-0.0002030333035259926 
9.647045587935848e-05 
0.0002732561689453641 
0.0002195530720371486 
-5.493427757724317e-06 
0.0002765480913497036 
-0.0001602391244227229 
-0.0001648750647022803 
-4.415884297902969e-05 
2.894222518571969e-05 
0.0005823105089345856 
-0.0001107791040844582 
-0.0004827497834338143 
-0.0002645235078795792 
-1.730136650746258e-05 
6.446300645634102e-05 
6.143808139469597e-05 
2.117198298591429e-05 
0.0001671867780854883 
-4.231575027024343e-05 
-2.086200207859026e-06 
-2.909093676952225e-05 
-3.693850782275148e-05 
-0.0001949291806155948 
-0.0001924548542526466 
6.869484649271441e-05 
-8.335213158412598e-05 
-0.0002715506328774214 
0.0006832658369478203 
-0.0001100465565078283 
-0.0002426548054550295 
0.0002986094359486505 
0.0001885739477138235 
-9.749044505033687e-06 
-9.851357293008901e-06 
8.98298379531219e-07 
0.0001089389829902592 
-1.805307499098231e-05 
-4.77252718962894e-06 
0.0003741551317529121 
3.224304364534382e-05 
-0.0001610380708217106 
-2.072782145626283e-06 
-5.54692147136212e-05 
0.0002463956720072471 
-0.000100189062462043 
4.15370458855561e-05 
-0.0003926158967106515 
-9.435403166564779e-05 
0.0001219644967249281 
6.114475655552352e-05 
5.762845227296202e-06 
4.80555185459714e-05 
-0.0002341440555051934 
5.361077539125059e-05 
0.000157074478709253 
-0.0002590325593902731 
-0.0001682714344483724 
-0.0003735501305227261 
0.0001048059906148247 
1.580790696332107e-05 
0.0004178297942965084 
-0.0001188435361975413 
-0.000124720583241357 
-0.0001116791544111947 
-0.0002302065468928599 
-1.126507527683025e-05 
0.001008048606247086 
-0.0001345959886872248 
-0.000278424255471226 
-0.0001113374642778515 
2.77443063321023e-05 
-0.0001981308544980731 
-3.236011253079545e-06 
0.0001135609832038984 
7.736730682598796e-05 
0.0001792672719381097 
6.904162090256892e-05 
-3.05728383045864e-05 
-0.0001922941157064461 
0.0001777060020576413 
9.687698249058292e-05 
3.388902827486116e-05 
3.532965931238731e-05 
-3.156356782170817e-06 
2.934226996560339e-05 
-2.830335628292963e-05 
2.491141539664572e-05 
0.0001490378665325745 
-6.879162369958013e-06 
-0.0001654587161740286 
2.449434395075573e-05 
0.0001097227639634013 
-0.0001288441289989477 
-1.841872590663984e-05 
3.643221825417113e-05 
1.621150416780212e-06 
0.0002789599035959057 
-0.000623434728019723 
0.0001331423641824622 
8.806679497262705e-05 
0.000323252245520067 
0.0002083706488800178 
-6.079680199706468e-05 
0.0004143281353373058 
6.018044981695157e-06 
3.091633842485933e-05 
-6.974522062197078e-05 
0.0001135282974302202 
4.71049177567333e-05 
-0.0001340292734995358 
-0.0002496326361643002 
1.786358710670926e-05 
-3.811654054255694e-05 
5.370543940817901e-05 
-0.000159985848804826 
-8.300865965121089e-05 
9.803108331808187e-05 
0.0001520668841666689 
-5.093583644625188e-05 
9.364042663062177e-05 
-0.0001908951303155908 
1.891497138235298e-06 
-0.0003382530600285509 
-0.0001657834640009155 
0.0001281674389178837 
0.0003693237607690902 
-0.0001046727153119672 
-0.0002070728327843133 
6.459056242888088e-05 
-9.462837020486895e-05 
-0.0002852710541755426 
-0.0001676182681000432 
0.0005020830523468929 
-7.734204133363703e-05 
-0.0002163601144152029 
2.108968803752648e-05 
-3.950427826911611e-05 
-0.0002309448389185944 
0.0002486904666734348 
0.0003462909316224003 
0.0001104715442235607 
0.0001331618955003852 
-6.979266801347097e-05 
-4.379449169104223e-06 
-9.825157795934373e-05 
-6.737778149647569e-05 
-0.0001663520917377491 
0.000532896626788865 
-2.01327180359806e-05 
0.0002106915043046104 
-1.003866560273509e-05 
0.0003273014602216834 
-0.000767272982421562 
0.001011006479993384 
-0.0002063424493220567 
0.0002759246998701263 
-6.139316212268516e-05 
0.0001411701767782681 
0.0002033926072248013 
0.0003768631123086146 
-0.0003001526047673932 
0.0005733188863083133 
-0.0004585665679718436 
-8.011566605324293e-05 
-0.000138344314292217 
-9.042443950692901e-05 
-6.56335246653949e-05 
-4.567030380070923e-05 
2.717470749899012e-05 
-0.0001480792717213978 
3.405554445324028e-05 
-9.943389879768181e-05 
9.020766295615736e-05 
-3.752079843597765e-05 
0.0001377343078668397 
3.808461245302844e-05 
-3.312746000702493e-05 
-1.078699481904048e-05 
-3.436334474451838e-05 
1.715055320992635e-05 
0.0002443757718912771 
-8.872124315884699e-05 
8.567573736812672e-05 
-0.0001482065244723193 
-6.244312121637064e-06 
-0.0001466169846360537 
4.181414989273924e-05 
1.798747882181156e-05 
8.851561323774735e-05 
0.0002104041991974854 
-0.0001765920652508129 
-0.0001934240614707513 
0.0003608081036832815 
-0.000216362287497538 
-0.0001057585008648249 
9.875435790234076e-05 
-4.055022984434996e-06 
0.0002605079220380236 
-0.0003042693155283394 
0.0001097268335647008 
-0.0006902961910903152 
0.0002717187865523684 
0.0004508175232626374 
-0.000231816824649842 
-3.553049523028055e-05 
4.479757343863663e-05 
-0.0002035153548088808 
-9.410787036111579e-05 
6.930645099089891e-06 
-8.865281199050246e-05 
0.0001135146403007575 
0.0001105574264187159 
7.801283136523711e-05 
0.001085465670732409 
-0.0004520704253902337 
4.095807746783912e-05 
-0.0001582000788712011 
0.0002443520623576659 
-0.0002502409337686272 
-0.0001873309975147316 
-0.0003752518716854944 
-0.000122668457130282 
-7.424857082644979e-06 
-0.0002226500095121525 
0.0001472106996815832 
-1.472561831490496e-05 
1.743133761342738e-05 
-0.0004965523373818895 
0.0001488153933980711 
0.0008525741450737199 
-5.799051959883177e-05 
4.273923066772136e-05 
-7.955489029502252e-05 
-0.0001120033971675027 
3.489566543510528e-05 
0.0001300338839144897 
-9.172505697063239e-06 
0.0002322286954693342 
-4.618914826667246e-06 
-0.000292179819521131 
-0.0001272085804809751 
-4.746648823769608e-05 
-7.134067537472006e-05 
6.731463824454715e-05 
0.0005012149081586766 
0.0003223926901948747 
-0.0001511530174760544 
0.0004885099288286354 
-7.368203194733875e-05 
-6.118181285575349e-05 
-0.0003114699744037903 
-0.000394266160482504 
0.0001056736325064792 
3.256761904300253e-05 
-0.0002840158818898179 
0.0001662466236194466 
-0.0001844508579332914 
0.001091479106841032 
9.250506343460618e-05 
-0.0001061154118044486 
-2.644315610325103e-05 
0.0002550758864227124 
0.0003783642741792878 
-0.0002903277739488551 
-0.0001005796822476192 
0.0002217754040882266 
0.0002039901705079477 
0.0001335929321346982 
0.0002091128715849197 
-0.0003458719215505743 
9.31981158374987e-05 
0.0005185500132685749 
-0.0001562774592264864 
-0.000213078234619473 
-1.599717047331716e-05 
-2.536877619311249e-05 
9.847799863687594e-05 
-0.0003968641773482253 
-4.862520840528298e-05 
-0.0001240147115719191 
-4.456844961407631e-05 
1.465896915337466e-05 
-9.941857405737468e-05 
-7.461736405323506e-05 
-0.0002147284531216216 
-0.0007861136151578541 
2.455766472145766e-05 
8.532354417502482e-05 
2.11758500115026e-05 
-3.775905917472937e-05 
-0.0002058850931098374 
-0.0003684234177414275 
0.0003090083820293999 
-0.0002194779972867548 
0.0005460462841376336 
0.0004774346359604825 
-0.0001556896125806459 
-0.0003469804070669392 
0.0002918989143247986 
3.619689417278577e-05 
2.103452682445459e-05 
0.0001299826637806852 
5.531461985360665e-05 
-9.918003764857894e-05 
-0.0001823471798789144 
9.519994201377017e-05 
0.0003003050512372212 
-0.0001881988867678086 
0.0006577773568256158 
0.0004569912629818184 
7.373167940161372e-05 
-0.0001312707852451852 
4.830104578198605e-05 
0.0003125035835036823 
-9.505910819751949e-05 
0.0001066652823880227 
6.907792363627843e-05 
0.0002650744257648247 
0.0002223515369129506 
8.727377239184597e-05 
5.262450958509106e-05 
-0.0001111293907555305 
-0.0007667756446739918 
-0.000150898716942889 
-6.373467912988458e-05 
-1.626388996553086e-05 
0.0001797528952503709 
-8.506374024257948e-05 
0.0002016788605145221 
0.0001637736221760966 
-5.785129834251659e-06 
-0.0002423469534527127 
-0.0001342953787606212 
-0.0002497397259773278 
-0.0001650421763907796 
7.536358669225392e-05 
-1.471868947402251e-05 
0.0002313210768489537 
-0.0003239239457778062 
-0.0004278413684295711 
0.00108066431969853 
0.0003365631165166114 
-0.0001311362117620485 
-7.255498794696157e-06 
-0.0007845703150050614 
0.0002693663402250901 
-0.0002071851043163077 
-0.0003662473133571786 
7.004993753153113e-05 
1.832791307385273e-05 
4.262482459966691e-05 
1.308677999603738e-05 
-0.000258319532946133 
-6.118105167025363e-05 
0.000362106754421836 
0.0006963441438129684 
-8.357768080544266e-05 
-3.305624213389594e-05 
0.0001997383178574793 
0.0001365306967557374 
-0.0001061620878683677 
-0.0001830580516563624 
9.754057463506775e-05 
0.0003983666228551057 
8.201895797962521e-05 
0.0001736341106116717 
-0.000285834190967504 
0.000230267408365163 
-0.0006665980400361771 
0.0002164529595398412 
0.0001907828427442697 
-3.705896991819219e-05 
0.0003219093188957719 
1.171663592636994e-05 
-0.0001877731276412695 
0.0001717358775953094 
-0.0001659826591545543 
1.94719145594724e-05 
-3.341113654451709e-05 
-0.0004011684147760437 
8.258809979430475e-05 
2.132528982685647e-05 
0.0001266611312938799 
6.969171357771541e-05 
-4.359280989029611e-05 
0.0002969950377786204 
0.0002558967197959584 
6.740970111506178e-05 
-1.523053934189461e-05 
0.000144429542849552 
-1.405420845422267e-05 
2.868081826506993e-06 
-0.0001852449827865738 
-0.0003274855443168982 
-0.0002892315840008937 
0.0002576228264661263 
-0.0002263189717018777 
1.456488995791476e-05 
4.079425082774448e-05 
5.329691035808035e-05 
-4.029430025398842e-05 
-5.361872302853802e-05 
0.0003435520698505383 
6.150687851388188e-05 
0.0003952783078896814 
-2.903290733227734e-05 
4.909922880389916e-05 
-3.640650440296732e-05 
0.0001067546045201315 
-0.0001554047456047068 
-0.0003456221755542402 
8.45713181217169e-05 
-0.0003280484210409006 
-0.0001142093666326567 
9.739207671973724e-05 
5.227677928547569e-05 
-0.0002983773427303295 
-4.207072055316506e-06 
0.0001804129021374638 
0.0005323886305283737 
0.000333756283882016 
3.105683943351751e-05 
6.266180133080326e-05 
-3.701510878890059e-05 
-0.0001926545365608909 
6.431272096421319e-06 
-5.402136165626451e-05 
0.000288544311304784 
1.841395389873097e-05 
-0.0001562931753959439 
0.0003894351226168847 
-0.0001116108953560719 
0.0005122608785752043 
-0.0001570425178808067 
9.966139845487158e-05 
-0.0003043566502542227 
-0.0003205820629261894 
0.0002167840995865226 
2.962526006130398e-05 
-2.100279101625913e-05 
-0.0009094672017244224 
2.403827808897284e-05 
0.0002488515096199284 
0.0001650952651554572 
0.0001654858667473454 
-8.502101409553164e-05 
0.0002393327777847962 
0.0001062968658365098 
-1.087690747089051e-05 
6.297694983217492e-05 
0.000138805568374339 
0.0001534256230678505 
-2.940006077039636e-05 
-0.0001088529277723869 
0.0001337553364005406 
-0.0001760614038477483 
0.0002257080496438718 
0.0001043382003287035 
-0.0005511874715979089 
-4.876358704079205e-05 
-4.532412893772789e-05 
0.0002721559637155518 
0.0007494975252579248 
-0.0003686225656170169 
7.543123950612793e-05 
-0.0002065594294147385 
3.400222990914378e-05 
-2.503491890649865e-06 
-5.470747364581326e-05 
7.185669582351504e-05 
1.355915326746556e-05 
5.471387456605943e-05 
6.343718805836221e-06 
-0.0005631915710490181 
0.0002261130930456701 
-5.44444697963934e-05 
0.0003064369024670157 
0.0005992557001345713 
-7.221280292292062e-05 
-7.044568113778339e-05 
6.964269578519295e-05 
0.0001098022580523014 
-0.0001913346389277013 
0.0001868646470816869 
2.339212610769435e-05 
-0.0002909570551355685 
-7.908033195855443e-05 
0.0001210153708081227 
-0.000139904741106239 
-0.0001563761915712002 
1.387128802416636e-05 
0.000165340694278553 
5.785821233729513e-06 
-7.844944268434325e-05 
-0.0004085135482976263 
-4.171476265755705e-05 
0.0002677570778297917 
-2.945756871583197e-06 
0.000208587229942979 
5.571489834360984e-05 
-4.809734764107337e-05 
-2.528219556603457e-05 
0.0001913983735551443 
0.0001076079509277783 
0.0001512085580141848 
-8.07431038188544e-05 
0.0001138407663353607 
-0.0001964404104585183 
0.0001241938192471929 
0.0003380384725964041 
6.672674125445773e-05 
-0.0001156098789210153 
0.000155146656352379 
-0.0004260945361345885 
0.000304480373114061 
-0.0002140672492176007 
3.634607008387398e-05 
-0.0003576301212022005 
-5.206805079116042e-05 
0.00108343453511479 
6.297130791386475e-05 
-1.989897634933113e-07 
-0.0001632119154884509 
-6.083330472102382e-05 
2.609568756892103e-05 
-0.0005298912867840027 
-3.572583330232435e-05 
7.500218811672059e-05 
0.0001165237058426556 
-5.180509552264099e-06 
-0.0002038275161138899 
0.0001806709420132573 
0.0001321499933603698 
-4.665323752897763e-05 
-0.0003435804438391375 
0.0003069058798092526 
-4.598084039984611e-05 
0.0001935600433386134 
-0.0001049519878562921 
-0.0002624254603077299 
0.0001816472919491306 
-0.0001264981408359953 
-0.0005151490972607554 
-0.000275144632148096 
-0.0001737648593719807 
5.573382921159287e-05 
-0.0001783851834705806 
0.0001792373495834435 
0.0005336674092766306 
-3.228733210305652e-05 
0.0003684138760183391 
0.0002182442166371182 
0.0003352654533199498 
-0.0002432577348245403 
6.713417328702607e-05 
-0.0002973068485771463 
-0.0001900091094505591 
0.0003226412890838642 
-0.0004443556962605113 
0.001124012439475202 
-2.394663916327853e-05 
-0.0002006395336260145 
-0.0003374882551606867 
0.0001471740145093551 
3.361302972639081e-05 
1.671379003864321e-05 
-8.399431977653554e-05 
0.0002005067742385586 
-8.785012209351051e-05 
0.000202987071915176 
-1.582194508287122e-05 
0.0001510989780426608 
7.608117836699788e-05 
-0.0002309876967223972 
-0.0006864595453714614 
0.0003980653762693861 
0.0003245299001815566 
4.959197636950803e-06 
0.0001446620839813593 
-0.0004488275973103593 
-6.377765934534435e-06 
0.0001044465840867215 
-5.450561258940773e-05 
-0.0001371189347077736 
-7.960241185603624e-06 
-8.914160562328044e-05 
0.0001056771161967788 
2.782475761810227e-06 
-3.46933421383795e-06 
-8.153405901034588e-06 
-0.0001043051746912948 
-0.0002565273879036026 
0.0001898646298786142 
-9.142223411616978e-05 
0.0001590459406288631 
-0.0003092104527840365 
0.0004031039551164265 
0.0005958630649381807 
-7.052842809955107e-05 
0.0001874792404295045 
-0.0002713368045688628 
1.820499791983542e-05 
1.506242118597729e-05 
4.273026841449653e-05 
1.743567171043016e-06 
-3.542197785898196e-05 
0.0001497961350648353 
-7.211119321864809e-05 
-0.0002298746436900129 
0.0002803379000322077 
-2.858899764891783e-05 
-3.782630653236463e-05 
0.001487557587287477 
-5.766381825752559e-05 
-0.0002347043171028153 
-0.0002866083241818489 
-0.0001452070664577051 
-0.0001760190067954174 
0.0001585399147196852 
-4.805682293233973e-05 
-0.0003491799406957929 
0.0002487730584468227 
0.0002744979336836284 
-0.0006741298887218011 
-0.000132885480137206 
-4.167400929568676e-05 
-0.0002633212360755227 
1.799290363911263e-05 
9.12291281885125e-05 
-0.0001803197705612311 
-0.000231148503632118 
0.001151591601711391 
-2.668632865295232e-05 
-1.480998774327201e-05 
0.0007131164379793938 
-0.0003375632984148219 
3.494070696074497e-05 
3.701745413205182e-05 
3.49277232597495e-05 
5.249144844232128e-05 
5.152722743201976e-07 
7.946592213836541e-05 
5.090324585551135e-05 
0.0002382841252542789 
0.0004068341525615048 
-0.0008967187103517673 
0.0006732832527609804 
-0.0006378854695429046 
0.0001943861104056892 
-0.0001887407316051399 
